encog,BasicNetwork,java,3.4.0,1,1589189866966
[BASIC]
[BASIC:PARAMS]
[BASIC:NETWORK]
beginTraining=0
connectionLimit=0
contextTargetOffset=0,0,0,0,0
contextTargetSize=0,0,0,0,0
endTraining=4
hasContext=f
inputCount=235
layerCounts=236,21,41,41,236
layerFeedCounts=235,20,40,40,235
layerContextCount=0,0,0,0,0
layerIndex=0,236,257,298,339
output=0.9999999989,1,1,0.9999999891,1,1,1,1,1,0.999999999,1,0.9999999851,0.9999999904,0.9999999875,0.9999999776,0.9999999976,1,1,1,0.9999999242,1,1,0.99999994,1,1,1,1,0.9999999934,1,0.9999999851,0.9999999999,0.9999999481,0.9999999244,1,0.9999999857,0.9999999931,1,1,1,0.9999999993,1,1,0.9999999301,0.9999999685,1,0.9999999983,1,1,0.9999999826,1,1,1,1,1,1,1,1,1,1,1,0.9999999235,1,0.9999999584,0.9999999553,0.999999986,1,1,1,0.9999999755,0.9999999991,0.9999999893,1,1,0.9999999748,1,0.9999999994,0.9999999998,1,1,0.9999999998,0.9999999989,1,1,0.9999999298,1,1,0.9999999722,1,0.9999999996,1,0.9999999974,1,1,0.9999999744,1,1,1,1,1,1,1,1,1,0.9999999957,1,1,1,0.9999999866,1,1,0.9999999987,1,1,1,0.9999999798,1,1,1,1,0.9999999863,0.9999999615,1,1,1,1,0.9999999992,0.9999999977,1,1,1,0.9999999668,1,1,1,1,1,1,1,1,1,1,0.9999999999,1,0.9999999733,1,1,1,0.9999999953,0.9999999904,0.9999999966,1,1,1,1,1,1,1,1,1,1,1,1,1,1,0.999999986,1,1,0.9999999664,0.9999999381,1,1,1,0.9999999991,0.9999999451,0.9999999847,1,1,0.9999999983,1,1,1,1,1,1,1,1,1,1,0.9999999979,1,1,1,1,1,1,1,1,1,1,1,1,1,1,1,1,1,1,1,1,1,1,0.9999999998,1,1,1,1,1,1,1,1,1,1,0.9999999972,1,1,1,1,1,1,1,1,1,1,1,1,1,1,0.9999999999,1,1,1,1,1,1,1,1,1,1,1,0.9999999995,1,1,1,1,1,1,1,1,1,1,1,1,1,1,1,1,1,1,1,1,1,1,1,0.9999999999,1,1,1,1,1,1,1,1,1,1,1,1,1,1,1,1,1,1,1,1,1,1,1,1,1,1,1,1,1,1,1,1,1,1,1,1,1,1,1,1,1,1,1,1,1,1,1,1,1,1,1,1,1,1,1,1,1,1,1,1,1,1,1,1,1,7,4,5,7,5,7,2,8,5,5,6,8,10,5,6,5,7,3,4,4,8,8,6,7,5,6,3,7,6,3,3,9,6,8,8,7,6,5,5,6,8,5,3,13,10,6,5,9,7,5,1,7,11,5,8,5,7,4,8,10,9,9,1,8,6,5,8,13,4,6,3,5,4,8,6,12,9,9,5,3,5,14,9,11,4,5,8,4,8,8,9,4,6,7,6,7,4,8,8,5,11,5,6,8,8,6,7,3,15,2,6,7,9,3,5,4,7,9,3,9,6,6,12,6,8,6,9,5,10,7,1,1,1,1,1,1,1,1,1,1,1,1,1,1,1,1,1,1,1,2,1,1,1,1,1,1,1,1,1,1,1,1,1,1,1,1,1,1,1,1,1,1,1,1,1,1,1,1,1,1,1,1,1,1,1,1,1,1,1,1,1,1,1,1,2,1,1,1,1,1,1,1,1,1,1,1,1,1,1,1,1,1,1,2,1,1,1,2,1,1,1,1,1,1,1,1,1,1,1,1,2,1,1,1,1,1
outputCount=235
weightIndex=0,4935,5755,7395,16835
weights=##0
##double#16835
   1.1959729103,1.2664115571,0.8518061103,1.0748180148,0.8535150893,1.5220144874,1.2829214638,1.7249068424,0.0790625442,1.7941678979,1.2056952497,0.8879185322,1.1641094287,0.095791963,0.2312251047,1.4317222057,0.4420677562,1.2909972181,0.4289674749,0.9045764542,0.9450627611,2.14800722,1.9599973791,0.9136244568,0.7376624264,2.3252245938,1.0652629075,0.7897140327,1.9359751016,2.0745711094,1.7169158531,1.0276022275,1.3888588548,1.2733752511,1.0140768763,1.6771681016,2.3444872859,1.3514922214,1.1869307719,2.1696087272,2.0547048224,1.0571367805,1.0927513432,1.221347204,1.403533354,0.9951536291,1.0736628343,1.8647982743,0.7490793573,0.9829941161,1.6085647853,1.9163624998,0.6296730383,0.8599532216,2.4282229987,0.9346822892,1.556070608,2.4060788908,2.2130990866,1.5410446968,1.9303884845,1.2078130078,1.7467169004,1.8543396078,0.1462113052,1.9230171088,0.4640746365,1.4370761891,0.3134156631,0.1516979894,1.7052220561,0.7712437782,0.5120292646,1.4748946286,1.9138382274,0.361156518,0.2276307574,0.1099977697,1.1295064475,0.7258986891,0.4213397345,0.1518243791,0.8330014504,1.7066884844,1.0985156854,1.859450833,0.5559714401,1.6099635376,1.9131053893,2.2197223088,2.2281036944,0.8894233252,2.1739798033,0.9503606334,2.1015112715,2.1861605957,1.6310331983,0.7374202749,0.9476778919,0.5640772505,0.7687671184,2.2916239948,1.2940856773,1.8204469361,1.7565773307,1.0087357736,0.7170249318,2.2382923377,0.6685293727,1.159756528,2.3468093847,1.2768595498,1.6338101476,1.5006212294,2.0671452051,2.0980937843,2.1956438318,2.0176055633,0.7878701817,1.9454364198,1.0730449134,1.893368425,0.9271563303,1.1205485869,1.0582116825,0.3157105002,2.1162272327,1.4927128219,1.6495276006,0.5199069225,1.6546859015,1.136530667,1.1491673912,2.0323828322,1.8012399792,2.1220559827,1.3982881892,1.3048856439,1.7702425494,2.2784657323,1.7127248154,1.7507292741,1.6340313084,0.8774239339,2.3152256781,1.9085225642,-0.2362622219,1.9568984918,2.2764464921,1.2475126208,1.6540045447,0.6851320357,2.1040711628,2.3864162794,1.543911825,0.6875920196,1.5948184917,0.9786960774,1.9762528556,1.7151702504,0.6675833133,2.1894977364,0.9598199248,1.8108596916,1.8252171359,0.7823434073,1.9009559943,-0.1446301554,1.9842674734,2.1873553698,0.9467480834,1.0216121432,1.2153398005,1.2964406307,0.8255846441,1.248669993,1.4933577908,2.1321616269,1.5147740123,1.1884431611,1.4200979205,0.5877588025,0.8467480698,2.1170492351,1.379264271,2.1057318639,2.2175553482,2.0903505906,2.1374756685,0.3484505268,0.8403643805,1.7796580814,0.5760990798,1.1812147722,1.6862365039,0.9708186843,1.052404141,1.2324661341,1.4794328149,1.1095145461,1.6305284615,0.4890420866,0.7967624893,1.8361043922,0.1774682199,1.3164795752,0.5958911927,1.4526955006,0.3875457032,-0.2579667731,1.2218109617,2.3248780774,1.0205197379,0.8619455077,1.6701482877,2.1543935279,1.1187691859,1.0542770202,1.7547734539,1.9048089752,1.3338027995,1.5684360984,2.1564737931,1.0108144726,1.1714216593,1.6943038767,1.8780028489,0.8566282873,1.8897661835,2.274309517,0.3347225809,0.2150968013,1.4405349235,1.2689136585,0.7648262663,1.5416587385,1.4429601624,0.4552486817,1.123949045,0.1811671179,0.2724542038,1.356410016,0.3206989838,1.3020721357,1.9260724326,1.0943810031,1.0604839111,0.9829639839,0.3438725942,1.6600763585,0.7143695467,-1.4475841578,1.0258731498,0.3979304371,0.6920973872,1.8317851045,1.6388198287,0.2186561754,1.6062852074,1.1430680915,0.6282042817,1.440167187,0.1957303703,0.7213999943,0.2414557126,1.7507230957,1.7261396936,0.2161388946,1.1482724419,1.8023767023,0.7194013171,0.1585718842,-0.8372682399,0.4118313522,0.8159220211,0.5153209585,0.195593334,1.3827024914,0.5245094191,0.3308717616,1.6854430161,1.3275860458,1.7284220374,0.7847794853,1.1333513048,0.9451192689,0.266072883,1.5583726661,0.8668990344,1.1674754432,1.1226159696,1.0847476944,0.3023451676,0.0503901651,0.726017547,1.3918534786,1.5798336555,0.7545402088,0.5166415694,0.5763037902,0.8458526628,0.4057891604,0.5664660852,0.9780885003,0.5376252232,1.3033084218,1.2317894394,1.7217124326,0.7527419201,1.3165868375,1.7358103589,1.2612453929,0.7456187315,0.1715133103,-1.505486029,0.5711019649,0.3988072487,0.0834043412,1.1591281692,1.0820901292,1.78585937,1.5142443603,0.4524535011,1.040607236,1.7336259675,1.5556085736,1.1733144621,1.7847576949,1.4112195755,0.3561933441,1.6993285693,1.1496241053,0.5486331452,0.3802636416,1.6850811593,-1.7051935323,0.5101312225,2.2993247256,1.0736135427,0.5351315672,0.8883119603,1.3458627805,2.2340771717,0.7802745197,1.1590756678,1.6540658817,1.9202711308,2.2252663315,2.1245040448,2.1755189306,0.6186545757,1.4857390356,2.2463791813,0.5176804149,1.3849587652,1.169401413,2.3372315897,2.3029257243,2.2559447835,0.8479328287,1.1308370773,2.1525592934,1.5755865143,2.2816488132,0.5290135621,0.6079683639,1.5584916214,2.21336002,1.1575974027,0.5596267662,1.8213593061,0.8137855626,1.6140166971,2.1758553131,2.2827799267,1.0736048448,1.0706898786,1.9671245315,1.8359915052,1.242667217,1.7763741105,1.0139236424,0.9538907486,1.6847121645,1.3390071577,1.175652405,1.1142785672,1.9246048753,1.7311712958,2.0540290865,1.8473184746,1.1621729843,1.6717165217,1.3427065298,1.6780396513,0.7634422286,2.3444734664,0.9762513164,1.3194645736,0.9131235734,0.2766188131,1.6187883594,0.8180300559,1.1403259216,0.3900054429,0.748171242,1.2657225677,0.6978420014,1.0681473415,0.5265101934,0.8696256753,0.3063262008,1.4673146023,0.2066480957,0.1655220276,1.1824055957,0.240651924,1.4464337533,1.0382307883,0.0081387444,0.9312743819,1.2769693084,1.5725653665,0.9570139444,2.1318008686,2.4280483553,0.8239854474,1.5903572978,2.024660936,1.6870487624,2.0256911578,1.2891239799,2.1642159437,1.2915675265,2.204497488,2.3919925186,0.9819946577,1.8857858701,1.1863783067,0.9040710872,0.4719822441,0.9133514594,1.0794899648,1.9254136169,0.6480080793,1.8144096022,0.9924449161,2.2697654147,2.1298110625,0.6009776465,1.4117564177,2.1714815519,1.8616975322,0.7715008686,1.3601370645,1.8110528341,1.4676622027,1.9494937738,1.2745500636,1.0415868731,0.914484,2.3508461843,1.7141434785,0.5856090242,1.2105905354,1.1043219887,1.0430441727,1.0406586107,0.7189419126,0.7010608952,0.9113456418,0.5397538193,0.3038604003,1.3591562334,0.2792551735,0.8474685315,1.5170561097,0.7752672304,0.1658901771,0.4056941638,0.1796212714,0.3483372061,0.8786528935,0.5540827815,1.1395361075,1.3474329356,1.6501321797,1.5222562125,1.7612298364,2.1155272308,1.8073981478,0.6869792765,1.6479307348,2.1825782562,0.5254430714,1.1967470246,2.2069625478,1.0933125929,1.0118616607,0.8733658045,1.130110122,1.980519251,1.6999860841,2.1729621956,2.2814200453,0.5774260102,1.0351319238,1.1688177318,1.4217327487,1.755852062,2.3295311753,2.1398900926,1.7208693127,1.9487046024,1.1969423164,0.5398861247,1.218495083,1.213510883,2.0384217449,2.2125055893,0.8760300595,1.7834242764,1.9159151367,1.9619222615,-1.2882263012,1.0918776864,2.3617800907,1.6594743753,1.3647397858,0.7954648293,1.3913640389,1.6605337117,1.7216869781,0.7986427183,0.9731394148,2.2095529974,1.086296844,1.8990368109,2.2363650904,0.7153239045,1.4886742414,1.3070519136,2.2765283214,1.2103806559,1.8237205782,1.2750221034,1.9645220728,0.4421245193,2.172320336,1.3858741974,1.6057851466,0.8626071456,0.6487281271,1.0749168076,1.6546105872,1.7386814688,1.378537618,1.2700786858,1.642946663,1.5331778612,1.2377392223,1.8852104852,1.8578401642,1.1674188491,1.9425095106,2.0547325563,1.3987484384,0.5369292285,1.7620541984,1.1544546791,0.5450549891,1.4533239203,0.5035662809,1.1841533366,1.78915678,0.4301730348,0.1345628222,0.1649978905,0.345008305,1.425496718,0.7971280064,1.7519443921,1.6142454199,0.6462751306,1.4756242399,1.0461577273,1.0822354846,-1.0110976029,1.5067550521,0.9144141346,1.7095452266,2.1807976879,1.0463083238,2.1353449461,1.1169851678,2.1044571256,1.5880591182,2.0839631015,1.5499584574,1.9347088928,0.8516050916,1.6169596599,1.1850927899,2.3110026708,1.8107492302,1.263646841,2.0987482307,1.2109276537,0.5213913576,1.3099308265,1.0979477009,0.924441426,1.6121940648,1.5161634702,0.722830597,0.056067017,0.1396427155,0.9821094119,1.0418510501,0.9472121146,0.3938308496,0.5135888291,0.6888126974,0.8684205728,1.8041576921,0.2407612827,1.0130122945,0.8498200332,1.7605724508,-0.4622120172,0.9553298511,1.8265340812,1.8345826738,0.1695205601,1.2892371893,0.9774662044,1.1374730603,0.4416751684,1.2269318123,1.5330830628,0.9350968095,1.5129638319,1.3288156822,1.2072031663,1.3619649427,0.5813436203,0.7029066444,1.5415880768,0.4176981477,0.8870510465,0.997635464,0.2307333122,0.7917310815,1.4727577175,0.7560831454,0.5363377618,0.9783367062,1.1560527638,1.0464369848,1.4211359191,0.3580778994,1.2887655957,0.1822313574,0.5439333762,0.253368355,0.2983180132,1.6686333434,1.8321034518,0.1302140745,0.9038671168,1.6284130779,-0.7029015388,1.2340201339,0.3967059283,0.5995886487,0.1727386811,0.2230161283,1.6742405515,0.2477485236,0.7349852679,0.4810011852,1.267733088,1.6556563596,1.0569668287,1.2178088057,0.7973568902,0.2324987344,0.8751230997,0.6009596449,1.3515297729,0.5637092262,0.4811977977,0.5326641245,1.6508741288,2.1086160488,1.4579323551,1.6493448942,1.8472713123,2.1839653432,1.2367823675,1.7049866554,0.910012045,1.4782675086,2.1589897634,0.9101767853,2.6179485206,1.2617581672,1.0187764796,2.1974929462,1.3130492471,1.1527086901,1.3953663227,1.2215260779,0.6856528856,1.5600271728,1.4969443105,0.1844121454,0.2414917977,1.5905312423,0.4307400052,1.161834269,0.4839689101,0.5500235354,1.1624370458,1.2231525004,0.2759119852,1.1521035595,1.0897450859,1.2801875474,0.9735522668,0.7591695822,0.3145102903,1.7868957129,0.8463639556,-0.4994862232,0.6918720864,1.0085749761,1.0182292797,0.1317824133,1.281259144,0.0549964007,0.9153166792,1.6630064277,1.7522164953,0.2441243577,1.747350703,1.2491373476,1.3667419977,1.8018002765,0.7298720489,1.7216593596,0.9118923535,1.5407754434,0.05375065,0.4355683986,-1.5302093379,0.8631076963,2.1145278294,1.3825093969,2.206272036,2.2978120893,2.2460109484,1.8348275123,0.8114466023,2.0655543194,1.9800909626,0.9517046143,1.8793264078,1.7556773258,0.8747343937,1.4259016571,0.6985720425,1.4207356962,2.1650809916,2.0613233918,1.6155175748,0.4106863773,1.4268308645,0.9447222337,0.8949370041,2.1906329996,0.7434292067,1.0115531505,1.2080483211,1.6769091218,0.9307073204,2.0190531642,1.9710896725,1.3348173835,1.0925870196,1.93096716,1.9497292315,2.1892463175,2.3843332665,1.9290208694,1.7552049274,0.8449577038,1.2093066548,0.7924044051,1.730423095,2.4100981261,2.4581648968,1.278803088,0.7239683533,1.852871688,0.8570832979,0.8382885238,2.5305196889,2.3504352294,1.8209822627,1.5527832459,0.7818839695,1.4054180321,1.2012011985,2.0768221563,1.9771832442,2.3741291697,1.2024533707,-0.204105328,1.3212149954,0.4033364746,0.1175941241,0.4325122913,1.3532647613,1.818274891,0.3693490095,1.833855114,0.5838633209,0.9718193563,1.394954657,1.6769482209,1.6021333231,0.9143486627,0.5120248961,1.6923529147,0.561109339,0.2231065387,1.1622610846,1.580065524,0.6221969342,2.0001890245,0.6022024769,1.8534837658,1.7950326042,1.4065590786,0.9074855084,0.914064149,2.0662955732,2.0110513406,1.6239741689,2.0106729843,2.2152031504,2.1089709498,1.9807871803,1.8288332162,1.3567631314,2.0558738425,0.6450811585,1.3059250201,1.4143788865,-0.9734274632,2.2914768877,0.9537757441,1.9261941581,1.4444304052,1.0622725988,2.1320426729,1.3652199471,1.358459317,2.0547755411,1.378028996,1.6007055227,1.5983466093,1.8365447844,1.8921660088,1.2870289461,0.7938495547,0.9618680837,1.6334611178,1.4072285549,1.4526381591,1.4899309565,1.0255271403,0.8614640995,0.3606242898,1.1184715311,0.0066959101,1.6326635935,1.4022930106,0.8759157433,1.5855005451,0.2266526069,1.1501827755,0.4575620116,1.0793948655,1.8006420941,0.6346922736,0.742823749,0.3317828651,1.3914505931,0.773826266,0.7435057999,-1.7249403057,1.2689830293,0.5978299591,0.7096859317,0.8427691392,0.9912493664,1.4054650849,1.106706961,0.6411789408,0.5264574839,0.7615507666,0.8079036641,1.8136402649,0.4153516016,1.5739689516,0.0593383565,0.7622076645,1.0720094071,1.7507709103,0.9461518281,0.286333575,-1.0673751234,2.2131035695,2.4278102379,1.9069998136,2.2794614862,1.3443579909,0.6787359072,2.1230291484,2.2182200436,2.1826068296,2.0945479534,0.7053438325,1.441604794,0.8461776092,1.8953112881,1.0483484023,0.788100266,2.0094121023,0.6035802173,0.8488827229,2.0453411532,1.6957218841,0.9394218054,1.3384476288,0.7121432436,0.2825000652,1.4944112511,0.7955798934,0.9389969611,0.8080338765,1.1193059687,0.7141893698,1.138710495,1.5086712096,1.0958935338,0.85316477,0.8602560555,0.4101897517,1.2266291379,1.1731306459,0.7733504593,0.2283935943,1.7713473781,1.6491027224,2.2647292038,0.682251732,1.1568608921,1.0289780414,2.1497135891,1.8469350264,2.2330821389,1.8264760103,2.0529232182,2.1295320349,2.239124464,0.9626329529,1.0811155797,1.5941043834,2.1898601626,1.4544981924,0.8369188567,1.1952056605,2.2236669953,-0.2150003023,1.1570077912,1.1319821413,1.6083090282,1.2092206642,1.8417357782,1.5651913608,0.7930370793,2.1229477383,0.991417358,1.5676447641,1.9877523146,0.7213858731,2.0733248032,1.6925719387,1.8155918249,1.3368885398,1.1527875098,1.3395672414,1.8548962373,0.7015701118,1.7805179003,0.3230875611,0.7653318143,0.6802505551,1.790262024,1.0720085106,0.9485024943,0.9789055477,0.1317884829,0.6555658988,1.7003412429,0.9542178744,0.8089785713,0.9313734211,1.7013565182,0.1175461176,0.3144004554,0.3250374929,1.0865495481,1.610312383,1.0218170197,-0.0521533377,1.2408243482,1.1346082148,0.8515627753,2.4323563768,2.2009941823,2.0852073929,2.4831952567,1.4298309002,1.4135139866,0.7433634398,1.8609964378,0.7842601108,1.3500440528,1.2263316074,0.9589531942,1.995385643,1.7754761479,2.2433683905,2.0530770356,1.3499751935,0.7078142518,1.511707106,2.1653284751,1.2914584881,2.2386928922,1.2154075777,1.6180391639,1.2848940026,1.7293069836,0.7441278163,1.3608135574,1.0217183867,0.9853960767,0.6914286012,0.6592468136,2.1050622121,1.4955074596,0.8168086461,2.1976021369,2.3657619331,1.6478212471,2.4332673068,2.2485686998,1.7000578058,2.1235267766,1.233070241,0.6812663628,2.3218913773,0.8677483567,1.5537381231,1.1280345563,2.427001054,0.7022022599,1.4372220727,1.2188383064,1.5449150146,0.6435914107,1.172545389,2.2357038096,1.8193067208,0.812882063,1.6847846237,1.0886086757,1.7519490387,0.9091922195,1.2791446225,1.2387884102,1.762337503,1.3264693225,1.4118961088,0.123448278,1.7278408778,0.9226238237,0.8577726271,1.6308366994,0.7860155762,1.0883380489,0.7925096126,1.0522465798,1.6972155018,1.3744162142,1.6038514609,0.9757363196,1.8183831476,1.6116673151,1.1405170877,1.8474966996,2.4197964171,1.9611866878,1.0954919345,1.9474121449,1.129637675,1.6484207981,1.3487462986,1.9543422425,1.3464450046,2.3251414306,1.3028329707,0.8817314206,1.4319171633,0.9412422554,1.5912713707,1.5188608474,1.5757114209,0.6798511647,1.7932850191,1.0902754228,2.0312540451,2.1017947376,1.8082011516,1.8302351751,1.8793517613,2.3044092242,0.6085126664,1.1517507363,2.0678957835,0.9915421808,1.919924109,1.0202182711,1.4340610045,0.6222625381,0.6698319012,2.075053564,2.2527799806,1.1557274377,0.4610766252,0.6558783833,1.9495909752,2.2614017135,1.3903559153,2.174065325,1.5286962951,1.7688621033,1.7214630486,1.257297323,1.8300859896,1.2039529887,1.6998197521,0.7374078146,0.5356152207,2.3267850477,0.8941605537,1.6813427201,2.0720059129,1.6841741229,1.572089806,2.0355693261,1.0602899413,1.6454271733,1.721602801,1.1921587034,0.9629231584,1.7023132336,1.9558710486,1.3790318327,2.0044061447,1.2283189074,1.2776047564,1.8797713093,1.6738032152,1.1470105742,1.0754366493,2.0661563562,1.9604661589,1.5219029581,1.6658840331,1.3971112904,1.8214020917,2.0987767373,2.3591450886,0.9941896521,1.3812740377,1.2495477696,1.4355293567,0.6137071078,1.8556065507,2.3370500661,1.1372238865,0.959591866,2.2540494389,1.2671240342,2.2476034939,1.5613336176,0.9701748188,0.9578830745,0.6721968362,1.1991342108,1.1448432733,1.2443684843,1.5229272875,1.0732758556,0.6519332227,1.553264368,1.8045399161,2.0043334691,1.2972510171,1.7376270615,1.8396492052,1.6223888564,0.9712676552,2.210730055,2.2303989381,2.3178058044,1.5082664128,1.8919971575,1.6043371751,1.9103975888,0.5779551499,1.8689892423,-0.5152724422,2.1095362607,1.5922244359,0.8047769316,1.1799623998,0.774649665,1.960706219,1.4758186951,1.4382211481,0.9824348705,2.3621390402,0.8562072143,1.9251355577,1.3864349881,2.1496394362,1.3524869327,2.1866640196,1.4697306423,0.7185001736,1.8069171671,1.5618100475,1.3463411904,0.230444222,0.6130880479,1.6264403518,1.0398299797,1.7889400946,0.1325004466,1.2196487253,0.8106455001,0.3638649858,0.8201006836,0.1521329253,1.1818895479,1.4687273997,0.9130062872,0.9113525444,0.5028616099,0.1408533139,0.870502186,1.762780811,0.0281198736,-0.1922494125,1.5291933753,1.8243808484,0.994791849,1.9181962926,1.5003006213,0.8321722819,1.4650618236,1.1519901778,1.3290094922,1.489276243,1.362540874,1.3799893284,2.034883722,1.6553556382,1.6599941165,2.2624091779,1.1391693852,1.3206403375,1.7438336288,1.5928835573,0.734651827,0.8486332225,0.1954426096,0.2529802518,0.9744475027,0.4039836978,1.0902211211,1.4124720435,0.8788657053,0.9538021748,0.646301414,1.7597288458,1.3672260774,0.2332695717,1.0432158506,1.6545759975,1.2048052894,0.2931445407,0.7269104885,0.178740914,0.8384296575,0.0380777591,1.2443171939,1.5881321866,0.8530286382,1.254127788,0.4146288129,1.1794432423,0.4036537289,1.2981324266,1.6101665131,0.4033679636,1.6162516126,0.3657262952,0.2499637368,0.4852019009,0.2120490746,0.8875535603,0.6041976284,0.6191888261,1.6952220545,1.2567410804,-1.3174453577,0.6086366158,0.9521393965,0.9720692365,1.0887238726,0.3479095934,0.8168653486,1.5889594778,1.0106109667,1.8189795329,0.7270779746,1.083052965,0.66106419,1.8386640849,2.0235783755,0.5854855178,0.2510341909,0.2068781235,0.5118648223,1.6704448637,0.8967176541,-1.5792925427,2.1460746965,1.9966054448,1.5835016604,2.0883610739,1.4461609514,1.590934708,1.9293427843,1.5953637475,0.4533069927,1.6606039517,1.6083191884,0.565452085,1.3679188407,0.9653649779,0.9973963875,2.1601902846,1.5833732638,2.0623881257,1.5293805177,1.065738836,0.8976060797,1.5111117796,1.8530924032,0.788071545,1.9270084007,1.9727620831,2.1534907211,1.5628616524,2.5023512605,1.6236220791,1.4195217286,1.9774986987,2.163169241,2.1860980257,1.119213839,1.030056425,1.1236715095,1.2274807729,1.3100336243,2.3896113331,1.5344449416,-0.7336908238,1.0218520551,0.7819800124,1.7097127798,2.4209861865,0.6028049105,2.0044377203,1.5688020586,1.7023232952,1.3102975406,2.3661992442,1.2925667382,2.3938475336,0.796434691,1.0282671764,2.2526153686,1.6065610611,0.9270298383,2.3751536853,2.2018442562,1.6391165667,-0.7952368297,1.6362352577,1.1891930369,0.2817310334,0.8341315088,1.4476353667,0.0933900287,1.3576608026,1.5803884208,1.3685502624,0.4818643446,0.0417666631,0.4303897726,0.1357811432,0.2207840223,0.128920573,0.4465233694,0.6744898626,1.1050278441,1.4263769706,1.1003081457,1.5437233272,1.0901017811,0.3924349436,0.043380874,1.6572999544,1.0792203218,0.2253547579,0.9659533144,1.1608611798,1.5634986404,1.7281969245,1.6544836696,1.1722842026,0.7982734991,0.004859799,1.739101918,0.4312206168,1.7056380447,1.3351032006,1.5036756881,1.332256178,-0.7727003091,0.2432740071,0.6355268744,1.1145069708,0.7327548698,0.8206144386,1.1442697064,1.3401476782,1.1793156802,1.497410233,1.7065763265,0.2819479593,1.6828364829,1.0636064404,1.3611394859,1.6711738622,0.0924692285,0.9284776946,0.9565142072,0.359818983,0.6502140738,-1.1105809358,1.6295138685,1.4076987729,2.0475678447,1.9813639674,1.703828345,1.192696788,1.9259000436,2.0711085878,2.1573051187,1.0620940503,0.7922319435,0.7661114589,1.6771112013,1.2091012173,2.3691221879,2.2147673918,1.3919995071,1.9952687328,1.3338822538,2.1887156526,-0.1956196644,2.3862592807,1.2890060603,1.5168673557,1.2820770962,1.5442889784,1.3204178317,1.4909444045,2.3385508714,0.8515576735,1.2279276265,1.9146176166,1.9716622216,1.389995884,2.4266375799,1.1144296203,1.2486562164,1.5760618914,2.2957526636,2.1142852028,1.3291515905,-0.2263485491,1.5540028908,1.2479614733,0.2225101301,1.2657671038,1.1957965675,1.3897231201,0.9440236452,1.6903986045,1.6655547506,0.2257353184,0.2821111802,0.8437802693,0.4270490709,1.4201534254,0.4999756654,0.6289069501,0.7765049269,0.2001875455,1.4640066091,0.6259365057,-1.0739572325,1.5958603139,2.4173482242,2.0324337033,1.8127361709,1.6910433684,1.6951477342,1.0458944306,2.3968585237,0.8825478805,0.9264213044,1.0825203711,2.0242666532,2.1479210299,1.2091734239,1.34270076,1.6844439485,0.9579648759,1.649840528,2.0838628213,1.5752947183,-1.0578380912,0.1333357223,1.5728649755,1.1319517676,1.8315395426,1.5557189965,0.5331334056,1.5163273094,1.6762809929,0.3884583498,0.7918076052,1.6762762708,0.3170087048,1.6898014778,1.8018938107,0.2719015718,0.4851160356,1.335214802,1.8138638718,0.8621619945,0.4474361642,-0.6721480349,0.6437958476,1.313107702,1.7540895168,1.6391265783,0.5843671188,0.5943450112,1.6291899635,1.737329674,0.6334019912,0.8969485237,0.800688824,1.5988726699,1.4129895617,0.9599459628,0.0305116843,0.9162985643,0.5850207085,0.3409751784,1.1841075545,1.3266507816,1.6665570311,1.3692315568,1.4585435954,2.2104323581,1.6559907689,1.2963355713,1.4165669317,1.6858568957,1.8122774638,1.2281055338,2.2081023777,1.2014155705,2.2192962304,1.7990837581,1.125490441,1.3784464658,1.2241272194,2.1977462544,2.0800622891,1.2919735139,2.6431242607,-0.5600731339,0.7599740244,2.4672076234,0.8088343991,1.5589585035,1.2223578036,0.9982621141,0.9482060171,1.2191985048,1.2370354328,2.0449883655,1.0566140853,1.8635406492,2.1313338544,1.9229645889,2.0827530782,1.9691270365,2.1052470161,1.5604682012,1.2975177538,2.4395209081,-0.644548855,1.4891584258,0.879351373,1.0401183703,1.1461025123,1.7803980069,0.5135107512,0.3643800691,0.0557745315,0.774534845,0.789044776,0.904696433,1.5349561108,1.547875563,1.1070361151,1.7808705428,0.7869763456,1.6967551336,0.565511795,1.0418325406,1.4281833326,1.2487433594,0.774533869,1.7774544218,1.6380660326,1.7267404258,1.6007915493,0.9452169812,1.7959194123,0.4881234561,1.0497128056,0.0028162964,0.9737890729,0.8797921495,0.5326709427,1.2364245916,0.475066642,1.3199206563,1.2422243809,1.3518423816,1.5887348936,0.09627873,-0.892095398,1.6872280079,0.7291591597,1.4499252517,2.417693679,1.2286930184,1.0457177979,1.2656552412,1.8820339472,0.9685695071,0.6531990891,1.182001498,2.3134100554,1.9672622428,1.4586462264,1.9967847059,1.8868130768,1.5874327816,0.7766325418,1.7090678141,0.8694774178,2.1477278195,2.0825195604,0.9261856242,1.6531873421,1.710633328,0.7925541115,2.0929329779,2.1808073873,1.7008519983,1.5224494384,1.5356564566,0.8742374542,0.7501709521,2.2080055161,1.3479834479,2.0121540553,2.0545914118,2.227223625,1.2658009273,1.3612912933,1.2816286139,1.2750201206,1.7805656546,1.6280370386,0.8007608354,0.6965207238,1.019335769,0.0154765984,0.1577256368,0.5460850534,1.0243632951,1.4063240334,1.2103133918,0.8919694002,0.176620327,1.1531510295,0.2140657759,0.3208553908,0.4375018791,0.5128583706,1.0584031666,0.146324506,1.2746914861,1.7943709391,2.1987380442,1.5691040728,1.6653676685,2.5167256852,0.8622246281,0.7763892233,1.8026081274,2.5015749928,2.2535604029,2.0958298525,1.1651550865,0.9141159164,0.8220194146,0.9276638848,1.0996434972,1.6938762396,1.3682804058,1.0486326161,1.8816214088,2.0772382126,1.4582726241,1.5559408919,1.7414295636,1.3892738437,1.8449989746,1.1465224428,1.1804114682,1.3452162445,2.1467550579,2.1029136606,1.5426279571,2.2370012405,1.1835867555,1.6984572187,1.4214323394,0.9826396534,1.8869771118,2.1086289671,2.1798683568,1.4572257011,-0.2189078657,0.5602672434,1.6466559242,0.2096146584,0.2971923613,1.7646465003,1.5942505896,0.7047062309,1.5740405799,0.0411013356,0.4144356156,0.7184923238,1.2798705872,0.3795787354,1.1780579882,1.1462614178,1.683711949,0.3060083593,1.1808029209,0.6287752487,0.5342804615,-0.4455412715,1.9765530901,0.8748960069,1.7243271815,1.2688297583,0.7362902859,0.8121613745,1.0575807827,0.8391808158,1.6349695813,2.5202778475,1.81572339,1.6021455054,1.5754424231,1.7179179738,2.4188197438,1.4243925455,2.2357957909,2.3037886581,1.6138570861,1.0349102821,2.2187419024,1.0792071334,1.8389106479,0.6054329078,0.4664182771,1.6177436802,1.1273947942,1.5402403059,0.9511088926,1.1436780132,0.1640269197,1.2975816776,0.8915452239,1.2874103276,0.2491278535,0.9648687859,0.0879733099,1.5128152355,1.8256314117,1.5417925021,0.3763656008,1.0088800038,1.1639295362,0.8662372973,1.9716516047,1.6011035816,0.7013650727,1.5035355412,2.1711687938,1.0503060522,2.2855810874,0.8507233056,2.0199254635,1.344537519,1.0729596695,2.0954363534,1.2108020268,1.0397925305,1.646525599,0.765005236,1.9399146516,2.2379870056,2.3248767423,0.8501519221,1.6346819109,0.6897419165,1.2633277345,1.4174552399,1.7659240144,0.6860586941,0.557954523,1.4140137111,1.5299600096,1.1475367666,0.3031562823,1.3284141813,0.2500571414,0.5781468463,0.9293596963,0.8771699016,0.7028493809,0.6778231026,0.6606402338,0.4854403119,2.3304112918,2.6343980857,1.0514914236,1.3552985143,0.9620206781,1.0661540597,1.9087452414,1.5083458727,2.3026529566,0.9285704462,1.3296024016,1.1042440581,1.8827503364,1.5190386389,1.0807087562,1.2837423502,1.5707594885,1.9255074851,1.7896324919,1.0373653412,-0.2911170057,1.8102919267,1.1950893069,1.6771092001,0.813301925,0.4035795925,1.3126210372,2.1746446693,2.1807684786,1.2407374958,2.0691642495,0.5787927537,1.5353391293,1.3622966486,1.2673581064,1.8246869426,2.2142521624,2.0500803224,1.3029685695,0.8921421549,2.090293273,1.3191369009,1.4955279473,1.5645988727,0.7380693634,1.1437595668,1.8345179144,0.5158345476,0.388593702,1.0258676145,0.0997697226,0.8928453791,0.7308311813,1.1173667323,0.0475446551,0.9906259666,0.1706935419,0.3774465068,1.4322000504,0.4801868186,1.6202459895,1.6168654318,-0.8034623019,1.7794386401,2.2095681577,1.7893557163,1.9396366131,1.3932986211,1.3290810011,0.6406637809,2.0724232665,1.7971555677,1.9676337929,1.685935025,1.5768776435,2.0082941717,1.7587021481,0.5596233561,0.7222371677,2.2396943486,2.1242794646,1.6328181282,1.0715071649,-0.9746215169,1.8522532758,1.1725262328,2.0476710066,1.5750315195,1.9775794577,1.3685611423,1.4400644869,0.8567744943,1.4075014561,1.1430970077,2.1089887355,0.7181614137,2.1659375248,2.140223715,0.972627497,2.3098896251,0.9470916075,1.5919452689,1.5365701725,1.5904921332,2.1528795923,1.9118084319,1.2778040327,0.9726469326,1.8622031509,1.0290666521,1.0343294913,2.5250242336,1.0979957191,2.5380832914,0.7873816512,0.7059633427,1.2921596732,1.6393419885,1.7568394316,1.3430078729,2.4172269528,0.804487568,0.8008960866,2.44011058,1.8282272866,-0.0350338815,1.2799928514,1.7241821251,0.7747512997,2.25050387,1.9871830644,2.2781824792,0.6931257495,0.6949616364,2.2817858855,0.631751732,1.5291242006
   2.0765398982,1.6110653223,1.4988772108,1.9081642558,1.3065724897,1.9694048781,1.3843449073,1.9179718649,2.0857121373,0.9074761474,2.3858375301,2.0556512078,2.2018553882,2.1342830144,0.8582888886,2.1326427848,1.421086218,1.8585461853,0.9283202897,1.9358945425,0.893630116,2.2952446544,1.7920301384,1.6158205566,1.9975160907,1.4423821861,1.4193911898,0.9815340519,1.1529499546,0.9029447764,-0.2900097648,1.5626947233,1.8959218245,2.2964423383,2.4874387314,1.3666744649,1.8754830502,1.2438305465,1.8687600548,1.650203946,0.9852181464,1.2721476193,1.9279780994,0.9932860342,1.7435366394,1.0934902799,0.9609563374,2.5136889591,1.4145753175,1.4693446153,2.1093734362,0.11263909,1.5358662375,1.7115895666,2.2343662166,0.8722396748,2.205146286,1.5078537651,1.8627318856,1.9122108743,1.8982445752,1.2160539883,2.098553442,1.006429469,1.4540225583,1.9491328172,1.9598765038,1.2982799241,1.2610533724,1.6394432909,0.9424149122,0.7650459105,0.269718925,1.0827524569,1.2107149975,1.6819750463,1.1737806583,1.071875376,1.9075772692,2.5733505783,0.9676656401,0.966235916,2.296649459,1.0226314237,1.4634710545,1.9846496376,1.861322497,2.5665453901,1.8778664094,2.3160539655,1.118706396,1.3600784315,2.7424480813,-0.324620832,1.0378998881,1.3162462316,1.4490643396,0.7517491861,0.7143871997,2.0564726078,1.3636734952,2.4389032767,1.5476980454,1.2403472826,2.0953897689,2.4372238085,1.8914514464,1.5786075509,1.6416552376,1.4290221105,1.032550663,0.7450224316,1.6558136707,0.9952495527,1.7719702904,0.6479835306,0.1522678292,1.190595842,1.0661027868,1.4256410738,0.9672682534,0.7150420996,0.2625930564,0.7913794958,0.6597635611,0.4290406972,0.9373829323,0.6149916936,1.2068114772,1.0332333914,1.3734769346,0.7152711599,1.2144839305,1.4515997746,1.6912268939,0.7246738285,1.4578596184,1.3446843673,0.9891941037,1.0431875191,2.4110096239,1.9672630862,1.610995607,2.4019414672,1.7462583819,0.9633396489,0.837794649,0.8127381913,2.5903134659,1.7295551863,2.5593587348,1.1532583009,1.6794149641,1.498025399,1.9326059818,2.5250153109,-0.5038361381,0.6970088012,1.9901061134,1.1629557574,1.727259547,2.017856308,1.9273654066,1.1926042561,1.9960726514,2.173345332,1.6301189898,0.9593539988,1.0523265346,1.5068914734,1.3202666064,0.9751877018,0.6941768319,1.670868211,2.1252401856,1.3482080701,2.1884169849,-0.3378469207,0.9398743377,2.3188687816,2.429883605,1.6300264373,0.6217183247,1.2879868996,1.8408274974,2.089331919,2.3324847239,1.9565151789,0.9383365691,0.7567494007,1.1997462876,1.0457469956,0.6197537596,2.2728444303,1.3128227119,1.0595132863,1.6567814189,1.3360451355,0.6581341379,1.4546975649,0.4533657881,0.8669053558,0.0473865987,0.8315099903,0.2321405781,0.3939420403,0.4441874612,0.3367896231,1.1447208862,1.3296186812,1.5167199619,1.2167295283,0.9052474301,1.3017744126,1.7953209917,0.3349963273,0.2509345803,0.8348015739,1.4589269372,0.9744459735,1.3857615678,1.390269148,0.7972710109,1.0369755227,1.7583254115,2.2334083731,0.950545287,1.2877544773,1.8482784873,1.4158580216,2.2333427653,0.943017185,0.9450040524,1.1492972348,0.7732529963,1.4675429024,1.8431818554,1.968545712,2.1646721893,2.3927452816,2.3000129904,1.759250136,0.9650465172,2.0642174525,2.0457287116,0.9053571198,2.0424605798,2.0320444032,2.147947742,1.3894618231,1.4142850618,1.6108747611,2.0468894466,2.4648234214,1.4518167254,1.330523806,0.9824377576,2.439735829,1.6084137001,1.207767236,2.0936099328,-0.8907566884,1.3432824969,1.8238054849,1.3778534497,0.6993372151,1.5785939957,0.3922633746,0.291815523,0.0468943373,1.4982005978,1.1765878313,1.0958578357,0.8043297891,0.7700042212,0.2775027977,0.8224462616,1.4226265953,1.8270846027,1.1051559,1.0467047982,1.1151374912,-0.0319307589,1.7136850148,1.1597880066,1.8731054356,0.7256742738,1.6184512989,0.5092340014,0.5550107369,2.1204273472,1.9932057812,2.2376511482,1.3807424733,2.1387726048,1.5878807168,1.2166513473,1.1731719916,1.2533949119,1.5406011225,2.0348575595,1.4430919862,1.8903108246,1.1997667102,1.9134722479,2.3048950196,1.8798424676,2.2452464233,1.2745593787,0.7290825518,1.8607285045,0.9419272915,1.5785075741,2.3658805848,1.7622562943,0.9610710525,1.0598493175,1.460040248,0.6765081775,1.9500042684,0.8698982933,2.0605940464,0.9401713127,1.678952816,-0.0272540911,2.4501143685,1.2691316475,1.6734229351,1.3970401559,1.6731747486,1.7618338273,1.0148915534,1.8922045872,1.102957256,1.6009949882,1.5033094765,2.2805642846,1.8187384091,0.9310024738,1.4907485929,1.1627428891,2.397553742,1.1457744287,1.6842012259,2.4537484945,-0.8275976274,0.5837900371,1.8449466634,0.5293622147,0.8582722654,1.8906298358,0.5320596973,1.7107940048,0.4468223095,0.5747623162,0.4421518396,1.1609313374,0.583636879,0.5174171861,0.5663736309,0.2446546281,0.8091127424,1.6261837645,0.322797705,0.5179784912,0.4254952928,1.5278151188,1.2601228169,1.2675282874,1.3912797078,1.5929591857,2.0395606349,1.8438892912,2.1094839819,1.2507436394,1.6270317894,1.9637545718,1.783264397,2.1847738308,2.0271765483,0.9617004885,0.449957515,1.2035190211,1.2047530878,1.0072018708,1.0634714198,1.9672134246,1.0745500952,0.9679065823,1.2427854641,2.2918351283,1.7328389663,2.114246703,1.3290768978,1.4712429056,1.9756248452,1.2585458748,1.84459956,2.3118654776,1.6742100729,1.9722107419,2.3806199235,1.1033865663,1.6512659482,1.4446646852,0.8466366655,1.0772177293,0.607784748,2.3019222457,0.9153012134,0.8494610826,1.1564294294,2.0760633613,1.2476729072,2.2589735787,0.8100691157,2.0639089492,1.5657958872,2.3137294102,1.6161520847,0.790984196,2.2246045515,2.5023769703,0.7007250403,1.9232285217,0.9914882312,1.5321280975,1.3569912746,2.5152908554,1.6457705268,2.1323949359,0.6227203322,1.0202688786,2.2009771166,1.6412783119,1.3838162616,1.1577027189,2.066027046,1.7080611353,1.0534986883,1.8604892877,1.2228001424,1.6992673625,2.0605980868,1.9475827235,1.7275470309,1.055849395,0.4284586411,0.8731657011,0.8585654074,1.7477152196,0.7826144531,0.2802459492,1.3857882777,1.0453874981,0.5160193642,1.8126647365,1.5296791774,0.0848440099,0.5893434442,0.5248616043,0.9398094624,1.6120916786,0.4191052161,0.3798111435,0.1098483179,0.4365787682,1.273640577,0.415863882,0.6443894325,1.4927796987,1.8273615405,0.5134479031,0.4829675757,0.9630305129,0.6553660903,1.101525413,0.3169120518,0.1590591789,1.4850090393,1.6506116613,1.1574967207,0.7326332193,0.7670603366,0.3860013504,0.0656855387,0.1722621,0.8841700736,0.8647550423,0.6588189274,1.0348502724,1.4164561938,1.6052481086,1.2589328727,1.8203273689,1.1664463196,0.9732414111,2.5083919223,2.1789840736,0.8767751586,1.9458215276,1.7540142198,1.9562575498,1.4211231438,1.1891873894,1.523873688,0.8267627172,0.9419912458,1.2364870117,1.1915188422,1.683271227,2.1917619928,1.5985315354,1.7146696631,1.2227837326,1.1894751798,1.1417202241,1.9260937986,1.6047264735,1.1912711541,2.4933759861,1.8405292691,0.9209441871,1.4510955768,2.0680206833,1.2019031835,2.1370943953,2.24181153,1.3295562806,1.9505174288,0.924910843,1.6607533664,1.9070934841,1.0284294362,1.4191249576,1.6561641419,0.6301136205,0.6403103532,2.2985815225,1.8075643561,1.7268335954,0.9204130243,2.342706255,0.6017654527,1.4994710372,1.215984564,0.9739289968,1.4302674392,1.4172931829,1.677464939,1.5654141885,1.3286379824,1.5716378007,2.0240326939,2.0982651441,1.5776729663,0.777463861,0.7034085978,1.442960345,1.5660429757,1.4701806714,2.0544829541,2.0877778927,1.2244998378,2.306595541,2.4912876236,2.3652819098,1.1040694546,1.059218903,1.2748270029,1.4073748687,1.229349913,0.9140407365,1.8661195509,2.3680432887,1.9359037631,0.1981552452,0.6518965284,1.7122613091,1.4529727012,1.3592965666,0.8166155804,1.3788765183,1.7911434074,0.1079311846,0.0967312056,1.1705624129,1.6069742978,1.6653939958,1.0632218403,0.5318129248,0.8934835914,0.4078051185,0.1560989426,1.3796010628,1.0639958559,0.0792746389,1.521763115,0.4250546202,1.7050757672,1.4678361107,0.2145701795,1.2069332233,0.2368455567,0.6709060053,0.785185532,1.0644255136,0.7924185129,1.6156659909,1.3221235647,1.68658939,0.3603494458,1.1370208575,1.0476378046,0.048034266,0.0842561083,1.5733153165,1.6379755781,0.8053751299,1.5186450711,1.9317920577,1.1267844819,1.0940174347,2.066494443,1.9003122506,1.5207226378,1.2691289886,1.2207917791,1.943261211,1.2886919835,1.6329533101,1.3056664514,0.8570084265,1.1921449109,2.2162300292,2.2581399185,1.5519945482,1.6527085917,1.0220232202,1.9388069338,1.1867711377,0.9083961442,1.0449092112,1.5115190615,2.3992681322,1.3176612699,2.2219147382,0.9566109735,1.0093577468,1.4016555306,1.6481935633,1.9594555031,2.3452646758,1.8916419326,2.0319169054,1.7145678358,1.1589437302,0.8697394065,1.9848601388,1.8378564046,0.4919661215,2.2296294084,1.2663803648,1.5331154397,0.9861343465,0.8200596548,1.5242303394,1.3880866913,2.3232350069,2.4235607199,1.0588921556,1.9447803121,2.3256826742,1.7658281223,0.9654702399,1.5915103944,2.5797702827,2.115919586,1.7645980387,1.7725293128,1.0655529865,-0.8640153961,0.6024086649,1.2930753279,0.8359309267,0.8186001883,0.0406682654,0.284499176,1.7195273972,0.183411659,0.7843509942,1.290873908,0.0859364192,1.1481182658,0.9417544701,1.0575509386,0.3912012337,0.9468155024,0.9489119944,1.2378191429,1.4296228242,0.5637721696,0.6166249815,1.3035489189,1.0490750107,1.933713841,1.0739063927,1.1789429962,0.988723138,1.7666801693,1.9068945443,1.1890959,2.0907312845,0.8792941356,1.695990866,1.6715176582,1.4991695244,2.3774015298,1.1281314134,2.4394767605,2.5476605236,1.4327435769,1.3021186316,1.3710974796,1.7645903956,2.02709534,2.0821591315,2.5382250295,1.4465558676,1.4898696223,1.0257024309,1.2481301453,1.2326642449,1.4461108128,1.6678929846,2.5651793143,1.2092979034,1.1735866004,2.0758811079,1.4372213316,1.2932922902,2.6117213783,1.4339428394,1.2618517967,0.753705028,1.8255111026,2.2987072003,1.304422235,1.660425285,0.9993241884,1.279487605,0.8112971907,2.4660522675,1.4520686612,1.7127258795,1.4423914301,2.3300839542,1.5671593028,1.1241088856,1.8544251775,1.5965851985,1.2242214478,1.7103614591,1.0175270101,0.794153474,1.7328022475,2.2815266547,1.5691237521,0.8118242296,1.7315028395,2.0929649205,1.3785698801,1.5445706212,1.5055594629,0.7561164203,1.8268486021,0.7612069593,1.7925710621,0.7053630012,1.8211395964,0.9389246943,1.9052009326,1.0769386642,2.1151658557,1.9539149024,1.357322563,2.1141769232,1.7999195284,0.8246176518,0.8110646469,1.9235832586,0.9466947568,2.4470887446,1.6634592678,2.339766147,1.5619040027,1.1898501676,2.2410075075,1.7555127775,2.058392018,1.342881253,1.1091576892,2.0558077455,0.785949764,0.9857023495,2.3570790329,2.4177406412,-0.1677021093,1.6085864201,1.9682543597,1.122853381,1.8259877706,0.9917199505,2.2468535209,1.4152925154,0.7942877526,1.2412833964,1.4614918227,1.8837556961,1.537683102,2.0759580198,1.19760832,2.1315768463,0.8946335567,2.4399521216,1.885249099,0.86925204,1.9356735334,1.2683182977,1.7899201361,0.9815260935,1.684763673,2.3626867487,1.3110670176,1.0448610459,1.9979961909,1.0121297812,0.9401790482,2.5283149554,1.9077647191,1.340314222,1.4103331278,2.0717583549,1.7194795597,2.4154812964,1.1683739143,2.6291047979,0.9469494065,1.5148750742,-0.8501559563,0.9586218313,0.8707192911,2.2166338263,0.832026542,1.0757430117,1.9401975727,1.4843102272,2.6332307559,1.5681421425,1.0416065078,2.0400863882,2.2890465331,2.5036274431,1.7595754592,0.9500365542,1.2706311578,2.2793881429,1.0214922565,2.3768333775,1.3567181757,-0.8305950585,1.4751509867,2.101776984,2.2941379453,1.607354528,1.5762597111,1.7816414898,1.435995966,2.1695776305,1.2710584726,1.9876936632,1.4617118554,1.835906761,2.1537023814,1.0742141713,1.6864253679,0.9309135283,0.8524271371,1.0821241971,1.0821424038,0.7058439515,2.0225418275,0.7857186441,0.985763011,1.4991836671,1.2522848473,1.6717934568,1.3826669006,1.0864293461,1.3968141665,1.9911881142,2.2296998922,0.7399512397,2.2281278058,2.1760928335,2.2384236551,1.8982394145,0.9418127286,1.2560731823,0.9017659615,1.4764913698,1.094755385,1.3595772337,1.6560638719,1.4928478132,1.5762984052,1.078022278,1.3416025144,1.5761330439,1.4089801487,1.611047765,1.7970437532,1.3052470611,0.4457475859,1.4755498756,0.4866238046,0.767295805,0.3487726496,1.7185065884,0.3184912521,1.444935244,1.0697170789,1.75205888,-1.5048178599,1.3728682363,0.986922882,2.0913519418,0.6076075993,2.2978726916,1.5615133643,1.3605244566,1.5215543102,1.2075556179,0.7585640091,1.992834768,1.257397838,0.7330851889,1.2124614872,1.1269156406,2.3713369372,1.4946528944,2.4128885488,1.8219680813,2.2822407576,1.999632836,0.2457647305,1.3369435277,0.313975476,0.4526026741,1.2679546988,0.6550708239,0.2484852483,1.8139983718,1.0532730217,0.3505062958,1.6211111861,0.5650750856,0.7054101321,0.1067205823,1.5536490381,1.2339722763,1.8203869441,1.5367231323,1.8295721413,0.2760013956,-1.5481671595,1.0810017722,1.2354291434,1.0172230759,1.8027897149,1.6068397172,2.4646144686,0.7931650054,0.9094679482,1.7222056771,2.0892415899,0.7048553229,1.8133321134,2.336515063,2.3218939385,2.4148524623,1.4416298401,0.8118546665,1.2965820583,1.8445802244,2.4605362644,1.4964741927,1.6641665485,1.8130938235,1.6446707391,2.3227784766,1.6544310934,0.8985501563,1.2440344478,1.3241499924,1.5245503049,2.0106181868,2.1450603963,1.2170763454,1.0457859681,2.0695265503,1.1787762829,1.2273987225,1.0340582373,0.8488697021,1.7250926824,0.8606841069,2.1339715956,1.086731161,2.4440185042,1.0002842592,1.0804831751,1.4613721572,1.555511948,2.2764346123,1.2109960067,2.3031901929,1.4443602012,2.3474264269,1.8438585038,2.3459403043,2.366939998,2.1503249189,1.0841193135,1.738462128,0.9253531755,2.038239119,1.2824256068,-0.9780430325,0.403358288,1.1183641777,1.0649267184,1.4088517934,1.2211583212,1.7741514085,0.173252069,1.0917538218,1.1274614077,1.1084354446,0.322237431,0.8665559755,1.4641089977,0.0552572865,1.6996449186,0.6789558288,0.4730377135,1.7006352621,1.3699576128,1.6221321079,-1.5789391354,1.3157728915,1.570390586,0.0778853431,0.5110581537,0.8168111874,1.4459055941,0.1982533115,0.4811456191,1.4532268641,0.8125993822,1.2048160997,0.3336726527,0.7026124261,1.004182168,0.8640923766,1.6757586703,1.6283226403,0.3317307287,0.845373749,0.2737025807,0.9110681112,1.4519124691,1.4287988532,0.4193989476,0.2665169636,1.4319123366,0.7724937791,0.1328537217,0.9377220221,1.1619927866,0.5650275258,0.8172216858,1.2199943461,0.6638348203,0.4060139114,1.0913736033,0.9186033092,1.2416692216,1.4463274285,0.7572321302,0.928639342,1.4477673179,1.763050673,1.5743994571,0.915415556,1.5918478357,1.6361294143,1.5694589196,2.5719437928,2.2040729929,2.1356964472,1.1783410516,2.2551529121,2.0132012204,1.7943827397,1.3468689656,2.2326828722,1.058241444,1.7655475597,1.9888895622,1.2421096807,1.5153450269,-0.7114544273,0.8326589914,2.1355004652,2.303047901,1.8831207606,1.8043618383,2.2714950599,1.8800814747,1.1038436278,0.890101481,1.7366046779,1.8567073326,1.2876990791,0.8814492731,1.9603866859,2.3184927583,0.5597683471,1.7815488486,0.5702748013,2.2986834559,1.3371561444,0.3055154137,1.3341885967,2.387746493,0.8554444476,1.198931407,1.0493429609,1.2866198474,0.8631786105,1.1666513294,0.8532064753,1.7829615027,1.9771425104,0.8739384321,2.6112978563,1.6420205813,2.6390300621,1.8854814875,1.560318267,2.3313078652,1.7224995598,1.6029900033,-0.3992211781,1.1711920888,1.9667118604,1.6290734796,0.5884902377,2.0754247663,1.8816080471,0.7274678929,1.4474101859,1.3739179277,1.0172336996,1.8120094027,2.120710595,2.1278408304,1.2565369258,0.8121754216,0.8762393434,2.2136565898,1.4157761945,2.2018250041,1.5004630117,1.8746476482,0.9253925946,2.235258761,1.6401856252,2.3885522978,1.7242818603,0.7950967248,1.310434094,1.6797406182,1.3631987089,0.9276084986,0.80478625,1.991213877,1.2131425632,1.2609298788,2.3113516399,0.7498465786,1.1429483042,1.0511255821,1.8445779692,2.3028327418,0.5580392501,1.5456714721,1.3715630419,1.9743126167,0.9676314498,1.790832087,0.9160935179,0.7400751211,0.7797886701,0.9722375425,2.0593348201,1.3920772715,1.7715319376,1.3043166397,0.9249898813,1.8859686525,1.9330767319,2.1822559235,1.58055764,0.6511738898,1.9801237206,2.002580868,1.5280454661,2.1598698678,1.512622403,1.6558998644,1.169335262,0.8074347693,1.4216186851,1.5945260467,2.000538654,2.0835252112,0.7136670012,1.2028218588,2.4627186253,1.7893441132,2.2366632306,1.4548595241,1.5711799758,1.9721978209,1.598858963,1.2190154039,-0.1497985746,1.4679137163,1.3055154755,2.1440194698,2.3604052053,2.0258071802,0.7734057769,1.4072441155,1.8112636825,1.4208735273,2.4430753175,0.7337725664,0.8495878842,1.2792268014,0.9269053461,1.3829230451,1.8847115966,1.1929246752,0.8225280427,2.0881838649,1.1160013601,0.9553518923,1.4273376741,1.9199768403,2.5244533989,2.0026811409,2.1605014934,1.4558633201,1.8728268461,1.9274663774,1.2076035349,1.3066306951,0.8222836387,1.8649926892,1.7510641063,0.9816165511,1.0093740817,1.1684929388,1.055512321,1.0351998288,2.4192238606,0.8329134576,1.6661081405,2.1244800214,0.4390826014,1.4212694073,1.615213768,1.8455140055,2.1111611353,2.1996203784,2.1746899163,0.4087570094,0.892503972,1.5566445782,1.6934420179,2.1801590156,1.0909120474,1.4682779173,0.8681969892,1.0778083491,1.5327338179,1.7011462847,1.8400650004,1.6001053827,1.2726494562,0.9840667362,0.9233813471,1.6058619288,1.676955472,1.672114209,1.9141072514,2.1809098661,2.3079083085,2.1528059336,1.7417853704,1.0971384035,2.1663091622,1.9625187354,1.6404948721,1.863481088,1.9594064732,0.871899783,1.1032278608,0.9869898046,0.3113196285,2.4746626461,1.4028484732,1.2872831716,1.838066238,1.1979830026,1.5123432675,0.959895582,1.3409584295,1.8178503768,1.7821615829,2.6359129477,1.9427030321,2.1854477755,1.8513254419,1.119856467,1.3459786676,1.0039996321,0.9369091548,1.1505356486,1.0065340848,1.1319233424,1.2790711422,1.1206581689,0.8499139507,1.3166863111,2.5343935544,1.1213724151,2.2989257738,1.3717045598,0.7419361781,0.9972934673,1.3229187214,1.7065060102,1.3961726897,2.4991195786,1.3394767275,2.2669572234,1.9475701037,1.0603858867,1.9304979877,2.1163775988,1.3722195835,1.7263005754,0.9515205432,2.2168339595,2.5244172935,1.4818330586,1.3411295315,1.8315985291,1.7166513263,1.075127434,0.9297590917,1.5427948961,0.890150449,1.5007445046,1.2784919646,1.4662297162,1.2463398902,2.5279687809,0.7816440046,1.9632316954,2.0534963315,-1.0346042042,1.7986657993,0.2011371056,1.2033077656,1.6002286754,0.1788177229,1.3823912473,0.7826544924,0.4712311148,0.9350955086,1.7322864997,0.291736837,1.4639961302,0.9777152579,0.9115551992,1.0785820869,0.5968865663,1.1937073158,0.0987738186,1.5380746901,0.2683141815,-0.6208190665,0.6025633553,0.7962986656,2.2670539105,2.432047235,1.4924415261,1.7514177328,1.1815641394,1.5977254825,1.0468393919,1.9513309178,1.3768518127,1.1251271482,1.7576218415,2.3826991037,1.9619327211,2.0786896194,1.7864992771,1.5920788779,1.0290005807,0.6265952519,1.877425909,1.8643854737,1.2948556405,1.7171353453,2.031108693,2.5124680908,0.9756038076,0.9397724569,2.3971500126,2.0809700631,1.1267476944,2.4915178721,2.266989303,1.2569529925,0.9758304316,1.0737239839,2.0675502592,0.9466232081,0.9033721513,1.1094384701,0.9007139687,1.6352463856,0.5282810352,1.4111546318,0.6264849345,0.6887376418,0.7355409858,1.5026363276,0.4920977321,0.4576629983,0.520257844,0.7496681903,1.7803843292,0.096450759,1.2655172747,1.201844245,0.6430031182,0.399003985,1.1422461903,0.4663013571,1.3907949338,0.9273021094,0.182832837,1.8338786835,1.0340875892,0.3932047597,1.1730755235,0.8033324193,0.4645159541,1.4938464615,0.6950987506,0.761880298,0.1566749293,1.4132823154,0.6555551438,0.1054262934,0.2437614301,0.5351071944,1.3285893313,0.5172903418,1.1383259162,1.1540894205,0.3893077741,0.3071232969,1.1186908952,0.6639371937,2.19216335,2.0045868663,2.1634326372,0.9674105441,1.412814103,1.771884558,1.5422438311,0.5283407902,0.685103223,2.0651662299,1.7524223609,1.9649926114,1.8744774787,1.5612910809,1.6588006734,1.1012427033,2.1213882082,1.2071276777,0.6658269263,1.1082267619,2.0061695102,0.7605792627,1.4051094916,1.1584863691,1.3800342147,1.267200894,2.1344360844,1.3813865144,1.2301475225,2.4079010967,2.0344081418,0.6889176869,0.9261060955,1.5703422637,1.9607659132,0.6932290566,1.9042938571,1.3887918008,2.3223139112,2.2755320698,2.156451657,2.1912206247,1.7048140351,1.5540863036,1.8699418006,2.0284415708,1.7626051147,0.6227976562,1.6840714474,1.1052473596,2.2993349858,1.8817990665,1.2945140411,1.5112256632,0.6497746478,0.9443067931,2.0957757626,1.4205247907,1.8685533675,1.0511258008,-0.9378897141,1.5125187227,1.1663059335,1.3353891363,0.5261237042,1.1778130761,0.8794442791,0.9917555742,0.8670202863,0.6799332406,1.114885793,0.9516779858,1.1665921974,1.8385834142,0.4247991861,1.3264852815,1.0070242399,1.7659251832,0.2865760427,0.3148078691,0.0821522089,1.4473065566,0.8947680164,0.3282875455,0.5058567341,0.240751364,1.4305453504,0.10652151,0.2725128396,0.4346403838,0.5756322536,1.9138872796,0.4856576014,1.3394684114,1.9250175884,1.120608005,1.6404772004,1.9361861134,0.9279623484,0.6022899284,1.1543888298,0.4428621165,-1.560457425,1.6596642328,0.2635845015,0.6281453232,1.8051160836,1.5464238118,0.1248025595,1.1707741568,0.2218763476,1.7601484993,0.6236005836,0.0059555892,1.7194625024,0.8010779759,0.61163047,1.405151833,0.7390180896,1.0446887763,0.6406609306,0.4828015865,0.4997170014,0.2438603054,0.8831520922,2.5355009719,1.8024882567,1.6240298912,1.2171569196,1.2167699988,1.4627862766,1.4370828309,1.5636483295,2.1747507812,2.2908714237,0.8217768083,1.4283443269,2.4151513096,0.8473692912,1.0161441832,1.7312273063,2.2684825496,1.1638341323,0.9414408314,0.3881708238,0.8423788248,0.5328721481,1.7470266483,1.9975958034,2.2163233071,1.8704281553,2.3363331397,1.1240168189,0.8818466664,0.9067793099,0.5730975122,2.0524754393,1.1981945002,2.1240073315,2.1050813904,1.5425143864,1.4857925697,1.4434030074,2.0894586913,1.6660448026,1.5579079298,0.9798652781,0.3988984164,1.0160291329,0.6366637231,0.9295814247,1.7757289124,1.8261961505,1.0272934642,1.2772306787,1.4681149582,1.5777095411,1.6952242472,1.3679706637,1.4384090044,0.2131716659,0.0475175652,1.0466652329,1.0603508136,0.016815927,0.8013367238,-0.4219519103,1.7327104771,2.1866430526,1.3125910765,1.9563872748,1.8526936793,2.1565579377,1.0719123686,1.1003917412,1.7023640779,2.3666285894,0.9564370947,0.8342425771,1.5044925592,0.7226207438,2.1148355078,1.5566463991,1.4780659099,1.7284650656,1.904045174,1.903588465,0.2123411929,1.3407131059,1.783666253,1.5759992692,1.2150264246,2.1781178086,2.026158711,0.9108746853,0.8455280892,1.1943454582,0.7060461797,1.7031437052,2.3267893634,1.3640038562,2.4831556914,2.4655354524,2.0411744326,1.9388814843,1.3407185712,1.2074849493,1.565392085,-0.1220951879,2.4057917835,2.2353333548,1.7897611812,1.1979317618,2.0508926268,2.3563746973,1.0109716462,0.7860060767,1.0929113087,1.8138359302,1.0713258067,1.6315458975,1.5499444343,2.1021264948,1.3059328929,0.9374597276,2.085380543,1.3299287054,1.1413241052,0.7610589256,2.212727075,1.836435423,0.5619803708,2.192797654,1.9856851962,1.2539164947,1.0860173207,1.5366513331,1.8526098588,2.2278846527,1.9316043467,1.126134071,1.7714162345,1.928635813,0.507153317,0.4929240273,1.0885820009,1.0128735106,1.7819469801,1.8445756186,1.6952435946,0.920960264,0.7234139744,1.5837260995,1.6949097255,2.3275308166,1.2132107711,2.1686892273,2.2426396395,1.7089530479,2.1701288535,1.3641923415,1.6798569643,0.7279453389,1.5569456889,2.0065224356,0.7102212972,1.6599072663,1.1365637657,1.4840861984,1.3429032761,1.2569234254,0.6619462085,1.8947084457,0.9498329846,2.4487913055,1.5511552402,0.9759219497,0.899618135,2.1398006477,1.5876521057,1.3345244539,2.2125963191,1.0971156416,1.3813520379,1.1310888581,1.5899084494,1.1842673305,1.4723966688,2.0497856654,2.3753711334,1.2583313277,1.7184070819,1.01580885,2.0866915797,2.2078934576,2.4796669337,1.9204577921,1.4237907865,1.9606708076,2.5268322826,0.9856646137,1.6344037434,1.5660386553,1.4245389135,2.4854301463,0.7316916746,0.7067407996,1.2319794889,1.6714588545,1.1892059433,1.1738216352,1.3041649638,1.951254352,-0.366369543,1.8919668565,0.8745140343,1.9427460732,2.103521303,1.5786727009,1.6784704326,2.1608177891,1.1008951436,2.4067375553,0.759958719,1.708238686,1.9117844079,1.4719201627,1.1195486231,2.2411747603,0.6627719766,1.7803550601,1.9141135034,2.2619033938,1.7327317402,0.0720901379,1.5026835107,1.6746898631,1.7593239225,2.3411107551,1.0370092258,2.4843841939,2.4956854174,1.8273023874,2.354646661,0.9244036389,0.9765599166,0.8545758529,1.6831411359,2.0012078781,1.4367999437,1.1197216169,1.1665326377,1.3421141408,1.1410914185,1.9060021748,0.1147802738,1.1006535875,1.8345268084,2.1097848585,1.4082664353,1.4177962918,2.1945028435,1.5153218252,1.3582608927,2.0410408853,0.9035345971,2.199755544,1.510892848,1.9422266743,1.2480848829,2.4935594526,1.1199780057,0.7176614376,1.8699612106,0.7873263678,0.7304280283,1.8160106891,1.7204063763,0.8512063947,0.3297213547,0.1882981041,0.5243644191,1.514362046,1.2570080681,1.6353329769,1.7062909602,1.4777423165,0.0816745916,0.7686898419,0.6126090931,0.2369766519,0.853510222,1.3436757859,1.6962677711,0.4951961122,0.6555656174,1.0054768757,1.0136455332,1.3915066569,2.4056066472,2.5034927351,0.9843875414,1.007818355,1.6859017636,1.6601394595,1.0546091856,1.23623683,1.6295733836,1.1666737511,1.3103288692,1.8625107298,0.8391600104,1.221976895,0.811237071,2.5372506964,0.8903491667,2.0896715885,1.7991736061,1.5634523638,1.8667681822,1.7539450581,2.0600033557,0.7853037071,1.5115994199,1.090957991,1.7284482804,1.0029373648,0.7847151471,1.2358806358,2.2167248048,0.7958613898,1.8032048219,1.653774777,1.6815486388,2.0506973557,1.3947088902,1.0764142593,1.0890725432,2.2005991033,1.593989745,2.1173404895,1.052083141,2.3950346014,0.9384229122,1.0960641749,1.269274404,2.2999549192,1.4044322972,1.8885267133,0.9849148032,2.0599616664,1.8320080466,2.2788949801,0.9243522843,0.9483282082,2.3604218643,2.0263386315,1.3251436827,1.0325283891,1.9131752634,1.0523538843,1.4602953088,0.9251325236,1.142567914,1.159008914,2.1386993397,1.6306368265,2.0387904431,1.7131252368,1.838064912,2.3670313286,0.8245393651,0.8728771419,0.8942637096,2.0942279164,2.4406711111,1.6612398651,1.3791063059,2.624366825,2.4998751568,0.884166275,-0.0070481412,0.6674310209,0.8431134778,1.3587796171,0.7437235437,0.9862422485,2.2676543138,2.1540459618,2.2847910591,0.8371461757,1.5035589624,1.5902267082,1.0613674288,1.8791082583,2.2407972084,2.165045818,1.2632500456,2.0699442263,0.5671291513,2.1210691632,2.0745058591,1.1031722738,1.0865214952,1.5080931236,0.9550218517,2.377339499,1.3578396685,2.6170022559,1.2819664392,1.5409839313,1.6019813388,1.6753676072,2.2470986013,0.9055690236,1.289258186,0.8059818076,2.257119223,1.5524986466,2.555771279,1.3973831552,0.8495569235,1.1334520159,0.9575723748,1.4205869569
   1.3817424623,1.2720314279,0.7090159084,1.63657896,2.3301916787,0.7428792005,1.044728827,1.603110649,0.7084519688,1.2343680773,2.4192638179,2.4080000493,1.062713583,2.4226812049,2.4160905664,1.5079154127,1.5617510797,1.2869108888,1.9753382049,1.5396770184,1.4781870045,2.3792534911,1.0033034951,2.1134162501,1.4862242097,2.2201412011,2.0905462308,0.8785171674,1.5510466099,0.7762479408,0.8196652335,1.004509375,1.7279371472,2.3861128511,0.8587906629,1.0464442656,1.5354375833,2.1786579712,1.9022417734,1.9783525211,0.8168564114,2.4036073879,1.9325549538,1.2143928553,2.4902677223,1.4838714473,1.8974735525,1.0188610909,0.9476437292,1.7859562586,1.3056184117,0.9798097219,2.4106497975,2.2976049828,2.0994924695,1.7506072409,2.1180544671,0.8593613438,1.8236371441,1.5365719802,0.779377453,0.0584383183,2.5156258817,1.5070550078,1.7950815168,1.2990596787,1.1499329015,1.8214057678,1.0251989266,1.6675568692,1.0279307702,1.1630242219,2.7251636786,2.5480981261,1.1085410137,2.2949529579,1.1814371921,1.0788020947,2.0179529818,1.3117898402,1.2598626054,2.0631437612,-0.333964095,1.0027964317,0.7738706926,1.6936237391,1.7500595382,1.816433213,1.4043216185,0.9721698032,1.235564134,1.4650467904,2.0147031566,2.0135414909,2.0006581536,1.1221392706,1.3139843671,2.388127716,1.1863446798,1.8737756194,1.1261036172,2.3690464005,1.6933434709,1.9076232717,2.1003055514,1.0009275908,2.0086868688,0.7326244671,0.8508257934,1.6802162803,2.491671916,1.0435171315,1.3133544532,1.3094239483,1.512227979,1.9246105418,1.7874084381,1.0748676574,0.8851179456,1.7863846139,1.9479557493,1.1913573599,1.2887468168,1.9125436273,1.8246428294,1.6765365561,1.5941106292,1.0462001166,2.0608298124,2.1397261422,1.4591967485,1.5331875584,0.9780121217,2.2677043429,1.6646057658,0.6846809634,1.8690580932,1.1583433743,0.8643065108,2.058243651,2.0527781723,1.1199055569,0.6458443699,0.941305955,1.9448000264,1.2486484044,0.8270366682,1.8754668657,0.9863206883,2.0044655721,1.5825514447,1.5809073533,1.1736822157,2.6355484309,1.2489542316,2.0443791667,1.8214681459,0.8413858892,1.2560613315,1.7594633117,1.1964311069,1.9769225762,1.1303678967,1.0293407895,1.0930027844,1.586145537,1.6631356898,1.8353814231,1.4379255874,1.6544170125,1.746458694,1.1429067393,1.6879169958,2.1453615235,1.1500397601,1.4819657989,1.0246006128,0.7624574771,2.0732833548,2.1390171569,1.8579740616,1.0304873114,1.993455824,2.130005709,0.6351393632,2.1653775856,2.1142719056,0.0550485227,1.466581188,0.9893621207,0.918614759,1.678262519,1.0720566107,1.3508075211,1.4083071592,1.719070387,1.6405655711,1.5944961758,2.2725952292,1.9510987894,0.7787734698,1.2336126925,1.8970954077,1.4568581976,1.8783973165,1.9116943686,1.1820207969,1.3971520735,1.7232254079,1.5572578811,1.4255773304,0.7314002105,1.2750078181,1.5786634145,2.0038926836,1.0578712039,0.8680074594,1.7541169387,2.1178602137,1.4599996431,1.0269418073,0.9859968313,1.8729372257,1.1471635586,2.0418135853,1.9337989486,1.4323236343,1.521542055,2.0354950797,1.9691563058,1.2725389062,2.0407012896,1.0686319378,1.1569134967,1.5253928531,1.2478330046,0.8662518755,1.8003322097,0.8486770294,1.1796153866,1.9437458798,1.0989335668,1.6267304786,1.7053631535,1.5378663304,2.3551385558,1.6913938519,1.7474753758,1.8818286157,1.4827398732,0.656324135,1.6982208931,1.4792113277,0.7152247828,0.7582518065,1.2138337757,2.3143108433,1.4087259128,1.8098270883,1.9833192457,1.8675147636,1.9570504875,0.9333397723,1.0922353949,0.9164437975,2.3041692724,0.9187730008,1.6483802905,1.4623887083,1.7279508719,2.0024918545,1.0462235081,1.2252340371,0.6209312665,1.141148496,2.1056525259,2.091124104,1.2976956755,0.9912944449,1.1795203747,1.499017231,2.3349695403,2.2481105698,1.5068327876,1.4520198198,2.2779573285,0.7912769907,0.6287129813,1.9071708588,0.7825188734,1.4160100509,2.1705967842,2.3914994475,1.6361162232,1.2754694351,2.4175810078,1.6214139613,1.8586646226,1.2527688641,1.5535571889,2.3785152247,1.5032028898,1.4996891183,2.3905955236,1.9133745197,1.6862150135,1.2202162766,0.9754173064,1.4733987122,2.1828109924,2.1875695633,1.4306680159,0.8106506225,-0.6959653367,1.6305009768,0.8258981702,1.3432556653,2.2422475631,0.8765496714,1.4470587148,2.2370499459,1.9350017135,1.9967842229,2.3002400233,1.6284761535,1.6160091066,2.0502901643,2.3874361686,0.7353586199,1.0275476685,1.5280686472,1.7928857157,1.8607250303,2.3353075033,0.3111342698,1.7954493225,1.3381134425,1.830246844,0.9763994198,1.5974377773,0.1397731695,1.5825032566,0.5668479462,0.1452886588,1.0291480666,1.8064258343,0.1265820611,0.9851807686,1.3814267226,0.7424392919,1.5139399693,0.4459385081,1.6185066223,0.392866822,0.4850486152,1.8300035974,1.7546522537,1.6296981617,1.2775796927,1.8558809698,1.1689559813,1.1847195088,1.2868082306,2.3648917946,1.3881180989,0.800778959,1.2901542425,0.7231107495,2.1769027986,1.3780509567,1.1304407326,1.1345467173,1.7204627441,1.33962453,2.1336443419,2.2808227574,1.8121197405,1.8065915439,2.346199146,0.8003964656,1.7020426705,2.3227605569,0.8307486749,1.6408937423,1.4398837893,1.9043120507,1.4890507356,1.2299790612,1.9924873157,2.4034985159,1.7290712665,1.1361741196,1.2593189312,2.1335179042,1.5102280856,1.6415877919,1.1866729125,-1.0151232083,0.5508208245,1.9953179924,2.1520597885,1.4492534046,1.4742547747,0.6289168699,0.5373209629,1.2939227384,1.4359471651,1.7510824463,0.9126973342,0.9617131762,1.6030967404,2.0680122316,1.9154211076,1.8838559269,2.1631626117,1.9931508387,1.2594191274,1.743164912,1.6982545988,1.142431473,0.9162869635,2.3375473936,1.4033075057,0.8629565766,1.0651101728,2.341226573,1.0520632465,0.9348665252,2.2893931136,1.4002425355,2.0962124945,1.0817428356,0.7906346479,1.5539371699,1.2032655001,1.8671738201,1.1519072701,2.1247551835,2.0250393574,1.6341388591,2.0643107434,0.5994487142,0.9236372642,0.6900796504,2.2074092527,2.1329430723,1.9005018059,2.1878298343,1.611845214,1.6489143349,0.8378629579,1.6876977769,0.6390575365,1.9961447458,0.76842619,1.9156271844,1.4876194569,2.3152075163,1.472081675,1.4304486009,2.2153975148,1.3033580601,1.7921227067,1.4316092975,1.5497297823,1.3992427411,2.1144862076,1.5969133202,0.829117351,2.2065586139,1.0425710462,1.5128967594,1.2825049743,1.3655198764,1.3002743604,1.0886088006,0.904567663,0.9883442697,2.4953231084,2.5347577132,1.6140929425,0.5107640229,2.3708403318,0.8976246809,1.8673820946,2.0748435454,0.6844788994,1.5033347125,0.9317965563,0.7750840219,1.7048792512,1.6336405869,0.9307327196,1.3954739616,2.3751806055,1.625395815,2.1934838724,1.2172843843,1.9657259705,1.2736837712,1.4154998614,1.1004643715,1.296813968,1.3909444165,1.1574034156,1.9679967046,1.0105170295,2.3607064725,1.6378313172,1.2703674409,1.4033366324,1.8985945611,1.0089652553,1.3338275203,1.1564624677,1.3337097504,1.0783288031,1.268181969,1.6112064134,2.1339513437,2.5134404418,2.317301739,0.7918913222,1.3608209231,1.8597603741,1.4118653242,1.4467081073,1.3588165803,1.0250737908,1.1393932546,1.6511676181,1.7286935982,1.8183053558,0.9129347097,1.5512516267,1.420906843,1.0324518561,0.9940916982,1.1555300005,2.1958469314,1.5395861429,1.0798274191,1.5910170628,1.8777698456,2.3606729262,0.7099621691,1.1348299233,1.1854447412,1.3769140145,2.3626285114,0.9122098144,0.8425838501,1.8909681885,1.1828348127,2.1510517747,1.3866059397,2.44086981,1.3682719683,1.1066725449,2.4802792585,1.3206927971,0.8596348081,1.8559867724,1.687211787,2.4321914251,2.2065390583,1.2893199135,0.0556534211,0.349442895,0.8784629434,0.3744967171,0.3427761179,1.7118377683,0.1972669956,0.3839896796,1.3134445962,0.3909053852,1.5911550009,1.5326991503,0.3218677845,1.4014234235,1.0550313438,1.5334673158,1.4777525438,1.3722078459,1.3638343107,0.7463945407,1.1252362845,0.8376384944,0.7012121278,1.3033182113,2.1922478574,0.9026036239,2.1389343814,0.940177524,2.4382958823,1.5916310627,1.3203255191,1.2560718648,1.955134515,2.4415196025,2.0981789728,1.6765518692,1.9814333794,1.2577353961,2.016469677,1.4397609738,0.0753930208,1.3864770715,1.5806983425,1.2470056025,2.5387439902,1.8366937855,0.8505974346,0.8868669881,1.7445909806,1.2457815868,0.8819866327,1.7553000639,1.350006514,1.7475773312,2.5421486998,1.1872735654,2.2531810604,2.0113292574,0.8687217657,1.7454806992,1.9374666766,0.0731782098,1.55819626,1.6359424124,2.157896189,1.3285700091,2.5305805236,0.9899601077,1.2526481816,1.0202761758,0.9508498988,1.4695265769,0.9794485873,0.8079518543,1.1872582806,1.25676739,2.406149512,2.230646885,0.7173630746,1.4293430936,2.2387810757,2.2553908936,1.5062110648,1.1067482694,1.0430684196,1.3508997946,1.8098682552,0.9642377139,2.5732483347,2.0529424765,2.5364906905,2.5819594553,2.2676978613,1.2817072063,2.1090220844,2.0772444345,1.8143624453,1.541172605,1.3456948172,2.2698172972,1.376451339,0.8527221161,0.9736399463,-0.6599799135,1.4582334311,1.9162003224,1.8992073895,1.6393204807,0.9754506136,0.9184596301,1.7439147221,1.4201690459,2.3556405004,2.3113674788,2.0334815956,1.2312205276,0.9601690963,1.6754087339,1.260982997,1.4856738494,1.6696915,1.526260997,0.8634136221,2.2341889635,0.5397732514,1.2855079949,2.3510737454,1.4694463075,1.4750673992,1.6537408213,2.2395700919,0.9854393457,1.0779775663,1.808640993,0.6434654184,1.6620449726,1.5217984234,1.1768743943,2.4284451153,2.3773571676,1.291083919,1.504809948,0.617340185,2.0934684111,1.5462889308,1.5400937161,1.5940044942,1.5858434595,1.76578626,1.5581514299,2.0726079848,2.3383123012,2.4064868361,0.899420158,0.8591255257,2.3698627901,1.598518533,1.6039375021,1.105629474,1.5631862365,1.4183484904,2.2402688471,1.8293710432,1.0321654348,1.724162007,0.7203737346,0.1980898936,1.5304289597,2.0630599159,1.2313425454,2.3839647492,2.0701041514,1.0450719517,1.4333507671,1.873574632,2.1145224579,0.9252147386,1.8187190089,0.937445668,1.772126557,2.2917081223,2.3836102484,1.9599863282,0.8629427812,0.8083237637,1.6546784385,1.3995749528,-0.3061856114,0.9743492617,1.6707924547,1.3909674617,2.0072912988,2.0113485392,0.4355295618,0.9275030143,1.8368062172,1.8986523505,1.0818656772,1.3938173779,1.3583267083,2.1759652969,1.3328517515,2.0966879697,2.000052243,0.4524650084,1.3427356596,1.6230687433,1.3073561648,1.7632266848,1.1797810273,0.919576901,1.3603662177,1.5965418152,1.4024254386,0.9324835226,1.066770372,0.9369223432,1.7447033739,2.3357310004,0.9122481214,2.1907539852,0.9882794974,0.869920601,1.8742881105,1.4397426262,2.0700693348,1.4048763081,2.021087734,1.8083678635,2.0968298126,1.1347215943,0.8037849454,1.3512931972,1.0349439109,2.1215588961,1.4170325349,1.3752073086,1.2680359886,1.3340712398,1.8136356458,1.8875698292,1.1657831101,2.4129850177,1.2739420566,2.1638550574,1.3266774761,0.8827825628,1.1638620301,2.3777798594,1.3489339717,1.8277093313,1.3891628109,1.3910949078,0.6187512202,0.8405001569,1.0290539455,1.0177926683,2.2240631569,1.8521131811,2.3585222806,1.251153017,1.244381015,2.3844705562,2.3105689761,2.1537901925,2.2336337236,1.4500675001,1.7077859838,1.2684756498,1.8449951971,1.325440173,0.4510127918,0.4954065646,0.16708887,0.748933049,0.3091076849,0.2570717764,0.6374937427,0.665419352,0.667439446,0.3397380872,0.7147368205,0.477102018,0.1391054638,0.6905077508,0.16027447,0.5660899784,0.2055836577,0.0469153658,0.3662796632,0.1240031266,0.2712803751,0.4961249319,0.4949795491,0.3342961146,0.4843304283,0.1547921443,0.3710056512,0.742140054,0.7515212226,0.4112641324,0.516723535,0.2292242574,0.3594358687,0.7065689834,0.6151601707,0.5644213767,0.5934296123,0.4037215742,0.377102688,0.6796245572,0.3929514738,0.4211729762,0.0398518332,0.3173166221,0.7468814565,0.4253546789,0.7449244871,0.6119111545,0.0087850637,0.2658224396,0.6784455466,0.5878786723,0.1247096167,0.1518911998,0.3976279745,0.1817495481,0.1107518847,0.2708619332,0.6228787218,0.4454434014,0.3056848777,0.4109927981,0.1093822898,0.0122053677,0.3947982007,0.5453839269,0.3349450611,0.0255173226,0.5236338713,0.6210923871,0.089995618,0.0544450959,0.0698185673,0.0424638401,0.2085484829,0.162405277,0.0678140072,0.0305213325,0.2352210988,0.1720026887,0.6718125977,0.4023091627,-0.2834519653,0.2213941972,0.4842900973,0.0154731044,0.1168849553,0.5584568899,0.4562451234,0.1498361927,0.1853138137,0.3593477216,0.5535496156,0.6243584197,0.4251851166,0.4511837821,0.7240320657,0.4130967786,0.3178806941,0.4631128467,0.4132791174,0.280227467,0.5297735232,0.5125221804,0.1852769002,0.0666650317,0.4409678174,0.7106140122,0.1699352589,0.360456403,0.1207940949,0.7364084827,0.5707365245,0.2037223101,0.4204988437,0.4085658415,0.1224724253,0.6860448217,0.3837380072,0.3282636735,0.6408179431,0.5839342481,0.4618726951,0.3301800685,0.6827214782,0.5249184473,0.340633885,0.2795824076,0.0317023178,0.220561652,0.452917505,0.2466423103,0.1919573233,0.2513788163,0.3353247091,0.1373600871,0.5581712994,0.330839947,0.4502538887,0.213858835,0.2999686863,0.4607349834,0.0074295697,0.3075386382,0.3396174532,0.5816580021,0.1948619597,0.441519953,0.1632490161,0.6123707229,0.1819057514,0.0455283974,0.2670776784,0.5766559986,0.0595493945,0.0993707942,0.1840497762,0.5546429109,0.1627098691,0.3411105977,0.1541839076,0.4768839738,0.7295789608,0.1409787208,0.7293448095,0.1131662117,0.5818630942,0.3642629406,0.4426678407,0.5569678165,0.4416568546,0.2188825879,0.6311949941,0.4517328046,0.2716057716,0.1604860466,0.2736727759,0.5182124534,0.3490423237,0.057693849,0.653308915,0.0456528112,0.1218420371,0.6029401876,0.0761729876,0.3602623306,0.0867694306,0.5465318712,0.5039126872,0.3039903604,0.6548837543,0.5191923474,0.2300808753,0.1030834613,0.1679057749,0.6212446959,0.5543404083,0.0427869574,0.6818191553,0.6425965708,0.2109471135,0.4300492858,0.6877641438,0.380557699,0.0856596238,0.0932794876,0.7494297454,0.6484448618,0.4399079583,0.1175555849,0.604597398,0.7433754166,0.6596361985,0.4073262503,0.4682860017,0.3598149063,0.1543028614,0.4253400812,0.3207318972,0.6288961082,0.3369210316,0.4803310582,0.452281999,0.4943112969,0.0501388374,0.043342563,0.3218084607,0.1334735682,0.2902485005,0.2555512024,0.37751641,0.4495927203,0.0542788051,0.3954504217,0.1784101493,0.5243681373,0.6191735725,0.049358661,0.7158669627,0.4122758062,0.053902849,0.3477773931,0.7486437625,0.587270422,0.4725668801,0.1441407485,-0.0009518131,0.6333309565,0.3420880404,0.6276038108,0.0297775601,0.6076876586,0.5179819712,0.133301618,0.5513308946,0.3398239649,0.046058982,0.0579538743,0.1926000573,0.5306234405,0.5386599574,0.7311694723,0.4323717195,0.2962800793,0.4639792178,0.4599711489,0.3786851823,0.0213389073,0.4369709216,0.1953574606,0.7360327917,0.1525658979,0.3113669524,0.0858876938,0.1295295289,0.2808379517,0.2404549149,0.7512224524,0.4905622495,0.6271894774,0.5134044709,0.6632441813,0.4061906701,0.3430581114,0.2462505244,0.1945117796,0.4014943637,0.2418733664,0.2971656831,0.3558649911,0.4336210833,0.0124397551,0.63244171,0.1039081081,0.2935362272,0.679228593,0.4751197295,0.4375773608,0.2310543458,0.6137877793,0.3033612809,0.4392168761,0.5994778789,0.0457650791,0.6114212098,0.4129717564,0.6838020497,0.1922685491,0.5403863849,0.4924174026,0.4886435815,0.1169814403,0.4157495505,0.5388036719,0.6573171207,0.4178304665,0.0343266794,0.1219993963,0.5651125325,0.2738179505,0.2032582894,0.076719305,0.419032065,0.0017960279,0.4878163269,0.2726057878,0.01811109,0.5264087465,-0.5653832742,0.4034901361,0.0076264294,0.7472412635,0.2562418209,0.1267493848,0.6060607788,0.117186088,0.328881282,0.6681372567,0.4461417636,0.5536541062,0.4145270775,0.3461335532,0.44802677,0.0422369512,0.7053878042,0.4119135832,0.3901953953,0.4030602546,0.5070737043,0.4921515779,0.2695942018,0.0297101933,0.141954085,0.125631774,0.7167139872,0.5791017675,0.2843961218,0.3533770937,0.4394340644,0.2924566298,0.4831745178,0.4418494746,0.1120152345,0.6537956039,0.144612636,0.1273621741,0.1229885279,0.267012238,0.6151875483,0.3388283489,0.5641262975,0.5454571484,0.155288822,0.4388845519,0.3246771437,0.4279072544,0.380932169,0.3466581628,0.6304407614,0.5201217715,0.3534008616,0.4316043069,0.3073632617,0.0812920328,0.6561887478,0.3348745967,0.4614446201,0.1054213644,0.2305412442,0.3174177587,0.1263928074,0.3269658849,0.1494505916,0.7137407083,0.4204760241,0.7466228672,0.6846605034,0.097825111,0.4104260062,0.4027659132,0.2706074064,0.658544238,0.4955192557,0.3889292956,0.3969609527,0.0650455034,0.5912205809,0.3562847428,0.4960271738,0.0590290637,-0.1757072373,0.3175967535,0.6644855599,0.6039153125,0.1877880548,0.6984961766,0.0697673391,0.5387265547,0.4823083057,0.6871277333,0.619197202,0.041491151,0.1733349486,0.5142124576,0.5620105879,0.176698083,0.5897171778,0.2876439814,0.5644074025,0.4532524466,0.3432241981,0.5998729349,0.4949558489,0.0590337965,0.5515074462,0.1073953743,0.7368432696,0.1435383136,0.153219956,0.0429893334,0.0344660683,0.1567964304,0.7191960244,0.3585868043,0.3701078828,0.4809193736,0.3870967588,0.6505638553,0.2026733727,0.0794263343,0.0210476931,0.4356125172,0.3367000064,0.5772665081,0.2590085485,0.2245310954,0.3259967429,0.0815769749,0.1795554691,0.7511179379,0.3350718151,0.482719279,0.4564566868,0.0923504072,0.4700248559,0.3258977095,0.2383017604,0.1086893214,0.0041586537,0.1448170462,0.1990962794,0.5303215109,0.0209203407,0.3942892121,0.2845149583,0.4705560267,0.1413165022,0.4124823778,0.3181042358,0.0404092325,0.0203277849,0.1164157277,0.2311354502,0.1212258637,0.2725590585,0.3151911589,0.6761249812,0.6429784531,0.6553655113,0.55196476,0.4940491874,0.7026560104,-0.4490147087,0.4816891616,0.2906963431,0.4110994992,0.356307254,0.5272736693,0.7226735005,0.6157847017,0.7381541757,0.0803804555,0.6137494305,0.3086549425,0.4453988899,0.5732714732,0.2659179136,0.1751982781,0.6520976363,0.4948952031,0.282589265,0.5138947039,0.4566022182,0.2225130875,0.1902569506,0.2485558236,0.6339865563,0.5217069291,0.0711196057,0.6435224968,0.3466197236,0.211417968,0.3861738964,0.3943972118,0.3714304072,0.164321078,0.6382121006,0.3818614735,0.3099725858,0.5699764334,0.7050009209,0.2292327849,0.1350805305,0.1442053592,0.2862498811,0.0767551678,0.0228081463,0.6937798781,0.4020551409,0.3464378715,0.2501997072,0.2753158739,0.3813092636,0.0131813998,0.4649418257,0.2038660564,0.3175181827,0.7392028664,0.3838435714,0.0990239231,0.7388382547,0.298427515,0.6112595902,0.5042270306,0.4849681689,0.2264320639,0.0235764411,0.0849643415,0.0152065568,0.0882303269,0.0703257266,0.411929668,0.2316641841,0.1005711961,0.3083322976,0.0964444233,0.3331905845,0.2858798536,0.0553497512,0.5786031885,0.1724318971,0.5113025134,0.0922514668,0.2170157745,-0.4571741228,0.138793731,0.6274317201,0.2165120379,0.0325098136,0.5440590644,0.3067902035,0.6659945792,0.0168879789,0.0570220793,0.3117244098,0.2688674291,0.3566554119,0.1101466871,0.3888197372,0.5943322844,0.4321593783,0.2518323504,0.3662505189,0.6266916747,0.1117922852,0.2323572338,0.3414917448,0.6205501618,0.1724240939,0.2412770537,0.671586708,0.0435635457,0.4548393536,0.2996664265,0.0678987025,0.1201939597,0.0084995414,0.7448689502,0.5409452887,0.3635464302,0.6448426891,0.0438660572,0.6510053427,0.6810635624,0.0262845873,-0.4493556742,0.6938195127,0.3102910881,0.0496135819,0.3619382331,0.2149355387,0.6014184344,0.1656154332,0.2476237246,0.221296963,0.3941805845,0.3831400417,0.6922442075,0.66177561,0.159087704,0.5327841124,0.0761180821,0.6110604805,0.2746122459,0.1884953946,0.2573639288,0.6328271966,0.4425633462,0.7130507122,0.7190523391,0.3981613687,0.5114437139,0.5528263445,0.6285743363,0.1565354497,0.6922426199,0.1756444251,0.4406255938,0.2236359416,0.0047446339,0.4765033851,0.0519245637,0.4794412474,0.5311537672,0.4101358265,0.2637256873,0.5188064902,0.0331995061,0.6761367753,0.7520213091,0.5413187837,0.0152725678,0.351144137,0.5845600418,0.4713369543,0.3702995898,0.3855418065,0.0068737694,0.2729785961,0.6825211371,0.3019595155,0.429542053,0.5385477942,0.0119670086,0.1542331637,0.0921577652,0.0917446721,0.3806016564,0.1930722739,0.2967864011,0.5108488303,0.7424703951,0.6467167573,0.6524783471,0.6845365871,0.1175189283,0.4588523848,0.7397658223,0.7013989687,0.6114676444,0.1414750562,0.4133629535,0.2150162873,0.6254774025,0.0686882553,0.2132263207,0.4091216086,-0.0083159411,0.2425406498,0.6729902526,0.1047199432,0.4585202673,0.0721967129,0.6955181999,0.5970776234,0.0983221975,0.082120402,0.1304166247,0.7124556356,0.3068101262,0.383934808,0.6742497516,0.1107605039,0.3922422117,0.0494957842,0.4443015586,0.2506880974,0.7153916968,0.4148580693,0.4840048231,0.1725057655,0.005749678,0.4288189886,0.2711572366,0.685461492,0.0962870228,0.5298660553,0.1777174455,0.1238030755,0.6354557142,0.610097013,0.0957158652,0.2775386501,0.1933452687,0.312169797,0.4676348885,0.0167109028,0.0628648372,0.0164702088,0.324530603,0.7476498964,0.5699553707,0.6686280254,0.6348766494,0.4892945356,0.2371438585,0.3625468067,0.6511488364,0.0276141148,0.3844189806,0.616555884,0.7244385136,0.168618626,0.2864338451,0.0446394384,0.2994549069,0.4457541536,0.4411862186,0.3390178815,0.5036281896,0.5006571983,0.3192193669,0.4951856302,0.6537867341,0.5639976518,0.6406484981,0.3904106407,0.6918336093,0.2320798504,0.7426043284,0.0344021553,0.6367537029,0.3868093085,0.1589812591,0.7046581336,0.1081199949,0.2581817586,0.61646574,0.5595883332,0.1043225014,0.501426805,0.2943299164,0.1279665974,0.668019397,0.3329993132,0.4970800534,0.7004528576,0.420485439,0.4026157978,0.1002927363,0.715701604,0.7165168651,0.5361223313,0.163196944,0.0580162584,0.3416136651,0.4152748175,0.2163678077,0.0128662667,0.3179300739,0.0074906366,0.6546164855,0.3416487338,0.0831929113,0.2161284136,0.2269040485,0.188689336,0.4859746222,0.461795191,0.3012536405,0.1707936629,0.5495995602,0.2255018654,0.1048987512,0.654658757,0.0214672304,0.071779139,0.5956982486,0.5860690866,0.1303131265,-0.6715331485,0.1693718747,0.3779278052,0.4971422492,0.0044877921,0.0787395663,0.5295995904,0.7658819619,0.5797829538,0.6817595204,0.6880769034,0.0016039682,0.4104557474,0.3597371059,0.307667127,0.1458827977,0.3521578582,0.5558661855,0.0699678102,0.6095534605,0.3201367679,0.6350056553,0.2597280434,0.2420833593,0.2026631944,0.1545604535,0.3034659536,0.3293911039,0.1796480016,0.6997368901,0.2511172746,0.6959200283,0.4940661636,0.3878190679,0.7406407274,0.4860169314,0.6562561555,0.3088566035,0.0598666996,0.4128108725,0.5514688342,-0.2273433303,0.516788037,0.4386819523,0.3202242998,0.0275589514,0.2682446051,0.7504623708,0.5627248591,0.2369300806,0.2050134833,0.0532722109,0.6425945678,0.2200398227,0.7100252314,0.0189853227,0.4188766177,0.5974573777,0.5494967951,0.2401712561,0.5968342426,0.4853040589,0.1916672736,0.303149561,0.3099542917,0.4447994458,0.3457437841,0.7198387132,0.1551671313,0.6468364842,0.1442706098,0.5146662292,0.0631367798,0.6389052501,0.7672835287,0.589714381,0.0922317582,0.5401938393,0.6498812637,0.2726746025,0.5222593525,0.2423511322,0.3205359056,0.578404637,0.0709773303,0.6071818326,0.1069064441,0.3660547278,0.4752978009,0.0296601184,0.0025601809,0.6361301226,0.5210351306,0.0531660959,0.1123624822,0.2612015781,0.6248119123,0.070113302,0.1404442928,0.7197347679,0.5800278457,0.4309784371,0.5140644887,0.575789086,0.217964776,0.6889165215,0.3536537201,0.6698506344,0.0794335495,0.2532804704,0.1725115436,0.0915521461,0.7057115791,0.1285553109,0.1721830614,0.5805316122,0.0712260691,0.5926828156,0.2868726457,0.5790041695,0.6591496872,0.5263029553,0.2665213865,-0.0943651583,0.5045096327,0.0141821825,0.2560676087,0.5397000858,0.6576191885,0.417654317,0.4512455735,0.5577928541,0.4351787855,0.6249569,0.09634194,0.3565475157,0.0079331884,0.2114739655,0.4054588322,0.1859175033,0.230678689,0.6841084512,0.1943851577,0.4529943398,0.612153021,0.3039869832,0.7101452213,0.7581478799,0.7092841481,0.6890820927,0.0058439178,0.0257115907,0.261781689,0.2618427292,0.2032098077,0.3445770992,0.3851905871,0.4184685306,0.433521691,0.1117352324,0.423759334,0.6266422378,0.1842097103,0.1421954318,0.1058020214,0.4131325209,0.2159064101,0.0094331616,0.0393875919,0.2596222119,0.2430676331,0.239617962,0.3605557636,0.6890348278,0.1112248845,0.6971856718,0.1564956978,0.1223824195,0.1846375463,0.6357529841,0.0116511731,0.5848947649,0.4614030127,0.7016337887,0.0938454725,0.6336103285,0.0375118321,0.3728362986,0.7657569431,0.1541626568,0.2291791035,0.6084761779,0.4589988738,0.2973664611,0.1328284582,0.5889883842,0.2900241609,0.6822991455,0.0445472428,0.2656959017,0.4375548568,0.2972721898,0.6186641855,0.228278965,0.1494037173,0.2581441817,0.6630104803,0.2154046577,0.5075821421,0.1625242093,0.4310916073,0.4210083848,0.3201816501,0.638447626,0.409283616,0.642015573,0.0005692786,0.1987542474,0.108532816,0.1493468858,0.6890499684,0.589299603,0.0306184675,0.088509665,0.4716272428,0.1255760074,0.0108946481,0.6866793286,0.0780165384,0.4721386257,0.413680944,0.4647674657,0.1393729844,0.336796961,0.4846043145,0.7443054701,0.6637750363,0.2761716327,0.6271337897,0.2794095383,0.7669865926,0.7146518108,0.3269657362,0.7435062521,0.2598242006,0.6855452989,-0.6246299357,0.7369247775,0.7476102959,0.6799134199,0.505848883,0.536399852,0.2717331824,0.5630663502,0.0626472987,0.0254275572,0.6640776115,0.3974362033,0.6889831768,0.1340131969,0.3934606534,0.6342501071,0.5189614522,0.2301783458,0.2836266206,0.132027291,0.6858620292,0.7152191242,0.1679849764,0.2929101154,0.4081573304,0.1060745833,0.3766691517,0.057023108,0.1857700348,0.6976218796,0.251242777,0.1589099642,0.760120944,0.4688859675,0.2324376326,0.7046442811,0.7364897559,0.3978167874,0.01040833,0.7413876654,0.4482766021,0.5478872602,0.5823690983,0.4368750794,0.6247570333,0.6088636986,0.5690456167,0.3815537303,0.1223637013,0.5724838524,0.7437784686,0.3044145467,0.7247256715,0.4767588063,0.6764734399,0.2155663864,0.4286262209,0.3347659566,0.5093770211,0.3900655155,0.6030885935,0.432589435,0.3755608858,0.4342823956,0.150741154,0.5230783816,0.6745316566,0.6723511019,0.72154989,0.1106890242,0.0875625604,0.491694948,0.6721862541,0.0992196321,0.2445314662,0.4385277513,0.3959158254,0.5825675023,0.4622967997,0.2344519239,0.2618672553,0.583626892,0.0269709843,0.4483260086,0.1336212591,0.1255291895,0.713555981,0.1476108517,0.5817736052,0.714599104,0.1304257309,0.0630430078,0.1235956847,0.0169887709,0.0256784326,0.7242405886,0.5486361613,0.6629670706,0.0804010133,0.7480006173,0.2579582605,0.766827713,0.0368119693,0.2716117282,0.0358027742,0.7533587671,0.3409415943,0.4607605977,0.3485081086,0.5434533408,0.5825190007,0.4312569523,0.6697421643,0.0393590756,0.5124778571,0.6578685765,0.3535066692,0.4583060124,0.3411143258,0.0750122329,0.0584558503,0.3097692769,0.4935134225,0.2256244002,0.4837978895,0.1989418683,0.6975000996,0.7671539337,0.4747898575,0.0182641931,0.2271010195,0.7461054029,0.397093002,0.7403703389,0.3500034566,0.3616474894,0.2709503061,0.4993859875,0.0650087117,0.1016051165,0.719093268,0.0046254151,0.6465475909,0.4726722121
