encog,BasicNetwork,java,3.4.0,1,1589124257678
[BASIC]
[BASIC:PARAMS]
[BASIC:NETWORK]
beginTraining=0
connectionLimit=0
contextTargetOffset=0,0,0
contextTargetSize=0,0,0
endTraining=2
hasContext=f
inputCount=235
layerCounts=236,41,236
layerFeedCounts=235,40,235
layerContextCount=0,0,0
layerIndex=0,236,277
output=1,1,1,1,1,1,1,1,1,1,1,1,1,1,1,1,1,1,1,1,1,1,1,1,1,1,1,1,1,1,1,1,1,1,1,1,1,1,1,1,1,1,1,1,1,1,1,1,1,1,1,1,1,1,1,1,1,1,1,1,1,1,1,1,1,1,1,1,1,1,1,1,1,1,1,1,1,1,1,1,1,1,1,1,1,1,1,1,1,1,1,1,1,1,1,1,1,1,1,1,1,1,1,1,1,1,1,1,1,1,1,1,1,1,1,1,1,1,1,1,1,1,1,1,1,1,1,1,1,1,1,1,1,1,1,1,1,1,1,1,1,1,1,1,1,1,1,1,1,1,1,1,1,1,1,1,1,1,1,1,1,1,1,1,1,1,1,1,1,1,1,1,1,1,1,1,1,1,1,1,1,1,1,1,1,1,1,1,1,1,1,1,1,1,1,1,1,1,1,1,1,1,1,1,1,1,1,1,1,1,1,1,1,1,1,1,1,1,1,1,1,1,1,1,1,1,1,1,1,1,1,1,1,1,1,1,1,1,1,1,1,1,1,1,1,1,1,1,1,1,1,1,1,1,1,1,1,1,1,1,1,1,1,1,1,1,1,1,1,1,1,1,1,1,1,1,1,15,10,21,16,11,20,6,15,10,21,14,10,11,13,19,12,7,13,9,13,10,9,14,15,13,9,14,8,19,15,6,16,13,12,13,16,11,16,15,8,7,11,8,10,11,16,22,20,18,24,17,10,14,9,18,17,16,13,11,11,12,8,15,12,10,15,17,6,15,16,8,15,14,10,20,14,13,9,20,19,14,6,15,20,11,12,18,9,10,16,13,10,7,11,20,12,12,16,16,11,14,7,12,21,15,13,17,14,17,18,9,12,16,12,16,13,14,14,12,10,15,8,12,10,13,11,11,14,11,15,1,1,1,1,1,2,1,1,1,3,1,1,1,1,1,1,1,1,1,1,1,1,1,1,1,1,1,1,1,1,1,1,1,1,1,1,1,1,1,1,1,1,1,1,1,1,1,1,1,1,1,1,1,1,1,1,1,1,1,1,2,1,2,1,1,1,1,1,1,2,1,1,2,1,1,1,1,1,1,1,2,1,3,1,1,2,1,2,1,2,1,1,2,1,1,1,1,1,3,1,1,1,1,1,1,1
outputCount=235
weightIndex=0,9635,19075
weights=##0
##double#19075
   1.5256641305,0.8640279644,1.5931983877,0.5216578617,0.7401074982,1.4269216832,0.9825011303,1.018023586,1.1489644192,0.4621864308,0.8127483402,1.1238466823,1.4798616376,0.8978151595,1.3924166622,1.4353873331,0.7741130952,0.3910975465,0.6151396996,0.0453495851,0.557611295,1.0552765082,0.2864614344,1.5269972752,0.4847473188,1.1294374983,0.7422041056,1.3385512584,1.0227206678,0.4592276244,0.0937270648,0.6381583954,0.9838884739,1.3840534386,0.0383834146,0.1288831735,0.2216758522,0.8797588204,1.4096953469,0.5492271135,-0.0538498385,0.6309399382,0.5995922638,1.0776362746,1.5515239231,1.3778371377,0.1453254691,0.6717947155,1.0501649505,1.0208322722,1.334071773,0.3476799513,0.9329929034,0.1655491515,0.948110059,1.5919124608,0.1931953211,0.400056857,1.0947261407,0.229394169,0.3888226328,1.153846532,0.8942378007,0.9196502964,0.4776022505,0.2899084596,0.6755583052,1.5335711656,0.2495012249,1.2906695341,1.0541397508,1.3540830897,1.0965820464,0.1645137609,1.2255284706,0.8428431954,1.1333667165,1.4555862227,1.561655167,0.272122332,1.0701551746,-0.6163953358,1.0101172848,0.1149601565,0.7336866021,0.6712036842,0.8956307881,0.5881392549,1.2075885249,0.2823910401,0.6921346786,1.6622408027,0.3757184593,1.5025648103,0.3458624904,0.991979088,0.4690823236,0.7345723489,0.6056993635,1.6871447078,0.6537842112,1.4467890151,1.4882434802,1.5066570262,0.4374620887,1.5861003043,0.3857732,1.076821128,0.2307162178,1.2836117333,0.7444028092,1.5131654373,0.199075462,0.214252659,1.2742210201,0.5880579303,0.6383179197,1.2840482055,0.6774082327,0.2719634906,0.977609324,0.6405975435,0.887426783,0.1435858813,0.5232592662,0.8892591595,1.1727658384,0.9099529177,0.2354000048,1.024850757,1.054847695,0.5564409622,0.4778506896,0.742888941,0.3070451518,1.5479694849,0.2485722779,1.1866858922,0.5958025261,0.487191075,0.1503143006,0.8225245277,0.7391527178,0.4725759707,1.6773293175,0.2990094272,1.598567509,0.2963965189,0.948037985,1.5114046531,0.3500037185,1.217498599,0.4662892742,0.521502061,0.8168777443,0.3656307676,0.3545207512,1.5271151418,0.9217262334,0.7975237942,1.6013875002,0.804110779,1.3468715727,-1.1286610325,0.3477057395,0.5483434921,0.4788886189,1.5444580251,1.6276848511,0.9283429887,0.4470546044,0.8464974808,0.8646174981,1.2782924474,1.3272251578,0.3079417463,1.1466996161,0.9002237772,1.3133197259,0.2339683911,1.2133092983,0.3487337944,1.2280472539,0.9064666165,1.033738772,0.5863170143,1.2409765639,0.9000551606,0.9418026827,1.1344937511,0.2880284267,0.3203008904,1.340988156,1.7494859658,1.6571996858,0.2001989229,0.9753876181,1.2466451729,0.2490704798,1.0387250206,0.2746039462,0.6654798171,0.4278445745,1.5977224449,-0.5543151394,1.6829065503,0.7732447165,0.1434933599,1.6480487086,1.4358386111,0.7877186743,1.1666019602,0.5826862494,1.0718900296,1.2336347512,0.6408897116,1.515718781,0.3267770064,0.1691273926,0.5887517126,0.9184170071,1.5494031326,0.1812556078,0.8503031719,0.5773352051,0.8302858284,0.3758787241,1.5876788759,0.3794013331,0.5013674085,0.8156330208,0.2673935221,1.3933950682,0.8560103058,1.3428272356,1.1714176578,0.7800799198,0.4980273079,0.1850736819,0.7903112447,0.533699312,0.7943915877,1.0146573783,0.5744728929,0.8754326703,-1.3114777487,0.7907207884,1.5071736808,0.292583448,1.4157560183,1.3590726093,0.3178125675,0.736513751,0.766835512,0.9905166067,1.6243324788,1.7415812915,1.0317673493,0.325572155,0.3963043326,0.780391241,0.2697113962,1.2416701459,0.321958281,1.3881893281,0.2606847005,1.5893969014,0.3618176146,1.386659551,1.4706749989,1.1453016425,0.6750050225,0.2451459552,0.2940874293,0.2461970575,0.8057419303,0.9997882147,0.3786853831,0.3439443829,1.2025551506,0.4272518045,1.6256520637,1.7035548017,0.397902307,0.7142425069,1.5834716964,-0.7056035912,1.7101244687,0.948706772,0.2340273058,0.4857086231,0.4854825099,1.4687473283,1.4798663471,0.3091611859,1.2492177328,0.777602766,0.5167367709,0.7260606904,0.2790766793,0.957891266,1.0431029123,0.7301586373,1.2927972421,1.3416831503,0.9560908599,0.8225318443,1.5257617488,0.7963106487,0.3060672453,0.6350937968,1.0537077957,0.7430522345,1.3329199109,0.3069506172,0.3236698869,0.3350709253,1.3342416568,0.6791982061,0.3873981228,1.1856088113,1.7216468496,1.2710785322,1.573110232,0.9688870144,1.1086472631,0.2925363006,0.2490522707,0.400195707,0.4014266511,0.684515662,0.9797544161,0.5007010758,0.2726581882,1.4144657308,0.4224298198,1.3299692879,0.7721152578,1.0839571581,0.2452140833,0.5724800521,0.3809572207,1.1375634189,1.0946861629,0.8760687307,0.7729765545,1.0980958028,1.1390961257,0.9990780435,0.8783684418,0.8703997828,1.3983312015,1.0500858044,1.0444208552,1.2522979168,0.1916928709,0.2621367848,1.4851886726,0.3720696941,0.5213904051,0.0163460741,0.0725142542,1.0864257531,0.0723079601,1.0738714216,1.4836358071,0.5842818182,0.6296537539,1.2006483311,0.6040121465,1.4470972689,1.0043163199,0.7189871207,1.4876917685,0.7265091249,0.8037281539,1.0000156614,1.1139812126,0.2336434353,0.0208056628,1.2501516348,1.3344536959,0.6018448237,1.5547724385,0.2549778854,0.0140595861,1.3170355058,0.1610300036,0.654370082,1.5228118801,1.0093892639,1.1018005902,0.9931660199,1.059294933,0.3939332425,0.9252383561,0.7369348534,1.3176293996,0.1941409057,0.7948239375,1.3244449362,0.3088338923,1.4292184391,1.4274104347,0.9687483157,0.7052997692,1.3162580327,0.8573354138,0.7540201848,0.5112822631,0.986147219,1.258396849,0.5630444642,0.4328627392,0.5694358491,1.500911627,0.37805644,0.9713531551,0.6958956524,1.5357607233,1.2290016281,0.9541170573,0.4031079136,1.4651203156,1.4792207581,1.6028260699,0.5888283372,1.4911066186,0.0732229933,0.6006834415,0.9376963092,1.0891360424,0.3704026327,0.2162975753,1.5587865126,0.4787549439,0.3989930791,0.5643649268,0.2258133965,0.9617392677,0.7530507214,0.2181149059,0.6360352595,1.4859711492,0.8635114119,0.3004686439,1.1470001277,0.5484688882,1.529792245,0.9892340444,-0.1628830517,1.0384368718,0.8993382801,0.1459672436,0.4909210212,1.4436081479,0.8667351326,1.582844163,0.2867289543,1.4704939782,0.864093446,0.6629930372,1.0513682944,0.2316843859,1.2247823912,0.5466829758,0.9424457105,0.7474116767,0.0191148118,1.4096686657,0.4704559766,1.3235763373,0.5984619713,1.3221088077,0.13504956,0.1252142976,1.5683915689,1.4328351954,0.4420115283,0.273878573,1.5825968766,1.053417448,1.0026422729,0.8854402678,1.0665853357,0.7011521002,1.0413509481,1.322560306,0.7028879702,0.6180216639,0.6174958108,0.0751005301,1.349683937,1.3632111039,0.1984192144,1.1642236347,0.0902084943,1.2509135523,0.0499735202,1.2777464381,1.2014841003,0.9034891092,0.2884627919,1.3278701717,1.4982354986,1.5049185016,1.2701175432,0.9540345952,0.8630839782,0.1079525304,0.9728246339,0.2989677547,0.8873851281,0.720592099,1.079930841,0.5180426867,1.5114298624,0.7982095802,0.3428330723,1.1122954242,0.4229906782,1.0991486807,0.2626199683,0.9613972427,1.1759680188,0.9593190535,1.395366425,0.6904736585,0.7900467412,0.6145002676,0.8202697702,0.6829612518,0.1142960711,0.7151997267,0.6167703329,0.9196691664,0.7444874579,1.6033680075,0.5432050811,0.3426726858,1.1558782692,0.1018835655,1.4590354971,0.5384219982,0.4489531349,0.9187561845,1.1260081246,0.3941408997,0.4178232211,0.5295631438,0.3189643968,1.1261344625,1.4624320491,0.5851196105,0.8708559828,0.8955336026,0.7926189313,0.9973035086,1.0185095056,1.3862182533,0.3328308064,1.6224683787,0.855708527,0.6701951893,0.2858158293,0.4341998975,0.295022358,1.1107244248,0.1902468449,1.0114989996,0.8198512822,0.900048378,1.3860389092,0.2190520866,0.2467450852,0.2173377572,0.5902386368,0.5189558336,1.2817621949,1.3580011925,0.95420876,0.1720023479,0.8513223252,0.7477746834,0.0556048078,1.146270101,1.0347933918,0.465033044,0.3393162919,1.5099584954,1.1344335237,0.0605698064,1.2702228105,0.594073259,1.164150468,0.2108275114,1.2989756513,0.8176657527,0.2368569559,1.5178799667,0.9333743046,1.1832906666,0.27369649,1.2107902905,0.2184218399,1.5266770284,1.2090289163,0.4644692003,1.0446513577,0.4367555037,0.6954553617,1.5254167715,0.2952309221,0.3913873824,0.8269610062,0.4943885442,1.5909363422,1.5537174049,1.5689773066,0.6312979217,0.4682974525,1.28094169,1.2120749142,1.4348185524,0.8192402032,0.7362456542,1.5631436228,1.2414337578,0.4661816056,1.3796225198,0.1370086192,1.1718307293,0.8028923278,0.8277021672,0.3398867175,0.7388618297,0.1199301773,0.365506422,0.5592360088,1.2044421374,0.6318198535,0.1262520224,0.3964471191,1.6816018593,1.6941450808,1.3430259111,0.6401903288,0.6952886752,0.1398162554,1.5660626278,0.9594852332,0.3300311116,0.160810864,0.8503365873,1.1722317365,-0.0621895027,0.894639682,1.2080466452,0.7250138071,1.2901052349,0.2849083737,0.9131826543,1.4284495641,1.031572183,1.1134061755,1.5251452871,1.590822692,0.0954400697,1.3472251639,0.2084229989,0.9797416783,0.9103796975,1.0215361497,0.9969453725,0.3940646028,0.0080040443,0.5473333646,1.5049014666,1.588355976,0.6098330131,0.1985160496,0.0337561905,0.6499463366,0.0608972462,0.2687352766,1.2339058257,0.6474447105,0.0611419336,0.9095891347,0.0534936833,0.2699722675,0.7361121619,0.7715193819,1.4493033147,0.4418541484,1.2530911809,-0.7837560361,1.5888021175,0.9710109781,0.9408375215,1.5802401221,0.9275047203,1.4637010051,0.4192550965,0.8664438092,0.8199750303,0.9372268371,0.927352133,0.2254016738,1.1178592235,1.5451602769,0.7046571621,0.8360637919,1.2110756555,0.0531645069,1.0989186777,0.8747155522,1.2251579354,0.8403230645,0.3263819719,0.1212271802,1.2822675812,1.4519374642,0.9750851867,0.7100276076,0.4034762067,1.4622090496,0.5211495247,0.8461627462,1.1152898278,0.5627427557,1.394013387,0.4147666128,0.7681157757,1.3589229216,1.1577027064,0.4305767029,-1.3992070631,1.2825619277,1.3580202447,0.5938994672,1.1780880714,0.6247012896,0.8550007411,0.8576460301,1.4182356739,1.2503069885,0.1693426562,0.5279325829,0.2429484109,0.6498167504,0.0514111312,0.0107299668,0.3648734994,0.3677961215,0.3244201198,0.3021672278,1.2889084372,0.5714051402,0.582039192,0.2371255678,0.8271708511,1.1535587521,0.5942491426,1.3091246971,1.5771536476,1.2444846617,1.30672601,0.9845884223,1.4832794509,1.2180997828,1.3967486337,1.4358428311,0.3115449234,1.0495637931,0.68147407,1.1334128062,0.7103560673,1.0696630847,0.1678975361,1.0124822091,1.3103855227,1.3104056624,0.7962503766,1.5683162418,1.1403171029,0.7098069401,1.4831647611,1.2481657426,1.3101789114,1.4596608814,0.7375074641,1.5009703861,1.2898729102,1.4706028366,0.8321860362,0.1655959428,1.162608564,0.6022097085,1.4942593883,0.7376546825,0.9342724917,0.1900512536,0.1137914413,1.4504649085,0.3336289696,0.6979016662,0.4265055569,0.7822376548,1.2647083039,1.0301655242,0.1062787165,0.8467985877,0.0935987025,0.0699642397,1.3611195649,0.2504227629,0.3954669913,1.0665658155,-0.35091484,0.5203633039,0.692775621,1.4316101848,1.4164068411,1.2691664256,0.8823132473,1.3771997948,1.5972354915,0.1000321579,0.1456807916,0.3367918941,0.2660390503,1.2726753972,0.1639429759,1.4932122721,0.7481605659,1.4648664233,1.2272184577,0.9794368283,1.6276485229,1.0513361497,1.4894687152,0.5954858928,0.2542886776,0.6966296217,0.6585577746,0.116939859,0.3644233806,1.3147320824,0.2323315984,1.2649511651,0.2038189489,1.2568114611,0.6399769731,0.6514748591,0.5379298207,0.8004646521,0.6913860255,0.6146504895,1.496544311,-0.0218154538,0.3159769446,0.0430839423,1.5319038849,0.482021649,0.6469370216,1.0712923797,1.282570439,1.5045395328,0.2080562223,1.2955308326,0.552453279,1.4505716536,0.3195850658,1.0020041947,1.5473024413,0.7656207134,1.3565759059,0.4715563417,0.5841135019,1.0237525245,1.3745965201,0.2496501745,0.699384931,0.3746839787,0.614018641,0.8249646345,0.7908730327,0.1950786084,0.5617524978,1.0933888266,0.0470837182,0.9879142373,1.1046131853,1.3586802939,1.2603939042,0.177998548,0.2080668603,1.4588781628,0.0953447533,1.6026773121,1.4876854706,1.4014735155,1.0424496255,0.9123185161,0.6909609293,0.6588723535,1.0001779561,1.1302810528,1.5929593358,0.3099491962,1.5127459775,0.1210901842,0.3575197588,0.4263151326,1.1841046264,1.5955528384,1.5020401999,0.0420076214,0.0717985403,0.1611908931,0.9510976662,0.4092828958,0.3147562773,1.5918568708,0.4407754656,0.5570286949,0.6218507017,0.7933745385,0.3372032574,1.3618279893,1.4970751966,0.1020696684,1.3781126377,0.675486019,1.5970615544,0.2025325304,0.4348663284,1.215376097,0.417050313,1.1625503935,1.1580038423,0.189106766,1.2165410768,0.6459124714,1.5954974489,1.5050600884,1.3062209155,0.4190956279,0.2728841293,0.6703233413,1.5789686508,0.1874111458,0.4367240053,1.3602646272,0.4399861293,1.4796421882,0.8105519959,0.416535478,0.3642305967,1.5524165287,1.385788311,0.8400043978,0.9431315491,0.3775965123,0.0430364994,0.3394603781,0.0603325335,0.1863387493,0.992109628,1.1696909802,0.7779946167,1.3809884629,1.4962131079,0.3234905756,0.2220825016,0.318788667,0.3136493083,1.474279294,1.1000716292,0.95936125,0.5477869622,0.1886851799,1.05874553,0.1104149984,0.6353983004,1.2479373855,0.3304608832,0.5847239371,0.7013311077,1.2433954106,0.7814681064,0.7747680215,0.4265739338,0.4458181906,0.4536028831,0.909374976,1.5441408848,1.0792920042,1.4920223553,1.3453222713,0.2562335842,1.4416948344,0.2980860948,0.2578538723,0.2828716181,0.3454728269,1.5726442931,1.260982184,0.8872377222,0.6280028595,1.0242454856,1.1908990009,1.5667569374,0.6911714516,0.5616558353,0.1637534975,1.4442949539,1.4140387237,1.3285219431,0.8970484698,0.8613223484,1.1713191406,0.52616191,-0.9355650165,0.9285657916,0.7824045112,0.3479791887,0.7247305471,1.3425400109,0.308120322,1.3230870071,0.4372368458,0.7997932641,1.2682972277,0.9228787514,1.1471211971,0.7702748899,1.5017036649,1.3733665478,0.1835659842,1.4457256458,0.3680745152,0.6780613953,0.2283401457,0.0862753697,0.5550825242,0.2673382417,0.1891748494,0.513302751,1.5278294369,1.2836388956,1.2434324561,0.8757980582,0.4928853399,0.867718693,1.0049500856,0.4749900673,1.4996292389,1.2844495876,0.5827402247,0.6131315986,1.0141653437,1.0572099936,0.2600197733,0.0278191703,1.1056278438,0.8249717698,0.6181636902,0.7902467917,0.4955111877,0.2855402107,0.8911836204,0.1164228756,0.6089005021,0.6259512527,0.5004876618,0.8194078672,1.504650902,1.4636695246,0.4668482201,0.7790995952,0.5966083381,1.2588381545,1.2780603661,0.4189651565,0.4955587707,1.0442473635,1.3980664388,0.4212295303,0.3618919973,1.3403214995,0.6033505102,0.1761975238,0.9267422298,1.677188022,1.0661356098,0.5898467404,1.0455579419,1.0314576124,0.9119219687,1.318512975,0.5707777463,0.8077614764,0.4765862506,1.3550165744,-0.3802316055,0.4218918979,0.1473851339,1.3826964653,1.1640175673,1.2044550662,0.5553198419,1.0382969198,0.4425127759,0.0042605992,0.6589509014,0.5420694537,1.0357195971,0.1626209623,1.3100285926,0.7311976812,1.3662938141,1.5668219509,1.1265607533,1.387211748,1.4738254048,1.1885940164,1.4018452564,0.9380259958,1.4698855651,1.0921341334,0.671203767,1.3554690118,0.4988316034,0.8314721584,1.1353298939,0.9626696286,0.5643657115,1.152656013,0.2166259052,1.0364135625,0.0654350727,1.4577044011,0.5951107502,0.6627799501,0.5764236768,0.0686745208,1.2260791019,1.0353584362,1.5809741188,1.0548044171,1.0889714065,0.9744783113,1.506328485,1.2532842664,0.017985275,0.6348054364,1.4143603627,0.8154400825,1.5467264146,1.4715737178,0.789818736,1.0253682547,0.7774787178,0.4443940164,0.7149991083,1.4794953023,0.0506385068,0.3884931881,1.5428523058,0.0147925875,0.4546707006,1.3110790573,0.5365318251,0.9748295311,1.3241766185,0.4294532134,1.4917270844,1.5452788493,0.7566865465,1.0608004826,1.3763034413,0.9974142653,0.7388056783,0.8222190228,0.1191149209,0.4862983844,-0.2345320949,0.792053594,0.1018905272,1.2700097253,0.6992261503,1.5488255951,0.7252986404,0.1123007275,0.9347339241,1.0347386992,0.4042027575,0.3087037787,1.439119985,0.3234015928,1.4123413359,0.093418661,0.2922120047,1.1727413086,1.2764458257,0.2932499108,1.5843690939,0.0864027793,0.0482097964,1.4005290594,1.2560566673,0.5302493337,0.5825985368,0.751721359,0.8462059049,0.4376256564,0.4804917222,0.631452045,0.5382561118,1.3690831194,0.4904043595,1.1764454728,1.3098519396,0.9313462595,1.5469960402,1.2143707688,1.0797075876,0.4493941636,0.8510580305,1.1718835154,0.4782790963,1.371368126,1.2045392475,1.5891899371,0.5878800771,1.5739049567,0.0283545507,1.1505331733,0.8412850607,1.530683333,0.970410959,0.7078103369,0.7134241524,0.4626494671,1.4048189049,1.3337522616,0.0698741608,0.9786181059,1.3056680218,0.657091081,1.452064204,0.2094618196,0.4921848551,1.3677712092,0.8037016004,1.4440446085,1.3708534482,1.3678223824,1.0065431356,0.4272157996,0.6995173198,0.1315251564,0.178043559,0.0951055967,0.9742560687,0.0874945555,0.5198857274,1.2201531357,-0.091176502,1.4574194592,0.84235512,0.5940637643,0.3729469654,0.2482062809,0.3280148161,0.3556113448,1.4487277918,0.7822040447,0.2969604939,0.4273010155,1.2876046038,0.132716635,1.5564816027,1.1189080791,0.3089026322,0.7686909654,0.7570556751,0.314842018,1.0496533238,1.5274254968,0.9992384401,1.3179957735,1.0297085239,1.4462827043,1.3845295645,0.0382792233,0.4558556878,1.1845586087,1.0477095379,1.3549276116,1.5158874372,1.2431652994,0.2446335909,1.1317441372,0.9970264977,1.494775047,0.4980902424,1.0238458397,1.0677894116,-0.2170630604,0.7769674088,1.207205256,0.7554624715,1.0371497724,0.76071061,0.9258298719,0.3534476181,1.5694753378,0.1699560304,0.5362942326,1.4309406196,0.6027262647,1.4047222067,0.1201364982,0.4331093481,0.9123008039,0.7708261891,0.2684209417,1.5835764353,1.4173113931,1.0876663014,0.2552049494,0.1592105573,0.697773179,1.1773527606,1.0827483978,0.6749009791,0.6831527108,0.3703561035,0.6663287228,1.048379771,0.8369628337,0.9495095215,1.3633641534,1.5669663565,0.7811224399,1.589771189,0.9946374793,0.078772829,0.818615694,0.5712143788,0.6026348278,1.3788501577,0.2863805368,1.2562818547,0.1231553622,0.6904758335,1.059206086,0.4373394736,1.0171001551,0.3682096402,0.4529329319,0.4395034082,0.3480725156,1.3599807746,1.0299144378,0.9650273864,0.5438988462,1.1855849348,0.9818150346,0.0622427595,1.070717187,0.2389566059,1.5270402596,1.5984846447,0.5191237772,1.31500595,0.4110379807,0.6362836112,0.8599894084,0.0026319015,0.8340460017,1.1087818778,0.8979855586,1.0277421645,0.6543042118,1.1310463883,0.200532162,1.1243480863,0.631970017,1.0641126501,-0.3958009422,1.4927121829,0.3034843307,1.071065233,1.3137068427,1.5666088696,0.3274750021,1.2406418618,1.482026431,0.570233195,0.8326766939,1.0176692189,0.6625965533,1.3883795141,1.0600172089,0.2281668107,0.1626063431,0.6650833769,1.1908714131,0.6692756773,0.4887100349,1.5495591908,0.5255883355,0.5396572044,0.3854782182,0.8589840774,0.658088658,1.1501836629,0.5092779437,0.1841783679,1.1551140487,0.9920227339,0.5735433295,0.8503339003,1.6156854269,1.1927736276,0.1920452387,0.1661043999,1.0399198433,1.5007698788,0.785602593,-1.174484771,0.5540350382,0.7015235304,0.5594781513,1.2221483567,1.5645281383,0.3481676784,0.4243597229,1.1874509251,0.7504429992,0.3842707605,0.3134125515,0.1134528228,0.2479538975,0.4037312862,1.1805227767,0.9877183864,0.5312539903,0.186617162,0.2308270593,0.040687527,0.1087249051,1.0710361594,1.5508664781,0.681869918,0.9071750158,0.4264422587,0.6363960465,1.0453855148,1.1273325308,0.6734798393,0.5945963317,0.965225536,0.749087181,0.6986731905,0.978260194,0.1969491432,0.159657703,0.9464604058,1.264298964,0.4427937226,1.2583158828,0.9451163191,1.1353983381,0.0677855608,1.0844920535,1.419278857,0.5412086795,1.090378777,0.8540184251,1.6045218654,1.2194930566,1.0231105237,1.1018612702,0.3591370101,0.7222354057,0.1205804782,0.9939766636,0.1966415326,1.6041135019,0.1737027884,0.9641229999,0.7309882118,1.2228131654,0.486071114,0.2074007085,0.4899712883,0.4375472028,1.5270324719,0.6223050435,1.1541878515,1.1539965062,0.4847256051,0.342912692,0.7378716313,1.1533525889,0.967310364,0.8130546367,0.7433133443,1.5504075786,0.3839765993,0.5869751535,-1.1590709796,1.1890003988,0.4573430673,1.5214609813,1.1377221524,0.1039436977,0.3958559726,0.549684016,0.3320055399,0.8096483724,0.0983004439,1.2169907968,1.4955111522,1.3931220045,1.3926746025,0.4673202563,0.4188721086,1.294064027,0.4196549133,1.4860522366,0.5013556009,1.5273554189,0.880428779,1.3619480439,0.4681865647,1.2735213189,0.2340800303,1.3545352559,1.0302838497,0.4081397973,0.032578762,0.8240850528,0.4769301299,0.847859742,1.1636408618,1.3308246028,0.3210367787,1.1225741592,0.9812492035,0.6339478705,0.0900792535,-1.3313120526,0.0774538117,1.1487347473,1.6006839662,0.6974746175,1.0969430402,1.2049558085,0.9222060676,1.4766259988,0.58126701,0.4568284749,0.4421597063,0.7937316772,0.1651782287,0.9907755736,0.4111645566,1.366115465,0.2088677625,0.6855508146,1.3317048965,1.2763681225,1.1078954053,0.990695366,1.1301502628,1.1471551244,1.1261264721,0.8563200412,0.8387196942,1.0753961339,0.4507918691,1.441599759,1.6012542551,0.6607902969,0.0667662286,0.3067907877,1.3112933697,1.2425134319,0.7947648346,0.181675946,1.1103006139,0.5561398346,0.2988679518,0.3820656732,0.5583937246,0.0235217276,0.2221105209,0.0888353895,0.8754366156,1.1161803601,0.9217075227,1.5559289803,0.745389784,1.2080655696,0.3684917782,1.4206877632,0.7465491055,0.6542523344,0.4376070924,0.7689664253,0.4160594538,0.245256514,0.9987030766,0.5058141696,1.3421981198,1.0202008074,1.585348134,1.4810042042,0.343028393,1.4876909411,1.0291333646,1.0723042429,0.9405419616,1.089815992,0.78079212,0.5427805916,0.7985620347,1.3705312514,0.1354112827,0.2437252915,0.5832143072,0.9539455813,0.6780721772,1.4592990851,0.6280486435,1.4469196122,0.9067501667,1.0089002577,0.8331161749,1.3783379382,0.4400955881,0.5308222745,0.3427532821,1.2896827829,0.8856564703,0.7646543621,1.3176733016,0.4036200932,0.1916824749,0.1256515172,0.1185665098,0.3486345312,1.5930709095,1.5681644629,0.9464050904,0.628482872,1.2820629349,1.2720087342,1.6004849266,1.4206987077,0.155234807,0.4834611278,0.8085925331,0.9055513399,1.4986105769,0.7767598878,1.4352927736,0.0648602319,0.4862086806,1.3742357391,0.2771916334,0.4359229721,1.5949005236,0.9698969816,-1.3331726486,0.2468241234,0.668151739,0.9656891064,1.1316476643,1.0435865853,1.1163930485,0.1108679921,0.5211095246,0.9873779317,0.3100651315,1.0349396846,0.5456308546,0.5017418643,1.4612314215,0.2487690969,1.0339613684,0.9375973665,0.7122413978,0.296474758,1.3546723079,0.2789582275,1.022599741,1.0495613768,1.214951102,1.4535716679,1.4617052099,1.2819949621,0.4602909102,0.2523387582,0.9377045384,1.1638768733,1.240809911,0.8552029538,0.104448449,0.5299871958,0.1145025424,0.3539826962,1.4520636346,1.2932535635,0.8127922367,-0.693485849,0.330604731,1.1163014527,0.5045768501,0.8405091511,1.4707194178,0.2344241431,0.205534963,1.0284935256,1.2297211943,0.7038015595,0.5892308226,0.7906705157,1.2615997244,0.9724324258,1.5249910481,0.1763062323,0.3597496343,0.8570760501,0.3967431681,0.5845098413,1.4693435335,1.4955466505,1.3609725672,0.3541135841,0.4047055648,1.0546412718,0.0022379158,1.3818552034,1.3205572087,1.2561402045,0.8703658827,0.1691709338,0.7160285676,0.402442654,0.2469767962,1.297142514,1.3437901682,0.3042481792,1.4941057782,0.4728463226,-0.52131995,0.9543565873,0.7005133787,1.1965985971,1.6187394695,0.4322355493,1.5750632882,0.2017095743,0.3489323847,0.8373101972,1.0413408294,1.4788301131,0.6477400786,1.3089675512,1.5097230226,1.1717097536,0.500225217,0.4344460813,0.3794281076,0.5076396583,1.1415966572,1.5655771858,1.1385415121,0.7417006623,1.3149327583,0.645115811,1.2887275221,0.316241863,0.9393238305,0.1099181115,0.3644638704,0.3404659329,0.8939955798,0.8076719211,0.6669610999,0.2363995155,0.1770680973,0.7227825094,0.5945330325,0.730888707,0.841105301,1.2415058444,1.2199874662,0.8902253971,0.9470492228,0.589389418,1.1324847073,0.8332049456,0.1366123344,1.3846182542,0.2229074702,1.2650723616,0.4245586385,0.1583093547,1.4887548236,0.741526801,0.8818819987,1.2980977052,0.138252491,0.5272326165,0.5449926178,0.7290693024,0.9837054098,1.1818672178,0.3728357408,0.480332831,0.8682344383,1.1619863569,0.5347434429,0.58681213,1.374048036,1.4177349377,0.4015741279,0.7227953111,0.2285429071,0.4481226431,0.9088994665,1.0861851921,1.3686334307,0.224322565,0.1332847149,0.7992974637,1.2333827648,1.1285648236,0.1403444542,1.1840523462,0.6071973729,0.594427754,0.1140323901,0.2895679188,0.4852701081,0.4170271297,0.430300512,1.3962149842,1.590274907,1.236114617,0.2843767885,1.3247205206,0.3891104109,1.0892247013,0.8388357325,0.7907859895,1.0725165459,1.2088873671,1.3491012874,1.4128584715,0.5785676478,1.2797339722,0.9078689867,0.2685045348,0.5106916005,1.0379511935,0.524687254,0.2491507399,1.1996763788,1.5016715604,0.8401959323,0.2389772852,0.0826528802,1.5148435116,0.7296904844,0.1756650667,0.8770060217,0.8781579378,1.2021902419,0.4151731464,0.0507429261,0.7278874902,1.5301370239,1.5360142894,0.5733117416,1.3686642636,0.4207909749,0.282340505,0.505388057,0.4371942004,1.5990272649,1.0968877918,0.13382848,0.3615780132,0.0559455754,0.8889154014,0.9534175981,0.0078115959,1.5100318713,0.6064835757,0.507587779,0.9044092865,1.4006118805,0.518305395,1.2330619285,1.2509686422,0.1722167818,1.1680608848,1.5497204713,1.1793541347,1.1725168931,0.8459449851,0.2720549771,0.5106359087,0.0157837111,0.0742286409,1.1020164736,1.279051652,1.2051884682,0.9296741521,0.6013980301,0.2631575028,0.4186460202,0.6671127321,0.6676033859,1.0948405743,0.8220937283,1.2112355488,1.5338577499,1.4226492632,0.0683848659,0.4466951932,0.0728428139,0.8569345138,1.3599623982,0.8498563597,1.471104452,0.3706209271,1.084562002,0.5795604718,0.0709954926,0.2277102985,0.5801223677,0.4145321823,1.0236296831,0.516007079,0.5642897245,1.2190585596,0.6800870686,0.7078619696,0.9735775131,1.0611689069,0.4139764441,1.0583601609,0.2819121197,0.7916905691,1.2444978561,1.05531075,1.2038387276,1.3345131707,0.5259687526,0.558300703,0.3461791074,0.9386224146,1.4620225647,0.8772427736,0.66348136,0.3197277682,0.8321287843,0.1665548338,0.077983024,0.3276471706,0.4467346631,0.6006683974,0.7319655931,1.2436597637,1.5298183623,1.4891974775,0.8095326121,0.4760228304,0.8400448696,0.6888664615,0.1620837981,0.9899446121,0.4077506216,1.1856699687,1.4844653228,1.0606079846,0.1927544668,0.2352491125,0.9942639915,1.1628298134,0.3189994933,1.3126531167,1.3589793013,0.2511220899,0.8642433979,1.4680629377,0.3786214842,0.0948150314,-0.8987958647,1.202318136,0.1449602856,1.0323745554,1.032460917,1.1781195175,0.7801352433,1.473532936,0.2357586169,0.3954484457,0.6632897198,1.2054611311,0.6537829589,0.3347070226,1.2213821075,1.3895163436,1.1609474942,0.0060755541,0.7534452755,0.5564907683,0.4507268663,0.9183050434,0.6815896433,0.8770870902,0.5689146584,0.7333972636,1.1285382062,1.0477592718,1.4476385753,1.406451725,0.6172569176,0.8703921913,0.9031312426,0.5999418094,0.0482897396,0.6991022299,0.7109696253,0.5310730948,1.3582835347,0.3082420392
   1.2136585998,1.0366118439,0.1366985676,1.3469561599,1.3268980263,1.6787588012,0.8401644673,1.0502217388,0.9658523692,1.1767245782,0.3007463661,0.6767101147,0.9041274909,0.8637032708,0.275117098,0.320563094,1.027679742,0.6970670677,0.9664504299,0.8713292937,0.4645736066,0.2325978202,1.2067288272,1.574368388,0.1903076754,1.5161678001,1.378922818,1.6804978915,0.8317316466,0.6706331666,0.4517504468,0.796586548,1.3278142965,0.4528586423,1.4638509194,1.0050844727,0.1252261861,0.2119469446,1.5130072035,0.1114209032,1.4293531827,0.8690363725,-0.2240373388,1.1118310169,1.1879775262,0.6951467251,0.8214052205,1.2347990527,1.0151607072,0.7299407623,0.1733497738,1.294648351,0.6162103024,0.7710998789,0.2328653584,1.5903160756,0.5778035272,0.249659449,0.3575022544,1.6022257284,1.1564021843,0.6123834945,1.4248619843,0.2694972375,1.0042874212,0.8116707457,0.2823003104,1.3905171283,0.1013849926,1.5791677952,0.1712159569,1.5481994116,0.9978795929,1.2523924171,0.7872008152,0.1967090692,0.4065399797,1.3595988179,0.4852211624,0.3828590276,0.6253129029,0.3803445777,0.9627360902,-0.7361211299,0.4847565499,1.3439612152,1.4161972849,1.2249572126,0.0272127974,1.1601541701,1.5873523524,0.3212467476,1.5266139781,0.5455258216,0.338315606,0.7903522933,0.3274425159,1.1023202192,0.3731492403,1.4698357067,0.6250176865,0.0782233513,0.5385436837,0.9637173901,0.1584487932,0.9320144828,0.2084403631,0.8403316066,1.1671286049,1.0329677745,1.168294016,0.9229792611,1.064689716,0.786439674,0.3140989426,1.1407877771,1.0571662584,0.9657505727,0.3284460992,0.49763478,0.5654133178,1.4573200367,0.5650012996,0.2426618403,0.5658567261,0.4645003993,0.3190897268,0.0652833865,0.3861442997,0.3452484796,1.3863960039,0.4606837856,1.6019409707,1.2799025077,1.1932684187,0.94315432,0.8038301008,0.1777791624,1.5649817908,1.4619329307,0.9104235337,1.3645942913,1.0722344985,0.8687355152,0.6848570352,0.7745780903,1.0939523097,1.4229980832,0.6571557929,1.5825205731,0.0252154931,1.0584239872,0.3480715409,0.069326216,0.6642079432,0.4776659162,0.5863706275,0.4954404026,1.3028077849,1.1768001302,0.2302856905,0.9853562197,1.5906648425,0.8195879486,0.8666496921,-0.8687199083,1.2268717905,0.6505496076,0.6733652142,1.5380390797,1.1723350408,1.5570636309,1.3474022755,0.4571419254,1.2392414222,1.4355091193,0.1161009688,0.0172213735,1.3612998585,0.7343646354,1.3340996199,0.5083941998,1.4792135426,0.6622837598,0.1558276578,0.5915094756,1.5739189158,1.6001073823,0.2968301882,0.6475930041,0.1271375962,0.5720827094,1.2922815111,1.3833972171,1.527273239,0.2215207729,0.7922215783,1.1957288115,0.9663649718,1.2886908361,1.2891868559,0.6006778351,0.7195868672,0.0301242453,0.3356350443,0.3903874409,0.9016074938,0.045997272,0.7174783553,0.0905060067,0.4305294229,1.4354751144,0.5534395472,0.5249741948,1.2257575841,0.2408206377,0.232090736,1.5435721354,1.0970613957,1.5393252697,0.2048266808,0.1520510432,0.2651502139,0.7698019969,1.1958855847,0.1250400091,1.5947130275,1.3418674462,1.5826898011,0.6517652516,0.3098166235,0.7129148961,0.9282992419,1.0778110678,0.9770826663,0.5792535767,0.7983806694,0.4629642369,0.9206584165,0.2627679261,0.9135671072,0.4141362531,1.1449589847,1.5467530628,0.7545313242,0.8950700988,0.0244582304,-0.3029461044,0.5169510433,0.9434064675,0.7444459809,0.6858338678,0.8644942588,0.2825535081,0.4462477519,0.9406746606,0.7172116792,1.6508394539,1.3357892165,1.6124969224,0.5984746233,0.8533288901,0.3275969889,1.1585815718,0.5929350669,0.9613676863,1.4653565456,0.5642261651,0.5860742511,1.412561457,0.9052463995,1.3345436672,1.4927332931,0.4960578702,0.4528598044,0.8042503949,0.6513623913,0.1186150848,1.0190598448,1.1626382393,0.1572134378,0.8382839978,0.7733079092,1.3010570915,0.7157486922,0.2874504378,0.3184739888,0.4170498303,-0.5837835549,0.148114712,0.750714652,0.1721486053,1.6249593114,0.1390188898,0.9974090935,1.6642438266,1.2171008761,1.6625279543,0.2372139456,0.2121428265,1.1999915594,0.3198238491,0.6734620937,0.7099024469,0.2461341827,1.2568876774,0.7734471388,0.8272583717,0.3920476861,0.7285614431,1.5582999457,0.6199925009,1.1438628162,0.2369553998,0.4813993521,1.1040604846,1.4086662323,1.5344741361,0.6967358494,0.4578293869,0.4974649318,1.7025649344,1.0213468688,1.5828859452,0.5001726502,0.5916025741,0.4837071675,0.6451808071,1.3707891655,-0.6709515296,0.1460776644,1.5841185374,1.5784933442,1.3441327735,1.1878961359,0.9109699066,0.5469929187,0.6625526021,1.0080578476,0.908392225,0.9033400755,1.1495538574,0.9350838829,1.3520107216,0.3308002207,0.1968378674,0.2382068029,0.7202772227,0.544716395,1.3619007391,0.5778568132,1.3948964337,0.1370215924,0.9773143676,0.6491046166,1.1352265949,0.7112598144,0.5109890379,0.0288321705,1.3096151777,0.5143017308,0.1652318292,0.8359251595,0.2935421366,1.1203500175,1.1965897622,0.7575130803,0.6285759422,0.7767845864,1.0637015513,0.2708971481,1.4914860288,0.3339338277,1.5333349553,0.7232131401,0.5026020025,0.981325989,0.0035833237,0.9531361898,0.6162229743,0.4128059123,1.2879732567,1.4207517183,1.1844069981,1.4383664752,1.4705111492,1.5746356438,0.9249871718,1.1947126409,0.8037622459,0.9203384329,1.2871791031,1.508194256,0.7823539346,0.7382543607,0.924231501,0.7533177032,1.5428056615,1.2146141574,0.7293465318,0.484204371,0.5408434922,1.5832686382,0.6084141695,0.6885784056,0.8659648987,1.5997913976,0.3376375987,1.5203540957,1.2574900757,0.2133337527,1.043131362,0.9135232535,0.6212548239,0.4610460919,0.1922631266,0.293878478,0.6890863268,0.7467328694,0.9085488493,0.9115051764,0.880963396,0.3691617917,1.2083263941,1.4052721398,0.5032895556,1.0740420173,0.1438075082,1.6937182361,1.139876635,1.156973572,0.7834048304,0.6241289033,0.7711618715,1.4340632128,0.7869031901,1.2989127755,0.2092271578,1.1345034848,0.2880085311,1.4588892881,0.5287483521,1.3379569667,0.4930625083,1.1112001445,0.1989148043,1.2151419746,0.1481453033,1.2876277179,0.9122658261,0.4961754328,1.4316286411,-1.03625343,0.9358050168,1.1730976005,1.034032021,1.3667087602,1.4744301194,1.538518943,0.4028596352,0.4350494954,0.3696188704,0.4329045456,0.4726899416,0.1427777552,0.7082539869,1.002545906,0.684762336,0.2275953783,1.6558114519,1.071429035,0.374773864,0.2320696522,1.2243680999,1.0407725649,0.5388835935,0.1998565495,0.1442398804,1.0692116801,1.4881856162,0.646159651,0.3009533055,1.4655083908,1.3687542391,0.9426902978,0.8516447897,1.6560238077,1.3868054063,0.495234514,1.6879956481,0.4352950451,1.2239258226,0.5305008882,-0.7608003725,0.8484685387,1.5397953485,0.526638896,0.5786499115,0.5817583467,0.7606617057,1.1780391787,0.8756398486,0.1268960502,0.2347343168,0.2195010531,1.21181906,1.0470876206,1.4452272024,1.0853339917,0.2459510886,0.104519088,0.8796538199,0.4435815159,0.6718682259,1.1126331047,0.4999012618,0.0403329152,1.5685335815,1.4834063353,1.0468241591,0.2297812727,1.5330139507,1.2601450217,0.5692452094,1.5652687795,0.9652161928,0.6182454139,0.4371353312,1.056374651,0.2771889356,0.630858033,0.4495323742,0.5695556111,0.8715794692,-0.0896215234,0.2463443267,0.9915935171,0.6285936303,0.5320541908,1.1075393906,1.1987095339,0.2888072356,1.5058409953,0.3822842619,0.8430126992,1.3069213329,0.2849722548,1.5327933789,0.7532108477,0.4348939837,0.9037259245,0.5345619984,0.7490051719,0.0843274304,1.2482291091,1.1688475897,1.0894646418,1.1366190611,0.2250749505,0.1472914703,1.5441492283,1.3996947019,1.2291030898,0.7849002208,0.7504161482,0.0823517019,1.499707224,1.2191850303,0.9607567079,1.3790980332,0.761795522,0.8087856658,0.5821794923,0.4147079178,1.2876410029,1.033712247,0.0140863688,0.5191506226,0.3557006378,1.4187567291,1.3041651595,1.5535823866,0.6487112419,0.5990153948,0.4713019598,0.8933391034,0.3086092988,0.3219715076,1.1771849823,0.9728305959,1.2705475085,1.5795537246,0.5117916763,0.782017034,1.1962804445,0.6868907891,0.4160291389,1.0098788626,1.0853864341,0.6537435801,1.0433517165,0.8962281282,1.5358136952,1.5585566981,1.5612222346,1.1979903588,1.0699649701,1.5862232165,1.0237645421,0.8155015468,0.5587905791,0.1752810516,0.6194393177,0.4899023835,1.4633536599,0.7468881047,-0.3636419282,0.6269900835,0.8034591,0.1441818299,0.8215235837,1.4591914208,0.7597437708,1.7010847618,1.1158909061,1.2610288191,1.2707983443,0.9726646844,0.8394628945,0.7056361683,0.2730150477,0.2301244248,1.5355877155,0.4148586647,0.1452273309,0.6725179981,1.033728705,0.6865215594,1.2051164275,1.1361255426,0.1392187511,0.3101654587,0.3922911056,1.4916002535,1.5688529697,1.2911588921,1.219265087,0.6549456969,0.9762723454,0.6323189042,1.2196918324,1.3998732791,0.3146702644,0.6320716064,0.566997766,0.3803463202,1.2724410265,1.1460768872,0.9891545573,1.1567705537,0.8678537511,0.702413013,1.5631769143,0.6330543049,1.5386364165,0.2583457118,1.4471677912,1.5263964482,0.2789708165,1.2854311972,1.4682715398,0.0869586582,1.0343573945,1.2411929577,0.1916277199,0.8933329915,1.4766947998,0.332965992,1.2937630623,1.1442476611,0.6358237776,0.1873953741,0.0437330922,1.3202420507,1.3654731857,1.2949636019,0.7509211428,0.5943668479,0.468898768,1.1023327834,1.19951293,0.3512640107,0.7894359495,0.2647021814,0.7439879152,0.8693439989,1.1902296325,0.5514985698,1.0899050419,1.482215224,0.9523639174,0.9729776459,0.7272606074,0.2003650008,0.9606099053,0.1631570738,1.4343619261,0.4011498877,1.2105015766,0.2781378107,1.3188467226,0.7042159719,1.4396168616,0.7211092679,0.1640246454,1.0050191767,0.6547072132,0.9464254725,0.3761877785,0.3232274017,1.3007181925,0.355385973,1.12323895,0.2417449534,0.5907519464,0.7353607488,0.2596308808,1.3329593453,0.9063613192,1.2749725003,0.4227697027,1.52102,1.2404637333,1.3028135542,0.9850620164,0.7690398565,1.3693501058,0.488144972,1.4280382566,-0.5772450791,1.4739316068,0.1238611907,0.1505596582,0.6758283304,1.1433378636,1.4106158891,0.7427712103,1.1146335597,1.1478993915,0.6567384726,0.6722623392,0.7033091209,0.6388323455,0.4672914179,0.6649767044,0.5452250753,1.6003210313,1.6480691633,0.2584926472,0.8296495891,1.0880977675,0.9266761507,0.6888251524,0.8285048707,0.2452243563,1.6395577126,0.7554979506,0.9807984409,1.6059350555,0.1323362303,0.8316087817,1.1219493082,0.3787791863,0.8762024475,1.149068642,0.234169669,0.6858832358,1.1112438438,0.8999125253,0.585155322,0.5826723148,0.7834083069,1.3451558623,0.7382765008,0.8153864194,1.4056386584,0.0372493882,1.0022797186,0.5839973447,0.5021043268,0.8381023674,0.0790090051,0.03541468,0.0857548258,1.5616372256,0.5217035879,1.4445558793,1.506476592,0.5161209954,1.4650461038,0.1682784789,1.3146305408,0.312095616,0.5364249107,0.7261156443,1.5572417835,0.7895755993,0.0938039848,0.5419540527,1.2824282074,1.0797506075,0.1224877737,1.4690928132,0.1401198913,1.5511345215,0.0114710005,1.3920776016,0.5701557066,1.3980630338,1.4072594049,1.3889900599,-0.852611352,1.1807008286,1.2291464758,1.3098367884,0.118352708,1.121178647,0.4161419223,0.5980780239,0.4164905963,1.4843280125,0.8696552175,0.160467041,1.5405630576,1.0812585393,1.3475216604,1.0279026125,0.1836081063,1.1461618932,1.0984892721,1.4980144282,0.9874460879,0.2949474385,0.3268696533,0.6056279099,0.4630759361,1.1515174231,1.2543484221,1.0538629388,0.2820986985,0.3771985114,0.6329439338,1.5868897394,0.5857187419,0.1616973528,0.7488559564,0.2605468666,0.421025211,1.0368413536,0.2177234809,1.0119784183,0.1127590138,0.4174800118,0.2338826759,1.6447296096,0.1468501731,0.5759992835,0.1974416261,1.1377612355,0.3509575357,0.8724580945,1.3801170806,1.1272364576,0.6367291081,0.1420925522,0.636079082,0.7506809591,1.6686540971,1.5806191903,0.2604085164,1.3528965931,0.3746507385,1.3603517478,0.9257818075,0.333281723,0.9331310448,0.2199749913,1.0489182726,0.573073884,0.4449348968,1.5312691474,0.5592045987,1.1196991643,0.9200307787,0.2571240461,0.7249858033,0.8374475003,0.3949441169,0.5136477154,0.5556992059,0.7483298442,1.0956351881,0.383538764,0.9553288891,0.2314866956,0.4654175884,1.7448417148,0.2825280416,0.7465440782,1.293652678,0.2000259204,0.3373387312,0.4205429675,0.6773200945,0.4360757502,0.8112961099,1.4995904313,1.1660414127,0.5790386226,0.5025612479,0.6050046513,0.5262528321,0.6838366646,1.3598401066,0.4320323075,1.3097653832,0.8092104044,1.2379860494,1.0626626336,1.2535255672,0.4260828172,0.9605830666,1.15698988,1.2754903811,0.8727398892,0.6182090801,0.8430304682,0.4040248495,1.4134048777,1.1003470003,0.940752585,1.6059111127,0.9665828512,1.3017969735,-1.1026704321,1.2243422826,1.094266158,0.9989007445,1.0486826237,1.1750346777,0.8240893015,0.8154034389,0.099712853,0.2671343369,0.7910402073,1.210218906,1.4705590535,1.2590739968,1.3296071,0.4312720539,0.0007880118,1.4755707199,1.2944295553,0.4093896146,0.6962174279,0.4775366776,0.7681599605,1.2856315711,1.0484188646,0.4874526327,0.5958914822,0.2044830228,0.126033869,1.2499168066,0.6280725222,1.0623995534,1.1271192852,0.4044424089,0.3503249317,0.4598089923,0.1304414763,0.7635287409,0.4148119243,0.527407029,0.5248488284,0.1286834996,1.1602112137,0.7366256835,0.2756267372,0.3841660369,0.7319425781,0.6382805812,1.6637111995,0.2285707727,1.6204357318,0.3212711816,0.5134440433,0.9251636929,0.2116443345,1.0443901307,1.5089284979,1.194906074,0.8752002657,0.3006435558,0.8425862357,0.7416273744,0.8212291048,1.0806281709,1.4994825002,0.2621737794,0.9867731602,0.3156832681,0.8674888421,0.3035761217,0.2931163941,0.6974927564,0.7396399537,1.2647980025,0.1764111664,1.623747641,0.9424512681,1.5284872064,0.8974532292,1.1609581548,1.3765366501,0.70450379,1.034148983,0.9328330498,0.9310856002,1.3733768196,0.4050126782,0.7846084669,1.4484241653,0.1982671904,1.5977094475,1.2531416388,1.2572667022,0.6782866455,0.3354036085,1.2595331521,0.2552229024,1.4944360965,0.116201696,1.4725556493,1.5268244876,1.1632261637,0.9230784011,0.2643408871,1.0024840745,0.710756915,0.5251729268,0.3140941835,0.9414564932,0.787665274,0.466191076,0.7438770561,0.8982967854,0.1255921225,1.1627466018,0.6269746647,0.5068116253,1.5217916244,1.0315282918,1.4420239725,1.304843676,1.1742946938,1.6898683136,-1.3072387185,0.0303822053,0.7305053889,1.5117337532,0.7670001638,1.1862002317,0.3640252567,0.8898566309,0.3391831224,0.4299988803,1.1836252447,1.2932637929,1.5564253256,0.2282719366,0.2740266831,0.3860309772,0.1440635101,1.0848150364,0.9615758774,0.4541333098,1.4179023643,0.8680309785,1.0539593968,0.8693042845,1.2477305992,0.6705397244,1.1124590209,0.6887038484,0.9650274583,0.3861632651,0.9700252516,0.1341151489,0.4592648096,0.8493031552,1.0339930368,1.3663793811,1.2019265782,1.5932120116,1.3528136695,0.0774896625,0.5147234651,0.623285937,1.2215979593,0.5964242367,0.7882624769,0.5140137037,1.1701942596,1.0151310393,0.7178457377,0.7185224566,0.7458629182,0.9304027491,1.1526237731,0.6189986117,1.351933971,1.2115895221,0.8459973386,0.7323850574,1.4266835203,0.6967560097,0.5058875824,1.5079097118,0.8807888822,1.4012245975,1.0139306142,1.1818909701,0.691421128,0.018666909,0.9765148783,0.6969082802,0.1757444058,1.5732976352,1.3197352663,0.2100777763,1.4724787253,1.0198537574,0.9578705642,1.2190924074,1.393049125,0.9651784731,1.1729107538,0.9547959094,-0.5912376107,0.9570249193,1.09579287,0.8164065772,1.5420133047,0.0526868627,0.0830433584,1.1443097835,0.3810694954,0.8683244835,1.0618701576,0.5019238645,1.4672926085,0.7211075065,1.1214156369,0.7572139121,0.5790355208,0.6907421947,1.5212431091,0.0963332299,0.3906456727,0.6634484263,1.0178564278,1.1537080464,0.573975748,1.5675759002,1.1455115038,1.0251276936,1.5602421754,1.1609964758,0.4498901885,0.9461651797,1.3973178618,1.1934527411,1.3075993256,0.2048261458,0.9446305415,1.3611675186,0.5751415552,0.945532098,1.2843137595,1.5887241012,1.4083947597,0.1361671805,1.4750647279,1.2219558682,1.311732601,0.9607837199,0.4504367994,0.9430060601,0.641441496,0.0222400231,1.0493396038,0.5108805017,1.2881010587,0.0535370053,1.2213006692,0.7083595871,0.8936885181,1.0247035991,1.1217494208,0.9671277031,1.5094432268,0.3801728,0.4032350266,0.8099575223,1.4677967279,0.0357599833,0.0666409065,1.5918430168,0.7211365777,0.8420098803,1.1653580769,0.0106698025,0.4902950023,0.837802319,0.0492951275,0.9571144015,0.9617841705,0.3922776767,1.1728026903,1.2843080068,1.1122329718,1.1901186603,0.9087346709,1.3688098591,0.415893097,1.2929863172,0.4092246621,1.1363171696,0.2521577247,0.3013732312,0.3158305798,0.6967100661,0.3198221499,1.1828036279,1.0400974891,0.4562533691,0.1865196291,1.612030338,1.1556535276,0.8861768487,0.8905708085,0.4211604764,0.2203896133,1.6807380112,1.5719760579,0.941580215,1.3730612751,1.4253566234,1.0156657189,1.1604136113,0.1345480924,0.5536170535,1.0738189322,0.6820171671,1.3252538582,0.2995000147,0.2364145169,1.0695227459,0.4479912892,0.633129125,0.1971711937,-0.8916242391,0.644679872,0.6105490828,0.5948735634,0.3291818205,0.029446584,0.2168852703,1.1930009515,1.4457108556,1.5260794438,0.0844001702,0.0465152999,0.1162507294,0.608422385,0.5693035203,0.4593847881,1.3378801099,0.3925152532,1.5076156804,0.4068371928,1.4694596036,1.1181901506,1.2269504505,0.9948618818,0.5141057938,0.8050215671,1.4442145996,0.3928703732,1.1723656994,0.7018521598,1.5329996032,1.191006053,1.3789404171,0.6856356175,0.7956106293,0.3624119163,0.9281097366,1.104651046,0.4448064649,1.4709125788,0.2615077955,0.9321639231,0.7161986837,1.0821425097,0.8047554993,1.1548865685,1.4394905046,1.2538175426,0.7073064562,0.5205097933,1.0470389266,1.228228072,0.7670875582,0.8606694391,0.2681036518,0.3919053186,0.2995846804,0.2997316818,0.5651083666,0.0750612942,1.2675560892,0.7764104791,1.43082646,0.946416625,1.3558427363,0.2333952623,1.3065081012,0.2777157757,0.5707143239,0.0031796128,0.2766616905,0.4708708575,0.8188439256,0.2105849965,1.4191016516,1.2504962438,1.4851620884,1.403829771,0.2791320498,1.6008586224,0.0616719034,0.690286818,0.6033108979,0.2850737203,0.69439528,1.5985208736,0.8802216663,0.8263016372,0.1361458233,0.7668230793,0.1789298267,0.2709103024,0.3719371339,0.6370573713,0.2239212109,0.6042762567,0.4483785125,0.8352527082,1.6305412538,1.0167958934,0.1105585585,0.8429081861,1.2437030177,0.7642368842,1.2155479049,1.596618981,1.1482904701,1.542777113,1.5074338187,0.7048270577,0.3122401467,0.3950153689,0.6316824418,1.4948862761,0.8124014568,0.4950490481,1.5156703797,0.4738396463,1.4908002962,1.6920834957,0.2604914934,0.4148198711,1.3913275999,0.0306279737,1.0069770929,0.3057245932,1.4943239931,1.2081578616,1.4191338081,0.7500618518,0.483797078,0.2691706987,1.502823688,0.6485103187,1.1859553367,0.8011319912,0.2851043688,0.6986296595,0.4572398277,0.6195457271,0.5093653648,1.3012873605,0.5275062628,0.7673736639,1.3085299174,0.5257656031,0.6818897181,0.9329239622,1.1093731937,1.5502240347,0.2164413795,0.3273844907,0.5369114763,0.4123067455,1.1416028676,0.2011924311,0.697056251,1.3776959473,1.4760529054,1.5903732991,0.4364546579,0.612101164,0.506640934,1.6417877764,0.4459791518,1.3983543653,1.4491644826,0.7150865592,0.4649671734,0.0092320201,0.0199782154,1.4027500868,0.9911866317,0.4697110547,1.3416139944,0.503002899,0.7417408916,0.1697098198,0.8189514065,0.1309420302,0.1274077686,1.291724931,0.9156070213,1.5825940737,0.6883354719,1.5662900155,0.4536416102,0.7882122421,1.5811086297,0.1807780221,0.696774433,1.5016763366,0.7284140659,1.4855741615,0.8031540482,0.4982104291,1.5905825356,1.3699186553,1.4053953735,0.5474161055,0.583717362,1.0089121328,1.0811392728,1.2778116832,0.8396633864,1.2327763304,1.4695491313,0.9247542568,0.7561596105,0.2935936378,1.3277982833,0.8051267064,1.1066914336,0.7344202257,0.2892064965,1.2310019419,1.2026630453,0.3836963726,1.1783480801,1.4960138035,1.5483245416,1.0775676312,0.2852026539,0.0221714986,1.1971751867,0.2819726969,1.2751092374,1.0596436332,0.4242881979,0.8475966117,0.1408392576,0.3829049774,1.4675094032,0.604547314,0.7905502057,0.193116861,0.6998066242,1.4442700311,1.0064204475,0.8611140053,1.085576493,1.4203456162,0.7000071649,0.5800368524,1.2008401823,0.4045726743,0.0823080481,0.2250447151,1.4541629806,1.1288677984,0.7559576363,0.4026748558,1.0288358344,1.0674540976,1.2945241108,1.3281022217,1.2244790356,0.1315750633,1.4382227008,1.3274519101,0.6987258376,1.4640110815,0.9145686146,1.1631028452,1.0988827509,1.2863381994,1.323645676,0.8408799519,0.5008811746,1.1093345564,0.3586230324,0.1509436761,1.1476723724,1.5337560041,0.3665592129,0.8512361508,1.076718054,0.3510680147,0.6780444656,1.4829680846,0.7833428547,1.3624800717,0.7935500751,1.5956540891,0.6750041633,0.4062264542,0.3497305114,0.4900640175,1.2514008866,1.4974389814,0.5678118916,1.5495171269,0.2908615519,1.3172565092,0.8105373033,0.3523691396,1.140628024,0.2946452594,0.5609020915,1.3485598034,1.4137590431,0.5419312856,0.3962252102,0.2453975242,1.604573758,0.8877284096,0.2566886332,1.767439034,0.43296931,0.8807357223,1.1720056256,0.4305886232,1.6570436553,0.4382128291,0.5763540348,1.1290503964,1.0981749297,1.5667378846,0.6042697694,0.440779693,0.3887701535,0.8891808754,0.8014170885,0.8695118343,0.572045494,1.071715423,0.9457741662,0.6569454218,-0.4515492771,0.7020551429,0.755234988,0.4267608565,0.7958666841,0.5390044666,0.4982805084,1.311276854,0.8381145741,0.7872217053,1.1062344421,0.3794760511,1.0147723977,1.4487385004,0.9314854911,1.1539108202,0.5467400026,1.1115101814,1.558736689,1.3454252116,1.602425625,0.5050314961,0.9734122945,1.1672601348,1.5439864865,1.4462684188,1.4707310786,0.9217763469,0.4856014353,1.1601542622,0.3747143803,0.0291937283,0.1971822024,0.5484827759,0.923225076,0.2917187754,0.9395191519,0.6835322173,0.6541674679,0.0259234192,0.8040778634,-1.1847304072,1.2596931874,0.2680734874,0.0850998739,0.1570956768,0.2052256351,1.2167382375,1.4028872351,0.8794888355,0.8169505506,0.2489840437,0.8630361812,0.6649591894,1.4665606032,1.2585437495,1.1058641082,1.2314044382,0.8907202712,0.4768956355,1.5006249451,1.3529939765,0.4470607937,0.2496939312,0.0408206032,0.9854147838,0.6477525772,1.5920971637,0.8174656189,1.3944490939,0.2994418751,1.5148852534,0.0340788049,0.0008738538,0.5865525464,0.7127293579,1.5143495073,0.9196500999,1.2595677326,0.2857153602,0.387029847,1.5093972452,-0.2553593877,0.6473504799,1.3684812084,0.2947297352,0.6115275653,0.2987265541,0.4886400331,0.6422711403,0.4142440367,0.2272731248,0.9505341336,0.581798755,0.8662816035,0.2075457143,1.8045402226,1.4937222977,1.0376399096,1.4336774009,0.5332180808,1.5198723654,0.4876302058,1.5050163544,0.4149350911,1.0890273581,0.3642968807,0.982694734,1.5315110231,1.6283564208,1.0502204419,1.6083427547,0.2660546278,0.2566326334,0.8120526531,0.4658153084,0.6086512691,0.9859840844,0.2349103747,0.6923363478,1.4735912747,1.0105673938,0.3808639336,1.3542177556,1.1094002433,0.8010891349,0.1013348134,1.0689578859,1.3684318818,1.3886880128,0.7366882031,0.8844409815,0.4821902809,0.3472381482,1.5398808899,0.169252091,1.1383776374,0.56216858,0.8754870593,0.5502598816,0.0806879673,1.1913810999,0.7723367206,0.7554903194,0.4084510873,1.2433598457,1.3977831573,1.5052558789,0.6183824262,1.2097591047,0.8380536657,0.3920818866,0.8067630338,0.3793333657,1.5973289736,1.501769294,0.9105490536,0.8048207924,0.3011054281,1.2487973721,0.9944360515,0.7706306828,1.4002448376,0.5503778503,1.3581425323,1.2291212753,1.5834306772,0.3698670131,0.3544838596,1.4458116942,1.1890259154,1.1754361605,0.6850442796,0.4607260115,0.0590314758,0.8139533236,0.9442855859,1.1149565154,1.478304511,1.4252807234,1.5355158441,0.9888529735,0.491892874,0.8661187901,0.9237858227,0.07229925,0.8838467918,0.2778159641,0.9053496634,0.1683386228,0.3329369241,1.1028934449,1.2730873162,0.7246586578,0.9434776429,0.1213337723,1.2708681199,1.0245734688,0.574005308,1.5698027134,0.942337973,1.3866941769,0.273622082,0.5278915094,0.0434808842,-0.4228656786,0.3889688402,0.1275879395,0.5757546092,0.5933720767,1.5817583173,1.416256329,0.2432047057,0.8888646251,1.0407188021,0.4639449071,0.2703239334,0.9828008477,0.5049467732,0.0450101123,1.550173721,0.2174096635,0.8898409312,1.1020854938,0.6557209881,0.6717436012,0.7962437289,1.4705621716,0.4351744035,0.1289305662,0.7954950716,1.1376540964,1.2278471481,0.5657191092,0.9393878082,0.2755965215,0.6853550232,1.0682774506,0.1997109355,1.0684107984,1.3422448485,0.2585582232,0.4724961643,1.2104190501,1.2351792374,0.9268204215,0.712513248,0.3670634276,1.1282793275,1.272732154,0.2898840402,0.4213130297,0.4046952583,1.2280001455,0.7254687425,0.6859671979,0.2826712049,0.5815912717,0.6998578393,0.1188057777,0.7259107928,0.283874983,0.7585626012,0.3296186504,0.8899203388,0.5701603808,0.8059838741,0.2988988705,1.5112125753,0.4971275092,1.4087254168,0.7875641325,1.2996995669,1.5623413591,1.2739151661,1.2590935748,1.096473069,0.2446787525,1.0070266123,1.4882908583,1.4144347925,0.4438611673,1.3643523411,1.2457977785,0.239397599,0.0442491602,0.3091054006,-1.232050043,1.5167394034,0.2169460731,0.213646291,1.488740154,0.2263727354,1.0839563475,1.4825013707,0.8449799813,0.6119178658,0.3938734272,1.0197475365,0.9020133855,1.4753343222,1.2306135827,1.5577179061,0.4311115175,1.504330984,0.2449125601,0.9107538942,1.4458769679,0.7522020565,1.4318279975,0.4898745172,0.9143214032,0.3358809717,0.4315861923,0.7298869645,1.3157555458,0.6670156836,1.0078578753,0.5482026812,0.174261402,1.4540190805,0.5438204186,1.5726092919,0.8950905031,0.0143373526,0.9190163289,0.6833518261,0.5640010703,1.1068119009,0.3584206053,1.4668791358,1.323493965,0.1015655386,0.8982056623,0.8774213477,1.4816747117,0.143421207,1.6401896553,0.7785979049,0.9752580332,1.3101588917,0.9375605151,1.3411353117,1.4038324419,1.2421050521,1.6414799669,0.1366111238,0.9361163736,0.3678533214,0.9192586044,0.1667040704,0.4158829069,0.2019503602,0.8967911714,0.2515720367,0.9590835284,0.140334337,1.3838001158,0.9455969991,0.1846301641,0.9358453145,1.1479440549,0.1756170655,1.4130986375,1.287914288,0.2458487122,1.5381183724,1.5382195979,1.6024987299,-0.6210014996,0.3649973924,0.5432727369,1.0422937171,1.0187558681,1.1589807693,0.5256244388,0.4891135951,0.7854645203,0.6604248445,1.1413050542,0.4774484543,0.5851224905,0.3130795652,0.3755332842,1.2225753025,0.4364371896,0.5222773657,0.762828742,1.1082653149,1.0786826813,1.5044231611,1.5689495309,0.4268166763,1.3481756909,1.5921882671,0.9224168482,1.052866747,0.3072387164,1.4575628525,0.6905556941,1.5927941626,0.9858355669,1.3454630945,1.2589819804,0.7720883349,1.5425386554,0.294298824,1.1769842407,0.1562654271,0.548113701,0.4296707775,0.9051837387,0.2031120559,0.6076454781,0.2652301436,1.2099115311,1.174859315,0.9299100531,1.387372818,0.3450735061,1.0183462678,0.6917193622,1.5047527639,0.1652249023,1.44243126,0.1915493586,1.3507516196,1.4803159294,0.3137548813,0.2940988377,0.8077845557,0.9340635731,0.7731002117,0.0026709468,0.5231883864,0.9087847327,1.4444842255,0.0436611903,1.599040792,0.3974072542,1.3944679356,0.7040001879,1.0291821418,1.3867393636,0.3125705131,1.0327789963,1.4162807447,0.3967193701
   1.1467560601,0.2124649918,0.1091373387,0.9645796747,0.9982553463,0.7088782528,0.2566531724,0.5194279795,0.2075544095,1.2761317587,0.7709802165,0.6140762166,1.2582590306,1.3740635572,0.0825622876,1.2501341623,1.546437966,1.4017410155,0.9910962852,1.1894679509,1.1529136798,0.7945364078,0.4702648132,0.7205535948,1.3476284545,0.2055313909,0.0746634252,0.9882052764,1.4825507435,0.1613548382,1.1986111761,0.1755277324,0.1040132954,0.1086566103,1.3167732847,0.3841587022,0.2138334094,1.4380823227,1.3688136084,0.5833577842,1.1393585606,1.0161875984,0.6529203184,0.1157754521,-0.7530556303,0.7306264529,0.7839389592,1.5135397984,1.4402704339,0.3760353071,0.0802695727,0.3066154835,1.2941932054,0.369357516,1.5034934755,1.1914989755,1.3574488541,0.2399644894,0.8919448822,0.0698576834,0.6599057884,0.169758618,0.4269117863,0.8922073744,1.3239197853,1.5286982819,0.4534947423,0.9082476464,0.6459666759,1.0297926752,0.8734759935,0.0307805337,1.5538929385,1.1255398971,0.3998685849,0.9536439428,1.5599735264,0.5694590058,1.0679621009,0.3941874314,0.9854566382,0.5715573621,0.1090507999,1.1154212272,0.0576667412,-0.889181979,1.0626623556,0.679681039,1.5559072007,0.65607013,0.9817951857,0.1602988738,0.9810805236,1.5274714009,1.1238016294,1.5751671956,0.3829863957,0.3786766688,0.4716633503,0.9173696916,0.1044069171,1.410929941,0.4840728485,0.5550241004,1.388546714,0.9603532829,0.1819081157,0.2643675822,0.2578272445,1.539939311,1.3735175523,1.5324663068,0.4720465945,1.2264589289,0.8066692707,1.025657248,1.3093222855,1.105524375,0.2502741692,1.5889819336,0.8415954941,0.45948422,0.1074351359,0.8826669509,0.9755674363,0.2722925415,-1.0865916292,1.0758469927,0.4314825336,0.4474611425,0.1811845482,0.3612591787,0.511828613,1.4206781189,0.1764184211,0.0248654055,0.3141149558,1.4440487622,1.1453116872,0.1686262914,1.1099828095,0.8468739013,0.6447930777,0.9119455399,0.0516125985,0.5435869277,1.4291173464,0.9845915724,0.1412157093,0.0272988124,1.0230133623,0.8392534807,0.2576574603,0.6574745219,0.6063988884,0.2185183959,0.3397923096,0.0510012765,1.2699529487,1.484449509,0.3853592485,0.8316475133,1.348659074,0.2340369452,1.2186998441,0.6818488636,1.274184295,1.1395283575,1.0087017183,0.8369890223,0.8698293162,0.740368162,1.4944450928,1.2453180206,0.0321139088,1.2061797182,0.4900013904,0.2601838549,1.3774661846,0.6580738975,0.5749364332,1.2194949876,1.558656789,1.5383620671,0.8868059299,0.228525839,0.4674158367,0.6747743207,1.3842508875,0.3821036024,0.0241208467,1.0887632392,0.8683284341,0.695490767,1.1658319019,0.0955945672,0.1779998637,0.1759849104,1.2625278167,1.1519426718,1.2580018947,1.4313033826,0.1925997513,0.8333365216,0.7101377419,1.2716568413,1.491176561,0.4643785861,-1.2154727529,0.0406233184,1.5246294092,0.949693931,1.5104990021,0.8513297681,0.0840330557,0.2257964242,0.3275953693,0.1218370584,1.0033153124,1.3037822336,0.4289896229,1.212091531,0.76148156,1.3256105313,0.5836466635,0.4834519421,0.47460446,0.4426828013,1.2759795132,1.181212869,1.382700762,1.3163837824,1.4133929079,0.1287672784,0.1978039995,1.3983414531,0.7622235157,0.8496684602,1.5560300732,1.0553286579,1.4065650415,1.0040614344,0.7956600516,1.5498397906,0.8082349083,0.3155782576,1.0834281908,0.7171151397,0.0873166334,0.9236187926,0.0624947747,0.4027772402,1.178211013,1.3903626942,0.5765009785,0.3087720338,1.229877581,0.5110024464,0.6462376715,1.5733243953,0.9511472716,0.0117788096,0.6725633806,1.3655917611,1.5280785026,0.8528089056,0.4073978084,0.1606546355,0.6387979951,0.7352491851,1.5643206032,0.1954111345,0.4854744816,0.352825566,0.2737159024,1.4320375345,0.0945022424,0.3931128243,0.8371897644,0.852835814,1.1235883726,0.2053610422,0.3368612471,0.2721384074,0.861418666,0.9508893878,0.901015219,1.5528879567,1.0583965472,0.7920924545,1.2990330239,1.2282159024,0.340934645,0.6258188881,0.9773677175,1.0285305105,1.1958602215,0.9394702922,1.5312542767,0.1388408636,0.4660085182,1.3223448844,0.6337844713,0.9112831714,0.4308747717,0.8719471198,0.682458855,1.1166094423,0.9286096824,0.8033865874,1.0905945742,0.9834604248,1.5250793422,1.2837184509,1.2083368946,0.9966624497,1.2455289463,1.4425396035,1.1104659248,0.8954143085,0.243823527,0.3768229535,0.3323367183,0.1602033597,1.4165910099,1.6844822622,0.1020238636,0.1395799755,1.1373287286,0.7672944051,1.2856182127,-0.9671149109,0.7281226782,0.8499829433,0.7788747885,1.4449079058,1.6714329876,0.6727822778,1.7502622118,1.5117220031,1.5341078722,0.6566001559,0.9547576896,0.638576145,1.6296414491,0.2937129217,0.3169977194,0.217206551,1.5019277924,0.4684595982,0.2144410815,0.7474084836,1.3551600657,0.4921393833,1.548070156,1.4483310413,0.2072595271,0.2705860857,1.1695408739,0.4445786541,0.2205143815,0.6055321002,1.0688672487,0.597507507,0.2397129127,0.8217136776,1.1815223947,0.9941134172,1.4998762105,0.508450617,1.7752923352,1.7904794793,-0.8946683817,0.1196083038,0.2137363621,0.0094274346,1.4990376066,1.1333957539,0.6119960741,0.0789224444,0.2723404408,0.5196058488,1.2293597011,1.0519756044,1.0264656302,1.4392377299,1.1239770983,1.0052547655,1.3534052361,0.2081707977,0.3148298806,1.2110911178,1.5978129979,0.3156652193,1.117792214,0.5191397953,0.4175200648,0.8724480349,0.0339191328,0.6308856983,0.8606131598,1.3229755547,1.2961623737,1.1283165088,0.9251894436,0.932252181,1.5657157552,1.3810374982,0.9736315151,1.097800061,0.199401755,1.5435124507,0.9862245018,1.219940575,1.5362942632,0.2137866774,0.9210482105,1.0331000458,1.2268704138,1.5150427302,0.8950055967,1.6725015099,0.595513096,0.1149352771,1.1915042551,1.3926137105,1.2111908257,1.2455488431,0.1745710674,1.3780040622,0.4048809418,0.4823857531,0.7618158489,0.3700903749,1.2556687394,0.1298648506,0.5666379939,0.8967220009,0.2339502389,1.4231429763,1.3397121132,0.9350733441,1.0284570274,0.5251910288,0.2419332555,1.2404811043,0.9265193948,1.0389123392,1.0483480179,1.3912597624,0.6730275862,1.4760750295,1.2608343,0.8530743641,-1.3230648909,1.1720400095,0.5762954962,0.4674119241,0.7198014353,0.334664099,0.3278647678,1.252211325,0.9605468326,0.0122609681,0.8573768258,0.804444344,0.2146296095,1.0491652987,0.2846259011,0.1884498544,1.5829530967,1.224645702,0.0524067164,0.5098322919,1.2288296456,0.6388856607,1.5205134913,1.5167883093,1.5404914068,1.1204220513,1.21070491,0.155804554,1.5181754529,0.4208314778,1.3208554514,0.7490046977,0.556888334,1.3763973714,1.16886406,0.8379877593,0.794455691,0.1234929835,1.5761643029,1.1926123506,1.226753483,0.9806212055,0.0073711499,0.3924578654,0.9250445306,0.5748483343,0.7540082992,0.4995288494,1.2301899075,0.9980645377,0.6182242062,1.3687624598,0.8950376691,0.9112081813,0.426987937,1.4096438414,0.852497115,0.4215401539,0.8088288692,0.6589958619,0.6087801026,0.2338699435,0.7810269873,0.5261731169,1.5781711451,0.9085592825,1.4672166702,0.9318260144,1.1434106396,1.4304876,0.1434957897,0.9190429108,1.0671177318,0.8534600318,0.0860438028,0.6176499784,0.3331853957,0.6618674446,1.1810082505,0.5691028272,1.5724372278,1.441326653,-0.9022209105,1.329322182,1.1762724806,1.3449167826,0.1610599279,0.7330446259,0.6224108636,1.3579025958,0.5441837253,0.4013027225,1.455229435,1.1809213463,1.1185512498,0.2087540031,0.9738067448,1.3918584818,0.4498615559,1.3714338907,1.4239871209,0.0324855954,0.3308929356,0.2927279618,1.1648289267,0.472847621,1.3486230501,0.3456239541,0.0237742667,0.8533251745,1.3613539354,1.3160929416,0.3290058572,0.903652136,0.9840384426,0.0189524732,0.8388084712,0.9577217764,0.2642430193,0.0270128984,0.0161267247,1.0634304646,1.2287289485,0.8060736253,1.0328505835,1.5115391842,1.1438487751,0.9397320005,1.3477101034,1.586674174,0.8854384447,0.3146782436,0.5416608562,0.8485463542,1.5523710753,1.5349853237,1.4859652503,0.8400903169,0.4077304495,1.0377217462,1.465213729,0.6779792332,0.2385485719,0.5672574334,0.2178741874,1.2688501004,0.0730694147,1.564812586,1.5457528309,0.2903743281,0.4244050922,1.2833228891,1.287229318,1.4102706723,0.4067186118,1.594568585,0.4798447545,0.5283914101,0.4393470334,0.9057578927,0.8804060843,0.6255283482,1.2444901328,0.6947494684,-1.0782188651,1.7116436908,1.6113265586,0.5330400424,0.4212594666,0.5008159114,1.5367641083,0.528679875,0.4677796108,1.4356506792,1.2728275702,0.3643785347,0.8530466349,1.6848426078,0.7691509829,0.9693909788,0.2129308533,1.3001122503,1.7945549156,0.9419430445,0.3269106972,0.2611346695,1.506339944,0.6288902679,0.6655667259,1.3664026293,1.0774695137,0.8525965445,0.2243979779,0.4124206232,0.2785125703,1.7808107506,0.4945147126,0.3093610935,1.2765120291,0.4238312284,1.2554814251,1.7781949475,0.4449992333,1.6580429127,0.2968803803,-0.2306082916,0.8919521455,1.2320245884,1.4222225303,0.4947185173,1.5875932019,0.2377082281,0.9511820006,0.517798685,0.8901061058,0.8340622455,1.2083010413,0.0280363107,1.5407013021,1.4485266506,0.6354081005,0.4015713072,1.2960847463,0.8789700937,0.1065667291,1.4660532139,1.2054186682,0.4536462337,0.2685170843,1.0220316007,0.485008503,0.7828682187,0.488876385,0.4588273317,1.1929150035,1.3243600916,0.8483616507,0.9674596431,0.8047829618,1.2048597428,0.9430574519,0.7809339291,1.5000437149,0.7694492732,0.4798307033,1.4313552192,-0.651517484,1.3143358988,0.6683520863,0.9746983761,1.4924188738,1.1281907423,0.3234109202,1.1961375315,1.6277454988,0.1754602643,1.0061576966,1.5222753621,0.3573172834,0.3975518964,0.4587657164,0.9913611816,0.5081297627,1.1017190442,1.0418490341,0.3931487387,0.2351249369,0.2918272417,0.4328050218,0.4417618642,0.3204291202,0.3180525849,0.9631627405,1.2180534361,0.1204092637,1.1886523754,1.6725172119,0.1675423181,0.7583084117,0.5780359592,0.8266848809,1.2299463911,1.3488903532,0.9449642729,0.3425309213,1.0580650815,1.6399483713,0.2401793883,0.4115375146,1.0290229598,0.8011135584,0.9217294438,0.9449566393,0.3458565821,0.2176935467,0.5872133927,0.8550917546,1.6304624831,1.3932223814,0.8881782838,0.4262340532,0.5677596931,0.8814332933,0.5008452728,0.961845416,0.1844480056,0.8010077944,1.3602742173,0.2665716556,1.2116731509,1.6448571969,0.4151353295,1.6368868395,1.3288128915,0.9724510339,1.6348654409,0.6110525883,0.8772195762,0.50224936,1.3101504744,0.4208971966,0.3476979188,1.6409484342,0.850582499,0.8001878269,1.0686247452,1.4802418318,0.381745759,-1.14048483,1.0214761784,0.464282806,1.3260984982,0.1414101445,1.2784277848,0.6328295399,0.778642161,0.2388453105,0.3953549347,1.0688071974,1.0656860324,0.5138003535,0.5802109712,0.315057464,1.5885404984,1.3074261661,0.8264735564,1.4197429535,0.2456973308,0.4799351899,0.0065816622,1.283971188,0.8210748195,1.4501650383,0.780487895,1.0341839096,0.5815431457,1.1115029571,0.4118812224,1.2153446485,0.5757405927,1.0328242208,0.6436641604,1.3899419406,0.8600984108,1.4233407312,0.915403717,0.4153849997,0.1642068458,0.6581518301,0.0248690312,0.4883911131,0.8749978684,0.0375528944,0.6068166301,1.3413078333,1.4006339413,1.4962903909,1.0474058196,1.4066880038,1.5456666603,1.1177891517,0.0233160028,1.0800166898,0.9937061157,0.5817709191,1.007024478,0.5660835421,0.3287678408,0.2266268386,0.4863529418,1.4038761414,0.1761960652,0.197221798,0.8023672355,1.5469418629,0.1090624881,1.1719888217,0.8033004639,1.4804651036,0.2918927264,1.1003024766,0.7700907236,0.4724569236,0.8729124551,1.2302818533,1.2636078445,0.3835573329,1.498122584,0.5618496376,1.3344576239,0.7827954826,0.1384824282,1.5206181785,1.0210638528,0.5938742421,0.2332987029,0.8687468641,0.652411694,0.6294405914,0.7452644603,0.2770515474,0.70211037,0.8355290822,0.3536681741,1.5457415463,0.7547030045,1.2804295368,0.444805564,0.9538396673,1.3376853364,1.4598778978,0.6919354389,0.2701644221,0.5419856646,0.9276900158,0.4425212353,0.4318993851,0.3961238405,1.4981735449,0.8709537256,1.5695167408,0.6708749993,0.8961070682,0.4565879874,1.0731005439,0.2918020645,1.2387314397,1.505674923,0.964780982,1.2506243877,1.2141589229,-0.8637065937,1.3741833969,0.2960271811,0.1233234505,0.9309042888,1.5467523631,1.329329906,0.7708331227,1.3940842602,0.4881819285,0.8593085434,1.1562389914,0.5777047524,0.2887612619,1.1078166817,0.8124790122,1.257408625,0.7021552884,0.8618977369,0.6903044812,1.5767214352,1.2547925335,0.1318026099,1.5550628998,0.2869121285,0.582945691,1.470264176,1.1598134936,1.6046400289,0.4935022608,1.0480151618,0.435829518,1.0675520175,0.0866528173,1.069343666,0.5742071574,0.785161423,0.4814147405,0.4861152945,0.941218801,1.0073329713,-0.7899518447,0.3261604245,0.4073060127,0.9930621271,0.5702667701,1.1147967486,0.9063640607,1.1864936702,1.1036491765,1.4800391156,0.4231968866,0.9808433358,0.2074955454,1.4397741535,0.3397177383,0.0341853704,0.9603290267,0.2122158348,1.3922546475,1.3748302759,0.9659922841,1.3799420357,1.1132450524,1.1242884412,1.5526590823,1.211408848,0.4776648637,1.4799168673,1.38460354,1.5908421972,0.0682223469,0.961058815,0.4769235228,0.5589355702,1.472958193,0.3592654455,1.4523965855,0.552567337,0.6262793507,1.0747580957,0.1810495306,0.8533081658,1.5075211351,0.1530074381,0.2130105324,0.1172007386,1.1216907569,0.2867353711,0.4865008523,1.0989567496,1.4990055679,0.3451283039,1.4524886451,0.6988624924,0.3987544822,0.2955122339,0.8515719928,0.2225664823,0.8495043368,1.0241886333,0.7349973524,0.4402790226,1.4590507783,0.3545586899,0.9835474905,0.3148430801,1.3843003474,0.299939693,1.4983709621,0.3210968204,0.1802647788,0.9679967329,1.7007878593,0.7733361946,1.4230659695,1.4658738346,0.4954001608,0.4688592054,1.642610916,0.4928342339,1.2870648894,1.5617053501,0.7839723247,0.0818161655,1.4650131966,0.0681549634,0.5708280449,1.0610155153,0.8449406257,0.9561711103,0.5798447259,1.5084809799,0.9417545572,0.7984082827,1.2467046516,0.0753129575,1.2812629629,1.361909448,1.2671976983,0.8955171292,1.2572921456,1.2058677098,0.8586200618,1.3015147031,1.187470433,0.5444532424,0.4437662742,0.6832651996,0.3022848188,0.1535595325,0.5293682679,0.3203658751,1.4826253857,0.0188935062,0.5496120144,0.2240893233,1.4242545238,0.0896328099,1.4546219976,1.1248759661,0.5461936817,1.2915575649,0.9437961588,-0.5819408122,0.7401834518,1.5192882058,1.1213619704,1.0233578972,0.4977456047,0.3995164357,1.1198524253,0.9663389929,0.8119829866,0.4311311961,1.3691312978,0.3921423626,0.3808085184,1.4398630008,0.9444549303,1.3897010758,1.2719209752,1.2784729561,1.1622129975,0.3630362652,1.005723297,1.4908907098,0.5871335954,0.6798828232,0.2027186217,0.3610025364,0.2405355957,0.3957604184,0.1248157231,1.570707617,0.3480577436,0.9086078568,0.9865010182,0.4733366569,0.366341753,0.136759432,0.4687525462,1.4085423111,0.3798398816,0.6593346693,1.4987899146,1.5402884677,0.1685314939,1.5540247132,0.7366388915,0.9638859927,1.0482837455,0.8208773235,1.3214887857,0.551756833,0.3959705893,1.1203849638,0.0300489026,0.5938161627,1.2748800216,1.2145703336,0.5313464604,1.422906135,1.5302326338,0.1388966167,0.1699874974,0.3670559769,0.1066886241,1.3422490881,0.069406553,0.459922844,1.0579965188,1.4098446139,1.2373672958,1.4210673667,0.6345515722,1.5470076976,1.547091669,0.3422740099,0.7144899141,1.3674116197,1.4989114661,0.8218695427,0.0595286215,0.0771534762,1.0779721035,0.2125162257,1.259725198,0.7700908095,0.7074047522,1.1839694014,0.3921206306,0.9118705321,0.63495201,0.5444278691,0.4801073871,1.0712959058,0.8197614823,0.5072784208,0.4365269537,1.5293416933,0.9466667806,0.9170789914,1.0420727695,1.2335862355,0.3058868167,0.4553777075,1.0613485088,0.4733478088,0.7030720524,0.0311971414,0.3780400903,1.2042793945,1.3473651394,1.3647741375,0.2569947837,0.5769022324,0.0465999398,0.6860692098,0.7122096336,0.7472715079,1.0630055714,1.0539188492,1.0626797235,0.8606166572,1.4077231558,0.2746807673,0.4405499634,1.6935111876,0.2360364876,1.0499706237,1.2374930234,0.3807064032,0.1296611875,0.2659763015,1.3261403301,0.7776682223,0.3008466657,1.1866923909,1.6010041419,0.8029446408,0.6236492377,0.6408574772,0.3152848217,1.2667278883,1.2180754296,0.6092534218,0.3088239319,1.2612272929,1.3437536994,0.5184286729,0.3130413402,0.6588122789,1.5564209076,0.7562763692,0.4847383351,1.6352674819,0.7658643138,1.4024997016,0.7419135319,0.4592212938,0.3914449122,1.4428507441,1.2182522483,0.3461346888,0.6589356123,1.6142520272,0.2030810981,-0.54155432,0.4639981364,0.2594293474,0.4198391273,0.7395221052,0.6358490537,1.2714899418,0.9174375321,0.927022317,1.0622368757,0.1531159223,1.3403457556,0.3876888204,0.3155211782,1.5952417292,0.1003244134,0.3534769432,1.6068026542,1.330587498,1.4484055801,0.8869895847,0.6189596548,0.4732562737,0.6502587218,0.4190601089,1.6696468977,1.6971552873,1.2588263698,0.9057102868,0.6045116755,1.5352356432,0.944745834,1.221093535,1.16677403,0.9244578892,0.1277783581,0.499034933,0.3537692206,0.9831709275,1.6609322336,0.9980539655,-0.5363553329,1.3801843899,0.3954975793,0.5625334802,1.5919386879,1.2853634757,1.1366007049,0.586243896,0.1626076765,1.5176489814,0.5042733607,0.2520758062,0.1973349967,1.4456648438,0.1721379616,1.4399684761,1.529382508,0.2886270465,0.9354611133,1.6014293554,0.1827845345,1.3730747802,0.6297086525,0.6429759257,0.8455250229,0.9067012467,1.3386224185,1.0021359737,1.4433891813,0.1151408694,0.1177928337,0.0900023309,0.1900195411,1.017208015,0.4687895502,1.1337940444,1.246638205,1.1768012812,0.1256854715,0.8758730758,0.8167416113,0.8944754989,1.0937119583,0.9242324812,0.8363501353,0.2902931323,0.0985625003,1.4941044002,1.4292452674,1.1153230052,0.5208953029,1.4343989159,1.3237895114,1.1083977973,0.110607635,1.0523439989,0.0999631309,0.110099921,0.3030388935,0.508021936,1.2566736139,1.0251691066,1.281293084,1.3788302292,0.5910218356,1.0633863705,0.3859699796,1.1946274584,1.3182264503,1.253405176,0.2178119958,0.4444618494,0.4580478238,0.9326854973,0.9754920963,1.2019320899,1.2642727233,0.1377531604,1.1148133252,0.2036502799,1.4257090786,0.0486090937,-1.3784409533,1.3627161208,0.8112375971,0.4234571132,0.4643862522,1.3145335558,1.3462902889,1.5108014357,1.2164228776,0.4955008862,0.4486664145,0.5206605643,0.2755465491,1.5824876141,0.1044478395,0.4625569835,0.4599550649,0.0865639885,0.1728495889,1.0212067138,0.4527489005,0.7814204458,0.5602437401,0.1805241138,0.9371391228,1.4966983354,1.2868538444,1.3347163197,0.4047197424,1.0186720117,1.1120836819,0.7744070632,0.4099614726,0.7789216422,1.3735639493,0.8055159261,1.4404247499,1.169723752,1.0499559526,1.1801257718,0.8473253092,0.9480016821,1.5311628873,1.4250230464,0.1722510709,0.3133933093,1.5909693947,1.3499298242,0.6459135812,1.2504253197,1.4891592067,0.4414542115,1.0578204943,0.2251103638,1.0574979637,1.1970680114,1.1963378589,0.0848928709,1.0437676323,0.861572762,0.5779685727,1.5844368391,0.8039572955,1.1125277773,1.4021431391,1.3523470416,0.5985976534,0.330831817,0.3058492965,0.5419832867,1.0575149327,1.0045179629,1.4799774749,0.1409057371,1.457531604,0.3281086743,1.494208712,0.6445295086,0.0003712892,1.3831603295,1.3581922105,1.1129418159,-0.9450864029,0.5760204939,0.5632133583,1.2639634889,1.3047602754,0.2932205908,1.5922501213,0.8038397528,0.7150819732,0.9102555495,0.2716764871,1.4151268229,0.3688576455,0.6386940689,1.3948647009,0.1739774309,0.0041211046,1.204862192,0.352773383,1.3922059681,0.141708433,0.1343100507,1.1624407385,0.0432776084,1.4547950856,1.5209233798,1.3542749675,0.9603421675,0.5327350401,0.6621074435,0.9619845171,0.3075843664,0.2105101378,0.6121104626,1.4746815573,1.5854982263,1.455943513,1.2119878622,0.4476131821,0.0170539533,0.9646136727,1.1358108039,1.1769819147,1.5898212188,0.395864766,0.0550518648,0.9562187016,0.035791062,0.7548883476,0.6004311843,0.9335081106,0.0393555658,1.2569672726,1.4636196385,1.1295263514,0.2416616936,1.4245864332,0.3664401132,0.9492145098,0.0781080323,0.9060315452,0.7030185131,1.0537172776,1.5234958252,0.3223194561,1.4770725798,0.9291329369,0.3561833669,0.1274879185,1.268814981,1.1483598069,0.2360282232,0.2555257244,1.4079403594,0.677061043,1.3224143864,0.6404473373,1.5422274899,0.6698664622,0.5646434681,0.443372016,0.780955253,1.3733791899,0.6687634312,0.2735961942,1.1923944639,1.0826739359,0.7037194212,1.2736743416,1.3278015314,0.7335326552,1.1571611355,1.3401164725,0.4895533054,0.0261899257,0.2074427207,1.1380408336,1.1945716013,1.1865254329,0.0721052783,0.8987095682,0.7577680866,0.5663346927,1.3215445193,1.0052978122,1.3755769959,1.2157590147,0.6005379415,0.1040304531,0.0558576835,0.97727235,0.6996649503,1.0936734002,0.0908457916,1.5170398369,0.3394861361,1.0684828158,1.1108034376,1.2278212068,0.7717848947,1.2469348598,1.5657165381,1.4685609724,0.6800182047,0.0099514759,0.5349793889,0.1030561673,0.9347719607,1.0425753647,0.8419353475,0.9109606269,0.5670962593,1.3602198365,1.5505611587,1.4386661623,1.2500061429,0.610956805,0.9666958006,1.1288029024,0.3348810208,1.5085593118,1.2527896055,1.1373904707,0.1934794485,1.1952107856,1.4575490566,1.2736261005,0.6474729078,0.4672413427,0.3090029319,0.587805497,1.5226430393,0.6396777742,1.5658231522,1.1946558654,0.5743049379,1.5226881458,0.905155188,0.5801447575,0.3742408844,0.4935548636,1.0123628548,0.3786272587,1.0463754054,-0.892046114,0.7943072943,0.3872369508,1.0151761783,0.4659601776,0.7136381235,0.5475154061,1.0182328859,1.4293837049,0.4114518694,1.3692066679,0.6375331555,1.472123203,0.6791427717,0.162231283,0.8158064533,0.6907848088,0.6308513945,0.6527267637,1.2094905636,1.6853735272,0.2336869209,1.0378867111,1.5092875609,0.8924076308,1.4351791157,0.6144360412,0.2294552197,0.9111883055,0.5957691994,0.6544860937,0.7102549611,0.9596388594,0.2962419835,0.5815928406,1.3265582404,1.1604017858,0.398465781,0.3758325215,0.6034630149,1.4176017542,0.3780556005,0.8612278414,1.3759730759,0.0456025343,0.706363002,1.2004194848,1.0190851546,1.3303474412,0.8346233112,0.7435502976,0.9152020855,1.2569544553,1.3986341077,1.1159835667,1.4336858781,0.4985050022,0.5134337432,1.0352767483,1.2862597059,0.1325269285,1.2135302982,0.2031993616,0.3142194759,0.2262611955,0.6617754507,1.5229148094,1.2831461333,0.3976182396,0.879349122,1.2743061435,1.5606968677,0.6802904653,1.5251817522,1.3566937258,0.7994014183,0.9474915476,0.204191781,0.6674258663,1.2624940604,0.9952156527,0.700624576,-0.5245822594,0.2554101683,1.1338373066,1.5594266501,0.633060971,0.5687788082,1.322974094,1.2681327681,1.5066483167,0.9722867545,0.0341353917,1.0940877288,0.5155226308,0.3578436567,0.0327587052,1.3616025595,1.4142784372,0.3158454105,0.203232548,1.2295638236,0.5031039322,1.5694280816,0.0070194202,0.4173598482,1.5565979627,0.3181807169,1.3399152352,0.5378026658,1.2910652617,0.3968153248,0.8358066515,0.7886935095,0.70091084,1.400502706,1.4969085858,1.1545809775,0.2238321689,1.2000456033,0.6416723264,1.0436094844,0.4247636797,-0.3071773187,0.392974281,1.2153113503,1.049508196,1.1773278659,0.7885467324,1.6387550641,0.7571109129,1.4868536899,0.4796199418,0.5803397452,0.3501453188,1.0275048902,0.4091227229,1.3814529344,1.5700439429,0.683347069,0.4194624216,1.4120791648,1.1804989616,0.4457169263,0.2080992985,1.090150093,0.3617588348,0.7895603365,0.4816144631,0.4519159741,1.2802907656,0.6710261722,0.3776832072,1.0159988892,1.4296176865,0.3061718313,0.4568964645,1.7994477335,0.6967105403,0.8014565609,0.2738528934,1.7567923989,1.159793286,0.4916017961,1.2923309044,0.241012516,1.481716679,1.4101457262,0.1403365675,0.2817883608,0.109118666,0.2160604538,1.2774089986,0.6979955354,0.2631751016,0.493498139,0.8617918177,1.6338286236,0.9703586014,1.119832506,0.8836591568,0.8409260747,0.8183598551,1.5467236464,0.1470037538,0.1028081778,0.4349972933,1.698775691,0.5576489662,1.6550946896,0.1059935092,0.2798732878,1.1615287463,0.5603530291,1.1975553289,1.1948654147,1.5809428556,0.5473955409,0.148913806,1.1074112832,0.3116377766,1.6639635363,1.3677470711,0.2668352813,0.6479640861,-0.2177030492,0.799832647,0.3157015914,0.7159901075,0.6828188859,1.0155449053,0.4238121959,1.0047624736,0.9046817415,0.3222387857,0.190505273,1.5180404825,1.5401021035,0.318331663,1.5022156835,0.8787908668,1.0631214097,0.9062227087,0.4091714952,0.7396840311,0.9213308029,1.4412022589,1.1644985153,0.7343595017,0.8340402171,0.9072768108,0.3567024422,1.6108329493,1.0820866034,0.5990274544,1.0011921473,1.399615325,1.1023808671,0.1759264814,1.5714255634,1.006929661,1.2349811762,0.4087407955,1.1123211801,0.2169926032,0.12378951,1.0776697165,1.3771153433,1.2868184934,0.7529193897,1.5336276358,1.0837872974,1.1972761695,0.1677195275,0.9744632346,0.2785088867,0.9497714671,0.5000024304,0.7251496509,0.4158671201,0.2687285854,0.6268524235,0.3898455919,1.4446711936,0.1934311937,1.5371771941,1.0632516803,0.9428841264,1.288411949,0.8927104809,1.5841746881,1.1367476683,0.2249137319,0.5687747157,0.0632086437,0.0092208608,1.1725735729,0.2870361833,1.2446904184,1.1409429925,0.1351829664,1.2481182388,0.6202695361,0.3599931485,0.1445885506,1.3782358797,1.5901301696,-0.5860884577,1.0172029036,0.5934617082,0.6582075513,1.0627824414,0.525547246,1.0152933756,0.4365258434,0.3488282433,0.4777117346,1.3163684839,1.649316332,1.6094970078,0.844630274,1.3178461725,0.2338886361,1.0429626033,0.5897209699,0.2294558029,0.2550131906,0.3950074031,1.689830363,1.3719276607,0.8007711015,1.3953982056,0.8060422933,0.1534380525,1.6757491928,1.6701924809,1.1612555148,0.7886760833,1.5967907162,0.4001200197,0.8480586017,0.5570059338,0.1065723621,1.5161526525,0.8295311493,1.5560099389,1.5537964172,1.0239792718,-1.3745375283,1.4714507809,0.3351600245,1.0531381162,0.8819750953,1.4680463721,0.9613710449,0.3120695703,0.0377445729,0.8186008424,1.5625505726,0.2769306168,0.1032025068,0.3753116941,0.759971434,0.1053306549,0.4302120988,1.2251172833,0.9495451899,1.3420305955,1.2319661348,0.0434443229,1.463959077,0.9032622116,0.8414522432,0.1813591135,0.2420286172,0.7909520903,1.5971906999,0.2849827679,1.2978353909,1.135407144,0.2235926127,0.8647257107,1.0840524286,0.6593352732,1.3352598316,0.7003546959,1.5772310386,0.1224418359,0.5684090388,1.3949066639,0.5148342708,0.4882742132,1.5559837537,1.0295037584,0.7800269239,1.6722532,0.1629530539,1.3878365979,1.5500331905,0.8248870778,0.4775944615,1.0419982312,0.3685949054,0.5864133074,1.1810773367,1.5611003343,1.456208504,0.7809440475,0.956890819,0.8923726717,1.0162279935,0.2688838062,1.6877807359,0.7039026996,0.4892084546,1.280738817,0.3007896317,1.014350348,0.4022811422,1.1353722644,0.309108874,0.6910596559,0.2666889346,0.5478559786,0.4248889139,0.1587365307,0.144686326,1.0522544242,1.6392952993,1.3640178423,-0.0478668309,1.1807498378,0.5478842926,1.2993916179,0.1540380779,0.4784004439,0.8602217164,1.6626490086,0.4738736462,0.4676544239,0.8930710621,1.4741934355,0.7782723332,1.5120570224,0.5568377157,1.2337367447,1.6706158989,0.7003254705,1.5418525856,1.15633913,0.9943546653,0.1320358304,1.5142926406,0.4104051935,0.5203245219,0.2938435093,0.5738925879,1.270341354,1.1427400373,0.1959635412,1.5659761552,0.4390039845,1.3709407714,1.0031829561,0.9586126534,1.0162961274
