encog,BasicNetwork,java,3.4.0,1,1590091674181
[BASIC]
[BASIC:PARAMS]
[BASIC:NETWORK]
beginTraining=0
connectionLimit=0
contextTargetOffset=0,0,0
contextTargetSize=0,0,0
endTraining=2
hasContext=f
inputCount=235
layerCounts=236,91,236
layerFeedCounts=235,90,235
layerContextCount=0,0,0
layerIndex=0,236,327
output=0.0033923802,0.0022990357,0.0037255402,0.0028498815,0.0023297809,0.0018546358,0.0071561433,0.003283399,0.0035504366,0.0033703094,0.0022203135,0.0036815541,0.0021304205,0.0023628865,0.009702505,0.0048757443,0.0049165574,0.0034914016,0.0057760919,0.0029182314,0.0023484372,0.0019018532,0.008618217,0.009649371,0.0026682228,0.0045770782,0.008658349,0.005098739,0.0022161851,0.0041043536,0.0102196953,0.0054236391,0.003794298,0.0093139439,0.0093432617,0.0017660231,0.0033438126,0.002894701,0.0059277936,0.0023196769,0.0081948861,0.006045291,0.0019985233,0.0112225989,0.0022113755,0.0045681593,0.0045009378,0.0020951295,0.0077009655,0.0092569821,0.0087854134,0.0019702913,0.007716835,0.0030514917,0.005780984,0.0063939869,0.0042200564,0.0036340012,0.0035031247,0.0015141923,0.0025210421,0.0073659636,0.0019672195,0.0070557271,0.0042045133,0.0060671331,0.0056434497,0.0020199563,0.0017835099,0.0033880976,0.0054341126,0.0076422254,0.0069940423,0.0020862664,0.0031360163,0.0061549245,0.0026542584,0.0038823693,0.0033668458,0.007433221,0.0022054962,0.0014041349,0.0056231584,0.0064518693,0.0059470607,0.0054034433,0.0029823339,0.0073605943,0.0031083057,0.002054431,0.0029583956,0.0032063893,0.0014430463,0.001682714,0.0049646501,0.0021131861,0.0057235449,0.005424659,0.001487899,0.0079929737,0.005411295,0.0016628935,0.0025518538,0.0018796548,0.0021610843,0.0043445075,0.0043599445,0.0020532624,0.0078163268,0.0054581798,0.0022596796,0.0092647174,0.0037775692,0.0041123584,0.0056568851,0.003387243,0.0032964106,0.0046332903,0.0019696318,0.0069187973,0.0087143317,0.0035387495,0.002400408,0.0029869328,0.0015366534,0.0014336379,0.0034389285,0.0016375871,0.0022508048,0.0015078899,0.0019605396,0.0051409231,0.0018911024,0.0031222009,0.0056834233,0.0053100534,0.0014216649,0.0044005643,0.0067196222,0.0037134525,0.003528617,0.0058550132,0.0042419168,0.0015424016,0.0015070349,0.0032847632,0.008309459,0.0045282188,0.002897134,0.0032906227,0.0066719319,0.001894559,0.0093153807,0.0016354092,0.0022810426,0.0058187314,0.0052057478,0.0090740052,0.0016006421,0.0017376752,0.0070812276,0.0094412155,0.0016859563,0.0090070135,0.0037356311,0.0013779894,0.0062710004,0.0031358217,0.0075829372,0.0035370824,0.0056847134,0.00205423,0.0031766148,0.0030324359,0.0032693788,0.0016178821,0.0018589468,0.0015969486,0.0015586929,0.0093447796,0.0037000565,0.0025065697,0.0017139047,0.0018181773,0.0027234471,0.0094234194,0.0043638323,0.0057946244,0.0089342406,0.001834994,0.0045176107,0.0017650806,0.002785581,0.0069862278,0.0037997019,0.0037063473,0.0074751013,0.0019607857,0.0055578649,0.0061576492,0.0015869243,0.0024082275,0.0045000336,0.0038638919,0.003439286,0.0030060635,0.0017863247,0.007447228,0.001705415,0.0059869513,0.0040022639,0.005940617,0.0065486,0.003937441,0.001821323,0.0042200384,0.0039896705,0.0018739591,0.0027865745,0.005222462,0.0043535572,0.0028564848,0.0014312943,0.0087672484,0.001877019,0.0013912811,0.0065108587,0.0093600916,0.004996455,0.0048098706,0.0025053379,0.0044291466,0.0013181656,0.00193797,0.0030215423,1,0,0,0,0,0,0,0,0,0,0,0,0,0,0,0,0,0,0,0,0,0,0,0,0,0,0,0,0,0,0,0,0,0,0,0,0,0,0,0,0,0,0,0,0,0,0,0,0,0,0,0,0,0,0,0,0,0,0,0,0,0,0,0,0,0,0,0,0,0,0,0,0,0,0,0,0,0,0,0,0,0,0,0,0,0,0,0,0,0,0,1,95,76,22,195,212,201,96,225,156,72,232,150,70,28,156,219,215,26,165,141,178,115,224,107,195,147,219,174,20,174,108,147,176,91,30,203,84,225,129,199,132,218,174,79,0,0,0,0,0,0,0,0,0,0,0,0,0,0,0,0,0,0,0,0,0,0,0,0,0,0,0,0,0,0,0,0,0,0,0,0,0,0,0,0,0,0,0,0,0,0,0,0,0,0,0,0,0,0,0,0,0,0,0,0,0,0,0,0,0,0,0,0,0,0,0,0,0,0,0,0,0,0,0,0,0,0,0,0,0,0,0,0,0,0,0,0,0,0,0,0,0,0,0,0,0,0,0,0,0,0,0,0,0,0,0,0,0,0,0,0,0,0,0,0,0,0,0,0,0,0,0,0,0,0,0,0,0,0,0,0,0,0,0,0,0,0,0,0,0,0,0,0,0,0,0,0,0,0,0,0,0,0,0,0,0,0,0,0,0,0,0,0,0,0,0,0,0,0,0,0,0,0,0,0,0,0,0,0,0,0,0,0,0,0,0,1
outputCount=235
weightIndex=0,21385,42625
weights=##0
##double#42625
   -1.0822690903,-0.1265966771,0.7265106063,-0.5267052012,-0.2586190867,0.2275845031,-0.9494180532,-0.4745902097,0.1122466554,-0.1698627854,0.1603532372,-0.0226047316,0.5404420205,-1.039488031,-1.1677780953,-0.3728435463,0.5235924765,-0.5868761008,0.3132877379,-1.1054097909,-0.8172553632,0.021760295,0.5924453259,-0.1221285976,-0.9919774468,0.7342149946,0.4631935257,-1.164916761,-0.5054928728,0.118477046,-0.5165436111,-0.6557338097,-0.591219045,-0.5223573781,0.2799319838,-1.3442932958,0.6449672335,-0.6174476163,-0.6163985231,0.2334963271,0.3254456589,-1.4694697084,-0.2554223419,-0.4152177425,0.1401549924,-0.3088841326,-0.2132596245,-1.248870281,-0.7483785221,0.2958117446,0.4793089624,0.1377960608,-0.3898410453,-1.0052141507,-0.8321702686,-0.9018419019,0.4741927598,-1.1866913068,-0.0802456822,0.4035091677,0.0881511746,-0.3726736059,0.6142890798,0.6647200884,0.4929570553,-0.2132509521,0.3202558927,-0.6421976589,-1.6869014196,-1.6182195256,0.3120417372,-0.9650046271,-0.5641936637,-0.5066620626,-0.5577715004,-0.8055890974,-0.4318268313,-0.4662451492,-0.3312024557,-0.8992497797,0.1756767209,0.025171321,-0.5928981912,-0.9156821247,-1.0112984825,-0.8171367299,-0.5018748872,-0.0857689837,-1.7607480029,-1.4181818513,-0.0544776145,-9.149767872,-30.1097561606,-3.2689936267,-13.7082874454,-7.6461715836,-0.4489441159,-6.9037277773,-11.9622164581,-9.3962927751,-1.3126002896,-3.1941185265,-0.7075852644,-3.4096364569,-32.1068736008,-3.5624197425,-17.5407559354,-3.1043445313,-2.8131653529,-8.387921354,-4.0856412408,-3.1414056649,-4.9088213,-3.4526646304,-2.0935137309,-9.061965091,-7.3632221993,-3.5149537997,0.159750753,-2.0356529044,-6.1553019835,-6.0218850477,-7.1074951768,-3.483099395,-8.5765543211,-3.05801808,-7.6864581639,-6.7835407548,-0.7076611255,-4.5888448815,-2.3284395759,-4.6180986962,-43.8624598199,1.2328426244,-21.0545269993,-6.7142746893,12.203415517,-1.6455878917,-8.9716707636,-3.8310644529,-7.6396426354,-1.7813838695,-19.8565599439,-0.9448714881,-1.2765805275,-5.9390693838,-1.17895488,-2.2883513273,-1.4664836434,-1.5803827933,-18.468490857,-5.5128519092,-10.6154131461,-6.0115435145,-34.0754881397,0.4292807119,-4.4767015684,-4.5272859356,-1.7466369439,-12.5862217322,-1.6009193747,-6.129603676,-4.3050544998,-5.0931059667,-2.1009418545,-5.5665648796,-4.1437588229,-9.5851027621,-3.4134711236,-7.1034357262,-9.3222058979,-5.0156885419,-23.8759263471,-3.5641775719,-2.4248730856,-8.5491950385,-19.2352420791,-27.7969010627,2.2730571753,-2.1733853067,-2.3865501978,-0.4435196381,-7092444186878242000000000000000000000000000000000000000000000000000000000,-21612772415757680000000000000000000000000000000000000000000000000000000000,-3609047384351230600000000000000000000000000000000000000000000000000000000,-9961277796401380000000000000000000000000000000000000000000000000000000000,-2906021504675023000000000000000000000000000000000000000000000000000000000,-307457854561728430000000000000000000000000000000000000000000000000000000,-1957160457640588000000000000000000000000000000000000000000000000000000000,-4283595740240860000000000000000000000000000000000000000000000000000000000,-7384468722144090000000000000000000000000000000000000000000000000000000000,-157113472011969530000000000000000000000000000000000000000000000000000000,-1173934101640960000000000000000000000000000000000000000000000000000000000,-141718020380712780000000000000000000000000000000000000000000000000000000,-2027375290287537800000000000000000000000000000000000000000000000000000000,-25437309698168180000000000000000000000000000000000000000000000000000000000,-511882206546055400000000000000000000000000000000000000000000000000000000,-13738604095258199000000000000000000000000000000000000000000000000000000000,-1602228401997805700000000000000000000000000000000000000000000000000000000,-1470831889565130300000000000000000000000000000000000000000000000000000000,-6369777987222988000000000000000000000000000000000000000000000000000000000,-682154872248020400000000000000000000000000000000000000000000000000000000,-1117011891492530600000000000000000000000000000000000000000000000000000000,-2290403344089897400000000000000000000000000000000000000000000000000000000,-3202240752185938000000000000000000000000000000000000000000000000000000000,-609188866952524400000000000000000000000000000000000000000000000000000000,-3291204299047305600000000000000000000000000000000000000000000000000000000,-2560598403055068500000000000000000000000000000000000000000000000000000000,-1187294245751746200000000000000000000000000000000000000000000000000000000,-449590162396131900000000000000000000000000000000000000000000000000000000,-3354410580953674000000000000000000000000000000000000000000000000000000,-1787227724714682700000000000000000000000000000000000000000000000000000000,-5042716098204881500000000000000000000000000000000000000000000000000000000,-5128976733326559000000000000000000000000000000000000000000000000000000000,-715527813870656500000000000000000000000000000000000000000000000000000000,-2253940401844869500000000000000000000000000000000000000000000000000000000,-1048438879970909400000000000000000000000000000000000000000000000000000000,-5610504239777750000000000000000000000000000000000000000000000000000000000,-2684834844035001500000000000000000000000000000000000000000000000000000000,-1049925382958124400000000000000000000000000000000000000000000000000000000,-1466574070567497000000000000000000000000000000000000000000000000000000000,-623778378036406300000000000000000000000000000000000000000000000000000000,-1607537499674199500000000000000000000000000000000000000000000000000000000,-36611757961553424000000000000000000000000000000000000000000000000000000000,-934744107794948900000000000000000000000000000000000000000000000000000000,-18634508985082890000000000000000000000000000000000000000000000000000000000,-4399575730963118400000000000000000000000000000000000000000000000000000000,-1438450607010395800000000000000000000000000000000000000000000000000000000,-359174594652275630000000000000000000000000000000000000000000000000000000,-2771277701607194700000000000000000000000000000000000000000000000000000000,-2253397794911306000000000000000000000000000000000000000000000000000000000,-2199090333756616600000000000000000000000000000000000000000000000000000000,-412480119453914140000000000000000000000000000000000000000000000000000000,-15676056572376240000000000000000000000000000000000000000000000000000000000,-35351769970931460000000000000000000000000000000000000000000000000000000,-391489791463589900000000000000000000000000000000000000000000000000000000,-1822206451140466000000000000000000000000000000000000000000000000000000000,-294204780340879960000000000000000000000000000000000000000000000000000000,-328847075790449800000000000000000000000000000000000000000000000000000000,-1001748873572604100000000000000000000000000000000000000000000000000000000,-69909124235071240000000000000000000000000000000000000000000000000000000,-15291659937512168000000000000000000000000000000000000000000000000000000000,-1951279461667483400000000000000000000000000000000000000000000000000000000,-2858373196927570500000000000000000000000000000000000000000000000000000000,-1747286933251986100000000000000000000000000000000000000000000000000000000,-27910344972559572000000000000000000000000000000000000000000000000000000000,-6703220050498954000000000000000000000000000000000000000000000000000000,-246973446557671100000000000000000000000000000000000000000000000000000000,-1213878755664060100000000000000000000000000000000000000000000000000000000,-420221125555006400000000000000000000000000000000000000000000000000000000,-3347761723316947300000000000000000000000000000000000000000000000000000000,-1587293961735003400000000000000000000000000000000000000000000000000000000,-2162523302310470000000000000000000000000000000000000000000000000000000000,-1359399019738009700000000000000000000000000000000000000000000000000000000,-3667912630956673000000000000000000000000000000000000000000000000000000000,-313032377509436140000000000000000000000000000000000000000000000000000000,-1495637984132173600000000000000000000000000000000000000000000000000000000,-3029247049001010600000000000000000000000000000000000000000000000000000000,-3430946315950341000000000000000000000000000000000000000000000000000000000,-714047701883598600000000000000000000000000000000000000000000000000000000,-1728218743980971000000000000000000000000000000000000000000000000000000000,-2875719215674416300000000000000000000000000000000000000000000000000000000,-833090838020689600000000000000000000000000000000000000000000000000000000,-19061546131898350000000000000000000000000000000000000000000000000000000000,-2941328599676982000000000000000000000000000000000000000000000000000000000,-519105825014262800000000000000000000000000000000000000000000000000000000,-2106029459581077500000000000000000000000000000000000000000000000000000000,-15023741243790162000000000000000000000000000000000000000000000000000000000,-21732668395929820000000000000000000000000000000000000000000000000000000000,-216920766895349900000000000000000000000000000000000000000000000000000000,-125653874926154790000000000000000000000000000000000000000000000000000000,-703769104642933000000000000000000000000000000000000000000000000000000000,0.0392024512,-2131530573474578300000000000000000,-6865538635003944000000000000000000,-818985244136455600000000000000000,-3109370035625761000000000000000000,-1522881937716806000000000000000000,-422349383825985400000000000000000,-1465726487541649800000000000000000,-2482667424776798700000000000000000,-2204625375834600600000000000000000,-142695248832492070000000000000000,-786739412018930600000000000000000,-62525154726857200000000000000000,-532348864808379750000000000000000,-7695910082917446000000000000000000,-766824857270973700000000000000000,-4155087885030358000000000000000000,-790692949315137700000000000000000,-955783780852069700000000000000000,-2077160004711319700000000000000000,-578338444309094700000000000000000,-766614977166480400000000000000000,-1077357046295028700000000000000000,-629683795305688360000000000000000,-276538515225658860000000000000000,-2031904942470183000000000000000000,-1590550897844548200000000000000000,-940863289267182400000000000000000,-243584904814309700000000000000000,-560366343473590000000000000000000,-1052133128399692100000000000000000,-1482746422896412000000000000000000,-1407543352520371400000000000000000,-963940758866710500000000000000000,-1600907918731098200000000000000000,-517909274351920440000000000000000,-1643740516617550000000000000000000,-1543722910661050800000000000000000,-217682149473336430000000000000000,-804884861696034400000000000000000,-441584471768432000000000000000000,-1145936278707527600000000000000000,-10581175689096496000000000000000000,-305814580193954800000000000000000,-5340352401236099000000000000000000,-1715389092833413000000000000000000,-579343762332384200000000000000000,-368168973615959560000000000000000,-1750693855579308600000000000000000,-1525070650410262700000000000000000,-1590979487869991500000000000000000,-61448092091429130000000000000000,-4490354029759662000000000000000000,-110219310779595380000000000000000,-156807327760441070000000000000000,-1230426484438451300000000000000000,-264049553856387380000000000000000,-366720790359381500000000000000000,-708723930920633300000000000000000,-258004872115467030000000000000000,-4534173433599093000000000000000000,-1323166405701875100000000000000000,-1919395176651044700000000000000000,-1197556163013822500000000000000000,-8054736224080952000000000000000000,-53818898808092520000000000000000,-710851508894464100000000000000000,-919599314547615400000000000000000,-514682421297354100000000000000000,-2522293467696733500000000000000000,-218602133276742300000000000000000,-1477996197473432700000000000000000,-1226120125580065200000000000000000,-1119996794492686200000000000000000,-367065209021793800000000000000000,-1163496223533593200000000000000000,-777542047858841400000000000000000,-1985187811402551000000000000000000,-541374585252389100000000000000000,-1236937908402589800000000000000000,-1807398130466547500000000000000000,-823774513601222000000000000000000,-5776425800561875000000000000000000,-524140328339502800000000000000000,-318105989658907380000000000000000,-1428070742517262800000000000000000,-4127767494120539500000000000000000,-6398686221544533000000000000000000,-89650051178232600000000000000000,-64414479190730870000000000000000,-475723555869621900000000000000000,-0.2287319974,-7313176773415670000000000000000000000000000000000000000000000000000000000,-22285409807307770000000000000000000000000000000000000000000000000000000000,-3721368939952328000000000000000000000000000000000000000000000000000000000,-10271294844866180000000000000000000000000000000000000000000000000000000000,-2996463336342477700000000000000000000000000000000000000000000000000000000,-317026624607775600000000000000000000000000000000000000000000000000000000,-2018071629967202000000000000000000000000000000000000000000000000000000000,-4416910736102773000000000000000000000000000000000000000000000000000000000,-7614289759616553000000000000000000000000000000000000000000000000000000000,-162003191570318600000000000000000000000000000000000000000000000000000000,-1210469533412013800000000000000000000000000000000000000000000000000000000,-146128599353682670000000000000000000000000000000000000000000000000000000,-2090471703867403000000000000000000000000000000000000000000000000000000000,-26228975168672690000000000000000000000000000000000000000000000000000000000,-527813115620030000000000000000000000000000000000000000000000000000000000,-14166179912205892000000000000000000000000000000000000000000000000000000000,-1652093301893821000000000000000000000000000000000000000000000000000000000,-1516607438697569800000000000000000000000000000000000000000000000000000000,-6568019599527865000000000000000000000000000000000000000000000000000000000,-703385044160971700000000000000000000000000000000000000000000000000000000,-1151775777891302200000000000000000000000000000000000000000000000000000000,-2361685773818488700000000000000000000000000000000000000000000000000000000,-3301901583532851000000000000000000000000000000000000000000000000000000000,-628148175020260200000000000000000000000000000000000000000000000000000000,-3393633873198338600000000000000000000000000000000000000000000000000000000,-2640289902021788000000000000000000000000000000000000000000000000000000000,-1224245474826015800000000000000000000000000000000000000000000000000000000,-463582404959152800000000000000000000000000000000000000000000000000000000,-3458807274721430000000000000000000000000000000000000000000000000000000,-1842850213663926000000000000000000000000000000000000000000000000000000000,-5199656602522170000000000000000000000000000000000000000000000000000000000,-5288601859842478000000000000000000000000000000000000000000000000000000000,-737796625712328200000000000000000000000000000000000000000000000000000000,-2324088023975038000000000000000000000000000000000000000000000000000000000,-1081068622229657700000000000000000000000000000000000000000000000000000000,-5785115569806498000000000000000000000000000000000000000000000000000000000,-2768392856468317000000000000000000000000000000000000000000000000000000000,-1082601388485299100000000000000000000000000000000000000000000000000000000,-1512217106933443100000000000000000000000000000000000000000000000000000000,-643191744032978000000000000000000000000000000000000000000000000000000000,-1657567630459800000000000000000000000000000000000000000000000000000000000,-37751197034967450000000000000000000000000000000000000000000000000000000000,-963835416690407000000000000000000000000000000000000000000000000000000000,-19214456216073014000000000000000000000000000000000000000000000000000000000,-4536500281255596000000000000000000000000000000000000000000000000000000000,-1483218378842755600000000000000000000000000000000000000000000000000000000,-370352904302260000000000000000000000000000000000000000000000000000000000,-2857526007405813300000000000000000000000000000000000000000000000000000000,-2323528529910777300000000000000000000000000000000000000000000000000000000,-2267530900169226000000000000000000000000000000000000000000000000000000000,-425317415210264400000000000000000000000000000000000000000000000000000000,-16163930205605554000000000000000000000000000000000000000000000000000000000,-36451995424773945000000000000000000000000000000000000000000000000000000,-403673821678820450000000000000000000000000000000000000000000000000000000,-1878917555601418000000000000000000000000000000000000000000000000000000000,-303361085336056460000000000000000000000000000000000000000000000000000000,-339081525819508540000000000000000000000000000000000000000000000000000000,-1032925519323840000000000000000000000000000000000000000000000000000000000,-72084851164798100000000000000000000000000000000000000000000000000000000,-15767570295284560000000000000000000000000000000000000000000000000000000000,-2012007604361667000000000000000000000000000000000000000000000000000000000,-2947332107625023300000000000000000000000000000000000000000000000000000000,-1801666376225022300000000000000000000000000000000000000000000000000000000,-28778976783345665000000000000000000000000000000000000000000000000000000000,-6911839119030232000000000000000000000000000000000000000000000000000000,-254659807737021400000000000000000000000000000000000000000000000000000000,-1251657353622752700000000000000000000000000000000000000000000000000000000,-433299338582480230000000000000000000000000000000000000000000000000000000,-3451951489895025700000000000000000000000000000000000000000000000000000000,-1636694068741470300000000000000000000000000000000000000000000000000000000,-2229825821637939000000000000000000000000000000000000000000000000000000000,-1401706530922717100000000000000000000000000000000000000000000000000000000,-3782066203532154000000000000000000000000000000000000000000000000000000000,-322774639067934260000000000000000000000000000000000000000000000000000000,-1542185553920870500000000000000000000000000000000000000000000000000000000,-3123523932790131300000000000000000000000000000000000000000000000000000000,-3537724971465462000000000000000000000000000000000000000000000000000000000,-736270449358933800000000000000000000000000000000000000000000000000000000,-1782004742631068400000000000000000000000000000000000000000000000000000000,-2965217972930129600000000000000000000000000000000000000000000000000000000,-859018471802738600000000000000000000000000000000000000000000000000000000,-19654783705608310000000000000000000000000000000000000000000000000000000000,-3032869266414216800000000000000000000000000000000000000000000000000000000,-535261549109215400000000000000000000000000000000000000000000000000000000,-2171573765280050300000000000000000000000000000000000000000000000000000000,-15491313377857353000000000000000000000000000000000000000000000000000000000,-22409037216183654000000000000000000000000000000000000000000000000000000000,-223671822058965600000000000000000000000000000000000000000000000000000000,-129564502079516450000000000000000000000000000000000000000000000000000000,-725671959385221700000000000000000000000000000000000000000000000000000000,-0.4302351669,-2465439433414864200000000000000000,-7941040064360793000000000000000000,-947281048372438400000000000000000,-3596459555545562000000000000000000,-1761444676611815800000000000000000,-488511325392673850000000000000000,-1695335701938891200000000000000000,-2871582629528721000000000000000000,-2549984694157807400000000000000000,-165048767214803430000000000000000,-909983837131282000000000000000000,-72319855023416650000000000000000,-615742462231156050000000000000000,-8901490989880713000000000000000000,-886949624446108200000000000000000,-4805991360639608300000000000000000,-914556704568815200000000000000000,-1105509370803813600000000000000000,-2402551597831182000000000000000000,-668936408514737700000000000000000,-886706866170669000000000000000000,-1246127350391836500000000000000000,-728325119446146800000000000000000,-319858869856133680000000000000000,-2350207232519517800000000000000000,-1839714125238649200000000000000000,-1088251552043416100000000000000000,-281743005325470700000000000000000,-648148939335360200000000000000000,-1216952051375115800000000000000000,-1715021846862182500000000000000000,-1628038053373015500000000000000000,-1114944157011049600000000000000000,-1851693595776941700000000000000000,-599040878797749200000000000000000,-1901236012469966800000000000000000,-1785550432901153700000000000000000,-251782527513672840000000000000000,-930971810622128000000000000000000,-510759631332380600000000000000000,-1325449667419379500000000000000000,-12238739673934923000000000000000000,-353721093521281500000000000000000,-6176930118753427000000000000000000,-1984108492625174300000000000000000,-670099211773844000000000000000000,-425843437109615100000000000000000,-2024943822572689600000000000000000,-1763976255867597000000000000000000,-1840209854815632800000000000000000,-71074068200407840000000000000000,-5193777669778540000000000000000000,-127485403447457710000000000000000,-181371533732608000000000000000000,-1423175446040007000000000000000000,-305413485761993350000000000000000,-424168392823600060000000000000000,-819747062716672900000000000000000,-298421891593971230000000000000000,-5244461477704606000000000000000000,-1530443275917646800000000000000000,-2220072569312401700000000000000000,-1385155917895322400000000000000000,-9316528019690947000000000000000000,-62249745340590450000000000000000,-822207930367164000000000000000000,-1063656529838624900000000000000000,-595308532255059000000000000000000,-2917416177506346500000000000000000,-252846628763481600000000000000000,-1709527488385131000000000000000000,-1418194486781912600000000000000000,-1295446707076532600000000000000000,-424566765412069100000000000000000,-1345760415461926700000000000000000,-899345686045899200000000000000000,-2296171762147389600000000000000000,-626182081242323740000000000000000,-1430706898606802000000000000000000,-2090530944376103300000000000000000,-952820567224584700000000000000000,-6681315356263062000000000000000000,-606248040826825360000000000000000,-367937978779324940000000000000000,-1651781103270227600000000000000000,-4774391171590704300000000000000000,-7401054213793573000000000000000000,-103693924987071070000000000000000,-74505146234481760000000000000000,-550246676562351250000000000000000,-0.658321069,-2084893613948813700000000000000000,-6715323643284946000000000000000000,-801066204100952100000000000000000,-3041338375040320500000000000000000,-1489561944949331400000000000000000,-413108563466972200000000000000000,-1433657031102233200000000000000000,-2428347744052479000000000000000000,-2156389133905085800000000000000000,-139573139008157010000000000000000,-769525896729847000000000000000000,-61157131604812930000000000000000,-520701303769091400000000000000000,-7527526925989082000000000000000000,-750047063756337400000000000000000,-4064176373869489000000000000000000,-773392932353893800000000000000000,-934871648482171900000000000000000,-2031712649522622000000000000000000,-565684651323395060000000000000000,-749841775737010900000000000000000,-1053784943887434200000000000000000,-615906588428551900000000000000000,-270487973092984350000000000000000,-1987447748310533000000000000000000,-1555750337735510300000000000000000,-920277610747307500000000000000000,-238255373308509460000000000000000,-548105772217711400000000000000000,-1029112914317136600000000000000000,-1450304577692721000000000000000000,-1376746917705340200000000000000000,-942850155374583900000000000000000,-1565880751521086400000000000000000,-506577645255652300000000000000000,-1607776190842297000000000000000000,-1509946926492948200000000000000000,-212919358959889040000000000000000,-787274331880067300000000000000000,-431922796072408700000000000000000,-1120863692597689000000000000000000,-10349664178781619000000000000000000,-299123490525163340000000000000000,-5223507819277415000000000000000000,-1677857127451837400000000000000000,-566667973426688340000000000000000,-360113597007787360000000000000000,-1712389437382963000000000000000000,-1491702769563410800000000000000000,-1556169550398078000000000000000000,-60103634629987390000000000000000,-4392107041539874600000000000000000,-107807760319216250000000000000000,-153376451802521120000000000000000,-1203505289467907600000000000000000,-258272264752847460000000000000000,-358697099369405100000000000000000,-693217360340505800000000000000000,-252359838012727070000000000000000,-4434967695930093000000000000000000,-1294216101691930900000000000000000,-1877399647109325000000000000000000,-1171354156343435200000000000000000,-7878502107644676000000000000000000,-52641364769094280000000000000000,-695298387835966400000000000000000,-899478882522766600000000000000000,-503421394338899500000000000000000,-2467106786431669000000000000000000,-213819213918827900000000000000000,-1445658285130731000000000000000000,-1199293151863621600000000000000000,-1095491752986952100000000000000000,-359033982301663560000000000000000,-1138039433487712000000000000000000,-760529766887208900000000000000000,-1941752767700354400000000000000000,-529529545385318200000000000000000,-1209874246314917100000000000000000,-1767853047460715000000000000000000,-805750686438118300000000000000000,-5650040122769193000000000000000000,-512672366498950500000000000000000,-311145969310505760000000000000000,-1396825177359760300000000000000000,-4037453741200135000000000000000000,-6258685757068051000000000000000000,-87688547149333550000000000000000,-63005118473011100000000000000000,-465314931899302300000000000000000,0.6919617947,-5653227272202680700000000000000000000000000000000000000000,-17227053331696502000000000000000000000000000000000000000000,-2876690254624396000000000000000000000000000000000000000000,-7939909812444063000000000000000000000000000000000000000000,-2316324181286031500000000000000000000000000000000000000000,-245067733085660900000000000000000000000000000000000000000,-1560008439717990600000000000000000000000000000000000000000,-3414357514366609000000000000000000000000000000000000000000,-5885993431956796500000000000000000000000000000000000000000,-125231605498450500000000000000000000000000000000000000000,-935716499920599300000000000000000000000000000000000000000,-112960237152157280000000000000000000000000000000000000000,-1615975107927912000000000000000000000000000000000000000000,-20275505698171710000000000000000000000000000000000000000000,-408009752968619200000000000000000000000000000000000000000,-10950731384182924000000000000000000000000000000000000000000,-1277100111675665400000000000000000000000000000000000000000,-1172366909868124800000000000000000000000000000000000000000,-5077206341000998000000000000000000000000000000000000000000,-543730255079176950000000000000000000000000000000000000000,-890344990806269200000000000000000000000000000000000000000,-1825628857606580500000000000000000000000000000000000000000,-2552433868423512000000000000000000000000000000000000000000,-485570703758927700000000000000000000000000000000000000000,-2623344725534577700000000000000000000000000000000000000000,-2040995211628967400000000000000000000000000000000000000000,-946365449407706500000000000000000000000000000000000000000,-358358174351114600000000000000000000000000000000000000000,-2673720097540799400000000000000000000000000000000000000,-1424558892183151600000000000000000000000000000000000000000,-4019435316335680000000000000000000000000000000000000000000,-4088191650211520500000000000000000000000000000000000000000,-570331075678963000000000000000000000000000000000000000000,-1796565035731586300000000000000000000000000000000000000000,-835686975807276300000000000000000000000000000000000000000,-4472006358662836000000000000000000000000000000000000000000,-2140021286654249600000000000000000000000000000000000000000,-836871839911096600000000000000000000000000000000000000000,-1168973101194940300000000000000000000000000000000000000000,-497199669103241700000000000000000000000000000000000000000,-1281331869321972000000000000000000000000000000000000000000,-29182406329636380000000000000000000000000000000000000000000,-745063441634111600000000000000000000000000000000000000000,-14853146769574780000000000000000000000000000000000000000000,-3506802560711873000000000000000000000000000000000000000000,-1146556528975680400000000000000000000000000000000000000000,-286289991502566700000000000000000000000000000000000000000,-2208922985587725700000000000000000000000000000000000000000,-1796132563283413000000000000000000000000000000000000000000,-1752845281297553000000000000000000000000000000000000000000,-328778598970711270000000000000000000000000000000000000000,-12495031052701324000000000000000000000000000000000000000000,-28178106012841085000000000000000000000000000000000000000,-312047681653368330000000000000000000000000000000000000000,-1452439765165754000000000000000000000000000000000000000000,-234504056936343870000000000000000000000000000000000000000,-262116586907095400000000000000000000000000000000000000000,-798471426893502700000000000000000000000000000000000000000,-55722985291787150000000000000000000000000000000000000000,-12188637163506998000000000000000000000000000000000000000000,-1555320937664072600000000000000000000000000000000000000000,-2278344877236421000000000000000000000000000000000000000000,-1392723117884930000000000000000000000000000000000000000000,-22246706335494865000000000000000000000000000000000000000000,-5342984862414809500000000000000000000000000000000000000,-196857053797917200000000000000000000000000000000000000000,-967555449653477200000000000000000000000000000000000000000,-334948809421253930000000000000000000000000000000000000000,-2668425379569790600000000000000000000000000000000000000000,-1265196236802256100000000000000000000000000000000000000000,-1723698658460976200000000000000000000000000000000000000000,-1083546288850886000000000000000000000000000000000000000000,-2923610411014127800000000000000000000000000000000000000000,-249511044118022900000000000000000000000000000000000000000,-1192139287805569600000000000000000000000000000000000000000,-2414544534589320000000000000000000000000000000000000000000,-2734729969172413200000000000000000000000000000000000000000,-569151315299576600000000000000000000000000000000000000000,-1377524163598828000000000000000000000000000000000000000000,-2292170923035275500000000000000000000000000000000000000000,-664037904973278800000000000000000000000000000000000000000,-15193528416119718000000000000000000000000000000000000000000,-2344466685792595000000000000000000000000000000000000000000,-413767543844362200000000000000000000000000000000000000000,-1678668561560829500000000000000000000000000000000000000000,-11975085221301643000000000000000000000000000000000000000000,-17322619696336100000000000000000000000000000000000000000000,-172902653972561770000000000000000000000000000000000000000,-100155874705754150000000000000000000000000000000000000000,-560958476182071300000000000000000000000000000000000000000,-0.0871302411,-8.9106522461,-31.0525106194,-4.7128372456,-13.6734581201,-7.6113808873,-3.5511527988,-5.7828973941,-11.2323034571,-9.1743231451,0.4190817113,-4.3770168996,0.2797648869,-2.1034239985,-32.2186052845,-5.3572037135,-16.8083465134,-3.851778494,-4.6249314121,-9.7532066053,-2.4733847884,-3.3863924207,-4.8422714398,-2.3212825452,-1.1921986677,-10.7372933498,-8.3004639552,-5.9781920819,-1.3749325316,-2.3377176034,-5.1627269976,-7.2135084499,-4.7764793817,-3.7604678901,-7.9294131013,-2.0095852445,-5.2585912481,-7.3258538699,-1.747374119,-4.1387493886,-1.6132314205,-3.8969997216,-45.3870212995,0.608727889,-23.2180150646,-8.1964068133,31.9347506905,-2.2340349599,-8.4003147809,-5.6615970188,-6.8836756969,-0.961597953,-17.7856557723,-1.9514233072,0.3792078091,-6.212131521,-1.9100110293,-1.4397056213,-4.4247203238,-0.5540921321,-20.4942643339,-5.7386871564,-8.9368021663,-5.7432174747,-34.3176910777,-0.7108907653,-4.7750758736,-4.6207420196,-1.4250289349,-11.2419349802,-1.6858575745,-4.6455437243,-5.0115020536,-5.4473825364,-2.3327311547,-6.4336997009,-3.6476325952,-9.6104277728,-2.1542890345,-6.1228405716,-8.3394122247,-4.9854643249,-25.1815455301,-4.0308946931,-2.4343301805,-8.7408123334,-19.2423648414,-27.4740448571,1.0113005287,-1.0814490416,-3.1936492469,-0.0089388093,-6.3822887186,-29.6028611278,-3.1706041082,-13.6738636827,-6.9760177232,-0.2933778555,-7.1873346511,-10.8435503023,-9.3334125622,-2.2876945828,0.0681159081,-0.6625484098,-3.0692180749,-33.0642999858,-3.6946661628,-18.5903212113,-3.1173322386,-3.8671741064,-9.311973057,-3.4195446182,-3.9202742271,-4.7499468815,-3.6439046151,-1.9685371715,-9.4997118221,-7.765361512,-5.5283045874,-1.152751393,-1.7065136902,-5.7214657121,-6.5105081627,-6.4462573301,-3.4248776868,-7.8173326855,-1.8107815614,-7.2309296589,-8.058723654,-1.0712137546,-3.2332435855,-1.6707918874,-5.8009661664,-44.7218844377,0.9528027819,-22.850780462,-6.985582928,62.9878784162,-2.8391277866,-9.0776934307,-5.3387311402,-6.0618332553,2.7996898826,-18.8056280068,-1.4542360673,9.5306179941,-6.9641726944,-2.5608791184,-2.8433982939,-1.7666652274,-0.9223947841,-15.3202550359,-4.880923893,-6.8758330195,-4.90174527,-34.3829820298,0.1638465671,-1.5612671151,-2.4574947025,-1.7517992755,-9.9654118152,1.099810056,-5.8211899945,-5.4331162647,-6.1624212596,-3.3315591965,-4.7658361801,-2.7944575872,-8.7142336177,-2.5786420873,-6.7113395181,-8.4707654723,-4.9574957021,-25.1633903747,-1.8560923418,-2.3125655036,-6.2915766102,-16.3347826336,-26.9621512063,2.3270851659,-0.8341783567,1.1286935964,-0.0610048384,-9.8248074714,-29.7795166612,-3.4709139667,-14.5539321366,-7.7275577019,-3.2046854945,-6.772534868,-12.474706361,-10.4899849146,-1.3608734009,-4.6879511946,0.7143398614,-1.7570632227,-32.9441486819,-4.3969813852,-18.5525074426,-4.7137042867,-4.0391191725,-9.5814474579,-3.0507312716,-4.748867031,-5.8188005784,-2.6585719992,-0.5323533638,-10.1932376021,-6.9073283784,-5.4201401749,-1.670056472,-2.619363541,-5.3187095415,-6.5376721678,-6.2603632907,-3.5446046751,-6.9928963831,-0.2061558131,-8.4113702181,-8.0237366513,-2.061723816,-3.6917306612,-1.9961758839,-5.5898287974,-45.8168699137,-0.5221532078,-22.986653508,-5.8799764398,43.4819236342,-1.3480003508,-8.739205822,-6.3618148293,-8.7125017037,3.7729395198,-19.0117950973,-1.5758144674,21.3700439003,-7.4429638164,-2.5084282547,-1.9374295968,-2.061635745,-1.2119513501,-19.4842644396,-6.1403391402,-8.5179396066,-5.3837948927,-34.5630483522,1.8375939797,-1.8063633101,-5.2539528927,-3.7906933825,-13.1028226797,-1.809967241,-8.8051649701,-8.1101291647,-3.58755195,-3.0536515104,-5.3689871674,-3.6125755069,-9.8440536131,-4.0061160542,-6.9873648218,-7.6292994337,-4.9290228874,-24.3504373279,-1.5436398732,-2.4579543581,-5.8258856667,-18.8352225139,-28.418143037,-0.7275206048,-0.6269883194,-0.6489792367,-0.4783609908,-7.6579771769,-29.6430451538,-2.7695612079,-14.6538953228,-7.1289916878,-1.2242619083,-8.2923017124,-12.0758983977,-10.4914400027,-0.4713287776,-3.0112753573,1.239972118,-3.3881219106,-33.4333341229,-4.100264424,-18.2618006263,-3.9142449126,-5.3063601944,-9.7360217738,-0.9887809016,-3.0429695841,-5.8570220974,-1.99017474,-1.7623210819,-6.8096350137,-7.3800321911,-5.4234097626,-1.5753827572,-1.1783076594,-4.5716465245,-5.7441650054,-6.2502439115,-3.533626021,-8.2716819153,-1.6846755835,-6.1288704261,-7.8141845199,-0.7318151283,-4.6436844411,-1.7243566502,-6.2265682875,-45.5656016962,-3.5604914337,-24.0258369244,-7.9844139796,56.9362411869,-1.1979053338,-8.0899921724,-6.6193486688,-8.5142468823,1.3980274697,-19.8006938368,0.8975922084,13.8831897128,-3.2747381882,-2.3832101227,-2.1443008062,-1.7394586524,2.9648405952,-18.1032010176,-6.790982755,-9.4351647198,-5.9004206555,-35.5585438612,-0.9179386224,-4.7381796211,-5.8227015421,0.2593512783,-12.498297818,-3.4535512136,-6.7242841031,-2.6251484704,-2.6050979341,-3.3945273954,-2.7191666889,-3.7852465973,-10.0151775132,-3.3653636631,-5.8541842298,-9.3429850823,-4.4884315332,-24.0277852746,-3.2069182594,-1.4576666222,-7.5044591349,-18.3580580393,-28.3466704964,2.9928308562,0.3435181567,-0.4885035915,0.0273255783,-8.6173044109,-30.8189162726,-2.8246814774,-14.6210664726,-7.4036294103,-0.9056665094,-5.9391383425,-12.4019515894,-7.6703686222,-0.730687971,-3.8621880294,-0.350191571,-3.3209925657,-33.7992003504,-5.2169737488,-16.922775198,-3.7484266695,-4.5020977688,-8.2810644424,-2.0672295132,-3.3792011258,-3.9470852291,-3.0137035887,-1.6567175367,-10.7601790452,-6.9052141784,-4.1330477723,0.0614084629,-2.2508432083,-3.7807136757,-6.9363639257,-6.689173575,-3.1308122545,-7.4539788262,-2.9770449444,-6.7735553203,-7.5434456797,-2.4046936677,-3.5812215237,-1.0463951506,-4.0159758605,-45.8106387289,-0.7795840716,-23.8164843809,-6.6028390274,17.8162191213,-1.0989120495,-7.8417078726,-6.8081823099,-8.1122325422,-0.3344369929,-18.2681363224,-2.2268347297,-0.3503215455,-4.8109645102,-2.4699617231,-1.8635481255,-3.0290713482,-0.3484648761,-20.7929961341,-7.1118513087,-11.2012766286,-5.4963121585,-34.1641250946,-0.4176603815,-3.1183821121,-5.8548187393,-3.7969932582,-9.0393980739,-1.2253204146,-6.6744451716,-3.6195576526,-3.2630932762,-2.9251453746,-4.726615334,-2.341551748,-9.1633140762,-2.7207687009,-5.4458365258,-8.3198051551,-4.4529315927,-25.6907915102,-2.5585092636,-1.3374195189,-8.1344863827,-19.4048773799,-27.6114102994,-0.4911044269,1.5752450541,-4.1426303936,-0.5196900107,-1894167193102303400000000000000000000000000000000000000000000000000000000,-5772086939740223000000000000000000000000000000000000000000000000000000000,-963862241797774000000000000000000000000000000000000000000000000000000000,-2660341781501946500000000000000000000000000000000000000000000000000000000,-776106297288778700000000000000000000000000000000000000000000000000000000,-82112254397421680000000000000000000000000000000000000000000000000000000,-522695566270179300000000000000000000000000000000000000000000000000000000,-1144012741713006000000000000000000000000000000000000000000000000000000000,-1972157696757618700000000000000000000000000000000000000000000000000000000,-41960031892821574000000000000000000000000000000000000000000000000000000,-313520614840546670000000000000000000000000000000000000000000000000000000,-37848394404455550000000000000000000000000000000000000000000000000000000,-541447724054538000000000000000000000000000000000000000000000000000000000,-6793499707787180000000000000000000000000000000000000000000000000000000000,-136707523785133400000000000000000000000000000000000000000000000000000000,-3669145991223344000000000000000000000000000000000000000000000000000000000,-427904456482840650000000000000000000000000000000000000000000000000000000,-392812609923316130000000000000000000000000000000000000000000000000000000,-1701165941223124100000000000000000000000000000000000000000000000000000000,-182181959502432360000000000000000000000000000000000000000000000000000000,-298318495489168730000000000000000000000000000000000000000000000000000000,-611694185958279000000000000000000000000000000000000000000000000000000000,-855217075719540900000000000000000000000000000000000000000000000000000000,-162695050645521770000000000000000000000000000000000000000000000000000000,-878976421215473800000000000000000000000000000000000000000000000000000000,-683854727930113600000000000000000000000000000000000000000000000000000000,-317088686157438600000000000000000000000000000000000000000000000000000000,-120071291858435030000000000000000000000000000000000000000000000000000000,-895856817088969600000000000000000000000000000000000000000000000000000,-477311915830185900000000000000000000000000000000000000000000000000000000,-1346749744611363700000000000000000000000000000000000000000000000000000000,-1369787227994908200000000000000000000000000000000000000000000000000000000,-191094815140534400000000000000000000000000000000000000000000000000000000,-601956089027987500000000000000000000000000000000000000000000000000000000,-280004816123621800000000000000000000000000000000000000000000000000000000,-1498387972852876500000000000000000000000000000000000000000000000000000000,-717034346195939400000000000000000000000000000000000000000000000000000000,-280401813987350560000000000000000000000000000000000000000000000000000000,-391675481333084400000000000000000000000000000000000000000000000000000000,-166591446941397270000000000000000000000000000000000000000000000000000000,-429322348309506100000000000000000000000000000000000000000000000000000000,-9777840894522690000000000000000000000000000000000000000000000000000000000,-249640543693899260000000000000000000000000000000000000000000000000000000,-4976687112239472000000000000000000000000000000000000000000000000000000000,-1174987323633456000000000000000000000000000000000000000000000000000000000,-384164595012017400000000000000000000000000000000000000000000000000000000,-95924157576721870000000000000000000000000000000000000000000000000000000,-740120495424146900000000000000000000000000000000000000000000000000000000,-601811175902796800000000000000000000000000000000000000000000000000000000,-587307373186923100000000000000000000000000000000000000000000000000000000,-110160374828473320000000000000000000000000000000000000000000000000000000,-4186578180135442000000000000000000000000000000000000000000000000000000000,-9441338011644169000000000000000000000000000000000000000000000000000000,-104554523079190750000000000000000000000000000000000000000000000000000000,-486653625726869900000000000000000000000000000000000000000000000000000000,-78572778056762090000000000000000000000000000000000000000000000000000000,-87824637895964680000000000000000000000000000000000000000000000000000000,-267535394294538480000000000000000000000000000000000000000000000000000000,-18670512750678654000000000000000000000000000000000000000000000000000000,-4083918014512025000000000000000000000000000000000000000000000000000000000,-521124938523031400000000000000000000000000000000000000000000000000000000,-763380943522985400000000000000000000000000000000000000000000000000000000,-466644995532769700000000000000000000000000000000000000000000000000000000,-7453969097564723000000000000000000000000000000000000000000000000000000000,-1790217754732812000000000000000000000000000000000000000000000000000000,-65958784829415470000000000000000000000000000000000000000000000000000000,-324188566705479600000000000000000000000000000000000000000000000000000000,-112227752366028100000000000000000000000000000000000000000000000000000000,-894081117813077200000000000000000000000000000000000000000000000000000000,-423915940528731870000000000000000000000000000000000000000000000000000000,-577541477327975500000000000000000000000000000000000000000000000000000000,-363052419966459760000000000000000000000000000000000000000000000000000000,-979583284642211800000000000000000000000000000000000000000000000000000000,-83601032906849950000000000000000000000000000000000000000000000000000000,-399437532062946340000000000000000000000000000000000000000000000000000000,-809015937077873900000000000000000000000000000000000000000000000000000000,-916297087679905400000000000000000000000000000000000000000000000000000000,-190699524110513450000000000000000000000000000000000000000000000000000000,-461552486152756600000000000000000000000000000000000000000000000000000000,-768013515704793700000000000000000000000000000000000000000000000000000000,-222492175147804000000000000000000000000000000000000000000000000000000000,-5090735207990514000000000000000000000000000000000000000000000000000000000,-785535704031251700000000000000000000000000000000000000000000000000000000,-138636723473906120000000000000000000000000000000000000000000000000000000,-562453761345908400000000000000000000000000000000000000000000000000000000,-4012365417594249000000000000000000000000000000000000000000000000000000000,-5804107358405885000000000000000000000000000000000000000000000000000000000,-57932665993470500000000000000000000000000000000000000000000000000000000,-33558169976388760000000000000000000000000000000000000000000000000000000,-187954436356361560000000000000000000000000000000000000000000000000000000,-0.4161254304,-9.0472532828,-29.6167445587,-3.0345029278,-12.6610657483,-7.1351807088,-0.0055582575,-6.993948382,-11.1123264783,-8.3551174446,-0.7068175112,-2.2170643749,-0.0033233523,-1.7399169049,-34.134123979,-2.7426090091,-18.0149356702,-3.7093053368,-4.4724236755,-8.6273056996,-3.5559929024,-3.1370922999,-4.2223527491,-3.2195809457,-0.7461514961,-6.9661350301,-8.0665425558,-2.804863511,-0.9257137145,-1.3159563798,-5.6188273066,-6.3382069718,-4.8320596123,-0.9214148974,-8.0819294432,-2.2700893275,-6.8651561573,-8.1571246926,-1.3201346082,-3.2918951257,-0.3720528945,-5.2547025427,-46.3970762371,-2.3258578825,-23.5327524087,-7.8258852714,70.9131282218,-1.3439820784,-7.7968396458,-8.8388453567,-6.7169345963,2.616630229,-18.8945237155,1.4476493313,13.7533409789,-6.3033272463,-1.5341407583,-2.9048519476,-3.3664674945,-2.1225775764,-18.0735487419,-4.948981989,-8.6741351517,-6.5981888198,-33.9960640784,-1.5346262442,-3.5374437526,-3.557243847,-0.6513416627,-11.4758904661,0.6043218029,-7.2902413447,-4.5542077401,-3.945480067,-3.0396665288,-2.1108840109,-3.7878530867,-9.4681035427,-1.125943631,-7.2897373462,-9.1457227378,-4.645150643,-25.0230010232,-2.4574383917,-0.7561130392,-7.0459787664,-17.5865225484,-26.989257454,0.3119778678,0.3220544848,-0.4422769314,0.996374702,-13520479071569385000000000000000000000000000000000000000000000000000000000,-41200893433391394000000000000000000000000000000000000000000000000000000000,-6880004740636652400000000000000000000000000000000000000000000000000000000,-18989398354590800000000000000000000000000000000000000000000000000000000000,-5539811368298345000000000000000000000000000000000000000000000000000000000,-586113528490263900000000000000000000000000000000000000000000000000000000,-3730977122976865000000000000000000000000000000000000000000000000000000000,-8165910796188197000000000000000000000000000000000000000000000000000000000,-14077171731167923000000000000000000000000000000000000000000000000000000000,-299508794743783700000000000000000000000000000000000000000000000000000000,-2237895855705632000000000000000000000000000000000000000000000000000000000,-270160113796406100000000000000000000000000000000000000000000000000000000,-3864829170353320000000000000000000000000000000000000000000000000000000000,-48491691206736926000000000000000000000000000000000000000000000000000000000,-975812072447333000000000000000000000000000000000000000000000000000000000,-26190196813416893000000000000000000000000000000000000000000000000000000000,-3054362502727092500000000000000000000000000000000000000000000000000000000,-2803878501779978000000000000000000000000000000000000000000000000000000000,-12142844934349668000000000000000000000000000000000000000000000000000000000,-1300406521472830300000000000000000000000000000000000000000000000000000000,-2129383820821650000000000000000000000000000000000000000000000000000000000,-4366245212970897000000000000000000000000000000000000000000000000000000000,-6104500498172264600000000000000000000000000000000000000000000000000000000,-1161309854436800500000000000000000000000000000000000000000000000000000000,-6274093623162491000000000000000000000000000000000000000000000000000000000,-4881323871853946000000000000000000000000000000000000000000000000000000000,-2263364586101463600000000000000000000000000000000000000000000000000000000,-857063407380291600000000000000000000000000000000000000000000000000000000,-6394585119350476000000000000000000000000000000000000000000000000000000,-3407030695122004300000000000000000000000000000000000000000000000000000000,-9613038280341429000000000000000000000000000000000000000000000000000000000,-9777478786481839000000000000000000000000000000000000000000000000000000000,-1364026078691236600000000000000000000000000000000000000000000000000000000,-4296735121030489600000000000000000000000000000000000000000000000000000000,-1998661612408929000000000000000000000000000000000000000000000000000000000,-10695425040525437000000000000000000000000000000000000000000000000000000000,-5118158474416350000000000000000000000000000000000000000000000000000000000,-2001495365061585000000000000000000000000000000000000000000000000000000000,-2795761729743263500000000000000000000000000000000000000000000000000000000,-1189122153564802200000000000000000000000000000000000000000000000000000000,-3064483349945803700000000000000000000000000000000000000000000000000000000,-69793782545143820000000000000000000000000000000000000000000000000000000000,-1781922820076107500000000000000000000000000000000000000000000000000000000,-35523365726009240000000000000000000000000000000000000000000000000000000000,-8387005949842207000000000000000000000000000000000000000000000000000000000,-2742149365595638000000000000000000000000000000000000000000000000000000000,-684702263716087300000000000000000000000000000000000000000000000000000000,-5282946355137902000000000000000000000000000000000000000000000000000000000,-4295700737749369000000000000000000000000000000000000000000000000000000000,-4192173255174295000000000000000000000000000000000000000000000000000000000,-786319733447186900000000000000000000000000000000000000000000000000000000,-29883604188761570000000000000000000000000000000000000000000000000000000000,-67391840307917820000000000000000000000000000000000000000000000000000000,-746305419224789100000000000000000000000000000000000000000000000000000000,-3473711394487227500000000000000000000000000000000000000000000000000000000,-560848907731116400000000000000000000000000000000000000000000000000000000,-626888261482192900000000000000000000000000000000000000000000000000000000,-1909655447858834300000000000000000000000000000000000000000000000000000000,-133269268848214120000000000000000000000000000000000000000000000000000000,-29150820606695816000000000000000000000000000000000000000000000000000000000,-3719766053720723500000000000000000000000000000000000000000000000000000000,-5448978373251704000000000000000000000000000000000000000000000000000000000,-3330890704331156700000000000000000000000000000000000000000000000000000000,-53206091600965616000000000000000000000000000000000000000000000000000000000,-12778492719417220000000000000000000000000000000000000000000000000000000,-470810799131029300000000000000000000000000000000000000000000000000000000,-2314043209778508800000000000000000000000000000000000000000000000000000000,-801076580060986100000000000000000000000000000000000000000000000000000000,-6381910258870992000000000000000000000000000000000000000000000000000000000,-3025892657678142300000000000000000000000000000000000000000000000000000000,-4122464735748468500000000000000000000000000000000000000000000000000000000,-2591451622599190000000000000000000000000000000000000000000000000000000000,-6992220827757113600000000000000000000000000000000000000000000000000000000,-596740361618952600000000000000000000000000000000000000000000000000000000,-2851166893990609000000000000000000000000000000000000000000000000000000000,-5774718876802224000000000000000000000000000000000000000000000000000000000,-6540486838981082000000000000000000000000000000000000000000000000000000000,-1361204509339794600000000000000000000000000000000000000000000000000000000,-3294540604537806000000000000000000000000000000000000000000000000000000000,-5482045462292105000000000000000000000000000000000000000000000000000000000,-1588139003055415000000000000000000000000000000000000000000000000000000000,-36337435834165480000000000000000000000000000000000000000000000000000000000,-5607118043750975000000000000000000000000000000000000000000000000000000000,-989582611875918400000000000000000000000000000000000000000000000000000000,-4014769306899304500000000000000000000000000000000000000000000000000000000,-28640081431891695000000000000000000000000000000000000000000000000000000000,-41429453722054794000000000000000000000000000000000000000000000000000000000,-413520728781126950000000000000000000000000000000000000000000000000000000,-239536687415014640000000000000000000000000000000000000000000000000000000,-1341610198095918300000000000000000000000000000000000000000000000000000000,0.308263367,-2317785146629962500000000000000000,-7465454012178093000000000000000000,-890548724841559100000000000000000,-3381068877750969000000000000000000,-1655952384280026500000000000000000,-459254556656196500000000000000000,-1593802652480039000000000000000000,-2699604571840410500000000000000000,-2397267021914393300000000000000000,-155164055516935430000000000000000,-855485230255640400000000000000000,-67988644743958115000000000000000,-578865866168118700000000000000000,-8368383874930277000000000000000000,-833830528338209300000000000000000,-4518162255194234400000000000000000,-859784230296189200000000000000000,-1039300809576277500000000000000000,-2258663641050076800000000000000000,-628874046014561800000000000000000,-833602308769179400000000000000000,-1171497228608480900000000000000000,-684705988267410400000000000000000,-300702636423526470000000000000000,-2209454161074693000000000000000000,-1729534303593667400000000000000000,-1023076555415347400000000000000000,-264869517401101930000000000000000,-609331530937106900000000000000000,-1144069227825768300000000000000000,-1612309801217572400000000000000000,-1530535436041838400000000000000000,-1048170549808514300000000000000000,-1740796327921592000000000000000000,-563164534599197940000000000000000,-1787371666979965600000000000000000,-1678614455437999400000000000000000,-236703361900811080000000000000000,-875216241512952700000000000000000,-480170419502322500000000000000000,-1246068960410499100000000000000000,-11505765927669475000000000000000000,-332536863612069300000000000000000,-5806995980910389000000000000000000,-1865280943908393400000000000000000,-629967209401944340000000000000000,-400339825811668600000000000000000,-1903670660535504400000000000000000,-1658332348158691200000000000000000,-1730000344103402000000000000000000,-66817467650083810000000000000000,-4882724180831884000000000000000000,-119850348184499100000000000000000,-170509257379993650000000000000000,-1337941977066174600000000000000000,-287122381221569660000000000000000,-398765099329460200000000000000000,-770652704019805500000000000000000,-280549511130220400000000000000000,-4930372553610177600000000000000000,-1438785574938435700000000000000000,-2087113216350950700000000000000000,-1302199424878025500000000000000000,-8758564485314676000000000000000000,-58521630333484490000000000000000,-772966191185967200000000000000000,-999954520302798900000000000000000,-559655716957407900000000000000000,-2742693165005602300000000000000000,-237703734506923030000000000000000,-1607144497906627700000000000000000,-1333259325678382000000000000000000,-1217862866642726400000000000000000,-399139613525933600000000000000000,-1265163305009640000000000000000000,-845484194237827900000000000000000,-2158654855716721000000000000000000,-588680260126685300000000000000000,-1345022373629687000000000000000000,-1965329793047882700000000000000000,-895756483888876700000000000000000,-6281173766758493000000000000000000,-569940062269371350000000000000000,-345902304691598860000000000000000,-1552856523163910200000000000000000,-4488454590176957600000000000000000,-6957807721268598000000000000000000,-97483732866580550000000000000000,-70043059646554790000000000000000,-517292599701862500000000000000000,0.3165991669,-2200375203206426800000000000000000,-7087283268235259000000000000000000,-845437004477153000000000000000000,-3209797133161116000000000000000000,-1572068303810773400000000000000000,-435990514433641360000000000000000,-1513066834698132000000000000000000,-2562853147530665000000000000000000,-2275830837105249500000000000000000,-147304050457312000000000000000000,-812149689586562400000000000000000,-64544605529692270000000000000000,-549542782147394500000000000000000,-7944474230530999000000000000000000,-791591930295858300000000000000000,-4289289801018765400000000000000000,-816230919074791800000000000000000,-986653889550154400000000000000000,-2144248562200326400000000000000000,-597017742909653500000000000000000,-791375271438905400000000000000000,-1112153754287005500000000000000000,-650021457019497400000000000000000,-285470215255783550000000000000000,-2097531842292980000000000000000000,-1641922850466010000000000000000000,-971251492741222400000000000000000,-251452262096867350000000000000000,-578465175322752150000000000000000,-1086115148903952000000000000000000,-1530636483560244000000000000000000,-1453004488354710500000000000000000,-995074323382959800000000000000000,-1652614384625292000000000000000000,-534636818714243300000000000000000,-1696830398906832700000000000000000,-1593582402950554600000000000000000,-224712894031366320000000000000000,-830881204872995200000000000000000,-455846861354839740000000000000000,-1182947973395672500000000000000000,-10922928761517077000000000000000000,-315691844823452200000000000000000,-5512836243727410000000000000000000,-1770793096140591700000000000000000,-598055530909181140000000000000000,-380060173762352040000000000000000,-1807238139654330800000000000000000,-1574327708014287000000000000000000,-1642365283183639000000000000000000,-63432755694392650000000000000000,-4635384443299416000000000000000000,-113779197620717250000000000000000,-161871924324644930000000000000000,-1270167061837417500000000000000000,-272577882744707660000000000000000,-378565216773639600000000000000000,-731614447816578000000000000000000,-266337968581850900000000000000000,-4680619135603367600000000000000000,-1365902316885940500000000000000000,-1981388212026656300000000000000000,-1236235087750684900000000000000000,-8314889815042833000000000000000000,-55557153096882020000000000000000,-733810742758227800000000000000000,-949300729624424200000000000000000,-531305744070504700000000000000000,-2603759040848496000000000000000000,-225662591668176000000000000000000,-1525732834341957000000000000000000,-1265721615280840300000000000000000,-1156170690179313000000000000000000,-378920759543578700000000000000000,-1201075073070333500000000000000000,-802655266994385000000000000000000,-2049305831347884700000000000000000,-558860017238101600000000000000000,-1276888793163504900000000000000000,-1865773861323240000000000000000000,-850380958790024400000000000000000,-5962994034844740000000000000000000,-541069124614421960000000000000000,-328380244856599100000000000000000,-1474194876378132000000000000000000,-4261087010288037000000000000000000,-6605352355811772000000000000000000,-92545587680573200000000000000000,-66494951797836005000000000000000,-491088576886047760000000000000000,-0.0257061554,-2241446507111053300000000000000000,-7219571600035957000000000000000000,-861217585940031200000000000000000,-3269709894101217000000000000000000,-1601411888018838000000000000000000,-444128535118362360000000000000000,-1541309121606894300000000000000000,-2610690316542448500000000000000000,-2318310565021673400000000000000000,-150053567636886040000000000000000,-827308943639436100000000000000000,-65749368747515770000000000000000,-559800323034639800000000000000000,-8092762538365530000000000000000000,-806367461619001600000000000000000,-4369351930739149700000000000000000,-831466351688654300000000000000000,-1005070367652313800000000000000000,-2184272229171685400000000000000000,-608161432004024600000000000000000,-806146758696397000000000000000000,-1132912761552867500000000000000000,-662154491770513300000000000000000,-290798685577304020000000000000000,-2136683514070998200000000000000000,-1672570311081431600000000000000000,-989380476001924500000000000000000,-256145767213196400000000000000000,-589262569775900400000000000000000,-1106388130207794000000000000000000,-1559206718351198800000000000000000,-1480125676063530400000000000000000,-1013647973860299000000000000000000,-1683461409046024700000000000000000,-544616130982448640000000000000000,-1728502741372134400000000000000000,-1623327560536974700000000000000000,-228907293035956520000000000000000,-846390093731699600000000000000000,-464355512492788200000000000000000,-1205028396610714000000000000000000,-11126811683865517000000000000000000,-321584419726166200000000000000000,-5615736591092068000000000000000000,-1803845996072296400000000000000000,-609218590930043400000000000000000,-387154221575601850000000000000000,-1840971307867456000000000000000000,-1603713465337442500000000000000000,-1673021002067277700000000000000000,-64616765577273490000000000000000,-4721906634109446000000000000000000,-115902953604115320000000000000000,-164893359481649230000000000000000,-1293875480897200600000000000000000,-277665710058691500000000000000000,-385631360330962500000000000000000,-745270463973963500000000000000000,-271309324209305200000000000000000,-4767985658685434000000000000000000,-1391397691074435300000000000000000,-2018371994288239200000000000000000,-1259310146455473000000000000000000,-8470092148730919000000000000000000,-56594160201669670000000000000000,-747507754059020600000000000000000,-967019988915504800000000000000000,-541222879861343600000000000000000,-2652359742540304400000000000000000,-229874717340579100000000000000000,-1554211539621490500000000000000000,-1289347057452752200000000000000000,-1177751299573925600000000000000000,-385993539516881800000000000000000,-1223493849316517500000000000000000,-817637302037014200000000000000000,-2087557336123128300000000000000000,-569291469826140900000000000000000,-1300722677311990500000000000000000,-1900599633384305700000000000000000,-866253822082737200000000000000000,-6074296843488306000000000000000000,-551168499674683400000000000000000,-334509656246590000000000000000000,-1501711595205963300000000000000000,-4340622718247548000000000000000000,-6728645162241922000000000000000000,-94273005783053240000000000000000,-67736119381198000000000000000000,-500255035477293340000000000000000,0.4777179179,-1468226940874629400000000000000000000000000000000000000000,-4474121169302983000000000000000000000000000000000000000000,-747119110734112100000000000000000000000000000000000000000,-2062112300357181600000000000000000000000000000000000000000,-601583733149439700000000000000000000000000000000000000000,-63647723812914750000000000000000000000000000000000000000,-405157321452761900000000000000000000000000000000000000000,-886759269875833300000000000000000000000000000000000000000,-1528679763697034300000000000000000000000000000000000000000,-32524504710320800000000000000000000000000000000000000000,-243019448573648770000000000000000000000000000000000000000,-29337448407532045000000000000000000000000000000000000000,-419692694985868500000000000000000000000000000000000000000,-5265849447131550600000000000000000000000000000000000000000,-105966182252072230000000000000000000000000000000000000000,-2844067302858354700000000000000000000000000000000000000000,-331681834086024440000000000000000000000000000000000000000,-304481068735276950000000000000000000000000000000000000000,-1318625764593636400000000000000000000000000000000000000000,-141214808927546220000000000000000000000000000000000000000,-231235794926362160000000000000000000000000000000000000000,-474142882240168600000000000000000000000000000000000000000,-662904919610632800000000000000000000000000000000000000000,-126109911141121930000000000000000000000000000000000000000,-681321520576102800000000000000000000000000000000000000000,-530076717528249700000000000000000000000000000000000000000,-245785138614584200000000000000000000000000000000000000000,-93070931120849710000000000000000000000000000000000000000,-694404750397204600000000000000000000000000000000000000,-369979065698384100000000000000000000000000000000000000000,-1043906946330436300000000000000000000000000000000000000000,-1061763985645016400000000000000000000000000000000000000000,-148123436438110260000000000000000000000000000000000000000,-466594576772875250000000000000000000000000000000000000000,-217040298033754600000000000000000000000000000000000000000,-1161446356105654900000000000000000000000000000000000000000,-555795257437345600000000000000000000000000000000000000000,-217348024810510940000000000000000000000000000000000000000,-303599646304789600000000000000000000000000000000000000000,-129130125858193930000000000000000000000000000000000000000,-332780884288422340000000000000000000000000000000000000000,-7579103600400776000000000000000000000000000000000000000000,-193504022568740820000000000000000000000000000000000000000,-3857582438105321000000000000000000000000000000000000000000,-910768619062704600000000000000000000000000000000000000000,-297777730138842200000000000000000000000000000000000000000,-74353755513538050000000000000000000000000000000000000000,-573690050241398600000000000000000000000000000000000000000,-466482257272514000000000000000000000000000000000000000000,-455239908329310600000000000000000000000000000000000000000,-85388676829934790000000000000000000000000000000000000000,-3245144823526414600000000000000000000000000000000000000000,-7318271919593592000000000000000000000000000000000000000,-81043409539486020000000000000000000000000000000000000000,-377220141819923700000000000000000000000000000000000000000,-60904180505378370000000000000000000000000000000000000000,-68075563924439190000000000000000000000000000000000000000,-207374868200303740000000000000000000000000000000000000000,-14472085463954803000000000000000000000000000000000000000,-3165569787714343000000000000000000000000000000000000000000,-403939907695303100000000000000000000000000000000000000000,-591719944803829100000000000000000000000000000000000000000,-361710843127220600000000000000000000000000000000000000000,-5777799478899227000000000000000000000000000000000000000000,-1387652387052981200000000000000000000000000000000000000,-51126695618949420000000000000000000000000000000000000000,-251288495875532160000000000000000000000000000000000000000,-86991171974344970000000000000000000000000000000000000000,-693029634824701200000000000000000000000000000000000000000,-328590221294499200000000000000000000000000000000000000000,-447670098264606100000000000000000000000000000000000000000,-281413036548432270000000000000000000000000000000000000000,-759304971015215000000000000000000000000000000000000000000,-64801717563608060000000000000000000000000000000000000000,-309616248443166350000000000000000000000000000000000000000,-627093015191147800000000000000000000000000000000000000000,-710249919824354600000000000000000000000000000000000000000,-147817035176551300000000000000000000000000000000000000000,-357763449318461730000000000000000000000000000000000000000,-595310773873510700000000000000000000000000000000000000000,-172460489360623790000000000000000000000000000000000000000,-3945984598416950000000000000000000000000000000000000000000,-608892758831907400000000000000000000000000000000000000000,-107461565912922290000000000000000000000000000000000000000,-435975114424193400000000000000000000000000000000000000000,-3110107182070243000000000000000000000000000000000000000000,-4498941171123128600000000000000000000000000000000000000000,-44905382800513455000000000000000000000000000000000000000,-26011965636043090000000000000000000000000000000000000000,-145689233385315340000000000000000000000000000000000000000,-0.2050316637,-10.8639271427,-29.8207498289,-4.5099470936,-13.1778644784,-7.9689980969,-2.1610705019,-7.0793116854,-12.2513383029,-7.3513498779,-1.9433697787,-3.9527227265,-2.2404189898,-2.2460402386,-33.2658940144,-1.7240397327,-19.6139492102,-4.3071705207,-4.3539372949,-8.2412730019,-2.0192944313,-3.9405634749,-4.146866902,-2.6604354242,-1.3941710876,-7.428045699,-6.6326159625,-4.5118792983,-1.3137591738,-4.4313497149,-6.0976927695,-6.2203124684,-5.5485542952,-3.1026636725,-7.9558140826,-0.9548255908,-5.9175301892,-7.6129143719,-1.6275545922,-4.8538953601,-1.3585202301,-4.7010034952,-46.1920779815,-2.3820950919,-21.8880002877,-7.7041320519,18.3852845266,-2.8543127653,-9.6113797102,-4.3240020663,-8.0308817951,-0.8001926636,-18.9443033041,-0.7055201633,-1.6479286838,-4.7326754782,-2.0341561791,-0.9351557592,-1.1226284419,-1.7775167937,-20.3845870997,-6.9327359916,-8.8473561963,-5.5499725178,-34.3256686703,-0.3225520843,-2.9934491883,-5.0740899758,-1.1681997609,-12.9027633554,-1.232747774,-6.1304663954,-4.962385504,-4.7684278573,-1.9209012189,-5.0929030382,-4.2889831273,-9.5366031547,-2.3696298382,-6.2725359599,-8.1780528951,-2.9463972684,-24.7309698715,0.2561197271,-1.6509738932,-8.1903314782,-19.3800542174,-28.30751873,-0.0631733238,-3.2470500733,-4.2264305355,-0.4222593302,-8.631371277,-31.51762076,-2.0755311871,-14.042869707,-7.9064365643,-3.4475671364,-6.0917413944,-11.5444592743,-10.5805538233,-2.845548699,-2.4125242824,-0.6971774703,-2.2230027211,-31.0104556925,-3.0724743775,-19.2688806344,-4.5914093654,-4.6276832674,-8.8136229388,-3.6674651766,-3.7505784939,-4.3246016589,-2.8413260773,-1.5324708516,-9.9021536722,-7.8375760838,-4.9635700639,-1.5779108373,-3.0536257807,-5.1231174041,-5.8930677205,-6.3717760819,-3.3953204165,-7.6289635842,-2.3558715847,-6.6126499691,-7.7786557038,-1.3752802652,-3.2663872593,-2.8477202422,-4.3583494257,-45.7446574109,-2.1403717638,-23.5131433926,-7.8671497294,7.9313875973,-1.7080832429,-7.9392469003,-7.1501850036,-8.5245635945,-0.5528850875,-20.2755831702,-0.7485033441,-1.0713630585,-7.5665385259,-1.0208264286,-1.9455735429,-2.4707591087,0.0334943367,-20.6384244986,-6.8034978475,-10.9143161047,-5.6090974773,-34.6460947384,-1.3786882943,-4.6577024135,-6.0016680749,-4.0037387441,-11.0671894778,-3.6437920765,-5.4161753467,-5.5887148502,-5.5369534511,-1.7181699465,-7.5461185296,-3.6292231322,-9.5125445353,-2.5365308136,-6.958692941,-7.7393586301,-5.1069527272,-25.2890923707,-4.5084354068,-0.2739246585,-8.9964773885,-19.8822487925,-26.8856475904,-0.3758125695,-1.9226703488,-2.7688185896,-0.6331805967,-9.2187319652,-30.6672901515,-4.4637618845,-13.1906227326,-6.361593802,-0.1406681679,-7.975486003,-11.9986905083,-7.7332824765,-1.8536486045,-3.2940688343,-1.1060114837,-2.4479353673,-32.5252869448,-5.1087892688,-19.5537827564,-3.0567700635,-3.9104035312,-8.9237292708,-2.812335701,-3.3951447514,-3.506383003,-3.3928358639,-1.0218730081,-7.7991344801,-7.0640909491,-5.6122344694,-1.2834498869,-2.1550265528,-5.9017320923,-7.3948447001,-4.0703351448,-4.2091375862,-8.0397820759,-0.7550133309,-5.4556744851,-7.650758634,-1.3171054354,-3.3848642084,-2.7890750267,-5.2808195511,-45.8166450896,-0.4634726641,-22.8346587306,-7.2259488749,32.6029642798
   -2.6211846744,-8.7341304381,-5.3117380402,-7.0083553132,0.2703954474,-18.7545080067,-0.0768662023,-1.7216431804,-4.5192602204,-1.4249323839,-1.1207637938,-3.7241280009,-2.9517626835,-18.738611139,-5.9454065818,-10.4685146286,-6.3849857592,-34.9430974822,-0.6104004954,-4.4456130621,-4.8328732785,-2.1494340707,-12.1395980243,-1.6426960944,-7.5708450611,-4.314938029,-4.0769018175,-1.6124432391,-6.1117312968,-3.1566004866,-9.7895770663,-1.0410409368,-4.7904839308,-7.8320513815,-4.9571295878,-26.559865028,-3.3500847237,-1.8601536088,-8.5906178568,-18.3849270828,-26.8841864782,2.2080787861,-0.8662144475,-0.670521149,0.8778688157,-9.5193927283,-29.8098956736,-4.4160348961,-13.9893652351,-7.3481665357,-1.6278106107,-5.4263689248,-10.6962244489,-8.712536965,-1.7382422715,-3.2448089633,-1.3413818439,-2.8691430755,-33.5376570799,-2.3693020379,-19.6169779915,-3.4478592664,-4.9832545105,-8.8645481389,-3.2297543631,-4.8490407985,-4.2537691618,-4.1986905387,-2.0562986534,-9.2940137704,-8.2859849913,-4.8811574737,-2.0912927814,-4.6817359375,-5.6999431338,-6.8461756733,-6.4797417142,-2.8699556109,-7.6325100337,-1.2944374396,-5.4722130285,-6.7042108866,-2.0717385465,-2.8349795061,-0.3344831151,-4.0193735492,-45.9409564183,1.0753012019,-22.9564755027,-7.3341035626,15.4355996058,-2.3412097148,-9.2590924299,-6.0970819688,-6.8855008111,-0.4815598726,-19.9332411566,-1.6793473806,-0.4808897731,-6.726330686,-1.4292999609,-0.9205562132,-3.6680922144,-0.9816713126,-19.4422059277,-5.7143301792,-11.1852512169,-5.2487760434,-35.2265536911,-1.0548890744,-2.6532133725,-5.3050744221,-2.8540641048,-9.6738147139,-2.1038828636,-6.1426079878,-5.2153638544,-3.3556947921,-1.4392823109,-7.0884743275,-2.9980160173,-10.0487003957,-1.3397627349,-5.6345369606,-9.0300517718,-4.5085119763,-26.4769295484,-4.1272829269,-2.1240503223,-6.6603350565,-19.0670038216,-26.6832058748,-2.972367965,-0.8004442358,-4.6448910663,0.9908833325,-2038678288465197400000000000000000,-6566466710813274000000000000000000,-783309165991784500000000000000000,-2973921773076603000000000000000000,-1456543190585436300000000000000000,-403951287242917650000000000000000,-1401877507254605000000000000000000,-2374519155088552300000000000000000,-2108588984762706200000000000000000,-136479255461830070000000000000000,-752468004879875100000000000000000,-59801476465116510000000000000000,-509159045654609200000000000000000,-7360666082517877000000000000000000,-733420954420291000000000000000000,-3974086772805656000000000000000000,-756249320873516300000000000000000,-914148577899126500000000000000000,-1986676173436432000000000000000000,-553145258374476000000000000000000,-733220216970155200000000000000000,-1030425951445010900000000000000000,-602253938115225900000000000000000,-264492132522384270000000000000000,-1943392481434889200000000000000000,-1521264401499416600000000000000000,-899878042619984600000000000000000,-232974024873266080000000000000000,-535956045971235250000000000000000,-1006300820704134100000000000000000,-1418156031762124300000000000000000,-1346228906385903400000000000000000,-921950227185734900000000000000000,-1531170256886783000000000000000000,-495348462816040960000000000000000,-1572137010278137500000000000000000,-1476476303241973800000000000000000,-208199627741825000000000000000000,-769823014820383000000000000000000,-422348469367808400000000000000000,-1096017781981632000000000000000000,-10120245710871149000000000000000000,-292492893461632400000000000000000,-5107719602354029000000000000000000,-1640664479951079000000000000000000,-554106783417836200000000000000000,-352131047209830460000000000000000,-1674431320635962800000000000000000,-1458636560065267200000000000000000,-1521674321577690800000000000000000,-58771332099730930000000000000000,-4294748281780824000000000000000000,-105418012132788770000000000000000,-149976593606326180000000000000000,-1176827482839363000000000000000000,-252547206793494040000000000000000,-350745948727244600000000000000000,-677850981104322600000000000000000,-246765839367077220000000000000000,-4336658854555446000000000000000000,-1265527530732893500000000000000000,-1835783789507057800000000000000000,-1145389035998780200000000000000000,-7703861283387709000000000000000000,-51474476544950670000000000000000,-679885878973602200000000000000000,-879540354703743200000000000000000,-492262175739384400000000000000000,-2412419035279794600000000000000000,-209079535836541500000000000000000,-1413612732427995800000000000000000,-1172708714656450200000000000000000,-1071208255934540900000000000000000,-351075364058152200000000000000000,-1112812792435171900000000000000000,-743671290041430200000000000000000,-1898710410254596500000000000000000,-517791593803783200000000000000000,-1183055260581740700000000000000000,-1728665482469886300000000000000000,-787889808557709700000000000000000,-5524797068868388000000000000000000,-501308083868073500000000000000000,-304248872907889500000000000000000,-1365862096182146000000000000000000,-3947956494181766400000000000000000,-6119951004643585000000000000000000,-85744776627137320000000000000000,-61608499461897620000000000000000,-455000409908228600000000000000000,-0.2945967786,-7.6552549248,-27.5815058072,-4.1800543127,-13.796634869,-7.1278508691,0.7645145898,-6.7976780886,-12.3253769188,-10.6808136375,-2.7957295968,-2.4931793966,3.400129624,-2.2110117366,-33.8255228309,-2.9624605722,-17.7829306455,-3.8326759092,-4.6395315684,-8.9706498386,-3.7720845878,-4.7403683698,-5.5413214575,-2.2492337861,-2.254851649,-10.6939537453,-7.4142129439,-5.386538731,-2.1150675373,-1.1405249693,-5.2656475078,-4.4302171373,-7.1819658176,-4.2493240827,-7.6289749178,-2.0943827503,-6.9501525132,-7.0337756571,-0.7062340427,-3.9639126364,-3.2418000728,-4.1744325591,-42.1746354963,-1.2296381211,-22.8203782324,-6.4793555421,96.7109209459,-2.5547989975,-9.5804621182,-8.3054563691,-7.0194969164,0.2116986466,-19.8403201297,0.4909980899,41.4478443361,-3.0303039188,-2.1132854825,-1.6480693803,-3.9220312418,-1.2432166865,-18.8246422567,-6.3814332394,-7.7031527853,-5.1256435573,-34.3426770074,-1.4479445557,-5.0678814415,-4.3218797073,1.0679301258,-12.5284108377,1.4734711522,-8.3260191777,-7.0616490861,-2.7561050632,-2.4811691778,-7.1192654001,-4.4872825869,-8.3447606813,-0.7013999391,-4.9151188079,-7.8368274652,-4.8707945313,-25.4562738494,-2.3924802783,-2.719240907,-2.8406185205,-16.9786653852,-26.7762701443,1.8772512008,2.740914212,-1.4383287699,0.2450514359,-8.9172987422,-29.6760756265,-4.6408473069,-13.6917995399,-6.8639341248,0.1451707905,-5.5373242012,-11.4957136634,-8.9651367013,-2.98697264,-4.7202519606,-0.5802033865,-2.5145716368,-33.119836639,-3.7332538139,-17.9199661961,-3.5799332781,-4.1542601823,-9.0628279585,-3.0535100271,-4.3465691795,-5.025526785,-3.6796869939,-1.2665955461,-7.5693380784,-6.6702638544,-4.1690837006,-1.453798637,-4.9504237052,-4.8035811392,-6.9754072783,-7.2630002763,-3.5944151731,-6.9432777128,-2.3788234735,-6.4588288052,-6.5665983284,-1.7419510238,-4.0170932295,-0.5558983109,-4.0598154495,-47.0208846386,-0.8294462021,-24.2969164641,-6.6145835312,15.5683865307,-0.2703123653,-8.7464866087,-5.9179369208,-6.9885853222,-1.2772356335,-19.8519726779,-1.9364710568,-0.2688380292,-4.958349417,-1.7427176917,-2.5246183088,-3.4286865902,-0.7781863133,-18.2934852658,-6.7450197268,-11.3435537155,-5.5087316241,-35.5665560615,0.7127362809,-4.2251186722,-4.8475474179,-3.53123384,-10.1287047751,-4.8184142863,-6.828090569,-4.4529005097,-3.8200458152,-2.1147016101,-6.0990481226,-4.1861528529,-8.9034985186,-1.9927450473,-6.3044309179,-8.5795789267,-6.0359048616,-24.9326605143,-1.5769636875,-0.8800215325,-7.9322837879,-18.4164279102,-27.4174692165,-0.1335226393,-0.486890324,-1.6419932036,0.8825146525,-2080531730399582800000000000000000,-6701274264682880000000000000000000,-799390263672080700000000000000000,-3034975477798479000000000000000000,-1486445576948699500000000000000000,-412244283661529100000000000000000,-1430657623853171500000000000000000,-2423267307331045500000000000000000,-2151877671916815000000000000000000,-139281132847802960000000000000000,-767915942952256300000000000000000,-61029182492845390000000000000000,-519611925186041300000000000000000,-7511778306661372000000000000000000,-748477862370395500000000000000000,-4055673559170578000000000000000000,-771774888207106200000000000000000,-932915768701605300000000000000000,-2027462027848968700000000000000000,-564501161404220640000000000000000,-748273003841778700000000000000000,-1051580281174470700000000000000000,-614618027325023450000000000000000,-269922075134351680000000000000000,-1983289734884663400000000000000000,-1552495494534172000000000000000000,-918352263696413600000000000000000,-237756910371888400000000000000000,-546959059725964400000000000000000,-1026959868875764100000000000000000,-1447270341491657400000000000000000,-1373866574223248700000000000000000,-940877583462710400000000000000000,-1562604714103917000000000000000000,-505517815304394760000000000000000,-1604412502416777000000000000000000,-1506787910313507000000000000000000,-212473902442133460000000000000000,-785627245940533700000000000000000,-431019154310487800000000000000000,-1118518691937243300000000000000000,-10328011261040664000000000000000000,-298497683134425050000000000000000,-5212579524100269000000000000000000,-1674346820089762000000000000000000,-565482426262733200000000000000000,-359360189944648550000000000000000,-1708806883689661200000000000000000,-1488581922663902000000000000000000,-1552913830146320700000000000000000,-59977889578350610000000000000000,-4382918150882445700000000000000000,-107582211690224370000000000000000,-153055567217580410000000000000000,-1200987391245945100000000000000000,-257731923732418080000000000000000,-357946655813710840000000000000000,-691767054492820400000000000000000,-251831866600396770000000000000000,-4425689134901934400000000000000000,-1291508424002600700000000000000000,-1873471869413011400000000000000000,-1168903522704054200000000000000000,-7862019200072805000000000000000000,-52531231810050190000000000000000,-693843728193182800000000000000000,-897597049265517600000000000000000,-502368167697690450000000000000000,-2461945260474693800000000000000000,-213371874781009020000000000000000,-1442633769611315800000000000000000,-1196784066011556000000000000000000,-1093199833905947300000000000000000,-358282833940644300000000000000000,-1135658498820305600000000000000000,-758938634247782800000000000000000,-1937690354444621000000000000000000,-528421696909311040000000000000000,-1207343023361222800000000000000000,-1764154456283889200000000000000000,-804064945429348700000000000000000,-5638219463480341000000000000000000,-511599785554474000000000000000000,-310495009244310620000000000000000,-1393902827403142600000000000000000,-4029006833915900000000000000000000,-6245591727588126000000000000000000,-87505090675115890000000000000000,-62873303119003140000000000000000,-464341429206845060000000000000000,0.3529838436,13361871873516013000000000000000000000000000000000000000000000000000000000,40717570451255650000000000000000000000000000000000000000000000000000000000,6799296189650217000000000000000000000000000000000000000000000000000000000,18766635888127820000000000000000000000000000000000000000000000000000000000,5474824472921305000000000000000000000000000000000000000000000000000000000,579237897530515000000000000000000000000000000000000000000000000000000000,3687209455844345000000000000000000000000000000000000000000000000000000000,8070117427914545000000000000000000000000000000000000000000000000000000000,13912034035012101000000000000000000000000000000000000000000000000000000000,295995291229946900000000000000000000000000000000000000000000000000000000,2211643354641867000000000000000000000000000000000000000000000000000000000,266990896311708100000000000000000000000000000000000000000000000000000000,3819491300118022000000000000000000000000000000000000000000000000000000000,47922840707396706000000000000000000000000000000000000000000000000000000000,964364932311362800000000000000000000000000000000000000000000000000000000,25882962601444238000000000000000000000000000000000000000000000000000000000,3018532124540564000000000000000000000000000000000000000000000000000000000,2770986522842263400000000000000000000000000000000000000000000000000000000,12000398605248257000000000000000000000000000000000000000000000000000000000,1285151600873530000000000000000000000000000000000000000000000000000000000,2104404262063898700000000000000000000000000000000000000000000000000000000,4315025288323394500000000000000000000000000000000000000000000000000000000,6032889299012284000000000000000000000000000000000000000000000000000000000,1147686660975289400000000000000000000000000000000000000000000000000000000,6200492946394491000000000000000000000000000000000000000000000000000000000,4824061618200875000000000000000000000000000000000000000000000000000000000,2236813314265999400000000000000000000000000000000000000000000000000000000,847009294291595100000000000000000000000000000000000000000000000000000000,6319570970582035000000000000000000000000000000000000000000000000000000,3367063206590326500000000000000000000000000000000000000000000000000000000,9500268824587930000000000000000000000000000000000000000000000000000000000,9662780297904435000000000000000000000000000000000000000000000000000000000,1348024844321672900000000000000000000000000000000000000000000000000000000,4246330611344295000000000000000000000000000000000000000000000000000000000,1975215540969937800000000000000000000000000000000000000000000000000000000,10569958229128493000000000000000000000000000000000000000000000000000000000,5058117941050327000000000000000000000000000000000000000000000000000000000,1978016051193405000000000000000000000000000000000000000000000000000000000,2762964967732630000000000000000000000000000000000000000000000000000000000,1175172697194067000000000000000000000000000000000000000000000000000000000,3028534245254805000000000000000000000000000000000000000000000000000000000,68975039641697280000000000000000000000000000000000000000000000000000000000,1761019286692109100000000000000000000000000000000000000000000000000000000,35106645173918245000000000000000000000000000000000000000000000000000000000,8288618939535674000000000000000000000000000000000000000000000000000000000,2709981524114611000000000000000000000000000000000000000000000000000000000,676670099546895000000000000000000000000000000000000000000000000000000000,5220972713936228000000000000000000000000000000000000000000000000000000000,4245308362295482000000000000000000000000000000000000000000000000000000000,4142995348811790000000000000000000000000000000000000000000000000000000000,777095506329480700000000000000000000000000000000000000000000000000000000,29533043036080704000000000000000000000000000000000000000000000000000000000,66601274314928730000000000000000000000000000000000000000000000000000000,737550595463814600000000000000000000000000000000000000000000000000000000,3432961682275843000000000000000000000000000000000000000000000000000000000,554269653156206100000000000000000000000000000000000000000000000000000000,619534306779845300000000000000000000000000000000000000000000000000000000,1887253497585505300000000000000000000000000000000000000000000000000000000,131705902253969970000000000000000000000000000000000000000000000000000000,28808855654646784000000000000000000000000000000000000000000000000000000000,3676129902363030000000000000000000000000000000000000000000000000000000000,5385057029380598000000000000000000000000000000000000000000000000000000000,3291816405348107800000000000000000000000000000000000000000000000000000000,52581937008251760000000000000000000000000000000000000000000000000000000000,12628589678641406000000000000000000000000000000000000000000000000000000,465287771339762100000000000000000000000000000000000000000000000000000000,2286897432788288000000000000000000000000000000000000000000000000000000000,791679242058598900000000000000000000000000000000000000000000000000000000,6307044797445279000000000000000000000000000000000000000000000000000000000,2990396255997064000000000000000000000000000000000000000000000000000000000,4074104572077491400000000000000000000000000000000000000000000000000000000,2561051599155058300000000000000000000000000000000000000000000000000000000,6910195882650334000000000000000000000000000000000000000000000000000000000,589740068491707000000000000000000000000000000000000000000000000000000000,2817720180316853200000000000000000000000000000000000000000000000000000000,5706976308232892000000000000000000000000000000000000000000000000000000000,6463761133778947500000000000000000000000000000000000000000000000000000000,1345236374478489500000000000000000000000000000000000000000000000000000000,3255892724429886000000000000000000000000000000000000000000000000000000000,5417736212170605000000000000000000000000000000000000000000000000000000000,1569508725528940100000000000000000000000000000000000000000000000000000000,35911165518476140000000000000000000000000000000000000000000000000000000000,5541341581440202400000000000000000000000000000000000000000000000000000000,977973931112367000000000000000000000000000000000000000000000000000000000,3967672506022060000000000000000000000000000000000000000000000000000000000,28304107902855310000000000000000000000000000000000000000000000000000000000,40943449525238540000000000000000000000000000000000000000000000000000000000,408669764271519600000000000000000000000000000000000000000000000000000000,236726709852765600000000000000000000000000000000000000000000000000000000,1325871921865197500000000000000000000000000000000000000000000000000000000,-0.4802221273,-1267519832860722600000000000000000000000000000000000000000000000000000000,-3862507332910871000000000000000000000000000000000000000000000000000000000,-644987682224246100000000000000000000000000000000000000000000000000000000,-1780220870956375000000000000000000000000000000000000000000000000000000000,-519347039587589900000000000000000000000000000000000000000000000000000000,-54947056072265524000000000000000000000000000000000000000000000000000000,-349772184424073600000000000000000000000000000000000000000000000000000000,-765538989613517400000000000000000000000000000000000000000000000000000000,-1319708737049288000000000000000000000000000000000000000000000000000000000,-28078393927049200000000000000000000000000000000000000000000000000000000,-209798585240103150000000000000000000000000000000000000000000000000000000,-25327009529190332000000000000000000000000000000000000000000000000000000,-362320565573935900000000000000000000000000000000000000000000000000000000,-4546006099942416400000000000000000000000000000000000000000000000000000000,-91480571688676410000000000000000000000000000000000000000000000000000000,-2455282369197857400000000000000000000000000000000000000000000000000000000,-286340818876274570000000000000000000000000000000000000000000000000000000,-262858408428093550000000000000000000000000000000000000000000000000000000,-1138369187967999100000000000000000000000000000000000000000000000000000000,-121910699171468830000000000000000000000000000000000000000000000000000000,-199625783256433130000000000000000000000000000000000000000000000000000000,-409327389457021360000000000000000000000000000000000000000000000000000000,-572285598031213950000000000000000000000000000000000000000000000000000000,-108870644657152190000000000000000000000000000000000000000000000000000000,-588184638908688400000000000000000000000000000000000000000000000000000000,-457615058271228500000000000000000000000000000000000000000000000000000000,-212186231470958700000000000000000000000000000000000000000000000000000000,-80348104613989820000000000000000000000000000000000000000000000000000000,-599480493168056800000000000000000000000000000000000000000000000000000,-319402807723976700000000000000000000000000000000000000000000000000000000,-901204506873129100000000000000000000000000000000000000000000000000000000,-916620499291383300000000000000000000000000000000000000000000000000000000,-127874914648252080000000000000000000000000000000000000000000000000000000,-402810947276830100000000000000000000000000000000000000000000000000000000,-187370818703667650000000000000000000000000000000000000000000000000000000,-1002676257844172000000000000000000000000000000000000000000000000000000000,-479817862940115400000000000000000000000000000000000000000000000000000000,-187636477758320700000000000000000000000000000000000000000000000000000000,-262097476106020530000000000000000000000000000000000000000000000000000000,-111477996109388740000000000000000000000000000000000000000000000000000000,-287289629529147870000000000000000000000000000000000000000000000000000000,-6543037648152593000000000000000000000000000000000000000000000000000000000,-167051958966675220000000000000000000000000000000000000000000000000000000,-3330249641994090000000000000000000000000000000000000000000000000000000000,-786266250143481000000000000000000000000000000000000000000000000000000000,-257071416416574730000000000000000000000000000000000000000000000000000000,-64189567120424880000000000000000000000000000000000000000000000000000000,-495266421080992100000000000000000000000000000000000000000000000000000000,-402713975762979140000000000000000000000000000000000000000000000000000000,-393008466312049860000000000000000000000000000000000000000000000000000000,-73716016410237160000000000000000000000000000000000000000000000000000000,-2801532459472120600000000000000000000000000000000000000000000000000000000,-6317860018946065000000000000000000000000000000000000000000000000000000,-69964748677285580000000000000000000000000000000000000000000000000000000,-325653999598686770000000000000000000000000000000000000000000000000000000,-52578544741236846000000000000000000000000000000000000000000000000000000,-58769611654303600000000000000000000000000000000000000000000000000000000,-179026655880968350000000000000000000000000000000000000000000000000000000,-12493746743868288000000000000000000000000000000000000000000000000000000,-2732835357945973400000000000000000000000000000000000000000000000000000000,-348721167477516200000000000000000000000000000000000000000000000000000000,-510831614794553100000000000000000000000000000000000000000000000000000000,-312264824824807970000000000000000000000000000000000000000000000000000000,-4987972391824649500000000000000000000000000000000000000000000000000000000,-1197959988709723400000000000000000000000000000000000000000000000000000,-44137639078072996000000000000000000000000000000000000000000000000000000,-216937258433290200000000000000000000000000000000000000000000000000000000,-75099443406756280000000000000000000000000000000000000000000000000000000,-598292248509615200000000000000000000000000000000000000000000000000000000,-283671823713681450000000000000000000000000000000000000000000000000000000,-386473421923176140000000000000000000000000000000000000000000000000000000,-242943782550627600000000000000000000000000000000000000000000000000000000,-655507732234177100000000000000000000000000000000000000000000000000000000,-55943301965608970000000000000000000000000000000000000000000000000000000,-267291607479232400000000000000000000000000000000000000000000000000000000,-541369182763169300000000000000000000000000000000000000000000000000000000,-613158508739947600000000000000000000000000000000000000000000000000000000,-127610397755484880000000000000000000000000000000000000000000000000000000,-308857070397582460000000000000000000000000000000000000000000000000000000,-513931593053599800000000000000000000000000000000000000000000000000000000,-148885085584379670000000000000000000000000000000000000000000000000000000,-3406567204557077400000000000000000000000000000000000000000000000000000000,-525656915559335100000000000000000000000000000000000000000000000000000000,-92771534216150300000000000000000000000000000000000000000000000000000000,-376377175240481460000000000000000000000000000000000000000000000000000000,-2684954507714528000000000000000000000000000000000000000000000000000000000,-3883934436000444000000000000000000000000000000000000000000000000000000000,-38766801254200223000000000000000000000000000000000000000000000000000000,-22456120111507910000000000000000000000000000000000000000000000000000000,-125773467423252780000000000000000000000000000000000000000000000000000000,0.1360388548,-2409446390079383000000000000000000,-7760689659306823000000000000000000,-925767176210944400000000000000000,-3514779708529818000000000000000000,-1721440186226130000000000000000000,-477416655841329500000000000000000,-1656832624499535400000000000000000,-2806365594205399000000000000000000,-2492071528030261300000000000000000,-161300314646917950000000000000000,-889317028717138400000000000000000,-70677385642875860000000000000000,-601758223192903440000000000000000,-8699327609190295000000000000000000,-866805950225223800000000000000000,-4696841616833717000000000000000000,-893786040930678700000000000000000,-1080401946436289800000000000000000,-2347986811566399800000000000000000,-653744072088624200000000000000000,-866568705277147400000000000000000,-1217826325517194100000000000000000,-711783995205676300000000000000000,-312594496893501600000000000000000,-2296831248654639600000000000000000,-1797932043171171800000000000000000,-1063536073136249000000000000000000,-275344288693919600000000000000000,-633428710902153200000000000000000,-1189313632022245800000000000000000,-1676071673805357800000000000000000,-1591063385068938400000000000000000,-1089622457498151700000000000000000,-1809639445775489600000000000000000,-585435952458195500000000000000000,-1858056695633228800000000000000000,-1744998472300526800000000000000000,-246064248742301200000000000000000,-909828340525169900000000000000000,-499159676458778600000000000000000,