encog,BasicNetwork,java,3.4.0,1,1591176866402
[BASIC]
[BASIC:PARAMS]
[BASIC:NETWORK]
beginTraining=0
connectionLimit=0
contextTargetOffset=0,0,0
contextTargetSize=0,0,0
endTraining=2
hasContext=f
inputCount=235
layerCounts=236,91,236
layerFeedCounts=235,90,235
layerContextCount=0,0,0
layerIndex=0,236,327
output=0.0055210132,0.0026368775,0.0014109572,0.0026744644,0.0022522044,0.0051179675,0.0086485563,0.0031926456,0.0079479294,0.0016639439,0.0092226478,0.0030305007,0.0022930173,0.0041264448,0.0056354883,0.0019918063,0.0065115289,0.002572876,0.008638132,0.003795688,0.0022390086,0.0032122733,0.0054476089,0.0096391784,0.0075387462,0.0019947257,0.0077134879,0.0077099363,0.0074057341,0.0056498179,0.0025289265,0.0028173035,0.0067224593,0.002713179,0.0051676183,0.0074213905,0.0043737619,0.003667021,0.0077942641,0.0050477755,0.0049594528,0.0024066545,0.0020735925,0.0024279537,0.0025352245,0.0090001143,0.0095725714,0.0049453357,0.0055312314,0.0040468615,0.0020356224,0.0044522837,0.0035488856,0.0017010508,0.0050666687,0.0035287959,0.0016820586,0.0039014195,0.0020994179,0.0061174759,0.005331828,0.0021775183,0.0015321498,0.0047982186,0.0075113544,0.0043434594,0.0032528091,0.0030030954,0.0040459635,0.0016656463,0.0069700476,0.0015666589,0.0094079114,0.0053311887,0.0020724692,0.0051501724,0.0046835554,0.0097100506,0.0019024092,0.0040052566,0.0038248336,0.0018118547,0.0039732678,0.0024620179,0.005872399,0.0022952708,0.0040060884,0.0018869646,0.0096802136,0.0021611384,0.0047630381,0.0021979125,0.0089261004,0.0060853664,0.0038711719,0.0036086928,0.0032778845,0.0096250552,0.0042705296,0.008329818,0.0017188703,0.0015092077,0.0033944945,0.0017495878,0.0020912719,0.0060243794,0.0023935597,0.0033332419,0.0017877456,0.0092302509,0.0020858286,0.0017260339,0.0042050808,0.0026493402,0.0027628906,0.0073095778,0.0073443866,0.001480831,0.001806999,0.0092520274,0.0025670949,0.0060669823,0.0098799264,0.006887088,0.0035090058,0.0052497041,0.0016911367,0.0029861358,0.00260426,0.001938706,0.0028125577,0.0020493975,0.0074842142,0.0024705068,0.0040064074,0.0059900798,0.0037049159,0.0060251281,0.0033424133,0.009381834,0.0094241449,0.0097601637,0.0045856447,0.0025199124,0.0024724241,0.0022535168,0.0053118773,0.0022476595,0.0031014593,0.0093032197,0.0024675692,0.0033759474,0.0026274692,0.0087940851,0.0021446553,0.0045920077,0.0083104487,0.0035183293,0.002024543,0.0015466089,0.0029693063,0.0038065583,0.003705802,0.0054433017,0.0083537957,0.0038230421,0.0021469274,0.0058850014,0.0021594849,0.0020187015,0.0016072274,0.0038058283,0.007586012,0.0044203448,0.0026292426,0.0025253042,0.0019576147,0.0027019802,0.0084068385,0.001745153,0.0036828269,0.0062047,0.0051253353,0.0043550769,0.0067457437,0.0063583952,0.0019941928,0.00173175,0.0083071921,0.004418939,0.0033611823,0.0017513265,0.0042338694,0.0015952833,0.0044099095,0.0019157445,0.0031112959,0.0057073463,0.002646458,0.0067959663,0.0031690624,0.0067671598,0.0083581022,0.0041099895,0.00737542,0.0040046102,0.0096017788,0.0022883227,0.0017581943,0.0015122293,0.002133604,0.003116625,0.0088360692,0.004726271,0.0042349063,0.0014085363,0.0026411385,0.0036140553,0.0025091256,0.0014412321,0.0030887398,0.00508148,0.0015056848,0.0020934002,0.0045040577,0.0014125455,0.0018367314,0.0020476783,0.001752316,0.0027814313,0.0056184177,0.0022230762,0.0014105605,0.0038652236,0.0014244781,1,0,0,0,0,0,0,0,0,0,0,0,0,0,0,0,0,0,0,0,0,0,0,0,0,0,0,0,0,0,0,0,0,0,0,0,0,0,0,0,0,0,0,0,0,0,0,0,0,0,0,0,0,0,0,0,0,0,0,0,0,0,0,0,0,0,0,0,0,0,0,0,0,0,0,0,0,0,0,0,0,0,0,0,0,0,0,0,0,0,0,1,216,235,217,135,133,51,163,79,165,152,181,167,118,209,67,35,215,162,155,161,112,234,133,51,163,159,224,143,202,198,144,110,177,158,2,92,55,19,104,161,2,79,45,53,106,164,204,198,101,118,223,0,0,0,0,0,0,0,0,0,0,0,0,0,0,0,0,0,0,0,0,0,0,0,0,0,0,0,0,0,0,0,0,0,0,0,0,0,0,0,0,0,0,0,0,0,0,0,0,0,0,0,0,0,0,0,0,0,0,0,0,0,0,0,0,0,0,0,0,0,0,0,0,0,0,0,0,0,0,0,0,0,0,0,0,0,0,0,0,0,0,0,0,0,0,0,0,0,0,0,0,0,0,0,0,0,0,0,0,0,0,0,0,0,0,0,0,0,0,0,0,0,0,0,0,0,0,0,0,0,0,0,0,0,0,0,0,0,0,0,0,0,0,0,0,0,0,0,0,0,0,0,0,0,0,0,0,0,0,0,0,0,0,0,0,0,0,0,0,0,0,0,0,0,0,0,0,0,0,0,0,0,0,0,0,1
outputCount=235
weightIndex=0,21385,42625
weights=##0
##double#42625
   -30.9786439207,-0.3420959536,-0.4372222974,-3.0310160255,-0.8827302223,-312922516661391850000000000000000,0.6259825353,-0.9747247116,-1.9847447013,-0.6073147506,-20.7844015018,-829873401199557500000000000000000,-114083517082415850000000000000000,-7.1714507906,-9.6186636868,-15.1767280953,-26.3915024091,-773768245651788400000000000000000,-0.4664666575,-2.0010938583,-0.9510564123,-8.987804267,-0.9066979948,-0.7394320811,-0.7040506441,-16.201588294,0.2558527043,-0.1527607485,-12.4329661074,-22.8149006658,-61057012035061020000000000000000,-3940354679523210000000000000000000,-27.2041418592,0.2503127074,-57964928890885455000000000000000,-13.5299647573,-4.5042711134,-1.9173224706,-2.0478021719,-0.236594777,-14.1322696307,-12.5798427527,-0.7896504988,-7.3004526777,-0.8173169686,0.5351573617,0.2750917758,-1.7739698512,-1514293714551827700000000000000000,-1.9684079275,-0.1494501718,-4.6015317035,-1.0402577162,-0.986516718,-30.2061326565,-3.0483532744,-10.207458614,0.3686044621,-0.5257619174,-1.172434463,-0.6571085714,-4.5932234313,-2.2450225403,0.4742912261,-12.1106747024,-0.3746523704,-9.1254797872,0.4395501737,-18.7163703676,-0.4658515383,0.6914275459,-0.365526926,-0.3816006983,0.131524271,-0.0491486758,-44284681777605950000000000000000,-10.3141919739,0.0860260926,-9.1854122003,-66985554290959300000000000000000,-29.6548281901,-0.1064160978,-0.5701144392,-236046418616555600000000000000000,-168217729034948770000000000000000,-0.4046218782,0.3150975168,-8.1822371018,-37022609612037246000000000000000,-44.3471550097,0.3625609392,-133835642000904940000000000000000000,-90994675289798440000000000000000000,-129791235289399970000000000000000000,-83439904495381250000000000000000000,-39952582747717510000000000000000000,-49823540123729700000000000000000000,-23410613412859026000000000000000000,-34769197335853910000000000000000000,-54456612397954070000000000000000000,-37204316653287538000000000000000000,-16880040396568418000000000000000000,-12236707568199595000000000000000000,-105233343124149730000000000000000000,-82840951284516560000000000000000000,-136763301597112180000000000000000000,-121185990768030700000000000000000000,-205345504258578300000000000000000000,-24664069740734503000000000000000000,-24588982704183736000000000000000000,-63921548582820340000000000000000000,-87453227459748900000000000000000000,-56928034405233810000000000000000000,-28818383026127260000000000000000000,-30995629740757026000000000000000000,-90513915694207220000000000000000000,-137217256641488600000000000000000000,-29864285343299526000000000000000000,-12276168996328164000000000000000000,-143929603928029040000000000000000000,-30087481775084697000000000000000000,-16278186096728764000000000000000000,-158687117735583420000000000000000000,-38875660888778240000000000000000000,-58145514874169960000000000000000000,-46454667310113810000000000000000000,-66935828507383470000000000000000000,-102758273226731850000000000000000000,-140860179722937760000000000000000000,-46038567087077070000000000000000000,-121005156351754600000000000000000000,-99102589957696220000000000000000000,-117347580500212790000000000000000000,-18921938597294910000000000000000000,-47331263643541640000000000000000000,-110523675863239370000000000000000000,-71089739322053410000000000000000000,-45411652470109920000000000000000000,-87873948462520740000000000000000000,-62203915089504030000000000000000000,-63392056061252060000000000000000000,-30079318026287294000000000000000000,-85654601724870380000000000000000000,-73022749427766030000000000000000000,-11336945215409475000000000000000000,-41458994546188660000000000000000000,-132547948449983130000000000000000000,-78685169202542830000000000000000000,-25703723181955587000000000000000000,-32086302638826370000000000000000000,-41788392495651490000000000000000000,-47926194917198080000000000000000000,-57754334286925390000000000000000000,-106964595787844980000000000000000000,-81168557392651120000000000000000000,-261455464479840300000000000000000000,-18945664777140048000000000000000000,-85474814540066800000000000000000000,-42741153334951860000000000000000000,-236336263981941500000000000000000000,-51595445135719760000000000000000000,-99233741313579220000000000000000000,-71189637482376450000000000000000000,-66383435514749500000000000000000000,-92070968041845280000000000000000000,-36059065692700150000000000000000000,-7564643578971823000000000000000000,-76623312537474765000000000000000000,-91426189915259720000000000000000000,-231417082125231070000000000000000000,-10475579006964552000000000000000000,-38161950229296906000000000000000000,-100903785287957680000000000000000000,-144514077386086780000000000000000000,-80822569615673140000000000000000000,-71308760308336290000000000000000000,-10253354453386145000000000000000000,-29011666757840536000000000000000000,-85167659816697950000000000000000000,-22203753662506800000000000000000000,-86477062209727270000000000000000000,-0.3764050061,-433424527774803800000000000000000000,-2892487178596896500000000000000000000,-3049593077192604700000000000000000000,-1341847374668700800000000000000000000,-262178012243196770000000000000000000,-309785977715659300000000000000000000,49053951167336610000000000000000000,305524027962511380000000000000000000,-309596860114896900000000000000000000,395479479199208240000000000000000000,73355194324325550000000000000000000,-57427942340025030000000000000000000,-3317178070055996000000000000000000000,-273504105297578200000000000000000000,-443747901741323100000000000000000000,-386302426523080500000000000000000000,-657860309789562400000000000000000000,3939928147053234000000000000000000000,-413347577842318500000000000000000000,-275651548872947300000000000000000000,184222434804386100000000000000000000,-189335844630288240000000000000000000,-488084182802684800000000000000000000,-672948306075078800000000000000000000,-2336817232600810000000000000000000000,-439710554637025100000000000000000000,-218992479276079830000000000000000000,-92926739410913100000000000000000000,-464385389831691800000000000000000000,84814331054778120000000000000000000,679425524586496200000000000000000000,-291654275187237750000000000000000000,-798113165945149200000000000000000000,-1331027180777341800000000000000000000,-1510148216296789500000000000000000000,-215828039147052520000000000000000000,-589946511625896600000000000000000000,-2398978377861388200000000000000000000,-227821934221394500000000000000000000,-3433439580619462000000000000000000000,-317564019573434520000000000000000000,-380591350595316500000000000000000000,210523101641602900000000000000000000,-153434076738297880000000000000000000,-2494770669708811000000000000000000000,-1019290153393083800000000000000000000,128188520747218700000000000000000000,-404570007316884500000000000000000000,-379137046858892200000000000000000000,-261151951891128000000000000000000000,300245679617929480000000000000000000,-378232609713051550000000000000000000,-1092504726032679000000000000000000000,-369350463724624740000000000000000000,-886631793456293200000000000000000000,-2587127197039109000000000000000000000,-290964883426804400000000000000000000,-83959423522438300000000000000000000,-245989366898906920000000000000000000,-442249213756154150000000000000000000,138384224531247650000000000000000000,-186486987916042120000000000000000000,-1877612679620935300000000000000000000,-1981399967161899300000000000000000000,-947995697727653100000000000000000000,215604932628681900000000000000000000,-273873186674918000000000000000000000,-939301940226146500000000000000000000,-768963872190622400000000000000000000,-325817966754071450000000000000000000,-2866689054144278000000000000000000000,-518523216430036100000000000000000000,-581734941921085100000000000000000000,-2236299762177488500000000000000000000,-246711378713588940000000000000000000,-21685754017741043000000000000000000,-245487635245533800000000000000000000,-2627810340343817700000000000000000000,-785026084765684700000000000000000000,532445181619523840000000000000000000,-482975189454499500000000000000000000,347365288445527500000000000000000000,-3830732736842348000000000000000000000,128200261286888350000000000000000000,116396489613665660000000000000000000,3491392276751142400000000000000000000,347768955570494750000000000000000000,-282762602494320600000000000000000000,37844716596149023000000000000000000,1132357030939711300000000000000000000,-1.0017321558,-332759596529387860000000000000000000,-336425991711571160000000000000000000,-458266692189592200000000000000000000,-267531997785783000000000000000000000,-103695903458182100000000000000000000,-70947490864645180000000000000000000,-69131647492937930000000000000000000,-148001817920195440000000000000000000,-135139267070256240000000000000000000,-226449650572305850000000000000000000,-61924454531047225000000000000000000,-15377902247639378000000000000000000,-346400150773917460000000000000000000,-205612731213940800000000000000000000,-339978476792699050000000000000000000,-302577130380046200000000000000000000,-511963396824671000000000000000000000,-223716068517771150000000000000000000,-79664578421679380000000000000000000,-158150379642395250000000000000000000,-258743099259131200000000000000000000,-141232885211736590000000000000000000,-93543937293221470000000000000000000,-107679059300565470000000000000000000,-326637894344350400000000000000000000,-341980312143851050000000000000000000,-80353280105880415000000000000000000,-33598885632224363000000000000000000,-357991741634799100000000000000000000,-48165817147162260000000000000000000,-158866414402183370000000000000000000,-197927392172375260000000000000000000,-133341148364166100000000000000000000,-204216924197272850000000000000000000,-154393427119628980000000000000000000,-166496944240778180000000000000000000,-255272788845086250000000000000000000,-457875178974395600000000000000000000,-113707727015096120000000000000000000,-443492602942382300000000000000000000,-246993134411351200000000000000000000,-291724894247629370000000000000000000,-101130827954111800000000000000000000,-117670673767548850000000000000000000,-387105627126923200000000000000000000,-175510842317196050000000000000000000,-147526004339152970000000000000000000,-217240509989956350000000000000000000,-85871322447152630000000000000000000,-156919292428283150000000000000000000,-138061896307046450000000000000000000,-211861176164051600000000000000000000,-230507750233627700000000000000000000,-41982240170592470000000000000000000,-143565581669727620000000000000000000,-447764850467948650000000000000000000,-194994021626106850000000000000000000,-63850374748363000000000000000000000,-88675031822717990000000000000000000,-81311186378756060000000000000000000,-157027969121738700000000000000000000,-143639776471876960000000000000000000,-350402194995756440000000000000000000,-289141556087071800000000000000000000,-648055537533043600000000000000000000,-110077177425105000000000000000000000,-213058229051440980000000000000000000,-122627061827662300000000000000000000,-587338084126683150000000000000000000,-132337019314763470000000000000000000,-364293218879826800000000000000000000,-190949612238888780000000000000000000,-190404207097503950000000000000000000,-327592068957075900000000000000000000,-53713635925607770000000000000000000,1612392429003430000000000000000000000,-191023132732768100000000000000000000,-335485896398435100000000000000000000,-573954003634947660000000000000000000,-100204958638569600000000000000000000,-85187309938285110000000000000000000,-353921949558621660000000000000000000,-524474314499810300000000000000000000,-196814521880743200000000000000000000,-176866356210739230000000000000000000,434369401225758960000000000000000000,-163723174495787220000000000000000000,-211313692766301880000000000000000000,-56529460573510890000000000000000000,-267369811322641080000000000000000000,-0.3622513347,-2832977279512977300000000000000000000,-900790448574717400000000000000000000,-2770714785320176300000000000000000000,-1887879799508842000000000000000000000,-861317837461914700000000000000000000,412837712918778800000000000000000000,1293810265679206000000000000000000000,1075083368801321200000000000000000000,-946932026597025800000000000000000000,-720370053962130600000000000000000000,743057204827047000000000000000000000,7828345734985472000000000000000000,-435229465965367800000000000000000000,-1696162064220570000000000000000000000,-2888253585627065500000000000000000000,-2659985847286685000000000000000000000,-4478000808914732700000000000000000000,-1712993990899975600000000000000000000,-557120188119069100000000000000000000,-1199549887300954400000000000000000000,4831246074553574600000000000000000000,-1152821142925259900000000000000000000,-653005173858987200000000000000000000,-699105798084739100000000000000000000,-1610437749125521200000000000000000000,-2980908038072503000000000000000000000,-726945623051971600000000000000000000,-307654934592457360000000000000000000,-3059388176523662500000000000000000000,730873064672345700000000000000000000,-1321746787030862400000000000000000000,1493456768612296600000000000000000000,-894413108734750200000000000000000000,-1270950751565270900000000000000000000,-211498255236358700000000000000000000,-1423856126253155500000000000000000000,-1790742046392809800000000000000000000,-3192016132460055000000000000000000000,-813770382396177800000000000000000000,-1588860917289615000000000000000000000,-2153325579881004700000000000000000000,-2479664335278104300000000000000000000,85874613325544520000000000000000000,-1000837787685254000000000000000000000,-2438468297404757800000000000000000000,150551758393718730000000000000000000,2394492960075514800000000000000000000,-1605238451064662700000000000000000000,405709902384779500000000000000000000,-1209734283276249600000000000000000000,711501120692693000000000000000000000,-1591963721461389700000000000000000000,-1630349757072901700000000000000000000,-105204421461991120000000000000000000,-942919227962825300000000000000000000,-3041450604250351000000000000000000000,-1551732667593952600000000000000000000,-536130914205224000000000000000000000,-803020052541004900000000000000000000,298105350351445420000000000000000000,2509656458278743300000000000000000000,-1226521668947043200000000000000000000,-2424856840285185600000000000000000000,-1644160720533699800000000000000000000,-5180539368690152000000000000000000000,-196387330592490270000000000000000000,-1859846039138039600000000000000000000,40286483980427438000000000000000000,-4969840946131183700000000000000000000,-1055619705380461300000000000000000000,-1247165573677787500000000000000000000,-1718306535755274200000000000000000000,-1515188933031662500000000000000000000,-1881606963667875400000000000000000000,337139361289646550000000000000000000,-28755591302795680000000000000,-1669797789058040200000000000000000000,-1163260081351737000000000000000000000,-4652372489505422000000000000000000000,-869558858270380100000000000000000000,174687037086753600000000000000000000,4822982584659187000000000000000000000,-2346250418544736600000000000000000000,4067123549311728400000000000000000000,3667394676550689500000000000000000000,1366114581009179000000000000000000000,-145368459066755300000000000000000000,-1728826159315130400000000000000000000,1172622615412822700000000000000000000,-2530552784859365000000000000000000000,-0.5340910045,-144326483471779110000000000000000000,-110895376413222460000000000000000000,-153657894020308020000000000000000000,-94738370512239600000000000000000000,-43228473429274200000000000000000000,-6257963495827095000000000000000000,-8046533475523920000000000000000000,-74571141446821510000000000000000000,-58618624470224000000000000000000000,-191343152753939500000000000000000000,-21683505543729857000000000000000000,-5949274589338736000000000000000000,-129233728317951880000000000000000000,-89293626338036000000000000000000000,-147476396483448250000000000000000000,-130813269614324500000000000000000000,-221602547643538600000000000000000000,-224657792584691860000000000000000000,-28028550511473606000000000000000000,-68843160520348650000000000000000000,-30596866957935750000000000000000000,-61355138632796580000000000000000000,-32873504812657640000000000000000000,-36402730680188020000000000000000000,-108497247141735760000000000000000000,-148065979591981880000000000000000000,-32495685326629525000000000000000000,-13397386455864725000000000000000000,-155226658737519080000000000000000000,10934859503486940000000000000000000,-133322645986939000000000000000000000,-13937743971974960000000000000000000,-45379908689515620000000000000000000,-68654405461957645000000000000000000,-57067287320059470000000000000000000,-72190816465542460000000000000000000,-110617839135241230000000000000000000,-160768494687876740000000000000000000,-49560792488394060000000000000000000,-146564633097668970000000000000000000,-106938452098191910000000000000000000,-126541160903255550000000000000000000,-72836605541096500000000000000000000,-51040071402548290000000000000000000,-130324702639377690000000000000000000,-67543651256387390000000000000000000,-32166906124126380000000000000000000,-94620276525494320000000000000000000,-13150083639780505000000000000000000,-68281894300514290000000000000000000,-79874404048481970000000000000000000,-92242772873464700000000000000000000,-82404444125258290000000000000000000,-13832099631526768000000000000000000,-48614770612983120000000000000000000,-153653667698465950000000000000000000,-84779660184117030000000000000000000,-27711895299149845000000000000000000,-35077172178952400000000000000000000,-13697351550383882000000000000000000,-35683756769134067000000000000000000,-62286238584075820000000000000000000,-122448982833157220000000000000000000,-96554958032486580000000000000000000,-281720449569027500000000000000000000,-88061060866814100000000000000000000,-92236501072410870000000000000000000,-52218889123292715000000000000000000,-254830069400152500000000000000000000,-55739734667131585000000000000000000,-120328761263183350000000000000000000,-77420276560726690000000000000000000,-73060135495015100000000000000000000,-109449831968440160000000000000000000,-2375101471818370400000000000000000,-6677523551634257000000000000000000,-82688058081613510000000000000000000,-110827731499076380000000000000000000,-249394002821580350000000000000000000,-87289712591638300000000000000000000,-25438627542743613000000000000000000,-106919373808664360000000000000000000,-173881585496576440000000000000000000,5544835686935373000000000000000000,3008485158914146000000000000000000,-29740434252955940000000000000000000,-126373774914451610000000000000000000,-91793178432032960000000000000000000,-4627080081456796000000000000000,-104170250325432600000000000000000000,0.2867569305,-170419806806896660000000000000000000,-183672401246570270000000000000000000,-238258274804701970000000000000000000,-133560339252821370000000000000000000,-51486443296449110000000000000000000,-19496675623846018000000000000000000,6319811406561692000000000000000000,-26386075176349420000000000000000000,-70142306934152180000000000000000000,60314511664587220000000000000000000,-3640561884284934400000000000000000,-12708627569651977000000000000000000,-212905414751385870000000000000000000,-105526126628761080000000000000000000,-174154773491561500000000000000000000,-154177736268154700000000000000000000,-261316593295639900000000000000000000,-142145652384619790000000000000000000,-39892231658119900000000000000000000,-81482763926757940000000000000000000,23483939661266624000000000000000000,-72524342829457235000000000000000000,-46867999094773140000000000000000000,-55493372852030740000000000000000000,-173379667168001200000000000000000000,-174633221175030900000000000000000000,-39578227389755677000000000000000000,-16540038866294787000000000000000000,-183257935438300900000000000000000000,10257062242280984000000000000000000,72313231625406250000000000000000000,-72130260546586300000000000000000000,-68265927975582730000000000000000000,-105858608317210650000000000000000000,-95724636661063290000000000000000000,-85224709157731980000000000000000000,-132363356921989200000000000000000000,-229501179815886000000000000000000000,-58709103806994340000000000000000000,-239600346251417920000000000000000000,-126125032609283190000000000000000000,-149429387911907350000000000000000000,-39287842806969880000000000000000000,-60270580165923380000000000000000000,-200364869504408000000000000000000000,-70552869555848325000000000000000000,6649187371685962000000000000000000,-112034963887796570000000000000000000,-35046932247475477000000000000000000,-80798883331333250000000000000000000,-35248951969256973000000000000000000,-109193280091449550000000000000000000,-114472224668035480000000000000000000,-22964411915005674000000000000000000,-73862984354519380000000000000000000,-227471856852169700000000000000000000,-100266585426216950000000000000000000,-32736425414049328000000000000000000,-43636602269876220000000000000000000,-10211442089977547000000000000000000,6312270709769178000000000000000000,-73536760597083950000000000000000000,-176024082105791030000000000000000000,-151535868597841100000000000000000000,-333152045125348500000000000000000000,7973874996853144000000000000000000,-108777986746798630000000000000000000,-64518884949469640000000000000000000,-300970242867994120000000000000000000,-66318321598268225000000000000000000,-197183491136759150000000000000000000,-94056886466722870000000000000000000,-93566883578900750000000000000000000,-171491107656810180000000000000000000,-8543148862513027000000000000000000,-32275777370430763000000000000000000,-97510007383814600000000000000000000,-181495914544759200000000000000000000,-294836653080538730000000000000000000,15207731533885473000000000000000000,-24971172137034273000000000000000000,-5634117198079359000000000000000000,-280193496045719000000000000000000000,31112728902894863000000000000000000,27010372994106310000000000000000000,-35819610479787010000000000000000000,-20348480777632806000000000000000000,-108498317599438890000000000000000000,8107355981692257000000000000000000,-175721836726309480000000000000000000,0.8113919429,-144264954026440930000000000000000000,-110792838587172470000000000000000000,-153523319585046420000000000000000000,-94664589868702720000000000000000000,-43202105562555575000000000000000000,-50495100147818470000000000000000000,-17040386450531670000000000000000000,-62682358867052730000000000000000000,-58585530271775000000000000000000000,-137714285729129810000000000000000000,-21590526772798647000000000000000000,-9924462351337277000000000000000000,-129114173587762320000000000000000000,-89253073340723830000000000000000000,-147413093515658530000000000000000000,-130765097192193600000000000000000000,-221517894147002300000000000000000000,-150967948133532420000000000000000000,-28006440271808143000000000000000000,-68808397845096020000000000000000000,-63975611305613770000000000000000000,-61326835847580490000000000000000000,-32847510807569760000000000000000000,-36371450349209146000000000000000000,-108399692839991630000000000000000000,-148008524953225570000000000000000000,-32474993240993467000000000000000000,-13388693787158623000000000000000000,-155161406253640520000000000000000000,-18799913660150695000000000000000000,-91387524112913000000000000000000000,-113389158203885600000000000000000000,-45341490485714580000000000000000000,-68594657647664560000000000000000000,-57014353709875040000000000000000000,-72160539006604480000000000000000000,-110555114081196680000000000000000000,-160641144541173220000000000000000000,-49534393799456510000000000000000000,-146430435993880960000000000000000000,-106896988901074140000000000000000000,-126486927101402320000000000000000000,-54483612039442405000000000000000000,-51018235561547240000000000000000000,-130211649368301530000000000000000000,-86081981194678600000000000000000000,-42754370193382570000000000000000000,-94571308535344560000000000000000000,-60142094193120490000000000000000000,-68247963450617410000000000000000000,-63808071065588510000000000000000000,-92195780925845240000000000000000000,-82341564639099840000000000000000000,-13819287222106833000000000000000000,-48573145473142755000000000000000000,-153525996295157140000000000000000000,-84739052234651400000000000000000000,-27699678982066550000000000000000000,-35054170674841228000000000000000000,-49868646717466590000000000000000000,-46101044504996970000000000000000000,-62259979995748080000000000000000000,-122351039646275630000000000000000000,-96469493166531520000000000000000000,-281586387648522250000000000000000000,-64202803246542880000000000000000000,-92200943978313100000000000000000000,-52172418263911610000000000000000000,-254719520520429400000000000000000000,-55706247174040535000000000000000000,-120218379154748260000000000000000000,-77371156197319720000000000000000000,-73010263151279590000000000000000000,-109353091585925280000000000000000000,-39149956703306846000000000000000000,-9182051499809533000000000000000000,-82656381940721770000000000000000000,-110726114695970800000000000000000000,-249277773257579100000000000000000000,-59708776082509180000000000000000000,-45924123154459950000000000000000000,-115685129215714500000000000000000000,-173724191582038980000000000000000000,-44255924150348230000000000000000000,-39445919875133500000000000000000000,-20330841559343303000000000000000000,-92929981193889120000000000000000000,-91750978065419240000000000000000000,-12524093887723933000000000000000000,-104155142163166740000000000000000000,-0.1851505564,-144264954026440930000000000000000000,-110792838587172470000000000000000000,-153523319585046420000000000000000000,-94664589868702720000000000000000000,-43202105562555575000000000000000000,-58192039408952910000000000000000000,-17457649038633860000000000000000000,-21631941709034204000000000000000000,-58585530271775000000000000000000000,-16621566931352020000000000000000000,-11420071978908667000000000000000000,-12142828422120068000000000000000000,-129114173587762320000000000000000000,-89253073340723830000000000000000000,-147413093515658530000000000000000000,-130765097192193600000000000000000000,-221517894147002300000000000000000000,-5632291393006209000000000000000000,-28006440271808143000000000000000000,-68808397845096020000000000000000000,-65166275022287750000000000000000000,-61326835847580490000000000000000000,-32847510807569760000000000000000000,-36371450349209146000000000000000000,-108399692839991630000000000000000000,-148008524953225570000000000000000000,-32474993240993467000000000000000000,-13388693787158623000000000000000000,-155161406253640520000000000000000000,-26137763507335650000000000000000000,-4369653814916683000000000000000000,-143303767154968850000000000000000000,-45341490485714580000000000000000000,-68594657647664560000000000000000000,-57014353709875040000000000000000000,-72160539006604480000000000000000000,-110555114081196680000000000000000000,-160641144541173220000000000000000000,-49534393799456510000000000000000000,-146430435993880960000000000000000000,-106896988901074140000000000000000000,-126486927101402320000000000000000000,-9882160195294183000000000000000000,-51018235561547240000000000000000000,-130211649368301530000000000000000000,-86081981194678600000000000000000000,-32530923556412110000000000000000000,-94571308535344560000000000000000000,-71538521093853950000000000000000000,-68247963450617410000000000000000000,-17789002372493993000000000000000000,-92195780925845240000000000000000000,-82341564639099840000000000000000000,-13819287222106833000000000000000000,-48573145473142755000000000000000000,-153525996295157140000000000000000000,-84739052234651400000000000000000000,-27699678982066550000000000000000000,-35054170674841228000000000000000000,-49868646717466590000000000000000000,-34203480178067213000000000000000000,-62259979995748080000000000000000000,-122351039646275630000000000000000000,-96469493166531520000000000000000000,-281586387648522250000000000000000000,-9021961710495815000000000000000000,-92200943978313100000000000000000000,-52172418263911610000000000000000000,-254719520520429400000000000000000000,-55706247174040535000000000000000000,-120218379154748260000000000000000000,-77371156197319720000000000000000000,-73010263151279590000000000000000000,-109353091585925280000000000000000000,-42268306265128770000000000000000000,-5393180212587251000000000000000000,-82656381940721770000000000000000000,-110726114695970800000000000000000000,-249277773257579100000000000000000000,-2736705125341159600000000000000000,-45924123154459950000000000000000000,-69795221682927630000000000000000000,-173724191582038980000000000000000000,-64188919458603640000000000000000000,-56351615686002040000000000000000000,-6368514747253458000000000000000000,-14306715933336616000000000000000000,-91750978065419240000000000000000000,-17418417214504511000000000000000000,-104155142163166740000000000000000000,0.7269109782,-144264954026440930000000000000000000,-110792838587172470000000000000000000,-153523319585046420000000000000000000,-94664589868702720000000000000000000,-43202105562555575000000000000000000,-40649014843251690000000000000000000,-47156827248308960000000000000000000,-153584692581998700000000000000000000,-58585530271775000000000000000000000,-305799215675720100000000000000000000,-55715744828308230000000000000000000,-7201667565485346000000000000000000,-129114173587762320000000000000000000,-89253073340723830000000000000000000,-147413093515658530000000000000000000,-130765097192193600000000000000000000,-221517894147002300000000000000000000,-320968480372182930000000000000000000,-28006440271808143000000000000000000,-68808397845096020000000000000000000,-176996298296220560000000000000000000,-61326835847580490000000000000000000,-32847510807569760000000000000000000,-36371450349209146000000000000000000,-108399692839991630000000000000000000,-148008524953225570000000000000000000,-32474993240993467000000000000000000,-13388693787158623000000000000000000,-155161406253640520000000000000000000,-18619895499146916000000000000000000,-195375789155787440000000000000000000,-84920622758599270000000000000000000,-45341490485714580000000000000000000,-68594657647664560000000000000000000,-57014353709875040000000000000000000,-72160539006604480000000000000000000,-110555114081196680000000000000000000,-160641144541173220000000000000000000,-49534393799456510000000000000000000,-146430435993880960000000000000000000,-106896988901074140000000000000000000,-126486927101402320000000000000000000,-124730415819587690000000000000000000,-51018235561547240000000000000000000,-130211649368301530000000000000000000,-86081981194678600000000000000000000,-115259952042547450000000000000000000,-94571308535344560000000000000000000,-47456243149577270000000000000000000,-68247963450617410000000000000000000,-152581509421374450000000000000000000,-92195780925845240000000000000000000,-82341564639099840000000000000000000,-13819287222106833000000000000000000,-48573145473142755000000000000000000,-153525996295157140000000000000000000,-84739052234651400000000000000000000,-27699678982066550000000000000000000,-35054170674841228000000000000000000,-49868646717466590000000000000000000,-123981813612709600000000000000000000,-62259979995748080000000000000000000,-122351039646275630000000000000000000,-96469493166531520000000000000000000,-281586387648522250000000000000000000,-143955884050196260000000000000000000,-92200943978313100000000000000000000,-52172418263911610000000000000000000,-254719520520429400000000000000000000,-55706247174040535000000000000000000,-120218379154748260000000000000000000,-77371156197319720000000000000000000,-73010263151279590000000000000000000,-109353091585925280000000000000000000,-32386800099354505000000000000000000,-24780911048173705000000000000000000,-82656381940721770000000000000000000,-110726114695970800000000000000000000,-249277773257579100000000000000000000,-127489680077305000000000000000000000,-45924123154459950000000000000000000,-303167662950757780000000000000000000,-173724191582038980000000000000000000,-106502173324091240000000000000000000,-97361352366869810000000000000000000,-50560599699923280000000000000000000,-209778135541118570000000000000000000,-91750978065419240000000000000000000,-31920624724533640000000000000000000,-104155142163166740000000000000000000,-0.836809827,-144264954026440930000000000000000000,-110792838587172470000000000000000000,-153523319585046420000000000000000000,-94664589868702720000000000000000000,-43202105562555575000000000000000000,-51544470332502350000000000000000000,-20870466476724404000000000000000000,-73576768298955940000000000000000000,-58585530271775000000000000000000000,-157114675778658090000000000000000000,-25786239608907810000000000000000000,-10131576213144024000000000000000000,-129114173587762320000000000000000000,-89253073340723830000000000000000000,-147413093515658530000000000000000000,-130765097192193600000000000000000000,-221517894147002300000000000000000000,-169396811470280930000000000000000000,-28006440271808143000000000000000000,-68808397845096020000000000000000000,-78344008768188685000000000000000000,-61326835847580490000000000000000000,-32847510807569760000000000000000000,-36371450349209146000000000000000000,-108399692839991630000000000000000000,-148008524953225570000000000000000000,-32474993240993467000000000000000000,-13388693787158623000000000000000000,-155161406253640520000000000000000000,-19186431125159347000000000000000000,-103220181238490750000000000000000000,-115734805939508130000000000000000000,-45341490485714580000000000000000000,-68594657647664560000000000000000000,-57014353709875040000000000000000000,-72160539006604480000000000000000000,-110555114081196680000000000000000000,-160641144541173220000000000000000000,-49534393799456510000000000000000000,-146430435993880960000000000000000000,-106896988901074140000000000000000000,-126486927101402320000000000000000000,-62656528106739060000000000000000000,-51018235561547240000000000000000000,-130211649368301530000000000000000000,-86081981194678600000000000000000000,-51837414515916270000000000000000000,-94571308535344560000000000000000000,-61394357481861860000000000000000000,-68247963450617410000000000000000000,-74333199274929400000000000000000000,-92195780925845240000000000000000000,-82341564639099840000000000000000000,-13819287222106833000000000000000000,-48573145473142755000000000000000000,-153525996295157140000000000000000000,-84739052234651400000000000000000000,-27699678982066550000000000000000000,-35054170674841228000000000000000000,-49868646717466590000000000000000000,-55846538847337120000000000000000000,-62259979995748080000000000000000000,-122351039646275630000000000000000000,-96469493166531520000000000000000000,-281586387648522250000000000000000000,-73422184491347440000000000000000000,-92200943978313100000000000000000000,-52172418263911610000000000000000000,-254719520520429400000000000000000000,-55706247174040535000000000000000000,-120218379154748260000000000000000000,-77371156197319720000000000000000000,-73010263151279590000000000000000000,-109353091585925280000000000000000000,-39960328983237896000000000000000000,-10282497415225618000000000000000000,-82656381940721770000000000000000000,-110726114695970800000000000000000000,-249277773257579100000000000000000000,-67387986491339060000000000000000000,-45924123154459950000000000000000000,-138903872525754220000000000000000000,-173724191582038980000000000000000000,-52598136237697790000000000000000000,-47154261896509850000000000000000000,-23019080331635690000000000000000000,-106463249714953530000000000000000000,-91750978065419240000000000000000000,-15082652794327200000000000000000000,-104155142163166740000000000000000000,0.8756617091,-144264954026440930000000000000000000,-110792838587172470000000000000000000,-153523319585046420000000000000000000,-94664589868702720000000000000000000,-43202105562555575000000000000000000,-45940234474316110000000000000000000,-54481429767069970000000000000000000,-169937747345312630000000000000000000,-58585530271775000000000000000000000,-331496797162221700000000000000000000,-62461820528838680000000000000000000,-8541538601364138000000000000000000,-129114173587762320000000000000000000,-89253073340723830000000000000000000,-147413093515658530000000000000000000,-130765097192193600000000000000000000,-221517894147002300000000000000000000,-343925830984694200000000000000000000,-28006440271808143000000000000000000,-68808397845096020000000000000000000,-204419056877862740000000000000000000,-61326835847580490000000000000000000,-32847510807569760000000000000000000,-36371450349209146000000000000000000,-108399692839991630000000000000000000,-148008524953225570000000000000000000,-32474993240993467000000000000000000,-13388693787158623000000000000000000,-155161406253640520000000000000000000,-23416820616606964000000000000000000,-209872588183270170000000000000000000,-103516051674933600000000000000000000,-45341490485714580000000000000000000,-68594657647664560000000000000000000,-57014353709875040000000000000000000,-72160539006604480000000000000000000,-110555114081196680000000000000000000,-160641144541173220000000000000000000,-49534393799456510000000000000000000,-146430435993880960000000000000000000,-106896988901074140000000000000000000,-126486927101402320000000000000000000,-136099350279341130000000000000000000,-51018235561547240000000000000000000,-130211649368301530000000000000000000,-86081981194678600000000000000000000,-131124600650887870000000000000000000,-94571308535344560000000000000000000,-54116953481459300000000000000000000,-68247963450617410000000000000000000,-167933122734303600000000000000000000,-92195780925845240000000000000000000,-82341564639099840000000000000000000,-13819287222106833000000000000000000,-48573145473142755000000000000000000,-153525996295157140000000000000000000,-84739052234651400000000000000000000,-27699678982066550000000000000000000,-35054170674841228000000000000000000,-49868646717466590000000000000000000,-140884977215248580000000000000000000,-62259979995748080000000000000000000,-122351039646275630000000000000000000,-96469493166531520000000000000000000,-281586387648522250000000000000000000,-156408649280050600000000000000000000,-92200943978313100000000000000000000,-52172418263911610000000000000000000,-254719520520429400000000000000000000,-55706247174040535000000000000000000,-120218379154748260000000000000000000,-77371156197319720000000000000000000,-73010263151279590000000000000000000,-109353091585925280000000000000000000,-36161821994719704000000000000000000,-27163558155595276000000000000000000,-82656381940721770000000000000000000,-110726114695970800000000000000000000,-249277773257579100000000000000000000,-136909567722176040000000000000000000,-45924123154459950000000000000000000,-341536925775683600000000000000000000,-173724191582038980000000000000000000,-126866886356797060000000000000000000,-115682851347740910000000000000000000,-54729284357761520000000000000000000,-228258250118442970000000000000000000,-91750978065419240000000000000000000,-37786505250744124000000000000000000,-104155142163166740000000000000000000,-0.2372725971,-133835642000904940000000000000000000,-90994675289798440000000000000000000,-129791235289399970000000000000000000,-83439904495381250000000000000000000,-39952582747717510000000000000000000,-49823540123729700000000000000000000,-22445237628061524000000000000000000,-35328618678724413000000000000000000,-54456612397954070000000000000000000,-40623650409770510000000000000000000,-16721088666988934000000000000000000,-11725824894213311000000000000000000,-105233343124149730000000000000000000,-82840951284516560000000000000000000,-136763301597112180000000000000000000,-121185990768030700000000000000000000,-205345504258578300000000000000000000,-28554515816673660000000000000000000,-24588982704183736000000000000000000,-63921548582820340000000000000000000,-83869416804690250000000000000000000,-56928034405233810000000000000000000,-28818383026127260000000000000000000,-30995629740757026000000000000000000,-90513915694207220000000000000000000,-137217256641488600000000000000000000,-29864285343299526000000000000000000,-12276168996328164000000000000000000,-143929603928029040000000000000000000,-27214829105256164000000000000000000,-18725716255964208000000000000000000,-141240177429599460000000000000000000,-38875660888778240000000000000000000,-58145514874169960000000000000000000,-46454667310113810000000000000000000,-66935828507383470000000000000000000,-102758273226731850000000000000000000,-140860179722937760000000000000000000,-46038567087077070000000000000000000,-121005156351754600000000000000000000,-99102589957696220000000000000000000,-117347580500212790000000000000000000,-20116434152685743000000000000000000,-47331263643541640000000000000000000,-110523675863239370000000000000000000,-71089739322053410000000000000000000,-44151026491951760000000000000000000,-87873948462520740000000000000000000,-62203915089504030000000000000000000,-63392056061252060000000000000000000,-30997998614286390000000000000000000,-85654601724870380000000000000000000,-73022749427766030000000000000000000,-11336945215409475000000000000000000,-41458994546188660000000000000000000,-132547948449983130000000000000000000,-78685169202542830000000000000000000,-25703723181955587000000000000000000,-32086302638826370000000000000000000,-41788392495651490000000000000000000,-46654862781639675000000000000000000,-57754334286925390000000000000000000,-106964595787844980000000000000000000,-81168557392651120000000000000000000,-261455464479840300000000000000000000,-20496516737458768000000000000000000,-85474814540066800000000000000000000,-42741153334951860000000000000000000,-236336263981941500000000000000000000,-51595445135719760000000000000000000,-99233741313579220000000000000000000,-71189637482376450000000000000000000,-66383435514749500000000000000000000,-92070968041845280000000000000000000,-36059065692700150000000000000000000,-6964650843983592000000000000000000,-76623312537474765000000000000000000,-91426189915259720000000000000000000,-231417082125231070000000000000000000,-12079042744495140000000000000000000,-38161950229296906000000000000000000,-99241880808819000000000000000000000,-144514077386086780000000000000000000,-75720881460936120000000000000000000,-66935460140584890000000000000000000,-9686742565779979000000000000000000,-31196073970512695000000000000000000,-85167659816697950000000000000000000,-20900181853892766000000000000000000,-86477062209727270000000000000000000,-0.5161319,-5655949127056240000000000000000000000,-754751786860567300000000000000000000,-4213173649214942000000000000000000,1111195748945361000000000000000000000,-1522285424202143000000000000000000000,5218923812953516000000000000000000000,3458956445797781600000000000000000000,1701254321100841400000000000000000000,-2468658385260348500000000000000000000,-5548903964639332000000000000000000000,1690675092082325500000000000000000000,1234842518527762800000000000000000000,-725673485375983800000000000000000000,-3572964789489244000000000000000000000,-5784776146012485000000000000000000000,-5117991517322191600000000000000000000,-8687729816986549000000000000000000000,-9335408886462209000000000000000000000,296605699244657570000000000000000000,-2893646646537388000000000000000000000,12894679119656993000000000000000000000,-2475216444330857000000000000000000000,340660835561470700000000000000000000,67758751770683130000000000000000000,-343493166920007400000000000000000000,-5796646643918386000000000000000000000,-661617975628529500000000000000000000,-193147395182040500000000000000000000,-6072835490999869000000000000000000000,4624783737361820600000000000000000000,-5647914181712857000000000000000000000,18717005185791142000000000000000000000,149481010614902980000000000000000000,45515069125580070000000000000000000,-352692873208886840000000000000000000,-2823676432355791000000000000000000000,-4656968017647023700000000000000000000,1639649772600209700000000000000000000,-2082864401197219200000000000000000000,-836023825661587300000000000000000000,-4186856288097114600000000000000000000,-4962550738275641000000000000000000000,-1143599495809983700000000000000000000,-2001137960376881200000000000000000000,127938580379250810000000000000000000,2143164077652823500000000000000000000,5907684602767591000000000000000000000,-3979402652584268000000000000000000000,6454478096383289000000000000000000000,-2861804204008798000000000000000000000,516568368153910000000000000000000000,-3879763519227716400000000000000000000,1106828505775614600000000000000000000,-95838792168695790000000000000000000,106106862428128590000000000000000000,822893519894251000000000000000000000,-3496905962053175000000000000000000000,-1094355035143421800000000000000000000,-405477594593773300000000000000000000,3238730589884950000000000000000000000,6152499743627576000000000000000000000,-2437491498741284600000000000000000000,1138265235826260000000000000000000000,-121243381261784490000000000000000000,-11576925824697872000000000000000000000,-2183997758416607200000000000000000000,-3613024715120839400000000000000000000,355017266727026600000000000000000000,-10014643907733878000000000000000000000,-2174139576014902400000000000000000000,-715451497042250800000000000000000000,-1671510267110418000000000000000000000,-137388205352546850000000000000000000,-118092936252243680000000000000000000,3729712108384146400000000000000000000,-0.0000647728,-3240835334520232600000000000000000000,-651591449704116940000000000000000000,-10124649447146135000000000000000000000,-3721325283374874700000000000000000000,1992800558262777200000000000000000000,11368339821928151000000000000000000000,-720804199484883600000000000000000000,13328790137889692000000000000000000000,11717059287562490000000000000000000000,1943194885296003600000000000000000000,-2761943212124399700000000000000000000,-3696290777865140000000000000000000000,3617974760364602000000000000000000000,-5191557771846912700000000000000000000,0.0714157454,-144264954026580980000000000000000000,-110792838587461920000000000000000000,-153523319585418680000000000000000000,-94664589868900490000000000000000000,-43202105562621950000000000000000000,-46259655251754870000000000000000000,-58362131140422190000000000000000000,-179202754540949650000000000000000000,-58585530271856360000000000000000000,-346227443059057440000000000000000000,-66230178797390450000000000000000000,-8775286900225501000000000000000000,-129114173588103290000000000000000000,-89253073340815030000000000000000000,-147413093515797320000000000000000000,-130765097192290700000000000000000000,-221517894147177200000000000000000000,-355650645116430000000000000000000000,-28006440271867690000000000000000000,-68808397845177590000000000000000000,-218957078765145850000000000000000000,-61326835847645740000000000000000000,-32847510807639730000000000000000000,-36371450349295170000000000000000000,-108399692840263950000000000000000000,-148008524953344680000000000000000000,-32474993241046087000000000000000000,-13388693787181090000000000000000000,-155161406253781980000000000000000000,-25207784105411347000000000000000000,-217991671243326450000000000000000000,-108130043966576900000000000000000000,-45341490485826690000000000000000000,-68594657647829540000000000000000000,-57014353710025955000000000000000000,-72160539006671640000000000000000000,-110555114081351260000000000000000000,-160641144541516070000000000000000000,-49534393799520010000000000000000000,-146430435994258250000000000000000000,-106896988901161500000000000000000000,-126486927101521720000000000000000000,-142620412225335860000000000000000000,-51018235561595350000000000000000000,-130211649368613300000000000000000000,-86081981194888900000000000000000000,-139774923480037280000000000000000000,-94571308535460680000000000000000000,-54697810075890320000000000000000000,-68247963450696650000000000000000000,-176679315600433580000000000000000000,-92195780925956230000000000000000000,-82341564639267460000000000000000000,-13819287222143035000000000000000000,-48573145473264530000000000000000000,-153525996295505090000000000000000000,-84739052234746650000000000000000000,-27699678982093427000000000000000000,-35054170674900260000000000000000000,-49868646717581420000000000000000000,-150122583395705000000000000000000000,-62259979995804965000000000000000000,-122351039646539950000000000000000000,-96469493166768780000000000000000000,-281586387648829430000000000000000000,-163553780726500500000000000000000000,-92200943978386840000000000000000000,-52172418264044890000000000000000000,-254719520520672300000000000000000000,-55706247174124500000000000000000000,-120218379155058800000000000000000000,-77371156197444720000000000000000000,-73010263151408840000000000000000000,-109353091586193710000000000000000000,-36229265022102226000000000000000000,-27184143893707610000000000000000000,-82656381940787110000000000000000000,-110726114696256690000000000000000000,-249277773257842780000000000000000000,-142149024547597580000000000000000000,-45924123154576560000000000000000000,-362815905787410640000000000000000000,-173724191582479520000000000000000000,-136942746785258300000000000000000000,-124811750400261220000000000000000000,-55446569929466895000000000000000000,-238866068755702160000000000000000000,-91750978065515120000000000000000000,-40737790626167580000000000000000000,-104155142163311580000000000000000000,0.3830833335,-319374725338965950000000000000000000,-1507290179065091700000000000000000000,-1647489482471885600000000000000000000,835351067394945400000000000000000000,513565661939946000000000000000000000,5308368574843014000000000000000000000,347350203505579340000000000000000000,-3791888903307686600000000000000000000,73359314187774260000000000000000000,-6295093946412352000000000000000000000,-1166781425963776400000000000000000000,1346927186706268700000000000000000000,-1353588646639086000000000000000000000,-24838376534501513000000000000000000,-284237731135802560000000000000000000,-1123754236583497100000000000000000000,-1632251415294753200000000000000000000,-5568638024715470000000000000000000000,174927532663184730000000000000000000,23240038831170122000000000000000000,1223539459316879600000000000000000000,-3832850951890859000000000000000000,190019755446580100000000000000000000,-305946216381481800000000000000000000,-1350355468441706800000000000000000000,-993497785383903500000000000000000000,556830421698141300000000000000000000,257816282613571050000000000000000000,-435843884774289150000000000000000000,4035838057006289000000000000000000000,-3382044224580838000000000000000000000,18444279462478535000000000000000000000,-296066355234644920000000000000000000,-689999213719483100000000000000000000,-634164021030712040000000000000000000,-210373724271676540000000000000000000,165735522634137470000000000000000000,874002716646824500000000000000000000,14201791169525286000000000000000000,-1991291650805233200000000000000000000,-721292802446708000000000000000000000,-251951324130336750000000000000000000,-2860409554018678400000000000000000000,-105418018118426830000000000000000000,-1250825624756663800000000000000000000,2512605625119896000000000000000000000,-1363896511116657800000000000000000000,36328406000361270000000000000000000,6691362679747193000000000000000000000,21766944698953220000000000000000000,-3795648735237217000000000000000000000,32795655723859963000000000000000000,1068043296837168300000000000000000000,-185723514779724800000000000000000000,-387994812427304300000000000000000000,-551752930214760560000000000000000000,23210687237853160000000000000000000,-27365592882076424000000000000000000,709007860111720300000000000000000000,3168817514237005400000000000000000000,-1602493681966755000000000000000000000,-166738797311464600000000000000000000,433980785038175000000000000000000000,-1121931338302242500000000000000000000,64180366396191610000000000000000000,-3076174128786327000000000000000000000,-644541183550549460000000000000000000,329276969737008400000000000000000000,-379768377024518800000000000000000000,530834846473383650000000000000000000,-1646814952758069000000000000000000000,1292615702280772200000000000000000000,1613475293312144000000000000000000000,-1260255439878633500000000000000000000,3704928136613816000000000000000000000,-106338948213307480000000000000000000,-599461696989719400000000000000000000,-1514297647577647000000000000000000000,11128344416806347000000000000000000,-2201108904492825800000000000000000000,2022015620840278000000000000000000000,-5662528706362623000000000000000000000,-2203800059231102000000000000000000000,6490712850107403000000000000000000000,5409717090895989000000000000000000000,-2023399481786046200000000000000000000,-4589397299205605000000000000000000000,-9558054867184760000000000000000000,1530440015732326700000000000000000000,-10770993949683058000000000000000000000,-0.6569585307,-170434074769811400000000000000000000,-141661500332940040000000000000000000,-189937816341412040000000000000000000,-114955217123267760000000000000000000,-51514644419293350000000000000000000,-13639114368360818000000000000000000,9441402110937906000000000000000000,-14520059545242900000000000000000000,-71485320082357450000000000000000000,-92093016097472910000000000000000000,-635632776254463400000000000000000,2099802406918508500000000000000000,-159555149196444690000000000000000000,-105535990453404560000000000000000000,-174169580099478550000000000000000000,-154187619290482100000000000000000000,-261334560882396900000000000000000000,-137924304864510800000000000000000000,-34040043739795450000000000000000000,-81518098005510435000000000000000000,35108480899285057000000000000000000,-72531285726022220000000000000000000,-39930344026877230000000000000000000,-44798729524361550000000000000000000,-136088332952645230000000000000000000,-174645600797575150000000000000000000,-38829818776405440000000000000000000,-16031564493652960000000000000000000,-183272965552120070000000000000000000,14887463535727537000000000000000000,-77050330910233770000000000000000000,-78824766349484770000000000000000000,-55655795968871630000000000000000000,-84740135796079540000000000000000000,-72053119255881510000000000000000000,-85231655783688500000000000000000000,-134871998803058280000000000000000000,-195302775861960900000000000000000000,-58908148381503360000000000000000000,-185956950942470970000000000000000000,-126133945446980610000000000000000000,-149442053051911580000000000000000000,-29112699379021460000000000000000000,-60275672021361980000000000000000000,-160736783452149160000000000000000000,-40185091197772660000000000000000000,11018756889305900000000000000000000,-112224872788833010000000000000000000,-32135001898576365000000000000000000,-80807605667000740000000000000000000,-21765377204520563000000000000000000,-109289754614021320000000000000000000,-99849739085172030000000000000000000,-17691709998993430000000000000000000,-59775976209008730000000000000000000,-187686725580382050000000000000000000,-100276782049075000000000000000000000,-32739339978515147000000000000000000,-42008621018564360000000000000000000,5766457439215449000000000000000000,10766500032435555000000000000000000,-73542823329426660000000000000000000,-148846958644190630000000000000000000,-120044403351960830000000000000000000,-333185641308796000000000000000000000,-39985761663891746000000000000000000,-108785598916662570000000000000000000,-44463096237157970000000000000000000,-300996305641225040000000000000000000,-66434291080584430000000000000000000,-152858355141550950000000000000000000,-92486793105118050000000000000000000,-87777117967605230000000000000000000,-135967216674633270000000000000000000,-1470925511877017800000000000000000,-30477770558756072000000000000000000,-97516750307536870000000000000000000,-140741206642327590000000000000000000,-294865408303603970000000000000000000,-50794793873027135000000000000000000,-9434086145645912000000000000000000,6849080940711758000000000000000000,-219013633696608630000000000000000000,44887551753527320000000000000000000,39060238762495004000000000000000000,-44378475949498790000000000000000000,-55071453239808860000000000000000000,-108508659620670700000000000000000000,11786429234898885000000000000000000,-144487965498910060000000000000000000,0.5275738125,-170431125819220600000000000000000000,-141648558529473500000000000000000000,-189921680683672140000000000000000000,-114947108718311400000000000000000000,-51613747274023570000000000000000000,-16404340709812759000000000000000000,9752108889617810000000000000000000,-2473531662725648000000000000000000,-71673143942064540000000000000000000,-63949357308361720000000000000000000,2202389099515723200000000000000000,-17627691381412972000000000000000000,-158995796918645740000000000000000000,-105533666387460120000000000000000000,-174166435220335440000000000000000000,-154186357918234750000000000000000000,-261331854203319180000000000000000000,-116164310799220250000000000000000000,-34037591805961930000000000000000000,-81515645331983510000000000000000000,36305459625635040000000000000000000,-72529616966747780000000000000000000,-39927455554626240000000000000000000,-44795038756412810000000000000000000,-136076350264726670000000000000000000,-174643611860696760000000000000000000,-38827873586453770000000000000000000,-16030735964564460000000000000000000,-183269913695947600000000000000000000,15088349950435403000000000000000000,-60832903446618020000000000000000000,-106000228917142160000000000000000000,-55651376391352970000000000000000000,-84733012341635510000000000000000000,-71886864755689580000000000000000000,-85230263885834300000000000000000000,-135244861122507160000000000000000000,-195288605468649300000000000000000000,-58942548661335085000000000000000000,-185940161088674620000000000000000000,-126132529005376330000000000000000000,-149439375887287380000000000000000000,-16753819959818940000000000000000000,-60274600291223910000000000000000000,-160723340259031860000000000000000000,-36629105977164955000000000000000000,13600890725925263000000000000000000,-112221278841703790000000000000000000,-39335845274381230000000000000000000,-80805277561704360000000000000000000,-7403464944675557000000000000000000,-109286393782837350000000000000000000,-99842933197837290000000000000000000,-17690092188697356000000000000000000,-59771146186671745000000000000000000,-187672028657565570000000000000000000,-100274195739345280000000000000000000,-32738686088165974000000000000000000,-42006402877105880000000000000000000,9140343680124938000000000000000000,13722967409025598000000000000000000,-73541583314316620000000000000000000,-148835983327286740000000000000000000,-120034056496076540000000000000000000,-333177150295488400000000000000000000,-26397664449112436000000000000000000,-108784408611082570000000000000000000,-43250039867499210000000000000000000,-300990644979014500000000000000000000,-66575649133778540000000000000000000,-152844518621942900000000000000000000,-92482193558768900000000000000000000,-87772147383491350000000000000000000,-135955520490846030000000000000000000,-884014041635517600000000000000000,-1537598255237608500000000000000000,-97515721191058770000000000000000000,-140728475806965480000000000000000000,-294858350567006600000000000000000000,-40239888830384240000000000000000000,-6991887549337960000000000000000000,18593441731908836000000000000000000,-218994168999351940000000000000000000,46820036616629730000000000000000000,40837688911280885000000000000000000,-85661501635966300000000000000000000,-34942147423040940000000000000000000,-108506178304748450000000000000000000,12346243431088445000000000000000000,-145535822594485170000000000000000000,-0.4009761114,-170433779253509600000000000000000000,-141653441798301500000000000000000000,-189928039528879200000000000000000000,-114950552701806700000000000000000000,-51513468805903080000000000000000000,-13754952192462214000000000000000000,10178553912401327000000000000000000,-2598702639209127000000000000000000,-71513710084023220000000000000000000,-65468468698086020000000000000000000,2312746275786110800000000000000000,38816017406930062000000000000000000,-146202210584790420000000000000000000,-105535437441697910000000000000000000,-174169172229371900000000000000000000,-154187619290481100000000000000000000,-261334560882395130000000000000000000,-119469166529861160000000000000000000,-34038625171316357000000000000000000,-81517189719020560000000000000000000,37890223534070847000000000000000000,-72530855860915860000000000000000000,-39928670744463850000000000000000000,-44796513378242670000000000000000000,-136080976226024300000000000000000000,-174645600797573900000000000000000000,-38828820626180120000000000000000000,-16031134537687636000000000000000000,-183272724118330360000000000000000000,16155451896790052000000000000000000,-62312084668326410000000000000000000,-99772779200215500000000000000000000,-55653180511898050000000000000000000,-84735833215976010000000000000000000,-66231542884791160000000000000000000,-85231566604411230000000000000000000,-134897433607329430000000000000000000,-195294560013645300000000000000000000,-58907308863562110000000000000000000,-185946542178497400000000000000000000,-126133945446979760000000000000000000,-149441719879663940000000000000000000,-17187394344210174000000000000000000,-60275543697603100000000000000000000,-160728675777166320000000000000000000,-29953202615153816000000000000000000,14203456434961393000000000000000000,-112223462289790440000000000000000000,-37162498913725900000000000000000000,-80806781274353600000000000000000000,-7685063310083889000000000000000000,-109288484168856500000000000000000000,-99845862336678200000000000000000000,-17690702533444111000000000000000000,-59773103318168780000000000000000000,-187678026333452320000000000000000000,-100275984271675560000000000000000000,-32739216904112930000000000000000000,-42007458832277650000000000000000000,12251492586089990000000000000000000,14337196435090037000000000000000000,-73542714933143010000000000000000000,-148840567292549170000000000000000000,-120038100536664720000000000000000000,-333183051058962450000000000000000000,-27031819474378070000000000000000000,-108785598916661820000000000000000000,-38628312000476270000000000000000000,-300995434274333800000000000000000000,-66432841905867560000000000000000000,-152849768811839900000000000000000000,-92484440748340650000000000000000000,-87774446117234600000000000000000000,-135960097172005790000000000000000000,1147918724000322500000000000000000,-12133420704406918000000000000000000,-97516750307536200000000000000000000,-140733308699005040000000000000000000,-294863449022046980000000000000000000,-41232233629687970000000000000000000,-3738870455205202600000000000000000,19513083013540865000000000000000000,-219001640086011100000000000000000000,48914287697938240000000000000000000,42642924064091080000000000000000000,-34627719591438060000000000000000000,-35791101563720665000000000000000000,-108508024968392070000000000000000000,12889024107281222000000000000000000,-145537284711500970000000000000000000,0.8101858866,-68678834714422600000000000000000000,-29156602055159917000000000000000000,-48151973694526830000000000000000000,-36407040255188753000000000000000000,-20240954830250325000000000000000000,7897969126862677000000000000000000,-54884027067478070000000000000000000,-186396924101176600000000000000000000,-27920991564772013000000000000000000,-372394770747088200000000000000000000,-67056540805951590000000000000000000,3086788707457635500000000000000000,14394643838266020000000000000000000,-42507933166941710000000000000000000,-70180790897641830000000000000000000,-62183241970497290000000000000000000,-105384726643247370000000000000000000,-387950114171257740000000000000000000,-10585399596144322000000000000000000,-32796219792752827000000000000000000,-206103516162343150000000000000000000,-29210844716700715000000000000000000,-12374625936726790000000000000000000,-11903126277949014000000000000000000,-31756737804731190000000000000000000,-70419954812510710000000000000000000,-14899694230762086000000000000000000,-6070848952993471000000000000000000,-73859658010828010000000000000000000,-13679032482717618000000000000000000,-237173451955010170000000000000000000,-39961904815517430000000000000000000,-15312097099868595000000000000000000,-21823432959469704000000000000000000,10517663468479724000000000000000000,-34349191985069317000000000000000000,-52651691529280240000000000000000000,-60370315783330310000000000000000000,-23619563531021970000000000000000000,-40387625116841990000000000000000000,-50859511135425730000000000000000000,-60217594473144090000000000000000000,-152027798896157410000000000000000000,-24288353923960666000000000000000000,-41722556086810280000000000000000000,-9294215667832105000000000000000000,-136824051743441800000000000000000000,-45084230413192320000000000000000000,16127226201433422000000000000000000,-32525125016957030000000000000000000,-185589696105354950000000000000000000,-43946358645978850000000000000000000,-32521602780856800000000000000000000,-3061379338637119000000000000000000,-16027995237022340000000000000000000,-53658870362328050000000000000000000,-40373269212751737000000000000000000,-13189664018994460000000000000000000,-15785148229575160000000000000000000,-6044724013280834000000000000000000,-147374926007806870000000000000000000,-29637434550500490000000000000000000,-45360634362876450000000000000000000,-29482791917276245000000000000000000,-134153479299034250000000000000000000,-175401635388495950000000000000000000,-43865942142621710000000000000000000,-1574280194814941300000000000000000,-121275956408588770000000000000000000,-26234531731957814000000000000000000,-32937978749533770000000000000000000,-35574084432844485000000000000000000,-31991371296621730000000000000000000,-33543862440285723000000000000000000,2224979857007041400000000000000000,-26426008310020270000000000000000000,-39323524530800360000000000000000000,-30392705599477347000000000000000000,-118743270495391130000000000000000000,-154732629977236680000000000000000000,-6751193338604455000000000000000000,-363351741006636300000000000000000000,-49810117156084555000000000000000000,-114108532706073400000000000000000000,-105445545933289150000000000000000000,-56736903059994380000000000000000000,-255658256914685300000000000000000000,-43701289949284730000000000000000000,-35062553319205705000000000000000000,-66732774774260170000000000000000000,-0.0121347906,-133835642000904940000000000000000000,-90994675289798440000000000000000000,-129791235289399970000000000000000000,-83439904495381250000000000000000000,-39952582747717510000000000000000000,-49823540123729700000000000000000000,-22117494583126570000000000000000000,-34338240857210044000000000000000000,-54456612397954070000000000000000000,-38779375828678050000000000000000000,-16357530319541461000000000000000000,-11760139864274630000000000000000000,-105233343124149730000000000000000000,-82840951284516560000000000000000000,-136763301597112180000000000000000000,-121185990768030700000000000000000000,-205345504258578300000000000000000000,-26514658153264423000000000000000000,-24588982704183736000000000000000000,-63921548582820340000000000000000000,-82639983523109490000000000000000000,-56928034405233810000000000000000000,-28818383026127260000000000000000000,-30995629740757026000000000000000000,-90513915694207220000000000000000000,-137217256641488600000000000000000000,-29864285343299526000000000000000000,-12276168996328164000000000000000000,-143929603928029040000000000000000000,-27165378083281642000000000000000000,-17605357638059077000000000000000000,-141460255185920600000000000000000000,-38875660888778240000000000000000000,-58145514874169960000000000000000000,-46454667310113810000000000000000000,-66935828507383470000000000000000000,-102758273226731850000000000000000000,-140860179722937760000000000000000000,-46038567087077070000000000000000000,-121005156351754600000000000000000000,-99102589957696220000000000000000000,-117347580500212790000000000000000000,-19330518719978230000000000000000000,-47331263643541640000000000000000000,-110523675863239370000000000000000000,-71089739322053410000000000000000000,-43376287318887050000000000000000000,-87873948462520740000000000000000000,-62203915089504030000000000000000000,-63392056061252060000000000000000000,-30022073158899770000000000000000000,-85654601724870380000000000000000000,-73022749427766030000000000000000000,-11336945215409475000000000000000000,-41458994546188660000000000000000000,-132547948449983130000000000000000000,-78685169202542830000000000000000000,-25703723181955587000000000000000000,-32086302638826370000000000000000000,-41788392495651490000000000000000000,-45823771049599460000000000000000000,-57754334286925390000000000000000000,-106964595787844980000000000000000000,-81168557392651120000000000000000000,-261455464479840300000000000000000000,-19610569671613157000000000000000000,-85474814540066800000000000000000000,-42741153334951860000000000000000000,-236336263981941500000000000000000000,-51595445135719760000000000000000000,-99233741313579220000000000000000000,-71189637482376450000000000000000000,-66383435514749500000000000000000000,-92070968041845280000000000000000000,-36059065692700150000000000000000000,-6614341444029151000000000000000000,-76623312537474765000000000000000000,-91426189915259720000000000000000000,-231417082125231070000000000000000000,-11340336972798405000000000000000000,-38161950229296906000000000000000000,-97251435185315530000000000000000000,-144514077386086780000000000000000000,-75004816420971000000000000000000000,-66273163006722170000000000000000000,-9199003840076217000000000000000000,-29892376052226300000000000000000000,-85167659816697950000000000000000000,-20680076293075440000000000000000000,-86477062209727270000000000000000000,-0.5399672691,-133835642000904940000000000000000000,-90994675289798440000000000000000000,-129791235289399970000000000000000000,-83439904495381250000000000000000000,-39952582747717510000000000000000000,-49739655234876560000000000000000000,-27309080199723996000000000000000000,-49669194242712480000000000000000000,-54456612397954070000000000000000000,-65944897574816110000000000000000000,-22178173195999753000000000000000000,-10666715010359440000000000000000000,-105233343124149730000000000000000000,-82840951284516560000000000000000000,-136763301597112180000000000000000000,-121185990768030700000000000000000000,-205345504258578300000000000000000000,-49934557116031040000000000000000000,-24588982704183736000000000000000000,-63921548582820340000000000000000000,-102121156914001940000000000000000000,-56928034405233810000000000000000000,-28818383026127260000000000000000000,-30995629740757026000000000000000000,-90513915694207220000000000000000000,-137217256641488600000000000000000000,-29864285343299526000000000000000000,-12276168996328164000000000000000000,-143929603928029040000000000000000000,-27223799408886237000000000000000000,-33308983771801900000000000000000000,-132015031833264540000000000000000000,-38875660888778240000000000000000000,-58145514874169960000000000000000000,-46454667310113810000000000000000000,-66935828507383470000000000000000000,-102758273226731850000000000000000000,-140860179722937760000000000000000000,-46038567087077070000000000000000000,-121005156351754600000000000000000000,-99102589957696220000000000000000000,-117347580500212790000000000000000000,-30988746025201365000000000000000000,-47331263643541640000000000000000000,-110523675863239370000000000000000000,-71089739322053410000000000000000000,-55827375702135010000000000000000000,-87873948462520740000000000000000000,-60286665412336050000000000000000000,-63392056061252060000000000000000000,-44916740840856480000000000000000000,-85654601724870380000000000000000000,-73022749427766030000000000000000000,-11336945215409475000000000000000000,-41458994546188660000000000000000000,-132547948449983130000000000000000000,-78685169202542830000000000000000000,-25703723181955587000000000000000000,-32086302638826370000000000000000000,-41788392495651490000000000000000000,-59194096781997210000000000000000000,-57754334286925390000000000000000000,-106964595787844980000000000000000000,-81168557392651120000000000000000000,-261455464479840300000000000000000000,-32659692995597305000000000000000000,-85474814540066800000000000000000000,-42741153334951860000000000000000000,-236336263981941500000000000000000000,-51595445135719760000000000000000000,-99233741313579220000000000000000000,-71189637482376450000000000000000000,-66383435514749500000000000000000000,-92070968041845280000000000000000000,-36059065692700150000000000000000000,-6484513127280723000000000000000000,-76623312537474765000000000000000000,-91426189915259720000000000000000000,-231417082125231070000000000000000000,-21511135474304230000000000000000000,-38161950229296906000000000000000000,-129326449983553620000000000000000000,-144514077386086780000000000000000000,-85935245499006160000000000000000000,-76419892192297730000000000000000000,-10337118998170085000000000000000000,-49127911789370460000000000000000000,-85167659816697950000000000000000000,-24068320434894876000000000000000000,-86477062209727270000000000000000000,-0.1790215947,-144264954026440930000000000000000000,-110792838587172470000000000000000000,-153523319585046420000000000000000000,-94664589868702720000000000000000000,-43202105562555575000000000000000000,-53010015658166730000000000000000000,-10994679249511626000000000000000000,-32364150277062613000000000000000000,-58585530271775000000000000000000000,-72693709930510500000000000000000000,-11512490375882091000000000000000000,-10515359045898520000000000000000000,-129114173587762320000000000000000000,-89253073340723830000000000000000000,-147413093515658530000000000000000000,-130765097192193600000000000000000000,-221517894147002300000000000000000000,-82124373822848520000000000000000000,-28006440271808143000000000000000000,-68808397845096020000000000000000000,-41153533658249415000000000000000000,-61326835847580490000000000000000000,-32847510807569760000000000000000000,-36371450349209146000000000000000000,-108399692839991630000000000000000000,-148008524953225570000000000000000000,-32474993240993467000000000000000000,-13388693787158623000000000000000000,-155161406253640520000000000000000000,-20630678656639607000000000000000000,-49282760904801020000000000000000000,-121175862896945200000000000000000000,-45341490485714580000000000000000000,-68594657647664560000000000000000000,-57014353709875040000000000000000000,-72160539006604480000000000000000000,-110555114081196680000000000000000000,-160641144541173220000000000000000000,-49534393799456510000000000000000000,-146430435993880960000000000000000000,-106896988901074140000000000000000000,-126486927101402320000000000000000000,-28340010676612960000000000000000000,-51018235561547240000000000000000000,-130211649368301530000000000000000000,-86081981194678600000000000000000000
   -24553976395200355000000000000000000,-94571308535344560000000000000000000,-63254091263802420000000000000000000,-68247963450617410000000000000000000,-32872108312384150000000000000000000,-92195780925845240000000000000000000,-82341564639099840000000000000000000,-13819287222106833000000000000000000,-48573145473142755000000000000000000,-153525996295157140000000000000000000,-84739052234651400000000000000000000,-27699678982066550000000000000000000,-35054170674841228000000000000000000,-49868646717466590000000000000000000,-26267602433043237000000000000000000,-62259979995748080000000000000000000,-122351039646275630000000000000000000,-96469493166531520000000000000000000,-281586387648522250000000000000000000,-33719799241393443000000000000000000,-92200943978313100000000000000000000,-52172418263911610000000000000000000,-254719520520429400000000000000000000,-55706247174040535000000000000000000,-120218379154748260000000000000000000,-77371156197319720000000000000000000,-73010263151279590000000000000000000,-109353091585925280000000000000000000,-40992564965455670000000000000000000,-5328765453269852000000000000000000,-82656381940721770000000000000000000,-110726114695970800000000000000000000,-249277773257579100000000000000000000,-32230805034872400000000000000000000,-45924123154459950000000000000000000,-63082388342846560000000000000000000,-173724191582038980000000000000000000,-41765554648688100000000000000000000,-36212122782877633000000000000000000,-11062053513263552000000000000000000,-48648130577379940000000000000000000,-91750978065419240000000000000000000,-10985696726084944000000000000000000,-104155142163166740000000000000000000,0.3491763112,-133835642000904940000000000000000000,-90994675289798440000000000000000000,-129791235289399970000000000000000000,-83439904495381250000000000000000000,-39952582747717510000000000000000000,-49823540123729700000000000000000000,-28302164122913585000000000000000000,-48543616637915130000000000000000000,-54456612397954070000000000000000000,-61218304897446545000000000000000000,-22174487467599274000000000000000000,-12236707568199595000000000000000000,-105233343124149730000000000000000000,-82840951284516560000000000000000000,-136763301597112180000000000000000000,-121185990768030700000000000000000000,-205345504258578300000000000000000000,-45613872906968520000000000000000000,-24588982704183736000000000000000000,-63921548582820340000000000000000000,-105800361662223540000000000000000000,-56928034405233810000000000000000000,-28818383026127260000000000000000000,-30995629740757026000000000000000000,-90513915694207220000000000000000000,-137217256641488600000000000000000000,-29864285343299526000000000000000000,-12276168996328164000000000000000000,-143929603928029040000000000000000000,-30767261205014076000000000000000000,-30087255864950530000000000000000000,-154060223688883920000000000000000000,-38875660888778240000000000000000000,-58145514874169960000000000000000000,-46454667310113810000000000000000000,-66935828507383470000000000000000000,-102758273226731850000000000000000000,-140860179722937760000000000000000000,-46038567087077070000000000000000000,-121005156351754600000000000000000000,-99102589957696220000000000000000000,-117347580500212790000000000000000000,-29279133117940453000000000000000000,-47331263643541640000000000000000000,-110523675863239370000000000000000000,-71089739322053410000000000000000000,-56920370016159200000000000000000000,-87873948462520740000000000000000000,-62203915089504030000000000000000000,-63392056061252060000000000000000000,-43397691577405820000000000000000000,-85654601724870380000000000000000000,-73022749427766030000000000000000000,-11336945215409475000000000000000000,-41458994546188660000000000000000000,-132547948449983130000000000000000000,-78685169202542830000000000000000000,-25703723181955587000000000000000000,-32086302638826370000000000000000000,-41788392495651490000000000000000000,-60267216700198585000000000000000000,-57754334286925390000000000000000000,-106964595787844980000000000000000000,-81168557392651120000000000000000000,-261455464479840300000000000000000000,-30502270188551967000000000000000000,-85474814540066800000000000000000000,-42741153334951860000000000000000000,-236336263981941500000000000000000000,-51595445135719760000000000000000000,-99233741313579220000000000000000000,-71189637482376450000000000000000000,-66383435514749500000000000000000000,-92070968041845280000000000000000000,-36059065692700150000000000000000000,-7938513946962614000000000000000000,-76623312537474765000000000000000000,-91426189915259720000000000000000000,-231417082125231070000000000000000000,-19430179242545238000000000000000000,-38161950229296906000000000000000000,-130228605951947860000000000000000000,-144514077386086780000000000000000000,-91757424994245250000000000000000000,-81385602090684870000000000000000000,-11820984546225567000000000000000000,-46065042967378930000000000000000000,-85167659816697950000000000000000000,-25536664449763855000000000000000000,-86477062209727270000000000000000000,0.9198354171,-389872658590587100000000000000000000,-440632661317223200000000000000000000,-582176980334290660000000000000000000,-331547219206445120000000000000000000,-134981209742667870000000000000000000,-124969151603376740000000000000000000,-123006534396539930000000000000000000,-243669971995347480000000000000000000,-175730380955013300000000000000000000,-370280300421854600000000000000000000,-105316978139315530000000000000000000,-28480118596214170000000000000000000,-461891364276129700000000000000000000,-240640617344764550000000000000000000,-398284850661832900000000000000000000,-355349812802885300000000000000000000,-600866856470290400000000000000000000,-531543685486924900000000000000000000,-98983939254800070000000000000000000,-193928730009228450000000000000000000,-460221367928406300000000000000000000,-165246889276554600000000000000000000,-116284093747609940000000000000000000,-136193471683380340000000000000000000,-417756773491256900000000000000000000,-401272241440572200000000000000000000,-102077155314022680000000000000000000,-41885203375071820000000000000000000,-419532713534088000000000000000000000,-91908203379791600000000000000000000,-119974253918427650000000000000000000,-375410047453313200000000000000000000,-168083025490414960000000000000000000,-259050316919303130000000000000000000,-205395008716553330000000000000000000,-195126180091135670000000000000000000,-332754985988522200000000000000000000,-569383108694193500000000000000000000,-143337545993659170000000000000000000,-570311088986267800000000000000000000,-289819857665056270000000000000000000,-341764549821989650000000000000000000,-160225144958303280000000000000000000,-137858902311524700000000000000000000,-490686839175603350000000000000000000,-240577691260128600000000000000000000,-257569084534460100000000000000000000,-269799019094449720000000000000000000,-153169005957550240000000000000000000,-190743640743383120000000000000000000,-223626895161746200000000000000000000,-260970412828439630000000000000000000,-284501961908833320000000000000000000,-55479250535287970000000000000000000,-181425959666276940000000000000000000,-562194381056812000000000000000000000,-232171976122798100000000000000000000,-74766813652065530000000000000000000,-109081088198039810000000000000000000,-124640742695866400000000000000000000,-273683417747477700000000000000000000,-168324375126170040000000000000000000,-436575487982145260000000000000000000,-368297639384431100000000000000000000,-768681256365354600000000000000000000,-177284668379949100000000000000000000,-250022422987764470000000000000000000,-167848678243457160000000000000000000,-687943674536971800000000000000000000,-172866233512906900000000000000000000,-468734377355006000000000000000000000,-243389220786358670000000000000000000,-229761798623903170000000000000000000,-417121932576697340000000000000000000,-92848367924610930000000000000000000,5244101560053725600000000000000000000,-224185354722469880000000000000000000,-431600445162785500000000000000000000,-672316932281377700000000000000000000,-107185486563027100000000000000000000,-122261847424776670000000000000000000,-607824366265088700000000000000000000,-672119427254750300000000000000000000,-360131713717700440000000000000000000,-322875488566858900000000000000000000,1772979772843983800000000000000000000,-262123948209148900000000000000000000,-247258702465468450000000000000000000,-102829600736545610000000000000000000,-812479226334752800000000000000000000,0.6740554232,-144326483471774680000000000000000000,-110895376413213310000000000000000000,-153657894020296250000000000000000000,-94738370512233360000000000000000000,-43228473429272105000000000000000000,-18122591938300253000000000000000000,-12277888485262203000000000000000000,-79526334802151505000000000000000000,-58618624470221430000000000000000000,-194149755366010940000000000000000000,-24516410276349920000000000000000000,-5545278611520830000000000000000000,-129233728317941100000000000000000000,-89293626338033110000000000000000000,-147476396483443880000000000000000000,-130813269614321430000000000000000000,-221602547643533100000000000000000000,-226942638603601380000000000000000000,-28028550511471724000000000000000000,-68843160520346080000000000000000000,-46447658691146260000000000000000000,-61355138632794520000000000000000000,-32873504812655430000000000000000000,-36402730680185303000000000000000000,-108497247141727170000000000000000000,-148065979591978120000000000000000000,-32495685326627865000000000000000000,-13397386455864017000000000000000000,-155226658737514620000000000000000000,3679886859833662000000000000000000,-134036372447191760000000000000000000,-28874876633844586000000000000000000,-45379908689512080000000000000000000,-68654405461952430000000000000000000,-57067287320054710000000000000000000,-72190816465540360000000000000000000,-110617839135236350000000000000000000,-160768494687865910000000000000000000,-49560792488392060000000000000000000,-146564633097657050000000000000000000,-106938452098189160000000000000000000,-126541160903251780000000000000000000,-74675938853516100000000000000000000,-51040071402546760000000000000000000,-130324702639367830000000000000000000,-86154952512482360000000000000000000,-40679117337016080000000000000000000,-94620276525490670000000000000000000,-24076669699963173000000000000000000,-68281894300511780000000000000000000,-83732120052812630000000000000000000,-92242772873461200000000000000000000,-82404444125252995000000000000000000,-13832099631525627000000000000000000,-48614770612979290000000000000000000,-153653667698455000000000000000000000,-84779660184114020000000000000000000,-27711895299148997000000000000000000,-35077172178950530000000000000000000,-35071125971290157000000000000000000,-44602913112171010000000000000000000,-62286238584074020000000000000000000,-122448982833148890000000000000000000,-96554958032479100000000000000000000,-281720449569017800000000000000000000,-89616047730821680000000000000000000,-92236501072408540000000000000000000,-52218889123288510000000000000000000,-254830069400144820000000000000000000,-55739734667128940000000000000000000,-120328761263173540000000000000000000,-77420276560722750000000000000000000,-73060135495011020000000000000000000,-109449831968431680000000000000000000,-13459892906572142000000000000000000,-15792107215904721000000000000000000,-82688058081611440000000000000000000,-110827731499067360000000000000000000,-249394002821572000000000000000000000,-87762591149991160000000000000000000,-45961949554190900000000000000000000,-124601028304300140000000000000000000,-173881585496562570000000000000000000,-6735492375880897000000000000000000,-7852841621305672000000000000000000,-34179880705464194000000000000000000,-128893339185972460000000000000000000,-91793178432029930000000000000000000,-3374074459572759400000000000000000,-104173214551351190000000000000000000,-0.6554939286,-144264954026440930000000000000000000,-110792838587172470000000000000000000,-153523319585046420000000000000000000,-94664589868702720000000000000000000,-43202105562555575000000000000000000,-56458331096741140000000000000000000,-20906444411374854000000000000000000,-31248675261680780000000000000000000,-58585530271775000000000000000000000,-33290920633554780000000000000000000,-15138361597068843000000000000000000,-11680176443029776000000000000000000,-129114173587762320000000000000000000,-89253073340723830000000000000000000,-147413093515658530000000000000000000,-130765097192193600000000000000000000,-221517894147002300000000000000000000,-20180770328970220000000000000000000,-28006440271808143000000000000000000,-68808397845096020000000000000000000,-78101646953176350000000000000000000,-61326835847580490000000000000000000,-32847510807569760000000000000000000,-36371450349209146000000000000000000,-108399692839991630000000000000000000,-148008524953225570000000000000000000,-32474993240993467000000000000000000,-13388693787158623000000000000000000,-155161406253640520000000000000000000,-26616338768537140000000000000000000,-14045122743343177000000000000000000,-139957451796964340000000000000000000,-45341490485714580000000000000000000,-68594657647664560000000000000000000,-57014353709875040000000000000000000,-72160539006604480000000000000000000,-110555114081196680000000000000000000,-160641144541173220000000000000000000,-49534393799456510000000000000000000,-146430435993880960000000000000000000,-106896988901074140000000000000000000,-126486927101402320000000000000000000,-17056332661565868000000000000000000,-51018235561547240000000000000000000,-130211649368301530000000000000000000,-86081981194678600000000000000000000,-40637085757831920000000000000000000,-94571308535344560000000000000000000,-67936041612842830000000000000000000,-68247963450617410000000000000000000,-27064725423542405000000000000000000,-92195780925845240000000000000000000,-82341564639099840000000000000000000,-13819287222106833000000000000000000,-48573145473142755000000000000000000,-153525996295157140000000000000000000,-84739052234651400000000000000000000,-27699678982066550000000000000000000,-35054170674841228000000000000000000,-49868646717466590000000000000000000,-42895193471004420000000000000000000,-62259979995748080000000000000000000,-122351039646275630000000000000000000,-96469493166531520000000000000000000,-281586387648522250000000000000000000,-17027500553165072000000000000000000,-92200943978313100000000000000000000,-52172418263911610000000000000000000,-254719520520429400000000000000000000,-55706247174040535000000000000000000,-120218379154748260000000000000000000,-77371156197319720000000000000000000,-73010263151279590000000000000000000,-109353091585925280000000000000000000,-42268306265128770000000000000000000,-5482596602879470000000000000000000,-82656381940721770000000000000000000,-110726114695970800000000000000000000,-249277773257579100000000000000000000,-9005469573014925000000000000000000,-45924123154459950000000000000000000,-90425400794379060000000000000000000,-173724191582038980000000000000000000,-71934840632292510000000000000000000,-63484494484228150000000000000000000,-7347639017089996000000000000000000,-26116763716188253000000000000000000,-91750978065419240000000000000000000,-19775328505405120000000000000000000,-104155142163166740000000000000000000,0.6969700016,-199947354529355830000000000000000000,-169307096632855530000000000000000000,-230548401900493500000000000000000000,-137988617105197600000000000000000000,-59358610382234120000000000000000000,-13511234004760192000000000000000000,7136329756110556000000000000000000,-11126795888704866000000000000000000,-79884204371001200000000000000000000,-78654368479999740000000000000000000,-581116444673612500000000000000000,-13356400547742113000000000000000000,-170363119003780850000000000000000000,-123018492324484590000000000000000000,-204191635322963120000000000000000000,-183416160832226780000000000000000000,-309710733575456940000000000000000000,-114657561234279010000000000000000000,-40925757764444576000000000000000000,-93877377756231870000000000000000000,26532714984998853000000000000000000,-84407060788875340000000000000000000,-48021742763628730000000000000000000,-54286448080601455000000000000000000,-164117596865216370000000000000000000,-206690542444147500000000000000000000,-45144825502236220000000000000000000,-18710049525615980000000000000000000,-215303123102975580000000000000000000,12099545470066857000000000000000000,220148742181972170000000000000000000,-73145542762755805000000000000000000,-67374566410652360000000000000000000,-102795960099928400000000000000000000,-76909489684194320000000000000000000,-100149723691669030000000000000000000,-150746706627492370000000000000000000,-234930240048879900000000000000000000,-67203710847224910000000000000000000,-223003791683276680000000000000000000,-149288303584226450000000000000000000,-175228281746288100000000000000000000,-23583672263628095000000000000000000,-70688756922810855000000000000000000,-194923252552220430000000000000000000,-45683361698881790000000000000000000,8489995384924918000000000000000000,-128699440244537470000000000000000000,-30469792540167350000000000000000000,-93263630472324380000000000000000000,-17058605616714948000000000000000000,-125671789953394070000000000000000000,-119628837798493460000000000000000000,-21131086084072426000000000000000000,-72416612202848710000000000000000000,-226933821108351760000000000000000000,-116217974684070230000000000000000000,-38280274465931827000000000000000000,-49127942178256430000000000000000000,1744114081516106800000000000000000,8292691951459356000000000000000000,-86371664897120550000000000000000000,-179265122372642980000000000000000000,-145360510447000400000000000000000000,-386430827776758260000000000000000000,-33835181950787767000000000000000000,-128820606581921650000000000000000000,-47902898675190655000000000000000000,-352508284048883150000000000000000000,-76244024703182900000000000000000000,-183198743773807000000000000000000000,-107452622575837670000000000000000000,-103466155530296140000000000000000000,-164701415736979890000000000000000000,-2428601129223646300000000000000000,-49181310543737590000000000000000000,-115539987897133950000000000000000000,-168705030516473670000000000000000000,-342766243904321900000000000000000000,130099937009034270000000000000000000,-12662840970710055000000000000000000,4940829682622368700000000000000000,-263584816071295240000000000000000000,35022574760616520000000000000000000,30414788284185923000000000000000000,-15459700261922955000000000000000000,-45927112153852450000000000000000000,-126320552170748680000000000000000000,9137083995793775000000000000000000,-178298385110532000000000000000000000,0.6965094594,75289324038978340000000000000000000000,6028031459660634000000000000000000000,31709311053937130000000000000000000000,35896001176223310000000000000000000000,21989085062657800000000000000000000000,15315547227807014000000000000000000000,13741598393317500000000000000000000000,23205939437819244000000000000000000000,30825344944751020000000000000000000000,21115142061169685000000000000000000000,10983694150707104000000000000000000000,4167118619265480400000000000000000000,-94639871604713800000000000000000000,46851364023213480000000000000000000000,76985242951093805000000000000000000000,66754634342342420000000000000000000000,113970129028938800000000000000000000000,-7183048861963654000000000000000000000,10184368455057759000000000000000000000,36311197779088725000000000000000000000,51390726473285500000000000000000000000,32224953899086213000000000000000000000,11852063546544310000000000000000000000,8860619648399013000000000000000000000,15867002261308020000000000000000000000,76342279313158880000000000000000000000,16080676333648293000000000000000000000,6538801578257119000000000000000000000,80856241277256500000000000000000000000,12732061778014808000000000000000000000,4102493866523482400000000000000000000,56914362325691560000000000000000000000,12257902928928115000000000000000000000,15033709265582630000000000000000000000,-147242653162480350000000000000000000,37593764283167070000000000000000000000,58123029952445130000000000000000000000,57624134549326990000000000000000000000,26188911245057894000000000000000000000,13398547537679857000000000000000000000,55130569480496780000000000000000000000,66046578797105960000000000000000000000,12167352707547262000000000000000000000,26634946448522030000000000000000000000,29357141947426714000000000000000000000,8430614659994746000000000000000000000,28139088779836700000000000000000000000,49953658746422990000000000000000000000,19687860841869506000000000000000000000,35993697816357335000000000000000000000,20026206544333970000000000000000000000,48670014424476640000000000000000000000,33049312714413050000000000000000000000,652593692934240700000000000000000000,12175035325181577000000000000000000000,45801826538168450000000000000000000000,44613551326925650000000000000000000000,14504645916340836000000000000000000000,16981992075821492000000000000000000000,8657625130014322000000000000000000000,29832333691055774000000000000000000000,32454862153998530000000000000000000000,42469366625647677000000000000000000000,17727139889380535000000000000000000000,148200238469876910000000000000000000000,11452058870558885000000000000000000000,47507494106408730000000000000000000000,1634428619146068200000000000000000000,133166497763033570000000000000000000000,28603436028564146000000000000000000000,10230922100586812000000000000000000000,38400519730682574000000000000000000000,34105310715399593000000000000000000000,20446845133877488000000000000000000000,10540962078706920000000000000000000000,-3493122438504083700000000000000000000,42546058125509220000000000000000000000,