encog,BasicNetwork,java,3.4.0,1,1589998251638
[BASIC]
[BASIC:PARAMS]
[BASIC:NETWORK]
beginTraining=0
connectionLimit=0
contextTargetOffset=0,0,0,0
contextTargetSize=0,0,0,0
endTraining=3
hasContext=f
inputCount=235
layerCounts=236,51,101,236
layerFeedCounts=235,50,100,235
layerContextCount=0,0,0,0
layerIndex=0,236,287,388
output=0,0,0,0,0,0,0,0,0,0,0,0,0,0,0,0,0,0,0,0,0,0,0,0,0,0,0,0,0,0,0,0,0,0,0,0,0,0,0,0,0,0,0,0,0,0,0.0666666667,0.0666666667,0,0,0,0,0,0,0.0666666667,0,0,0,0,0,0,0,0,0,0,0,0,0,0,0,0,0.0666666667,0,0,0,0,0,0,0.0666666667,0,0,0,0,0,0.0666666667,0,0,0,0,0,0,0,0,0,0,0,0,0,0,0,0,0,0,0,0.0666666667,0,0,0,0,0,0,0,0,0,0,0,0,0.0666666667,0,0,0,0,0,0,0,0,0,0,0,0,0,0,0,0,0,0,0,0,0,0.0666666667,0,0,0,0,0,0.0666666667,0,0,0,0,0,0,0,0,0,0,0,0,0.0666666667,0,0,0,0,0,0,0,0,0,0,0,0,0,0,0,0,0,0,0,0.0666666667,0,0,0,0,0,0,0,0.0666666667,0,0,0,0,0,0,0,0,0,0,0,0,0,0,0.0666666667,0,0.0666666667,0,0,0,0,0,0,0,0,0,0,0,0,0,0,0,0,0,0,0,0,0,0,0,0,0,0,0,0,0,0,0,1,0,0,0,0,0,0,0,0,0,0,0,0,0,0,0,0,1391.4116436128,0,0,0,0,0,361.0334001861,0,0,0,676.0509827239,0,0,0,0,0,133.4284528884,0,0,0,0,0,0,701.3941436752,0,490.2919692929,0,0,0,0,805.7522672918,0,0,0,1,0,0,87.2519864592,0,1380.2973176622,0,201.8150540432,344.0545046545,0,0,266.0733336063,447.0693316816,1044.5261364231,692.6109797469,123.4532947877,0,0,1247.913875648,0,0,0,2214.4862436405,734.9970949164,827.0061899018,246.5365813887,339.870342943,444.0337783892,667.5249224203,0,0,244.8335251824,55.5017206928,0,899.7061802665,984.3563473471,0,334.917663923,0,0,0,0,452.2389879206,59.9060358584,790.9118647173,0,161.2093315589,364.3121629387,0,0,0,192.7244089397,0,0,692.8673706713,642.697745076,205.1343236822,143.2617089373,2368.7178754953,1526.4841000824,0,0,31.5427868324,0,0,0,0,0,0,243.7714173224,0,0,509.087380734,0,1726.4741842633,0,0,51.8226801344,0,0,0,0,1884.1589378134,679.9294722207,0,0,0,261.1727705292,0,0,1764.2145025145,460.4379022765,726.5264742544,1441.3630261752,0,0,0,0,319.3368161825,0,0,1,189,84,49,164,79,42,109,22,148,40,5,27,132,127,213,54,220,233,80,195,177,170,221,197,46,109,51,160,231,78,90,158,24,104,224,171,39,22,148,40,5,25,54,228,16,195,32,209,155,114,11,228,16,221,27,146,93,82,127,36,5,197,44,42,42,204,129,180,7,119,114,158,160,71,208,196,51,158,66,82,166,5,127,57,39,0,0,0,0,0,0,0,0,0,0,0,0,0,0,0,0,0,0,0,0,0,0,0,0,0,0,0,0,0,0,0,0,0,0,0,0,0,0,0,0,0,0,0,0,0,0,0,0,0,0,0,0,0,0,0,0,0,0,0,0,0,0,0,0,0,0,0,0,0,0,0,0,0,0,0,0,0,0,0,0,0,0,0,0,0,0,0,0,0,0,0,0,0,0,0,0,0,0,0,0,0,0,0,0,0,0,0,0,0,0,0,0,0,0,0,0,0,0,0,0,0,0,0,0,0,0,0,0,0,0,0,0,0,0,0,0,0,0,0,0,0,0,0,0,0,0,0,0,0,0,1
outputCount=235
weightIndex=0,11985,17035,40635
weights=##0
##double#40635
   -0.0054907651,0.2674529392,-0.7984286655,-0.6211539293,0.0362241923,-0.9496467094,-0.1297851304,-0.0404456418,-1.054204342,0.0011562414,-1.1290980327,-1.1428088927,-0.0241669444,-0.707536278,0.4389069337,0.0705399951,-0.5210540157,0.5254138567,-0.6130409504,0.8778687338,0.382910545,-0.0669815782,-0.4748706112,-0.19739407,0.7878697259,0.8766819253,-1.2178654492,-0.0029261461,-0.0808113874,-0.8543117591,-0.320164131,-0.0855773513,0.3687913699,-0.7521835263,-0.5142993328,-0.9981673016,-0.0389369758,0.1979703565,0.2848894483,-0.2850515281,0.3349480955,-0.7780027818,0.2245624098,0.5709708448,-0.0046420505,0.6421590975,0.3291805312,0.6489565938,-0.8681069997,0.2816958532,-1.4900644868,0.6980525487,-0.4115626577,-2.5218177718,0.4999744535,0.4717253181,-0.6868054607,-0.8793575632,0.7215373715,-0.1728679762,0.0573603873,-2.250898601,-0.8966305959,-1.2892267784,0.097861009,0.7706972936,0.378376837,-0.6052458863,0.3417620657,0.3656946647,-0.9149830738,-0.7166315926,-0.1354051334,-1.2762558089,-0.3076603051,-0.0397782703,0.4724607971,0.4170272599,0.6052562697,-0.2592523613,-0.1187638332,-0.4628883529,0.7056444098,-0.3637884898,0.5900320285,-0.3902829943,0.0611534505,0.4342872744,0.0687626546,0.0627504553,-0.7657787292,-0.9986203833,-0.1657435907,-0.4888625336,-2.4694629498,-0.6145950594,-0.7577588385,-2.2045864272,-0.0992777752,0.1409672425,-1.2711064251,-0.0270481686,-0.7307521583,-0.0573895869,0.2918354358,-2.0007998044,0.6525127704,-1.425747867,-0.0430725176,0.8985002898,0.596070852,-0.4409372872,0.7234739363,-0.6519208094,0.9638676251,0.474701828,-0.0338456276,-0.2830497794,-3.1276667897,-0.193440091,0.8696506368,-0.0226356538,0.9687018614,-0.5363781828,0.7185518323,0.6912836004,-0.0866657995,-1.8865824052,-0.0653690364,-0.1152497165,0.6138528666,-1.0566235846,-0.0298477026,-0.549767781,-0.7287603079,0.1199114738,-0.3589960871,0.4973874025,-0.9514023185,0.3226765238,0.0824198841,0.1780952642,0.6389457795,-0.417787939,-2.7338138961,0.4413474141,-3.5105423822,-0.0384540506,-0.3318184353,0.3473853525,-0.936062198,-0.1849623151,-0.1993139827,0.8389384457,-0.7324077881,-1.4522208335,0.7302683356,0.4371508342,-0.8213513684,0.0119176672,0.0148941688,-0.1348726065,-0.4686253519,-0.9887943106,0.1986713561,-0.5628043006,0.045743556,-0.9944682334,-0.2843439633,-0.2634269336,0.3357591317,0.8046945731,0.0906101554,-0.3044275296,0.4923290938,0.8567732047,-0.8024062044,0.5822278433,-0.1326982402,-1.841573336,0.5092059648,-0.5699348301,-0.0529130039,0.5978251954,-0.2615521158,-0.7550102489,-0.6346298282,-0.3040913398,-0.7139603664,-0.9838357381,-0.1028372396,-1.0782350599,-0.4694174377,-0.0128313437,0.3257994027,-0.3686664482,-0.3550568483,0.8896164331,0.0256032592,-0.6400094812,0.1939577602,0.1336525641,0.3771918897,0.7104227206,0.0246167813,0.1646368342,-2.9490491559,0.6543525845,-0.697045952,-3.1033583159,-0.7182759329,-0.4684109132,0.7463913386,0.9796168274,0.2901301171,-0.2358249082,-0.2246133051,0.3778371884,-1.6412143596,-0.8341001275,0.3712183592,0.9898144452,-0.442249883,0.5583953959,-0.0801313286,-0.5441062251,-0.9183798483,-0.3751583687,0.2015028052,0.2796596039,-0.5182609548,0.8104861837,-0.5930532874,-0.5859590041,-0.5642352668,-1.3709321654,0.7319089157,0.7469362409,-0.596144761,0.6383299672,-0.8098062093,0.8086986629,0.9987325238,-0.0190097084,-0.3974396585,-1.0159201931,0.5498442393,-0.8948688658,-1.5773771754,-0.1475781426,0.2674888337,-0.0044857101,-0.6729182161,-0.7691137139,0.3385305321,-0.8966035333,0.2968378941,-0.8583651271,0.1796532875,0.4058770394,0.9408161032,0.3212871611,0.8410456669,-2.3668711325,0.2813284118,0.7387313818,0.1372470709,-0.8594187285,-0.8676986518,-4.6846619513,0.1825151547,-1.2766225131,0.5725244644,-0.4738485199,-0.3121424565,0.4531288506,-0.1264763896,-0.7499603011,0.7771064174,0.2838436498,-1.8680479306,-0.9372742535,0.9839934373,-1.4467775333,0.7093589621,-0.9822958458,-0.375977742,-1.275369804,0.5387725112,-1.9449275854,0.5222520885,-0.8027929046,0.2949964604,-1.8992063628,-2.648636326,-0.9374092319,-1.26027534,-3.1186157101,-2.7553954294,-4.0543074707,-1.6192675648,-4.2176611209,0.4502705944,0.3899157598,0.7450142134,0.5587336963,0.001639461,-0.686969465,-1.0359722123,-1.2792892916,-0.1660027587,-1.5740507807,-0.6902687542,0.6532415151,-0.2357284887,0.6667422104,-0.1648766596,0.9067186389,-0.8870058124,-1.3696091537,-0.058008718,-0.8812091589,-1.0686157385,0.32743029,0.9802943319,-0.2873104792,-0.8636710326,-0.1619325824,0.5119437594,0.2937732244,0.4954774103,-0.3698754877,-0.2100579133,-0.0206192124,-0.8737215185,-0.9162082978,-0.3892403653,0.0374011124,-0.1374551236,-0.1862899787,-0.2851581678,0.7411841053,-0.2119033534,-0.6783656425,-0.6823438925,-0.684020273,-0.6773834846,0.4327106924,0.2820888533,-1.1597769375,-0.9856651984,-0.5452682002,0.5013241988,0.0652360288,-0.4524896393,-0.4724353967,-0.3429806892,-0.9076867753,-0.4056059212,-0.8843958615,-0.0521064261,-0.6262082836,-1.7218816057,-0.2454518687,-0.8313985895,-0.7901926006,0.0899918415,-0.6847329159,0.2677828822,-1.1114793458,-0.7332161342,0.3829739117,-0.0275844789,-0.2217014295,0.0598936058,0.3293705212,0.3933085442,0.1578070138,0.0811833403,0.829856146,-0.5408168971,-0.5159660539,-0.6211000966,0.8013611194,-0.0061645667,-0.565734845,-0.0984390165,-0.9887821915,0.9332630773,-0.1047088733,-0.6927497004,-0.2967083867,-0.9896499151,0.186153452,0.4674079798,-0.605004337,0.3892550066,0.3892319485,0.4038130728,0.8814705043,-0.1938916735,-1.3879440074,-0.8105143555,-2.1294942815,-0.5533493289,-0.7672351435,-0.737045292,0.9259426384,-0.0733999178,0.6183278013,0.3193617997,0.8453756419,0.4620668903,-1.847803331,-0.3412905797,-0.6859882754,-0.8868201427,-0.583657548,-2.4373306567,0.5778280264,-0.1459551057,-0.7154652645,-0.8580321575,-1.4231538458,-0.4524236803,-0.7651086008,0.9051390428,0.0825982151,-1.032917814,0.4461855323,-1.4232287177,-0.5435993387,-0.7971831217,-1.2575474086,0.5259392912,0.2797460075,-0.9321830951,-0.3871931498,-1.236276592,-0.9760510667,-1.0411187623,0.1654165021,0.8402712752,-1.1797427638,-0.1091292602,-0.4021751397,-0.1069507069,-1.0819515623,0.1992104505,-1.4051162813,-2.018041113,-2.8030664954,-2.2041281494,0.5185802203,-1.2590633437,-0.8341467148,0.8080735611,-2.5233355129,0.7690668865,-0.0099584929,-0.9355736333,-2.7452917997,0.079045155,0.6080600697,-2.7413603108,-1.2413535992,-0.2773208191,0.1647734851,-0.3947844162,-3.8980036318,0.2884148102,0.988755215,-0.6087483427,-1.1257454792,0.7490353632,-0.3379544202,-0.3829962325,0.8962320325,-0.584620733,-0.0410685974,-0.5519021002,-0.0623518939,-0.8974499659,-0.824759578,-1.0494651592,-0.3618668811,0.5537740651,-0.3871599062,-1.1588139761,-0.7022647721,0.0279777369,-0.1372104538,0.3054775274,-0.1408211561,-0.264978964,0.911803375,-0.9520388281,-0.8737058694,-1.8184462482,0.6885742016,-0.1072092457,0.7920510577,-2.2596526778,-2.7801136417,-0.9075212949,-1.4983335212,0.7366730919,0.8446997928,-1.8469982525,-0.4736471705,-0.3268186004,0.6407975958,0.602563704,0.3254361306,-1.0115286498,-0.9822143706,-0.4144421334,0.8340401025,-1.5365319353,-0.0051006066,-2.8834750345,-0.9576920407,-0.8558871418,0.0971282673,0.0622432821,0.3885276074,0.6590664085,0.6791590919,0.1004187492,-0.2409223497,0.5126321094,-0.1803459283,-0.6334003861,0.3025689605,-1.0764902069,-0.5962823184,0.0865987248,0.7339103737,0.406112334,-1.2341223258,-1.4688754442,-0.6940885397,0.4309880009,-0.8435087316,-0.9822408901,-0.1006286159,0.062340311,0.4343719595,-1.7436918542,-1.2300474579,0.905136237,-0.1987374203,0.773382119,-1.6023842841,-0.7781172891,-0.6945340935,-0.830958232,0.2293812639,0.3965269938,0.1098364494,-0.0020819794,0.6099209626,0.6770403014,-2.2651176726,0.7124562314,-0.7196872843,-0.219502513,-0.9397778563,-0.9599754476,-0.2395465663,0.5481672256,-1.2729097657,0.0534092692,0.6844840941,-0.8611420184,-0.873149041,-0.7140800829,-0.3036863259,0.2098285685,0.4148961689,-0.4006831586,0.7075327066,-0.3112454532,0.8853718263,-0.1163774515,-1.1207426841,-1.0539018626,0.5538755563,-1.0483555762,0.2980311365,0.654128318,-0.9493285979,-0.2130116482,0.295916432,0.2347838248,0.8125911594,0.4247612234,-0.5542147034,-0.2161862238,-0.8962089176,-0.4481708745,-1.114576695,-0.4644946562,-0.8542318482,-0.1860389357,-0.0979461788,0.8274511202,-0.4553470738,-1.0650387233,-0.5792844136,0.3948726131,-0.3597264627,0.8407607947,0.5232112806,-1.4507359423,0.8992700306,-0.2607247157,0.2185856445,-1.1756479266,0.360330374,0.7374995613,-0.0678050291,-3.4432454026,-0.943849365,-0.8205780983,-0.2176835809,0.4967255206,0.2351404423,0.1771726889,-0.955807392,0.6061819007,-0.6185576889,-0.2116090344,-0.5186515272,-0.359717898,-1.1372113687,-0.821121938,-0.3601932301,-0.8048457056,0.6816247953,0.2984166333,-1.2999739879,-0.7933352389,-0.8730383792,-1.4008534564,0.5138182582,0.3841565999,0.3547195899,-1.0665263845,-0.3605586431,-1.4822047922,-2.5654763538,0.5673464366,-1.4420888785,-0.4600687782,-1.4820635051,-0.1039711763,-0.626420411,-5.0978203909,-0.534342072,0.446752568,-2.1967774186,0.332374843,-0.8605093791,-0.7845011947,-1.4659740753,-1.3339374208,-0.4392797333,-1.4916869412,-0.1710652789,0.1199799398,-0.8579450168,-0.1404006679,0.3848766674,0.1752023542,0.9496852424,-0.786503629,-0.1559188891,-0.364538698,0.4199838201,-0.9147855458,0.3704448129,0.0747035501,0.0912049048,0.5432766475,0.111583229,-0.3659900263,0.0530727366,-0.1388585712,-1.0241878038,-1.110543622,0.1056371147,-0.9700917271,-1.8096570048,-0.7164476692,-0.4702059108,0.1826573394,0.1619490385,-0.5987027117,0.6019460266,-0.5234893709,0.2261676652,-0.7364509567,0.8392116371,-1.1320162588,0.546707439,-0.5367081493,-0.0220763615,-0.4780416542,-0.8406285394,0.3252497595,-0.9316281706,-1.4796642894,0.8441937601,-0.087685494,-0.2022066006,-0.2855359511,-0.7532378714,-0.2239500162,-0.7061535443,-0.8033201103,0.801302877,-1.1983637693,0.5713560162,-1.6334343611,0.3785849257,0.767405787,-0.3219314267,-0.0953040062,-0.3814969161,-0.7831565947,-0.6875937979,-0.5382986242,-0.1969347447,-1.0841137563,-0.6425401097,-0.3876196579,-0.8224785144,-0.2058881141,0.0943418469,0.9888444485,0.5045039777,-0.5305066245,-0.4902406541,-1.4382881529,0.6561873433,0.7742928848,-0.4038962404,0.7438110866,-1.0716966577,0.3426791407,0.604718343,0.6640795078,-0.1407162852,-0.3183703214,-0.6014624015,-0.4634277678,-1.4058578967,-1.559503671,-0.0104756128,-1.1620159959,-1.749950062,0.2219322513,-1.7454655103,0.5936888202,-0.5203232868,-0.3829055786,0.5372848156,0.4511518251,-0.7984139379,-1.5947637645,-1.2904787929,0.1296819471,-2.0551063856,-0.077027482,0.6080818436,0.3736587262,-0.9828658841,0.8903054103,0.1956048316,-0.0256882652,-1.1144218678,-0.2010648031,-0.2504857472,-0.324295522,-0.4397143221,0.3101629,-0.2761322229,-0.4292661876,0.567436557,-0.8228195188,0.3760298541,0.5234940601,-0.1441593,-0.2817670393,-3.0767482743,0.0367879226,-0.9400916141,0.425940258,0.3409475401,-1.470578319,0.4397948946,0.8264263755,0.3107914267,-1.7407915456,0.1537184026,-0.0973042042,-3.3264548315,-0.4137539718,-0.9466452579,-0.8131820285,-2.2459058869,-1.9063895305,0.0818649196,-0.0065644379,-0.9362124692,0.1379408704,-0.8950837804,0.8197452735,-0.8890526563,0.3189014946,-0.5369236903,-0.7984384162,0.2209753239,-1.3767394948,-0.503538631,-0.6064714893,0.1231899868,-0.1191886393,-0.6450708775,-0.8023517338,0.8734252259,-1.5191324683,0.4264844822,0.0674227072,-0.374511664,0.5462284075,-0.1447481271,0.2601339841,-0.3547281478,0.8888174399,0.3238163936,0.2322162704,-0.4349715322,-0.7875154521,0.2100018603,-0.4986144372,0.333486318,0.0106218505,-0.9643192823,-0.9922327636,0.3818840561,-0.7211111569,1.0463733162,0.2349903301,0.4583943997,0.6701199694,-1.1219217462,0.8842980398,-0.5410022843,0.8686218593,0.6848200815,-0.7375516628,-1.3482305594,-0.3656820322,-0.5975833689,-0.8589486297,-0.4364041628,0.0450637906,-2.357138496,-2.7439933879,0.0950747342,0.5185661003,-1.4862165232,-0.8118277942,-2.9044927937,0.5276319937,0.8093783682,0.2235513777,-0.6274874526,-0.7415107749,-0.4969406592,0.2103118424,-2.9627952711,-0.3739988311,0.6590021984,-0.3014828024,0.0375072796,0.1432719866,0.7442245306,0.7224321639,0.2557957444,0.1238934671,0.2283426793,-0.9795167705,-1.6973735538,-0.4112389454,-2.7877517613,0.9270961598,0.3599069399,-0.7307416616,0.8216566766,-0.753804879,-0.9029104518,0.8255004622,-1.6865622539,-1.9268597536,-0.695146844,-0.3178050554,-0.2891444732,0.1910862883,0.413700398,0.5621065561,-1.8672084893,-2.0310774262,-0.5402432873,-0.4679124391,-0.9656692352,0.0569335869,-0.9053761894,-0.4754910248,-0.9747608117,-0.6220283896,-0.9881034079,-0.0389118923,0.8459285485,-0.0057585745,-0.0465809566,-0.3681367249,-0.8733436748,-0.1133970009,-0.6572536123,0.4510652427,0.2883146216,-0.9470702607,-0.1672933934,-0.5195425562,-0.6233582739,0.0154639483,-0.4641178795,-0.8335627668,-0.7226791474,-0.6136456148,0.5240108386,0.0593766925,-0.8716608785,-0.1668649531,-0.8168554435,0.3731509269,-0.309816137,-0.2572773636,0.8532119406,-0.0131675834,0.3095457006,-0.8807845153,-0.5391359747,-0.7471467546,-1.003354488,0.0711796061,-0.3962494406,0.2636664584,0.9475401714,0.3388781338,0.6238619462,0.121412121,0.1478245286,-0.4778653333,-0.2010661013,0.0478883579,-0.8456941482,-0.8140493146,-0.3612170998,-0.2128018677,0.4709746024,0.2700628996,-0.2951465465,-0.7509756577,-0.5879558855,-0.651636221,0.3365098001,-0.4044129718,0.1009274686,-0.8609439993,0.4498970979,-0.6626036491,-0.3429602629,-0.0783751445,0.0180297806,0.6746440173,-0.2581911355,0.5473851662,0.5270474261,-0.8425608465,-0.0643901406,-0.4801709746,-0.8221577052,0.585827529,-0.4469925112,-0.354663417,-1.4780916865,-0.9558581268,-0.9216350092,0.8354415415,0.5046257707,0.3638978699,0.8669755102,-0.6068154451,0.1093443737,-1.7318795524,-0.9654156411,0.1451590228,-0.9612160189,0.7176214984,-1.1724762769,-0.5897271946,-0.4440226158,0.3154929788,-0.6238228587,-0.3251622226,-0.8441382572,0.3027387284,-0.3293448748,0.9266948022,-0.4260045023,-0.2077946766,0.9318859919,0.4263894265,0.4803558251,-0.6746978857,-0.1955305321,-3.8449204929,0.1108519683,-1.0615367237,-0.147273483,0.6575327115,-0.5767408828,0.3355832077,-0.57878001,0.0953078154,-1.8805650208,0.9186891696,0.0320171783,0.0424061034,-0.9310822552,-0.6612355335,-1.3418700315,-1.0084884452,-0.9065856465,-0.746115612,0.4633834951,-1.41781223,-0.9547313961,-0.7491306252,0.9737402497,-0.3033364694,0.2252057508,-0.3234269221,0.1393982358,-0.81400372,-2.9227809601,-0.0909478026,-0.9560865595,-1.3727615605,-0.1826514759,-0.1215310613,0.0729023673,-2.9289413071,-2.0617514595,0.7297291084,-1.5590658797,-0.4937732256,0.4871499122,0.4447748704,-1.6165703946,-1.0649987489,-0.307782907,-1.8541074738,-1.3425904169,-0.6946981432,-0.1891254106,-0.0918110895,-0.5884530719,0.4154400912,-0.3087458577,0.0868913421,0.3921655898,-1.0554971504,-0.944563769,0.9996119217,0.8756966106,-0.6977648227,-0.2961783972,-1.0507214092,-0.2054096037,-0.4028310146,0.8137293883,-0.0190430653,0.2039237786,-0.2147832884,-0.9114477251,-0.5794815467,-1.0321430647,-1.006944889,-0.9145803369,-0.2863475987,0.2259573429,-0.5941112809,-0.774706261,0.1666681318,0.0534389541,-0.8801210513,-0.8931524384,0.1961936811,0.5916341938,0.6962076301,-0.3130654471,0.3062174292,-0.3850774435,0.8440495462,0.0852184938,-1.4639559466,-0.844942255,-0.387902827,0.3703438193,-1.9872375111,0.8953354395,0.0447012618,-0.7342073818,-0.2487577552,-0.3854580447,0.9758735248,-1.0929036332,-1.3344841334,-0.3037482427,-1.2363602282,-0.7021561062,0.2618359451,0.2782642068,0.4455398805,-0.1645191272,-0.6555509677,-0.1930217544,0.7794446934,-0.0711480757,-0.4067437751,0.6842709803,-0.0109530827,-0.1703184719,-2.421686592,-1.1258187916,-0.6853001201,0.916558996,-0.7730090011,0.5298916347,-0.3511136237,0.2580966733,0.1999658069,0.9791711299,-0.882380425,-0.7816981399,0.2441986885,0.1087771104,-1.1321809164,-0.9176989937,0.324932124,-0.6604668802,-0.9872913855,0.4819582085,-2.8554999811,-0.7498821471,0.027966058,-1.7020760521,0.2164149856,-0.0859916881,0.3187317479,0.4694733393,-0.387771998,0.6652175961,-2.0647453829,0.2667609248,-0.4409150997,-0.7454709137,-1.0567708296,0.8694593014,-0.4519697896,0.9062555809,-1.9963157301,0.6280805825,-0.1866448853,-0.3202346203,-0.1589432496,-0.3834127468,-0.6766556374,0.7440557505,-0.9692808113,-0.7789639339,-0.3551951312,-0.690069143,0.0305960854,-2.9402508671,-0.3703885813,-1.1873666417,-0.2841347851,-1.815929182,-0.8282124073,-0.5984148268,-0.0501858091,-0.2113286932,0.0815850232,-0.1770294785,0.1320272526,-0.7329877822,-2.3471640723,-1.2043773426,-0.6354991214,0.9591944629,-0.8409359165,-0.3855937746,-0.7910939163,-1.7318294152,-1.7139884223,-1.3964356155,-1.5656647122,-0.7226823039,0.4296887076,0.6754046893,-1.9716095238,-0.3469417282,-0.6165279139,-0.5609988629,0.3100057689,-1.0906129124,-2.6028036672,0.1850467257,-0.0910837386,-0.6204274153,0.4667265901,-0.5884745883,-0.1195420408,-0.3111458693,-1.8358887659,0.1832957032,0.244519672,0.4987863763,0.4427209995,0.4637654135,-0.4919216089,-0.524300126,-0.418610352,-1.1708632946,0.1031975394,-0.0954047812,0.0541916562,-0.8914146938,-0.8113963257,0.3492527855,-0.4804240433,-0.6918593873,0.5706767656,0.3931208357,0.3865722365,-0.5512414732,-0.935848124,-1.1742664919,-0.7546941229,-1.0275521823,0.6181798732,-0.5886488625,0.2696395832,0.8313413081,-0.9350129712,-1.1191919322,0.293377186,-0.5997980285,-1.0380817338,-0.1671575158,0.9462184271,-1.0795086223,0.4609034715,-0.876381418,-1.8378729302,0.4671290338,-1.1553485151,0.7870593726,-0.4967696332,-0.6671096744,0.9083578508,-0.434825453,-0.9525998069,-0.1997693301,-0.922773036,-0.9603142853,0.9509903949,-0.6024203588,0.8982454648,-1.0780920823,0.8130885188,-0.7822617309,-0.768293566,-0.8600938223,-0.6799538315,-0.1589004422,-0.8288302668,-1.0485689319,0.470075347,-0.9595352855,-1.5570593814,-0.0173701923,-0.563737508,0.5328357066,-0.2188873467,0.7500527718,-0.5189015225,-0.6562492549,-2.1641815961,-0.1451573645,-0.9132104409,0.2767587239,-1.4103619004,-0.8307603491,-1.1998831584,-0.7834966279,-0.302775147,0.8114126539,-2.3034390726,-0.9508015782,-0.0389586509,-0.1793334473,-0.0636518911,0.9249492805,-0.412906632,-0.4857494691,-2.2779608618,-0.5345198246,-0.1975047303,-0.6471408788,-0.2070221504,-0.9050688982,-0.1202426349,-0.1137489532,-0.8079384576,-0.9787892058,-1.3258038509,0.3977636145,0.3879062839,0.7766678811,0.4067254429,0.6192803308,-0.4018555875,0.390143481,1.0012862104,-1.2752645547,-0.0436769336,-0.0086896028,-0.5481167557,-0.7126033689,-1.5562377241,-0.0286186526,-0.4490486347,-0.3047318346,0.605873509,-1.5847474303,-0.174335606,0.8575980939,-0.9321731585,-0.5544153683,-0.2790726333,-1.3087731459,-1.7355049172,0.559403855,0.8316564281,0.8781335122,-0.4864659539,0.9003189183,-0.6899560121,-1.4184766726,0.8239434611,-0.7229028016,-1.310948144,-2.0368137879,-1.1727788961,-0.0723275184,0.2779636055,-0.2391732873,0.1494892246,-2.54769439,-0.5695273381,0.5230087877,0.366355214,-0.6050466495,-1.9362162559,-3.0349836103,-0.8704518055,-2.4001690455,-0.9233100989,0.8325642605,-0.3487868038,-0.6998729724,-0.2575002025,-0.9351439844,-2.222604706,-0.2642146045,-0.62687807,0.4792569833,-0.3420606525,-1.0422640573,-0.96267766,-4.6968294309,0.0128599507,0.6365345504,0.4863291516,-0.0395697194,-0.0555190826,-0.955697991,0.3555707115,-1.1031446889,-0.2531596092,-0.0616018745,-1.4954227063,0.0053989552,-1.5362655474,0.669046651,-0.1540021578,-0.4177211024,-0.8901051861,0.5619123952,-0.5291601317,0.0607846261,-0.160679743,0.0906556014,-0.0434971488,-1.3889588575,0.4845092444,0.1142920097,0.6983811555,0.1636780059,-0.7657667087,-0.1760446264,0.0544423166,-0.5490530467,0.1423177809,0.6012146689,-2.119808588,-0.3983207465,-0.0999953354,0.6142062723,0.3218465458,-0.5754528708,0.0118030216,-0.2299615804,-0.466877203,-0.5196905986,-0.4231526727,0.239090031,-0.5138344109,0.7975949089,0.52397006,0.027129983,-1.4809537893,-0.6103621734,0.4572687856,-1.0538061276,0.5001043362,-1.3019342817,-0.6774499619,-0.0552639099,-0.3308050998,-1.2423360367,-0.3159793359,0.320923317,0.3746178775,-0.6846216175,-0.5168758433,0.0030409341,-0.6755067894,-0.8694618345,0.0432729139,0.3915948962,-0.4328662081,-0.2490179487,0.9359404509,-2.2534110224,-0.141082696,-0.6444322557,-0.1846805382,-1.0850981632,-1.1025564664,-0.0327676447,-0.1906798624,-1.0158989302,-0.0299758431,0.8675236751,0.2760795236,-0.3636059404,-0.4847788479,0.7333835605,0.9759282698,-0.3628272687,-0.8647150503,-0.4816641394,-0.7606892051,-0.8965640292,0.8687230821,-0.0916432696,0.4989655759,-0.7745909538,-0.6076440253,0.2390797839,-0.7266235871,0.1624975597,0.4892490996,-0.6736765885,0.9025536646,0.4879734495,0.2389293095,-0.5646891104,-0.0812485392,-0.2405413415,-0.0517398532,0.0601211198,-1.2973341223,0.1953531154,-1.4630535088,-0.4144535423,-0.7289729431,0.0334423072,0.296693181,-0.5705180166,-0.533510188,0.5508137975,0.8742755558,0.9108681641,0.8336064486,0.3821939447,-0.9244136371,-1.5795845936,-0.8372691186,0.7044694962,-0.4995384804,-0.0330372233,0.8455532183,-0.0766647912,-0.4443859673,-0.5524428432,-3.0136488415,0.102490451,-1.6464000261,0.6560660641,-0.4563186206,-1.1249381093,0.3935296212,0.7542728494,0.4365812136,-0.2010744361,-0.9773255916,-0.7645972335,-0.875088516,-0.2231428407,0.1681471335,-0.5967171939,-1.3323664684,-1.0414036583,-0.7120996468,-0.7762477725,0.2447225949,0.2738624496,0.6132302657,-0.1325276722,-0.980943189,-1.3355465778,-1.2885182426,-0.8241441205,-0.5518483761,-0.67548185,-1.9690287748,-0.5017418042,-0.7381075668,-1.6433346086,-0.2443163298,-0.6916944143,-0.3042771754,0.5606384165,-0.3476964792,-0.5530752149,-0.4384848949,0.2034887684,-0.4484080939,-0.9076468011,0.6169643544,-0.0951658651,-0.5565324102,-0.645714013,0.7627934745,-0.8568481858,-0.694492337,0.3945082556,-0.8190586678,-0.3297438004,-0.5899682842,0.7264851622,-1.0038913452,-0.3016834808,-0.4642344464,0.2675080887,-0.7280236559,-1.2170891492,-1.4995061318,-1.1308220142,-0.3275020602,0.0555047308,-0.078545497,0.0489720908,-0.5757069918,-0.2132289098,-0.6916396489,0.2296675678,0.3523524629,0.8364050469,-0.0836925649,0.5695311147,-1.4573299948,0.1272555224,-0.2300382376,-0.6324147411,-0.0437635341,-1.6141183726,0.3681751845,-1.2517856463,0.0132758522,-0.330885748,-0.0715174032,0.7025022706,0.6576669858,0.5044345968,-4.6200071885,0.1068209904,-0.8087788906,0.1052716665,0.8880001292,-0.5268408934,0.6207537496,-0.8698123948,-5.775392591,-0.639391491,0.847435021,0.8745670902,0.4697285945,-0.0118878078,-0.8118226649,0.8427656218,-0.9456766735,0.9607565917,-0.6084937986,0.0001993575,-0.6348349545,-0.2028714142,-0.9990009,-1.229469084,0.6395580691,0.2437155135,0.087915925,-0.1954267243,-0.2557269233,-0.2586757401,-2.828858966,0.5044148241,-0.2142358813,-0.2136780948,-0.3922468766,-0.5285028625,-1.175011489,-0.366661414,0.9406004628,-0.0811852922,-0.7627351337,-1.7778135548,-0.3680872399,-0.3258845738,-0.203972136,0.9536469602,-0.7018987548,0.4060030096,0.6061385078,0.6854207763,-0.9411874883,-0.5996991462,0.450149085,-0.3729074973,0.8483586017,-0.6940080224,-0.841885638,-0.9545631832,-0.059778054,-0.3528537728,-0.5602016481,-0.9418693574,0.6834750346,-0.9790065412,-0.7056364636,-0.1471190468,0.0764058966,0.9622572406,-0.7927383927,0.0179193163,-1.0228819501,0.4323986309,-0.6382621335,0.3030699545,0.4082340667,-0.1015795681,0.4178735611,-1.0483736586,0.1966005365,-0.30174616,-0.4375647281,-0.5429901141,-0.9727857032,-0.102928389,0.3904871775,0.0232567691,-0.8034380923,-0.4013960778,-0.8136137544,0.3259083139,-0.8392046347,-0.7707986813,0.0090504164,-0.2097379583,0.5049491793,-0.0658629385,0.1412826337,0.247905262,-1.0626814593,-0.2059342558,0.6463204972,-0.6325057254,-3.2107124885,-0.3819760227,-0.7628334878,0.331387061,-0.8959418318,-0.152577334,-2.9401931337,0.4184812034,0.8030163074,-0.5605143126,0.6136564669,-1.1058405643,0.1912046944,0.4394675784,-2.0676222241,0.8672044328,0.9206097975,-0.873285032,0.8321110645,0.3067028886,-0.4907519767,-0.300793416,-0.4238774384,0.3723807707,-0.3558712996,0.2973942266,-0.8862715672,-0.3851373079,-2.1188982611,-0.9091650362,0.2796025839,-0.1329131968,-0.4221799264,0.3216558674,0.7769964667,-0.7418231645,0.241070622,-0.6699645708,0.5131735159,-0.6079291251,-0.2375753894,-1.067045402,-0.3300985542,-0.4471134062,-1.9181817412,-1.4371612968,0.2723894993,-0.4237059621,-0.804608687,0.9230646667,-0.2434573279,-0.2044909146,-0.9060096051,-1.1101745561,-2.3345525599,0.7787615505,0.4052381449,-0.2618218951,-0.1917705091,-0.5116757799,-0.3993645307,-0.2134839012,0.5876603268,0.8775934439,-0.0245704981,-0.1975990963,0.242205519,-0.0178661319,-1.1862546572,0.4784803207,-0.4547415287,-0.6204450528,-1.1983875785,-0.2632119879,0.6967549475,0.6969955647,-0.6442600707,-0.1744274598,-0.0679282303,0.0415081043,0.5234735917,-1.0798202668,-0.0682261024,0.06719519,-0.7394152207,-0.6225476932,0.4893581316,0.6040130173,-0.6093429097,0.3081421178,-0.3863037837,-0.4036794216,-0.8754797653,0.4760292785,0.6971354456,-1.3213341632,0.5835920756,-0.0548833124,-0.9683976542,0.8106512881,-0.0676931504,-0.2235927999,-2.9934528292,-0.7774733454,-1.164242558,-1.3099795187,0.7165315937,0.2213815394,-2.7030525458,-0.1881943303,0.1095385178,0.1509591593,0.6513508132,-2.1686441104,-2.0511868984,0.9586348499,-0.2809125645,-0.1878166356,0.6045751824,-0.5668976489,-0.5850352435,-0.8358936275,-0.05374695,-0.4852562325,0.0669663894,-0.4664691266,0.0872411203,-0.8512900934,0.772980787,-0.9831236157,-2.3838055534,-1.1454545983,0.0258553766,0.7055332033,-0.2713163129,-0.6070885061,-0.20350864,0.2549615772,-0.5354135394,-1.614662708,0.2706750396,-0.6055430143,-0.7777650432,0.4977325218,0.0392595252,-1.0041280514,-1.0703409806,0.6712685821,0.9636533191,-0.4379423968,-0.7649563916,-0.777339225,0.1335973362,-1.7510652787,0.0426391683,0.208305556,-0.4157809393,-1.1512927443,0.3676562901,-0.8682718456,0.0377530378,-1.2964014695,0.2629262628,0.5977249097,-0.7373994243,-0.9150287872,-1.2520408906,0.5306609642,0.330530277,-0.3846481597,-0.3578460307,-0.8822755163,-0.6422266264,-0.9174217939,-0.3099653919,-0.2614995594,-1.2396508542,-0.5428396438,-0.1585077794,0.3355792366,0.4036846803,-0.30695073,0.7002795746,-0.6405814849,0.5059997347,0.7803823456,0.8250418899,0.4567342965,-0.1268868821,0.2742604296,-0.4669851348,-0.8034013094,-0.2516493138,-0.3286603829,-0.8479757492,-0.1857495466,-0.7359431818,0.3950947317,-0.6306578794,-0.1792234317,-0.4817775219,0.6436346504,0.2377496779,-1.3309889735,0.7824136533,-0.0416616044,0.4634363099,-0.361386768,-0.1369949306,-0.3798832793,0.5568160002,-0.2989611961,0.1558987765,-0.625907282,0.3724873888,0.0148144856,-2.8375587374,-0.4894706935,-3.2039965602,-0.7922921986,-0.1915868494,-1.1415202692,-0.3880005177,-0.7399834234,0.5024651783,-3.6823872199,0.8433271801,-1.3681071095,0.7049221593,-0.1010477714,-0.3021075547,0.4566514324,-6.4695721561,-1.4637472151,0.2779305779,-0.6321288336,-2.4232698297,-1.1126339634,-2.5833338649,-0.7750445645,-1.8434202745,-3.9216326422,0.2235496315,-0.2160990751,-3.6331737338,-0.6881380683,0.4462001603,-1.2009470287,-4.7479492423,-0.6713259949,0.9826822969,-2.1204040975,0.9613332195,0.6144928029,-0.3375323366,-4.4089800165,-0.2920228271,0.4788641423,0.7118245594,-0.45515594,0.9359330964,-0.0109087213,0.5160053932,0.7408326208,-0.6440581752,-0.694942003,-1.5548622979,-3.8501189805,0.9080624903,-1.7480175116,0.1790907331,-0.6064199035,-1.0645141089,0.5822952411,-0.4150367454,-1.7236962845,-0.0392583262,-0.0436928313,-0.8369611833,0.6100288141,-0.2563865411,-0.9578491353,0.3965731,-1.9280207022,0.4938174683,-3.1646581,-0.257236357,-0.3978263784,0.785662317,-0.1731518395,-0.631686552,-0.9533886452,-2.3513650337,0.0331473641,-1.5273763368,-2.5749849737,-2.1544338139,0.2779105788,-0.0239632224,-1.3033016102,0.4731034731,0.4723577119,-4.3220136183,-0.5010660787,0.0316616101,-0.4921214615,0.3949145283,0.3067894188,-1.223078827,-2.7963345913,-0.6985352818,0.8285664147
   -0.7412674522,0.1228476341,0.9208471331,-0.2838288036,-0.8121315568,-1.5940135653,-0.6726833545,-0.5476383882,-0.1661921089,0.5736650719,0.3536995733,-0.8994651709,0.1083712816,0.5487571436,0.3337915096,-1.4336967272,-0.6833546977,-1.0118292338,-0.9058257634,0.1594435335,0.5641136399,-0.849665944,-2.6671679381,0.3475141834,0.2734252048,-1.0196427042,-0.4033262931,-0.3448265463,0.2950124219,0.7250705872,-0.2713776081,-1.7957893212,0.8222056824,0.0842792796,-1.1513638926,-1.3620147195,-1.9792177225,-0.3596837528,-2.0908687503,-0.4366426248,0.2865307647,-0.711236446,0.2872733976,-0.0485726225,-0.2646801238,-1.1616799425,-1.1985918679,0.5288306733,-2.6636154265,0.1904537684,-1.0685997248,0.2670655503,0.3978249218,-2.276237228,-0.302491833,-1.1732921739,-0.5341776123,-1.9023473758,0.430652378,0.0991244556,0.7693509473,-0.7466262004,-1.2172434877,0.2118133953,-1.050336532,0.7618014733,-0.3926753552,-0.0259656767,-0.6052313296,0.1673267809,-1.1514164712,-1.166523793,-1.1724392349,-0.9566228005,-0.8287494959,0.0233170068,0.2414493335,-0.6781399118,-1.0040195126,0.8617850127,0.0358225124,0.0775992357,-1.1016341816,0.3192894652,-0.3840765752,-1.170636144,-0.5246900019,-0.5010035756,0.1104501464,-0.3729811553,-1.6853743079,0.6057616381,-0.2186932964,-0.1637481585,0.8005917258,-0.7590754882,-1.2654267057,-0.0356961582,-0.347136531,-0.29750463,-1.2721524265,-0.2052891453,0.4811543906,0.3988966006,-2.2509245466,0.8975734772,-0.2449266609,-0.8480278903,-0.9752532927,-0.1423279568,-1.0023209014,0.9169650892,0.1708593789,-0.9767321735,-0.076559813,-0.7984431336,-0.0504659182,0.353073112,0.2388602617,-0.137224303,-0.1329040846,-1.2356075914,-0.320037726,0.0424933587,-0.6642269538,-0.9498394456,-0.5539957937,-0.8882474575,-0.7074321944,-0.5873856167,-0.5263360002,-1.0245565192,-0.6492114639,-0.5928015055,-0.3048182455,-0.7969801201,-0.9505535208,0.2134597213,0.9413166396,-0.2755912936,-0.401254761,-0.0103705836,0.562269792,0.2570595545,-0.3460507112,-0.4535436849,-0.6346510682,-0.3440123074,0.7895237915,-0.711561421,0.4740448919,-0.5085324645,-0.5434634189,0.2848055945,-1.0994251846,-0.9906070817,0.2389814136,-0.0927977786,-0.8474262516,-1.8752416953,0.9210464553,-0.4608413622,0.4146614047,0.7792080643,-1.2621850178,0.7335022751,-0.7626041351,0.7837901733,0.1727827861,-1.2013002514,-0.7293244284,-2.253147349,-1.3741435591,0.3054851671,-0.5752777343,-0.3116986234,0.3949642125,-0.1416311432,-1.0845679875,-0.8842982363,-0.1859602889,-0.8481929667,-0.4328230091,-0.6855004736,-2.1504904521,0.0042250104,-0.9490938487,-0.1797574334,0.5091129153,-1.0434241885,-0.6399952309,0.0215315502,-0.9311152895,0.9350049791,-0.7878774702,0.8155468324,-0.8764863789,0.5361492059,0.5469656534,-0.5720952143,0.2936987409,0.1417678531,-0.2359035305,-0.8215790787,-1.8999218912,0.0228671399,-0.163002886,0.1588807698,0.256322926,-1.4282448799,-1.3135448734,-0.1568630143,-1.5864608379,-0.3155044889,-0.9307166198,-0.5026995514,0.5343249431,-0.9228114664,-0.0384983635,-1.2322851821,-1.2187963614,-0.8023792024,-0.3850646727,0.7729443166,-0.6224906804,-0.5353014293,0.1300296082,-0.8176480346,-0.8716822163,0.469156003,0.2613853114,-0.7727561053,-0.0088340903,0.7139079376,-0.6134407833,-1.3450624136,-0.8089537325,0.0760151916,0.2576402447,-1.5826074415,-2.1172727212,0.429079362,-0.089726779,-0.8762960872,0.3339928005,-0.3292718653,-0.0249465567,0.5654247483,-0.2988359602,-2.1616289972,-0.2772662079,0.0372903435,-0.8824003876,0.002330037,0.4715665186,-0.6547685157,-1.1265386301,-1.4242365325,0.7473669172,-0.1621455308,-0.9419363996,-0.0163475302,0.0074235976,-0.082952015,-0.565052637,0.2127012462,-0.6972624007,0.0733443434,0.5935516895,0.8613316855,-1.5981672303,-0.201827285,-0.4189913839,0.7283113596,0.2074634246,-0.3216900689,-0.5137610218,-0.5455612022,0.2224931009,0.8511339771,-0.4305685952,0.1435032154,-0.1207712878,0.6838902128,0.0512322764,-0.0722432856,-0.5921621715,-0.5630893224,0.3829122596,-2.0054164382,-0.8013324504,-1.5287902267,-0.8357803058,-1.3180723271,0.2184822463,-0.7177436868,-1.3408521079,0.7318063343,0.2558990382,-0.620633102,-3.6301793808,0.9173739597,-0.0497092046,-2.7368566355,-0.4467630262,-0.4722512623,-0.2723120797,0.6980294129,-2.8981113872,-0.3552988101,0.0344469395,0.2348557249,0.4741388743,-0.2042606563,0.9094006246,-0.452263368,0.7750227488,-0.9504524873,-0.8449043835,-0.143061406,0.8311778716,0.5080336152,-0.7281966261,-0.891136397,0.3620706403,-0.7827465905,-0.5348805781,0.285113861,0.1929874583,-1.0452190858,0.753551673,-0.3241491586,-0.1952168658,0.8155336775,-1.0189066755,-0.0769288416,-1.7458804383,-0.1926853914,0.2754744199,-0.8581242016,-0.8738269684,0.0331737444,-0.287758822,-1.3103415641,-0.6275412619,0.8350510862,-0.7572855241,-1.5486985664,-0.7949281777,0.0925831039,0.3941466516,-0.5377644089,0.2055750988,-0.8635743416,-0.4171571547,0.7262188272,-1.1138599174,-1.8797669548,-1.1051012759,-1.3625498495,-0.0218202095,-0.2448627458,-1.412701378,0.0641314383,0.6407794387,0.9202378693,0.4802942318,0.4637348226,0.7825354296,-0.4260442041,-0.341343478,-1.6144654425,-0.909720788,0.4728126072,-0.5949015078,-0.4625261363,-0.6897282111,-0.9882058908,-1.0001617848,-1.4549108921,-1.2616229991,-0.848494418,-0.2907459694,-0.3855737081,-0.4081414808,0.0261924315,0.0741008358,-0.7874832166,0.7848133309,-0.8599896838,-0.1406910747,-0.8189258288,-0.7664916739,-1.8429853856,0.2598354096,-0.5992776654,-0.0902979142,0.2623962045,0.0699119019,0.351062671,0.6363351112,0.4692335333,-0.7714115299,-0.1149349305,0.5368728596,-0.4839374832,-0.1422469483,-0.3038987753,-1.3218211353,-0.4360551696,0.2209044612,0.1832720395,-0.0408657789,0.5122056047,0.1740411503,0.5985352106,-0.9101506129,0.608582635,-0.6561751949,-1.0214445907,0.358321885,-0.2950868237,-0.5663379462,-0.2027936603,-1.0272405974,0.2982778325,-0.6229060239,0.1556699631,-0.5431921338,0.4699239887,-1.0180770616,0.0718641927,-0.9750410853,0.2666480888,-0.3827315668,-0.8622603435,0.1531454631,-0.3762522219,-0.098439695,-0.3595518426,-0.4880037153,-0.3966543302,-0.3887412308,-1.0703653048,0.6993478992,-0.0252151461,-0.5650686926,-0.058043097,-0.811189404,-1.9147433179,0.7106625639,-0.3845185838,-0.6231236304,0.06620924,0.2090999956,-0.9943410048,0.2970257293,-1.043030879,0.3123389033,0.7208300382,-0.2502024838,-1.0755587137,0.2710153127,0.1477092234,-0.8786894484,-2.3955865076,-1.172951591,-1.2946674912,-0.4751845292,-0.1336461664,0.2413860053,-0.8715837981,-0.6732283988,-1.2987476894,0.0925603845,0.0476109077,-0.7481819989,-1.1500793035,0.2692544834,-0.1978500231,-0.5148013654,-2.0708957991,0.193014149,-1.0005613731,0.5208910473,-0.146508959,0.0349186235,-0.4992910129,-0.6210840878,0.5782222516,-1.5833838873,-0.8847138136,-0.5707262154,0.0818615547,-0.1687652216,-2.532049122,-0.582093566,-1.5415048488,-1.033475263,-0.2673023852,-1.7557172849,0.6775196334,0.0579813505,0.5446251973,0.4130396358,-0.4168988438,-0.7533913705,-1.6321684447,-0.6347908907,0.0173947263,-0.3341606187,-0.6636448602,-1.7685370373,0.0087586489,0.0353983314,-2.1365187081,-1.9406178029,0.1451396098,-0.7954272238,0.6273174171,-0.9051918501,-0.3421237209,-0.2294066137,0.8299293244,0.5380587874,0.5246554814,-0.2095604955,-1.2829418353,0.4184064468,0.1693736948,-0.8237689508,-0.5084587798,0.0369579297,-0.932845006,0.0782017707,-0.0640273536,-0.366171804,-1.0651324515,0.3052494714,0.3972990994,-0.3287696589,-0.8813672164,-0.333487636,0.3041896887,-0.6889489741,0.2223402169,-1.1206765868,-0.9309064135,-0.993029383,-0.5590516788,-0.3437131431,-0.7741466617,0.2048148387,0.2068236703,-0.7464940059,-1.7774376603,-0.4209560057,0.0260487584,0.5011604405,0.0699394726,-0.2442625303,0.0483790176,0.1126463369,0.3185612904,0.8402455028,0.0436565871,0.357060891,-0.4610525159,-0.9745528216,-0.4880158363,0.7264959362,-0.8586710173,-0.718389111,-0.7874241686,-0.0766853141,0.4172085545,-0.9609178239,-0.579640035,0.1845457307,-1.0254541279,0.4427343683,-0.0417634912,-0.1429387652,0.1950098693,0.0456775072,-1.575132759,-0.7435170591,-0.7926714209,-0.4835374775,0.3310558331,-0.8901481902,0.064842984,-1.059875864,0.6221039868,-1.3013523894,-0.6326929958,-0.9146752648,0.6088223409,-0.3432402074,-0.4225793235,0.7509119487,-1.1503721388,-1.3042968651,-0.4350201031,-0.5353286507,-1.0128983921,0.4983219049,-0.9080198595,-0.2250100591,-0.0188776091,-1.0099190199,0.6006514516,-0.5927298149,-0.7267013591,0.8386765537,-1.3176918105,-0.783355918,-0.0909742846,0.381489035,-0.5225423514,-0.7752497103,-0.2785330817,0.2148146632,0.1069350296,-0.8328015581,-0.5907152458,-0.3759201489,-0.1767352192,0.0563348365,0.7440840629,-1.0823370089,0.4123869461,-0.9598601349,-0.4919018586,0.3639005365,-0.4609174693,-1.2739449917,-0.4514203607,0.0623961474,0.6588788241,-0.0910628013,-0.171179377,-0.0658284724,-0.2185144449,-0.1382978064,0.6695330887,-1.228084904,-1.6377393476,-1.4935616881,-0.0650502607,-0.2708206712,-0.9631579612,0.0696064205,-0.0423402598,0.7471446807,-0.3199455288,-0.1330336822,-0.9203470601,-1.0258479758,0.4944731362,-0.6463583869,-0.6000823062,0.0949479901,0.1693217995,0.0598790669,-0.3785385763,-1.3532561029,0.1705720766,0.0742268299,0.4968759927,-0.4151645358,-0.5838795822,0.2419332114,-1.0524317545,0.3410392725,-0.4932107341,0.0153287448,0.5329250118,-0.7304555933,-0.2159816955,-0.8720251676,0.3665197375,0.3390353383,0.6560698831,0.2869047475,-0.7271624624,0.3342406121,0.4815850154,0.0361380651,0.1105791242,-0.7349973109,-0.3834564212,-0.0439422246,-0.7352395223,-0.1006645944,-0.0367347657,-0.8908801016,-0.1376035188,0.1268759153,-0.1828308069,0.0536511565,-0.3535440628,-1.0819241528,-0.0879710414,0.0280423521,0.2679786237,0.1585429562,-0.9792902991,0.4763303677,-1.1009966252,0.8118491088,-0.5262293317,-0.5489914231,-0.6891641465,-0.9505229272,-0.3674190253,0.1498596513,-0.3395889665,0.5159325982,-0.6795566378,-1.6308509245,-0.2076665739,0.9177342654,-0.2829235966,-0.1114162978,-0.1452533588,-0.3306215864,0.217100766,-0.2276043578,-0.2190246875,-0.5967460519,-0.8159242863,-0.2964804585,-0.2858768438,0.8914795095,-0.1495923559,0.4363741789,-0.1880761838,-1.3805854615,0.9875204937,-0.2830962114,-0.1332566505,-0.9128427765,-0.400936546,-0.823612234,-0.5232233162,-1.0896830563,-0.5165749993,-0.1738174363,-1.0066883454,-0.4139679051,0.3638912225,0.1792402151,-0.7453583335,-0.380832157,-1.3010427586,0.1887363426,0.5886182383,-0.5193158292,0.5737971246,-0.8099774271,-1.2083094818,0.2003125481,0.2199418878,-0.2474528298,0.0170153728,0.3725303563,-0.336163067,0.3171748963,-0.3663376746,-0.0131458457,0.1090779578,0.2209038084,-0.3993208642,-0.7696397699,-0.1225119813,-1.0054951761,-0.4414992524,0.0834297416,-0.5770433229,-0.0493009678,-0.282155964,-0.1226556844,-0.4852172922,0.8925801668,0.4031711493,0.5830972124,-1.1364027861,-1.2047384971,-0.193287779,0.4139056643,0.0144295579,-0.9845045991,-0.6989499873,-0.2076614811,0.3549721116,0.5881971692,-0.1433413901,-0.6146806157,-0.5034716224,-1.040230619,-1.4952671271,-0.4339926527,-0.5920716729,0.3476941396,-0.823583653,-0.3981681697,-0.0741566084,0.6300068681,-0.2682096094,-0.8734707195,-1.0232619991,0.4596685602,0.2307721506,0.6526988351,-0.8979528061,0.312881286,0.1861882412,0.055295437,-0.9253702475,0.1752617338,-0.8835554113,0.3041947559,0.0748944943,-0.2095877489,0.8169621674,0.168368914,0.6646731228,-0.2751260476,-0.9717646899,0.1188694309,0.0327356261,-0.9359170571,-0.9057728734,-0.4250277666,0.2140632266,-0.836151755,0.4265871638,-0.2614226516,0.5694297233,-0.8430242384,-0.4070524425,-0.608761681,-0.4426309174,0.6427847014,-0.3977523792,-0.4313214893,-0.4821173964,-0.7669835561,-0.2632085747,-0.8975948526,0.7842770853,-0.144878159,0.4344379961,-0.6709751153,-0.6421581022,-1.3692213886,-0.8176726789,0.6595202311,0.7341605518,0.4607307045,0.4447174738,-1.0744784392,-0.0195960068,-0.8385350153,0.2805800573,0.4183772784,-0.3043337559,-0.7058202863,-0.5925410248,-0.4534185025,-0.337820284,-1.1271400022,-0.6404079443,-0.0615586349,-1.0947402374,0.2590588608,0.2630288474,-0.548955575,0.5020672678,-0.1329463875,0.6757443665,0.4323148826,-0.7558490493,-0.4267438706,0.9017525204,-0.5910492494,-0.6068893497,0.0221662326,0.9355432569,-1.2042495168,-0.6177231753,-0.1764722359,-0.2515252284,-0.0879798745,-0.819139686,0.1620894505,0.2524475502,-0.2597541058,0.2889012813,-0.899713029,0.5743730744,-0.7474085634,-1.8934817098,-0.6375136659,-1.0508324791,-0.6988275652,-0.654096628,0.2241336244,0.6387337043,-0.5446207894,-0.1037080388,-3.0460742936,-1.0715823931,-0.8936602705,-0.5512010685,-1.5779831065,0.3960914498,-1.2870456738,0.0171446798,0.7443548504,-0.944808033,-0.9259140123,-1.5566676196,-1.1367599653,0.1001828242,-0.8616664258,0.1038901597,0.6529934181,-0.8610808525,-1.0947618321,0.4398332946,0.1539662687,-0.2545070088,-0.0642854086,0.2742748956,-1.9958199988,-0.9528619652,-0.5337848222,-1.3091707241,-1.5113106947,0.3378431367,-0.6750990432,-1.0546134073,0.2855999849,0.3909301111,-2.7776354079,0.9949189445,-1.0155956269,-0.7576435319,-0.9267944575,0.6659030424,-0.5504375663,0.2457927003,-0.2631918687,-0.1480980184,-0.5924021068,0.8752925649,-0.2347729225,-2.48801073,0.0148357806,0.5212321718,-0.7094936567,0.2413076943,-0.9694007758,0.5927365211,0.4389039599,-0.1079297699,-0.9745825572,-0.5518225949,0.8187603992,-0.4871815709,0.0102548943,0.1188783621,-0.7678322855,-1.6065624425,-0.5691257195,0.0472788036,0.4335526043,0.5740298587,-0.3609190158,-0.0377170447,0.3947950019,-0.4532937478,0.1764232389,0.3189678633,-1.6898409581,0.5047913776,-0.0734659105,-1.1502764437,-1.1425150597,-0.3751999086,-0.1470919145,-1.1615163542,0.1281169537,0.1849640017,0.1953060932,-0.225611818,0.726808835,0.1636543536,-0.3518469298,-0.8659610376,0.184571231,0.9239219233,-2.136150468,-0.3851115051,0.7552350237,-0.1887581988,-0.9323228687,-1.0252535774,-0.3721447059,-0.1666906656,-0.8498970753,-0.3258161006,0.7283018924,-1.6312340738,-0.6275200754,0.4084093013,-0.5750250469,0.6849912177,-1.3233928457,0.000448253,-0.1072769596,-0.1492709865,-0.807609637,-3.564597188,-1.8453679795,-0.7402460152,-0.6865075734,-0.2826299798,0.688330374,-1.153271858,0.0391165131,0.0201928987,-0.875145796,-3.1127670966,-0.9994060597,-0.8100676597,-1.3800269786,-0.6244347678,0.0478639937,-0.2065855873,-1.8338018245,0.5096667867,-1.7262294934,-0.5021733443,-0.7722046778,0.4406391725,0.5885803511,-0.1026651849,-0.9141024434,0.6516685101,0.2062033287,0.5695169769,-1.3173783153,0.0838666534,-0.3192248806,-1.1091380189,-2.5452351386,0.1869534996,0.295311376,-1.8732698466,0.516388082,0.5862252602,-0.3274344621,-0.5628636588,0.0032532381,-0.6049461055,-0.6294135303,0.3481792864,-0.1425748755,-0.1324710387,0.0939884156,-1.0541762089,-0.3537714664,0.429332476,-0.7135138042,-0.0086098362,-0.0574869606,0.4840146199,-0.1488070897,-0.0993270503,0.5868025349,0.2881495695,-1.1236092517,-0.3366165494,0.3596209339,-0.1011642581,-0.3435628648,-1.3980561297,0.3902931508,-0.2968434468,0.0661302131,-0.6451339324,-0.472202632,0.3247860904,-1.0201819257,0.7471445412,0.3355588783,-0.0195068077,0.5867620476,-0.4858358628,0.3444927258,-0.3432149386,-0.8448766745,-0.8568680093,-0.4911110156,-1.7376972086,-0.5764373694,-0.5218718516,0.8396097754,-0.9904252062,-0.718379318,0.5629242505,0.5319639548,0.4690735505,-0.8745508241,-1.2333278983,-0.2957152779,-0.6832697977,0.4847900376,0.5620306824,0.479686272,0.9460361913,-0.5037563857,-0.0326823478,-0.2949665789,-2.602959066,-0.915544694,-0.2442192108,-0.8361186429,-0.9026446679,0.0500177709,-0.0467071689,-0.1682624877,-0.2882969542,0.505317246,-0.3481038268,-1.0441927966,-0.248975299,-2.4438889467,0.1449370559,-0.0936942867,-0.2470388996,-1.2364466415,-0.1761571264,-1.4114781586,0.3162605426,0.1290404686,-0.0800120974,-0.2082417152,-0.2327285166,-0.1273464719,-1.0643968559,-0.0283479372,0.564528007,-0.3613365408,-0.1697576578,0.2657648602,0.6061655792,-1.3646003814,-1.0958409384,-0.7356310681,-0.0683162826,-0.300661492,0.1462539625,0.0443235455,0.1436070634,-0.0265441183,-0.7398337323,-1.4184024963,0.5630750238,0.294202106,0.4898262819,-0.9073213961,-0.7389246611,-1.7531026581,-0.4173815755,0.4208662113,-1.6485917619,0.4606262957,-0.5536922081,-1.029989075,-0.979460458,-1.1712010549,-1.0090296193,-0.6780659226,-0.3140028174,-1.7557919769,0.0106856081,-1.097085142,-1.4718002398,-0.8671255525,-0.1467616099,-0.1748699031,0.877146849,-0.2347620295,0.3525847576,0.2671348361,-0.5651824549,0.6830631716,0.0929222308,-0.2329821882,-1.9542565411,-0.2876434249,0.1931521613,-0.9257975761,-1.3000183579,-0.5448105714,-0.8065249005,-0.6328615465,0.3710045104,-1.2347485269,-0.131967869,-0.1446476486,-0.0758824017,0.1252749428,-0.0678659285,0.4317740556,-2.1681656477,-0.6618103661,-0.7155814278,-2.1644576805,-1.1534880429,-0.6712896511,-0.9053538377,-0.541646855,-0.8216255459,0.0765120785,-0.0242255196,-1.2871709918,-0.8819000724,-0.1776595566,-0.5624984257,0.5114095765,-0.7648891204,0.388338988,0.5051685072,-0.1021683594,0.5679159182,-1.2984068516,-0.1552853758,-0.9497492573,-0.272382427,0.6040036566,-0.2523858216,0.584806932,-1.1552517092,0.2714125186,-0.0786474155,0.4744940802,0.3939791929,0.0347607189,0.3731379925,-0.2467505231,-1.1147896631,-0.0978798843,-0.7794015453,-1.3432621486,0.6657880422,0.3988210669,-0.8715210518,-0.6399825685,0.0878371422,-0.3773521205,0.8220719175,0.1243112697,0.7857453698,-0.3708632362,-0.1415668422,-1.110445733,-0.5012414795,-0.686101234,0.1975864986,0.1916579958,0.0779767571,-0.7270445571,0.491780342,-1.1394731033,-0.6308008649,-0.6054588541,-0.5304396269,-1.2173386299,-1.0298936855,-0.6388592719,-0.4399071383,-0.9461527066,0.8170512288,-0.1336737339,-1.0846501974,-0.4220648197,0.0593149114,-0.6919655579,-0.670769087,0.2707647982,-0.9189095497,0.6959053713,-0.2414817446,-0.9852025571,0.8487596988,-0.4914134704,-0.3859080983,-0.9786291724,-0.7659267819,0.5020622086,-0.8360519453,-1.1018180916,-0.6203762337,-0.9054661973,0.4871161366,0.4228551502,-0.8880937879,-0.4785849373,-0.3851974242,0.6685363383,0.7957891414,-0.9841381558,0.4530895466,-0.3741697777,-0.5263483887,-0.9092779632,0.8846435372,-0.2166583789,-0.0826664073,-0.3805499498,0.6695438434,-0.019467559,0.5729653466,-1.6044231763,0.4311890101,-0.985802529,-0.7982273456,-0.2394709786,-0.9510383633,-0.8368770783,0.35816314,-0.4832902796,-0.1951380952,-0.7290181218,-0.4636458031,-0.4048687979,-0.9360268689,0.0486014109,-1.0710349283,0.0886712234,-1.2172549291,0.2318640508,-0.8061984614,-1.130063393,-0.2431964098,0.0037141884,-0.1303158322,0.3454987273,-0.0745160929,0.5679632598,-1.0640336842,-0.762554742,-0.825387899,0.8073009246,-0.5829008879,0.2493238402,-0.6071938734,-0.6631566659,-0.2525476299,-0.8908854545,0.0405663724,0.0916525688,-1.2212970701,0.2699908005,0.0731316149,-0.6482729827,0.1289041459,-1.3395877189,-0.8733298489,0.4179912937,0.2104998168,-0.1057392582,0.3643358715,0.5436990352,0.7222606781,-0.3491051052,-0.5258592248,0.340051863,0.5175848886,-0.3885689072,-1.2178108397,0.7268586666,0.4547209815,-0.4816537166,0.4530800584,-0.2204122255,-1.5208966912,-0.5155273815,-1.334885549,-0.0063489721,-0.6156523419,-0.1780802896,-0.2420800794,-1.1608343808,-1.7412470326,0.1410986294,-1.3786271337,-0.6323427183,0.6818026654,0.4756629669,-0.6259978914,0.0000874141,-0.519766852,-0.6085869847,0.3751228316,-0.8141691968,-1.0259459328,-1.3927185312,-1.4183729659,0.4999397949,-1.6655136624,-0.6357669536,-0.512404671,-0.9868599855,-0.6941859962,-0.5355883098,0.5687462034,0.0629673489,0.8167097104,-0.7608366959,-1.3365118768,0.4041543787,-0.7721289271,-0.7282560783,0.0223354098,-0.6789570903,-0.4062680165,0.5057875753,0.9211048367,-0.6092131515,-0.6880547565,0.570246772,-0.7899915979,-0.613387639,0.3479869497,0.2773518768,0.0112552176,0.3260302599,-0.7942986056,0.2265376043,-0.8948808328,0.1418574499,0.4553950133,-0.9471637547,-0.8994166973,0.2783923322,0.7549171295,-0.1593558125,0.2553985626,0.9452214822,-0.5922306915,-0.2845374418,0.7511878573,-0.7560520725,-0.5173198658,0.6343326414,-0.9693266376,-0.883774704,0.1923335567,-1.6189163159,0.0427637562,-1.1207309702,-0.7532371367,0.0548660117,-0.2066353584,-0.7259749219,0.0776376724,-0.0515603517,0.5389589954,0.2301889865,0.0018257432,-0.6641398618,-0.3964199398,0.1776544889,-1.0731441746,0.1091998734,-1.0636937085,-0.9895431573,0.460690657,0.2826420985,-0.8791270753,0.0930688808,-0.1496906637,0.6860380998,-0.2172313106,-0.5668789047,-0.2138315523,-0.5648901559,-0.9663598884,-0.5724593073,0.5230379855,-0.8844573315,-0.0853401972,0.8148368088,0.0982791473,0.0781970713,-0.6897250747,-1.3288051904,-0.2419997735,-1.250618837,-0.1086159165,-0.474090938,0.6124685012,0.6946574914,-0.2468235674,-0.7846796305,0.192264193,0.0109641644,0.1477936188,-0.35664439,-0.5078762941,-0.802799455,-0.6055336234,0.0396618956,0.634020033,-0.7622485555,-0.8564244278,-0.4178432468,-0.0408584798,0.2457819872,-0.309463326,0.0870715524,-0.8141305734,0.3841593848,0.0169400929,0.0051536649,-0.1018868155,-0.2079815246,0.1857363394,-0.1915635233,0.2745731225,-1.2051549152,-0.3248865317,-0.5750494904,-0.3641626969,-1.0928078634,-0.4359332602,-1.0570028413,-0.6220110109,-0.1203659521,0.4954570932,-0.4525662778,-1.0892211069,-1.3428618013,-0.8183824004,0.5566681747,0.4960967212,0.2970836371,-0.3085967067,-0.5977329153,-0.1911888772,0.0323851389,0.5301471556,-0.1604823291,-0.0247443407,0.1509212249,0.8898854084,0.7461462547,-0.9713014237,-0.334832331,-0.476277282,-0.190125626,-0.8057370775,-0.909996657,0.0023923686,-0.4679651481,-0.3404184061,-0.0246668707,-0.8015255052,0.4138103054,-2.0059836687,0.3564023286,-0.426925362,-1.1985860344,0.2078191305,-0.069600895,-0.966598444,0.2616370017,-0.3637798665,-1.3145892236,0.2502365643,0.2813404286,-0.5053707732,-0.8315392725,0.3610671966,-0.499371133,-1.0262108849,0.6065261166,-0.1004528841,-0.3772202526,-0.52449026,-1.4026511149,-0.2631521359,-0.4021083771,-0.2097437055,0.1507083282,0.1359868128,0.5312652065,-0.4996364318,-0.6731607521,0.6555614167,-0.6143913197,-0.3115830606,-0.7253568805,0.5261513866,-0.2776988601,-0.858171039,-0.427171603,0.2236603059,0.6896066127,0.7145473998,0.8685838993,0.0656637362,-1.0952078923,0.2948435055,0.209202497,-1.1271976499,-0.3332533176,0.1598191379,0.2334814834,-0.144593882,-0.964573465,-1.0350455031,0.7733252853,0.8700549071,-0.6237968097,0.4665999674,-0.174848237,0.8973337079,-1.0191478576,-0.8599771009,0.3039085592,0.7041323608,-1.1699379068,0.3126372553,-1.4149715188,-0.7447958107,-0.7946365532,0.6025230609,0.1423719516,-0.2957522584,-0.170092836,-1.2236314979,-0.9374322242,0.591817629,-0.1233896895,0.2121465577,0.153606037,0.2731342435,-0.3223562521,-0.727801576,-0.7601655506,0.4089828821,-0.5359126663,0.5465547589,0.6700249069,-0.4360243615,0.5493319716,0.9710123821,0.4295071729,-0.2407476517,0.0159851088,0.2602483397,-0.4730714466,-0.6487060283,0.0857648462,-0.6252538435,-0.7479427727,-1.6093864431,-0.1011716772,-0.5448876522,-0.4993662795,-0.5683495047,-0.2337289994,-0.5654057137,-1.4412335623,-0.0841317218,0.0837675037,0.7361445549,0.9156166838,0.5633270628,-0.8194713575,-0.5781276535,0.6034722723,-2.0609258223,0.3887468148,-0.8692356557,-0.7107447044,0.0624268958,-0.7899039778,-0.3202032064,0.2597975683,0.4518034861,0.0401764129,0.3690488179,0.6799875204,-0.3882252439,0.5818935206,-0.7204150761,-0.8465743186,-0.4440044162,-0.1340871543,-0.4491679462,-0.7798199697,-0.8712676677,-1.0465673614,-0.4361941126,0.5344077763,0.2177025852,0.6262590027,0.096643578,-0.6608342091,-0.9720533538,0.9120328103,-1.1198818171,-0.1100897144,0.356084606,-0.2912031574,-1.4644248501,-0.2290493865,0.2577866352,0.8201796866,-0.9611708436,0.5962692803,-0.6593715977,-0.2135631735,0.0416472598,-0.3409864684,0.1347564244,-0.9379239825,-0.019029001,-0.7902924014,-0.0441302442,-0.0291206416,-1.5569380853,-1.5619755319,0.647249436,-1.317060673,0.8586894546,0.2753002173,-0.1438329032,0.1431791264,0.5743116369,0.0439880657,0.5189736923,-0.482215534,0.3729793743,-0.5273290523,-0.331167623,-0.0556547476,-0.7894439909,-1.2063488408,-0.7561583738,-0.9626537466,-0.3950241051,-0.4785267396,-0.8685811804,-0.642535149,-0.585713823,-0.61534306,-3.2454638942,-0.3704138834,0.548813132,-0.6304500943,-0.1727451567,0.4452558156,-0.3694942079,-0.0435340976,-0.2093384922,0.2881228419,0.1037334937,-0.7010569117,-0.4060114135,-0.4250082068,-2.4648849874,0.7639292999,0.7240638329,0.0985093301,-0.3358853421,-0.6094809823,-0.7489493075,0.2690345097,0.5368146889,-0.4121789979,-0.0033818795,-1.045761305,0.3887080536,-0.8064177405,-0.4645503413,0.7982612186,-0.789224782,-0.5284236526,-1.0741066403,-1.3712684206,-1.06527594,-0.9087860368,-0.5794353731,-1.0808834651,-0.5379814293,0.3539586531,-0.8161795439,-0.5529662147,-1.1541125932,-0.525218337,-1.0913129683,-0.0451167478,-0.1877793545,-0.6798370758,0.7226137452,-0.2160253562,-0.6160374395,-1.0872292633,0.6600829249,-0.3032609512,-1.1569191725,-0.8716371393,0.1313206774,-0.36005114,-1.4397622036,-1.021669014,0.5721783792,-0.6575255906,-0.0758706896,-0.3997072099,0.7749038691,0.4274406079,-0.8322778914,-0.3247386183,-0.8006010449,-0.3053568712,-0.9823746376,-1.2998833715,0.8242889834,-1.1840201625,-0.7539294605,0.5641418602,-0.0266531543,-1.3419616446,0.6975287579,-0.061897242,0.2224469782,-0.9655118958,-0.9100618175,0.4073532637,-0.3766469947,-0.7665906512,-1.1970732549,-0.7057644822,-0.5844553372,-1.2275233866,0.8195012753,-0.4595830714,0.523963683,-1.0743599012,-0.726958598,-1.0365079698,0.5125803379,-0.4829634785,-0.6054135607,0.6217966276,0.3966213472,-0.8506932424,-1.214881799,-0.7183982582,0.4301561692,-0.3550387556,-0.1612654492,-0.9632182945,0.0211059866,-1.6156743407,-1.1899166306,0.4784005128,0.8167694462,-0.1408259105,0.1876217603,0.7734463941,-2.0409855919,0.6839912579,0.6032842956,-0.1275392507,-1.1632566354,-0.0818279392,-0.9293589634,-0.8682210272,0.1193731076,-1.057027169,-0.8832628394,0.228047254,-0.240474641,-0.5498051391,-0.8345254972,-0.1043082576,0.2733857933,0.0503132224,-0.3683152591,-1.1070566021,-0.8118329123,-0.2711233759,-1.0191648303,0.5024303781,-0.339818585,-0.512444247,0.511437238,-1.264462258,-0.8419209469,-0.9895636142,-0.3842477298,-0.4946379909,-0.1652642546,0.5793876003,0.7273258109,-0.1367474287,0.3448062506,-0.4399373392,-0.208442919,-0.0786968758,-0.7764308585,-0.1255339069,-0.651654411,0.0220528438,-0.9054660443,-0.4713327026,0.2355908892,0.2996018735,-0.011128965,0.4501132562,0.4799925918,0.0666411798,0.0500380986,-0.1858880459,-1.0843957377,-0.8546104541,-0.4840127585,0.3908515173,-0.4790269303,-1.56766214,-0.4194654477,-0.1914851888,-0.2749749359,-0.4249650299,0.2135385061,0.8189091376,-1.0043230171,0.1317249845,-0.8266980441,-1.0252650983,-0.6361011642,-0.4909316757,-0.7079951836,-0.171178123,-0.5130026666,0.5423940729,0.3809120048,-0.3648658173,-0.419184582,0.0705859566,-0.7946465918,-1.5468654803,-0.8262480532,-0.1854945005,0.2271831104,0.2475368849,0.1565598814,-1.4372947119,-0.1227495071,-0.1788238307,0.5696415013,-1.8319234264,-1.0456243336,-0.5670449962,0.2440426828,-1.3783079533,-0.9315253871,-0.4132643618,-1.0698046616,0.123134075,0.2155627143,-0.0506032498,-0.2295866741,0.6080071434,0.0659009332,0.749448361,-0.3439973902,0.0024372497,0.2592016624,0.1426048431,0.2524202204,-0.5776452568,-0.0585602565,-0.3078350127,-1.5433543529,0.2913739291,-0.3164221587,-0.5512831147,0.5403553434,0.0558598281,-0.1414766185,-0.1784474898,-0.8544052712,-0.0853261291,-0.0944559113,-1.0665976898,-1.2371488658,0.7556709069,-0.9929282347,0.838147894,-0.0557289989,-0.8333098691,-1.1343163658,0.0603335219,-0.7745055011,0.8471817502,-0.2390371133,0.5267909251,-1.0456030648,0.3983610592,0.1502616616,-1.4904521313,0.0446353984,0.0583704857,-1.0958969032,-1.2302886337,0.173349389,0.0506050666,-0.3394346151,-0.2363692655,0.3810856429,0.1368047341,-0.1577118095,0.63593299,-0.3000878811,-0.043925523,-1.4592876701,0.0463039599,0.6008470477,-0.5283537387,0.2867824809,-0.1914362098,-0.3121103534,0.8509547185,-0.8960623488,-2.315328305,0.9860665418
   -0.7496478505,0.0307099615,0.6003383042,-0.1284931802,-0.7403758042,-0.9626466591,-0.3450207658,0.242908877,-0.9058374384,-0.6425512115,0.7954911301,-0.6392188706,-1.237128733,-1.5159733922,-0.5020788307,-0.6744304334,-0.9935188292,-0.2417576089,0.7221016109,-0.681582958,-0.5342968227,0.6312053827,-0.651598383,-1.7726837566,-0.0729214505,-0.320792753,-1.1910628238,-0.9133367185,-3.9087783726,0.2717542878,0.1999710999,-1.3611859542,0.3723306109,-1.0881229128,0.4047855386,-0.8791535707,0.4195734722,-0.9163845217,-0.4613715271,-1.0188167413,0.3083652112,-0.7778824712,-0.5415894524,0.486218796,-0.4526391663,-0.5535616352,-0.9378995458,-0.5719807975,-0.2900226124,0.8489462796,0.0854643865,-1.4382952181,0.2595977409,-0.2886771176,-0.5214742113,-0.6359311112,0.4781467009,-1.0310794646,-0.7912608737,0.5737043304,-0.5038769216,-0.4888831159,0.4666718579,-1.0286340028,-0.934143404,0.3866457279,0.1096179444,-1.3018064764,-0.308640352,0.9840588876,0.3545901178,0.0034203114,0.2385413147,-0.8277600326,-1.2046814514,-0.9713700134,-1.243447414,-0.9192590588,-1.3090588428,0.2701931914,-0.1865012504,-0.8466925413,-0.9323735763,-0.367945395,0.4144665287,-0.2614401183,-0.3262224575,-0.9600225684,-0.4151323491,-0.0301870422,-0.3712902746,0.849967628,-0.5026643866,-0.933338792,-0.1034466874,-0.6482493065,0.4685700545,-0.5266839889,-1.0488144265,0.9305087092,-0.9559176425,-1.3188578933,-1.0131839817,-0.1864089883,-0.6234828805,-1.1311627541,-0.2421717484,-0.695810571,0.022795977,0.6351662523,-0.8405305408,-0.6446524386,-0.8442388908,0.2436445041,0.3738718356,-2.0238447064,-3.3033470176,-1.0224944934,-1.2692642746,-0.3550779401,0.8846938802,-0.2781638691,-0.7352011508,-1.0116513276,-0.4173877162,-3.4561597776,-0.8871300957,-0.9326694422,0.4024548379,-1.1434605122,-2.2023440616,-0.0050492609,-0.5804507358,-1.8287828016,0.0847127809,-1.8688883152,0.5737535976,-0.6629406605,0.8565631241,0.2830765869,-1.3274317198,-0.6588244105,0.0761331991,0.8873493218,0.2050676359,0.9539635518,0.608598341,-0.2231342689,0.4037272897,-2.4920903284,-1.4308781627,0.2548278158,-0.926977825,-2.4535299266,-0.9905665558,-0.4835744607,-0.1902944093,-0.1977826472,-0.2858616683,-0.5421735059,-1.0029086106,0.6336425591,0.2401253635,-1.1930876521,-0.6325317452,-1.1889003336,-0.0005633929,0.0342607341,-0.681331669,-1.2897823111,0.0116265863,0.223920069,-0.8521946508,-1.1841261854,0.3734482167,0.0591768057,-1.1552222419,-0.055059686,-0.2224544547,-1.0059246807,0.124811849,-0.8938088188,-0.5608659595,-0.1369042739,0.4211591769,-0.593401168,-1.92132472,0.7650782636,-0.563375125,-0.4509234278,-1.5753366603,-2.2222849249,-0.3935252249,-0.9519066473,-0.6728441508,-0.8595978225,-0.3758465814,0.197018495,-0.1608752418,-0.3132462401,-0.2100119083,-0.9900497101,0.8593520976,0.804270649,0.4334171973,-0.2390057776,0.7980461231,-1.1516019043,-0.185947476,0.6045526821,0.7342141068,0.2283928076,-0.5367027506,-0.9846480666,-0.0978915265,-0.9363560541,-0.8413315917,0.4317266433,-1.1927378784,-1.2654896204,0.3149416575,-0.7878446027,-0.5661943487,-0.4675895713,-0.6852234511,-0.7012791252,-0.3516936801,-0.2502818471,0.4324626011,0.5392112956,-0.5461215987,-0.348837669,-1.0675644472,-0.8839030316,-0.2917799942,-1.6166389341,0.0941932582,-1.0450911648,-0.4630135335,0.4983448328,-0.310353892,0.4477068379,-0.0263140115,-0.724699596,-0.9775452215,0.0722944393,0.1566843178,0.9090752331,-0.0821293043,-1.5917809462,0.149879933,-1.0499973287,-1.1561055732,-0.3422760386,-0.8868150064,-0.7838187139,-0.7499488943,0.265384887,0.0962844043,0.3518421608,-0.0581744216,-0.3592299136,-0.531233852,0.2496645528,-0.8581660485,-0.3156764182,0.19618193,-1.0439133032,-1.0318793607,0.2047978528,-0.5105996704,-0.5640050063,-0.3427959277,-0.8997478777,0.4792585596,0.3966517199,0.9652882937,0.3207548369,-0.2324388286,0.4508554158,0.4214523259,-0.697203039,-1.268638492,-1.0267638483,0.3040862903,-0.3420462469,0.4305614113,-0.3619947346,-0.7626532584,0.8228740133,0.9793367893,0.5027743902,0.1919886215,0.4047808637,-0.769329318,-0.0976304853,0.6504833172,-0.4805776713,-0.4725563196,-0.0254681764,-0.2132843991,-1.0108357522,0.1816987329,0.2144091608,0.6297340696,-0.8422540139,0.1539963454,-0.7152084424,0.8024543321,0.3598770066,0.4513040967,0.173196239,0.305875755,0.0226819345,0.1286450459,-0.17855692,-1.4303366471,0.5708416582,0.0186769617,-1.0842832091,-1.1552300139,0.3371633072,0.2370116799,0.3091014046,-0.3382761033,-0.9964793077,-0.3208517681,0.310093244,0.9549267031,-0.1574822493,-0.1098733651,0.4308645212,-0.2815890504,-0.8308704822,0.1579000316,-0.6956049612,-1.5792015902,-1.1539558601,-0.8660798954,-1.784019711,-0.5187421346,0.555836456,0.7169282854,-3.1348451616,-0.9066991453,0.3135225222,-0.8801912992,-1.0404583409,-0.4732106012,0.4671920498,0.2524809191,-2.8346160713,-0.8947779481,0.8749039937,0.2939171977,0.8859395667,-0.4973443811,0.86652833,-0.8028646307,0.2115666487,-0.773230136,0.5178439163,-1.143767691,-0.8952211905,-0.0768497856,-1.265072997,-0.3660499875,-0.2399074131,-0.1108326535,-0.2735925289,-0.7346944188,-1.0988133471,-1.7547435976,0.2333999857,0.2090907148,0.0033357247,-1.1063943414,-0.0515314231,0.5607873222,-1.1823124367,-0.8039905888,0.2023173718,0.5530756991,-1.3851967629,-0.1095177686,-1.2741166112,-0.0766241882,-0.5662916241,-0.3641996836,-0.2805980441,-2.1408244071,-1.0035817051,-0.009528806,-0.7239320766,0.2982383741,-1.165899923,-0.4268912623,-0.8347275798,-0.1350055566,-0.1028619139,-0.7147832951,0.4000843479,-4.1617715737,-0.687319739,0.5664748437,-3.1706947713,0.7680839459,0.3958270086,0.083392057,0.4735507785,0.5579488848,-1.0485062244,0.069706486,-0.4676261712,-1.1314823018,-0.2528836723,-1.38636165,-0.4976412574,0.7139637036,0.4905185188,-1.0654533444,-0.0101009722,-1.2245851098,0.1725771457,-1.356684103,-0.2218364097,0.7229061236,-1.2907879511,-0.834831525,-0.8044971558,-1.1292747407,0.5991582383,-0.0562689324,-0.2231262661,-1.2706518464,-2.5683914229,-2.7999961666,0.0843046291,-2.9516529131,0.1855468683,0.2209485607,-1.8206819643,0.2031650703,0.1741686971,-1.1197197296,0.1740608982,-0.200686736,-0.0803211546,-2.161543848,0.1918839472,0.7131999008,0.6661769686,0.2403920424,-1.6268521695,0.3192211412,-0.8073569125,0.4292579194,0.3000529087,-0.5367410076,-0.2800727681,0.0407081977,0.4152502608,-0.8583946601,0.0538153749,0.0888406537,-0.1553930989,-0.9738266062,-0.8516932135,-0.0230787072,-0.918273708,-0.9743013352,0.0359455489,-0.8883756222,-1.285737509,0.9157384163,-0.2412183662,0.7708027686,-1.1778899971,-0.5125992848,0.9386955,-0.8907841177,-0.0879962305,-0.2305360913,0.4744316086,0.5120875498,-0.0196582098,-0.9053086345,0.1830228637,0.6035620297,-1.0497654077,-0.8986378766,-1.0243743504,-1.05640828,-0.2925871322,0.2057455923,0.6827186221,-4.3689031932,-0.4833744888,0.1111866108,-1.4127478172,-1.0889601577,-0.5206085937,0.1720198627,-0.5341181502,-2.8339706586,-0.7811657107,0.4301541347,-0.7575254384,0.3608928379,0.5734634774,0.9538735353,0.8950905083,0.6930123402,-0.9183732056,-0.085173193,0.5327505907,-0.1968406405,-1.3961716083,0.6610638779,-0.043247613,0.0717880429,0.7442506603,0.1341284769,-0.8651370495,-0.9386592517,-0.8408460865,0.6707853883,0.1557322745,0.5812206705,0.3578484651,-0.2556716203,-0.8121432346,-0.068389999,-0.3537991686,-0.9615336091,0.001088114,-1.0142265614,-1.0384953972,-0.745920196,-1.2961717008,-2.388262469,-0.246978599,-0.5745885,-1.2017286425,-0.4401079641,-0.1998181903,-0.1260827397,-0.1223055183,0.3421683728,-0.611676171,-0.6957849548,-0.2564730223,-0.6255384938,0.1053528357,0.2369627501,-0.183622489,0.5093754775,-0.6997764362,0.448641662,0.7939236928,0.0499434967,-0.3243846543,-0.0542836633,-0.5227241368,-0.1276857289,0.5516301686,-0.7471836065,-0.5360576005,-2.8208947552,0.2564156071,-0.5479416977,-0.6434224346,0.2369262815,-0.0608398156,0.2050377594,-0.2675446382,-0.570095167,-1.6773909117,-0.053767453,-1.1927817023,-0.1222863941,-0.2710496017,-0.6405110771,-0.8410020789,-0.0738496512,-1.1705560426,-0.003179234,-0.7610672693,-0.9852276585,-0.5287426778,0.3658755221,-2.1207548934,0.7256754656,-0.0983219747,-0.9140709231,-0.9712044136,-0.3096766947,-0.7366404407,-0.2980071879,-0.3481451776,-0.5332351151,-0.4036593539,-0.1678604609,-0.253204599,0.4653756195,-0.9269502339,0.1757130534,-0.9183466241,0.1481931141,0.2002445956,-0.3272594453,0.502906668,-0.0790944208,-0.018798857,0.6309821464,0.4412926589,0.3210132559,0.2663619471,-0.9786253789,-0.5056558826,-0.4686993883,-0.9290469994,-0.9295072374,-0.0473211065,-0.3868299295,0.0940741766,-1.0440338789,-0.483343523,-0.4886471951,-0.4881993274,-0.5193106969,-0.7321664321,-0.2485214391,-0.2849294322,0.0510042895,-0.8963555581,0.2012738566,0.1852901849,0.6836624631,-1.2095346251,-0.7427196031,0.8110967154,-1.5684092939,-0.5611265642,0.0439120515,0.4496666087,0.8923286908,-0.6957375767,-0.7476763739,-1.9069787911,0.0928388403,0.2866785589,-1.7167940306,-0.7463217236,-0.2241011462,0.0103081412,0.2028270338,-0.6998106317,-0.9406648484,-0.8454282267,-0.2427087592,0.0063780866,-0.8465829946,0.4617748582,0.0585145665,-0.2199504718,-0.1952276833,0.5511781422,-1.0374497969,0.093658313,0.8892106698,-0.6060245312,-0.4018642888,-1.0208750346,-0.8377254461,-0.2703913296,-0.4505415847,-0.9664942655,-0.8238962477,-0.9832707606,-0.3407437211,-0.7079547557,-0.7776152944,-2.0450908691,-0.8111441101,-0.544823521,0.0153580072,-0.872093759,0.0575195189,-0.8651694284,-1.2380397787,0.125329993,-0.8048001614,-3.1336807218,0.8922907786,0.8016295744,0.731518452,-0.4893656893,-0.7774144877,-0.3778456302,-0.8371634933,0.5995107537,0.2891169153,-1.0397033228,0.6094580304,-0.710696238,0.1993734472,0.0645838899,-0.1975175702,-0.2310163234,-0.0898050944,-0.8263043032,0.6774120179,-0.1151562441,-0.9891791461,-0.3217348004,0.2062756415,-0.001444633,-0.3923188599,-0.3426103827,-0.9701607629,-0.9118768156,-0.6157085751,-0.3647761861,0.3764214501,-0.8298489504,-0.1831110808,-0.3936955078,0.7569344011,0.2004887822,-0.5630195294,0.2365128934,0.7297366051,0.9427260073,-0.1367751123,0.444082971,0.156531161,-1.1400928762,0.4738774629,0.4100519473,-0.5856086665,0.4130916101,-0.1940363095,0.3097957526,-0.1689829858,0.6885140946,-0.8370209576,-0.2421293631,-0.1059116769,-0.0502442385,0.4335286216,0.2818919135,-0.54809819,-0.9775337806,-0.8507053839,-0.1750336064,0.8992507141,-0.6233514532,0.4054286773,-0.6454200672,-0.7589945425,-0.3654130414,0.205914768,0.6117610632,-0.074212061,-0.6362259987,0.5307664758,0.650912109,0.6798050581,0.2219654231,-1.0709239078,-0.9563206658,-1.0616371278,-0.0146320455,0.1253581092,0.2194781947,0.4792730478,-0.0429872338,-1.063580884,-0.9760470812,0.2537327259,-1.8511437234,-0.7052841278,-2.1935558856,-0.7584819477,0.2049402835,0.4830898204,-0.8614534264,-1.088108474,-0.3942996547,0.4900739448,-0.2272157132,-1.272160928,0.503952307,-0.0262169362,0.4182090928,0.4550548195,-1.0156713847,-0.9599058478,0.1217446242,-0.8166899992,0.7020370398,-0.7228143494,0.1031633999,0.4963690223,-0.1602885514,-0.8874935629,0.4027432849,0.2910324011,0.8829406137,-0.7637541102,-1.1313720218,0.1604938887,-0.7407014038,-0.4052630155,-0.4863050217,-0.9579041845,-0.4633869536,-0.9687858244,-0.3558141367,-1.1556853197,-0.5731600854,-0.8622216623,-0.4689026268,-0.6913565057,-1.1218661044,-0.7404599769,0.2841674419,-0.0233902728,0.2297646565,-1.0690782609,-0.3950680033,-0.7967901881,-1.2988698411,-1.018549942,-0.0927166692,0.0962834988,0.4980026448,-0.206038206,0.4588785489,0.7397894165,0.1956380141,-0.134487413,-1.3231499328,0.3587651552,0.3420361107,-0.1783684507,-0.5805522458,0.2516934723,-1.1703349951,0.0701708185,0.7383102389,-0.3624435615,0.7397829138,0.4936460112,0.1313840647,-0.5196880682,-0.1132791238,-0.3893754336,0.8668495585,-0.4038896621,0.2973343643,0.1447289646,0.4936615213,-1.5137821853,-1.0791437937,0.8851330584,-0.5255412972,0.2739916101,-0.9555938407,-0.5796185859,-0.205942172,-1.274245907,-0.1530366633,-1.7011167931,0.2529256499,-1.10894853,-0.9725117286,-1.0459879085,-1.0457992111,-0.4030531725,-0.0355321427,-0.9208578065,-1.702490708,0.28279037,-2.1659923419,-0.9538099542,-1.8855578445,-0.5601373649,-1.3160574079,-0.3305058337,-0.9473882348,-1.4069304289,-1.6766735342,-0.0972269092,0.7984752737,-0.9875738993,0.1706654473,-0.2606673381,-0.4716129985,-0.8615639546,-0.4359412916,0.05492373,-0.30112406,-0.7767197973,-0.0886935435,0.6483677237,0.1778951668,-1.2031094733,-0.4690896303,-0.9304769792,0.3924386391,-0.8881217804,-0.446032629,0.1588900412,0.0730904889,-1.1213131937,-0.5165775698,0.0320336813,-0.6870747939,-0.2004723093,0.5886644738,0.2851315045,-0.29238116,-0.6572481087,-0.5125528176,-0.44840712,-1.293164963,-0.8244214946,0.5317198683,-0.6463028502,-0.6499578755,-0.7319835242,-0.657843006,-0.0457926353,0.1683066623,-1.0033057041,-0.4275266913,0.5696863873,-0.5841126291,0.1781239903,0.5941135239,-0.7734244156,0.1851737436,-0.9929656665,-1.016915315,-0.0032438282,0.3215327639,-0.7709139979,0.5732147202,-0.8844649376,-0.7322438184,-0.7272733308,0.0560194403,0.3718165645,0.7387200544,-0.7173095302,-0.3725682715,-0.939758179,0.571463222,0.0105882417,-0.0020448196,0.0833098067,-0.5602879945,-1.2444939027,0.5844184362,-2.0887305711,-0.8646972928,-1.0125361238,-0.2413013257,-0.8722596184,0.6308551592,-0.7817255982,0.1655129155,-0.0950802659,0.6201471814,-0.1897284236,-0.5157713398,-1.2044784124,0.0971271435,-0.6315013307,-0.7447301454,-0.404499212,0.0436952696,-1.3331202718,-0.9644253414,0.056487779,-1.9320113605,0.6489464136,-0.3955747544,-0.9746537904,-0.2215836801,-1.0457217505,-0.9993667839,0.1606369571,0.4643040914,-0.5586725168,-0.031423926,0.2794621395,-0.5422122202,0.3235363672,-0.8945223913,-0.7964511606,-0.8102692912,0.7871940639,-0.0922957128,-3.0774254609,-0.5019261586,-0.3561525711,0.2051095077,-0.3061058738,0.2206238733,0.7513544778,-0.4355144281,0.379787768,0.2135869594,-0.6952061159,-1.0052195747,-0.7855326228,-0.3504166263,-0.0934673247,0.6719001603,-0.4928035652,0.0471738542,0.0312018272,-0.5331915829,-0.2594737221,-0.7884692795,-0.6532831886,-0.0077451113,0.1049428516,0.8563420428,-1.0680462831,-0.1048993598,0.1675265675,-0.2323910847,-1.1930805193,-0.2654758472,-1.8405123505,-1.162809868,-1.4721490371,-0.7132186719,-0.4411496967,-1.7203052769,0.450242288,0.0571197325,-1.5454585043,0.6949951372,-1.8342467933,0.8259519719,-0.7517553637,-0.7094926328,-0.7278373345,0.5907010654,0.0335489213,-0.7601101434,0.2319115364,-1.8934743204,-1.1456590378,-0.1383362534,-0.8733306589,-0.3029052379,-1.0537749839,0.5773179882,-0.608686316,0.1765468352,-1.3143879251,0.5851420451,-1.2531701036,-0.6085071382,0.9473342462,-1.0166504945,0.3429199025,0.0799586404,-0.7793914989,-0.0903192998,0.4399395766,0.0417048857,-0.8481035963,-0.5948151021,-1.030480145,-2.1177847322,0.4954714101,-0.0775488094,0.154080713,-1.4589672558,-0.9924805612,-0.6153284492,-0.4798001502,0.1118975499,-0.5378448611,-0.4900964873,0.6611267209,-0.5282412612,-0.8277947655,-0.8097362178,0.184361367,-1.952377424,-0.4377784078,-0.9171042236,0.0001918702,-1.9140042995,-1.1944711976,0.4925733959,0.6671477481,-0.0516706171,-0.7347734604,0.5760339507,-1.2863400809,0.0519723456,0.9282529673,-1.5813994975,-0.2933135969,0.5707974006,0.3670502367,-0.1086210528,-0.1372765772,0.0890745966,-0.0250610329,0.4531859074,-0.5870083449,0.4399422058,-1.3934809934,-0.2438797426,-0.253034614,-0.3213760473,0.5568197154,-0.4698259885,-0.0255774506,0.3356781151,-0.3936679445,0.1512671731,-0.0438620706,0.6240260662,-0.186114315,0.0746605504,-0.8081376026,-0.9783108246,-0.8928968647,-0.2107388328,-0.9594021518,-0.4753827043,0.0824154106,-0.7538865511,-1.0911428287,-0.9825917647,0.3352397798,-0.3782987497,-0.398646563,-0.1335325587,0.1431142816,0.9396120679,-1.2323755654,-0.3842802618,0.3187863764,0.119636655,0.7416271323,-0.4756641646,-0.1905671311,-2.8711889015,0.6804967675,-0.0341104251,-0.1140279204,-0.8006364291,-0.1637607786,-0.7465109956,-0.7590794084,-0.9593419624,-1.3215648127,0.7517966868,-2.8248889067,-1.0630864323,-0.4714730336,0.8113499589,0.0993173245,0.1628484018,0.0989932086,0.1318416423,0.1935168493,-0.6055430781,-0.7566763909,-0.9928996284,0.0606991792,-0.7159936535,-0.1798367925,-0.548665133,0.0622278689,0.1286212308,-0.5146983245,-1.3525519223,-0.0503621646,-0.6884243531,0.0485525954,0.4745819056,0.5897834476,-1.175203935,-2.2154050545,0.289345841,-0.34413812,-1.3113307916,-0.8475447366,-0.3233320657,0.5570924153,-2.0167838238,0.6630337852,0.7338304991,-0.6808417756,0.5488675472,-0.5450642674,0.2083631316,-0.7059355536,-0.0461032592,0.4647600959,-0.1589828087,0.9409103757,-0.1026360539,-0.0940372482,-0.9444076195,-1.1135083247,-0.4625095215,-0.3986764419,0.0905190829,0.1781770578,-0.2999756609,0.2914115585,0.8474287431,0.1748377412,-1.0821022446,-0.5887518549,0.520737383,-1.2896449114,0.8647531223,-0.8315086823,0.6794606445,0.3142450202,0.6519697132,-0.7908426814,-1.0090447579,-0.0001400019,-1.246471381,-1.5969625032,-0.6086501573,-0.4424016278,-0.088671601,-1.2368754022,0.2719473126,-0.9820157913,0.6020171948,0.3573695076,-0.4529340573,-0.1389618146,-0.929002729,-1.0298812401,0.0998199316,0.2204398266,0.4689901177,-0.6987983575,-1.1941257998,0.8363701104,-0.8967681277,-0.5680384673,-1.7760560258,-1.0390578369,0.3134240195,0.4949668999,0.2804537097,0.0585006053,-0.7445318037,-0.1163127043,0.1916807759,-0.1971779122,0.229101359,-1.1685921732,-0.5918448395,0.1691600247,-1.6090672642,0.3467615537,0.3783936652,-0.6706629268,0.8958215114,0.5009363452,-0.637604889,-1.0937833917,0.072898163,0.1188147865,-1.4795852654,0.2275032946,0.0140923625,-1.0079719408,-0.0891240892,-0.6781895974,-0.3375650973,0.0424630283,-0.3713992819,-0.709919783,0.1785078931,0.1532107483,0.3218946828,-1.1115774677,-1.6585517508,0.6083799964,-2.4627606481,0.6739522804,-1.0448494637,-0.1244427641,-0.4401243189,-0.811669314,0.3857124885,-1.6307294319,-0.7220413214,-0.5086917682,-0.9091511015,-1.3622579214,0.6219603164,0.6588022048,0.7699844474,-0.9811579261,0.6668706593,-1.0925587566,-0.8401465971,-1.1547315316,0.5054079763,0.5312297771,0.1799620028,-1.0577255348,-0.2522826776,-0.8201896114,0.544396452,-0.4070159143,-0.7007692892,-0.9856684658,0.8622609848,-0.8829098048,-0.5128505824,0.3952862906,0.0528896956,0.863775922,0.1866566401,0.73219811,0.2588329842,0.736373586,-1.0849089557,-0.948901092,0.2190996162,0.3430814003,-0.6585271748,0.2009011066,0.0216486234,-0.2067007291,0.4668813027,-1.004129095,0.9975324911,-0.1369314163,-0.399627696,-0.6371865341,0.8545952923,-0.8184276774,-0.5423876087,-0.9644308962,-0.5142414546,0.4221138257,0.1927081285,-0.0527668698,-0.9195246208,-0.9295536366,0.5580839909,0.3629757333,-1.1365520444,0.3393430969,-0.5039734666,-1.0088499074,-0.9317489151,-0.213560479,0.2239733897,0.1754665074,-0.5353140413,0.1180659211,-0.9875628195,-0.0226605714,0.1863598808,-0.8371161112,0.5604972119,0.8763012275,-0.939411413,0.0192250191,-0.5629952733,0.1244051953,-0.9533776268,0.5002506764,-0.9527474161,-0.615706508,-1.2909474469,-0.4742778918,-0.2887255739,-0.3596845821,-0.4923134114,-1.1085916634,-2.0037540994,0.054701482,-0.5005344311,-1.2556465908,-1.0923914449,0.3178429093,-0.3472984931,0.4414926651,-0.2738049489,-1.1154298472,-0.0663017236,-0.419731013,0.7620478945,-0.2578726558,0.1391381244,0.0831883413,0.7257517982,0.4734475319,-0.0260776135,0.5642613933,-0.8155710354,0.86104698,-0.5843170749,-0.107071842,-0.4480318796,-1.0619095677,-0.836588879,-0.8989811199,-1.0442750948,-0.9932119337,-0.6417314182,0.3586538737,-0.4987279233,0.6899996798,-1.1170946405,0.0627039956,-0.4614687251,0.1095652927,0.184895777,-0.0986937306,0.628203421,-0.7162529505,0.1820632184,-0.5901592501,-0.6672567324,-0.1661219068,-0.9597599582,-0.6364399015,-1.4807542821,0.6121033708,0.401695379,-2.280917677,-0.5418186846,-0.7513828941,-1.4383144564,-0.1660042039,0.09769188,-0.6998833651,0.4606552549,0.1520373091,0.4232750653,0.0616226484,-0.6347114246,0.1191159218,-0.881560216,-1.0197160049,0.7654560146,0.4212722118,-0.114561246,-0.2819083664,0.0222766545,-1.0144377041,-0.3329984602,-0.8298280973,-0.1139629838,0.4306971848,0.8366086114,0.0357063766,-0.3751147389,-0.3222119032,-0.8633657943,-0.0044453234,-2.751374691,-0.5146383118,-0.521219777,0.2793099185,0.6808254736,-0.6734714113,-1.9804298871,0.5054067663,-0.9709921356,-1.7401343881,-1.7674145298,-0.4749405571,-1.3310352429,-0.2571639669,-1.3062678058,-0.4215140789,-1.5540123529,-0.3681066719,-1.7838328205,-0.440734119,-1.9172780178,-0.4720052179,-1.2964698881,-0.8485176365,-0.6598814189,-0.435192929,-0.0562702417,0.2457846985,0.4930605886,0.4869762473,-5.2753043743,0.2186716245,0.5799155616,-0.8454201227,0.2681527706,0.5070041326,0.1656676176,-0.6611965931,-0.925966756,0.5029884037,-0.2040900704,-0.7466521115,0.6283332275,-0.8113102481,0.1746559183,-0.5069841444,-1.1577623956,0.74554418,-0.9336495272,0.311839963,-0.3082769141,-0.5739314837,-0.0349584712,-0.5413339741,0.7192314894,-0.2044807473,-1.2839434789,0.5632337068,-0.2176300222,0.4431263397,-1.0065421605,0.0875887973,-0.2682852598,0.5933290845,0.5944920205,-0.4082288038,0.4879666474,0.5114413602,-0.6262717207,-0.8723364389,0.5653567839,0.4097677151,0.3854862602,-1.0050024738,-0.2639124266,0.7608324712,-0.9745824072,-1.0652814287,0.039203263,-0.8291043017,-0.0163654019,0.9881634855,-0.8637043606,0.4794591112,-0.3131233309,0.0111236591,-0.0005528951,-0.2548713935,-0.5065247126,-2.0996843941,0.598900831,-0.5063111131,0.692587654,-0.686672774,0.7330241159,-0.9213326635,-0.5094143932,-0.6318783281,-0.4111488803,-1.3352832916,-0.4025437032,-2.1052829165,0.3276279725,0.6020892486,-0.6578303697,0.1828965729,-0.9671876595,-0.5273366005,-0.1492837909,-0.8200037899,-0.2205583476,0.6296860683,-1.1585460267,0.6064117575,0.4043424912,0.5971884534,-0.878320346,-0.0820430607,-0.8988398614,0.2550808073,-0.6970699783,-0.218781795,-0.0624419666,-0.048024879,-0.389831301,-0.4494571649,0.7664040909,0.3446630746,0.272292087,-0.7911634798,0.3644032051,0.2387577155,0.1654556701,-0.042726394,-0.2476860642,-0.815500382,0.6819950607,-0.371861064,0.8091408339,-3.0584885868,-0.0521609064,0.1799892049,-0.2319654882,-0.8368484673,-0.524677175,-0.2596702848,-0.8122987745,0.3463641914,-0.2972097152,0.3986616757,-0.3004835496,-1.055696609,0.5268980894,0.1495068071,-0.5383566394,-0.6798998037,-0.7312298258,0.1140956725,-0.078823302,0.1465688474,-0.0753705823,-1.0038112622,-0.2711161987,-1.0045488441,-0.3258408745,0.534091008,-0.9046670562,-1.4127855317,-0.8765215894,0.02767354,0.1823557433,-1.0719460141,-0.8605222626,-0.528149322,-0.1717104938,-1.211164165,-0.9450488399,0.2484229771,0.0201724504,0.4070585753,-0.2128505279,-0.2841316413,-0.7832636574,-2.5227848428,0.2152046979,-0.3309065236,-1.3010927558,0.5115565388,0.1015902068,-0.9072175198,-0.8750982289,-1.0270748293,-0.4330102559,-0.235865506,-0.3051365359,-1.0532362309,-0.8922865046,0.7376388022,-0.6993540508,-0.8931697051,0.8906795162,0.2898052739,-0.5470675336,-0.4421595863,-0.8687881744,-0.7764428403,0.300083348,-0.1748592674,0.1768339378,-0.1869274141,-0.0522741398,-0.673548181,-0.7160455819,-0.2333669736,0.8990159253,0.1994984414,0.2765647798,0.0162122878,-0.1737205977,0.1631176716,-0.482372875,-0.345981647,-0.8573911402,-0.8726874475,-0.137472791,0.4452730748,0.3369503845,0.0277453225,-0.2429982089,-0.7628698847,-0.5853801401,0.4709278332,0.6444047129,-0.4369909383,0.0004997031,-0.9749084463,-0.0816913878,-0.2724809415,-0.5685249579,-0.7415297118,0.4213397214,-0.5262991174,0.0617105885,0.5327918307,-0.3350563137,-0.4552193167,-0.2564787867,-0.2160346903,0.8622206231,-0.6754765929,0.7162153318,0.3641355626,0.2562435698,-0.5994087571,-0.8649364247,-0.9897444754,-0.9831700175,0.7031162614,0.6644010593,0.7834403734,-0.2010123161,-0.435328722,-0.7221862051,0.871469856,-0.8527567223,-0.3589275111,-0.8636635885,-0.8258244236,-0.2836385084,-0.6503820679,-0.0133321441,-0.3399196092,0.1628210132,-2.5285329116,0.189803843,-1.3142868062,-1.0379245483,-0.5735780954,-1.0360081669,0.4929853121,0.2264277853,0.1153361579,0.3236487115,-0.2356401785,-0.2889420957,-0.1799600788,-0.9855047608,-0.4232130315,-0.5854436457,-0.2270593102,0.9889282021,-0.404412284,-1.450813325,-0.1043923454,-0.1816479444,-0.1170962186,0.2807571969,-0.9809024833,-3.4759894925,0.1268663198,0.8254369024,-0.8000035688,0.098941722,-1.2658491622,-0.9958949192,-0.4902873179,-0.1056281671,0.0357355696,-0.6827374898,-0.6583318738,-0.7686942007,-1.5785643902,-0.2584553224,-0.6207070872,0.246906206,0.3033491194,0.3849873277,-0.9127784336,0.9239347588,-0.1046624131,-1.3121992127,-2.0032050009,-2.2625068188,-0.652691405,-1.1431601008,-0.004538535,-3.1046849008,0.0287863379,-0.2077910292,-0.1849084888,-0.1562737861,-2.3663144548,-1.5974053617,-0.9304607003,-1.5314613404,-0.741390818,-1.2766173649,0.6560196022,0.889022019,-1.8545539915,0.4501606555,0.2186297816,-0.7105151443,-0.249463831,-0.9075813512,0.3494127492,0.0526102275,-0.1335808419,0.2714492022,-0.0747089704,0.7755885495,-0.5165646138,-0.4495277907,0.0188555732,-2.6123259022,-1.0898124321,-1.1372926369,-0.8824104725,-0.159890233,-0.3384239716,-0.4875121416,-0.5436981263,-1.1144147533,-1.0890306583,0.4557723132,0.5978721032,-0.0511920262,0.0208253982,0.1922767538,-0.7615277405,-1.2380855165,-0.9690832512,0.0461342731,-0.8726329014,-0.0543201301,-1.3791171934,-0.3126989338,-0.2452990964,-0.4632078814,-0.743956271,-1.3136923113,-0.6159909427,0.6741136048,-0.4266255361,-1.0153210002,-0.8855481935,-0.0956079426,-0.6288723721,-0.0699351228,0.8302193164,-1.224527135,0.2628205031,0.0641666908,0.5520333118,-1.3206889593,-0.1131560862,-0.5394253442,0.3481213226,-0.9319928629,-0.0019016055,0.1353222572,-1.1455428558,-0.9277166541,-0.59621602,-0.6930390972,-0.3748580613,-0.6148931534,-0.4973823739,0.6964501005,-1.013033912,-1.1355469723,-0.0432877565,0.4786191984,0.6426155894,0.2581600201,0.342810167,0.305205778,-0.1396603176,0.3055006822,-0.9326347983,0.446481248,-0.5930242628,-0.9687396138,-0.3936021091,-0.5884046576,-0.5557821089,-0.2690364823,-0.6652946034,-2.8171600291,0.174955053,-1.1985931276,-0.6905223212,0.8574221424,-0.209028671,0.2367238128,-1.4294707196,-0.1250465729,0.9122955632,-0.3808017149,0.6113108009,-0.4941927223,0.1247687958,0.8211463467,-0.4213153238,-0.3700978283,-1.9603338771,-1.1385132046,0.213633189,-0.9507026635,-1.1791420831,0.316378299,-0.5832779863,0.2200331216,-0.3470115581,-0.2749697573,0.2287287379,-0.6904637998,0.4820582626,0.3934932534,0.1248081511,-0.3071734722,-0.2809141882,-0.2088396469,0.2206149766,-0.1122526296,-0.4453267383,-0.2671108196,-0.8614558597,0.0217591463,0.755676201,-0.5633157717,0.6710353592,0.3866709845,-0.1031499949,-1.0830708859,-1.4919139086,0.1918153654,-0.9072027867,-0.9911207565,-1.8218292573,0.5828594229,-0.2991643262,-0.9406722526,-0.2542743142,-0.702711928,-0.2198442855,0.3815286392,-0.3144608346,-0.8609209317,0.305231243,0.2142188415,0.9605338819,0.5398674909,-0.0001494069,0.3149432728,-0.5873559733,-1.2465044491,-0.5265864426,0.1169350612,-0.0374560945,-0.0713258382,-0.7448228755,0.8392370077,0.4463638283,-0.6614775492,-0.1698532503,-0.1586319241,-1.4740391341,-2.1890492581,-0.1307308657,-1.1435028212,-0.6139083056,0.2288916789,-1.1765191151,0.9107839631,-0.3018849879,-0.5397277404,-1.3391885502,-0.5501302391,-0.6833232821,-0.4193294693,-0.4504876543,0.5169333719,-0.1140854993,-1.4977820378,-0.1906331896,0.4344211034,-0.9389619557,-0.2717885725,-0.2299985207,-0.2686452748,0.6270673193,0.0182695803,-1.1504100527,-0.0549649148,-1.2335600027,-0.1348058112,-1.9157582698,0.2649994518,-0.3488719913,-1.6232620549,0.300322056,-0.0342457108,-0.6639676213,-0.5593032623,-0.0220903697,-0.6962016108,0.0052931079,-0.1423182966,0.6502574261,-0.5261195964,-0.2143031054,0.8067218391,-0.9455030643,0.7744236903,-0.4139802795,-0.6469458343,-0.5617512513,-1.2127781199,-0.5354775244,-0.2805344853,-0.4543135865,0.6506192681,0.1744568731,-0.2796852278,-1.0526868818,0.6081575331,0.8537271712,-0.9336115538
