encog,BasicNetwork,java,3.4.0,1,1589091649368
[BASIC]
[BASIC:PARAMS]
[BASIC:NETWORK]
beginTraining=0
connectionLimit=0
contextTargetOffset=0,0,0
contextTargetSize=0,0,0
endTraining=2
hasContext=f
inputCount=235
layerCounts=236,21,236
layerFeedCounts=235,20,235
layerContextCount=0,0,0
layerIndex=0,236,257
output=0.9999994929,0.9999996961,0.9999999894,0.9999999965,0.9999999876,0.9999999997,0.9999999986,0.9999997827,0.9999999999,0.9999999967,0.9999999837,0.9999999142,0.9999999385,0.9999999751,0.9999992923,0.9999999978,0.9999999959,0.9999999888,0.9999999997,0.9999999767,0.999999996,0.9999999063,0.9999999793,0.999999999,0.9999998486,0.9999999955,0.9999999947,0.9999999999,0.9999999965,0.9999999864,0.9999998681,0.999999983,0.9999999976,0.9999999322,0.999999994,0.9999999729,0.9999994037,0.9999999874,0.999999787,0.9999999942,0.9999998004,0.99999997,0.9999999996,0.9999999787,0.9999993621,0.9999999998,0.9999999905,0.9999999987,0.9999999983,0.9999999326,0.9999999967,0.9999994702,0.9999997747,0.9999999393,0.999999492,0.9999999979,0.9999999822,0.9999999991,1,0.9999999997,0.9999999892,0.9999999989,0.9999999958,0.9999999624,0.9999999961,0.9999999998,0.9999887644,0.9999999924,0.9999999995,0.9999999958,0.9999999994,0.9999999997,0.9999997848,0.9999999984,0.9999999997,0.9999999981,0.9999999945,0.9999999989,0.9999999866,0.9999999948,0.9999999991,0.9999961013,0.9999998165,0.9999999785,0.9999999992,0.9999999861,0.9999999887,0.9999999997,0.999999956,0.9999999983,0.9999999206,0.9999999935,0.9999999165,0.9999998771,0.9999998189,0.9999999217,0.9999998493,1,0.9999975172,0.9999999977,0.9999999565,0.9999996816,0.9999999842,0.9999999961,0.9999999284,1,1,0.9999999999,0.9999999987,0.9999999923,0.9999999553,0.9999999993,0.9999999476,0.9999995854,0.9999999822,0.9999974133,0.99999999,0.9999988648,0.9999999998,0.9999999766,0.999999995,0.9999978253,0.9999999992,0.9999999939,0.9999999941,0.9999999999,0.9999999998,0.9999999719,0.9999998365,0.9999999972,0.9999998096,0.9999999996,0.9999999003,0.9999999893,0.9999999962,0.9999999917,0.9999999962,0.9999999996,0.9999999982,0.9999999705,0.999999978,0.9999999995,0.9999999766,0.9999999963,0.9999999982,0.9999999997,0.9999999975,0.9999999973,0.9999999936,0.9999996896,0.9999998213,0.9999999991,0.9999999962,0.9999998869,0.9999999968,0.9999999751,0.9999999997,0.9999999875,0.9999999943,0.9999999886,0.999999982,0.9999989294,0.99999999,0.9999999927,0.999999893,0.9999999985,0.9999999978,0.9999999909,0.9999999998,0.999999871,0.9999998808,0.9999999338,0.9999999907,0.9999999458,0.9999999993,0.9999995869,0.9999999908,0.9999999811,0.9999999999,0.9999999499,0.9999999806,0.9999999384,0.9999999921,0.9999996589,0.9999999155,0.9999999849,0.9999999619,0.9999999955,0.9999999997,0.9999999739,0.9999999971,0.9999999985,0.9999997316,0.9999999014,0.9999999751,0.9999999931,0.999999996,0.9999999789,0.9999997519,0.9999999327,0.9999995458,0.9999999849,0.9999999972,0.9999999146,0.9999999756,0.9999999999,0.9999999997,0.9999996502,0.9999999915,0.9999999916,0.9999999814,0.9999999998,0.999999998,0.9999999094,1,0.9999999954,0.9999999696,0.9999999778,0.9999999999,0.9999990991,0.9999999984,1,0.9999999983,0.9999999989,1,0.9999999997,0.9999999405,0.9999999996,0.9999999992,0.9999999924,0.9999998928,0.9999999057,0.9999999999,0.9999972637,0.9999999852,1,1,1,1,1,1,1,1,1,1,1,1,1,1,1,1,1,1,1,1,1,1,1,1,1,1,1,1,1,1,1,1,1,1,1,2,1,1,1,1,1,1,1,1,1,1,2,3,2,1,1,1,2,1,1,1,1,1,1,1,1,1,2,1,1,1,1,1,1,2,1,1,1,1,2,2,2,2,1,3,1,1,1,1,1,1,1,1,1,1,1,1,4,1,1,1,1,1,1,1,1,1,1,2,1,1,1,1,1,1,1,1,1,1,1,1,1,1,1,2,1,1,1,1,1,1,1,1,1,1,1,1,1,1,1,1,1,1,1,1,1,1,1,1,1,1,1,1,1,1,1,1,1,1,1,1,1,1,1,1,2,1,2,1,2,2,1,1,1,2,1,2,1,1,1,1,1,1,1,1,1,2,2,3,1,1,1,2,1,2,1,1,2,1,1,1,1,2,1,1,1,3,1,1,1,1,1,1,1,1,2,1,1,1,2,1,3,1,1,2,1,1,1,1,1,1,1,1,1,1,1,1,1,1,1,1,1,2,3,1,1,1,1,2,2,2,1,1,1,1,1,2,1,1,1,1,1,1
outputCount=235
weightIndex=0,4935,9655
weights=##0
##double#9655
   1.8348865441,0.178443789,0.5286729208,0.246305269,1.8005116984,0.5557116553,0.2843978934,0.9814831618,0.5480610678,1.0095764233,0.2883904694,0.3462540505,0.4346347584,0.1674504163,1.0810597041,0.7067551125,0.0174003016,1.4018383052,0.3732214406,1.3982557544,0.3113391526,1.743791358,0.030319428,0.1302879058,1.6830282114,0.5739060099,1.3269850652,0.2780583573,1.2293187814,1.7932169467,0.272230929,0.0852898341,0.8711859777,0.1702691752,0.5265868597,0.4296023765,0.1897529655,1.1213396626,1.8287882309,0.1441430859,1.0115336687,-0.4331111212,0.5625367067,0.4423914302,1.561401481,1.5050787532,1.3901037986,1.3845903135,1.4148622817,0.3637261963,0.3041782738,0.2954705012,1.5166490566,1.7863232519,0.6341471421,0.4756295141,0.368175321,1.2361428256,1.5282931991,0.1104016364,1.1463449864,0.1213891252,0.2156018719,1.2435317091,0.3835290934,1.5146368218,0.7816506137,0.3937645352,1.3649625482,0.6389657989,0.9342888831,1.1924018357,0.9170510895,0.5339887615,1.4550790545,1.5357159194,0.1177114283,0.8888862573,0.0051865579,0.7441650795,1.7454497345,0.5813093206,1.4060143054,1.100271026,1.1536316199,1.2889761084,0.7248062985,0.7651475634,0.3817327375,1.0442993767,0.7635695194,0.5317988678,0.4751060349,0.609945035,1.1234697926,0.9194145535,0.1153095878,1.798651953,1.8118194499,1.5659188056,0.9460168299,1.1278908622,1.0034745507,0.6438325051,-0.5932479465,1.074752189,0.2603905787,0.9754052531,0.5546408515,0.6742097091,1.5474277723,0.4747305075,0.9216889407,0.9456205625,0.4527702169,1.8020451904,1.4162177842,1.6788243255,1.3786123018,1.2600707431,1.5220169123,1.6732369021,0.4551096213,1.07239439,1.6696120554,0.1077734463,0.4896856744,0.5344923585,0.0088883059,0.5548405647,0.7756724337,1.4897033849,1.6533714701,0.5664140877,0.5673086141,0.1222061964,0.6989029805,1.7238613238,0.528828635,1.4545225102,0.9963169586,1.3298842244,1.787941256,0.3675389515,1.3464385816,1.7605003696,1.6056106243,0.9704785023,0.0274551549,1.164572588,0.8340279939,1.3728006569,1.7527309838,0.0493473947,0.4789190541,0.6992402535,1.8034071117,0.3997986301,0.0617341245,0.6316156159,0.9490678818,0.4570161935,0.9082099804,0.3709405156,0.5179025677,1.2405813152,1.3142910205,-0.6620480933,1.5309260424,1.0016771053,1.1891737544,0.0338540935,1.6291115513,1.3825991357,0.673917385,1.4134851629,1.5616751038,1.6992728334,0.7124367745,1.3494347133,1.1456186468,1.6713420747,0.2616197431,0.6736362861,0.8882234519,0.861980762,1.3898687625,1.7722215301,-0.099973594,1.6060217712,1.2921651927,0.7616604873,0.3450998552,0.954604561,0.3224223564,0.7905913913,1.8303650727,0.525874549,1.5269132891,0.046575073,0.8486804568,1.5513952653,1.0031007142,1.0406929474,1.5701394228,0.9694771583,0.8072242795,0.1867441578,1.8222566661,-0.277453188,1.251041862,0.0864393046,0.7207750007,1.1812490736,1.5201123002,0.7845477189,1.3777201016,0.3630599654,1.4187551513,1.6595920456,1.5697246871,1.1453147144,0.4652745251,0.0717489258,0.489326682,0.7207007736,0.0455903031,0.0214170702,0.3520710263,1.049626548,1.6368320075,0.02961277,1.0102227336,1.6545399667,1.6041041346,0.749277711,0.1274557177,1.418479047,1.1509209247,0.1098225167,1.1861110499,1.3189321439,1.8363195844,1.2570789938,0.2130551999,0.3097062719,1.162710437,0.2120928806,0.2233633251,0.1843383598,0.5057295491,0.0075810678,0.0611173919,1.1741002466,1.5117806416,0.4151206684,1.5126977531,1.5116208501,0.5894905857,0.2252254218,0.4676712766,0.3737140765,0.2318736509,1.0379597916,1.0497455848,0.7223621978,0.4820904971,1.3862121309,0.8563613592,1.4145248852,0.0581921789,0.9753298987,0.546248191,0.4074195692,1.469962197,0.0332137095,1.122188581,1.2812564034,0.5415348888,0.3084255052,0.9306413188,1.5266515833,1.8160930923,1.6247147059,1.1408106231,0.6829096491,0.2112567912,1.5733586373,0.3791944544,0.6179014913,0.4409416157,1.215902053,1.7265860098,-1.5433369698,0.4631287871,0.7165182743,0.5540111097,1.4905540148,0.3082901398,1.5640593453,0.0582774357,0.6231275632,0.4324985167,0.5623078029,0.8027838404,0.0769059697,0.4478964651,1.706276016,0.1516222919,1.3462747569,0.1300200082,0.2288194979,0.6011043663,0.3123804968,1.5843474114,1.024757221,1.3401112431,1.7932628193,1.2644046453,0.3950848137,1.2028700512,1.0067409186,0.0776416767,0.4896435237,1.7475086407,1.4353505945,0.3188250592,1.4495078892,1.1208135671,1.1572103884,0.8032008193,1.5258309763,0.4747998204,0.4871178404,1.2947071411,-0.4750884302,1.5593131014,1.4076510532,0.9363031609,0.9102675303,1.4320062966,0.653195843,1.6017739578,0.8447169997,0.4267515156,0.0263821661,1.0133009168,0.8934338987,0.0503605623,1.1892975294,1.7107687049,0.9478538735,0.6467163122,0.15404934,0.6287998572,0.9020889505,1.3729342266,1.6538239682,0.0912453129,0.8305844507,0.0709779208,1.8143062272,0.8429931125,0.2590102214,0.8917731884,1.8297445896,0.7266891458,0.9567388505,1.158619212,1.5713082458,0.6767907072,1.0204071976,1.3478480847,1.2299402565,0.476511668,0.8782697305,1.2480960178,-1.2705472933,0.325898834,0.4743646172,1.7722032638,1.6425398119,1.6153217974,0.119375733,0.845289652,1.1072778903,1.2777494182,1.4536988345,1.8026541935,1.2701135738,0.6866645419,1.8286855677,0.1164064017,0.8985107651,1.6529632735,1.0868354161,0.5075885963,0.4153559973,1.0746153172,1.8161844272,0.5041848535,0.3411200762,1.7994221093,0.6873687754,1.7236633302,0.3085071426,1.695247643,0.1113623596,1.1701745777,1.6745082471,1.4326251612,1.3945800634,0.1642503397,1.1934063491,0.8239997788,0.363634823,0.6115612457,0.3465782665,0.4671780666,-1.0531328189,1.1894442512,1.7765597447,0.6311852465,1.2476096479,1.3251531167,0.5730797502,0.4139700356,1.8091478152,1.445114756,1.0250576741,0.209946548,0.9812528432,1.1843123264,0.8455324913,1.5546957329,0.2031348499,0.1036296334,0.4278733287,0.0003869726,0.5771627949,1.8126135054,0.652415741,1.4304681968,1.6120954271,0.05986562,0.9095169409,0.2243138347,0.9617070411,0.8895847951,0.3557471932,0.8241444939,0.3513345161,0.9669204189,1.1419202767,0.8216390083,0.1296313575,1.3073165939,0.7309433119,0.8570286067,0.4106375981,0.3187313197,1.2274545643,0.4079882864,1.4833249429,1.2393104033,1.2608414859,0.2701873323,0.011202605,0.4466585107,0.0663117256,0.3940915206,0.9618209857,1.5081880175,1.578444246,1.8176105678,0.081508427,0.7811201921,1.4905628461,0.4538911559,0.9441993883,1.6879852508,1.7418642984,-0.931575148,1.5583493035,0.5314358256,1.5844843234,0.4086146296,0.6131641438,1.7976213265,0.7964570537,1.6806175436,0.0691482782,1.0755812757,1.6134554123,1.5379190078,0.3136136545,0.7765990912,1.0139982986,1.4754603444,0.969750389,1.476586236,1.644010334,0.2346649112,-0.4014866811,0.411107843,0.4365528398,0.2724525774,1.3607509063,0.5574649931,0.2341243108,1.4740122261,0.6016706316,1.7738885031,0.0330108243,0.9466815913,1.4254883442,0.4963961061,0.2859694324,1.1676291966,0.7082894268,0.2658369513,0.9330702156,0.5129255544,1.363607873,0.4420949096,1.0915825612,1.5195848455,1.0979355064,0.6939014818,1.6724342576,1.6524989928,0.8684242455,1.6825495567,1.5076779166,0.5087778678,0.967516989,0.893562032,0.561138249,0.6066472261,0.4158632487,0.13774654,0.6075378034,0.8495565057,0.8877182305,0.3897502429,0.598349624,1.337342783,0.5822979355,0.810304367,1.2313853445,0.4744511496,0.8997954066,1.7738245146,0.3790164834,0.4390257544,1.1550359574,0.2451206915,1.4868575034,0.2237955962,1.4672158463,0.5553345422,1.8043147424,1.238746825,1.4743157245,0.9003960388,0.3535032751,0.2160929389,1.5347121192,0.9027296261,0.5612174676,1.5532922326,1.7366652248,1.6427898248,0.9626552416,0.6547890587,0.9573291031,0.6624363805,0.2135309402,0.159402494,0.0471598109,1.5609385015,1.5664684579,1.7119831688,1.6999883977,1.007252527,0.6744457474,1.396428055,1.4378275451,1.198548901,0.048529295,0.7433729897,0.1380997246,0.3280918859,0.7132349972,1.7078569482,0.65525008,1.5126104618,0.831434481,0.5010999169,1.8277974092,0.7904346367,0.2740834341,0.6862086844,1.2897623843,1.239018442,1.1515589335,0.7391074668,1.6414837414,1.457001582,0.1698582862,1.6637189469,1.094244648,1.7318266816,0.4616030781,0.6508043106,0.6964314979,1.5691179818,1.2152574496,1.1846485118,0.7484532135,0.4936648823,0.3954194921,0.4086145049,0.9997124882,1.3509945513,0.618422645,1.662005049,1.3118158617,1.0202467026,-1.3353854032,0.186100839,0.7300452433,1.1478762082,1.36602409,1.0685850421,0.01994214,1.2824679894,1.7326476433,0.1374231069,1.7229735677,1.7156440108,0.2085821644,0.3110696778,0.6599486355,0.5412989178,1.4085119574,0.5534521688,1.025146829,0.5738546849,0.724923962,-1.2750529583,0.3497503428,0.3329551642,0.527529731,0.10511345,0.3045461788,1.0874924097,0.4290638734,0.4840163176,1.6129090787,1.4317322628,1.3020604545,0.6007570413,1.6781161223,0.9136451062,1.4284950551,1.5591897682,1.1883472695,1.1862563638,0.0277347271,0.287793009,1.0524957,0.0910662429,0.9589649534,1.4855089784,1.697522192,0.1478539334,0.5652185888,1.5841539875,1.4862780481,0.8426617482,0.1080286497,0.9342059452,0.9653873098,1.0813002488,1.7310379958,1.5496645039,1.1510411513,1.1281210231,1.540488571,1.5149298747,0.5954436772,-1.3177158976,1.1202820198,1.361089202,1.2498387561,1.2685023629,0.9384564875,0.0623852664,1.2907814648,0.2625603411,0.8879231767,0.5144998916,1.4052378489,0.7008865324,0.2663155997,0.1284771202,0.8629508545,1.0696039795,0.0427371555,0.062847276,1.5693862668,0.5533398941,0.8883813199,1.35637828,1.8379894955,0.6172917489,0.2502631248,1.5784942176,0.4704042892,1.4162578494,1.6271190293,1.6024769893,1.0253616118,1.5761867989,1.6355904134,0.165038896,0.8127920763,0.7242955753,0.5471554221,1.4279992194,0.1554081616,0.6775418743,0.0495586463,-0.6241365023,1.2020069073,1.5610566235,1.5687918199,0.7819041278,0.6708925785,1.7335404927,0.1172566332,1.246720754,0.3388149902,0.6506405846,0.8707023798,0.3472325935,0.2831088769,0.0288230885,0.857204098,0.1560580033,0.3456834974,1.6732228867,1.4993424574,1.1434186407,0.3491234036,0.4106155119,0.11419909,1.5852393066,1.0888021479,0.0670296623,0.1929517016,0.705957682,0.4959579374,0.4659026201,0.4188790274,0.0840659021,1.5274951688,0.049206584,0.9998645429,1.3653715576,0.2194986982,0.945000919,1.7991684344,0.3345590902,0.2548443638,1.2079694012,0.6698139892,0.176069749,0.6474096496,1.212984131,0.3461760853,0.3427239374,1.7492769808,1.6412092639,1.6520499658,1.6995142787,1.3902507056,0.3508378954,0.6491530802,0.7224254595,0.6061058055,1.1585569828,0.7381680029,0.1622827367,0.8219329925,0.9602565303,0.4916013413,0.7020786154,0.2172741369,1.3370848802,0.8016870094,1.7463944752,1.1430412931,0.7673591159,0.2307304986,0.1614959282,0.4284314095,0.7232300576,1.6515608692,1.2206663945,1.2943258075,0.4149198013,1.1776706055,1.1610913785,0.0193990066,0.3710815784,0.9860449159,-1.1936849264,1.5065235492,0.1572836211,1.2088523212,0.1801620699,0.2306111077,0.2862193152,0.195079929,1.7376738326,1.0462762397,1.8328359571,0.516654118,0.5604094609,1.7102559477,1.0133807677,0.9727616822,1.1454446839,1.7967808219,0.6548564826,0.6454117837,1.0727879695,0.4928124873,0.5921190119,0.6357390656,1.0765893074,0.420613677,0.0997849117,1.0668992386,0.3299968984,1.5693427842,0.8277356698,1.8016967296,0.618799897,0.0415480981,0.335128895,0.8926220611,1.3242170172,1.4563746192,0.6604528571,1.7128879228,0.3613256628,0.2609591298,-0.6578011971,1.6654915161,1.1724387888,0.0759551723,1.1209371142,1.3181561715,0.6305923173,1.2716492499,0.5750360469,1.5116215647,0.1730954992,0.3971098331,0.1545187557,0.216684393,0.2456452492,1.3389299205,1.6175308623,1.8346609144,0.1217166753,0.3943360733,0.6336144169,0.8514467984,1.5790251388,1.4436544851,1.6120475704,1.4227410506,1.69500819,1.3849829467,0.3934917162,1.5900205481,0.0256937673,1.4985622321,0.4524732953,0.2420064801,0.9138832386,1.6959704634,1.0094390407,1.2876507865,1.5415287753,0.8024072823,0.6146455257,0.4471180085,0.0890858602,1.3232190539,0.3048666382,1.0104633204,1.0233774085,1.0571422529,0.8624588528,0.2784527641,1.5499031799,0.1945281585,1.8238520948,0.5011477641,0.383896422,1.7827094248,1.4312997048,0.5783515048,1.2771861464,0.7198428545,1.6515778059,0.4298141002,1.0419507193,-1.5607075073,0.7344451456,0.1858198316,0.5859556412,1.2595600299,0.8047961306,1.6944954522,0.1029661823,0.7865113104,0.3710862945,1.6355912906,0.2776307202,1.0286671011,0.9685400016,0.9415461144,1.0732884485,0.9515615029,0.6926858912,0.1590865923,1.3756761566,0.3581053814,-1.7228557564,1.6587684533,0.5109266051,1.7569142783,0.1227724883,0.2110257724,0.2714673061,0.6189515791,1.5067084125,0.1636942565,1.4463276674,1.0003905936,0.6370959064,0.8915751877,0.349575328,1.5488800432,1.5895734336,1.726141501,1.5936282108,1.6808056304,1.0386325169,1.8364235503,0.3825411692,0.6646919981,1.6479525424,1.2188777883,0.7096720448,0.9456130166,1.7275716487,0.1189752078,0.8817064831,0.2254100243,1.539540973,0.7228054825,1.5440205623,1.5022020509,1.2479623859,1.5846198742,0.1685184014,0.3307192745,1.1822309443,1.2136375559,-1.0859510027,1.6262783129,1.6579925078,0.1406805623,1.1288397755,0.0977262806,1.2069150939,1.7088608621,1.290481025,1.0166044995,1.3204937385,1.20229867,1.5488235723,0.5762018097,0.7859379613,1.4075207923,0.2956211748,0.3133359406,1.0949251714,1.609271078,0.0949599898,0.3540921643,1.3666297266,1.0134953731,0.6223638661,1.0854626453,0.2974961797,0.2538837698,0.0858802682,1.5520383809,0.3475812837,1.0800796766,0.9829201403,0.7462466136,1.7188927702,0.7585958793,0.6533970511,0.840756085,1.6663662181,1.4521234298,0.9096707952,1.6351568974,1.1214700111,0.8775722509,0.3213332803,0.1946681761,0.1066719807,0.823434841,1.7522016367,0.7239622028,0.026281936,0.3049823274,1.57986464,1.7688877374,1.7875231565,0.4703620652,1.1026992322,0.617560209,0.6277156299,1.5452132897,0.9180563991,0.2351438443,1.6091480877,-0.8809754494,0.3276035573,1.6086099195,1.7976185427,1.669849119,1.4033796734,1.800201404,1.302193476,1.5560615235,0.7761428923,1.0702452572,0.8492565285,0.0622483436,1.6276950768,0.6673658676,0.2605982863,0.4038929424,1.41011056,0.9530929571,1.5746948288,0.2272493234,-1.8184283171,0.8301764558,0.9423301951,0.6714723958,1.5093097594,1.3233319903,0.2833583979,1.2747209418,0.1095301701,1.2149496172,0.3018377941,0.6954949778,1.2603437019,0.7160285436,0.4522653652,1.5124208927,0.2093940342,0.013154795,1.0152936352,0.9844232348,0.0316857745,-0.9008217263,0.922306334,0.3742469443,1.0821720217,0.9307821621,0.5388552931,0.9338278185,0.6065771552,0.0765626176,1.7873471434,1.3809774667,0.7068634576,0.2214120663,0.7344567638,0.6971411987,0.1739629785,0.068409068,1.5223224383,1.5138304745,1.7191988502,0.495112576,-1.1804468096,0.1101223127,0.7133237695,1.8112415407,1.0844910966,0.4204309251,1.0766461289,1.0933038898,0.062634933,1.7925459211,0.2592753377,0.263226437,1.6091810317,0.6185608447,0.1711229512,1.6561220458,1.4605531066,0.7441876531,0.5867604539,0.0713057204,0.863711924,0.1491276715,0.6411677677,0.4959008605,0.984002056,1.1774516772,0.0207162526,0.4507142038,0.3220268585,1.0705425289,0.4003281218,1.4681460422,0.1254608198,0.3374835426,1.6724221483,0.5007140435,1.5697546647,1.0164266338,1.1635182577,1.2927392979,0.0593596487,0.1468865442,-0.4229384908,1.2253060288,0.6349343699,1.1118155753,0.1233424216,1.7431554311,0.3248042656,1.4725680376,1.297161211,0.1590292722,1.0501899443,1.0699323971,0.6774733778,0.4025207279,0.6164472964,0.7264170036,0.5202376548,0.3121302468,1.6902783049,1.7211429072,1.4563061459,1.6566166618,0.2638324343,1.1950701227,1.1209228919,0.1758301886,1.200840222,1.0397589555,1.2446398769,0.9627135583,0.8070428112,1.7021693049,0.8866194575,1.4233188387,1.0583802489,0.6884420192,1.6353898359,0.1486744267,1.414727014,0.7791243133,1.7914720435,0.0191453429,-1.7158348933,1.5831713816,1.654361521,0.5303876762,1.6601754014,0.7946638358,0.8640122876,0.8527298675,0.7408525315,0.4025021789,0.1214376291,0.5245965658,1.8333844956,0.2656056462,0.9351179906,1.654311673,0.3850718928,1.4140453531,1.2452151087,0.7297043694,1.7768454233,0.8969741712,1.4609919459,1.1390636979,1.6144885579,0.4972944614,1.1231019041,0.5723911231,1.0813986259,1.6213250192,1.4377772644,1.546635451,0.1541187026,1.4310675656,0.9054616178,1.7514093151,0.7855801792,1.5658303251,1.4288369711,0.3218367391,1.4588914674,1.8153689539,1.1464025984,0.7372106239,1.444096071,1.5237831073,1.4484497331,1.4794094082,0.2839799917,1.3071901918,1.2308052414,0.1106916958,0.8989798513,1.4523115161,0.8767944704,1.0904071673,0.9724283563,1.7544559269,0.7018219979,0.528551614,1.8060242153,0.7376652119,1.7008268303,-0.1850102766,1.1187743288,1.2884224656,1.166451857,0.2066827364,0.2144869673,0.7026346485,0.5514614504,0.280186222,1.0979456206,1.5913818721,1.718369375,1.3909930932,0.0794221845,1.1990084027,1.8320870501,1.2867300652,1.6442102343,0.7731439891,1.5671709794,0.4012866191,-1.762819195,1.3770352105,0.0826251565,1.3455122617,1.5454928312,1.7114207651,0.9442062159,1.8273005036,1.4196742503,1.5080954832,0.3158509366,1.1968173883,1.7309094004,0.6353043352,1.7831798751,0.8404966512,1.3501037079,0.4991695497,1.2108935491,0.2000360174,0.6734185522,-1.5285980099,0.2307204959,1.5655605131,0.8780151036,1.3594649342,0.8562666864,1.3012708668,1.0061174156,0.5175602157,0.8776576789,0.8978192804,0.2735586924,0.5400538657,0.6088865202,1.5803342765,1.1167393931,1.5016291804,0.7616573472,0.810289986,1.2605462971,0.9358494202,0.4073467419,0.7325388602,0.5949951289,0.266214312,0.6676934819,1.0400994259,1.6095228822,0.578554133,1.2796540073,1.0072682646,1.1197244726,1.1524080607,0.6302255337,0.7771685156,0.7042691327,0.0778895135,1.2741503299,1.4398499385,1.2155493466,0.7008281416,1.6989266591,-1.4724302949,1.2300408017,1.761836588,0.9275587666,0.9522818905,0.2827997879,1.1140473526,1.2262889602,1.4855956292,0.0499916376,1.5139192602,1.344943663,1.6823319736,1.4715243312,0.291722645,0.0064344103,1.6928590072,0.5800687378,0.161406196,1.2916787759,1.7385321833,-1.4433332256,0.6992908059,1.1283563252,1.5851645896,1.7671095209,1.6438184886,0.2648198339,0.17362789,1.1200489247,1.4426909612,1.0703721189,0.7860533329,0.4299469443,1.2010182252,1.2772517466,1.684895402,0.939935996,0.6799027568,1.5462904802,1.0905492251,0.7239805346,0.8607309514,0.4170979653,0.1161937943,1.0730535863,0.067824677,0.537852923,0.4607742136,0.504124597,1.2720642225,0.1799928302,0.5484338173,0.7099239895,0.5647357877,1.4855914783,1.5456586123,0.0728108258,1.3171466895,0.6519845966,0.3991765852,1.0023068942,0.2915425412,-1.8218762314,1.0177387195,1.5064777974,0.5106222188,1.2941780365,0.6408794958,1.4940284368,0.1394627609,0.9028028675,0.4767471564,0.9989015135,0.9828204357,1.0037925637,0.7018990571,1.5440815715,1.0071991948,1.7225277738,0.9950141331,0.6332950012,1.6049111357,0.1848386067,-0.6683647754,1.5230929309,0.5995040966,1.0892862594,1.3364422107,0.4184685426,0.5362790806,1.4914189956,0.1153241143,1.3390428363,0.7806406635,1.0487950614,1.5636102709,1.6944859509,1.4761862503,0.8168669198,0.2842213817,0.9262431497,0.3542128085,1.3559758245,1.4164907935,1.3348329532,1.383390556,0.9302447368,0.4875165853,1.0787613655,0.4844533339,0.3082276757,1.5465516539,0.5729468537,1.7816821631,1.3947947919,1.2846092775,1.403705274,0.6470192641,1.2914424741,0.0527318554,1.4398995482,0.1074945669,1.3766565958,1.1118967911,0.7337371077,-0.1241305458,1.8369178178,1.678104544,0.5483035914,1.2515790118,1.2621313055,1.0070540193,0.4141069458,0.8588900991,1.6545917578,0.2157457327,0.1994185937,1.3144691921,1.767003022,1.6391040193,1.7521567236,0.3127110545,1.4928768132,1.5332581601,0.5547965287,1.5375883389,-1.6067293954,0.2295971426,0.7358206124,1.4612407141,0.5158005614,0.762773209,1.2036189844,1.3551104663,0.3569649131,1.573408041,1.3976047826,0.5469617301,1.7152348891,1.4072099085,1.7603889624,0.6328835436,0.7010334842,0.9573176626,0.844172328,1.4505842968,0.6013746885,1.6211371367,1.1842575687,0.5745323234,0.6358833491,0.08970926,0.9083014848,1.7166740981,0.1955815808,0.6080535728,0.5477754102,1.0605442057,1.4984638735,0.4901566445,0.3006851162,0.4546568809,0.8377604738,1.0621571335,0.1438729004,1.264112868,1.741403296,0.3992861964,-0.3620049883,0.9807519651,1.8197001927,1.3310130562,0.3242811833,1.0307172925,0.3021250473,0.4251868091,0.4800963125,1.1928605402,1.1744904052,0.7207539469,1.8246386795,1.8377072583,1.3792760105,0.0363121433,0.3111147756,1.2424479891,1.8247779982,0.657000387,0.0187168263,1.365386015,1.2840696431,0.4685278065,1.5303465879,0.8140755121,1.819015939,1.693522337,0.6189822672,1.1346610238,0.5290770092,0.3407814614,0.2561362798,1.617724312,0.2716299627,0.998620052,1.4922150022,0.7189061599,1.619265704,1.762510744,0.8948568631,0.6614996296,1.3779631587,1.7993864787,1.3339080192,1.730515918,0.1460867101,1.0488541372,1.2026426535,1.817820465,0.4467330482,1.7050498463,0.4395991357,0.6778489782,0.5264633324,0.6848156383,1.4905443372,0.7670400474,1.5521019052,0.295196882,0.112854055,0.5672026821,0.968415046,0.7730688553,0.2972816088,1.3994015433,1.2290527756,0.8351381064,1.6535797604,0.2693341528,1.6880283926,0.07919625,0.5860402863,1.4319238695,1.2654694534,1.1589028658,1.6966949704,0.5625391255,0.488208125,0.5792070155,0.0436521954,0.8449302145,0.9947658042,0.6982269028,1.2160178398,1.704791864,0.8764784364,0.4856178895,0.9337819174,1.8359376603,1.5966215472,0.1016161975,1.3009424779,0.8524152771,1.603745397,1.1022298617,1.7673242872,1.27654414,1.062784347,0.5733030652,1.1552692666,0.0918982352,1.4989864252,0.7742252063,1.7244060592,-1.6756656099,1.5796709931,1.347857067,0.1145824711,0.7118118728,0.6502058356,0.5523295207,0.4228475575,0.4504305631,1.3409726295,1.6549889442,0.1143594043,1.485763991,0.5169322508,1.520408819,0.8041152236,0.1746109165,1.3809198849,0.0233364101,1.5739444229,1.8129805524,-0.1015543459,1.6773275361,0.944281886,0.4154047471,1.5438968667,1.1067872209,1.1789747256,1.5844430306,0.4645263974,0.9316469803,0.9412821105,0.3651496776,1.5942729602,0.1699886889,1.2883063726,0.0574195328,0.8551396689,0.5330792959,1.7147801471,1.09211822,1.6881971661,-1.0780192961,0.1565526506,0.5784782002,0.6023818884,1.6516189391,0.162252899,0.6373306074,0.5315367001,1.5433238855,1.2667951296,0.4278414334,1.3199842905,1.2760926784,1.4967594928,1.2764172824,1.2033044842,1.2470693924,1.6263497921,1.2959522594,1.6635573099,0.6482967563,0.1658057347,0.3544346606,0.3900288292,1.5011403974,0.0481442034,0.3199023905,0.729435213,0.6118230686,0.0107368888,0.1306445377,1.0615388045,0.6004223787,0.8856264834,0.2990884579,0.8619126762,0.5646190613,0.5824287186,0.2417452013,1.4870229053,1.7578904164,1.7599089926,-1.7436412861,1.4597924505,1.0918303528,0.5199131518,0.016127444,1.1287411345,0.0570817885,1.3037025982,0.091438872,1.1870508997,0.6624819445,1.2193581312,1.2811019359,0.0224115976,0.2457667494,1.0892300505,0.2011614485,0.9274363931,1.4940127449,0.6220499459,0.4363928059,0.4539499546,0.027710029,1.3480433948,1.4316543323,0.4428771309,1.7907175347,0.4971458402,0.4423550878,0.8427726487,0.6189607422,0.0244623681,0.9672088548,0.2378263669,0.508189962,1.2247316763,0.7969579394,1.3202136579,1.5203828679,1.8217176496,1.3618703016,1.1015270794,-0.67150941,1.8239170724,1.7926165781,0.0891696081,0.2360886711,0.9571022573,0.4655558921,0.5895153993,1.3486936601,0.3653645931,0.7844394981,1.7260065227,0.3843180364,0.813694158,1.540790133,0.6796960324,1.8037084462,0.5888132041,1.8298013363,0.7688049245,0.7533463481,1.5583596546,0.4834847589,0.1484587241,0.0225691962,0.9799509092,1.7429954374,1.1280178364,1.3767367872,0.4043601883,1.3381812849,1.2698681505,1.7472222921,0.6710193288,1.4626173715,0.5130158686,1.801453686,0.7490662762,1.2746529413,0.6432081357,0.6715747301,0.0439306315,-0.3843857095,1.3510782597,0.181496012,0.9390767832,1.4771271054,0.3065815118,1.4968424893,0.0580178756,0.7179026474,0.3462629171,0.6100554141,0.1189506033,1.8159805486,0.6842230118,0.83505954,0.6989933508,1.4296926194,1.0773457239,1.0305979793,0.2050524213,1.1197905825,1.7975329871,0.3896011978,0.6305854345,1.5540610866,0.7408619835,0.7130846824,0.6184163254,0.0321483133,1.7689631701,1.7071660908,1.3509410502,1.5525197066,0.1375683683,1.0644376068,1.51944304,1.2946003805,1.5627327346,0.8737513522,1.2503020208,1.5421455173,0.9908287808,0.6573152684,0.1921294614,0.9728074108,0.7734212197,0.9842978014,1.4147515321,1.3654114623,0.8300732225,0.2678178197,0.5367485434,0.4646696302,1.3434781449,1.2838715073,0.1600723745,0.0317899375,0.393571838,0.7774451573,0.9120689006,0.5222946513,1.7309538313,0.5125539776,1.4692266948,1.6382055485,0.8211475128,1.5327953959,1.7336768625,1.4548083217,0.1423892483,1.5738080222,1.5250756382,0.636525032,0.1308317687,0.3068739166,1.4809287709,1.5413092313,1.1548007671,0.3759848523,0.1587674434,0.9469546988,0.1057017725,1.0947977141,0.3797774759,1.4343534524,1.0751315488,0.0125331389,1.3184251645,0.596926385,1.5415117152,0.527184388,1.6581158475,0.5140505375,1.4091950698,0.3226862211,0.9151157999,0.4211832013,0.253788464,0.6729439269,0.830971028,0.3309997324,0.4109662669,0.4372263009,1.5638286057,1.3809654653,0.1551971978,0.0954214569,0.4450406323,0.5970805541,1.2584023562,1.782865256,1.4660487937,0.8554249755,1.4546174524,0.7128577804,1.7688424021,1.4539901574,0.5721886882,0.639887892,0.6827925064,1.7085618909,0.8780522388,0.5182601297,1.4191170375,0.5335835779,1.3607116294,-1.35228877,0.8821920827,0.2484414179,0.6549431123,0.6907066446,1.0823775838,1.125401134,0.4930637495,1.4374651215,0.9980406673,1.1251201863,1.5987717359,0.9544856781,0.9621562942,0.8719686325,0.6914958072,1.2462524227,0.0991364334,0.2237753277,1.0615315175,1.5675797543,-1.7169703903,1.4856863976,0.0853624975,0.544573998,1.2920964597,0.7318378483,0.1969634676,0.7201196721,0.948720833,1.1886893081,1.3661439378,0.4672948407,0.9990648662,0.9007546467,0.0206338896,0.2925714582,1.4188010318,0.9103636002,1.0515273415,1.3804485847,1.7280486134,-1.8180452931,1.7624285873,0.8805720276,0.5738862381,0.1704771586,1.4952463453,0.2516747994,0.13049325,0.4574618759,0.08757236,0.9787647246,0.620478961,0.25452393,0.3384127368,0.5975125337,0.7477367097,1.1744630993,1.2829675375,0.9555878075,1.2725700156,0.3926757635,1.098729939,0.646136343,1.6056897743,1.3159670656,1.1487597868,1.4965308894,0.8792249021,0.5832320704,0.5813841272,0.4809665717,0.9073469236,0.0625359205,0.7994934488,1.6548009069,0.3591907699,0.7020715874,1.6133817403,0.278643011,0.6830645333,0.1491981831,1.6795162994,-1.2643904079,0.2420308242,1.2436450633,1.0737261845,0.1250029457,1.2942937065,1.5605233787,1.1495243857,0.2799223044,1.8220312754,0.6626984318,0.5027850104,0.3671363,0.4136002089,0.5978753152,1.3122979182,0.3787217319,0.6394396053,0.0218904132,1.5852843781,1.2731702861,-0.837320588,1.0228469602,0.2316476902,1.4495792756,1.4654643196,1.5773524861,1.6451655205,0.8608619622,1.3777084619,1.5399888591,0.9817390362,1.3758065565
   1.209951948,1.141924167,1.2423453299,0.6468144557,1.6600877492,1.4221563752,1.5887713655,0.959896037,1.2726471131,1.482433905,0.3444020267,1.3550844046,0.0046987595,0.1480571157,0.0590262332,1.0652412552,1.3852995518,0.5036589957,0.4296693512,0.0420202189,0.6951280903,0.2939664793,0.3077079572,1.2151429009,0.0145979309,1.4015954644,1.5409222876,0.5895331891,0.9777385116,1.090444245,-0.5578191423,0.2118295245,1.0529349001,0.4405636631,1.4605727087,0.7160480414,0.6269764202,1.5987622206,0.0208284026,1.5099169853,1.3324396295,0.6368751141,0.7305168969,0.8034683797,1.4406405472,1.0486532781,0.7194377221,1.6610821965,0.1223496859,0.8931567161,1.1327254823,1.7347721748,1.0804617991,1.6635795761,1.3242853188,0.4352870801,0.8567298438,0.4496089212,0.7975775168,1.6364189117,1.263795749,1.6797514057,0.6324961301,0.3360749584,1.1341855125,0.1542026802,0.0148099349,1.6321876646,0.8071818786,0.5049486788,1.276512984,0.0786226459,-0.8089510126,0.4526751978,1.4086499452,0.7322456282,0.513047115,0.0655367055,0.6674877975,1.4786762042,0.5030518309,1.38146377,1.4096625236,0.1156651466,0.1830910608,0.8568818384,0.3741745674,0.9262427603,0.6076123166,0.4698630361,1.4062747951,0.1568947309,0.8130085762,0.437805459,1.71371275,1.2678271643,0.8077199592,0.9324302813,0.293941417,1.4651273053,1.4969493887,0.8835409874,1.031334869,1.778845211,0.766741518,0.363345758,1.1749066018,0.3266380478,1.1639353558,0.8391022672,0.7783973969,1.5110355873,0.4857734094,0.0644267,-1.1849928122,1.5045590697,0.1583196898,0.5057869704,0.3641875908,1.5376925226,0.1549939208,1.2643440962,1.6441117562,0.7164760216,0.3334800984,1.8347263081,1.1553652752,0.7743889612,1.3953115975,0.6296435729,0.084465636,1.0444261459,1.7098619744,1.2781487572,1.2232354332,0.0552188883,0.5677535713,1.0188571128,1.3389956023,0.6415230281,0.4258701865,0.5388813276,1.3113890342,0.0008933568,0.8547129379,1.3274480245,0.1516566035,1.1904079654,1.0063842601,1.6618900782,0.915976845,0.4970742083,1.0170542402,1.3142245693,0.3968681224,0.4894694509,-0.2146221726,1.7667702847,0.7145519433,1.3781042554,1.3172143333,0.1085017474,0.7908636608,1.0930559545,0.746225431,1.5487504478,1.808082504,1.5037525957,1.6641860508,1.5986479515,0.7817490105,1.3203231912,0.6635145101,1.8322360482,0.8157077921,1.5030663413,1.756353844,1.7345723578,1.5351995823,1.7190625072,0.3974094416,0.4746764958,1.5805451094,0.8326346328,1.7281320199,1.8171123617,0.8326066888,0.7958825999,1.7444002141,1.3995355989,0.2238820687,0.788328584,0.5380916132,1.4009601111,1.7984634756,1.7793264885,1.3136418335,1.3107044996,0.3240615207,1.5104993637,0.5243979836,1.2021284077,1.7841827778,1.3545902406,0.7028911634,1.6208824543,1.3829020685,1.1062318851,1.6542766104,1.3246574231,0.9279995693,1.2271958871,0.0648305437,1.0741421326,1.2229906691,0.8211034031,1.0827314596,0.2911000023,1.0226093882,1.7386197278,0.5433456598,1.6702612497,0.3342889396,1.4824343847,0.0448754002,0.293898468,0.9560043324,1.0046455027,1.4696881738,1.5500024874,0.264017163,1.7079931457,0.9892502797,1.0676332747,1.8239221239,0.5173432207,1.5299211951,0.5338472516,0.8164828064,1.4008844311,0.4225785192,0.0598917639,1.1458600485,0.3676754802,1.6818577658,1.024325682,1.4187391903,1.7533882487,0.8567530144,1.5998973493,0.7062201203,1.0035178201,0.6693302784,0.1672155407,0.4066544735,1.4800206275,0.634057808,1.2848022592,1.5855995316,0.9043938593,0.2924724088,-0.3562103367,0.3097163315,1.0856448061,1.5332349261,1.3661425127,0.6025921165,1.6292925673,0.6823544364,0.8182063366,1.0369914448,0.2084472768,0.1223202407,0.6737807083,0.9968265614,1.4608591082,1.445616858,0.2164443483,1.5508523233,0.0890154456,0.1051823749,0.6907791106,0.2993817192,1.7466419664,0.463702977,1.8234983523,1.5156526168,1.2794169239,0.4915821166,1.1759423608,0.0956108985,0.3411947791,0.9950208239,0.7901675138,0.568670091,1.1386679948,1.6562707028,0.8725763744,0.4102645158,1.0537852719,1.5031595519,1.3862016994,0.0876095267,1.6677688302,1.1314627,1.5083645746,1.3137482856,1.6478230172,0.3182789582,0.8339717892,0.1465113979,0.2017119126,1.0745253845,1.527576884,0.399727144,0.9969951755,0.3894491125,0.4563562417,0.5633525833,1.4046811411,0.9001435508,0.3800896148,1.2349014486,0.9567075106,-0.6217950184,0.3089318983,0.7137317726,0.3556673961,0.8977927154,1.5986926036,1.2805774044,1.0855501509,0.2001265276,0.6512597165,0.1286595791,0.6945726868,0.9734552058,1.2873718934,0.1444198725,1.2991801916,1.1203175109,0.0429135695,0.0427623016,0.4416086678,1.7240745841,-0.2955995281,1.8272285201,0.1582003624,1.5157636356,1.3095408975,1.2789744353,0.6536907174,0.5005815737,1.1876745142,0.1249712706,0.2394911597,0.159810534,1.7043081541,0.6189729413,0.6397004485,1.0528672626,0.5940745553,0.6923568518,1.1463823792,1.5982800574,1.1007101258,-0.2595092464,1.7881219162,1.3723921248,1.3190059987,1.716134402,0.2911208214,0.6056246188,0.0257659176,0.7029857614,0.5194745641,0.565156279,1.5297337633,0.2607764608,0.5419467058,0.5175096712,0.2419663072,0.3624927033,0.2425057102,0.0224609045,0.6153473198,0.2874405544,-0.6628357794,1.5348852861,0.934048721,1.3865717114,0.7571773248,0.2385524011,1.2651372196,0.5607663383,0.8374088545,1.0378169792,0.902899716,1.4483884804,1.5091214639,0.0377424296,1.4226712275,0.5736646253,0.7166130651,1.2265185384,0.9752594978,1.3741858509,1.3871890357,-1.701105002,0.9145839342,0.9873203019,0.7662260037,0.0900345248,0.7377162128,0.0384220247,1.3353644344,0.3912636603,0.5177842928,0.8685301704,0.0308579615,1.338655247,0.6077955228,0.4449288425,1.8200530087,0.9193493531,1.2557041252,1.0168296735,0.2696286779,0.2092960858,-0.8716595128,0.7323380378,1.6914385495,0.8705624078,0.0027684288,1.6254159904,1.5762908578,1.8294731886,0.9918586147,1.101859556,1.6634074971,0.9426520357,0.517155852,0.4327652723,0.8961398171,1.7661575791,0.342643602,1.6788344224,0.5353333817,1.3506492794,0.1728591423,1.4678326586,0.9083254406,0.6396254955,0.9895929653,1.0224114886,0.1569908221,1.135361179,0.8844772527,0.0738328911,1.0776169717,0.8154789787,1.60205986,1.4145554954,0.8162749069,1.5157192621,1.3942307202,0.5126371114,1.2001065084,0.719426145,0.9756277445,0.3285531862,-0.6107268972,1.1193863939,1.541918637,0.8785213462,0.40166423,1.7916243524,0.900972603,1.4507705887,1.4432625253,0.1024072896,1.1736784115,0.6426095808,0.1698976456,0.5385421836,1.1376914821,0.9665289488,0.2895204556,0.5900662943,0.875135915,1.4880272296,0.0678977675,1.5417378737,1.764504812,1.0242319975,0.7733361901,0.117347747,0.2340324177,0.8242015762,0.4200407199,0.8763393059,1.5910452334,0.672293376,0.190147267,1.3159686227,0.5484731795,1.1365738959,1.1921541188,0.09353656,0.582903962,0.791137709,0.2969425363,0.1541212835,-1.5607187615,1.3624376236,0.9788280867,0.3122936937,0.8306489437,1.6729351837,1.4860260088,1.2341192142,1.1375301638,1.4687747763,1.8166817683,1.7416742524,1.0101292869,1.4182492175,0.898496017,0.0924245182,0.883459954,1.0696057662,1.5327309994,0.4536965515,0.8144707523,-1.2177197021,0.6629431425,1.6266313978,1.2875386458,0.7141285031,0.5215671035,0.5105860191,1.6598503804,0.7035173243,0.5099396954,1.1526775201,0.4510125914,1.7492213718,1.2900891436,0.8771680632,1.7945901002,0.7979405436,0.1453578553,1.2925238106,0.8253723918,0.100181781,0.2360159764,1.3305902748,1.1962863959,1.316667431,1.1109658825,1.6377397649,0.4530414745,1.2713367339,0.099276092,1.1096403904,1.3045227986,1.8105686347,0.1402131383,0.1329453621,0.8247838117,1.3152827397,1.2883634102,1.3100776691,0.3414767829,1.2009256375,0.0598192552,-0.304259051,1.0121496708,1.8311697682,0.4169129758,1.5893067058,1.7957085363,0.328562665,1.4662705728,0.3615090623,1.637295826,1.3265138802,1.2694329465,0.7633325183,0.8327731284,1.267847356,1.0054826999,1.340065575,1.5678045982,0.3391640759,0.7855559491,1.7202437102,0.4858573532,0.9594205021,1.6522735434,1.25500983,1.5400464205,0.8452934903,0.9904585607,1.3602887978,0.3370834562,1.2626297102,1.7375550857,1.6848110274,0.1988582078,0.7895478783,1.3038572575,0.4469183044,0.6216380245,1.0988777432,0.6950645273,0.5142154476,1.7180435405,1.3288275067,1.15526034,1.0159605128,1.4815020208,0.2930499547,0.6612864198,0.3662161647,0.181428429,1.0598309349,0.0429224832,1.2181749624,0.7819741938,0.2221051013,0.3663520659,0.3788418723,1.8391262952,1.4424783855,0.4564249004,0.6149775258,0.5089783971,1.7808876413,1.5212805409,0.4985151145,0.5387843351,0.9270547188,1.4451270009,1.4726585307,0.7488849594,0.3502348224,0.4675474851,0.8566452626,0.8786235888,0.0710043105,0.5359910806,1.4730607124,1.0608829913,0.6252885702,0.195841376,0.4160064431,1.2021210878,0.2318511066,0.8618405664,0.768787154,0.2929214884,0.4347132374,0.8190926983,0.8116873623,1.2629746398,0.9390597338,1.4461836143,0.3398536794,1.7325068418,1.6922985427,0.9242266134,1.3436388457,0.9970424336,1.8107338526,0.3429199692,1.1159691918,0.2746978499,0.3149293423,1.0282483561,0.5577713545,1.2149034192,0.3871644612,0.8828766953,0.6968466938,1.081898812,0.0884727774,1.2879529228,1.4363837413,0.2765297648,0.9667223993,1.2954353801,0.6519050445,1.2019335242,1.4167225815,0.9079918834,1.0941475468,0.1627382219,1.139696345,0.7389238489,1.4848402193,0.1035562878,-1.8285554232,1.3169378216,0.9590624676,1.2478456172,1.3886481745,1.2059701691,0.2407276745,1.4601184953,1.5207800503,0.8580172886,1.3594894479,1.4529132152,0.1191406779,1.1858836672,0.9930767672,1.6639321196,1.5318619175,0.9826148016,1.0867006972,0.4336736077,0.286436625,0.2432923368,0.9737281862,0.6755902925,1.3242378239,0.2469161056,0.1130630252,0.6864027084,1.112846665,0.0935202005,0.7799292325,1.0428714956,0.2616075111,1.4962343851,0.0008989711,0.4118095209,1.1450854304,0.122961452,1.400815449,1.3454576594,1.5920209922,0.1875488849,1.1072467624,0.4830855157,1.232646146,1.0427975934,1.2735325903,1.6465039479,0.6476258461,0.4416506132,0.5752337157,0.8158221423,1.4001783868,0.3415826633,1.1702665503,0.6217961709,1.4746485191,0.2040659917,1.1435233368,0.4614530834,1.7157971695,1.4786465663,0.9889970695,-0.8079535868,0.1926834393,1.4694108532,0.2655570979,0.902388428,0.5786881888,0.6381521584,1.6610465231,1.7254954147,0.8308145944,1.531802913,0.1974934579,0.4724648225,1.6922326248,1.4767786288,1.7136254443,1.7798126457,0.6765398517,0.4173308075,0.0134637329,0.0161950517,1.1338862669,1.4615558003,0.4071180552,0.4350519531,0.3430924342,0.8881123265,0.4570436172,1.7529275416,0.3093882499,1.3831694028,0.8930199163,1.7192886514,1.1613316187,1.2667771928,0.0079354535,0.1439386833,1.2127214834,1.5853626861,1.8375685996,0.0653189602,0.3023665402,0.9795077742,1.479207331,1.7404422272,1.1602335017,0.1049425381,1.7585493027,1.2763880705,0.1961328694,0.0047207782,1.2418657194,1.049443119,1.7043978305,0.9531379627,1.7192758349,1.0323315746,0.2784947514,0.5254432909,0.7773300771,1.6468003893,0.3139293153,0.6699352621,-0.2385895385,0.1856354346,0.308651588,1.2740776723,0.5370255574,0.8086145805,1.5822936244,0.6946525146,1.6193311496,1.3986547684,0.2952784596,0.7368464946,1.345805619,1.6398835287,1.6986844732,1.4088066433,1.7021000793,0.6576238443,1.5932675272,0.3027062038,0.8578128794,0.9685956742,1.5845179424,0.5161910604,0.1477618301,1.2494447108,0.2491988124,1.3636291461,1.5513343673,0.9843607457,0.9170401233,1.0606393773,1.7721775988,1.2259742771,0.336180578,1.6935879962,1.173871689,0.2620720043,1.065542561,1.6718198071,0.0914097051,1.0719082239,0.1260389589,0.9322040115,1.2711640597,1.2563313701,0.9817149315,0.0349798079,1.0525981997,0.0840545269,1.5200552683,0.2966955079,0.5170933882,0.4860644235,1.5841748784,0.425687202,0.8110878755,1.1692045784,1.4407393438,1.6526774207,0.1918344412,1.2938880223,1.2418535134,-0.9058297576,1.6764090341,1.5883171018,0.5743141547,1.4081782789,0.8368105046,1.4160717015,1.2427079951,0.0816272226,0.7904864764,0.0391341109,1.0699330657,0.5993720245,0.702702004,0.4713413305,1.2180267123,0.0952974516,1.1827606862,0.3447915452,1.1986360546,1.1338893045,-0.0387155328,1.3925628875,1.2012584483,0.036303488,1.1515561505,0.7392770017,1.4574074913,1.3831427855,1.4025542312,0.6211987857,0.6409545004,1.0015620919,1.7907210193,0.456219374,0.8610803407,0.6800531064,0.6495462852,1.0364562408,1.5915861872,0.1917703517,1.2784382174,1.766930727,1.0188994519,0.3310749477,0.157178437,1.8297564234,0.2347352033,0.852065725,1.6317073841,1.048109272,0.5216901035,0.9100825603,1.6095861176,0.6075340365,1.4463593234,0.8869622428,0.1614885256,1.192073866,1.2203262774,1.0081375006,0.6061525665,0.6110991881,-0.3161784216,1.7534020016,1.3368310035,1.199558396,1.1451169565,0.4239622676,1.420673876,1.5315683897,0.1847305724,1.6719219656,0.6000534173,0.3844541705,1.7437589715,1.2029329841,1.8186357109,0.0562447874,0.6462510191,1.1823714702,0.0671288648,1.3262093321,1.2772309303,-1.5474716949,1.7809869668,0.4080514589,0.4376009513,1.1181409138,0.6539345981,0.7917134839,1.5510173682,0.0008922041,1.4218574127,1.6656642659,1.5964379541,1.6734421338,1.3287282882,0.3724706277,0.8326436211,1.3271024089,1.7962806623,0.9010412198,0.0297985966,1.0818406006,-0.6360565411,1.2128320305,0.2326980479,0.8628164046,1.7213537894,0.5136172602,1.6475608598,0.5513257007,1.7004907805,1.6634411205,1.7924305297,1.6642848133,0.7436003708,1.1886208603,0.7730773341,1.4304428617,1.6783468035,0.6937952912,0.7675114975,1.0101196589,1.1625052545,-1.216222288,1.2161163476,0.7186124884,1.3418103053,0.0790530979,0.8194131651,1.4444872891,0.3519467458,1.4421903474,0.2604640829,0.206257757,1.6098918047,1.7069460184,1.5248654492,1.3351888478,0.619495341,0.592286689,1.0619982747,1.4827839814,1.451962099,1.3011623444,-0.7405197177,0.2607368311,0.5119625735,1.7240126803,1.7134005046,1.1698676267,0.3105360481,0.0556773257,0.8937546258,1.2483759981,0.8462889326,0.9326697628,1.7397738857,0.1079058814,1.0465510321,1.0969204672,0.9770119337,1.1639040695,1.4438314925,0.5463608933,0.8414070969,1.0858202917,0.6534758179,0.0580449383,1.3917665877,0.775488299,0.3025736548,1.5943816896,0.2720713885,0.9938313722,1.0652423032,1.4228655853,0.2582244351,0.1420067051,1.4857304487,0.7957563341,0.037210196,1.6574454848,0.9188764458,1.2405657847,1.0587298863,1.0370789604,1.7095806803,0.9815103422,1.5879818345,0.5764960392,0.9297898383,1.6897967544,0.9369921411,0.6895651046,1.0357191035,0.1851622841,0.1622805853,1.3095221849,0.5517068503,0.988079863,0.3459443108,0.409140131,0.8746672483,0.4111590016,1.1595787084,1.4034757719,0.1471827199,-1.3903924674,0.2350293043,0.8107192532,0.9528677365,0.2935382122,0.6569114017,1.5655309522,0.9227609503,1.6703649245,0.4649834352,0.9133533898,0.4550447267,0.2084446009,0.3007186924,0.4310272599,1.2909441259,1.7445273473,0.741131902,0.469246557,0.6373676123,1.7282856739,-0.9550170956,1.5272018041,0.916323432,0.8101411459,1.2355322214,0.0163630828,1.0765652386,1.4816069054,1.3935115389,1.2811230322,1.7204122871,0.9278119981,1.5796687885,1.2341507522,1.5799204176,0.1160995394,1.2244461332,0.0738767662,0.8992387347,0.6559580659,1.2820364656,-0.2572329587,0.3614866911,1.7896250781,0.4995976478,0.3972277077,1.3917779069,0.8415888882,0.3268310898,1.619469054,1.54184756,0.4457725161,1.4106787235,0.4073219967,1.13683843,0.5164063093,1.239230351,1.6831743898,1.2602639395,1.7105432114,0.0559482535,0.9344669011,-0.1801064182,0.5291401377,1.0710672012,1.2151954264,0.0824801413,0.1107079738,0.6936829606,1.5354884077,0.4179566433,1.5812994485,0.5377307593,0.3585321521,0.4185598351,1.1276618126,0.9197156219,0.9614237071,0.2377348539,0.5030941426,1.7980420676,1.6258979862,0.7248158235,-0.4554122459,1.1790327477,1.1935571116,1.2127796117,0.5237605385,0.4718397083,1.1766564837,1.078630209,0.8367768125,0.1326476547,1.0379991787,1.5029450601,0.8334118057,1.7471898986,1.6274512532,1.535396042,0.4883288913,0.5450210024,0.3969286123,0.1919376255,0.4067327825,1.4329113507,1.6812396964,0.534074817,0.017079643,0.2309897945,1.5229716912,1.4290411829,0.6045953161,0.6818642531,0.9694146867,0.9065885107,0.8911111511,0.0456432498,1.0025887972,0.8031202923,1.489623494,0.9884676719,0.7663684093,1.162046671,1.3556724764,0.6289210591,-0.2044451099,0.0128846629,0.7833045909,1.3812985845,1.3033578511,1.7795012151,1.3038932547,0.5256390093,0.323025208,0.9360000971,1.6773421541,1.2038199149,1.8228171207,1.4839920931,0.0314183022,1.7376987172,0.5982224634,0.1464990388,1.5081374715,0.8514604513,1.6361998481,0.9166492023,0.6795200722,0.4072152156,1.1740467065,0.8946593382,1.407139065,1.8028907237,0.7562506448,1.4343358735,1.4436104391,1.1864073863,0.0802878501,0.3468846625,1.8038224922,0.2403571578,1.2520223123,1.1249047764,0.6957013324,0.6807839292,0.2668735474,1.0294594792,-0.5083503521,1.137988051,0.5384201126,0.4104468129,1.3183508204,0.1591496603,1.5833492244,1.1411585247,0.85269649,0.9973740307,1.3057787617,0.3223225083,1.6456096392,0.4370652014,1.2471816092,1.1207755154,0.1198162011,0.0983993059,1.4321602709,0.5698280926,0.9962434614,1.5431212965,0.7824676125,1.7272851803,1.2888874944,0.986740599,1.236778511,0.635763216,0.9296225055,1.3293515923,0.5284391676,0.1844220933,0.411633709,1.4816464888,0.6763291433,0.7083948638,0.4942151361,0.8275026857,0.6302470104,1.7036171104,0.3271992951,1.6830724527,-0.2816225239,0.4327274548,1.3834356878,0.7083013355,1.4441702932,1.518288322,0.1890605924,0.8993639008,1.0811505088,0.899126283,0.9176453206,0.2158576199,0.253323796,0.6998919093,1.7356498921,0.3611787412,1.727112058,1.2076561265,0.3019454725,0.5232751348,1.1506119263,0.1830031389,0.9349138974,0.9360352075,1.3314414972,0.7497211883,0.5035993425,0.4250999207,1.5857148587,0.1084941618,0.5877364493,1.2346638591,0.4047547166,1.27224529,1.5174419745,0.7802279244,1.4564082487,0.1946592395,0.474827159,0.3830767517,0.1433432539,0.1801508783,-1.4572199942,0.2568940513,1.761629631,0.9797192711,1.8050880901,0.5447977664,0.0377206144,0.4912272432,0.7215555849,0.5962099342,1.3521661307,0.5046377508,0.2369582076,0.9313719188,1.8333187931,0.7444644096,1.6424523605,1.2024463747,1.1245232491,0.3165445941,1.1450420069,0.1919966587,0.7804984951,0.4448935323,1.5512515149,0.3072689981,1.3180062339,1.5773421632,1.0197937703,0.7008887043,1.7490007224,0.7871041175,0.7575288984,1.6120150113,0.8990945678,0.3450601652,1.5299440066,0.6894689019,0.7397287979,1.2934927721,0.0393530078,1.4129930713,-0.8216194989,0.8264979866,0.33955941,0.420400277,1.2550551177,1.0671477211,0.6354011715,0.2970580496,0.5982486551,0.8352375053,0.4175589947,0.723910616,0.9818021074,0.4185263853,1.6207045049,1.4602520722,1.5855891854,0.2961715908,0.4637782366,0.5140906618,0.8437079483,0.4497584716,0.1770458328,1.8187323149,1.5116322005,1.0519562991,1.6133618021,1.5857688998,0.9976165798,1.0445192925,0.0014221982,1.0649134979,0.0421193376,0.1471680062,1.0942571652,1.4456256424,0.8691607689,1.7735951499,1.3732956057,0.3847962525,0.3598572239,0.6673492946,1.2631100462,1.614807065,0.5061289083,1.719623398,1.5371274213,1.263364401,0.4380611573,0.4216485571,0.9273257706,1.77445234,0.8561749573,0.4630505719,0.9339278694,1.7331765081,0.7189947473,1.160986947,0.7908234917,1.2736853315,0.8755700368,1.4483039594,0.7863111309,-1.3309576996,0.2844672759,0.563547362,1.413140614,0.7452662649,1.2441504664,0.1383041301,0.9001466588,0.4298423967,1.124238472,1.4793275875,1.3156855323,1.4064443679,1.8199155572,0.2232867188,0.615238371,0.2158457022,0.8884767566,1.8341043063,0.2923529297,1.0015512561,0.5807446561,1.1326372042,0.8692668973,1.6522482457,0.7395175549,1.5695403095,1.3177254781,0.6136392064,1.2523922911,0.9113969824,1.0856400521,0.5614902478,0.6213215625,1.0445066852,1.3723041197,1.801521759,0.2760466271,1.448381086,0.3152534334,1.3562719187,1.4925845412,0.7577048239,0.0940635685,1.1237977445,0.7153288291,1.0953781725,1.0534157353,1.4582307202,1.0658497799,0.7166392176,0.3267771237,0.2450155118,0.1266863615,0.3046499171,0.5426079068,0.3042693067,1.3764824698,1.1300455532,0.0060406117,0.8413094985,1.366520591,1.494897214,0.4757014493,0.5037694199,0.9716038257,0.5576377848,0.3921363556,1.0523298806,0.404897773,1.0178073113,0.8994800482,0.9084332873,0.7439421252,1.6172163511,0.4819194222,0.0447858857,0.1713852768,1.0452990607,1.427048054,0.3729007476,1.5229165588,1.3375242362,1.4099183003,-0.9407539763,0.5876419277,0.4866222852,0.5536511457,1.0071272194,1.028124688,1.2742821276,0.7385775686,0.761257873,1.4345936913,1.6503386507,1.0256795909,0.3004007341,0.332446344,1.4246401506,0.9327001104,0.3723117119,0.8726183996,0.0725674983,0.6782165601,0.0291413675,0.9683614645,1.829622785,0.1797267318,0.062368876,1.7752610109,0.4468393213,1.6159678561,0.4669567451,1.1290007519,1.141196507,0.2324659536,0.5069602003,1.3586651564,0.8886833871,1.1068906336,0.7604724753,0.9012291793,0.1523303606,1.3470376775,1.7709675799,0.4264797413,0.3917892811,0.3584517599,0.8508617211,0.2637486602,0.4080981308,1.1868571114,0.5085543978,1.6702941032,1.2948017207,0.9761261277,0.7099754726,1.0160584444,1.4765325545,1.6598214636,0.2639536866,1.5803361719,0.7091244518,0.6421019174,0.6710731737,0.4555429531,1.8371646188,-1.8087628271,1.5661471173,1.0631353792,1.4738262444,1.6678251005,1.4749156995,1.1160911073,0.8563295745,0.8356306142,1.4737108455,1.2324943261,1.6985962283,1.677448708,0.0258330799,0.7453568782,0.0460401196,0.2360245964,1.4512723184,0.0006926292,1.2485762268,1.2874985782,-0.0494726071,0.8484371388,0.64273948,1.3781798562,1.352842345,1.5424666058,0.1579054462,0.1647018617,0.3475776224,0.2415969805,0.1234999925,1.4018519928,0.3020222928,1.3192524605,1.7986030785,0.8052475804,0.8687426284,1.2052627073,1.0323560881,0.3107862462,0.0497953904,-1.1943353598,0.8365033742,1.1738066432,1.8205069181,0.5902994358,0.2419185055,1.5640177408,1.3299641016,1.3779216526,1.4306171118,1.3080730535,0.9461451831,0.4366237086,0.734144521,0.027299119,0.4908157845,0.9220479907,1.2672086066,0.8491956706,1.3777408276,1.0415676565,-1.2573002022,1.7874667477,1.2110052874,0.7984166357,1.1820183453,0.5802846639,0.8157195093,0.5880473704,1.5756441167,0.0437861862,0.6136371374,1.5807581733,0.577131536,1.2034730423,0.7130694674,1.213235861,0.6667727002,0.0392609656,0.909469004,0.8666769426,0.5602500345,0.2575374271,1.4848443747,1.7067251918,1.2052381633,1.2611527809,0.1760353647,0.5255666175,1.6067837558,1.7709071073,1.8175318978,1.4595329806,0.1779323743,0.5346986208,0.9239832994,1.5193990138,1.3016341246,1.2842907449,1.677756228,1.3454518855,0.1797781741,0.6332155484,0.2553348307,1.2555269822,0.5414615056,1.4431822817,1.5127217153,1.010011448,0.0925269881,0.474538299,1.2256572068,0.5776240302,0.7262038249,1.1182648936,0.7811240814,0.7821983104,1.3088899022,0.6834896461,0.6370344927,1.4931505517,1.2173932516,0.8722587715,0.1215954446,-1.0646565295,0.4994155215,0.3748746156,1.3080626325,0.9631395186,0.1296966549,1.7715107394,1.3883632501,0.0317244333,0.9593045711,0.6274301046,0.8871623217,0.4723027143,1.6140369699,1.1712069417,1.708386582,0.7511522228,1.5572218994,1.7889692114,0.2919039156,0.9885812982,-1.5282466113,0.1318404201,0.2085426344,1.4484194434,0.3499390047,1.522923935,1.4196575395,0.0077512444,1.3618751259,1.337157886,0.288475884,1.1588422658,1.5157296632,0.7743399069,0.2793557762,1.0718319502,1.2847155587,0.6355565381,0.3823030966,0.6372197999,0.5540828799,0.2327650384,0.7380637652,1.6087083283,0.1356143201,1.7953049332,0.4392878608,1.2846731336,0.2608790668,0.7133053179,0.2739805576,0.4623058187,0.1219802579,1.0960871312,1.6430837709,1.5897655566,0.6836172564,0.9023232695,1.3687538765,1.0027679793,1.4516948479,0.1521876505,0.9311451513,1.3801324034,0.8631088455,1.3365205123,0.676028108,0.5617534529,1.465078996,0.1637951835,0.0012878375,0.2942233337,0.7309063181,0.8740864204,1.0253466904,0.45980663,1.5907969506,0.7221987699,0.0166784567,0.1117594979,0.3926854384,1.3363071518,0.6636481197,0.2249481023,1.0526260229,0.0039996647,1.3695732389,0.5264007716,0.5111361687,0.3441001379,0.8087013576,1.6176027001,1.6998875712,0.3984599887,0.2376004869,0.7923658022,0.4150176714,0.8824481194,0.6508335548,0.3226055902,0.5810254566,1.0848931214,0.7227457188,0.8833450831,1.380569687,0.2149880125,0.1197894896,0.7878945797,0.7191980267,0.2206726292,1.8091622836,1.6002212116,0.4355051845,0.8440854172,1.7310716547,1.2057851862,0.7714964757,0.9505631693,1.7311192726,1.7474873879,0.0399695392,0.488340699,1.459145779,1.2242564218,0.0876410602,-0.1813070476,1.8009363826,1.2671812914,0.8530534674,0.2152331501,0.7439201557,1.1285313903,0.9248676101,1.3570747015,1.1636364694,1.1322331165,0.376095268,0.9468987993,0.9422940166,0.7227931936,0.3534765607,0.4213230925,1.4466265962,1.6659961408,0.7424498885,0.0230117441,-1.1446650227,0.9957910122,1.1582580578,0.2863936531,1.2923990777,1.8051957557,1.6745120062,1.7023114763,0.144796289,0.5459909648,1.2849843502,1.0833334875,1.7514623493,1.5989075149,0.4813283483,1.3382049319,0.8865607305,0.0319489932,1.5627225118,0.2056875774,0.9558772927,-1.5686799028,1.0240899853,0.7642004284,1.4754564353,1.1028869194,1.6573923084,0.2412347486,1.1687592761,1.6969364407,1.798429522,1.043599561,1.3986171888,1.1528472262,0.9543541135,0.6614736635,0.83255926,0.4812436574,0.1123655471,0.6666643891,1.6966019387,1.2770135765,0.8544034489,1.6851278589,0.1099194793,0.9747515616,1.6731820435,0.708990762,1.6184324723,0.2007764213,0.2334377836,1.2482552215,0.0224411108,1.0436152252,0.4452741277,0.3123167588,0.4901112826,1.2462700822,1.4079852873,0.546102266,0.9876790018,1.7478452564,0.9024442479,-0.1419853279,0.6860730398,1.0271277796,0.7601096977,1.2683923119,0.640596542,1.1544421187,0.8525083711,0.3743431012,0.3518922603,1.5960412776,1.4325169334,0.9802296575,0.4707108749,0.1018749282,1.5501211607,1.0914767667,1.5222105454,0.2377954557,1.4174692787,0.5995372591,1.530582211,0.8336208471,0.9807553608,0.6895548689,1.2885940799,1.8190913265,1.784649635,0.6574640655,1.5990171043,0.9614428304,0.8362273949,0.3294897648,0.2586243498,0.0548929768,1.4429140862,1.0753937335,1.421525574,1.0794722322,0.9043719604,1.7279518977,1.4320064838,-0.8280084933,1.6701788883,0.3552496294,0.5352052353,1.49591638,1.5301926155,0.5390111909,0.6414973149,1.7889799272,0.8419151752,1.0205569317,0.7533190777,1.1797359371,0.5584248792,0.0836934642,0.8544801148,0.3690588484,1.0037730898,0.1921423971,0.5250114472,0.9300417687,-1.7376684787,1.2321559349,0.7282140324,0.6256102225,1.39649456,0.9393030602,1.4869996964,0.3458022874,0.0098167779,0.9131048526,0.5030425646,1.3097260223,1.4762264608,1.0736449584,0.6043705871,1.659850895,1.356264526,0.2308874384,0.6868969873,0.9515614113,0.3633807509,-1.7616537384,0.5979133165,1.686641227,1.6145434359,0.8476779748,0.3659307891,0.1475882094,1.3026982187,1.2608293104,1.2417037272,0.5868531266,0.3533067484,0.4367116923,0.8273503123,1.3632292521,1.8084939364,0.3870545406,0.643435932,0.3599644206,0.5019695644,0.9958163704,0.1803451779,1.0347248018
   1.34648402,0.1058344223,0.8204491213,0.6617000855,1.7306295878,0.0323121525,0.9870186522,1.1498400804,0.9645514908,1.3232150173,0.3712242745,1.2640778144,0.0049111751,0.6242377659,0.509306889,1.6658813113,1.7277759638,1.3883853631,0.2037980546,0.8752920872,0.1383540572,0.5439595541,1.7983742384,1.7861216833,1.5532198545,0.4829692352,1.0394976215,1.3338862943,0.960809451,0.5863006467,0.9524515451,1.71282958,0.6428320641,1.8064468206,0.5964917956,0.8418533602,0.3543716901,0.6254394966,0.3356011389,1.5185787978,-0.2767644096,1.7369142102,0.7583113853,1.684060494,0.5560386881,1.2789054062,0.357098513,0.7119071031,0.112901895,0.3050832116,1.3587184351,1.2168629185,0.307042447,0.3374990738,1.0084177494,1.7575509125,0.2680316194,1.1929171432,1.3763855346,0.853820346,1.2454214732,-0.7520773823,1.8272327877,0.9461181762,0.4731512329,0.0552011938,1.3423045244,0.4729023793,1.7698895426,0.8268784928,1.1732533113,0.909196539,0.4269528828,0.9969391483,0.4721274601,0.9614918525,0.3444018918,0.082551426,0.9107975238,1.3771162478,0.2896645009,0.89692717,-1.3455114119,0.8090449594,0.9904632516,0.2887421188,0.1220965159,1.0706548072,1.7250473283,0.7528209822,1.7262991007,0.9381293289,0.9188651313,0.7159142536,0.8300672756,0.4563797777,0.3719563016,1.4128608572,0.14984362,1.4552218728,0.4923738511,0.6865652244,1.5971639097,-0.9958929638,1.2188719545,1.3126307325,0.7381748098,0.067287519,1.1150669714,1.0177461614,0.4604154795,0.1627421274,1.2008463121,0.1689326525,1.2666454794,1.0916813,1.3259904279,0.8344944774,0.4039148505,0.8589236313,0.4243068636,0.360487652,0.3664758851,0.5894303764,-0.3803180961,0.7368504196,0.2384304139,0.9444608729,0.1068938359,1.7116431427,0.4218636123,0.9753245293,1.6630194131,1.0077408125,0.303477198,1.156559259,0.9165899717,0.2254452791,1.7175518093,0.2574453996,1.2271288701,1.5672794596,0.4527892839,0.734489114,0.0025369798,1.6412534134,1.4640092113,0.4565645679,0.2561436424,1.8053888706,1.7744681347,0.8040002678,0.8819247829,0.3485340198,0.862094812,1.1414493954,0.9277477039,1.560900639,0.9804962476,1.4004933716,1.1163271924,1.1085812129,1.0199246226,0.4765017327,0.5177966706,1.8256750157,-1.0401236927,0.7233478535,0.3405283927,1.5563942628,0.1094006186,0.1101802052,1.4050349852,0.6266088034,1.3349483516,0.5083177279,1.0640482103,0.5105789756,1.3975568956,1.1593327692,1.0340189105,1.6610091065,0.885992517,0.4113121153,1.6354047694,0.9027574354,0.6186718599,-1.7191844092,0.1014138143,0.0072714703,0.4939629967,1.2646537304,0.0006631568,1.0493130128,1.1978999414,0.1792560107,0.8004251825,1.631029292,0.4715915619,0.9149214617,0.4367652589,1.7314376534,1.4760755534,0.7473665757,0.4832844004,1.4800492871,1.2683450545,1.616267579,0.1774518559,1.6137890981,0.7137299311,1.3316011591,0.6233923094,0.9571262963,0.0267805579,1.4250041444,1.4908606422,1.408292286,1.5033092887,1.4164415509,1.838514762,0.9173082243,1.7961960965,1.7162290095,1.8025981629,1.0620329458,1.4212315112,0.1867950044,1.2615151567,-1.6463998334,1.2699154818,0.7335854197,1.2827973088,1.7814486467,0.1752555807,0.9261578935,1.0230810294,1.1043264059,1.6442703009,1.4544835871,1.4962966398,1.3698741214,0.0475357701,0.7662667679,1.7043202333,0.9277429955,0.5047042691,0.315349478,1.2247280791,1.7392492497,0.3865524148,0.4566997206,0.9411754999,0.0734214889,1.7013728666,0.1967518509,0.2545807776,1.3047693101,0.4333997853,0.2384373862,0.0981847863,0.3129334856,1.378877747,1.6136432094,1.1259665941,1.0745560428,0.8059160115,0.9460473542,0.9114843323,0.1435054253,0.7800162771,0.0742092614,0.4690353408,1.3825801977,0.6441101418,1.2712120232,1.5609712194,0.578770526,0.3755830641,1.4514712723,0.2745229327,0.5106327974,0.1690989467,1.3740062973,1.6365179886,1.2953678577,1.4365276924,1.8174862246,0.096196543,0.3902725075,1.4182373211,1.5121549505,-1.0832545702,1.3315076625,0.7566601789,0.3946754517,1.5168686998,0.3786350545,1.7265192911,0.0833675902,0.8381967567,0.3884531654,1.2422804822,1.8085858835,1.4722047446,0.039376288,0.8474661296,0.553033888,0.2095773812,1.47872158,1.1141243697,0.5439886998,0.5178837889,1.3518653298,1.7552800378,1.5418100852,0.6775853911,1.3230904014,0.5373656345,1.1116991325,0.8751293972,0.4010709852,0.8999273124,1.297248071,0.2203522857,0.4290975066,1.3857297066,1.8192775873,0.2940761096,0.8064763746,0.2427250442,1.1976230067,0.514170659,0.2237626373,0.2476016453,0.630367945,1.5831776893,0.0414152747,1.6769085265,1.2736661174,0.479611647,1.732122318,0.1819052397,1.431028241,1.6121964588,0.6576823437,1.257362397,0.5119452063,1.2597529627,1.817248591,0.9869276481,1.6549324545,1.1113845976,1.1771101755,1.6473669042,-0.152615418,0.7517659014,0.0535683138,0.3824473431,1.2740946669,1.210771576,0.5240176405,0.7908171756,0.594607401,1.3052634083,0.5196645788,1.4570958213,1.0696940136,0.7341036959,1.2983614097,0.0730879411,0.6022046653,1.7463241929,1.5087676858,1.7657126173,1.2002823709,1.1768470513,1.5647588191,0.3349772395,0.6140505321,0.374496942,1.3918160909,0.9997643301,0.8696701093,1.4535765994,0.2454583454,0.3692693743,1.6308632061,0.2509431321,0.962999836,0.9906168995,1.436256745,0.7803563471,1.5347346775,0.4184678869,0.4783676799,0.1193161689,-0.6036168397,1.3056728729,1.6948644054,1.5544872478,1.2465087618,1.5896697976,1.7489568029,1.1094615578,1.7371624566,0.9622545367,1.7500714832,1.071822015,0.0861513649,1.3954691927,0.5919436464,1.1834873393,0.3770376219,0.0285355069,1.6742840447,1.1903489721,1.634150612,1.3490766348,0.8489299484,0.2618856531,0.9948336145,1.7573917893,1.643139788,1.7349147861,0.9681770833,0.5596244716,0.1589481871,1.3030991739,1.0452538318,1.4662750811,1.2232358318,1.4544840757,1.8101094038,0.0690178038,1.02188125,0.841393055,1.6749388526,0.1938552359,-1.8370195556,1.6635723677,0.1618665894,0.2763305294,1.6658482553,0.5633374021,1.6103784115,1.1501257042,0.2330830849,0.7266971048,0.4559133589,0.2701189564,1.8303995627,0.0636915917,0.5075860931,0.3558547897,1.4445479642,1.0121614469,1.7802033334,1.3078856707,1.2939252487,-1.0631554055,0.7996928176,0.5903736615,1.425497514,0.0750175904,0.4343112012,0.282778438,1.0014825578,1.3005327077,0.5946104042,1.0006715567,0.7668173137,0.6320430528,0.5455616076,0.8654008912,1.5625711665,1.2216293466,0.7234443028,1.6540129751,1.8114253315,0.0251281219,0.3100763845,1.3870637767,1.7690059526,0.0205754142,0.260692057,1.2272327337,1.5758066135,0.3472121174,1.7243543714,0.6202106047,0.6582985313,0.568998714,1.088168542,1.7991696703,1.6934126471,1.1368659644,1.3664093065,0.827049781,0.7969941064,1.5013028282,1.0494201794,1.5586073663,1.3655950209,0.0203890332,0.9323173549,1.0885136806,0.4798329066,0.8690736988,0.4074804626,0.1283097961,0.3294073845,1.7079044925,1.71274886,0.0303150426,0.1886053236,1.7189003775,0.249758022,0.0641718168,0.9090620554,0.0137184932,1.6498951069,1.310004674,-1.2561761939,0.8452670456,1.642283874,0.7151270591,0.1269409089,0.3815281812,1.121903116,1.8114998728,1.6967345336,0.8135766327,0.2593073072,0.8956856288,1.3646793023,1.3476494322,0.8214870505,0.118490051,1.1634196876,1.4641733903,1.3297151674,1.2953336687,0.6945977026,0.3588591739,1.7165516982,1.3852292279,1.5098723194,1.8015022695,1.7764911272,1.3134088506,1.7591437097,1.7668048317,1.540852844,0.9132405628,1.2264930561,0.5681076712,0.1242092707,0.5701399145,1.0382117013,1.3558756038,1.756237874,0.8678592998,0.4307241409,0.4030500735,0.7686237448,1.6175602458,1.4672452965,0.7254298407,1.5122079075,1.7666524888,0.7884685106,0.9340332424,0.9582953373,1.3924427047,0.3631661759,0.6695300495,0.6242938475,0.1818286784,0.9310792428,1.5308284178,1.7464913488,0.8175166611,0.4141217439,0.6068324829,1.7438191842,-0.5822228826,0.6321083596,0.6170872732,1.7857340798,1.2620725575,0.1450069431,1.5412921883,1.4381687407,0.4826474221,1.4135636813,1.6908006149,1.7200292881,0.9443513146,0.6477599352,0.1472059708,1.6949593078,1.3321739764,0.911220801,1.4302284659,1.5622242045,0.0884330657,-0.8973368034,0.2318474578,1.7442444782,0.5308233732,1.5544817564,1.2386952964,0.3308540817,0.9353793323,0.9137504989,1.6119649434,1.4915340077,1.3031899504,0.3196375874,1.8389201087,1.3382624809,1.77824519,0.6439578651,0.0881828641,1.7870213839,1.1410396472,1.7531250695,1.6223282739,0.1261709822,1.2628300676,0.2343075205,0.7637276406,0.3897001907,0.6942858813,1.4646741985,1.0256578516,1.2803755995,0.953616775,1.7615179684,1.228135231,1.7030669778,1.4031483315,1.3984393349,0.7159195503,0.9021737102,0.6166402814,1.7529114672,1.3337029945,0.7786788535,0.0718606436,0.8893262236,0.145234156,0.196844572,0.8666984881,0.5136513252,0.3855624833,1.4716934905,1.6190090316,1.2991780691,0.7565756234,0.701437954,0.554020869,1.2470200143,1.7957034544,0.6195985,1.0487143193,1.6580867772,0.0394199704,1.2579673963,-0.5003667698,1.5963006513,1.1685794743,0.6181603457,0.7596551942,1.2234577556,1.2699313895,0.6504443546,0.7808544049,1.7387065674,1.5113713139,0.6193730733,1.7124735086,1.5955494717,0.5339416955,1.0966530613,1.7369301627,0.4384292238,0.2746276177,0.5008318587,0.608205416,1.3165424595,1.7583493286,0.906798212,0.7513306716,0.2379967442,1.6178117947,0.7058492188,0.9363064885,0.2608982872,1.1648690911,0.9066535703,1.699578177,1.4743627011,1.6689378568,0.2160962154,1.6355373787,1.0015703299,0.5677128979,1.6058055632,0.7270682705,0.3713418051,0.6812662384,1.8088686037,0.1107042779,1.6311037046,1.5158854402,1.7777252613,1.4088069686,0.3261245936,1.6119763915,0.7745474485,0.5176675609,1.774202827,0.900035978,1.3741988006,0.3989122906,0.3214793538,0.6853462805,1.0081061263,0.333611915,1.0302560915,0.2126367827,-0.8268528447,1.1160979764,0.2265954414,1.6775774329,1.7587679023,0.3551862295,1.5337815671,0.0622472786,1.1830493434,1.7192045875,0.1823985233,0.5732394445,0.304393896,1.4062758164,0.1389517804,1.2925944809,0.6225227718,1.1964174777,1.2587816526,0.7106759499,0.1898037726,-1.4601340345,0.8309283304,0.7261722773,0.9679210199,0.3504334082,1.0719232953,0.148913177,1.2619040097,0.4733743392,0.5895273796,1.4751845154,1.7711780919,0.1212343506,0.7164556992,1.6020563673,0.3901200899,0.6414848216,0.5181233971,0.485421801,0.9128467497,0.9714608429,0.1502613787,1.4060619581,1.3884836684,0.5410112345,1.121464386,1.7558479566,0.0531749232,1.0509130614,1.1313529582,1.4780347957,1.4403928837,1.0975623915,1.312553939,0.4801407582,1.4287143997,0.9483479778,0.6976530852,1.4930474647,1.276916785,1.7062128803,0.9855680983,0.2974193786,0.2044255002,1.5406619432,1.0721771091,0.2995289877,0.0922153994,1.600811695,0.3225458434,0.4963200836,1.0664777649,1.1938808495,0.1257381112,0.5729954245,0.9548233864,0.0500669297,0.2719340824,0.2921797559,1.8231849505,0.7457053856,1.4817710256,0.0294188888,-1.4279585531,1.675794825,0.8618342683,0.2312259227,1.0138060944,0.6027151207,1.6351077222,0.961954012,0.9416448992,0.3953691337,0.2873479714,0.3466608129,0.5593346948,0.622270527,1.8286368445,0.6670817692,0.9576827267,0.4079408374,0.5694037304,0.3703869828,1.8117628624,1.2818259668,0.1874697196,0.2763719297,0.5317069426,0.5423578634,0.4079763209,0.0715557595,0.1424261451,0.0992827003,0.1904796068,0.167384903,0.6742975731,0.2216923772,0.5932418734,0.4986026088,0.6947919156,0.5419127192,0.1062356911,0.3986557831,0.5711334149,0.5561903944,0.3019064227,0.2200617107,0.1036928492,0.7070601702,0.0950617755,0.2389099799,0.2564438873,0.2741680679,0.5165551894,0.4413962183,0.1726141086,0.1254804903,0.5976143554,0.1330976102,0.4145105913,0.0719236321,0.5380836665,0.6579900226,0.2358711256,0.6311606943,0.5909672619,0.1653723009,0.5783501461,0.5160805458,0.3314346065,0.1456271135,0.3480209635,0.4270479362,0.3182193331,0.2422221671,0.4685297717,0.5585657513,0.4679242984,0.3514244076,0.3569126578,0.6750958122,0.0831844516,0.1887238628,0.1173538166,0.6265431238,0.0538649622,0.2908876841,0.1799496415,0.3778186266,0.1675157664,0.1020608302,0.532708418,0.5341353455,0.7038851476,0.5788200506,0.5752631845,0.576644728,0.3506414008,0.600787488,0.560674327,0.4217823184,0.0711829537,0.0566817377,0.0994706092,0.60121854,0.091364255,0.5882822108,0.1116741678,0.2706489683,0.2089442083,0.4089437209,0.1833967228,0.6508752909,0.1105608044,0.4486660777,0.4741372052,0.3645815664,0.1818222626,0.2340618693,0.2173405471,0.3900255469,0.2255320284,0.5707449854,0.1475535175,0.2917172854,0.3537952926,0.1638430434,0.0938143583,0.510267202,0.2485474961,0.1573412142,0.2055707615,0.0369151192,0.6317192991,0.6746336389,0.2328676411,0.3197259406,0.399752353,0.2716974762,0.2759562718,0.6689707517,0.5480266426,0.0684600982,0.2728999694,0.5134613549,0.6015748046,0.0856932031,0.4926003029,0.3226197875,0.2404768871,0.1655224447,0.4580084266,0.6995152561,0.452514502,0.400033862,0.573300084,0.3384988468,0.5593879109,0.0084261855,0.2801284226,0.2376858464,0.2365406101,0.428851839,0.0282844683,0.2158531927,0.1789295155,0.3964512299,0.3159769344,0.268082339,0.493428216,0.5644069703,0.2510278971,0.0450171576,0.396588916,0.0191241792,0.1087327272,0.5405414026,0.1611364127,0.5678122297,0.6909281019,0.410479669,0.3870934158,0.3577271208,0.2087516578,0.0830684269,0.013346954,0.6179570809,0.6913421527,0.6518038312,0.1803765055,0.4110086327,0.0889385756,0.6317298004,0.0267616614,0.6996900823,0.6935043961,0.024778213,0.4886855216,0.0496654549,0.6768575662,0.2650478109,0.515654306,0.3039258681,0.5276224298,0.6431761245,0.4796444383,0.5878942117,0.2592831731,0.6924101376,0.551651806,0.3355945792,0.0846245518,0.4032917487,0.0061907381,0.3185336346,0.206268729,0.6682828135,0.6966614305,0.1828973712,0.1656977774,0.6145967307,0.1858076383,0.4350237195,0.4167418333,0.4658912361,0.2265117382,0.369544603,0.676885978,0.6559348961,0.2823819451,0.4078017216,0.4025537238,0.1443719748,0.6885354579,0.3307176927,0.1827817032,0.5923121237,0.6859084918,0.2411849875,0.6948967823,0.5427009467,0.364521362,0.5555385314,0.445334624,0.7044123645,0.6084075747,0.1873539528,0.1568778077,0.0693676387,0.5384643869,0.5437576186,0.5228730699,0.0779397499,0.2015414356,0.2874137086,0.6928322821,0.6660076358,0.053899103,0.5162149403,0.6239641467,0.4063380051,0.5201690697,0.1691419419,0.4685774904,0.4840951328,0.1905307149,0.1998668483,0.2779357292,0.0716908846,0.6468341291,0.2372955014,0.2616807461,0.2031322089,0.0642212648,0.4045965523,0.0821208149,0.5331865979,0.5851491973,0.0227189822,0.1666310125,0.2006221318,0.2836743202,0.6123494231,0.1972956798,0.1918217461,0.1348260046,0.5092305477,0.6776003057,0.2704908179,0.394123565,0.3131414603,0.1148180307,0.4077354925,0.027192567,0.3299547263,0.5292453766,0.4468422629,0.5507993447,0.2079128885,0.3565590066,0.3965003712,0.4714352743,0.5873341842,0.2058039044,0.45610491,0.1844064699,0.6700109677,0.431367771,0.3152587656,0.0196983149,0.2598750564,0.576285766,0.3749950963,0.5565782539,0.1421667212,0.6178968488,0.4822064294,0.5585322829,0.5764312864,0.4918367478,0.6234631956,0.5455666452,0.2267954006,0.6628547207,0.4039882962,0.6664895717,0.6827821914,0.156572882,0.4112691206,0.6405586782,0.0519318187,0.3759354021,0.4335419525,0.4384490977,0.4974734173,0.2685882824,0.2309818695,0.5536872213,0.6895052774,0.0647274589,0.1942478342,0.5100275302,0.277310407,0.6208497328,0.1625128614,0.5545199866,0.4495518226,0.4410272752,0.5040982931,0.1646728815,0.4856059877,0.2256397387,0.4532974058,0.426999757,0.0169068348,0.2249465859,0.6431753778,0.699453465,0.6205884365,0.2537317863,0.4838145216,0.1817324928,0.1280878334,0.6497133638,0.2344429671,0.1109467907,0.6377654919,0.4418355268,0.3474055432,0.5656912569,0.1392430658,0.3437733958,0.627882269,0.226991105,0.2778427229,0.4414011433,0.4548852284,0.1239137924,0.5869608108,0.6987913805,0.0260766173,0.1991028394,0.4976546476,0.283542428,0.6421868503,0.4965142773,0.4198275852,0.2567571814,0.7003263519,0.5813625029,0.1802455714,0.3272560404,0.690514479,0.3636975194,0.492555745,0.5443886453,0.3699633215,0.0566472055,0.2999524135,0.0688981184,0.3295140681,0.5612429485,0.597955076,0.1293657829,0.4462321537,0.1624143619,0.1779004919,0.4851305426,0.1397518931,0.2535607971,0.0983566796,0.3943282201,0.1275753752,0.4149800362,0.4013388998,0.0791184491,0.11957084,0.5589253111,0.2964894383,0.6742588568,0.0852178682,0.3910678524,0.0443734218,0.5397630622,0.187212077,0.5657656115,0.3182852585,0.1947660123,0.2402278786,0.4273886197,0.1752050621,0.2153228933,0.6429434666,0.2024424876,0.3820429891,0.3073156678,0.6558793016,0.312371668,0.2594131919,0.6699909459,0.4674929447,0.3023873326,0.4489216288,0.0945221542,0.3650914746,0.2048828147,0.5265222796,0.2543279542,0.4839286853,0.6114590419,0.0234138443,0.4728672293,0.5406580642,0.2333752264,0.27367536,0.3805207051,0.049019403,0.1374062967,0.2088281713,0.4802085847,0.1957692968,0.2308066703,0.5367855755,0.0691272469,0.6107623135,0.476335869,0.2354683766,0.6804663625,0.0086176281,0.1548276816,0.1475725084,0.1286278156,0.0495880409,0.1890312332,0.5577231235,0.1604676837,0.3151764355,0.3532901773,0.1564675491,0.2341679319,0.2025381607,0.1044008287,0.4046657172,0.2001758162,0.6997338121,0.3818909907,0.5261172565,0.0281576457,0.3508492763,0.6663780554,0.2224118019,0.5858537206,0.561881804,0.3987863616,0.2661023233,0.5242771008,0.6845863883,0.5883401222,0.1741715904,0.3462224114,0.3963268077,0.5989671794,0.2727673676,0.2107729161,0.4709624015,0.0707215924,0.4185132253,0.2868108486,0.4866940504,0.5389318506,0.3767631314,0.5314518303,0.5225930691,0.6962338595,0.1758646445,0.6498350245,0.6830524917,0.3870433163,0.1590404224,0.2704868666,0.0716260574,0.3627108468,0.5149648579,0.5565348567,0.4762089501,0.561680497,0.4572470194,0.0659376914,0.0941588635,0.3188235362,0.1665989442,0.2614332343,0.1304955791,0.563250524,0.5592456767,0.0207396919,0.3005688546,0.3471721043,0.3465042063,0.0714472357,0.4128589136,0.2496259477,0.4009134964,0.344604555,0.0600991854,0.1539389027,0.6652069563,0.6603468579,0.3855774594,0.6318915317,0.6949562462,0.343698079,0.1588839077,0.4426997181,0.5586119688,0.3317396688,0.6257653324,0.4578449712,0.0275405716,0.2638764789,0.4524937451,0.0426981268,0.61988319,0.4322802419,0.0443722603,0.1460849472,0.2241147911,0.0624896506,0.622038295,0.602305571,0.6235526411,0.1524849712,0.0615774106,0.5733201172,0.1601887781,0.6759314473,0.2103446384,0.5420014408,0.2771433991,0.0521359846,0.08142317,0.6620187034,0.6921535204,0.591635797,0.2246432646,0.0913718435,0.5783311487,0.4518729215,0.1338234844,0.2434027472,0.4868471624,0.5830815541,0.1026509481,0.3955368094,0.1590943165,0.0604474356,0.2619131562,0.133001628,0.5213842684,0.0513899961,0.6163134631,0.5192659882,0.6165715779,0.2455961439,0.6902746115,0.7016735295,0.5332369081,0.0899392062,0.3941072938,0.3168186001,0.3290899727,0.1823576774,0.1738964884,0.0452808902,0.5877278282,0.0251628532,0.2769261622,0.6033131093,0.4921456666,0.0636351643,0.0470645321,0.6381985546,0.4301313084,0.5660957735,0.4822704151,0.1156865554,0.630588371,0.693196302,0.2324082223,0.0201241551,0.2918056922,0.0986985805,0.3729391559,0.2656853924,0.3865121638,0.3968029048,0.4239169111,0.0509400695,0.5506084491,0.6422850494,0.2361027604,0.0699106661,0.6277517984,0.53453693,0.6568951554,0.1505252829,0.3300376177,0.4997268635,0.5741654639,0.5095741042,0.3308416278,0.4191707568,0.5588880556,0.5178528128,0.2972444206,0.6594419976,0.0212879637,0.4811087313,0.0228734926,0.0085513888,0.6357048835,0.5056703928,0.5513854955,0.1433344542,0.2178149699,0.1152884818,0.2421453293,0.0800720608,0.6643087462,0.1707320828,0.5234450482,0.6665072737,0.4324330739,0.3373811058,0.3378701466,0.0143948499,0.3807873809,0.5395096909,0.0033425393,0.5992175856,0.1786311096,0.4402742684,0.5021983072,0.6173891019,0.2116744223,0.662453599,0.1645794367,0.5813236306,0.4505576843,0.1140943639,0.544671191,0.6733450115,0.5860333204,0.0583875856,0.1261875244,0.0542300213,0.4708520592,0.1061044024,0.3541547407,0.078192087,0.4038331739,0.6838721852,0.6349509599,0.1302843022,0.2097524094,0.4999827067,0.5563395909,0.4811340405,0.0465683259,0.4886272843,0.0896213099,0.2992523103,0.5136658456,0.3145687843,0.1271264221,0.5758109856,0.3746475984,0.5495473836,0.4182434536,0.6578260096,0.093109204,0.3665057082,0.3950651449,0.1342100167,0.4424895711,0.567893592,0.059652121,0.3053095024,0.0080138007,0.5503474292,0.5193994057,0.4622708395,-0.4177609209,0.2500845035,0.0258269155,0.35502306,0.0596884969,0.178997436,0.4961863569,0.0080399817,0.4440202455,0.2435472997,0.0361235425,0.5463525445,0.1206136564,0.1250233977,0.3166179129,0.1000429755,0.5278706546,0.2284386704,0.1522116953,0.2663988422,0.0548543622,0.5759034575,0.1915361817,0.6386862045,0.6409383791,0.5841044907,0.5194055395,0.1648317867,0.4458309613,0.0076227643,0.2317061038,0.5467069527,0.6283609044,0.5944941714,0.4640485358,0.3987480006,0.1129960463,0.3293570747,0.2156215277,0.6524500888,0.5324156327,0.5693384541,0.3334750937,0.3092234938,0.425541889,0.6584903686,0.1389135252,0.4868847115,0.1255438886,0.4112812851,0.5755047577,0.2263957148,0.225358219,0.3739391087,0.6323573391,0.2505783839,0.29496716,0.4791130564,0.2181205448,0.5581388181,0.1207337315,0.088579069,0.4880423909,0.4915763989,0.0166464172,0.4964833165,0.4599555573,0.2088680764,0.5957802563,0.0463898361,0.1134219751,0.2172981193,0.3476909548,0.0167899173,0.434544688,0.0441022076,0.2160192709,0.4482788131,0.1844049052,0.0907665686,0.5625868311,0.5688903974,0.665249132,0.0519403538,0.6518197433,0.2615550084,0.5036031439,0.3606279865,0.6520180053,0.5006620226,0.6290398838,0.4570389079,0.3681836447,0.1064118571,0.1609821007,0.4888922581,0.230182311,0.0186136758,0.1233342666,0.25111771,0.3780287159,0.5685506248,0.4471616655,0.1301931262,0.1165762963,0.4730975767,0.4503050453,0.3896792824,0.067055508,0.2878609666,0.6833275423,0.4621096446,0.2637044533,0.1965178251,0.0813975387,0.3283279945,0.49418227,0.4353425821,0.5878757301,0.4343603454,0.3112261446,0.3652118364,0.5290528905,0.6750327974,0.5829197042,0.3643720611,0.5417909074,0.6583590997,0.5274487675,0.6678238437,0.4825477788,0.3049024614,0.3986805945,0.232479427,0.1958247096,0.2411796389,0.4315504741,0.1029355996,0.2544880187,0.1995748567,0.1407342925,0.2887121678,0.1880766924,0.3374850205,0.1195450682,0.4882753616,0.3945720635,0.4100077176,0.1382568451,0.2192957108,0.3981503975,0.3129097537,0.0323515432,0.4072565781,0.6611822084,0.3445692905,0.2435508327,0.4256220281,0.5985915831,0.4187411533,0.2306537072,0.0777378262,0.3770932339,0.3543762914,0.4753628628,0.6163532737,0.2427943798,0.6886944452,0.4889102554,0.3213996143,0.548423565,0.5515645451,0.3304950847,0.4840650314,0.3633024517,0.2512311644,0.5242076422,0.4166121542,0.4557037648,0.6229484422,0.4196027595,0.6926527858,0.0238962591,0.5804801191,0.0286837693,0.4213189464,0.3111904909,0.4594186055,0.601321826,0.3868954251,0.3721424443,0.4223603742,0.0941091177,0.0426360587,0.5470760621,0.1441557717,0.0871902056,0.0668884661,0.3401215261,0.0584231317,0.0117922741,0.0975149743,0.5962903552,0.1136557592,0.5755779859,0.5154124882,0.7024392871,0.3072089323,0.1933434442,0.2918453262,0.6651569316,0.5616270223,0.2327607464,0.0048665114,0.5196126969,0.3724757214,0.5312643749,0.1482873201,0.3363748532,0.6351139991,0.2843071107,0.2260580356,0.3402152937,0.6645307389,0.0364678275,0.0647540557,0.2195585435,0.2590209369,0.2949807154,0.6570859056,0.344168177,0.5380773985,0.4551412983,0.2095796205,0.0053866332,0.6870080276,-0.637638027,0.3106296893,0.2198157577,0.0544954359,0.6716123246,0.0303434984,0.6739714672,0.1532494232,0.6777453854,0.6804435746,0.3208269078,0.0013671468,0.5964425238,0.2880506203,0.100233491,0.5382093532,0.6885416573,0.2801284214,0.439205483,0.606630903,0.1219539633,0.4461723464,0.29375338,0.2541778254,0.3833966559,0.1212129977,0.3791245298,0.2179751764,0.1499327823,0.2322774563,0.4957760682,0.5055360596,0.1631365252,0.2391658335,0.4849532539,0.2751162622,0.2895456092,0.1926719717,0.4714656012,0.4671397703,0.2668485016,0.184092903,0.4063257501,0.4552784085,0.4974998024,0.5887975387,0.5211511989,0.5669045207,0.0201554188,0.0255682677,0.6857595057,0.5917725505,0.4131279214,0.2144637676,0.02978826,0.4255853421,0.1314408365,0.2022331261,0.0509904855,0.4977512979,0.373823477,0.6661322426,0.4785590392,0.4242985419,0.2713770827,0.6806590742,0.4654123279,0.1513682582,0.2442149132,0.2601223128,0.0677343397,0.5566567389,0.2196451537,0.5696817371,0.1142933363,0.4989660137,0.4731732188,0.1813626391,0.0573552515,0.7046296354,0.0927973124,0.0903340156,0.0170062406,0.69931935,0.0115586142,0.639098222,0.2068617679,0.1513023862,0.2884188296,0.396866956,0.601235977,0.2967397343,0.4012916901,0.4263018122,0.4199553889,0.3543145779,0.4383612959,0.3917824906,0.5290206771,0.6747371665,0.5221660576,0.0425724629,0.4904398921,0.2280902998,0.5499167649,0.6743491228,0.0505392105,0.0022732584,0.5765408599,0.1699962588,0.1496571463,0.0953306836,0.5593526716,0.3016910769,0.2741815668,0.2606799479,0.5887688585,0.6953526048,0.1461156152,0.6331694961,0.536065652,0.1884034504,0.1254615395,0.5596373215,0.1447749469,0.0998429257,0.5281541108,0.0351665011,0.6569278251,0.3057905955,0.5797814434,0.4710028584,0.6770867908,0.6213398242,0.0304170727,0.436314347,0.7055337313,0.3691501242,0.072682761,0.5964331956,0.2772803728,0.530223279,0.6285390265,0.1050519685,0.488651633,0.5388210767,0.4871307303,0.5029251001,0.6776713071,0.5631761481,0.1768873394,0.0384649852,0.3611380094,0.1287097528,0.6163767382,0.5221207913,0.0064214292,0.7010419108,0.0972039476,0.2182530886,0.6315254388,0.7047434491,0.303427473,0.3158750889,0.5719376351,0.1001641399,0.0342772988,0.338200258,0.0340179564,0.0799804969,0.1261417367,0.467838594,0.4665311538,0.6779784025,0.2663663968,0.6593728088,0.1927871428,0.4274962613,0.1113399748,0.033154797,0.1144458663,0.542841234,0.0176346668,0.156796904,0.2413606904,0.1535918354,0.1077767879,0.3905722572,0.0110093886,0.291201086,0.1230017806,0.0169384745,0.5917510766,0.1305789626,0.0824178146,0.5920710167,0.3416758566,0.6369594742,0.7029982162,0.227077481,0.6929302879,0.3128513445,0.6757499893,0.3310212569,0.1478075073,0.1731853034,0.2735148565,0.0493650345,0.2976390392,0.0327511741,0.1444612117,0.2357129773,0.0848898926,0.0276521402,0.2670545638,0.5129803965,0.6700290584,0.2617904851,0.1054439957,0.6426390826,0.1305090328,0.3369000643,0.6563094058,0.2965746435,0.5891100193,0.4196411981,0.1823465169,0.3037319497,0.3988765914,0.4687344504,0.5255458155,0.1925830624,0.1744644188,0.5380454984,0.40565071,0.6347745603,-0.5689256581,0.0272608868,0.643213586,0.3379265955,0.6046741288,0.3142467957,0.3523291665,0.1099401594,0.6810841929,0.1005724711,0.2468782174,0.3426408832,0.492254977,0.1928220136,0.1850678615,0.3844390405,0.6316076394,0.3615206103,0.3130688791,0.4271119625,0.1159389295,0.0495864337,0.0595896545,0.1904833162,0.5840233393,0.2006614497,0.25889577,0.2328629217,0.5092986527,0.6882405833
