encog,BasicNetwork,java,3.4.0,1,1589920904712
[BASIC]
[BASIC:PARAMS]
[BASIC:NETWORK]
beginTraining=0
connectionLimit=0
contextTargetOffset=0,0,0,0
contextTargetSize=0,0,0,0
endTraining=3
hasContext=f
inputCount=235
layerCounts=236,51,101,236
layerFeedCounts=235,50,100,235
layerContextCount=0,0,0,0
layerIndex=0,236,287,388
output=0,0,0,0,0,0,0,0,0,0,0,0,0,0,0,0,0,0,0,0,0,0,0,0,0,0,0,0,0,0,0,0,0,0,0,0,0,0,0,0,0,0,0,0,0,0,0.04,0.04,0.04,0.04,0,0,0,0,0,0,0,0,0,0,0,0,0,0,0,0,0,0,0,0,0,0,0.04,0,0,0,0,0,0.04,0,0,0,0,0,0,0,0,0,0,0,0,0.04,0,0,0,0,0,0,0,0,0,0,0,0,0,0,0,0,0,0,0,0,0,0,0,0,0,0,0,0,0,0,0,0,0,0.04,0,0,0,0,0,0,0,0,0,0,0,0.04,0,0,0,0,0,0,0,0.04,0,0,0,0,0,0,0,0,0,0,0,0,0,0,0.04,0,0.04,0.04,0,0,0.04,0,0,0,0,0,0.04,0.04,0,0,0,0,0.04,0,0,0,0,0.04,0.04,0,0,0,0,0,0,0,0,0,0.04,0,0,0,0,0,0,0,0,0,0,0.04,0,0.04,0,0,0,0.04,0,0,0,0,0,0,0,0,0.04,0,0,0,0,0,0,0,0,0,0,0,0,0,0.04,1,4925.4442439448,0,0,863.5472895807,0,0,0,0,0,0,0,0,1724.0685120743,1270.4484801076,0,0,0,0,0,0,0,0,0,0,0,420.9489940471,0,0,2737.8834655597,0,0,0,0,0,0,0,0,0,0,0,0,0,3418.824173183,0,0,0,0,2693.0172844045,0,0,1,0,0,0,0,3.6518450453,159.9985080381,0,460.3447565044,0,1238.2636908621,0,0,0,946.031314005,119.1023808963,1206.0877624541,0,0,0,1098.104205736,892.8953042689,1340.0404357037,0,1009.3816915305,717.0980920532,195.2304503139,298.0650934165,123.5132409208,603.8675315325,0,0,0,0,0,0,0,0,361.2409939309,0,0,0,0,0,145.2215091411,0,1831.6887263607,430.8446034809,815.9282746937,1947.6039681523,0,0,912.6342439844,0,0,0,225.7905929261,640.0027121055,0,0,0,0,523.3365098741,0,22.3665517078,716.3820350362,0,942.7656115012,454.2244977318,986.2558040225,470.3376903225,19.5923704588,0,0,150.07271223,925.6322958886,0,134.3780044135,0,0,1404.1255387405,0,0,0,0,502.4392827963,0,171.4854757544,235.2650767008,0,1634.3389294886,478.4336252565,0,0,159.6635580288,0,1457.8028222252,0,911.0179418074,0,2270.5829474624,1,25,83,133,138,40,203,143,89,162,193,195,96,130,161,185,163,204,193,190,170,102,173,217,50,193,127,206,139,198,206,199,64,202,193,147,166,13,32,143,96,200,213,117,158,127,14,92,110,114,49,138,163,162,203,168,195,96,130,161,185,163,204,191,123,189,193,201,101,212,43,143,8,16,58,148,205,189,193,201,89,20,152,49,180,147,197,114,102,217,32,163,204,128,89,148,187,143,127,114,107,37,233,110,205,29,189,204,127,145,201,103,200,79,148,43,142,127,14,40,72,210,212,192,235,108,89,13,168,0,0,0,0,0,0,0,0,0,0,0,0,0,0,0,0,0,0,0,0,0,0,0,0,0,0,0,0,0,0,0,0,0,0,0,0,0,0,0,0,0,0,0,0,0,0,0,0,0,0,0,0,0,0,0,0,0,0,0,0,0,0,0,0,0,0,0,0,0,0,0,0,0,0,0,0,0,0,0,0,0,0,0,0,0,0,0,0,0,0,0,0,0,0,0,0,0,0,0,0,0,0,0,0,0,0,0,1
outputCount=235
weightIndex=0,11985,17035,40635
weights=##0
##double#40635
   -0.3903811522,-0.4429252945,-0.7363644904,-0.467656597,-0.1386405158,-0.9565409715,-0.3583550353,0.510542734,0.3116544355,0.0112412805,0.4799141997,0.3795423869,-1.0672200747,-0.0101649873,-1.4062984356,0.0251467158,-0.5381006877,-0.2356087214,-0.0327800484,-0.8355086295,-0.734406644,-1.350936161,-0.4130806663,0.5948954994,-1.0619951605,0.0430836642,-0.0295609243,-0.374902232,-0.8812996195,-1.1370310328,0.9561363353,0.4794280495,-0.3131091713,-1.2191772786,0.1789964487,0.2669318724,-0.1854660512,-0.2097201618,-0.1504495346,-1.8480645774,-0.4686567489,-0.5129395439,-1.5602602033,0.8636241054,-0.5751433407,-0.636687398,0.5987325787,-0.906456705,0.4581175574,0.4695823605,-1.5651797562,0.6443474936,-0.4548249963,-0.729745611,-0.2557009143,-0.7509948995,-0.2702601223,0.6669211271,0.3234149249,0.374116097,0.2251573832,-0.5145427707,0.8944519009,0.0421410533,-0.8938859055,-0.9931330977,-0.9205953224,0.206702788,0.5141628576,0.4105400407,0.9764439739,0.3633488972,-1.1371309522,0.2912434157,-0.8750275477,0.4661275751,0.1286733596,-0.8778319692,0.3334136852,-0.1539819405,-0.6067739805,-0.7325439696,-0.8168661015,-0.3324082437,0.2897518705,-0.613880372,0.1557032704,-1.5218476061,-0.1379658316,0.9667987813,0.7089205537,-0.025699014,0.6430548618,-1.213190349,0.0016099773,0.12841517,0.2594898412,0.9869544063,-0.8967551871,-1.0847916765,-0.7828645259,-0.9190084013,-1.6517814411,0.410631726,0.2517257712,-1.3807031138,-0.2064940582,-0.0730603262,0.5313642973,-0.3184847933,-1.6428360192,0.9473550995,-1.2952517988,-0.1894339484,-0.0089484272,-0.4007879666,-0.3263258796,-1.6141744036,0.8342793139,0.6797279256,-0.3869038347,-0.977261365,-0.5808372893,-1.0896527371,-0.2984177593,-0.5469286304,0.7194187914,-1.1428676254,0.8416649685,0.521220411,-0.7240663738,-0.146960584,0.4912463193,-0.778520495,-0.7942756709,-0.8203788019,0.8698212882,0.458448151,-0.5907070596,-0.4467564612,-0.1892989075,-2.0802978606,0.2943236183,-0.7111191509,-1.8486778629,-0.4069845558,-0.8864863003,-0.1544509667,0.0202871478,0.1555165908,0.6383128765,-0.6306541516,0.9094048369,-2.3913285254,-0.794949769,0.301775328,-0.9132382967,-0.2399647046,-0.2164141188,-0.1926765872,-1.0013143338,-0.9304320939,0.3137229529,-1.4642606218,-0.9537627143,-0.4056163019,0.3674242514,-0.2823302918,-1.0508202996,0.7523892389,0.1727390482,0.0681831665,0.8289508205,0.5779497764,-1.198818571,-0.4324954176,0.178894871,0.8080917071,-0.0468780254,-1.1200382803,0.2712058395,-1.2690463986,0.1644481222,0.1914257009,-0.5491386729,0.5581888707,-0.8146897316,-0.2959144861,0.9891003586,-2.1568177713,-1.0135681117,0.7933471088,-0.9237604142,-0.9040165174,0.7784327587,-1.5009659876,-0.7455660743,0.2202865666,-0.3808911697,0.3401802363,-0.2922225814,0.4499046009,-0.1752507546,0.3042004715,-0.2028244254,0.4006381587,-0.7485180648,-0.3774451973,-0.7593769313,-0.0474888086,0.8325668541,0.3832251696,-0.0727711668,-0.6921808383,0.3207735233,0.0128629299,0.2942222636,-0.6233565182,-0.6914727194,-2.0546090961,-0.074382358,0.8685724536,-0.7103070106,-0.7843512066,0.6277878203,0.3839390052,-0.8682762892,-0.5224502147,0.2115080258,0.2557709654,0.8899769301,0.4016448192,-0.3255809284,-0.1618326793,0.3723551423,0.7228140171,0.3393185865,-0.8765614144,-0.3280717981,0.3006592198,-1.5437784446,-0.0447921301,-0.3761436219,-2.9317911679,-0.8065113547,0.5257013692,-0.536233149,0.5629245137,0.8447940744,-1.291792832,-0.6026823286,0.1775765611,0.3893247021,0.0528986709,0.8089520971,-0.5223957382,-0.167530135,0.2747085854,-1.3697879656,0.1864508828,0.7547736633,-0.3677095623,-0.8873848753,-1.1407577285,0.7568568935,-0.5853183908,0.4822095557,-0.0387312196,-0.959701102,0.6893980864,-0.2399680394,0.2542672314,0.3829363276,0.5918807177,-0.4646218084,-0.3927974555,-1.2503521747,0.6316545386,-0.1589679731,-0.7509254908,-1.2242478694,-0.4987094481,0.9705699486,-0.7586465687,0.0093029997,0.9670594531,0.243441012,0.4965509117,-0.3254972565,0.2555178157,0.9379106527,-0.3619883585,-0.1516666905,-0.0969978328,-2.0536392486,-0.4164974319,0.3866219147,-2.005726942,-0.5678706701,-0.224767957,-1.2091995667,0.33841998,-0.6692207549,0.5408273908,0.3434176249,-0.1024387742,-0.5904983316,-1.0620550736,0.3296616708,-1.6144726211,0.0054329872,0.6982813162,-1.0584229492,0.8733456832,-1.9701656903,-0.0232530893,-1.8355647201,0.0287614304,-0.0780326382,-0.4571123186,0.4908488467,-0.8727098679,0.8935518166,-0.9448448683,0.6958816967,0.8903474103,0.2972458736,-1.4530121036,0.3011054444,-0.3926898722,-0.5919327074,-0.385750791,-1.3728633895,-0.7326707512,-2.6289427815,-0.2606015178,-0.0368670896,-0.1232747522,-2.2905726808,-0.298454194,-0.5897354619,-0.6764255361,0.8703208577,0.0948545232,-0.7355742072,-2.385471061,0.1311458477,0.9365541883,-0.6394683978,-0.8323420366,-0.4632572394,-0.9109737254,0.2826234166,0.506422358,0.6525039968,0.6934289544,0.0214317926,-1.0983576121,0.134456095,-0.4672744433,-1.7169306266,0.1114172255,-0.6200769775,0.1014150248,0.4986426479,-1.5382582214,0.5866397743,0.0268997058,-0.3496237582,-0.0596811866,-2.2190277511,-1.7447602406,-0.1885130037,-0.5456230159,0.2428030394,0.531829294,-0.3598774938,0.2592937012,-1.9396310032,-0.7922489095,-1.1536162774,0.3542999995,0.103250895,0.1335007888,-0.8344215347,-0.7956472312,-0.1620481934,-0.1019359052,0.7221603808,0.8232900625,-0.8489843095,-1.3821298252,0.2482723443,-0.7230552291,0.322422253,-0.1907263155,-1.092508627,0.2999396804,-0.5832637233,0.7419911432,-0.9093682103,0.3276423291,-0.8705012637,0.299930608,0.5197827114,-0.5324968947,0.257773164,-0.3325455122,-1.0938729056,-0.0305734039,-0.4980607419,0.7077043945,-0.1982754132,0.0160848682,-0.202492606,0.9563086919,0.3851286047,-0.1966374897,-0.5266156532,0.176387812,-0.382972661,-0.3223936227,0.5680804278,0.2039210458,-0.3067593535,0.8702815639,-0.7917481761,-0.793145233,0.3713564706,0.7757407008,0.7129379828,-0.5454623167,-0.5941471678,-0.4554944367,-0.9709058217,-0.8010022377,0.1771964069,0.2806759133,0.9586111465,-0.0924431358,0.3783030168,-0.4868619376,-0.053819559,-0.285641294,0.7181087287,-0.3780594659,-0.0709741507,-0.8466415433,-0.519873544,-0.7595213803,-0.5753052081,-0.0822519594,0.0874877182,-0.5283063025,0.2648948196,0.10061689,0.5034508315,-0.2966449244,-0.3711267284,-0.1545357805,0.557370747,-0.4208316509,-2.1994440078,-0.7778840979,0.2806103862,0.8043033376,0.9588070606,0.4772728126,-0.3583214462,-0.3656328881,0.6532492595,-0.4492710092,0.5972579224,-0.1244657376,-1.5358578529,0.9250785556,0.4060264676,-0.3786035377,-1.1738130457,-0.086188727,-2.0779037149,-0.7860216949,0.2983455813,-0.7678993717,0.2583939456,-2.225178106,0.3214725233,-1.0393503649,0.0147917324,-0.504611797,-0.4318023535,-1.1072580258,-0.1857589495,-0.6084952155,0.9943596065,0.7794350713,-0.9740172904,-0.0358629663,-3.8493241629,-0.4437755544,0.2064862201,-2.5056470886,0.5315379921,-0.4621754187,-0.3768068364,0.2969632482,0.6360462798,-0.1936932701,-0.0685324255,0.5278098385,-1.3711497401,0.4054821845,0.1394413938,-0.1248641127,0.5063762415,0.9294191048,-0.6436644075,-0.9185673401,0.6506859308,0.9743220201,-2.1222416606,-0.6202846291,0.7478164474,-0.2142122387,-0.4814797903,-1.5483847852,-0.9075730626,-0.946977087,0.5015538361,0.5317694484,0.7997039634,-1.8950405088,-0.5724523973,-0.4328723918,-1.0172388625,0.077489842,-1.0362505059,0.6681677804,-1.9965301411,-0.3938038143,-0.068501261,-0.05628005,-1.875448465,0.9856330857,0.6977798903,0.468840646,-1.214432863,0.7934051054,-0.2681314251,-2.5382840096,0.0901714111,-0.2600356691,-2.3896202546,-0.0882820857,-0.4891941757,-0.0915095414,-0.7590302517,-0.364564821,-0.3639503494,0.5763477465,-0.9645041948,-0.9795251301,0.9863655336,-0.4250679973,-1.3565316596,-0.450823046,0.6432171775,0.0666146551,-0.4393859974,0.9547183243,-0.7134771267,-0.6247517944,0.2923910973,-0.4447339284,0.4389270708,0.0934119778,-1.1442980117,0.2307198931,-0.4086551584,-0.7633046428,-1.3739844154,0.6771295357,-1.0736111882,-0.8381437025,-0.2002909548,-0.0431330986,-1.1562501412,0.1823085844,-0.5651667066,-0.4773735219,-0.2017491115,0.7380713431,-0.4191846921,0.5626843183,0.7285051057,-0.1137339994,0.6673414973,-1.6880629739,-1.7185631412,0.6632748998,-0.294794132,0.595069494,0.3330926363,0.4276657171,0.3741001419,-0.5890046725,-0.0578581286,0.6587721364,0.5361317402,-0.4941033373,-0.6436933394,0.0237811829,-1.9307599703,-1.0918355237,-0.1078100725,-0.6602464422,-0.8403243401,0.5321823949,-0.2941388792,0.8462799255,0.9912013263,-0.2516897914,-0.8933527526,-0.272551162,0.919201055,-0.4481430556,-1.9998285479,-0.1910503121,0.2570460493,-0.2462959305,-0.4772903578,-0.0752625259,-0.5284936495,-1.6457525795,0.504967385,0.0515203925,-0.7369616161,0.5817227854,-0.5444595513,0.4024006721,-0.4929474081,-1.3283761233,-0.2554599465,-0.289026963,0.3287173151,-0.3015807823,-0.8999556496,0.6465831788,-1.1195091807,-0.0922505162,0.3126718167,-1.6924734684,0.7530174773,-0.1871181608,-1.7051617507,-0.2395504087,0.8470412982,-0.2863396401,0.4574993636,-0.9198984538,-0.3600172113,-0.203871392,-0.2368533363,-0.0237296189,0.3009380863,-0.179265369,-0.8021434891,0.14015923,-0.6216710009,0.1646704473,0.030625505,-2.0881661769,-0.6085436448,-0.5104335484,0.4595089,0.4839801615,0.3659399903,-0.3886524522,-0.4597700663,0.4275096482,-0.7929958044,0.3967616619,-0.3300114051,0.2476493512,-0.9710940614,0.7161640761,0.9475578307,-0.3718135493,-1.0020094519,-1.668372326,-0.6030541483,-1.2172496243,-0.530650674,-0.5090923199,0.9338328761,-0.5245998196,0.4836897013,0.785546724,-0.6786702826,0.0210564382,-1.0235012742,0.7539957695,-3.1002199694,0.3085353643,0.6604753046,-0.7257870305,-0.3249993246,0.6958287444,-0.4437363241,0.3262405837,-0.9628249676,-0.2091165293,0.0864996004,0.8223532112,-0.6264880912,0.0458506702,-0.1476829116,-0.4405875914,0.4813859326,0.0806287739,0.0536155216,0.7214717294,-0.6711517536,0.2934161283,-0.1696820133,-0.9131282549,-0.3548417804,-0.268649349,-0.4266614263,0.3769306766,-0.0093518964,0.2126717546,-0.6391111656,-0.700664868,-0.5964443783,-0.3893454534,-0.4627647431,-0.0512629162,0.8935768171,-0.9246635769,-0.6181059132,-0.0993651448,-0.3974651186,0.3572409353,0.11225341,-1.0665862151,-0.6129486759,0.4886322515,-0.6821334411,-0.1946601626,-0.4295336092,0.5705663977,-0.9447679502,-1.0683994983,-0.13400955,-0.6763344757,0.1737027761,-0.1262246806,0.7972376523,-0.3849764174,0.1532164375,0.1406079624,0.6856754716,0.4402906496,0.6264249063,-0.3721776291,-0.4499030236,-0.6138217031,-0.6655248799,0.4100563094,-0.144383216,-0.6615767233,-0.3449328633,-0.6374988589,0.4055379073,-0.68656294,-0.7938498181,0.5980142654,-2.5233936292,-0.0375700754,-0.8355032329,-0.5454327283,0.5129249966,0.688044708,-0.1135300695,-0.5080479977,-2.1018045538,-0.2865604331,0.9132015319,0.1924723975,0.2182169691,-0.4624026032,-0.8508376213,-0.7110339935,0.5297899243,0.3276525799,0.8065715767,-0.9618712281,-0.2457929258,-1.833936276,-0.1825110328,0.9210451956,0.0694751662,0.487063047,-2.8978602065,-0.4814976932,-0.7467613116,-0.6850369412,-0.0127774338,-0.3172266106,-0.3219008428,0.2904127658,0.5660082674,-0.0309589937,0.4570215348,0.597809392,-0.5025189802,0.6515677895,-0.1038122675,-1.5030585581,0.7672167539,0.7489195098,0.5121057273,-0.3874944039,-0.7509156632,0.9256760244,0.0912018474,-0.8010552377,0.9327589144,-0.5022580212,0.0631112566,-0.1814464431,-0.6574205127,0.1377517932,-0.9548583791,0.4325305188,0.4791404064,-0.2170672112,0.899420831,-0.8104251031,-0.0130892212,-0.9669975468,-0.9371342626,-0.8935763558,-1.1571600149,-1.0124820711,0.1064563132,-0.622287362,0.043684756,-0.7018991252,0.1266447454,0.6948541064,-0.8968311379,0.0517143167,-0.3427790035,-1.1234656264,0.6480705221,-0.0941846954,-1.1252450773,0.3780756377,-0.0899330429,0.6329995117,0.6875528206,-0.4131572879,-0.458018721,0.8330446808,0.7663332719,0.1046347741,0.6730203644,0.5491786163,-0.7183419441,-0.7036957466,-0.4399110791,-0.8617157256,-0.8772087784,-1.7043588038,0.7407905199,0.0977714057,-0.8366928034,-0.943678892,0.0959211707,0.5158433451,-0.138430007,0.1516942524,0.6900284139,0.4925379899,0.3263336184,0.33808317,-1.3166778094,-0.2754044342,-0.2450860949,0.0959531702,-0.7482555994,-1.7010647492,-0.2664963105,-1.1765786883,-0.5295917037,0.0178111622,-0.5652750878,0.8144291157,0.3212072217,0.8259764274,0.4868455363,-0.2977441107,-1.8990489768,0.2388908189,-0.1151226504,-0.3397468221,-0.805591223,-1.3944560807,0.0105301187,-0.4002240307,-0.8576632686,0.69392028,-0.7995502467,-0.1141927307,0.3181074856,-0.9120243221,-0.8964423821,-0.9167648695,0.0021081411,-0.5615131914,-0.9609968215,-0.581067192,-0.913254054,0.7201550791,-0.3860758381,-0.6094660555,-0.2473650222,-0.1141834195,-0.5253825477,0.8124629156,0.1422274311,-0.8121018364,0.9335836785,-0.8455599345,0.9101976931,-0.7355890169,0.8645007158,0.2182416725,0.3149847695,0.2122655401,-0.1227686976,0.3444694585,-0.3396045703,-0.6023440807,-0.5164520861,-0.7158940733,0.4296116729,-0.9909346922,-0.8698800937,-0.8298998747,0.3472871373,0.5500909806,-0.7214964562,0.9670548572,-0.4187846519,-0.523028899,0.0376710438,0.098289353,-1.0513510572,-0.9338412897,0.7400683703,-0.5440284876,0.4671117166,-0.5353350493,-0.0849969331,-0.1706547334,-0.280523959,-0.6815586461,-1.0727129157,-0.9974027569,-0.0877807915,-1.3838246853,-0.6424244182,0.3377136843,-0.3768102946,-0.0029630644,-0.4089432762,-0.1435693696,0.050342224,-0.821148893,0.1468627138,-1.513563657,0.2100441408,-0.514839987,0.8449728498,0.8778852342,-0.2057302121,0.6013210885,-0.4829195013,0.7209256177,0.6444724566,0.6134652724,-0.755436561,0.0942668571,0.4828889978,-0.5248178812,0.6477946155,0.4718196263,0.6485924873,0.1400483697,-0.8383039373,-0.3813205347,-0.651195672,-0.498487986,-0.424430804,0.2978628586,-0.2340412919,0.1457437141,-0.6579566113,-0.3469683802,-0.2711866653,-0.271127018,0.5992608917,-0.3090510372,-0.414548966,0.4993534282,-0.0359146496,-0.7756111817,-1.515303417,0.1080523782,-0.9114198178,-0.5321978586,-0.903126589,0.3103510521,-0.2370625297,0.1364576421,-1.36688169,-0.2547212991,-0.5517774426,0.6278860117,-0.5334466133,-0.8229586464,-0.8368101113,-0.3061257326,-0.3297722796,0.5097325521,0.7489929698,-0.8952898987,-0.3419764603,-0.4049053925,-0.2821953762,0.835860122,0.8304619736,0.7492745198,0.5396665341,0.7789226981,-0.5190041909,-0.3361527615,0.7188741798,0.7654262232,-0.0058543591,-0.3129149545,-0.4795298734,0.4034807494,-0.6821256512,-0.6033869871,-0.8762124179,-0.2572225066,-0.0279655028,0.0034009656,-0.4349283044,-0.952865163,0.7854695292,-0.8186260945,-0.2922190601,0.3027954722,-0.9467949372,-0.7886697007,0.1305336505,-0.6806248874,-0.9247786627,-0.9338266692,-0.9054451253,-0.7399711687,0.0685474294,-0.0638377858,-0.3272126956,-1.0655735649,-0.0410887706,-0.6427564958,0.7979508115,0.7765205436,-1.1202468006,0.5504824836,0.0698699041,0.0200246633,-0.804134734,-0.4087664392,0.4073482007,-0.0680402123,-1.8991834765,-0.2719038228,0.6645178962,-0.1040997342,0.2257994446,0.0218305875,-0.9912496465,-1.5613031226,-0.9489244423,0.0306603745,-1.198837521,0.5989189942,-1.3226117881,-0.8898978414,-0.8922807723,-0.6846895529,-0.0918255049,-0.9005422599,-1.6591100255,0.2092397344,0.1735491622,-1.0474232174,0.6272249144,0.5732554848,0.4609316569,-0.4079282976,-0.6873347797,-1.3188547624,0.3199585249,-0.648631623,0.0861374083,0.3601360193,-0.5219945533,-0.7035307043,0.0039570282,-0.4496077091,-0.4313638397,0.7619788174,-1.79755743,-0.985093676,-0.4285647225,-0.6694155211,0.2102925254,-0.6532539776,-0.0547559731,-1.2140360849,0.1436553368,0.5062936131,-0.8778274922,-1.0640293588,0.998286047,-0.0211565454,0.8351572459,0.6291619514,-0.2260730915,0.47643053,-0.1941999648,0.9112155294,-1.0495562678,0.5734701724,-0.7846888844,-0.1503803252,0.8957261163,-0.0379891673,-0.5875895149,0.3335204615,-0.392561723,-0.2080840859,0.2473222694,-0.5376048303,-0.6885309067,-0.0647818612,0.0951182297,-0.1942714004,0.278663686,-0.383926922,-0.6447917766,-0.1069641438,-0.3815662096,-0.1445171045,0.360596824,-1.116027157,0.2041025323,0.5019715627,-0.7576157304,-0.8883177907,0.2627682454,-0.5767727261,-0.2551322819,-1.1374230212,-0.8218221541,-1.1518660942,-0.4401810844,0.0698108256,-0.7636599572,-0.9683597862,-0.388121517,-0.4846701483,-1.0499342291,0.944122359,-1.9805854343,0.0400717984,-0.9839086739,0.8300444831,0.265788909,-0.8154169152,-0.8728919895,0.4362405023,-0.7785912841,-1.6311748053,-0.9304948174,-0.421983563,-0.4449053507,-0.7003130353,0.2973701141,-1.3102184476,0.2601806804,-0.5069769128,0.9804988015,0.1264132483,-0.9451781751,-0.3249721733,-0.313899212,0.2686817952,0.6023228111,-0.2987668187,-0.1286736856,0.7973072558,0.5710476446,-0.3912246004,0.2484920088,-0.2015083304,-0.3928906633,-0.7119415595,-0.2238315688,-0.9172404833,-0.5744826699,0.2444431659,-0.6689645226,0.3152433847,0.8093914154,-0.9322687934,-0.0303535027,-0.1439527519,-0.7944244587,0.1122495138,-1.5226281041,-1.4194706278,0.5674354814,0.1097102708,0.856958448,-0.7105372062,0.846232911,-1.7533607826,-0.7421386472,0.9054106919,0.0733662043,0.8058982273,-0.4159419315,0.5065623371,-1.5927826474,-0.7408652533,-0.0551961633,0.3863636424,0.4547684528,-0.4876064459,0.3319466641,0.6438071661,-0.5787964187,0.0721386687,-0.4038556434,-1.4944284751,-0.6389402125,-0.2341154978,-1.4990120594,-0.8044021891,-0.0281930627,-0.8006919723,0.2897260367,0.4974072961,-0.4203084301,0.3099334612,0.2237689606,-1.0348170813,-0.5769842227,0.306832959,-3.9429722701,0.9626058654,0.7986537959,-0.6854477987,0.9329238547,-1.8972018036,-0.7193712203,-4.0339623242,-0.1834897312,0.668257581,0.1741210596,0.8445856882,-1.4051001124,0.4970532371,-0.1418599729,-0.9490827019,0.5051745414,-0.1613924529,-3.0741609601,0.3634121294,0.9586929594,-0.845839514,0.1528313627,-2.8358383913,-0.7978400618,-0.7309116983,-0.9052740961,0.1779195959,0.6517906557,-3.1757183375,0.9311037706,0.8769739957,-0.8387346213,-0.2536652065,0.5614765695,-0.044910236,-2.2754772074,0.2983927369,0.0168310469,-4.9460497619,-0.8614872241,0.1213601603,0.7686505518,0.2092956015,0.5033629107,-1.1241961075,0.5539034219,0.7727233795,-0.774410841,0.1852996665,-0.5911152361,-1.3020319184,0.3489999573,0.5574457691,-0.943807399,-0.2924903211,0.4615253817,0.3308631599,0.1455675243,-0.9671592042,0.6669109486,-2.3272739419,-0.0339283992,-0.3683207282,0.0500452593,0.2798366955,-0.2394793654,-0.5511942891,-0.905423363,-0.5162593024,0.3944431695,-0.5647675261,-1.0485692854,0.5138258202,-0.2908937232,-0.9659079323,0.1460866996,-0.1973890816,-0.6759730873,0.8540011109,-0.2191986043,-0.0923007734,-0.0575510368,0.6991271139,-1.3732267415,0.6551448238,-0.2069110182,-0.1921432744,0.9653750608,0.6121883789,0.3141690714,-0.6634510904,0.0837603649,0.1705692045,-0.6705031123,-0.9573434865,-0.304558003,0.0857908079,0.0222947167,-1.4598888456,0.2902762914,-0.431596116,-1.1270497383,0.7423315523,-0.4597660588,-0.1096827344,-0.5996074108,0.2674918546,-0.2940497691,-0.6516884915,-1.6455798761,0.4393416505,-0.5359458215,-1.3551047075,-0.7343188659,0.7861515476,-1.0001741568,0.4864916641,-1.6869325288,-0.7295438593,0.4207182889,-0.1502861982,0.5835626785,0.9358673674,0.6683117391,-0.6601200321,0.5246016785,-0.4290213312,0.1914987559,-0.128609102,0.6203568593,-2.5379840986,-0.5500867281,0.5023603561,0.6298923817,-1.9738400132,0.0180718191,-0.6354811294,-1.7109988469,-0.4532536225,-0.3027958602,-1.7915724772,0.4417394794,0.7650148566,-0.2805163647,0.9829716881,-0.2991586193,0.513221009,0.1143366572,0.5749059657,-0.0295814065,0.3311707266,0.4450952823,-0.1760695258,-0.4247275662,-0.9140113849,-0.5448877664,0.3107144781,-0.645650322,-0.4622516968,0.424672284,0.9614287791,0.1575987143,-0.4502330095,0.4957063235,-0.1256461168,0.081862934,0.7904459135,-0.184052235,0.783092224,-0.0404058957,-0.55960655,-0.1476484221,-0.6287622196,0.4300106785,-0.6236397269,-0.544187988,0.0176286454,0.1316753063,0.6762812481,-0.8877688673,-0.6449311862,-0.9446995929,-0.3769886792,-0.5160611029,-0.1330198568,0.3883600337,-0.4174019477,-0.7336634042,0.0742721672,0.7298268536,-0.1220250994,-1.2835308683,0.5970309556,-0.8570504549,-0.9746421518,-0.2325483257,-0.9948179608,-0.0325900988,-0.3239124613,0.0026647669,-0.9060118867,-0.1285585504,0.0155419428,-1.6857077912,-0.9851203724,-0.0810253707,0.0402266232,0.4337739237,-0.452965641,-0.1151798055,-0.7872299649,-0.4522168825,-0.1688793472,-1.2448639483,0.2151012525,0.608706143,0.5098540193,-0.2894048038,0.5305690746,-1.0084350799,0.2670888059,0.2217978125,-0.6519008131,0.3028313018,-0.6641164274,0.4368166152,-0.4010329403,0.4824668987,-0.5609709821,-0.5985699791,-0.0467460482,-0.6280565644,-0.2444835658,-0.4399410072,0.7706601949,-0.1028318626,-0.9518283804,-0.8960267728,-0.8376045774,-1.9631420244,0.2614676593,0.5600560749,0.2559032229,-0.4718927609,-0.5980519508,0.3763347226,-0.5191395557,0.0888225957,0.8772250291,0.0053796009,0.4712930827,-0.3575186253,-0.7203846391,-0.6022738341,-3.7360869778,0.5658261943,-0.9462298859,0.3676552729,-0.6215122157,-1.1755629696,0.6406537998,-0.623173562,0.436708767,0.5141010195,0.848292391,-2.0491571364,-0.9599516703,0.2196559466,0.0361566676,-0.2537205214,-0.8004529993,1.047689075,-1.1152042093,-0.1483798678,-0.3533260142,0.033833957,0.2746823252,-0.4400874633,0.8726426884,-0.7657353525,-0.8321044161,0.3658494132,0.2145592251,0.4518520494,-0.3139840609,0.9497615559,-0.6913325968,-0.9261866231,-0.0197027723,-0.051925306,-3.8133516103,0.4347089077,0.9129061213,-1.4882715014,-0.3806521651,0.0094171604,-1.0503386465,0.5381740631,-0.1805665743,0.6579715256,-0.9572891885,-0.947173894,-1.4380778756,-0.9586011086,-0.5147203274,-1.1357847369,-0.8272911611,-0.6745646511,-0.4706777675,-0.9951729441,0.1599425334,1.0040724042,-1.4115230208,-0.3203768239,0.1114317086,-0.279880717,0.2836283648,0.1819578815,0.0541467046,-0.5976742452,0.8547850936,-0.9781369432,-0.0499139556,-1.8083685234,-0.8355115284,-0.5704749428,-1.1518717846,0.2371353442,-1.3377084614,0.7062089177,-0.5022651326,-0.1568868325,-0.7800298685,-0.549019389,0.0635521941,0.3955779064,-1.8289543239,0.0452493907,-0.8822008595,-0.170983316,0.6327597366,-0.7294630435,-0.785807262,0.2774565393,0.8824436883,-0.2618103449,-0.1587078285,-0.030118843,-0.4365484265,0.7812895586,-0.6494864171,0.6912538381,-0.0295968531,0.3393404974,-0.9649295526,0.0733278459,0.1937242027,-0.3079317454,-0.195943013,0.092330254,0.3156114682,-0.5443763044,-0.5789800571,0.1489139019,0.4743843187,-0.7741704038,-0.903290037,-1.015149789,-0.9993940296,-0.8872851559,0.6875863002,-0.5465940742,-0.7237438981,0.0225661112,-1.0062285574,0.867594241,0.0598222148,-0.3947909713,-0.1403137197,0.0358019028,0.9007550089,-0.4417351286,-0.5152903342,-0.5770531444,-0.2296455167,0.1759786392,0.0217119007,0.6758355295,0.7000475963,0.6356801291,-0.2434039014,-0.1366525065,0.7166535475,-0.6549061658,0.9102504349,-0.1592679375,-0.6629148987,0.9035766329,-0.1493604766,0.6559644992,-0.6648318713,1.0327330043,-0.7424315626,-0.3939153108,-0.4743150473,-0.8945861461,0.3231360314,-1.8390845082,-0.4147723026,-0.126334548,0.8175123824,-1.0001693797,-1.4056564642,0.8520532534,-0.6676462027,0.8329444463,0.5472016948,-1.7896010903,-1.989465908,-0.194550251,0.1762280671,-0.3764813163,-0.4351952496,-1.1890326706,0.5344147323,-1.3131838256,0.6791493258,-0.943184679,-0.021053149,-0.9025135645,0.6268318487,0.8250065361,-2.4497402266,0.3044596389,0.7947352971,0.5987513979,-0.1690207049,-0.1206124157,0.0100980084,0.7801582443,-1.0221363417,0.1335725762,-0.6552092102,-0.9482155695,0.2659070728,-0.1780209633,-2.4538515956,0.7886348052,-0.6123754176,0.1712118963,-0.0124500149,0.2401396642,-0.4474647947,-0.5003896301,-0.6240972719,-0.7891763584,-0.3495992354,0.4009241776,-0.9182508297,-0.5951030693,-0.6658383547,-0.1168113552,0.5732973644,-0.1030915016,0.5832674593,0.2329931511,0.5545249598,-0.2978557596,0.5940866285,0.6315356501,-0.839359502,0.2226225821,-0.2215501443,-0.1197798541,-1.7327368007,-0.6176433461,-1.616750961,-0.9905668787,0.0550479193,0.801756748,0.4712550001,-0.1096630835,-0.0996604068,-0.782947336,0.8429920648,-0.5592176463,-0.4910072996,-1.422216174,-0.7691283412,-0.9996119717,-0.5583152986,0.2038835018,0.0406392322,-0.7483357021,-0.9642282435,0.3684036495,0.3981789691,-1.1444808761,0.1381223468,-0.902362495,-0.5106874481,-0.123950181,-0.2203461396,-0.3842354735,-0.5761272613,-0.882312549,0.1905071192,0.6172721964,0.1202325545,0.4266058829,-0.7679973415,0.2567660598,0.6417862327,-0.0930177663,0.5000491776,-0.8907051619,-0.6532794689,0.9590806023,-0.2247003049,-1.0465686248,-0.1839914301,-0.8629416417,-0.5013927867,-0.1053351836,0.9714865063,0.1805054054,1.0796908091,-0.4318252802,0.8517746221,0.381456236,0.4216123089,0.1363291002,-0.5015039985,-0.0055923623,-1.1437195443,0.7742519766,-0.7414546891,-1.1408906977,-0.5491923494,-0.8971032463,-1.2581807847,0.0360572103,0.3451389379,-0.9586828487,0.5061464922,-1.0809979077,0.8033625603,-0.4867002563,-0.6394729488,-0.2260038784,-0.2581416324,-0.2107730986,0.7468183077,0.151880845,-0.1129968258,0.5277404388,0.4529102891,-1.1374132795,-0.2118492884,-0.5400484845,-0.2715632848,-0.7519869845,-0.3609701873,-0.3896352108,-0.6046057724,-0.2915537067,0.5999431717,0.2489630536,0.5271115667,0.6556076167,-0.9053227826,-0.3275012615,-0.097070715,-0.1808149625,-0.1780371592,0.6457612622,-0.4890253742,-0.0953997011,-1.1738870725,-0.5953895589,-0.8248241457,-0.9701399254,-1.2653708724,-0.4150909806,-0.4052593729,0.0448390268,0.3520413413,-0.9755991532,-0.7284340523,-1.853064635,0.2006155619,-0.2787682677,-0.8956393169,0.9050663621,-0.444991356,0.3494963144,-1.0417476381,-0.1213848817,-0.6556725707,-1.2989205794,-0.6026599551,-0.8361346583,0.4842263934,-0.1985347627,0.9655497959,-0.8712429548,-0.4802312025,-0.2099293311,-0.7884350219,0.5806618235,-0.5249327569,-0.4942531229,-0.0632507363,-0.0581829145,0.8084951439,-0.4687707584,-1.0682996544,-0.7756619789,0.2798697713,0.2003472323,-0.459256207,-0.8145351462,-0.1327276454,0.3895004215,0.23541648,-0.64605592,0.7094656485,-0.809170469,-0.2848645975,0.4151407193,-0.9955698039,0.3121073952,0.1691420398,0.6808009593,-0.5195213584,-0.9420799975,-0.8021517224,-0.236104974,0.8810347499,-0.7048549198,0.5914730542,-0.2184700894,-0.9384081772,-0.244792915,-0.9642142222,-0.643729058,-0.2616988173,0.3186627648,0.3255478335,-0.7544280662,0.3123347577,0.6586737077,-0.8900311022,-0.8131584589,-0.5193171819,-0.6331897592,0.7158672454,-0.4853426833,-0.2056796162,-0.2620888849,-0.6811650888,-0.3091285695,-1.4397938345,-0.432641602,-0.094289826,0.6285101962,0.7706875226,0.8613627818,0.3703070802,-1.0537991522,0.0632273045,-0.9598496955,0.4960638761,-0.6867749798,-0.6041883113,-0.9521230659,-0.7914426224,0.1808607867,-0.1140475632,-0.6437375077,-0.9260032206,0.6850903448,-0.1578756655,-0.9640152032,0.8482759029,-0.8561310152,-0.8286312691,-0.1248806251,0.0894675704,0.2251552502,-1.0555761227,-0.2006802951,-0.2707188555,-0.2401830046,0.1103355799,0.5345567683,-0.5310517833,-0.1784501223,-0.8075848329,0.8471141989,0.5917503926,-1.891746845,-0.6058003582,0.0723016098,0.0898072226,-0.2423208337,0.3464100762,-0.5080943263,-0.5082078014,0.012843797,-0.7573643539,0.6048372972,-0.9623301428,-0.2827345001,-0.0604027069,0.5003995071,-0.7588802081,0.8669307532,-0.0785325771,-0.1374260293,-0.223298452,0.3335492396,0.0014862914,-0.9679131815,-1.5405546879,-0.863003987,0.8367566724,-0.3588524582,-0.1366500735,-1.4040796081,-0.4555238478,0.6109182383,-0.1030301935,-0.6791691202,-0.8075315386,-0.0258714382,0.3386796884,-0.0842610947,-0.4697726053,-0.1104618674,0.8779164712,-1.0101698128,-0.921358302,-0.4160087413,-0.395980246,0.7215039487,-1.0485010828,0.052418181,-0.5988991156,-1.4737179073,-0.4137449901,0.3607482079,-1.6251799563,-0.5728748792,0.5729711302,-0.3898031235,-0.7965449422,-0.143876539,-0.9706523969,0.8407386574,-0.1072433258,-1.4259074351,0.3475768707,-1.0021995956,-1.3733074867,-1.0513926834,0.5236182093,-0.6502254036,0.8337076933
   -0.5188532278,0.2236642396,-1.1457207893,-0.0442059152,0.95339419,-0.3852376466,-1.0966496646,-2.5144796416,0.0429338837,0.6773938998,0.3936285134,-2.0512225624,-0.3530387943,-0.2223654977,0.1895180362,-0.2462414421,-0.553177274,-0.4409963884,0.470012482,0.5302216987,-0.4073471217,-0.5815081572,-0.7002660711,-0.8888929974,-0.5042410661,-1.1045531409,0.4477480709,0.249154414,-1.7440451884,0.8737056235,-0.1319372614,-0.5267063324,0.3452560278,-0.2247370875,0.8544901315,0.3385011647,-0.1070080634,0.9361138733,-0.3347998667,-0.5812115014,-1.0622925775,-0.4869741207,-0.3289288278,-0.0817661293,-1.0682355613,-0.006108958,-0.1072950322,0.4072000335,0.2468507237,-0.2096094966,-0.7849186481,0.5822872525,0.5219777656,-0.2177068362,-0.0084281577,-0.57949164,0.0623075416,0.1958419977,-0.415858565,0.4379976044,-0.8751838599,-0.3453155357,-0.7915855451,-1.1085323057,-0.8821232655,0.6973121223,-0.2260993211,-0.6116745913,-0.372579166,-0.2043969996,-1.050694368,-0.9674758719,-0.0486198039,0.2098740798,-0.7794192827,-0.6840368499,-0.9464739915,-0.311340826,0.5820461022,-2.4002493514,0.2306151042,-0.0833393965,-1.6917216178,0.5630343569,0.9368631016,-1.0166803993,0.1324701667,0.2995216401,0.4833259333,-0.3663707199,0.8469035219,-0.9436847012,0.0681858334,0.2632109175,0.2624002344,-0.3043063896,0.8897629191,-0.7354416261,-0.8093791158,-0.8339553931,-0.875977239,-0.9789302832,-1.1091417349,-0.4185950231,-1.9380222314,0.4623093953,-0.9105216639,0.7430785726,-0.5318647201,-0.5199345325,0.7890201984,-0.9859139588,-0.0947149808,-2.5605106288,-0.1484585404,-1.4937890061,0.3060472902,0.3368768853,0.15762353,0.6514279382,-1.5210601285,-0.276365229,-0.9789197945,0.2194721179,-0.495958466,0.8955683909,-0.0087027211,-0.5316701222,0.8573913852,-0.6975688719,-2.365338336,0.4933631311,-0.6015490093,-1.0592642868,-0.371118428,-0.1033128446,0.0037360307,-0.9375189747,0.6237060724,0.2579563365,0.3369931136,0.6916443422,-1.1341260103,-0.7543494992,-0.7510181468,-1.2275552203,-0.6155207724,0.0316813519,-0.486476068,0.4441148936,0.2059783693,-0.1550841354,-0.8001626118,-0.7248891752,-0.0631206634,-0.5752591372,0.9604992138,-0.3282472313,-0.9619126217,-0.192758737,-0.3179890251,0.3158984544,-0.2510082204,-0.0734084765,-0.0936294317,-0.0453528817,-0.7288787608,-0.6527318109,0.6983335708,-0.7166417301,-0.4538617878,-0.0072613805,0.3537956669,0.7964119923,-0.0211888247,0.88829173,-0.2572452148,-0.6866443873,-0.3461704131,-0.0352334917,-0.590723625,0.7776315068,-0.6637598512,-0.686241527,-0.9366635848,0.2310435407,0.9205888576,0.2532029935,0.9414760363,-0.0972839977,0.4102170081,0.0744092291,-0.8604587222,-0.7161945166,0.372109412,-0.8192250249,-0.485551722,-0.5963129792,0.2773774224,-1.524867936,-0.1635560954,-0.0073781904,-0.0159015621,0.9117081788,-1.1581504361,0.3244167498,-0.5232373275,0.4755579578,0.7528359634,0.7864504048,-0.3895279639,-2.381183113,-0.5302567058,-0.3597683499,0.5621846789,-0.0117679219,0.2329495201,-2.2383472139,-0.3318559509,0.1198996425,-0.6370318166,-1.7433235065,-1.3120521375,-0.3382137871,-0.8109283143,-0.0776819323,0.4593475878,0.8639087368,0.9738037387,-0.7941191061,0.041806739,0.1304481572,-1.2680285934,-0.3364270477,0.0553934696,-2.885625428,-0.624575673,-0.3697798976,-2.1816233937,-0.3621024145,0.8828183889,-0.8570658283,0.2193520572,0.2504079087,-0.8832583818,0.6142897464,0.9820763757,-0.2808510175,-0.0271079641,-0.00735394,0.426064774,0.6501995504,-0.4975346525,-0.9451032766,0.0509893881,0.1967791863,-0.8920015584,-0.896433961,0.9914936901,-0.9882634361,-0.0022777563,-0.8619981922,0.3230023784,0.6744637281,0.9336567752,-0.8299503346,-0.6385958402,0.3570553048,0.6071404471,-0.0607159545,-0.7806671698,-0.9689550822,0.3452636392,0.2916058684,0.0103728459,0.2274818039,-0.7456928997,-0.4206454487,0.21282488,-0.8620313035,0.5278941357,0.2669676274,0.9361726682,0.9838373901,-0.0048046444,1.0276985622,-1.0582661206,0.799026457,0.2601850763,-0.7286080144,0.1204255118,-0.7351824658,-0.9673627768,0.660077145,-0.9854358558,-0.0164308276,-0.4734966526,-0.6703420073,0.3170804634,0.7530542878,-0.6239756612,-0.294054155,-0.5072404759,0.326901265,-0.4340681223,0.3422301053,-0.4539366124,0.3065334196,-0.2827319303,-0.5768111492,-0.8541209189,0.0034048393,0.1337144752,-0.9631703668,0.1527104578,0.2305591114,-0.7450036747,-0.873723242,0.5427700776,-1.7725006862,-0.8758249322,-0.9712771692,-0.3288767801,-0.9214927169,-0.018468241,-0.7712366524,0.1982480783,0.6576854522,0.5183972903,0.8437078601,0.9856109723,-0.4047127441,0.9512786181,0.6994199554,0.246172557,0.3752662367,-0.8292116115,-0.8799327776,-0.5782924667,-0.126706266,0.7412135276,0.546384527,-0.0373750227,-0.8953236237,-0.2089728042,0.6877525929,-0.3765661303,0.7446335852,-0.8200944734,0.0825332641,0.2846710795,0.1006730247,-0.5289038787,-1.0503456403,0.1684202319,0.5146503028,-0.4530410093,-0.5233259729,-0.6902451772,-0.9289051636,0.074839155,0.1957597541,0.3849877395,-0.5509750343,-0.2713380753,-0.336796606,-0.2075270446,-0.0991723101,0.1079555172,0.6932633525,-0.7402417986,0.566656858,0.3098780913,-0.7228502503,0.2759547938,-0.5347868491,-0.4559255491,0.1926704077,-0.9048371128,0.5724100273,0.4955318983,-1.0778553316,0.1526043542,0.044136903,-0.2262840767,0.240528423,-0.4781303844,-0.4237741469,-0.8537592481,0.1246320173,-0.3304747268,0.3541424476,0.0396598205,0.6964740671,-0.4095051969,0.3676615472,-0.8731099751,-0.1308635288,-0.3746055171,0.3951229552,0.4765278216,-0.7814140021,0.2990411065,-0.6934795951,-1.228723958,-1.1156780047,-0.7812327689,-0.2265911875,0.0784364818,0.3391679279,-0.6205926669,-0.1362531663,-0.0595409419,0.6555037434,-0.0810830777,-0.8854769403,0.6034785929,-0.9195233896,-0.956162769,-0.4600988916,0.5631588684,-1.3616353186,0.4715492141,-0.7964545478,0.3477339373,-0.696652239,-0.7307533827,0.4764022639,0.1444693255,-0.812254869,-0.3926118783,-0.1087804208,0.5544668641,0.1102250605,-0.4971202439,-0.7454748548,0.2584058155,-0.91253608,0.4285787465,-0.7606533146,-0.022968392,-0.8706814904,-1.1765138752,-0.6774697566,-0.0431969641,-0.4973512285,-0.4793537548,0.5607597854,0.1259502956,-0.9307891236,-0.2440517474,0.544161842,0.9444531362,-0.7095338775,-0.6896102461,0.5509878044,0.0054591964,-0.4089722051,0.0766343874,-0.4866265206,-0.0995277745,-0.3386124009,-0.3280122421,0.0839649319,-0.1316061376,-0.8044042054,-0.0931370763,-0.4934011554,0.5135054913,-0.2735745556,-0.3241164487,0.87060285,-1.244499532,-0.9654343463,-0.839637738,0.643919194,0.454684802,-1.4253299199,0.3576804035,0.0129574087,-0.6559565333,0.6246386166,0.6062431755,0.6462791277,0.927030317,-0.129380716,0.733553566,0.5079766005,-0.0462388566,-0.8003375249,-0.5262081894,0.2687403659,-0.5217558682,-0.211506949,0.4567005235,0.1950067736,-1.0829143114,0.4573221941,-0.541411036,0.3597030166,0.1759008493,0.0549307553,-0.8615381794,-1.0162344904,-0.5325687603,-0.0092216523,-0.7329803548,-0.36373553,-0.5991393933,-0.8877819094,-0.7495855134,0.2692613036,-0.5527809961,-0.4698932707,0.3548520126,-0.3070915717,-0.5476114278,0.1410279562,-0.7645517586,-0.8448837948,-0.9903760852,0.0388417545,-0.2301529949,-1.0247262919,0.2940361919,0.4371272216,0.1735582358,-0.145702054,-1.4383760932,0.448563627,-0.2384845981,-0.4701997055,-0.9460667066,0.1887579572,-0.4233776655,-0.7176199084,-0.4746619735,0.9065285847,0.0456108435,0.6140887257,0.4028533983,-0.8879705354,-0.2729097676,-0.4316396506,-0.5023642076,-0.6357447086,0.3023178772,0.0181374271,0.415139592,-0.1936590029,0.3785346809,0.8278713819,0.3615778786,-0.1219705389,0.3198451635,-0.8015338317,0.2455045049,0.4774996995,0.2091018281,0.1843385754,0.1168400634,-0.8447325894,-0.6763308501,-0.383201202,-0.7731047486,-0.1054191462,-1.9915526963,-2.3458095766,0.141994706,0.7663373967,-0.4108117616,0.7208263918,-1.1102700055,0.4964336956,0.1450407389,-0.6527582627,-0.0406897578,0.1758475314,-1.2243243574,-0.4422116659,0.2696650733,-0.77208072,-0.966877342,0.3594916399,-0.6801193096,-0.9327327866,-0.0770832258,-1.5839460561,-0.0282113148,-0.7543737366,-0.4788541165,0.0653511158,-3.1314084919,-0.0547530336,-0.1846942465,-0.2214050236,-0.0359141567,-0.0366239324,-1.3092208889,-0.3213511181,0.5928430717,0.3519856043,0.7285067321,-0.179339612,-0.4570881417,0.30832754,-0.2259998487,0.3323989168,-0.0644933039,-0.1418768677,-1.2943351521,-1.0541885214,-1.6008292301,-0.8533316748,-0.7275009679,0.2727214624,0.7152878645,0.6921927394,-0.7495829156,-0.8069832025,0.2315288737,0.6661199645,-0.5362214698,0.6241047488,0.1181960718,-0.3350898064,-0.9426269099,-0.8452607055,0.6478749435,-0.2726209502,-0.7859516346,-0.6949089233,-0.3348591858,0.0742180408,0.6066518822,-0.4007988283,-0.010839495,-0.15354307,0.0520861325,0.476468238,0.691071247,0.2090005564,-0.9676747047,0.4805122562,-0.3538783613,0.0747234823,-1.0674233827,-0.5922558496,-0.8889667326,0.0515413402,-0.0517592082,-0.9975981121,0.2836117714,-0.9908738873,-0.287989979,0.3574517771,-0.4162856523,-0.8311326979,0.6311500933,-0.6280711858,0.2146000838,0.0459958641,0.239301096,-0.8982956558,-0.423567032,-0.2707342134,0.8284635171,0.9171356813,0.7283460023,-0.1672061941,-0.7837209662,-0.7242287215,-0.8034991896,-0.1290731749,-0.6309852387,-0.8487163533,-0.300121891,0.5878615445,-0.4217724331,-0.2784065392,-0.6889791615,-0.9522958091,-0.8278354742,-0.5277280639,-0.1248603882,0.6876291319,-1.0289260157,0.3312885873,-0.0577696481,-1.0476592922,0.295062166,0.1730609998,-0.3159841218,0.830253494,-1.9226132419,0.1652740012,0.2271227074,-1.0192808598,0.9598620694,0.0388775584,-0.0056977695,-0.5454425213,-0.9188580878,-0.2531975961,0.1355766543,0.6233757847,-0.4775974168,-0.31031474,-0.6267668575,-0.6254053403,0.4647711167,-0.0227349652,0.004143844,-0.0326564882,-0.069311946,0.882261296,-0.8918659167,-0.4001540611,-0.188498963,-0.0098060939,0.7172028498,0.1491581121,-0.9180417731,-0.7632675939,-0.0476977771,-1.1766962601,-0.8731055243,0.3204884663,0.4030485517,-0.6733313406,0.0010777258,-0.748064338,-0.6899847605,-0.5999942051,-0.8536162432,-0.8318738797,0.4819560733,-0.3399811237,-0.8944170438,-0.7421873842,-0.4437820901,0.5985265774,-1.1185662286,0.4129074562,-0.6526577827,0.1041516604,0.1565051237,0.6983777139,-0.9113287597,-0.5770717118,-0.844937006,0.0459671967,0.7071454489,-0.3532786659,-0.3546272199,-0.6707071171,-0.0871239106,-0.2278742353,-0.664116374,0.6611685393,-1.0091274612,-0.5939981927,-0.6117602565,-0.0462212363,-0.3284373578,-0.3756277566,0.1407916197,-1.5239004549,-0.20016958,-0.3261645082,0.4507249424,-0.4020397217,-1.2471562311,0.3400309224,-0.4677014696,0.5565772084,-0.8936686505,-0.3241137109,-2.7018263539,-1.0659075204,-0.2797086161,-0.3098387036,0.3263253085,0.7954991493,0.5299577111,-0.0314852058,0.0780491726,0.6812377844,-0.8784148403,0.3466240673,-0.9877234069,-1.3423743214,0.8228052915,0.2023616044,0.282003596,0.4603958874,-1.282501579,-1.1085121358,0.0124047388,-3.6377467183,-0.1179610039,0.5913308672,-0.1595668803,-0.6191629952,0.8172612172,-0.8193479159,-0.9581388991,-0.8966096761,-0.8511758336,-0.0894248778,0.0684412159,0.3225488619,0.414052364,0.8109633347,-1.0704746678,-0.0245578987,0.0457971874,0.1574211835,-1.0780708596,-0.7729125401,-0.1835838286,0.109598418,-0.7196189437,-0.9695860027,-0.8904562599,-0.5267615392,-0.7231542957,-0.0640830286,0.3318738222,-1.3846796337,0.639861994,0.0751869373,-0.921346256,-0.0045474703,0.1388451551,-0.2222175137,-1.288108754,0.4238244468,0.0731780564,0.8648700365,-0.9013165037,-1.3830680875,-0.5921467878,-0.674346084,-0.1745919879,-0.6446788731,0.3883712189,0.5133262371,-0.5596058326,-0.5349552536,0.2127205344,-0.8893287148,-0.0163146609,-0.3651328521,-0.7777856706,0.464548751,0.7042731202,-0.4024449836,0.4176127708,-1.4531131381,-0.0636251103,0.5975953746,-1.1493145984,-0.931414694,0.1590733192,-1.1054395953,0.0841288173,0.3293984644,-0.6467634485,-1.0679011542,-0.4818072106,0.2570448032,-0.4634517917,-0.7557626495,-0.5235711703,0.848830369,0.867988347,-1.2590874311,0.9039890351,-0.0732901986,0.0800982035,-0.9527392729,-0.5509209677,-1.1171764772,0.4288141652,-0.2061984306,-0.3327187551,-0.5081715996,0.2679528622,-0.3045536329,-0.9281171454,-0.0972689931,-0.8382224509,-0.020955535,0.297013475,-1.5252469258,-0.4966328849,0.8230782916,-0.9079160568,-0.6795036171,0.7303130687,-2.3418831346,-0.85668309,-0.8634269922,-0.7931301808,-0.8153991825,0.1769820531,0.2293223043,0.420644133,0.4029557549,-0.6159265504,0.6791152404,-0.4616225895,0.0950657981,-0.1070673854,-0.3864096635,-1.5331470943,-0.1198956089,0.0613802635,0.1585108821,0.3408088087,0.1110336898,-1.0449405789,-0.6205583725,-0.439779675,-0.8593544947,-0.6053946675,-0.0424017969,-0.3623899643,0.7853889601,0.0261366101,-0.9464490975,0.6145920629,-0.1958230009,-1.0681116068,-0.3369669454,0.1552483126,0.0684125942,-0.0208783423,0.7086688416,-0.5194792461,-0.0576531607,-0.4408904147,-1.0253850126,-0.8800558141,-0.4254036335,-0.2520890199,0.8852527211,0.2108447063,0.4723821536,0.7283098338,0.6529138345,-0.9309163822,-0.5383989954,-0.2776825442,-0.5322792766,-0.176314147,-0.1411113671,0.6899477578,-0.6900139612,-0.7689973822,0.0343048906,0.1951178397,-0.2468842777,0.5519027407,-0.2787607078,-0.8517362892,-0.6519090946,-0.8405519671,-0.8233376835,-0.5295499422,-0.8548582073,-0.2731705812,-0.2962446168,-0.9563651335,-0.1185714284,-0.5935840656,-0.4332485246,-1.0748324133,-0.6105184009,-1.0686076135,-0.5567530567,-0.0083163674,0.6036653237,0.4524063471,-0.6382544038,0.9467127491,-0.9921185831,0.0187563898,-0.6352915015,-1.0025936926,-0.2080003549,-0.9486190269,0.2478289552,-0.8861366405,0.7787404351,-0.208245833,-0.3532545451,0.8201893861,-0.1355074201,-0.4691841886,-0.4560916819,0.3055638894,0.1636124448,-0.6375046958,-0.1208232714,0.8464015237,-0.3334638219,0.5475551533,-0.6661493798,-0.6236729043,0.3865494915,0.5503281051,-0.9074794195,-0.0342809033,-0.5562759341,-0.5805732765,-0.9478547754,-0.8796704143,0.3309056991,-0.7216691026,-0.5520015496,-0.9609122663,-0.8100217232,-0.6507238955,0.5071019453,0.7488876077,-0.9968174691,-0.3524166558,-0.6720265232,-0.2467718846,0.7535307665,-0.2156780874,-0.4324178176,0.2597126282,-0.3531905618,-0.4185949575,0.393886353,-0.58475044,0.1854457213,0.2115947723,0.6519046184,-0.8211216325,-0.2668242077,-0.5729653794,-0.3552209771,-0.8405227528,-0.7711460483,-0.8409640868,0.2663832231,-0.6715840679,-0.3438515461,0.4753399736,0.8707618245,-0.7641150596,-0.316781975,0.1172498535,0.4679098484,-0.8807585129,-0.3640293834,-0.9693569467,-0.7730545541,-0.407231016,-1.5429011475,-0.8698528088,0.279400125,0.0258305917,-1.0118411708,0.0974707938,-0.1068249206,-0.3805645625,0.7389254264,-0.283104306,-0.4380813509,-1.1787464452,-0.293858144,-0.5170879761,-0.3477802406,0.2858698744,0.1279612597,-0.2090752875,-0.4430467936,0.8541725619,0.1855350125,0.3901384479,-0.2837300463,0.6899538969,-0.1758444794,-1.0907650069,-0.9134910311,-0.4569842507,-0.1854589327,-0.4423423991,-0.1663675566,-0.5565855802,0.4691003597,-0.8116463691,-3.1090006688,0.436366148,-0.0264623961,-0.3535777588,-1.1762872226,0.0504549231,-0.7814158404,-0.8340419886,0.1578923233,0.9592086101,0.3325153221,0.3160313294,0.614617937,-1.1475051916,-0.5271354692,-0.1382544535,-0.9307996934,0.1618562263,0.3043309828,-0.8544223845,-0.935036832,-1.2776776831,-0.6575910044,-0.688937145,-0.4204844187,-0.9876195482,-0.5901778943,-0.3215635876,-0.738236051,0.7333350905,-0.2179624154,-0.7557107974,-0.6696449931,0.734442369,0.6575418879,-0.1656368755,-0.719450112,0.0081353832,-0.841420069,-0.5191682815,0.6904604154,-1.0612949418,0.2845619212,0.2636197868,-0.7223212214,-1.2158275992,-0.2051327761,-0.3552971259,0.4453448694,0.1715023482,-0.8100008976,-1.1255010833,0.2399562533,-0.8253824411,-1.0232141855,0.0443101978,-0.0483915266,-0.0489168823,-0.0601889324,-0.5097397224,0.9732375572,-0.1933552512,-0.9676696431,0.7210811891,0.420251797,-0.1786076091,0.3570190071,0.047494459,-0.3157979027,-0.1098516858,-0.0687705026,-0.6717415319,-0.049704019,0.6967857066,-0.8308598962,-0.024178002,0.2424984372,-0.49674074,0.0482833923,-0.1314835845,-0.2540454166,0.6766746042,-0.139988555,0.3545805626,0.389773971,0.1371073716,0.8965648776,-1.1360704656,0.2333471413,-0.9663189072,-0.0714141885,-0.2501672632,-0.6223453984,-0.1597219766,-0.6005334702,-0.7047386353,0.9892890695,-0.4479657324,0.7086488067,-0.1116489574,-0.5166316052,0.3434374394,-0.9762718475,0.7837989925,-0.8209048412,-0.0379463905,-0.0054538935,-0.757158621,0.8054018912,0.8526109856,-0.4128465091,0.1823676811,-0.6121331258,0.480749813,-0.7252210559,-0.3808750885,0.7597242866,-0.1382565151,-0.2776584903,-1.2130697016,-0.2745034046,-0.5719476775,-1.2681938402,0.713631734,0.4423363919,0.6096425399,-0.698558159,-0.0058906904,-0.6494198077,0.1864158101,0.4883052149,0.8707766028,-0.997053047,-0.2315309358,0.0383587832,0.7915373172,-0.1548309664,0.0198456346,-0.2953982198,-0.4217743349,-1.2714487105,0.5748154746,-0.1993688711,0.5847276932,-0.1035109308,0.4917278782,0.1879810348,-3.3219769048,-0.6820352695,0.7807249226,-1.2379364066,0.8105339104,0.2690380219,0.7418033231,-0.2314778246,0.2178716286,0.3203963913,0.8654573663,-5.2278673854,0.3926931072,-0.6505724107,-2.7981352623,-0.0267006918,-0.4817507599,-1.2655498542,0.1219636567,-0.1406726562,-0.530876953,-0.6513433896,0.3942745197,0.0740308761,0.7123647509,-1.0182623013,0.0293549863,0.4697684345,0.291561622,-1.2067010544,0.5930130115,-0.8823574831,0.2705208259,-0.3313392966,-1.366815032,-0.8497306252,-1.0244071692,-1.0559701416,-0.2389004674,-0.9444742083,-0.2759445818,0.8823033706,-1.0483764967,0.5367632542,-0.7879271915,-0.6871037938,-0.3822391121,0.249315485,0.5433110451,-1.1787578707,-0.5537916366,-1.2990240723,-1.0277440569,0.8066458185,-1.0242765877,-0.1536825875,-0.6803513837,0.246782268,-0.3671561298,0.1105845706,0.1734884589,-0.7463710607,-0.4910833883,-0.3672123846,0.2539053417,0.504180294,0.2328802436,0.0005379146,0.0277060638,0.4633081337,0.8374432683,0.9408665481,-0.0909697742,0.693737814,-0.6848332575,0.480830989,-0.2815211676,0.2798863305,-0.4914574633,0.8368702076,-0.452170199,-0.5381156337,-1.6195300611,-0.8187424869,0.07556856,-0.1510609403,-0.0893295569,-0.0838017961,0.3193678078,0.2149445285,-0.0266209269,-0.8609482678,-0.2989619104,0.0198054341,0.170850523,-0.2280075826,-0.7365539778,-0.8518103788,0.15856614,-0.5089458406,0.1063101047,-0.0141945793,-0.7730076526,-0.3243543702,0.0396835685,0.350236067,0.0783031768,-1.6026877152,-0.9880969015,-0.4509788526,-0.8405372269,-0.8012266512,0.3852186799,-0.1743561419,-0.8197933669,0.0721113027,-1.3853098353,0.2115525698,0.1435990225,0.4373693592,-0.0199315464,0.3575738354,0.539888147,-0.2138757573,-0.670246938,-1.0819209684,-0.6040817461,-0.3268673606,-1.0781559135,-0.6052470353,0.1074252039,-0.0874707956,0.2382605902,-1.5136557605,0.4918641021,-0.5472716878,0.4124101322,0.508458739,0.0482384741,-1.0722762067,0.8378698802,-1.0435135984,0.084410548,-0.5335251326,-0.0352388769,0.1045360085,-1.5642045958,-0.6129533434,-0.1513466283,-1.0566074508,0.117633363,-1.7816350085,0.2030070073,-0.461642669,-1.0987915133,-0.7060076308,-0.4792658907,-0.6476429506,0.3173023514,0.9803329041,-0.3216437934,-0.8514759516,-1.2181417993,0.2951851585,0.7190543943,-0.0440808048,-0.6030349897,-0.8269723037,-0.4874904485,0.5280793824,0.7665608249,0.2477897134,0.9826811624,-0.7372137133,-0.188553321,0.8558566192,-2.579082384,0.1589279889,-0.4164986161,0.1591623481,-1.5698451914,0.1539520416,0.466618818,0.4010593434,-0.6797004497,-0.0440215833,0.0267737235,0.8319177865,-0.5421385036,0.4500899812,-0.554027849,-0.1411206505,0.5043191987,0.0576929857,0.4979398568,-1.2685134126,-0.5224722497,-3.8331823907,-0.5607185824,0.9055304635,0.1345073294,-0.6973514189,-1.1454298181,-0.5683666259,-3.8686495875,0.4810772651,0.9480372433,-0.7052595041,-0.6675268963,-1.743096325,-1.0854565408,0.5301323767,0.7691061667,0.0994442091,0.155740949,-0.7071512449,0.4624082941,0.5127035022,-0.5314272832,0.0586233178,0.888192898,0.0299970982,0.3798023876,-0.1478971586,0.1743560638,-0.5040225985,-0.117067454,-1.1320858606,0.5095907068,-0.276457791,0.6908593291,0.3100534717,0.3497725214,-0.3000554923,0.5639482825,-0.8396264791,0.8710151417,-0.6443876943,-0.5762123998,0.4186490178,-0.7188901787,-1.3832518392,-1.3620559414,0.5957143914,-0.0965381982,-0.8932075286,-0.366956404,0.0928447253,-1.7372356412,0.803077509,-0.4611527188,-0.0799205035,0.1742605395,-1.4168868136,-0.9013070499,0.4705091662,0.7478359756,-0.5288084157,-0.5689056361,-0.0575659923,0.8585310637,-0.1026176708,-0.9594657778,-0.9442525588,-0.0405381385,-0.1535203569,-0.7786691337,-0.3778404529,-0.3336555402,-2.3679824269,0.6141199439,-0.2609586949,-0.1337368827,-0.7432476305,-0.2242675834,-0.2056626484,0.5242893746,-0.0290684305,-0.8089824214,0.1172144924,-0.1245876732,-0.450185126,-0.8751200259,-0.1967184567,0.3407984926,0.2465971317,-0.1918487221,0.0770811484,0.8626338793,-0.7285522224,-0.5564347112,0.8730453501,-0.9880354714,-1.1175814172,-0.1933208415,0.2362352636,0.8821164057,-0.7475498879,0.174287757,-0.2571017286,-0.6520760036,0.3240701236,-0.9238641121,-0.6116145772,-1.0364961164,0.113509506,-0.8548752331,-0.8568250194,-0.8924394456,0.2008560431,0.254389764,-1.1598222175,-0.02605191,0.0245258517,0.3394804863,0.7011336253,0.1454535559,-0.3944576192,0.6628958492,0.7036068535,0.5349060693,0.6181272075,-0.2275912659,0.4243439177,-0.1400714511,-0.5157683874,-0.1690103906,0.7610622978,-0.2531204941,0.4797441449,-0.9667523929,-0.4242567529,-0.750616541,0.6675469661,-0.7832846621,-0.8980122952,-0.8754265214,0.1510871031,-0.3275919237,0.5984555668,0.1478334057,-0.0938629056,0.29448172,-0.1412079489,-0.972016003,-0.2465681967,-0.6190396891,-0.9859940691,-0.0961934044,-0.7436253259,-0.0981007096,-0.4696579496,0.4195946289,0.7547788732,-0.9948997048,-0.1902352131,-0.2886053857,0.2163904953,0.8041829978,0.5575487103,0.2353009299,0.5050909849,0.2361522499,-0.6875389695,-0.3740481619,-0.7960956071,-0.9916369205,0.3111418926,-0.3641115702,0.0131618194,0.1708894206,-0.8530303683,0.3099298097,0.8560949736,-0.1280608644,0.0594788559,-0.6030742231,-0.4220887653,0.2400924304,0.7578760712,-0.1524968193,-1.0802919911,0.508157514,0.6665504377,-0.5701351955,-0.0684579949,-0.6162288142,-0.4202722268,-0.8453257357,-0.2678765222,-0.0999226769,-0.7033569292,-0.8632790762,-1.6838315732,-0.8216024084,-0.6398219346,0.8600568634,-0.2188848916,-0.4677341288,-0.2204537738,-0.7187973238,-0.5444930853,-0.3341868605,-1.2147832609,-0.5038571249,0.7114165425,-0.2702404696,-0.2631149234,0.4071905927,-0.0536708081,-0.9213120185,0.6863920443,-0.9339943258,-0.3226295646,-0.5391862162,0.7644642167,0.8668911818,0.2361533498,-0.4627520794,0.6333993158,-0.0591512494,0.9200975678,0.5703265011,0.8845941513,-0.2817846457,-1.0136156489,-0.2043534004,0.5132813455,-1.1466968207,-0.2096009581,-0.8473757356,-0.8505840596,-0.098604948,-0.4891366491,-0.0124264699,-1.9911587099,-0.2474890657,-0.50484013,-0.4624877872,-1.3347125054,0.1185891613,0.6250096439,-0.7811546516,-0.545519851,0.6130401033,-1.0198429323,0.3450473859,-0.1353356096,-0.1069780124,-0.4192532747,-2.3125737939,0.3444177623,-1.7693237153,-0.8638724991,-0.8200287246,0.555875245,0.7612969787,0.5536265712,-0.8274302242,-0.1375115442,0.5455292107,-0.9822113856,0.5313262803,0.8585335254,-0.1889862665,-0.6781627752,-0.8236553312,-1.0962329462,-1.1166334879,-1.1351102187,0.0457139705,-1.0012968196,-0.8184051411,-0.2785464445,-0.275093244,0.3847899201,0.4099128571,0.0309022136,0.2262222163,-0.4678635437,0.9032395123,-0.3689842733,-2.1349997654,-0.4902568177,-1.0170181284,-0.7786544467,-0.0365178772,-0.8762588759,-0.7930490901,-2.5720569526,0.0520701908,-0.1194933774,0.1678615713,-0.5470721576,0.4007961749,-1.4476114255,-0.4733852675,-0.4475985366,0.3998987908,-0.580940084,0.0155124001,0.4684449791,-0.409917925,-2.5916616957,-0.4905920273,0.1380027859,0.1716690844,-1.0623979438,0.7960014423,0.3806584058,-0.3223809565,-0.8670173378,-0.9752398489,-0.6150062022,-0.2098653286,-0.9566499826,-2.8668608796,-0.553504677,0.0753780167,0.1230169951,-0.8575994022,-0.2889999625,-1.353785227,-1.2620280865,-2.0767309263,-0.5437030259,-0.5696647047,-0.4753750559,0.2274682663,0.2403431985,-0.2488216867,-0.2188575254,-0.4710367496,-1.2963285799,0.4054381572,-0.4762350863,-1.0190994462,0.235934311,0.5231905918,-1.1905799575,0.2765304436,0.5949521555,0.8372632365,-1.3691322961,-1.0717330011,0.2622352253,-0.2198049017,-1.7488807565,0.1023654559,-0.4124656856,-0.8539485649,-0.8914816058,0.083408453,-0.7917067127,-1.0946418674,-1.0254492774,-0.2120215891,0.2492825563,0.0643811004,0.8149091238,-0.555515047,-0.901160691,-1.1178129904,-0.0255221953,-0.5208075734,-0.6208246869,0.9057871818,-0.893882991,0.0100515236,-0.9409705421,-0.7481217404,0.6315652379,-1.9763253938,-0.5434492971,0.801865466,-1.127176131,0.9352501628,0.2756043133,-0.3670806378,0.363085979,-0.5577433192,-0.5197887527,-0.8075186787,-0.6172228245,-0.3614772616,-0.5893317529,-1.2103736247,-0.3195863662,-1.2016541411,-0.945799583,-0.8008694753,-0.6287560889,0.0067551005,0.0385997879,0.3191396536,-0.5622565857,0.8057886441,-0.3827399043,0.0175344003,-0.2227219202,0.4848215745,0.6400563295,-0.8206632617,-0.2120971277,-0.251768756,-1.0662282458,-0.2204132564,0.1404086498,-0.056949582,-1.3117944544,-0.713122863,-0.0353649812,-0.1905999817,0.4406668573,-0.2856172516,-1.1370319764,-0.7062317594,-0.4202321374,-1.5369093003,0.2188066961,-0.8336178375,-0.9951911023,0.0035348866,-1.1651064177,-0.6082749101,-0.8561717756,-0.7921499283,-0.5350853332,-0.2957091837,-0.5691725486,0.0367235013,0.5162103137,-0.3599639594,-0.1504137223,0.5399010708,0.0128449352,-0.8129275939,-0.953429616,-0.8487226345,0.4967062899,-0.7366986178,-0.0889106082,0.0171428965,0.1195239089,-1.1082708825,-0.0483232318,-1.0732744799,-1.1274747858,-1.6341725073,0.6748140151,-0.6213367785,0.1312738354,-0.9018819238,-1.2585051721,0.2144906849,-0.6966046203,0.1667869671,0.042371401,-0.4487774043,0.8365466073,-1.3740602553,0.7940545245,-0.0454804503,0.2224056411,0.6551346696,0.5951887737,0.514648756,0.2687140846,0.5541420479,-0.5942708904,-0.2144122803,0.8347432259,-0.339172319,-0.8704351424,-0.5245594636,0.7780833487,0.0742750203,-1.236565367,-0.9254249661,-0.0051649592,0.302273903,0.8458161284,-0.057124212,-0.3347257148,0.4648339625,0.2647139124,0.6737822037,-0.9079047541,0.9332812934,0.7692961918,-0.0499893411,0.5801604909,-1.0928758346,-0.8304501354,0.576881471,-0.5943003163,-0.1863710969,-0.0145472657,-0.8438179373,0.7752830519,-0.4532386598,-0.7080675164,-0.5265836335,0.5790903734,-1.1565391862,-1.1583931681,0.4716250522,-1.2100109567,0.6857393878,-0.2634202412,0.4280347946,-1.0507584902,0.2778379737,-0.8261242353,-1.1355437601,0.379421536,0.4242855229,-0.815962465,-0.2940226555,0.3718649752,-2.0264225436,0.7940233806,-0.1445513648,-0.0144788324,-0.2831505525,-0.9531241284,-0.3235922807,0.8800007435,0.162030383,0.4291382561,0.4551096609,0.5730499049,-0.4951613856,0.1942060949,-0.9362638376,-0.9646832572,-0.636012775,-0.1331688328,0.096865295,0.7266446111,0.256009503,-0.3832023525,-0.6390441,-1.0393750827,0.9749404433,-0.5726015353,-1.0314110964,-1.6299501505,0.0542260728,0.9459267096,-0.6595509646,-0.8694437345,-1.4060488794,0.1241224816,0.3649861918,-0.9599226821,0.8723538384,0.7867337925,-0.6125576546,-0.756943399,-1.3037386307,0.2896953824,-0.7645027328,-2.2358787983,-0.8522216406,-0.9644716189,-0.8716294145,0.5159764998,-0.3729605601,0.2761045794,-1.2864853859,0.3381896725,0.6671242267,-1.6148648007,-0.4440218323,0.0387122489,-1.543386179,-0.8553399448,-0.072863742,-3.8269001507,0.5925229364,-0.9702111635,0.2280450079,0.2412871701,0.6914426013,0.4030684275,0.7402056791,-0.0722793917,-0.9706616543,-0.3981257236,-1.3292528207,-0.7434297966,0.5788718873,-0.1302512691,-0.9143921614,0.673686826,-1.0442120292,0.9496233468,-1.3250340699,0.0165126859,-0.6262706424,-0.6344798591,0.4995114433,0.0226736454
   0.5215760147,0.3574108554,-0.1430351023,0.1596406493,-0.1297803709,-0.8998886722,-0.1320645846,0.6797561698,-0.1500150017,0.3774941478,-0.1346243948,0.8324605262,-1.2690880748,0.5442389507,-0.4241353207,-0.958557384,-0.7302742935,-0.8793371446,0.0450423271,0.7572708644,0.0140729527,-0.3180003902,-0.913343339,-0.7479061044,-0.5303375043,-0.2952575225,-1.3208554424,0.2212900756,0.0632638332,0.5464667981,-0.0546958609,-0.6818591206,-0.66636525,-0.5181793219,0.0719123645,0.1278659907,-0.1214708991,0.7382236173,0.8042023434,0.5358519268,0.4590157139,-0.5905521213,0.5813793384,0.1550627138,-0.333026544,-0.6219416681,-0.9754522316,0.8344786019,0.4175839344,-1.7762245975,-0.699385032,-0.7438374146,-0.5564562865,-1.1964047356,-1.4821828509,0.0228969,-0.7636938474,-0.8256780141,0.2144346862,0.4461752408,0.2964686822,-0.4721503615,0.379575829,0.0831492556,0.5555596725,-0.1224951273,-0.2915134048,0.4100216868,0.0719758472,-0.5984339531,-0.286663564,-0.7786738985,-1.0702842159,0.4431695451,-2.2829358599,0.4460371346,-0.9399368558,-0.5038474153,-0.790122373,0.9084835049,-0.476369316,0.5902040441,-0.9312335579,-0.4200831243,-1.076176186,-0.2328101415,-1.6780071019,0.8323572582,-0.7236600839,-0.810178433,-1.2931696126,-1.0189591787,0.1326701699,0.6350837256,-0.7725060113,0.0778474536,-0.7268693724,0.5978069716,-0.8397411581,0.3523091498,-0.2772956648,-0.5077829029,0.8998476103,0.8222990676,0.8277833284,-1.1515116528,-0.9466285049,-1.2482017258,0.2540720577,0.5657776256,-0.7850574432,-0.9309614452,-1.1637354142,-0.9098685999,0.4585191257,0.1641256079,-0.0515554095,-1.2047477866,0.7827736688,-1.4630809004,-1.2636426319,-0.7646882301,-0.3266061772,-0.4002437865,-0.8500749913,-1.0726798351,-0.8122174258,0.0449869769,0.384229869,0.748270892,-0.6897609273,-0.2153765257,-0.2822523116,0.5721023724,-0.3565573301,-0.32637446,-0.3518565935,-0.3395080534,0.8818147923,-0.0276690414,-0.1124286185,-0.9343434876,-0.4871362104,-0.5147461063,-1.128674083,0.150213571,-0.6849654098,-0.7635566272,-0.6902909995,-0.2388007636,-0.421968781,0.4793084766,-0.1024917482,0.6926249118,-0.3330840378,-0.4920567025,-0.857415872,-0.1263648848,-1.1392855541,-0.419937247,-0.0765832287,-0.4795154254,0.8944224514,-0.1771433907,-0.4347610151,-0.415381241,0.147524315,0.7200863704,0.5542385934,-0.1885687543,-0.2332163739,0.4775859882,0.2439084493,0.0807244494,0.3819991203,0.5026614779,0.4131729474,0.1322815536,0.0422285868,-1.4704416802,0.6772380651,0.0580570057,0.8514852434,0.2799358805,-0.6988640992,0.5250441627,-0.5484888748,-0.5253397515,-0.1073884092,-0.0450323547,-0.679924639,-0.6093598602,0.4699641503,-0.8355523557,-1.0283850791,-0.6542205133,-0.8383379536,-0.0036950261,0.0821424733,-0.6233946179,0.1271684213,0.0189670977,0.8570473712,0.655540707,-0.1683079826,-0.7630514526,-1.1898863978,-0.9486896888,-0.3173043735,-0.4048132983,-0.6699523663,0.4747310907,-0.6397899262,-0.0241028676,0.1482953395,-0.9142165219,-0.2825617211,-0.001946809,-0.2319233072,-1.0678976514,0.1903506808,-0.6367952606,-0.3279375452,0.537652223,-0.8715925739,-0.1730247237,-0.3613709057,-0.0499385416,0.4790302896,-0.8312472168,-1.4980355309,-0.3741566724,-0.4263830333,-1.0945900835,0.5409952562,-0.3043979463,-0.0370940044,-0.7384032594,-0.8251378278,0.7446988269,-0.8612500715,0.1337075917,-0.909265405,0.3998178032,0.1790335049,-1.0903872664,-0.5554786034,0.1381071081,0.0565547828,-1.4898661961,0.3363325527,-0.1865211955,-0.5726853451,-0.3267590542,0.1806701199,0.1280305178,0.8605139594,0.8228921609,-0.4461625249,-0.2034831285,-0.8736850554,-0.626159441,0.1966715659,0.0937411895,-0.2606134736,0.6331057108,-0.1807289371,-1.4056331618,-0.8025811487,-0.3849755932,-0.3782746013,-0.645026335,-1.3286491488,-0.8826222585,0.1060140901,-1.3998278873,-0.7729866937,0.0161865756,-1.6744405534,0.8749509163,0.0687932482,-0.6236148853,-0.5167401402,-0.4068067928,-0.7051296045,0.3267103954,0.6250282003,-0.7490089026,0.8480620861,0.6993536137,-0.9466334568,-0.8620675506,-0.2165252201,-0.3831213706,-0.5935023437,0.5789897554,-0.1782317788,-0.949577414,-0.6239278239,0.7997195049,0.0841315722,0.8624766451,-0.31410454,-0.5786478879,-0.219556781,-1.0507439028,0.6676619254,0.0904498208,-0.4489142637,-1.4794944562,-0.8459437916,0.0417917763,0.6584111032,-0.4628788351,0.6299674719,-1.4167865982,0.2364502403,-0.2663979819,-2.3557790418,0.5024058061,-0.4023677204,-0.0549616301,-0.1903431443,-0.0025970405,-1.4557093199,-0.3646989056,0.6638930192,0.1846307278,-1.0110910356,0.7064915207,0.1711030398,0.4691304308,-0.2115398938,-0.0505317787,0.1940249285,0.3241752756,-0.7254949147,-0.8990580255,-1.2839443943,0.9192812262,0.7970474431,-0.5464780231,-0.8338507407,-0.656472497,0.4254216935,-0.5805163702,0.3279751302,-0.3587097956,-0.964615537,-1.2432762621,-0.5804858366,-0.5909521781,0.4014731637,-0.0759591977,0.5356490001,-0.4576968594,-0.9556611182,0.6025228739,0.7889142086,0.9090915638,-1.5064235254,0.108136522,-1.1695342498,-0.6028225315,0.7701392483,-0.0198844985,-1.1146171523,-0.2495604302,-0.8961597084,-0.5894566183,-0.1712526755,0.1174722831,-0.4954516338,-0.1602358621,-1.1022042936,-1.2281460733,-0.0236790989,0.9410332899,-0.9753938974,0.2387148041,-1.0905788392,0.3856121953,-0.3688192644,-1.2937770309,0.075576003,-0.0615973562,-0.4871879877,0.2971295608,0.7864708617,-0.4666762191,0.591653023,-0.3842387884,-0.4932127419,0.5477466253,-0.5873613896,-0.6672392304,0.9693660548,0.47695186,-0.0503170928,0.4475605773,-1.1967219253,0.5479417206,-0.3979625468,-1.2037356527,0.1896576832,-0.5945096778,-0.198850401,-0.2832993434,-0.925923611,0.74027629,-1.3580332937,0.748325173,-0.5933417519,-0.0594829258,0.3323740877,0.3673064451,-0.590183007,0.0801450208,-0.7660588537,-0.9261456537,-0.9693574277,-0.5530277893,0.8095580475,-0.1387271646,-1.154768213,-0.2715825154,0.4243495077,-0.6696688842,-0.6623454137,-0.1753014963,-0.0471609708,-1.4388260804,0.0654749774,0.7624781506,-0.3520213838,-0.7792544551,-0.1851312962,-0.0500259716,-0.253905508,-0.0142006179,-0.725946194,-0.0734991259,0.9333479819,0.0637919048,0.3073916205,-0.0098356631,0.4885585865,-0.026067076,0.2663434462,0.8121012245,-0.8331552334,0.5007649972,-0.135147662,-1.5326880948,-0.4818890624,0.8607547396,-2.0262186531,-2.3382631021,-1.3247182277,0.759042215,-0.2029823677,-0.7159653586,-0.6738557575,0.0772680784,0.2079609752,0.1223424608,0.4286196602,-0.1661639758,-0.954026518,0.4104805878,-0.6134834109,0.0223080093,-0.5399829364,-0.991347347,-0.971578659,-0.5708657367,-0.3785180497,-0.8943049473,-0.8662083012,-1.6177899808,-0.4347852124,-0.3151449082,-1.3991559112,0.6458568995,-0.9960868504,-0.9336835505,-0.3554080205,-0.9008721453,-1.1036085691,0.7865717266,-0.3810988584,-1.1064966341,0.4768593118,0.08398602,-0.7979895838,0.128579965,0.2338218463,-0.2822824237,-1.0065911336,0.0973954727,0.5066713132,-0.8321256048,-0.0710498096,-0.4532715441,-0.8350580434,-0.2086366953,0.9045517264,0.070345924,-0.3023205049,-0.4591624762,-0.6676644867,-0.7859297123,-0.8916315443,-0.4043953647,-0.7758072892,-0.0810179323,0.700151678,-0.6133085741,0.4274326102,-0.8090118278,-0.6614896628,0.7257235611,-0.7138916249,-0.4736882242,0.3856333054,0.5397898844,0.5186176092,-0.7442152056,-0.9388372421,0.4605909994,-0.0002387619,-0.3098146722,0.0768782601,-1.4433840128,0.4962352736,0.0209848805,-0.9420512835,0.1585808269,-0.4416912914,-1.2806705909,-0.623344548,0.5919778604,0.2603264537,-0.3096560981,0.5128323249,0.2623869655,0.4903622776,-0.0361167458,0.5611944674,-0.3125124619,-0.6015560705,-0.2881500844,-0.9915595217,-0.7723140722,0.3132997018,0.1203050681,-0.6052596008,-0.814991416,-0.3022117529,-0.9692842752,-0.2125039746,-0.0906234334,-0.7294271162,-1.0944471328,0.5827135227,0.8468804417,-0.0800048023,0.5078035188,0.7321494779,-0.6775430262,0.6475127391,-0.537801184,0.1057628738,0.4088142812,-0.7900964034,-0.0786471618,0.7550505597,-0.5362974354,-1.3761551081,-0.938386353,-0.8644434046,0.3796654306,-0.6832408734,0.4871040156,-0.2961985189,0.2871477654,-0.27684839,0.4563552952,0.0768342481,0.9785151808,-0.6645116854,-0.5497476249,-0.843234172,-0.6758411859,-0.2484861838,0.6064127262,0.4524152289,0.7790637804,-0.4479481831,-0.061219835,-0.9161682416,0.8952719353,-1.1500428674,-0.2964719163,-1.0631952715,-0.606775043,-0.5062620931,-0.205811425,-0.4339712498,-0.5542325814,0.0359740552,-0.5958174438,-0.1803475661,0.8699391757,0.7864886297,-0.0502476522,-0.2020447058,-0.0470526617,0.4519671444,0.0215984455,0.2574805439,-0.8082924986,-0.411259915,-0.2038606905,-0.7547803767,-0.9565433077,0.7421125697,0.6890343694,0.7758275286,-1.002281927,-0.9337677691,0.1211729481,-1.7850360969,0.4834970315,0.5639725287,-0.5545392051,0.0476077958,0.6472134781,-1.3358619126,0.048201151,0.0680962587,0.6344542561,0.3177727493,0.2424348326,0.1274378373,0.1796233562,0.300003593,0.0554179739,-0.8158483208,-0.9256202012,-0.0268468745,0.7845360409,0.68639199,-0.9981758594,-0.5612451568,0.7150213804,-0.3714624415,-0.3584738135,0.505222855,-0.2152640723,-1.0270270514,-0.5835462835,-0.5183421816,-0.8327141314,-0.0369759299,0.7566718689,0.2795260524,0.123189126,-1.091643315,0.9388867542,0.1994716985,0.3092647315,0.052219662,-0.3279044248,-0.4067785343,-0.6845396806,0.2638015778,-0.1031748187,0.6089579361,-0.8509649794,0.3552576898,-0.7049426734,-0.7075740134,-0.6622929214,0.4155542084,0.846927622,-0.4923563544,0.5036361761,-0.9494272581,-0.1235991382,0.8224441466,0.6604783103,0.8865770967,0.2608429016,-1.2701845261,-0.0832270513,-0.0162345446,0.5390345722,-1.5691459258,-0.4795878607,0.7539647253,-0.0873997579,-2.7982404013,0.3292652507,0.1312259843,-0.1663369776,-1.0450947397,-0.8738041441,0.2993751861,-0.330038116,-0.2434971802,0.3375936811,-0.3512869289,-1.2244306827,-0.5855489619,0.1949884287,-0.7706475521,0.8215078061,0.5401774909,-0.5052305382,0.3712792836,-0.8437727721,-0.3044898316,-0.6622277673,0.1603447397,0.5971054341,-0.9111379853,-0.7452393783,0.8713818785,0.730996832,0.7787949527,-1.1895480542,-1.1946084742,0.6481977763,-0.4419197784,-1.4208649463,0.7435558757,0.5159549474,-0.1297073628,0.0416525536,0.090584895,0.1638589981,0.5873962637,-0.5055309608,0.8106271695,0.3884644296,-1.2315385839,-0.2245843646,-0.4745230004,-2.3701737834,0.7434305666,-0.1572659133,-0.9887848655,-0.2884808452,0.2270501423,-0.7181287268,-0.2980352011,0.5673422353,0.0025939894,-0.452454695,-1.1825787998,0.5557040235,0.1057030472,-1.7103831276,-1.2418581089,0.8754827983,0.8290307788,0.0898054404,0.069051237,-0.6080815302,0.0348797235,0.8259207857,0.1230771806,-0.8068620124,-0.6834409453,-0.6089090698,0.4616405246,-0.746334124,-0.4457450107,0.9230632482,-1.0232716345,0.2158465037,-0.7538166545,-0.8816482015,0.2121358258,-0.720032129,0.138312302,-1.1347491285,-0.8709541972,-0.5167976142,0.591205138,-0.5565640802,0.4152059025,-0.6543849068,-0.4904735302,0.8635836447,-1.4064266492,-1.0581754157,-0.1875861286,0.4331793799,-0.6602073458,0.7940022518,-0.5100234136,0.1160626069,0.6401903568,0.5954922518,-1.0560122767,-0.8784559633,0.1173737687,-0.5137267486,0.4161142498,-0.4221768932,-0.2900307026,-0.0844944897,0.4439086354,-0.287630446,-0.4850373405,-0.7667842087,-1.0005639496,0.140121263,0.4683217529,0.0469005634,0.844553249,-0.4888217003,-0.0075929809,0.0807172673,-0.756352191,-0.7023834322,-0.5979257093,-0.0356459592,0.6294236122,0.336582146,0.4830021735,-0.1321208685,-0.8680414502,0.8569286725,-0.3823051122,-0.9489034241,0.5012453453,0.7686335709,-0.7087473543,-0.8798986255,0.1235829559,-0.9267990959,-0.4669171576,-0.2359725207,0.6502109308,-0.8832584528,-0.9479412322,0.9046271086,-0.4888228552,-0.7943701646,-0.8594422332,-0.9048388687,-0.7573709434,-0.2403146302,-0.6278567676,-0.6082530414,0.018927861,-0.797663753,-0.3707194409,0.2094405758,-0.6890396953,0.5117415595,-0.4447090473,0.3670309119,0.4903435459,-1.0492904076,-0.6262681308,-0.7205651615,-0.162531424,-0.2269686363,0.912763415,-0.8535272576,0.6024163214,-1.043821104,-0.7454853535,-0.167516913,-0.6255839691,-0.9420541032,0.4132323075,-0.3479302642,-0.2617583128,-0.3764727087,0.4424498018,0.319103742,-0.9749803641,-1.7470364172,-0.5449107818,0.3888129941,-0.652053165,0.0160186631,0.4390677724,0.1434981469,0.3989774071,0.2998122315,-0.864027454,0.1476883337,-0.966851086,-0.9920809376,-0.4724123136,-0.6106558508,0.1431103914,0.832700313,-0.618588292,0.8584423481,-0.9294394623,-0.9770954108,0.150177515,0.7505208279,-0.2586383743,-0.1347372503,-0.5657584717,-0.5245619699,0.0369650194,0.4449722895,-0.616621144,-0.3974299846,-0.8523289082,-0.8044081504,-0.6541903938,-1.0882479656,-0.7799169371,-0.3326342738,0.5016918238,-0.4249784326,0.9241752247,-0.5388056855,0.4022819552,-0.7066323079,-0.7777522286,-1.172986865,-0.8579645845,0.4131851276,-0.3533251936,0.5067591416,-1.0142847583,0.6019051139,-0.7014051801,-0.6793610448,-0.1004520803,-0.7007115883,-0.1840667757,0.1990979042,0.1570282628,0.3688175709,0.9939325308,-0.9090973384,0.7896635942,-0.502407343,-0.0971927887,-0.8198357266,-0.9046379384,-1.9741646571,-1.0365562239,-0.4728705617,-0.4277264385,-1.0203678269,-0.4406817934,-0.6629702971,0.2097544048,-0.1034763003,0.03023511,0.2953667744,0.2420587109,-0.2837442888,-0.8296126161,-0.1666935149,-0.5730020577,0.3665445096,-0.2641790637,0.083231496,0.109563643,0.819118926,-1.1040144106,-0.8884730475,0.9066042448,0.5217238762,-1.0627710117,-0.2376487571,0.3267565836,-0.761415457,-0.2119623473,0.1109671496,-0.5330156788,-0.1366604183,-0.9827759763,0.0537042042,0.3284585874,-0.7004322715,0.8082315019,-0.3665954121,-0.7315728379,-0.5798063929,0.3936303194,0.1727136046,-0.6311119723,-0.0625585746,0.4934078932,0.6802232704,0.0162674662,-0.8498801316,-0.9106826558,-0.9159685883,0.3983138606,0.3213950579,-0.503521991,0.2303902773,-1.8109779606,-0.147731452,0.2206979604,-0.9176209979,-0.3418318965,-0.9169876909,0.4591470641,-0.3015374131,-0.1386247579,-0.9566498103,-1.4714401144,0.2067841439,-0.2178497424,-0.8258035898,0.7060833247,0.3198497938,-1.0485750448,0.5315498107,0.3928297463,0.8335250482,-0.8973993674,0.1483960382,-1.3432976776,-0.1935498704,0.2023744147,0.6926943587,-0.6772242554,0.602751828,0.2775842329,-0.7727005688,-1.1414623477,-0.2045241746,-0.9562351561,-1.2255420798,0.5670102819,0.4324870475,-0.9508056577,-0.5859867496,-1.0114549568,0.8307443239,-0.1194361738,-0.8076908148,0.0067805637,-0.7604800262,0.0251446096,0.1507649414,-0.2966803001,0.0238661472,-0.1104879545,-0.1073508161,0.1128905247,-0.2806658303,-0.905274281,-0.711972054,0.6746014954,0.2194391624,-0.8318507791,-0.8802058804,-0.6084030479,-0.5721887891,-0.0056672384,0.3017953723,-0.4809324656,-0.2377989248,0.3459982543,-0.294031136,-0.9223206348,-0.3772140587,0.016207088,-0.7365455779,-0.9196107942,-0.4109074813,-0.373464543,-0.3302560663,-0.6437665854,0.3616305102,-0.8370174842,-0.4518835144,-0.5882033753,0.0024888574,-0.0661913105,0.9112927939,-0.6740903722,-0.6461630023,0.4122010451,-0.300300235,0.8600789162,-0.4971932375,-0.3114064247,-0.5604706982,0.6607411482,-0.3196112476,-0.4832010591,-0.6263952902,-0.4667527564,0.8773124961,-0.2103470704,-0.8390876885,-1.0862795026,-0.808263961,-0.8893265198,-0.131771752,-0.1911381515,-0.9532871265,-0.5402182317,-0.5576616615,0.2965932474,-0.3667283094,0.8957673134,-0.0143583133,0.7099613028,0.2532365888,-0.0026130212,0.3137982878,-0.3415183032,-1.1165401471,-0.0857001177,0.104295553,0.687487087,-0.4722410337,0.1252817964,-0.9351837008,-0.5682980223,-0.1580615181,-0.9297365813,-0.2602363177,-1.0194983775,-0.6686335604,0.6333067137,0.2418683509,-0.3884776143,0.7846381042,-0.3796347805,0.0880636103,-0.749667628,-0.6210771489,0.6758238387,0.1618289411,0.5628554216,-0.2465650578,-0.3803099506,0.15064604,0.7230524128,0.2931365659,-0.3651197713,-1.5543995029,0.1217281691,-0.7439680342,-0.5181029246,-0.4754794478,0.2266500648,-0.7533261304,-0.9442746847,-0.5077722538,0.4551184799,-0.9315978227,-0.6174483262,0.0862370468,-1.3293073749,-0.8236979205,0.4672815284,0.7627921214,-0.6367481487,-0.5771490232,-1.1267440913,-0.5939090014,-0.6611404063,0.587304617,0.3691005479,0.5434890844,0.8388360766,0.5808460004,0.5687278839,0.7190869466,-0.1047580292,-0.0389355289,-0.8553886792,-0.4233845325,-0.5287704164,0.3238591622,-0.616155332,-0.2797699918,-1.0071017797,-0.804298043,0.5851217038,-0.4911102744,-0.1487557142,0.5300090936,-0.8087169482,0.8795710029,0.5993067496,-0.0572618298,0.9999209406,0.9236903587,-0.7077031874,0.3748309261,-0.5464920712,0.3051665325,0.1130018917,0.7930616111,-1.9629624316,0.787466459,0.5841698152,0.0987906481,-0.2496034234,0.66061319,-0.2078482116,-0.6573108653,-0.2910111429,-2.0272597602,0.8261426296,-1.4897704239,-0.9746963161,0.3270714237,0.8162127627,0.3841163936,-1.0280339378,0.8573502711,-0.2986990953,-0.0039062241,0.5282314408,0.1486573703,-0.3674685156,-0.3366400021,-0.0680463866,0.29021776,-0.0540799257,0.7117250655,0.608367901,0.0811702974,0.0928604347,-0.6027581274,-1.2159544618,-1.0578430031,-0.5479199049,0.5227870899,-0.9002995296,-0.9911171996,-0.2926449312,0.5398456526,0.1184351046,-0.3919437102,-0.5600791478,0.2852038103,0.0023305216,0.025594477,-0.5941086983,0.6415344945,-0.3597078584,-0.0703837015,-0.5139331564,0.0425786192,0.0809671794,0.0341952227,-0.8575413907,0.0399534277,-1.0222403384,-0.1090011685,-0.5205015032,-0.3079427837,-0.1502232623,-0.3353748361,0.7712572457,-0.3662079172,-0.5019348749,-1.2469926371,0.1405239078,0.3370793654,0.3712861576,0.0870020423,-0.9609177039,0.4358170573,0.3241489694,-0.2305581313,0.478144147,-0.4293906412,0.6702335369,-0.4263058157,0.4319457037,0.5057789349,0.0019341344,-0.9453547251,-0.7664262752,-0.4896465831,0.1105394587,-0.925871689,0.6932759368,-0.2771230636,-0.4319705553,0.374041803,-1.5618601545,0.6181553001,-0.4048345169,-0.9455053547,-0.1528358886,-0.3267435518,0.4217371563,0.5457990267,0.4728643298,-0.7311126726,0.3474228722,-0.37863429,-0.6701599121,-0.3700141245,-0.607246756,-0.51946915,0.4451962369,0.1406217823,-0.9460942376,-0.4733830056,0.0172876603,0.4339802167,0.3276859011,-0.633734577,0.302050899,-0.4061639942,0.8707956877,-1.0752168372,-0.3361136345,-0.6058040791,-0.8799027537,0.5226721404,-0.5098975276,-0.4264156162,0.0570277622,-0.4557157911,-0.7521086967,-0.3840624163,-0.9385380771,-0.2108382616,-0.1637057883,-0.8262172047,0.2033955556,-0.5955768153,0.7507002324,-1.092870449,0.0122562569,-0.6976964152,0.8792987776,-1.3066259034,-0.2741157033,-0.6614449249,0.4824280441,-0.1395991832,-1.0264866314,-0.6504673675,-0.8182177573,-0.989334797,0.8392046577,0.3882467889,0.9015060324,0.1384694849,-0.931945929,-0.2285882775,0.1707733205,-0.7061620162,0.4819165879,-1.1396948707,0.5093559384,-0.7042404174,0.670783108,-0.7713839516,-0.9424177254,-0.5342695898,0.5853774426,-0.7357690618,-0.5427334386,-0.5361051214,-0.7374417712,0.6994876045,0.5490031562,0.3652447625,0.2749995857,0.2402069636,-0.9798361479,-0.186828648,0.4603076538,0.489117134,-0.157884168,-0.6286585279,0.2765740869,-1.1255924362,-0.235158841,0.5414436498,-0.9976866219,-0.890477918,-0.4979272921,-0.9753532374,0.3775771295,-1.870117143,0.4537226852,-1.2424931273,0.4361400719,0.2075883447,-0.4283841714,-0.0006045567,-0.0001622107,-0.5836626839,-0.166516064,0.1833393795,-0.6208610148,-0.6494255268,0.4232684711,0.4787964282,-0.8232821869,-0.5781038933,0.7386556946,0.7054418495,0.1215125326,-0.5270625426,-0.4699428829,-0.4382304072,0.0715191803,-0.0562091813,-0.3731569262,-0.0830967951,-0.4913134349,-0.712821519,-0.3093670529,-0.1375727732,-0.5397249189,-0.352862024,0.7514231439,-0.6370985701,-0.204056872,0.0082291965,-0.6632720591,0.9133243686,-0.294556965,0.7781819533,-0.070452757,0.8524568914,0.5941142625,-0.4971147443,0.6769295101,0.9652235175,-0.3606387588,0.2409845719,-0.1860810494,0.0481320935,0.3128215616,-0.0679476253,-0.5067095933,-0.9053358047,-0.608861531,-0.4234493655,-0.7299544884,0.4709184222,-0.3870905635,0.5061240836,-0.9667334792,-0.8791883914,0.145632839,0.183612124,-0.5017880456,0.3810106236,-0.2457108784,-0.863580227,0.5790473247,-0.9887487433,-0.4448576588,0.2285022745,0.1155705564,-0.759092791,-0.8093996033,-0.1568020562,-0.1204875185,-0.2430192732,-0.6569342969,-0.4601281359,-0.9484873028,0.1691122808,-0.2634658533,0.3337658997,0.2840384173,-0.0579888347,-0.7473418311,-0.7413877632,0.9779047388,-0.1296025681,-0.4610471425,-0.1576407156,-0.8623043471,-0.3765746604,0.6622308339,0.6762561058,-0.8597727891,-0.2962974923,0.2534584398,-0.0791937736,0.3465426528,0.5947871549,-0.2374764675,-1.0306160919,-0.4888942401,-0.691695214,-0.0551279854,-0.4800640725,-0.8306371491,0.1403186514,-0.7545835044,0.1840297282,-0.7642817006,0.7251273373,-0.5017383677,-0.0991485897,-0.3472731959,-0.8557066317,-0.3612480803,0.6084273556,0.412093766,-1.0983077824,0.1831224366,-1.016595837,-1.6700226204,-0.2868975994,0.8496568563,-0.2357893675,0.4344315399,0.1731228307,0.4520993178,-0.7406428443,-0.9812300048,0.2983961427,-0.5765774506,-0.2952100144,-0.9590179185,-0.7730465257,-1.0242343901,0.3939837155,-0.4134093034,-0.2191737545,0.4541461515,-0.213219558,-0.6453682639,-1.0509589795,0.846541404,-0.8091713835,-0.83359635,0.1463247911,-0.8579430467,0.0618761958,-1.5824923818,0.759967002,-0.5068261287,-0.2558011799,-0.8217634695,0.8690325108,-0.4343984212,-0.2164926442,-0.6051680681,-0.7275842428,-0.245915328,-2.8046510318,-0.4599739058,0.4890694716,0.7631781275,-0.9184287939,-0.0629114213,-0.6791578256,0.2992755669,-0.1438171745,-1.5828316837,0.7156837439,-1.3419716399,-0.8918452141,0.8511050985,-1.0699974663,0.1083580073,-0.5179497711,0.5801289261,-1.6424098926,0.6048494789,0.3393866351,-0.2358093096,-0.5958368906,-1.1418131534,0.423488898,0.566541309,-0.3509008692,-0.8623088325,-0.1871753508,-1.8079036709,0.2386088324,-0.1399484507,-0.5328496792,-0.3815461577,0.8311876423,-0.8066590882,-0.1491193882,0.160119818,-0.5119981794,0.2570439748,-0.1523515349,-1.3967356514,-0.2868064618,0.7367570971,-0.3792486675,-1.1296701959,0.1901100587,-0.4041828243,-0.3381649352,0.0991831213,0.0507173031,-0.1251020299,0.5851396693,0.8299386462,0.8182835926,-0.269000602,-0.9800957876,-1.2485875682,0.7858470208,0.0873701168,-1.1347814694,0.5476432804,-0.3977839391,0.1462492891,-0.6352337361,-0.6440058827,0.0916335295,-0.1336432848,-0.5153208759,-0.7460565409,-0.0569032917,-0.2112688673,0.6356036269,0.5075217991,-1.0080593581,-0.3441083289,-0.0226176169,-0.604518707,-0.1704859659,0.5096181823,-1.292983841,-0.4016346313,-0.5114748431,-0.6478152248,-0.9463622045,0.5379809676,0.3235448944,-1.2201645871,-0.9314036843,0.3705326298,0.2502930563,0.6802121241,0.6061306033,-0.434554486,-0.9945765912,-0.6911815197,-0.5430942274,0.4456097766,0.2249903371,0.3427562281,0.7617020916,-0.1766979339,0.3334799194,0.6970097626,-0.5644825505,-1.0182771039,0.6856447203,0.5883447295,-0.1532668262,0.0279305914,0.0775934495,-0.0490655343,-0.7111171281,-0.2512193567,-0.30274022,0.7592848984,-1.4170464015,-0.2450157927,-0.6878460098,0.6637355661,-2.1411472697,-0.2300853452,0.5333088018,-1.0103538067,-0.1584938012,-0.3502085023,0.8287932599,-1.2505533796,-0.1118685931,-0.5636117917,0.2324242088,-0.4210558994,-0.1860875817,-0.3564338616,-0.7660629199,-0.7134441218,-0.6976746713,-0.8824096866,0.4532274225,0.0446436471,-0.2218452004,0.2800797859,0.1660143715,-1.007000385,-0.1039815209,-0.6530167555,0.3926926254,0.2707749862,-0.5368817097,0.818751037,-0.6910720456,-0.3768473799,0.4512382717,-0.4588774301,0.3746768847,-0.6288060247,-0.6419705601,-0.3598555775,0.3502630089,0.2503811136,-0.6260922894,-0.0475842444,-0.089641731,-0.2829529656,0.3993663873,-0.7861923037,-1.273385957,-0.5026455524,0.2794997348,0.1432489033,-0.9955950682,0.4392636314,-0.5412073076,0.2733489467,-0.0339679753,-1.0409591315,0.0183845526,0.1029799382,-0.3244949145,-0.1267396067,0.1532250797,-0.5814328179,-0.071319157,-0.5546355654,0.0229570432,-0.1573799065,0.764353002,-0.8631677194,0.4548735237,0.4118347076,-0.4863058858,-1.5546983872,-0.0553520666,-0.5477714317,-0.6445587471,-0.412017677,-0.9176585288,-1.0292643936,0.614521819,-1.1854238424,-0.6334776348,0.0974677744,0.8197493964,0.3624434916,-0.9227035232,-0.1622707807,-0.2668244874,0.5100236786,-1.4893737085,-0.6400816502,-0.4077012287,-0.038691656,-0.5178860949,0.5070806016,-1.1405206917,-0.4616224979,-1.5646083661,-0.2221740101,-0.4502309981,-0.5044365052,0.3760417803,-1.0095611232,-1.3031295696,0.1149238178,0.0877432597,0.1360177606,-0.1410004585,0.5920486014,0.3137088134,-0.2830586294,0.5021622484,-0.529768273,-0.2373348064,0.2321591921,-0.0235823612,-0.5771061682,0.7494379053,-0.3846714663,-0.0308597211,-0.2542822778,-0.3135611116,0.3122466901,-2.6294533018,-0.8836741679,0.6474612873,0.5752879513,-0.2924370112,-0.0054973182,-0.5997282757,-0.5741928003,-2.2292027026,-0.9311421854,0.5534849457,-0.6897164252,-0.4393400245,-0.5436450449,-1.1501367825,-0.1790096184,-0.325947698,-0.5855129121,-0.7466854943,-0.364722316,0.7242010987,-0.740996502,-0.6783840265,0.728396229,0.3984854414,-0.2781991736,-0.7658180643,-1.0131337098,0.8694363032,-1.0997767905,-0.7093330722,0.6764348237,-0.4753169777,0.9037866752,-0.7725590109,-0.7331988435,0.4661243539,0.3043993264,-0.5302874979,0.8672598673,-0.659986109,-1.0262227026,-0.8097176337,0.0763602958,-0.0334083964,0.6906554268,0.2166988441,0.4646631608,-0.4741129919,-2.3098005257,-0.2605077286,-0.172877146,-0.8764529191,-0.6799493773,-0.7627801112,0.0239945582,-0.3893631515,0.3515035033,0.2104342924,-0.3520794661,-0.4618318461,0.017998613,-0.4741502601,-0.4881175084,-2.2112262059,0.5687594535,0.1444966902,-0.3558995527,-1.5065306881,0.1970963521,-0.5907722736,-0.5890382268,-0.2835909795,0.3286745239,0.3994412218,-1.1764219405,-0.5845046953,-0.4107381607,-0.102084844,-0.4284663502,-0.6561976467,-0.7404472895,0.2408676013,-0.1373814464,0.4698505401,-0.7484396463,-0.2157900584,0.1188017321,-0.3233756679,-1.036943291,0.3205967315,0.0991312681,-0.0758468641,0.0880997654,-0.7800199373,0.3149577039,-0.4415978401,0.0786864588,-0.6106012472,-0.0127809711,-0.3686099185,0.1575421397,0.0038455771,0.2199095145,-0.6552612538,0.4226954056,-0.4899053004,0.0624180946,0.6805589201,-0.7215269152,0.3657736413,-0.1534479598,0.6507421771,0.1681447558,-0.4087365732,0.4453899452,-0.0123084114,0.064518059,-0.5070434658,-0.6176161565,0.0557541106,-0.5331143786,-0.3237569084,-0.9764932918,0.526610395,-0.7911041307,-0.6229093864,0.5744256058,-0.3122589029,-0.4509550696,0.7293169862,-0.2502319148,-0.9623817645,0.5283947976,-0.6093266954,-0.7135372101,-0.8015843438,-0.2241679012,-0.9001641971,0.3405188244,-0.4727526692,0.9071861457,-0.6929617779,0.915651096,-0.7515172755,0.6986469157,-0.2188293754,0.6932775748,0.7994781162,0.0136034979,-0.2314109263,0.6572087499,-0.4536474811,-0.2376379373,-0.8678395323,-0.624789019,0.2684763433,0.809310047,-0.9088067489,-0.6414606704,-0.1853735524,-0.742464904,-0.505827224,-0.5426800711,0.8731616009,-0.6240911833,-0.2652454951,-0.7646419337,-0.4748048125,-0.4727689934,0.2035742663,0.4643687697,0.1531126314,-0.9807208828,-0.0859070618,0.3719073906,-0.5137653119,-0.6059601084,-0.9353642358,0.4372879573,-0.4552406302,-0.081248787,-0.1982242412,-0.7268004068,-0.1967232022,0.1512488565,-0.5670807707,-0.3859296347,0.7856567061,-0.9644491056,0.6378498487,-0.803393825,0.9029647921,-0.9469570332,0.9340779404,0.388167497,-0.5041233521,-0.4417267674,0.2872818971,0.6966580499,-0.9009674403,-0.2176739581,-0.7470288128,0.6222611466,-0.4611850872,0.1456358547,-1.2914197561,-0.7075881171,0.4555798663,-0.3170659286,-0.1331607729,0.5499453245,-0.508702165,0.1641178578,0.181465528,-0.7722636842,-0.4534298977,0.4258950862,-0.2541978709,-0.0558160235,0.1125805257,-1.2032125602,-0.0326438135,0.9323256611,-1.1862035037,0.3264887756,0.1454704819,0.5401499415,0.2800957075,-0.0896514814,-0.7544777831,-0.1755140037,-1.0496403067,-0.6810144343,-0.4701258179,-0.592499426,-0.5242116089,0.6037901341,0.6238949198,0.7865190796,-0.6813474473,0.7223784216,0.1672138334,0.5049619457,0.2294648167
