encog,BasicNetwork,java,3.4.0,1,1589371371433
[BASIC]
[BASIC:PARAMS]
[BASIC:NETWORK]
beginTraining=0
connectionLimit=0
contextTargetOffset=0,0,0,0,0
contextTargetSize=0,0,0,0,0
endTraining=4
hasContext=f
inputCount=235
layerCounts=236,61,61,61,236
layerFeedCounts=235,60,60,60,235
layerContextCount=0,0,0,0,0
layerIndex=0,236,297,358,419
output=1,1,1,1,1,1,1,1,1,1,1,1,1,1,1,1,1,1,1,1,1,1,1,1,1,1,1,1,1,1,1,1,1,1,1,1,1,1,1,1,1,1,1,1,1,1,1,1,1,1,1,1,1,1,1,1,1,1,1,1,1,1,1,1,1,1,1,1,1,1,1,1,1,1,1,1,1,1,1,1,1,1,1,1,1,1,1,1,1,1,1,1,1,1,1,1,1,1,1,1,1,1,1,1,1,1,1,1,1,1,1,1,1,1,1,1,1,1,1,1,1,1,1,1,1,1,1,1,1,1,1,1,1,1,1,1,1,1,1,1,1,1,1,1,1,1,1,1,1,1,1,1,1,1,1,1,1,1,1,1,1,1,1,1,1,1,1,1,1,1,1,1,1,1,1,1,1,1,1,1,1,1,1,1,1,1,1,1,1,1,1,1,1,1,1,1,1,1,1,1,1,1,1,1,1,1,1,1,1,1,1,1,1,1,1,1,1,1,1,1,1,1,1,1,1,1,1,1,1,1,1,1,1,1,1,1,1,1,1,1,1,1,1,1,1,1,1,1,1,1,1,1,1,1,1,1,1,1,1,1,1,1,1,1,1,1,1,1,1,1,1,1,1,1,1,1,1,1,1,1,1,1,1,1,1,1,1,1,1,1,1,1,1,1,1,1,1,1,1,1,1,1,1,1,1,1,1,1,1,1,1,1,1,1,1,1,1,1,1,1,1,1,1,1,1,1,1,1,1,1,1,1,1,1,1,1,1,1,1,1,1,1,1,1,1,1,1,1,1,1,1,1,1,1,1,1,1,1,1,1,1,1,1,1,1,1,1,1,1,1,1,1,1,1,1,1,1,1,1,1,1,1,1,1,1,1,1,1,1,1,1,1,1,1,1,1,1,1,1,1,1,1,1,1,1,1,1,1,1,1,1,1,1,1,1,1,1,1,1,7,4,5,7,5,7,2,8,5,5,6,8,10,5,6,5,7,3,4,4,8,8,6,7,5,6,3,7,6,3,3,9,6,8,8,7,6,5,5,6,8,5,3,13,10,6,5,9,7,5,1,7,11,5,8,5,7,4,8,10,9,9,1,8,6,5,8,13,4,6,3,5,4,8,6,12,9,9,5,3,5,14,9,11,4,5,8,4,8,8,9,4,6,7,6,7,4,8,8,5,11,5,6,8,8,6,7,3,15,2,6,7,9,3,5,4,7,9,3,9,6,6,12,6,8,6,9,5,10,7,1,1,1,1,1,1,1,1,1,1,1,1,1,1,1,1,1,1,1,2,1,1,1,1,1,1,1,1,1,1,1,1,1,1,1,1,1,1,1,1,1,1,1,1,1,1,1,1,1,1,1,1,1,1,1,1,1,1,1,1,1,1,1,1,2,1,1,1,1,1,1,1,1,1,1,1,1,1,1,1,1,1,1,2,1,1,1,2,1,1,1,1,1,1,1,1,1,1,1,1,2,1,1,1,1,1
outputCount=235
weightIndex=0,14335,17995,21655,35815
weights=##0
##double#35815
   1.4671579758,0.923265787,0.9808353747,0.2078675817,0.7121267467,0.4618788352,0.1636961512,1.3149310074,0.4431665616,0.9960088187,1.1250561003,1.1530906199,0.6345086666,0.9937173139,1.3022775986,0.4513469832,0.9012116767,0.561189984,1.121433747,0.6782999589,0.9567733728,1.3136145202,0.6218702437,0.7579876061,1.0704226314,1.3864906527,1.4700835332,0.4948313884,0.9632282393,0.5928008836,1.2828972396,1.045153519,0.5552780401,0.0323015221,1.3007202372,0.7913642346,1.014619211,0.6860142733,1.2739980496,0.6867380045,0.4089746774,0.6054978249,0.0141150167,1.0390534228,0.3626914849,1.298214736,0.5233994983,1.1927457114,1.5189761668,0.3949275542,0.0578146072,0.6512246424,0.8471689701,0.0172078849,0.0504775513,0.8734406397,0.9752402089,1.5011626711,1.0359207694,0.155352571,0.1102529468,0.6275118412,1.2555284587,1.2063404623,0.9150841171,1.4230006818,0.4933588668,1.4839160154,1.3926783547,1.3313969605,1.030540001,0.8309210774,0.6984758066,0.899602048,1.0647682359,0.537980614,0.0963535599,0.0563634631,1.2992569608,0.293900065,0.8666139245,0.6417968586,0.2849452681,0.4094780456,1.0749823532,0.0774966643,1.3827851181,1.2853531651,0.2804362696,1.3947136178,1.0590140298,0.1677692558,0.9965410888,0.8358245743,1.1693736821,1.2383944174,1.0146096514,0.1359474388,0.3018107197,0.2624095211,0.8575899376,0.7990311181,0.8201196817,0.8113787489,0.6744946591,1.3445356387,0.3671563249,0.7656962701,1.2064451096,0.1060273376,1.0242582757,1.3542194289,0.4332493608,1.4326926302,0.7599484174,0.8970375717,1.408124079,0.5188301345,1.3634295611,1.4148263982,0.0353241823,1.3027659864,0.4180109509,1.1691891059,0.4596039166,1.2247984651,0.0167403146,1.1833077514,0.4073599935,0.9817648167,0.4273331645,1.2925624624,0.5592272063,0.3946769709,1.3825793589,1.529662639,0.3460731651,0.0368824603,0.1336922176,1.054503788,1.1484220006,0.5259907879,0.5220929385,1.463204717,0.676852724,0.8668891175,1.1329274762,0.722152632,0.5431329623,1.1455824574,0.8856770737,0.4362016076,0.9051759071,1.353537592,1.3008212147,1.2068356472,1.4034610807,0.7709170606,0.4597174504,1.1409885705,0.4926135646,1.3978300291,0.1715961774,0.0024411898,1.0815186999,0.5277212323,0.8915620783,0.0026084041,0.7689198103,0.5382916894,1.297663351,1.1302301902,1.10059024,1.2081125275,1.4630933512,0.6931720876,0.449048634,1.4836175706,1.3554618895,0.7474412774,1.5256594011,0.6211011672,0.843631409,1.3528683138,0.3555969987,1.1088041868,0.7172354043,1.4574626548,0.6148325436,0.8860369353,1.1378089837,1.2094830535,0.1325826624,1.2045944808,1.0997376049,0.3735305812,0.6525988988,1.4654117779,0.4399187495,0.4705731846,0.8008731155,1.2712704374,0.3630615058,1.011875416,1.4321045002,0.3413770725,1.1124882405,1.2579830625,1.2635186628,1.1054718694,0.3410284792,0.3686095046,0.3753774941,0.4985579053,1.42507715,0.8233078019,1.0885700568,0.2520302139,0.9627669749,0.4282564623,1.0200034055,0.4288513266,0.9255794868,0.695727411,0.5829872062,0.16791754,1.0484659936,0.5976978865,0.3363588599,0.7826770102,1.0007461429,1.4674462106,1.4584407738,1.3673674951,0.7552264197,0.8297123145,0.9812644658,1.0926300304,0.1843700088,0.2565346974,0.167923323,0.9478147111,1.1637397115,-1.1840236152,0.4838667383,0.3013080563,0.5136654838,0.8900446989,0.7828920935,0.1300052909,0.4075554449,1.4782083911,1.1135672665,0.2714288589,1.3264418168,0.5391217247,0.3657467061,0.4632195792,1.2103026282,0.206149495,0.7944757755,1.4933719021,1.1826436814,0.1171410917,0.4892513982,0.8052237701,1.1269716073,1.5231873727,0.5230758768,0.204568157,0.6591308945,0.84471524,1.1636537087,0.3415138911,0.9822726057,0.916877328,0.8015965957,0.8103883049,0.2850466321,0.456135382,0.4506820098,0.9456928612,1.3363566773,0.5054960539,1.4344450204,1.5046056741,1.435642722,1.0867624557,1.1749306008,1.176582156,0.1774486873,0.457104479,0.1374345867,0.351614361,0.6155017183,0.0421758292,1.338089909,1.5264787574,0.8443018076,1.1392156885,0.2404704368,0.2427360751,0.860885644,0.7968375659,-0.9290911815,0.5230197521,1.0972524002,0.8035419184,0.2771997132,0.4916163125,0.1339630263,1.0823819845,0.4799893226,0.6406140732,0.2551192818,0.4150189141,1.0683690699,1.136464645,0.281248202,0.9784865969,0.1078797793,0.5659961483,1.3928457404,0.4457683962,0.6679328667,0.1950223276,1.2091742865,1.1605137316,0.0896211304,0.2713191492,1.2333419094,1.360191093,0.0679104214,1.3683542354,0.4139383548,0.8410079276,1.3325057033,0.1082446689,1.0951032258,0.080420995,0.8947254956,0.22974838,0.9695258248,0.4596418859,1.0307252579,0.7058761557,0.5837634684,0.9807098042,0.653277504,1.0459054845,1.2522127766,0.2966896683,0.5640054754,0.5963104322,0.5346446161,1.0907738649,1.5184441864,0.4408835689,0.1080565086,0.0452403218,0.6027854577,0.9552805925,0.1248914948,0.4629170751,1.2733831748,-1.529498387,1.2771343253,0.7620035066,0.819748386,0.3387664743,0.3107300833,0.6649275608,1.1700335398,0.816235476,0.6079967379,0.154712605,0.167226623,0.2578065649,0.2197624603,0.3529015885,0.7929346695,1.401887797,1.3264276893,0.7389178466,0.4496009663,0.838983866,1.3382902801,1.2798996845,0.3628274909,1.111441259,0.3454388263,0.0806248818,1.5020012676,0.0400121346,0.2243223031,1.3772870593,0.5232202599,0.5275873572,1.2425200888,0.3628858807,1.3770615124,1.1391057116,0.995562475,0.4291590063,0.9259151346,0.4272761127,1.2950727255,1.2184843377,1.433511436,0.9511851052,0.2738920431,1.1814070235,0.7077441956,1.2567465047,0.2938762265,0.335413233,1.2009709957,1.1888501611,1.3034908489,0.8993728537,0.8038595047,0.1821158487,1.3861836316,0.4343092264,1.0561156277,1.1348233267,-0.3337857141,0.4872574674,0.5799462284,1.272345658,0.9183514565,1.410690136,0.5887391087,1.4410073393,0.6025708676,1.5108556111,0.8365044884,1.0201674569,1.3273422741,0.3666449616,1.3209559055,0.0721720026,0.0927278917,0.82437228,1.2825013863,0.111843522,0.7963751108,0.105768868,0.1192197565,0.3164167948,0.0005751135,0.593812521,1.1670147104,0.9142646768,0.9861526216,0.0070756312,0.0386486831,1.2087569303,1.1882753145,1.5081813218,0.6786226644,1.2253785956,1.4228093266,1.0555969476,0.2986879654,1.3686016285,1.1472952679,0.4945854014,0.64672332,0.4331348947,0.7940953835,0.3252171665,0.7346529368,0.9708206547,1.4663816478,0.2116961926,1.521434533,0.014625865,1.3184715003,1.4059625298,1.1375138592,0.3573048649,0.826762393,1.0833144635,1.450927454,0.4668664925,0.8278784384,-0.6148927246,1.3381144493,0.2223601075,1.4729584684,0.8375953933,1.1418027723,1.1936797801,1.4449200486,0.359477102,0.2897299348,1.3752316112,0.1502784337,0.4647133588,1.1530201949,1.1429033515,0.4079121517,0.3656320833,0.8492878808,0.2793547749,1.2102352281,1.4532356544,0.013604991,0.8717249119,0.7821826605,0.5940218508,0.2742914763,0.5960788682,0.4072515394,0.6119617053,0.7238330196,0.9150935232,0.5001315199,0.256585475,0.6385388555,0.1830435822,0.3220866907,0.8462382764,0.4498490136,1.5286976434,1.3121817523,0.0103454687,0.617018045,1.4950839493,0.8380096858,0.4989423489,0.2992795466,0.6116539726,0.0495796085,1.046173802,1.0879175423,0.4141295311,0.004727368,0.1439322083,1.0749673648,0.919690072,0.9888051516,0.4822015807,1.2360257293,0.5322757272,0.3872893867,1.0855233692,-0.8113526816,0.0054134708,0.3077344351,1.381556775,0.9580805315,0.4157713615,0.1017323236,0.0417965402,0.3327840137,0.2126442469,0.0347213782,1.2572342372,1.0133478499,1.5320826051,0.762134059,1.1232722574,0.4467308889,1.3699802598,1.219731087,1.1515463463,0.4420013482,0.6257446228,0.7454593815,0.3300643967,1.5180185735,0.4003526687,0.2978741974,0.0184668291,1.2517869359,0.8687930715,0.1765875829,0.0350145908,1.1811690454,1.327227903,0.6465892395,1.305867859,1.108576974,1.4800197808,0.901352813,1.4002078615,1.4410544887,1.1088774826,0.146236842,1.2069298216,1.1708030506,1.4059238977,0.4797478363,0.1876022313,0.302233264,0.3567470876,0.5118207922,0.2435924048,0.0379882141,0.8649828691,1.3065566481,0.0920747529,1.1009584662,0.5235894894,0.0156626811,0.2892854813,0.0782232482,-1.0148414031,0.0915899928,0.9954929377,0.1095342301,0.0203988844,1.3059015918,1.1147388573,1.2299767222,1.4245316535,0.7266503633,1.2399283982,0.0079521235,0.4440836938,1.3156281883,0.2893186527,0.4306236648,0.1390805205,0.8870168015,0.0856148013,0.1491078325,0.9865788967,0.3591696084,0.7560617724,0.7939808733,1.095057014,0.4954389323,1.1172810133,0.9124917376,0.0573965432,0.8733860042,0.6868598914,1.4793734645,0.4534891418,0.5212078195,1.5320088847,0.1374921856,0.0374058959,0.7459530956,0.9184693651,0.3368503305,0.6940538225,0.3143436318,1.3391348286,0.0161606689,0.8191889063,0.8256689414,0.511221244,0.0663028445,0.8761281515,0.5103329978,0.8639151426,0.9440770794,1.3113282535,1.0415817603,1.2478558574,1.1983116221,0.5768076923,1.0454706089,1.2995931145,0.2526207739,0.999153189,1.3426021837,0.5731760815,0.0435067084,0.4012606698,0.2721115685,0.6570903665,1.4471205728,1.3796031427,0.4222921207,0.130489933,1.3634626004,0.9977511606,1.180935674,0.7411755248,1.3946570043,0.5872761784,0.734067557,0.571227385,0.8069867156,1.4265749181,0.8798804868,1.1088344363,0.6636793823,0.112643489,0.3535272584,0.9815282716,0.8126570089,0.7025450045,1.4802946733,0.6018692705,0.4812263054,1.3135314621,0.9251478989,0.5641192907,0.5696201417,0.9502367387,0.4862590844,0.3576356414,0.245190314,0.9067829353,0.6864370698,0.13560137,0.7638472444,1.2169271002,0.7996167323,0.4076705957,0.5361015771,0.5554222339,0.7478913506,0.372787447,1.1355488664,0.8607485722,1.0330596706,1.0905060311,0.7555063956,0.6400350229,0.8971507592,1.3247477404,0.8888550945,0.9162988863,1.0143271356,1.0562134642,1.3713814815,0.418817341,0.5508920363,0.5144751949,0.413156281,0.197901091,1.5249159777,1.3629297605,1.5189104171,1.0903587786,0.7057402737,1.437689195,0.120329726,0.7060060766,0.8354074607,0.8072538304,0.5473785321,0.2483149639,1.2628023797,1.28411513,1.4143757738,0.2216935405,1.1632915025,0.0384418819,0.0625266017,1.0812576237,0.2971903441,0.2432830658,0.8848740778,0.8832278045,1.2180318125,0.5721002322,1.401573737,0.6170289073,0.1170855116,1.5255325773,0.932306152,1.1243045431,0.6313937202,0.1380626082,0.9872578035,1.199959425,1.0065631729,1.2779465963,0.0385939803,0.8910969974,0.1018379918,1.026812456,1.4334904165,0.4694913916,1.4202041867,0.9483228735,0.9474395078,1.2872388019,0.8111312016,0.4706631498,1.0729011362,1.0664309899,0.2756645789,0.9099934232,1.4013818481,0.4727718514,0.3491309369,1.0189117762,0.9606841143,1.3453027729,1.1183404416,1.5293842517,0.6860079673,0.0070538508,0.146741667,0.3396297735,1.3430542138,0.5283931622,0.7463617138,1.0013118514,0.4295399767,1.3082468856,0.6194776328,0.2593560814,1.0833246319,0.4869181362,0.4360710257,0.385962876,1.5094286502,0.5425922384,0.5717186187,0.0032327918,1.3693460032,0.451801112,0.272527689,0.533867221,1.3134894355,0.3501335491,1.1414887772,0.5390408772,0.2925186231,0.087482372,0.4128363894,1.1794720885,1.3284396113,1.2390794002,0.626242907,0.3881899323,0.8706311878,0.4247476225,1.0506812276,1.1298562853,0.4130667537,0.5290594738,1.2567054275,1.3260078617,0.3732514505,1.4021745021,1.3637410612,1.0330104576,0.0689504998,0.1955847643,1.5163127269,1.2391278218,0.0630414563,-1.3222651642,0.9110846646,0.6094991007,0.3100669715,1.391182545,0.7261926185,0.4260028687,0.9535176196,0.1294689297,0.917713135,0.3541045071,1.1900496764,1.3580374737,1.3921323061,0.1462722894,1.3066021121,1.0049698314,0.7110644987,0.0675657317,0.178331869,1.1262308802,0.0178894044,0.4018512574,0.699672154,0.8997844294,0.9695918987,1.4052807906,0.8714968125,1.1085788081,0.6324857834,0.624244957,0.6227243373,0.4190534444,0.5038001008,0.0911055377,0.4144644384,0.8064730108,0.5709965175,1.0766336627,1.3513124742,0.5191605105,1.2758391034,0.6168232266,1.4808463528,0.3440790621,0.2416259867,0.1935122969,0.4280634281,0.3919446725,0.4127999705,0.1714828254,1.3670889188,0.4158238002,0.1444985789,0.5274548607,0.2873323765,0.4296882622,1.1224670372,0.8495276517,0.7789748404,0.4034126504,-1.2338909222,0.1715451978,1.395267934,1.2241860013,0.07309554,1.1626454906,0.5510770143,0.3766599495,0.4578527936,0.9993134309,0.4017800888,0.4692756073,1.3571676557,0.8119868629,0.2548148371,1.5223265197,0.839490621,1.3722664371,1.5269367124,1.316781325,0.9828826227,1.1073589706,1.20862127,0.8518263037,1.2389701542,1.0027617694,1.5047724047,1.4828041074,0.8576326907,0.6907554378,0.6021261169,0.2063601918,0.5314618703,0.8341904818,0.2327562435,1.066209177,0.5081570821,0.834322681,0.8206638677,0.6995656601,1.4602221044,0.9574100181,0.3178986864,0.4853731504,0.466006718,1.0506813982,1.1467326008,0.6583407657,0.2083573262,1.2121929883,0.7257801444,1.0118284373,0.9378581151,1.3615625959,0.3937795902,1.429884637,1.015414929,0.1630076799,0.0658648214,0.7098054326,1.4990892813,0.0931790689,1.0123209078,0.3407252968,1.3142191426,1.4460200946,1.1462469836,1.2982955341,0.2112766573,0.6101765094,1.331799222,0.1888829246,0.7811395653,0.9578965494,1.3599633201,1.229098355,1.4495101321,0.4180234914,0.3369719811,0.4547050105,0.294001846,0.1718090679,0.9055521085,1.029287624,1.365764803,1.4828831664,0.7423421191,1.5153061312,0.1774269362,1.4932634652,1.473932179,1.465495978,0.7862529328,1.0486886349,0.6864191566,1.3241040171,1.3091773587,0.020342146,0.8069299734,0.2947771642,0.7135866355,0.6675934063,0.5893437848,1.5256915114,0.6356987434,0.8705335856,1.4938131396,0.5966200752,1.0094268082,1.4725616985,1.5069086255,0.0087561355,0.0974896568,0.1073367365,1.1622319135,0.3815377066,0.7682049226,0.8783122268,1.1907193065,0.5097799422,1.5115668586,0.2382838304,0.704176223,1.4280558654,0.8511556988,1.1373369196,0.4341663896,1.4878583883,1.0562345761,0.1119533773,0.1817069942,1.4225691605,0.0091643642,1.0444331467,0.8541309013,0.7418096304,1.0146195809,1.1591168905,0.438463876,1.2217178176,0.4259400555,0.846570435,1.0490453936,0.2056088122,0.3672154386,1.0862465112,0.3044256885,0.4508941458,0.1665275318,0.6604513447,0.6570967663,0.7487367906,1.4061423333,1.0229598427,0.57678179,1.1444561436,0.874484292,0.3375421035,0.3461492187,1.1688305444,1.0483043399,0.1695471903,0.802857507,0.9861767868,0.8191889492,0.8357455453,1.5003381721,1.1986163031,1.449297885,0.1805836978,0.3453329761,0.5147533942,0.744842774,0.05411372,0.6132854813,1.3382400827,1.4473842803,1.1284079311,1.2249426173,1.0370300759,0.2321036392,1.4571907896,0.6930576424,-0.8337395947,1.3862105846,0.9061207504,0.7843391161,0.2606477818,1.0541136992,0.2839060939,1.0028425373,0.1914627379,0.0622585326,0.8257170977,0.3666604686,1.4334603032,1.2614506948,0.1463385154,0.5659550751,0.6814510139,0.1465645437,0.8152474006,1.105058463,0.5602834486,1.1943167942,0.0010760124,1.2548178849,0.2417946144,1.1367330598,0.5588716494,0.9399439882,0.4544306088,0.9957151549,1.0313390845,0.7330494831,1.2193713737,0.2937466196,1.3381399736,1.1718988215,1.0055320393,0.3266836199,1.3134071193,1.4038074436,0.0683946448,1.4389185747,1.2465786727,1.3980820396,0.2384216952,0.7433275626,1.4101382112,0.3980293053,0.122490128,0.2049371338,0.7632838995,1.2343564864,0.0262609717,0.643208447,0.6288637473,0.7265720463,0.1407333088,0.2349453203,1.3630026442,1.2511708998,0.3751502267,1.2752887469,0.6784379411,1.3747689911,1.1360821379,1.4340530976,0.797541485,1.4616754424,0.6508421994,1.0487010393,0.0873638399,1.2118972444,1.471031864,0.1729380956,0.9463819547,0.47963426,0.8261589159,1.4564800592,0.9443447256,0.6646143162,1.335787285,0.4683109074,0.2195779657,1.5299329001,0.0574640525,0.7018982205,0.4224949699,0.5013876881,0.152450241,0.115518605,0.0490673987,0.4269382387,0.4832582191,0.0239394319,0.9256312629,0.8700172654,0.3437894286,0.606783343,1.0610134795,0.4656146406,0.2759122598,0.8172803815,0.2022997032,0.6904617792,0.6828089786,0.9715918295,0.6848839604,1.4947314769,1.1779243797,1.0181212847,0.8930104748,0.1363536755,1.3129574669,0.7259098046,0.3596833924,0.7230486086,0.6860942939,0.6842745465,0.4307015461,0.5317387043,0.4830481885,0.5559864834,1.026128441,0.2498430188,0.1067019101,1.209832143,0.1616998536,0.8708992015,1.2722670959,0.8826706068,0.2751934211,0.1109941919,0.750116877,0.479315503,0.9306581505,0.2418588903,1.2127782523,0.41758479,0.4279439473,1.1259923097,0.3773309569,0.7671781139,0.7323677896,0.8392410579,0.6023611768,1.4683416135,1.1169365829,0.9551235419,1.0007487331,0.2423254337,0.5334469464,1.3381965698,0.3699346875,0.5551030598,0.9402350264,0.1927096345,0.832596776,0.788887025,1.0587641758,0.06318085,1.2148671348,0.7936348685,1.3628404957,0.3914125294,0.6497301336,0.2666408855,1.3420159336,0.5155882831,1.0187792229,0.723905999,0.4081213055,0.8646002886,0.6051497533,0.39886419,1.3615689858,0.550767823,0.1975650137,0.3100509443,0.4958959465,1.3236052561,0.4492563405,0.6393154465,1.4231453254,-0.9022240999,0.453916471,0.4603590432,1.0153030869,0.722817799,0.8708860077,0.808545264,1.445636359,0.2091101473,0.4744856442,0.7118829635,0.2605842169,0.3584613803,0.252440824,0.7592090693,0.8210084197,1.3228591786,1.1492053112,0.7459943835,0.9869971044,1.0175021854,0.2719271412,0.0869432437,0.989425907,0.8265808866,1.0696905482,0.787818478,0.0303264078,0.251759269,1.0405648986,0.7965496922,0.9819861991,1.0836721314,1.2639667776,1.0707135935,0.9172238082,0.9160415614,1.1428007056,0.9973579539,0.567628032,0.5121972913,1.0643326596,0.9882433591,0.3731750504,0.9666467099,1.4750058542,0.1081184154,0.2508842139,0.004353765,0.7780520753,0.1019638644,0.9353519676,0.8733066233,0.1956113334,0.78549872,0.5239857391,1.4795183178,0.8130429972,0.3966232333,0.6762604337,0.9876514699,-1.094269321,0.294710704,0.1428194013,1.0063832669,1.2295739315,0.0110824483,1.274545497,0.3526853365,0.3343653653,0.1420758283,0.0078949187,0.1927325319,0.1260392829,0.1231098547,0.7657099248,1.4556437752,1.2383146828,1.0667566332,0.2089279477,0.9347624684,0.0304531074,1.0984861563,1.1276496547,1.0159610778,1.0971896656,0.2573693138,1.3395661914,0.2117047167,0.0354665614,1.2636739931,0.7896264426,0.518340466,1.4710624435,0.6388496998,1.0747855843,1.301422965,1.0742703073,0.8754787953,0.813050885,1.284160243,1.4972135381,0.3223612101,0.5725914742,1.4316764877,0.5757790338,0.5864153151,0.5851530265,0.8241462072,1.5028456476,0.8077617569,0.1766118072,0.1913958813,0.8378309355,1.3196818341,1.0883882868,0.9175382564,1.2211871935,0.6977640279,0.9210485507,1.2637926274,0.3041639825,1.4859152766,0.1521882957,0.4517795842,0.6103191424,0.8481981056,0.2903399868,0.8814589339,0.9719890284,0.4224664781,0.7960727647,1.3914284236,0.3452484944,1.1815960104,0.5886121869,0.764845542,1.2885947625,0.0695611817,1.0527259586,0.1466850499,0.0587624494,1.062958507,1.1549322824,0.5751149398,0.05607928,0.5316147473,0.4131572409,0.0849569872,0.6079664569,0.096874877,0.7495459949,1.3732670549,0.3278788854,1.4646715287,1.4153961623,0.817363039,1.5137709746,1.306125166,1.4575732084,1.4767576552,0.8022995067,0.2388682709,0.9607557241,0.7023589211,0.5952269909,1.0799452025,0.9205543148,1.4468808237,0.950198879,1.3514932338,0.0311899382,1.2260452734,0.5846584109,0.435639036,0.6852191149,1.4319918051,1.1887807145,0.7614589571,0.2815731102,0.2819323684,0.7581443768,0.1586284544,-0.4450470676,1.3077953974,0.7408099602,1.0853836905,0.0103050858,0.125089289,1.3603792854,0.2743652526,1.1400699409,1.0083523612,1.2364139364,1.0410792506,1.3646170947,1.1977898718,0.0280823135,1.3974076432,0.3877389203,0.5710884823,0.104096601,0.0040763879,0.4805634092,1.4926565572,1.0296628799,0.2405830521,1.5215658557,0.4101486951,0.7576006273,1.1658366772,1.3365389035,1.1021970115,0.5785123349,0.1012320922,1.4740267975,0.727306258,0.0463159244,0.1136487535,0.4538535527,0.2457363536,1.0310528235,0.6596201357,0.6677421394,1.3085209493,1.4047434137,0.1234525999,0.1895329534,0.3084298077,0.9333785993,0.8990224135,0.8595673793,0.4867339774,1.5127511042,1.2306326916,0.6493869943,1.1733957553,1.5095807926,0.8056341817,1.3533287452,0.6861641817,0.7901434801,0.8832396306,0.3472570409,0.1476284305,0.9797886439,1.2005840594,0.6662595757,0.4599362526,0.0658992467,0.8478898479,0.1890922443,1.1215846075,0.4673655576,1.0795440156,0.9434864749,0.7707686378,0.1828140137,0.1143918774,0.7791333223,0.5719392607,0.2189100099,0.5633171191,1.1238452662,0.6816143828,0.1644717516,0.3221876194,0.3184402067,1.1314991795,0.3403326708,0.2130256546,1.0295598949,0.1225272447,0.7975416691,1.0405719096,0.4097812552,0.8065549899,1.127166449,1.0511567786,1.5084890274,0.2484261978,0.812479854,0.4838330284,0.5286684352,0.1547430295,1.1172100134,0.9368999516,1.28622796,0.875616411,1.0124693564,0.4851390909,1.2589542467,0.9116119739,0.4032957725,0.261770799,1.5215383535,0.4230235244,0.5477163865,0.8645994914,0.2923859151,0.8925658239,0.6533695463,1.5239444757,0.4614210709,1.0131334373,0.3712388946,0.8271801911,1.0964058312,0.5181791248,1.0158001361,0.6587876579,1.0173842394,0.565353523,0.8193361592,0.8801940137,1.1949352151,0.1240597103,0.1251843856,0.4363990563,0.0965483697,1.4109517104,0.6812545424,0.4105002351,0.6965459231,0.6636104635,0.0479159436,0.0905427463,0.0397538858,0.2399934644,1.0623937948,0.1431470135,1.3250119396,1.4867419739,1.4937884406,0.096349553,1.3721621631,0.6997240322,0.4015066728,0.2418110297,1.3635517571,0.3734755784,0.4530929296,0.0748553333,0.4096657217,0.487456368,0.3166119239,1.2959442247,0.6347545666,1.1365793485,0.1125143471,0.0898396196,0.0710036513,0.3013111946,0.7498559758,1.2159739251,1.0976345809,1.503708399,0.276295884,0.9428587265,1.0255734666,1.1597963237,1.2515139846,0.9833448555,1.2683015345,1.3412636779,0.4162357369,-1.0580574978,1.1947180005,1.4386653077,1.3897808308,0.4295527282,0.5174629899,0.5437987923,0.1127513639,0.1361549809,1.4256260412,1.1712692107,0.0689901086,0.4648419719,0.5324724766,0.5328520293,0.2821653732,0.5908497955,0.5560186276,1.4198254034,0.0153273209,0.0358157403,1.5136671376,1.2352668743,0.4986565728,1.1588660863,1.3696322901,0.9447648524,1.0272980857,1.2382350444,0.0723711536,1.0242615146,0.674728384,1.2205376077,0.1799876044,0.5696191157,1.1005622956,0.4259245576,1.0537228837,0.4471655914,0.2145390565,0.0491116967,0.6394917803,0.3248061131,1.1536798007,0.3746705819,0.6634333661,0.4683658827,0.262381475,1.3484616069,0.2502420054,0.0141745966,0.3983233631,1.4805247604,0.3425917285,0.3749157776,0.4373151347,0.3752038454,1.3657342254,0.3452586715,1.1236643305,0.2312583077,0.7465684463,0.4020708567,0.7875403422,0.7131965537,0.7450603572,0.170058527,1.2911034408,0.8272921975,1.4211152425,0.3721453947,0.3044973923,0.3471734178,0.8336989546,1.3129927257,0.975566768,1.2837633736,0.6780820214,0.5501196823,0.5539876963,0.3200570347,1.5122084154,0.8763865508,1.4815974483,1.3569776175,1.1487312018,0.8928166551,1.3895813955,1.2056674774,0.2004894943,1.3660536574,0.2147597137,0.940669636,0.7309548043,1.2265207587,0.356021225,0.8154023745,0.7839216426,1.4683772616,0.5279896827,1.4895415234,0.676372416,0.9146280187,0.9483471471,0.1800213347,0.9278894028,0.1514500131,1.4213174185,1.4215156678,1.2439451143,0.3778668123,0.2890780702,1.0678560859,0.6266148254,0.4297246533,0.8317567397,1.0696540494,0.9894476675,1.0343510032,1.46900589,0.735028169,0.9530164279,-0.9688007653,1.0069990063,1.2275973232,1.1682292949,1.0503507211,0.7525250767,0.969502883,0.8234993585,0.0405296209,0.533746838,0.4776097826,0.8795056884,0.638091196,0.5804918079,0.4235088677,0.3276709339,1.1399251051,1.4002578734,0.4051835629,0.5355136225,0.0630461317,1.531872308,0.0848887993,0.3264854879,0.2249679665,0.8802201804,0.9807801971,0.6667472575,1.0117293885,1.2261713618,0.7705297629,0.1700891613,1.3972905553,1.3619828791,1.0545060751,0.9301050025,1.3831280142,0.953841452,0.544323486,0.5335771875,1.0776664631,0.8448893307,0.2310392759,1.1478724014,0.606787965,0.1956254298,0.7469461114,1.0851594062,0.204950932,0.4984431517,0.4888328521,1.4137011887,1.2738822679,0.0824971116,0.1050730719,0.0303175873,1.0080096261,0.4796104535,0.5387253724,0.4003892153,0.3722771909,-0.9693794796,0.0498434936,1.3082065395,1.3661332,1.1193905314,1.0063893071,0.8967749876,0.9608538165,0.8824942057,0.3802608897,0.7476431751,0.391507402,0.6643161778,0.4290742218,0.6987408451,0.3063040099,1.0414378184,1.4072485499,1.0352461653,0.7673600404,1.214112895,1.1587468985,0.5211911692,1.3486600736,1.0641853916,1.2397666708,0.9208974823,0.0090745689,0.1834122584,1.4171464295,0.668863913,0.0674454995,0.9444005382,0.9049801058,0.2340983535,0.3792624577,0.9600450561,0.034948949,1.2043539312,0.6742036545,0.4034942779,0.293124518,1.4250381663,1.4230766985,0.7744377733,1.2525302716,0.8724211153,1.2430989913,0.293132622,0.3437742563,0.8432108476,0.3505893916,0.3929612052,0.4439378549,0.7314700099,0.6353921064,1.3804336609,1.298775189,0.9654294786,0.6274592091,1.0975905194,0.5064178062,0.1770123419,1.5044925356,0.6742761246,0.1067598704,0.319882736,1.4184269444,0.0354284063,1.252134194,0.5742441209,1.4879039196,0.3641416394,0.6736841071,1.2201436281,0.6172752585,0.3774730504,0.2791996011,1.0378477079,1.4596715292,1.0726971948,0.5300601084,0.1237799031,0.9634562507,1.0721017612,1.1795611403,1.5182969382,1.2895116514,1.2698710851,0.2116040682,1.3264330812,1.5047093662,0.3619619744,1.1108857047,0.4793835755,0.6902521364,0.3465380241,0.2265526358,1.0196079623,1.0775477956,1.322242902,1.4510889314,0.737391683,0.142127958,0.7527059493,0.9446490781,0.8031675086,0.5793797165,1.1749430591,0.2334371771,0.2465897919,0.2691458758,0.2733920061,1.1247879486,0.9404330478,0.0889162411,0.081878447,0.665622811,1.0161245289,0.7921409506,0.8741497262,0.2913263775,-1.1906120127,1.2260752467,0.3502415902,0.397792634,0.7881780439,0.6941112064,0.7238332661,1.4642561392,0.2556152338,0.926332178,0.5238537319,0.5300191234,0.2724143087,1.2481476509,0.5984367017,1.3233414818,1.3650282984,0.1978352739,0.9677175078,0.3404882069,1.4945621883,1.232979985,0.5791730779,1.2967319447,0.3773712594,1.1935431546,1.0400767997,0.5249773269,0.4781628868,1.3942567139,0.286961262,1.0055421093,1.508613869,1.3724616141,1.3594490078,0.0103084128,0.4126499779,1.1552272336,1.1852568904,1.0073171789,1.1051080676,1.33012993,0.9341023502,0.7349498106,0.9586554521,0.100169545,0.1445793994,0.566873191,1.2527051099,0.5457932559,0.8148633168,0.3778725951,0.4188306607,0.6304928606,0.9157713871,1.4636706293,0.6858637096,1.4353174979,0.0308039674,1.4385901296,0.0391051389,-0.490917023,0.7056259505,0.5526931728,1.3564742132,0.5273085383,1.5029911633,1.4046567849,1.4572802507,0.7673737516,0.4201560579,1.324978057,1.4606319028,1.2627518664,0.5462769395,0.6887810479,1.3412894917,0.0936865824,0.0452159775,1.1125752194,0.1423787386,1.2002355791,0.4667204818,1.2908692789,0.6538369099,0.7500827077,0.1609923061,0.5109559708,0.6246744846,0.7393736852,0.3100067918,0.502030926,0.837141513,1.3941810539,0.0575941172,1.390717722,0.0979413272
   0.4182111545,0.8686357674,1.2300419531,0.3527895615,0.269935047,0.3486277178,0.6786199677,0.3310033185,0.7924910981,1.0431257087,0.7794543098,0.4471178394,0.3264717813,1.3573978178,0.5857744,0.0374080645,1.2627907111,1.3982087917,0.5845488769,1.1342916202,1.1533595887,0.620418408,1.3310046276,1.0193191754,1.3152219653,0.8966099051,0.8390680944,0.3075250884,0.909446443,1.1634265052,0.5386695057,0.0936952019,1.2090358552,0.2659104796,0.7020936036,0.5113457251,1.5060303623,0.2092612579,0.4955788244,0.0931290897,0.9988248621,1.0056470009,1.4411551771,1.2143970625,0.9239292033,0.7841398304,1.0077893768,0.5787116812,1.16849653,1.2001050462,1.0797908336,0.5107068079,0.2612915278,1.2232895759,1.3003953794,1.2794087987,1.1601325053,1.4650694719,1.4242886381,0.9808681661,1.451111976,0.295422858,1.1901132162,1.2994043409,1.1116263554,0.1487496816,0.3531917739,0.3832419165,1.27825014,0.7085292188,0.6640949967,0.4912626812,0.70512455,1.3468265578,1.4072395943,0.3825231987,0.16941748,0.403387189,1.1671926267,1.2446240252,1.1734100614,0.2758945895,1.3085415542,1.5281990081,1.5275616515,0.0860084859,-0.137006903,0.2577156641,1.3903195062,1.3822865352,1.3312782346,0.9710743138,1.5063449074,0.5478004182,0.4969845729,0.2848246162,0.3725186092,1.0878563688,0.3692032494,0.1999549593,1.4057646897,0.1161183156,0.161118653,0.6121904938,0.9871395608,1.3330293234,0.1450699182,1.2525527457,0.7213488052,0.2624002605,0.1956647885,0.1587892952,1.3330596976,0.0307717692,0.3249411017,0.3819229144,1.2011317448,1.3911138157,0.7802557272,0.1230773881,0.5556155894,0.2820849958,0.8710888933,1.4221618563,0.8534904568,0.4284478677,0.7650151087,1.3413953751,0.3255746395,0.3415033296,0.8182945678,0.1925217076,0.9332634022,0.5585636647,1.3122850783,0.7703526685,0.5575305166,1.0445488036,0.8644200666,0.6723272198,0.8932834762,0.2618026236,0.2754139255,0.589244062,0.5428375745,1.4749536296,1.1477238761,0.9641441566,1.2978331822,0.9933978129,0.0294744256,0.6770986064,1.4128322753,0.6157067538,0.3480674331,1.2396919177,0.7515860568,0.6657237432,0.2661774816,0.1849059609,0.7909290283,0.8041807102,0.6019232686,0.8413512168,0.0896163896,1.0308856137,0.2041186923,0.7586986401,1.4246880105,0.8396235268,0.4863885058,0.126715024,0.7173212156,0.2754927881,0.8181392849,0.4201726753,0.7490922413,1.0193081777,1.4128583501,1.500013001,0.6244906781,0.2352698702,0.8167759342,1.3644516737,0.3464031598,0.1769602314,0.8548444848,0.0774922007,0.5762949851,0.934369943,1.3022520187,0.6847782132,0.4119739384,1.4143092199,1.2640329451,0.6914179145,1.0447784257,0.0592383896,0.7129797472,1.4969059966,0.9939870846,0.0962041049,0.083819849,0.6223583608,0.9713992357,0.9633063629,1.4270503995,0.8465642691,-1.0852736765,0.4180162328,1.4379944554,0.4737065088,1.4497701889,0.3450676089,0.3523871132,0.8902505049,0.2363925847,1.2085189467,1.5021882259,0.189990279,0.0628403534,0.5373089992,0.9548550626,0.5463003855,0.7361738978,1.1171016839,1.5132187627,1.4152701336,0.4285040857,1.2959338928,0.3147564138,0.5998515905,1.2796424567,0.2369184507,0.8790043743,0.1890765905,1.1302151673,1.2970879296,0.4130284748,0.4381294122,1.4213499693,1.4720565764,0.9893879564,1.4340163428,1.257525259,1.3761302581,0.3151418759,1.1362735354,1.4028767737,1.4787698016,1.1971754426,1.321672419,0.7342438811,1.3499380165,1.1852089491,0.4442879533,1.359679526,0.0831677858,0.7175275943,0.9682804154,0.4451984046,1.0184571073,0.4753823662,1.5138148854,1.5264741053,1.0964426904,1.5262822776,1.3131276968,0.6121900101,1.1371916016,1.283116805,1.2585609791,1.3629298995,1.0722753535,0.2316404471,0.9668304242,0.0359955318,0.8149077856,0.0879001528,1.3468821906,0.1864822177,0.6628641851,0.8074142443,0.7912922194,1.4922184401,1.3869260938,0.3913741124,1.2949698666,1.0340033709,0.3912270654,0.7346312053,0.9961703852,0.4797763994,1.3394569251,0.1396166401,0.2391072169,1.2530268637,0.2134135851,0.9658056856,0.0512280185,1.3595597324,0.8574426508,0.0527586749,1.4251571262,0.2582421153,0.0643760368,0.3781001394,0.9109867423,0.1403396384,0.3659864728,0.1243837633,0.301937,0.5430990648,0.0418358971,0.6482856395,0.629476715,0.0027058289,0.7934151756,0.5229805318,1.4524480793,0.0933759249,0.8119173646,1.3711077288,1.4603632703,0.4471694893,0.0607313725,0.3391305052,1.4231336693,1.441128848,0.3717439143,-0.7332096427,0.7933703105,1.4043593927,0.5246788976,0.7675957651,0.7678884732,0.9754753104,0.1544829617,0.8790638634,0.2447077063,0.2020995796,0.5644103625,0.1032745158,0.8481956483,0.6487855937,0.2604642159,1.0150731031,0.0603892878,0.8022472434,1.3856971044,0.3722655035,0.7181113378,0.3968609759,0.4187747788,0.781040596,1.3538395208,0.7509209893,0.78170024,0.4365112027,0.9980926899,0.4192990471,0.4988625752,1.0497662001,1.1515884844,0.338927881,0.9714973292,1.171032417,0.8408910251,1.5317218941,0.7986236201,0.3716931811,0.682155854,1.3037826999,1.3124166157,1.110838352,0.2755006216,0.9847949486,0.7958576659,1.1944442963,0.4156703401,1.2579833494,0.3174642395,1.2557732052,0.3625766018,1.5282946506,1.1059472804,1.2100260156,1.2983943068,1.1275958333,1.3544234316,0.1025524368,0.7796482882,1.1207899528,0.4725000133,0.2316868361,0.3569733865,1.2621633379,0.2413207135,1.2231255469,0.1286236961,1.478115909,0.936486332,0.4685724696,0.6226479296,1.4430521677,1.0094728584,1.0147721386,0.733411649,1.3996439709,0.5861988933,1.3495415228,1.2222406175,0.1061575849,0.4501323562,0.9006086655,1.0355277528,1.000676429,0.7629444242,0.4996760763,0.8054197291,0.2398491891,0.2319302708,0.7646005174,0.0329386283,0.6232427956,0.3035509596,1.1819631977,0.2218930925,0.336524597,1.2104861399,0.1878828405,0.5146775946,0.1171867982,1.3464830448,0.503766629,0.4418138389,0.7053766093,1.3813112911,1.434126338,1.2544914838,0.3084031511,0.1259511647,0.9124783814,0.8180876722,0.1866498377,1.1122369558,0.3083000484,0.4205551242,0.8685424077,1.0848203189,1.2163822328,1.0718391973,-0.4685848265,0.2446528601,0.4740766845,0.5799663819,0.8359721558,0.8627437605,0.0923153459,0.4666371586,0.4627584409,0.6102102265,1.0922121312,0.9761530218,0.8295346114,0.7779027602,1.1572058714,0.7507125029,0.1752093401,0.3252081601,0.8679630971,0.1326880208,1.1738205893,0.2342636861,0.8940131977,0.6766128785,1.2532070302,0.5651563613,0.0681781599,1.1305631921,0.9924616077,0.3613665015,0.7803956209,0.6499832283,1.4925888813,0.6667806299,1.2134277797,0.0840622709,0.7856205616,0.741158016,1.1494064448,0.9721292838,0.7336543489,1.4183418449,0.9697471873,0.5895649916,0.6026346278,0.0671715097,0.6364155411,0.6017022051,1.4235216108,1.4516593081,0.2495471377,0.8884161124,1.2312503632,1.1025784784,0.755902863,0.6417953054,0.678514589,1.4788823446,1.1018085558,0.1786233026,1.0627115708,0.1779550336,0.8007934618,1.1110296006,0.6807430636,0.9348089137,0.9020497063,0.2145421954,0.8490653112,0.901157066,0.5098602339,0.3089837438,0.5850451435,0.1289273931,0.6736353591,1.0214098524,0.1853920579,0.6247735387,0.5956653867,0.294713154,0.0778803483,0.335183244,0.3715848964,1.0406160098,0.6286620673,1.0539247516,0.6359606722,1.0038454739,0.1480945894,0.6476157623,0.1190305153,0.1965242946,0.1163125007,0.5495251057,0.1803298807,0.882070693,0.5262605313,0.6918168361,0.4256915293,0.9851641381,0.5984644402,1.4430634205,1.1339869303,0.9810973627,0.7726503256,0.2284830701,0.0790109054,0.0935959884,0.745658789,0.870191782,1.3059955267,0.9135555808,0.0169084386,0.1201913049,0.0683849327,0.4464745182,0.6180219447,0.4483300457,0.3603797226,0.3810435149,0.0408029698,0.5930473817,-0.5981025685,1.3639600545,0.0846880292,0.6807814035,1.353260182,0.1618475602,1.4918593074,0.691438539,1.4960056009,0.9486643865,1.0309477994,0.6794213917,0.8539826918,1.3679588884,0.1067624681,0.2901624902,1.516511874,1.5032162969,0.9877209771,1.5318870518,1.1266264829,1.4468553748,1.0258255966,1.266664517,0.5261784456,0.3224347844,0.3778244253,1.5172668096,1.4623821752,1.1555934737,1.4821147128,1.0846910421,0.3242218263,0.7329466412,1.4683555463,0.1410549985,1.5143913996,1.0226475857,0.3431735474,1.0555041873,0.8051981298,0.213470727,1.3337634808,0.5670084409,0.3661858417,0.9519396031,1.0418340872,0.9665882692,0.3124096104,1.4038706161,0.4183639881,0.545486751,0.0613605553,1.5244639828,0.763006202,0.7918798387,0.065593517,1.126771186,0.5835442835,1.2569547365,0.765088648,-1.2344580752,0.9373586179,1.508147656,0.1920943735,0.6252711967,0.1050863457,1.2679299367,1.4058705091,0.7733384525,1.1273798673,0.2938327147,0.9744276231,0.0872031752,0.2306611659,1.1234147906,1.506348773,0.7571659628,0.0678463199,0.0288978843,1.4714260958,1.4024215761,0.4796454444,0.0720195102,1.5000915935,0.066486391,0.213381362,1.2650171778,0.0809035873,0.8958854876,0.6258921066,0.3063839236,0.188765165,0.7614420208,1.0359106488,1.0235254308,0.6507959041,1.3328362384,0.4648053042,1.3977088413,0.1953139459,0.9383674135,1.5164322031,1.2119595342,0.7346474851,1.2128218269,0.651659143,0.3733918137,1.1747517308,0.3376935465,1.4741514887,1.0415476407,0.1374305178,0.8627362186,1.4520322794,0.5585046905,0.9516004442,0.0315735344,0.5615204139,0.2587513408,1.094659287,0.7092787479,-0.1849855784,0.2584603635,0.905825182,1.326859902,1.3388047759,0.3866946687,0.5429146351,1.3112051474,0.7105275706,1.2810108539,0.5946852702,0.0875317306,0.9915145603,1.2405067291,1.3206036023,0.4342565582,1.0616395208,0.8957638662,0.2702619295,1.1481232091,0.7491874536,0.7623825083,0.7340760834,1.4678868594,0.6608648217,0.6649442076,1.3966804472,0.0710988451,0.6067162815,0.7851705255,0.3614967459,0.7061459412,0.941997828,0.8832902724,0.6872645863,0.487505756,0.6649722137,0.2676585183,0.7542973601,0.689805511,1.2923003605,1.0218824031,1.5246898376,1.2068964236,0.3892385481,1.4775901789,1.0888485904,1.0942428651,1.324577989,0.7800676747,0.7208723919,1.3166081814,0.024582887,0.1495562408,1.2438252035,0.6152986356,1.0017442902,0.2519025718,0.891210585,0.1824707485,1.5297939672,-1.4204414538,1.1715996316,1.4338576643,0.4676084445,1.1478766901,0.734687602,1.4203085021,0.8501404333,0.2574564268,0.7351941415,1.4663461771,0.7910795143,0.4185633991,0.674499374,1.2142567168,1.4220797481,0.7498992185,0.8136759781,1.2544682941,1.4785825706,0.1422701936,0.8779504375,0.6962277959,1.1099325004,1.0110393842,0.7046650942,0.1022863024,0.6193021006,0.7294033437,0.0102422426,0.8466343229,1.0929615877,0.9155047649,0.9773338367,1.5115022054,0.3549017196,0.4562129372,0.0027604355,1.2742478264,0.3021351682,0.2155261317,0.6824259829,1.0741247132,1.1450459006,0.5817110917,1.2995104104,0.7366339088,0.6100342796,0.3613322749,0.0353936686,0.0908805697,0.1346822651,0.0424741316,0.5296535021,1.2471243196,1.1666418607,0.9215126582,0.1798404964,0.0319705659,1.0948135019,0.9548517846,0.8811084921,0.0313167521,0.7232897149,0.7049955201,0.2728959788,1.174839006,0.0230102375,1.4763808829,0.9727791184,0.5105192826,0.3071124414,1.0563989735,1.0985332399,0.5332495894,0.8864562912,0.8319880154,0.2685785799,0.5994883479,0.3981039026,1.2860567991,1.3434484492,0.3207058204,0.8499301528,0.4634540414,0.1868600996,0.4147052491,0.8531572223,1.1513284251,1.3557153383,0.670815402,1.2261789433,0.8016161667,0.1740885445,0.2726860751,1.2916587673,0.5929379734,1.1452741492,0.0411418683,1.1364602994,0.0678604798,0.4453353916,1.2960379261,0.9088607133,1.015884533,1.0376370612,0.564858873,0.1304489019,0.9439351035,0.1826850838,0.2514224189,0.5624482494,0.5179158414,0.575937583,0.4666062629,0.8759883741,0.4013707649,0.8176941252,1.4494271417,0.3287510178,0.2530140519,0.3549964957,0.0401831791,0.0252445956,1.4657346986,0.8873225952,0.1709049129,0.4987068875,1.3226246343,0.1996649185,0.4972100857,0.4354659069,0.0829686175,0.10612863,0.5301802527,0.2353128387,0.2418374297,0.0916044417,1.038781175,0.9676344662,0.7010749658,0.4339480714,0.3992056193,1.2564477641,1.2212978843,0.3123150909,0.1453584776,1.4493495479,0.3001614856,0.8607828821,0.7923451955,0.8864120387,0.1579304294,0.9100755778,1.2467136651,0.2095309201,0.6006266807,0.6901142962,1.4817568051,1.4595386699,1.4556419381,0.0067020153,0.0389696642,0.1776577601,0.298415774,0.1764760306,1.3432374219,0.6434287647,0.716475649,0.2901095461,0.5622273616,0.5990964282,0.778707676,0.5468839193,0.397979633,1.1890224677,0.1025864727,0.5028993112,1.0216745563,1.3523872065,0.5543818709,1.0480029387,1.2592517656,0.9983730311,0.3650773611,1.2750851967,0.1571378492,0.7784584203,1.2409996631,1.0811632716,1.0565404059,0.6715853335,1.0812390183,0.6728521775,0.4281578173,1.2812638845,1.3492571899,0.3229834408,1.4021070852,0.0535154989,1.31345554,1.3450339915,0.3592833587,0.4212812357,0.9714704977,0.438019633,0.7836214401,1.2917673907,1.1156668633,1.0632870152,1.3869739115,0.8837319922,0.0426458982,0.7023777641,1.0576327614,1.4849248875,0.2411955551,1.4358362424,0.4124026696,0.248405271,1.4175477804,1.2366048154,0.1230151084,0.1859476408,1.0151813608,1.3952158089,0.0876815785,0.7694525615,0.5796940718,1.3812812167,1.453787162,0.9423932226,0.1285971831,1.4995116358,1.3522078531,0.6564052831,0.9564312782,0.450237453,1.032502136,0.2898577905,0.5783718796,0.6576886582,0.7493934265,1.1668571494,-1.1434667663,1.4615786484,0.6657108705,0.5937244328,0.5831782406,1.4334393119,1.3435470229,1.0724411127,1.2511817131,1.304629651,0.2831832794,0.8391995215,0.5551447156,0.9222662366,1.1688848392,0.5894881427,0.708167138,0.4221798638,0.8713260539,1.4601186895,1.1642059962,0.1588834186,0.8820118529,0.1024532607,1.1575292314,0.4045338814,1.3435443039,0.6762789406,1.3216334197,0.6395089811,1.4972374118,0.7808849396,0.7993047163,0.5248206235,0.9159783775,0.6197938582,0.0052102895,0.8547818548,0.0572106689,1.1841293449,0.3609020544,1.2844933198,0.3208641288,1.1855746683,1.4142463159,1.0101421865,1.2881131373,0.7974603539,1.0238172222,0.4679828748,1.2065765165,0.747230955,0.1636205068,1.3142130189,0.8760337032,0.6384532713,0.4685385332,0.2183088129,1.4155640595,0.5811076758,0.0539457415,1.5259688492,1.0013364859,0.3868328473,0.6406910314,1.4767935167,0.8832049496,1.345020605,1.2125350519,0.6027034213,0.0064897579,1.2841610503,0.354972855,0.9819730613,0.8250752219,0.2482314784,0.394883422,0.6369497778,1.4472931538,0.8959348554,0.0060883664,1.5298573569,0.1628834911,0.5639226114,1.0386277546,0.7849608754,0.8216463556,0.0211069649,0.5100976436,1.3272117992,0.3374004577,1.1481383437,1.5068844356,1.5106759019,0.8374358763,0.9220434041,0.6147598617,0.2951844863,0.7400696735,1.3975096006,0.5217104001,1.1688278474,1.1782374619,0.6380428725,1.4908387792,1.4037890952,1.3416797413,0.6905907035,1.3923626532,1.3895115574,0.3986112273,1.4865420868,0.4684790225,0.112186232,0.35145774,0.9837000563,1.4050479775,0.2754651733,0.0744314562,0.4443595312,0.0492038301,1.5016293225,0.9467260602,1.0061133863,0.022147727,1.1984590717,0.4082918047,0.8964790986,0.493122846,1.2738304605,0.3756827827,0.1727188852,0.4388161442,0.6510296244,1.0234156557,0.8489245298,0.680265592,0.8499354482,0.3911888117,0.3652307848,1.3610896807,0.5288884619,0.9758563456,0.3488771311,0.5430276622,0.0477399235,1.3694625588,0.1413802478,0.0488661332,1.026836486,0.1647382677,0.8807421759,0.0758239086,1.3192980906,1.1630003957,0.9467210752,0.4097789606,0.6557993435,0.8374231183,1.4946277957,0.145731734,1.3914694554,0.2001160817,0.4737386349,0.3938751537,0.8970790581,1.2497330682,0.5679937746,0.3939046979,0.125128553,0.2419086124,0.7407268365,0.0383700148,0.8613321658,0.7826867136,0.7857949313,1.4810424685,0.2062210646,0.3680995773,0.0044190328,0.2588852123,1.3846464219,1.3704794566,1.2868049693,1.2966943558,1.2456767555,0.799522928,1.2290115126,0.5000420554,1.1968457563,0.7435463235,0.2726377051,0.860474688,0.0298997031,0.4692680661,0.1450827789,0.751677368,1.4329106025,0.7869698816,1.233744539,1.5097781753,0.4599284551,0.6061205902,1.432269931,0.3180468145,1.2691213729,0.7576718413,0.8841213759,0.4682806356,1.4941469462,0.3867489962,1.2274351925,0.4113987392,1.2910057477,1.4523891205,0.6006396804,0.1096951068,0.2163097526,0.8774609293,1.0682576148,0.4978796103,0.5092371235,1.4293514834,0.0712850904,0.8561811771,0.6966051252,1.2874852945,0.0940664664,0.2011224483,1.4345019588,1.1131140215,0.8231772831,0.1099450387,0.5630370533,1.1760017908,0.8172139756,1.2860980856,0.7440529822,0.6663092874,0.5720790153,0.1966914933,1.0113935207,1.235488477,0.3206532407,0.8214293838,0.0295474173,1.3851507072,1.0355717386,0.204980883,0.5792396253,1.4715626836,0.3288162114,0.5502601817,0.465944184,0.3416539802,1.4649647284,0.3485475619,0.4375589614,0.5697757319,0.608112224,1.1998481798,1.1302946573,0.9687023144,1.2206098211,0.2455913395,1.0787800255,1.2616167885,0.9024186499,1.4890576557,1.0817583003,1.0356449469,0.2485865726,1.1295685872,0.3945561465,1.2050916702,0.3870405757,0.5033927228,0.1122361909,0.0441455951,0.8792367773,0.6472671101,1.0814945511,0.5557118775,0.7402071905,1.3097772989,1.3915409445,0.9918313549,0.598526742,1.3210453932,0.5792467756,0.1905499754,0.2021237553,1.0395759359,1.2101414141,1.5002290671,0.7160929541,0.632339267,0.1596956814,1.5268820583,1.2281455908,0.7067905394,1.4512845486,0.7211226481,1.2682296276,1.4109671811,-0.3049039705,1.0419804208,0.5059793671,1.4175178643,0.1243791377,0.5471220351,0.4893909365,0.8778063997,1.0957835553,0.6815816675,0.4946308761,0.4826103811,1.2183898543,0.6441761519,1.4121565293,1.0097583801,1.0599705149,1.3703396336,0.3449062991,0.9853377097,0.0342691724,0.3504457893,1.0620938398,0.3417330317,0.4590300152,0.4791934916,0.4220431606,0.4202679955,0.8429701683,0.7711693359,0.249903557,1.4566185015,0.9695117273,0.824899409,0.7337825691,0.0738495989,0.5041365939,0.098102803,0.1486171591,0.2235403183,0.765332544,0.0007709163,0.9698502663,0.9935342164,0.0813113287,0.7709965144,1.2554317528,1.0343466573,1.0871502853,1.4666962618,0.9566462696,1.4915790811,1.0882681147,1.0993316083,0.8042613219,1.4974651742,0.3650908475,0.7833997104,0.086781143,0.7061737322,0.3527792903,-1.0356294586,0.7243364821,0.6890261835,1.3525253772,0.0310215203,0.9094140941,0.9576599526,0.060033075,0.8641273856,1.2344113917,1.3373835654,1.4793973118,0.2845231471,0.9918956432,1.5329331274,1.0140067533,1.0653012749,0.9329705461,0.0824401319,1.3016685232,0.5994926278,0.5770652147,1.3749791538,0.29348681,1.1205269242,1.1184113125,0.31561171,0.9364566535,1.133804458,0.4597474922,1.0375377431,0.3927009103,1.4959227573,1.4883957865,1.0981697017,0.2494326037,0.9928080498,1.4315843797,0.3159369928,0.4528782766,0.5389784799,1.4506787408,0.520571122,0.3810376904,0.9244798982,0.228380672,0.9569184717,0.9432854164,0.7506816719,1.4960841587,0.3256662846,1.4910185703,0.1198888456,1.1034953063,0.3034164201,1.1052262446,0.7883355432,0.1307657209,0.051296447,0.5558445142,0.9261838716,0.2685114271,0.5453435422,0.4818039241,0.4305106052,0.4360916166,1.419519816,1.1484792349,0.2555564952,0.8659923863,0.0180893245,0.0230617671,0.6580242878,0.1750927774,1.2893666264,0.3512798214,1.2228192555,1.1517716157,1.3716682119,1.48777281,1.0078993868,1.4767377256,0.4315789626,0.5073678153,0.1473635562,0.3588629296,0.6789692175,0.1419499293,0.1245546774,1.4806426801,0.845386042,0.8070174924,0.5000595479,0.3181470319,0.3947435742,0.9960048023,0.9657766117,0.7623344974,0.0820388676,1.2625635031,0.2011896504,0.26239328,0.3151057615,1.2282728428,0.6724881725,0.0091892525,0.3998577551,0.8840143106,0.3892115009,1.3709938668,1.3124459044,1.368217481,0.3746278579,1.2678873732,1.0520417518,0.2100890891,0.9570356094,0.7585258431,1.226869229,1.4501608163,0.5344468132,1.0956960563,-0.5669686189,1.0375705807,0.8155977438,0.4042148699,1.4898284116,0.3273619467,0.2007809928,0.2462929443,0.4500347916,0.6141161568,0.5116552932,0.2317603655,0.8329992569,0.3835261976,1.3327809101,0.1546086185,0.5423423583,0.7927879035,1.3922554387,0.0053079314,0.2025932326,0.2205421963,0.584828175,0.7822952233,1.4888596591,1.0483386391,1.4154083537,0.0864907304,0.0685002548,0.4131205625,1.2902756458,0.2811828316,1.1058923857,1.4825292582,1.3264720138,0.2046552549,1.3376910841,1.509577465,0.2723227337,1.112178714,0.7365957717,0.182982721,0.109726024,0.879886238,1.3608345107,0.5782133185,0.842973397,1.3813796938,0.1076972332,1.5185620955,1.4042388285,0.0116650781,0.8432898796,1.4483582067,1.2614119908,1.1991770534,0.8084064319,0.1647170053,0.5107731519,0.2350000424,0.0317849928,-0.0511817102,0.385396242,0.3009896282,0.5460472517,0.9822910757,1.2027125331,0.9590118125,0.8545684675,0.9932871245,1.4940602468,1.2461194055,1.4345448566,1.1238408785,0.9079609656,1.4499906223,0.4531766225,0.6919254263,0.9209865035,0.7699163751,1.0636769269,0.6589133888,1.243554265,0.2655847301,1.246107493,1.054013832,0.980915815,0.8648362317,0.5846745523,1.2960154285,0.8281620412,0.314227622,0.6832803637,1.3507417902,0.4148706588,0.3348762162,1.368630245,0.2374065543,0.21118135,1.4979949492,1.0080544597,0.6204794375,0.6572048757,1.4415090715,1.2979198143,1.0080031857,1.1057166071,0.0260238454,1.0103331121,0.9054756359,1.0298957299,1.1341412321,0.8610713927,1.0852431622,1.3575276956,1.1818161249,0.5682632395,1.0108340779,1.0054126079,0.5929989428,0.6192532859,0.0047827338,-1.0960569827,1.3283661592,1.2830935425,0.1423869232,1.0729580516,0.8355165709,0.5713864252,1.1270318555,1.2975318472,0.4239899619,0.9924588113,0.9546046438,0.1774998989,1.2019760593,1.5293205491,1.1218984272,0.8098938046,0.368756129,1.0792072243,0.1507600295,0.8086182028,0.7202797116,1.1498474827,1.1180118216,0.2295337827,0.2069565304,1.5063551973,0.8671310304,1.3849074527,1.4384695137,0.3836837248,0.6006586047,1.4141238949,0.3409629768,0.467263021,0.4890703428,0.0003300168,0.1825742512,1.2593178524,1.357450607,0.1223364035,0.3366292099,1.29812535,0.9892666207,0.4974167108,0.1640015994,0.5513258953,1.527944757,1.1583975952,0.4068598094,0.4285405059,1.1893382923,0.2852812028,1.1753971726,0.1180367964,1.2087961416,1.1116719997,0.4814155631,0.6685602866,1.1346078071,1.4377111111,0.3809965959,0.6064131188,1.4501443908,0.340881011,0.3353575077,1.2545483703,1.148242065,0.2975812376,1.2630254907,1.4730344701,0.2831757017,1.1983395974,0.3469429267,0.7443835872,0.1442523711,0.1433857639,1.2509946627,0.0578406204,0.0951900407,0.2967753218,0.6187576199,0.2802879353,0.3052557957,0.0992868505,0.1011558186,1.1421285269,0.6421325268,1.4265004181,0.3863653456,1.3124228498,0.48701841,0.9251523734,0.2632565371,1.0282540934,1.0000677168,0.8465786451,0.8181045932,0.4786194804,0.1664159217,1.1037444741,0.6888301383,0.3307746963,0.2414601488,0.403515406,0.3401710785,1.3013171881,1.3896574278,1.4189073532,0.9301612223,1.0706029605,0.4329187867,1.4999839879,1.4613647616,0.5742200398,0.2715448503,1.5002861412,0.3663661735,1.3832948116,1.2502831241,0.3755095517,1.3047196438,-1.4188217162,1.162813582,0.7732469621,0.5371667213,0.5267381857,0.2658135547,1.2389664373,0.7279330901,0.7885227925,1.1522691462,1.1484453149,1.3722516048,0.7967507829,0.2517450997,1.2274251568,0.1235035177,0.2506332727,0.3756063144,1.4646832158,1.3749680644,1.0339739147,1.4093743181,1.0243704438,1.228458696,1.3136978888,0.1833896009,0.3855935159,1.1571296543,0.0151394678,1.4890842249,0.3791903541,1.3085059911,0.2860969756,0.5334403166,0.3443589024,0.736317246,1.1348771097,0.1442781377,0.2474812869,0.5498545038,0.1367753408,1.3369737914,1.3708346634,1.463851962,1.0129518738,0.1996933798,0.5457300079,0.9235238794,1.4511232223,0.5527812644,0.3985229709,0.9807462436,0.0047016284,0.0609235939,0.1214112815,1.455276643,0.3661636663,0.5881965372,0.2215182149,0.9159396131,0.0242904035,0.4123582955,1.0937960073,1.5208353084,0.0164162729,0.3058119759,0.8715447795,0.1271006198,0.3684977056,0.7594673451,0.3930775118,0.3122682324,0.4219226687,1.1425207609,0.8915488557,0.2137621515,0.4868932596,0.8460238998,1.3940024052,1.0823095978,0.5644061201,0.8744452858,0.379799946,0.0448291802,1.2590698672,0.1495599502,1.4541003336,0.9510742738,1.319652812,1.4177963101,0.2985860995,0.9366347731,0.5679589702,1.2309041525,0.0177820165,0.9176753862,0.8165232716,0.8839153013,1.3779798655,0.4318468374,0.1511767115,1.4955539413,1.2381405335,1.0096805469,1.4805801478,1.4483626148,0.6639858636,0.9524004387,0.6760325427,0.6550516642,0.2757328178,1.0146709678,0.8825201635,1.4633177914,0.6588381854,1.3611472459,1.395759872,0.4121908838,0.9812127558,0.3490902015,0.7682230514,1.3992886639,0.7153106237,0.0960141345,0.823644322,0.0355390549,0.0826414227,0.5637207069,0.0782949957,1.1659226519,1.0707265045,0.7435447733,0.8128524261,0.6337447783,0.5809122101,1.161636443,0.8512413877,0.7139614588,0.8889109025,1.1497571456,1.5307345113,1.2969033759,1.2042222308,1.3382422709,0.8986720304,0.906442282,0.1399681707,1.1851254857,1.2910166712,0.7047989177,0.5758497222,1.3435965305,1.0117097807,0.7242165508,1.4097680037,0.3694475658,1.3917331584,1.0667502635,0.4772765541,1.2476558385,1.2995673781,0.2021396785,0.2165655486,0.1937067031,0.5263375675,1.3771365186,0.3729592819,0.8848104553,1.1322522863,1.3788554525,0.5578400454,0.838977287,1.4569871264,0.2989898996,0.2196799153,0.9075946042,1.4135379341,1.3059973555,0.1275336016,0.6175578511,1.1156018958,0.3617529101,0.8421128213,-1.45970405,0.4063111556,0.2350459629,1.2102413408,0.9038034971,1.3230626524,1.124974052,1.3241639881,0.076004643,0.3279330302,0.7656430037,1.1860692812,1.4228043919,0.3298143807,0.3202821976,0.6846336682,0.9432209969,0.041665893,1.4867936898,0.0255564499,1.1745466281,1.154793796,0.6451385699,0.608884512,0.6381843471,0.7212813761,0.2149608997,1.078223712,1.4986782108,1.0709704936,1.0055595438,1.5069299668,0.2455305604,1.1934476839,1.2448717153,1.0091575792,1.1278370584,0.8095087095,1.1055469118,0.8312785175,0.9961798902,1.2094743981,0.4750697541,1.4732663667,1.2516738091,1.1814284271,0.997726889,0.2937208787,0.6780268056,0.514780126,0.371773895,0.6551690309,0.7837570753,1.1614591739,0.2134502447,0.0605473535,1.4152244913,1.2545745492,0.9738374017,0.322491472,0.410036469,-0.9680590408,1.4288195598,0.3123527119,1.0019501881,0.5629633488,0.3856148038,0.9222955313,1.0980476645,1.2896798507,1.3214786219,1.2307733832,0.0440896732,0.6787847105,0.1821137623,1.3892850797,0.383392169,0.9935549696,0.9621129149,0.5904777186,1.0687017613,0.5439598941,1.3791436322,0.8840924856,0.3384585946,0.253090387,0.6375980006,1.466461491,0.8588104797,0.559122367,0.6721229826,0.3432263558,0.2945630993,0.408739481,0.3241548794,0.16455389,1.1664839042,0.3597795879,1.2107613776,0.8247342803,0.1519796705,1.3765868781,0.8458457444,0.1798488358,0.6019475663,0.441386357,0.9476937328,1.0664519481,0.0550310439,0.8156708286,1.4397277568,0.7083103512,1.2084054634,1.1541742404,1.05329025,1.1893555977,1.0303137904,0.5271007986,0.0533666592,0.6741132148,0.1651357777,0.0528143096,-0.4170768287,0.2753692681,1.1029005136,0.4669913407,0.9494936137,1.2916034589,1.4796641592,1.4086480558,1.0524492711,0.7248013394
   0.4997262166,0.392630745,1.3118029703,1.0669583215,1.4737039997,1.0259982404,0.0184843305,0.0040886359,0.5685438568,1.2996606755,0.5713550916,1.100912022,1.528626358,0.6262970625,0.7013363311,0.6896776521,1.243290587,1.0001073415,0.5849827161,1.0561761395,1.2210510757,1.4733536511,1.3333958081,1.0541199582,1.1121974276,0.146419277,0.223981532,0.1465656508,0.941716157,1.2181775998,0.4492519126,1.128909464,0.7713775492,0.2157938807,0.983170507,0.1052595174,1.2294531241,0.3393188321,1.2405988817,0.5792234539,0.4958771587,0.9176090305,1.0029939903,1.0552914705,0.1080146847,1.1486698597,1.0902277051,0.038746154,1.0449692698,0.7889740979,0.2851622484,-0.700800566,0.875858857,1.3727642178,1.3136784676,1.0741405122,1.5163315288,0.7296833468,1.1336860473,1.1748360785,0.203060593,1.3952108921,0.2885843904,0.0209987964,1.1927226779,0.9915998307,0.6236078942,0.1240581361,1.1216463189,0.8593849263,0.7869152507,0.7688172663,1.1524905937,0.2361763069,1.395471421,0.7561264702,1.0394269465,1.1016247996,1.1774150066,1.2264381768,1.0622631776,0.1595454872,0.2883810278,0.7565955464,0.3086071716,0.4819958783,1.1933585052,0.4773334098,1.1396359779,1.2098798696,1.1551762402,1.2983956372,0.393539044,0.6212679929,0.7039836342,1.4145376874,1.3211405041,1.3882018969,0.732371486,0.8989532347,0.9481489342,0.6070705265,0.0898877957,1.1859107896,1.0759457543,0.0752512259,1.4834160771,0.8491141617,0.6889171277,0.7137047445,0.221048044,0.8161081052,1.0696324146,0.5505086774,0.1707270941,0.0208766945,0.5948060916,0.640180889,0.5790450548,0.4147663913,0.2094649307,1.0026146067,0.7788292252,0.9209659126,0.5843130092,1.1864332635,1.2841008205,0.8812251763,0.6283245085,0.64389838,0.0823190783,0.1335427925,0.0023390452,0.9102084866,0.1402545889,0.2940300057,1.0493626102,1.4369780952,1.2591110735,0.8218788143,0.3803636241,0.9749890833,1.0669244138,0.5279509755,0.7388890665,0.4622519171,1.1551315877,1.3131146971,1.2544586746,1.3015301887,1.1284860955,0.7154048184,0.5502044814,1.3737414799,0.8282265348,0.1736833239,0.5174200195,1.0790733827,0.8405924637,0.7957767273,1.4085869316,0.8024732236,1.1724485321,0.9668487364,0.346645751,1.4530298226,1.0906856226,1.2088877181,1.2733195277,0.7968690531,0.0075348251,1.3672944933,0.6448679014,0.5923434462,1.181088055,0.745090515,0.5788404897,1.2392157022,0.4364087445,0.5386184983,1.0802271733,0.7717975847,0.6647032791,0.0627824993,0.2012380907,1.2702611422,0.4606077561,0.5562259877,1.143408676,0.3400732966,0.4569579367,0.2870255482,1.3734002642,0.1994218218,0.3524099062,0.6496693141,1.1615470171,0.7307029396,0.0711606244,1.0006928818,0.8463967871,1.3382741636,1.1152660376,1.3133553333,0.4428714286,0.26439213,0.621687134,1.4212993681,1.3859117503,0.6123904256,0.9929299726,1.4951772993,1.347249163,0.2102226118,0.5224901063,1.4672589376,1.2037518588,0.2367573361,0.528122748,1.317625476,0.4023115106,0.5877058185,0.9319930655,0.849757142,0.755721004,1.4151850787,1.3743621788,0.2117743054,1.1943406259,1.407540121,0.3395847544,0.5258231679,0.6262256574,1.3378389089,-0.6231093074,0.6168951195,0.4357369979,1.2084668208,0.776126141,0.140181136,0.6559558701,1.011641149,1.2064844065,0.7930180846,1.1319334803,0.1729762992,1.4392803066,0.0400439752,0.5856144649,0.6562058672,0.0103816006,0.3275615398,0.7492783452,0.5754977718,1.4642492166,0.6791216568,0.111573583,1.0715163277,0.7304591122,1.0620894308,0.8486151103,1.2128683139,1.1925482043,0.5436051855,1.3428267465,0.9714139415,1.132028673,0.7828687657,0.607058471,0.2164592333,1.1985430814,0.3831860579,0.7734422812,1.2109916856,0.5263846888,0.9251514062,0.111188029,0.4809337195,1.1106098324,1.2015299218,0.1654932107,0.1835241016,0.9541904686,0.182712968,0.9646086049,0.3855326875,0.4665053144,1.5064142115,1.1094017653,0.5202312544,0.2268718842,0.1790398379,1.3454844809,0.312192153,1.0888951085,0.25492451,1.3103578402,0.7168451657,1.0971676702,0.2939858435,0.6495590999,0.7978782684,0.8569019253,0.0918145635,0.2948276834,1.2123430899,0.8043641334,0.061723853,1.3732999508,0.3146491021,1.5174804358,0.072304644,1.3526026415,1.3341124298,1.3854686131,0.1422718139,1.0516082759,1.0676159755,1.3295005027,0.3735760834,1.0319858155,0.3088691442,0.3209849037,1.3769554263,1.4575629267,1.102591924,1.5294071512,0.9796129114,0.0444346811,0.55989044,0.0015158652,0.2400752465,1.2165212224,1.3101362976,1.2429829594,1.0762670753,0.1624460325,0.6612866712,0.0427097065,1.3248394261,1.4957650701,1.0161382449,1.1432352283,1.3248264216,0.1386113033,0.3123084274,0.0842788481,0.2755595737,0.4921372343,0.1222234261,0.3666388483,1.189521244,0.4847360409,0.2533573728,0.4894220876,1.2859483086,0.6702909345,0.8049809253,0.2362163816,1.2555539753,1.2907229137,0.8111554117,0.4182339207,0.7140886827,0.941837061,1.4833547798,1.0038477552,0.499039761,1.0807099442,1.1082920341,0.0531091226,1.4839253934,0.4374854999,0.6006313575,1.1282126463,0.3711901018,0.1855544293,0.247698864,0.6818927248,0.2630558576,0.5542270753,0.8539518296,0.0928006654,0.4492578144,0.0398129992,0.6949898484,0.2596781625,1.2358183907,0.3828381359,1.1111324386,0.3171812948,0.2759130981,0.7509830647,0.5203364822,0.1998056508,1.5177755135,0.0406678243,0.6312920407,1.2129448166,0.5194627537,0.9446531073,0.1019862549,0.6168813852,0.216706251,0.3722250052,0.3154355705,0.3411075448,0.9709838697,0.2758884457,0.2698881424,1.1283089388,0.4402040218,1.0894609688,0.2672068345,0.8952059514,1.2471773267,0.2611915161,-0.8482529266,1.3643666452,0.0290426531,1.0745340552,0.7607448368,0.533427991,1.4845506517,0.5260069846,1.348071368,0.2500474686,1.3376240489,1.3870447183,0.1446242735,0.5823276753,1.3432006432,0.1202249246,1.5243378717,0.9065469058,1.2497564757,0.1686439845,1.2322039734,0.0908519091,1.1270334299,0.3979511653,0.2685419225,0.8941994948,0.5159623609,0.7491634461,1.5098958928,0.0040514973,0.2407091399,1.1064593615,0.7981455755,0.2417875572,0.1375680665,1.298286747,0.9012622943,0.8149309927,0.2873771821,0.5725895267,1.1021345884,0.853654617,0.8503498046,0.728839119,0.3706189098,1.0887350617,0.9196561416,1.4223438407,0.3575769725,0.1801581828,0.9590976413,1.0094134034,0.93954338,1.4354683337,0.7557653372,0.8574637495,0.0823613102,1.1612260099,0.9688942284,1.259554651,0.5835928387,0.7633876421,0.8672596324,1.1430255063,0.4240467442,0.3447174704,1.0459351351,1.0141319194,0.1599984953,0.7755988284,0.7150837159,0.0006837162,1.0679984425,0.138184874,0.102190308,0.0189375641,0.6260729155,0.7079339893,0.1070383628,0.9403013762,1.0191142938,0.3705941518,1.4313223373,0.9801160561,1.2936948531,1.2233929035,0.3538438543,1.4494216856,0.1297295246,1.5207916271,0.3944533197,0.3106845095,1.4549901902,1.3254643991,0.8798916491,1.0237354527,0.4409801354,0.2217369565,0.1520953703,1.37261429,1.1529379265,0.4921658065,1.4001527177,1.4177423203,0.3515106247,0.1034912451,1.2462242488,0.3204796051,1.4640250858,1.4088937647,0.274041217,1.3222580609,0.9408628739,0.6163209522,0.9168741084,0.4018427841,0.943320228,0.407495579,0.9373680515,0.6957958134,1.0528118301,0.5120381079,-1.5180224349,0.2851881612,0.9546547621,0.9359439578,1.1539983241,1.0914723945,0.4672923199,1.4483210045,1.0358623625,0.0004579499,0.9423731642,0.7316382664,0.4055330692,0.9431783872,0.3432566004,0.4107710957,1.2537997759,0.5306432974,1.4766201568,0.488358613,1.2175708798,0.5613000672,0.3557294108,0.9639469296,0.0739511821,0.6684322183,0.3252293681,0.9688632816,0.2490303981,1.434360154,0.7927052936,0.6798438986,0.3337903753,0.0777882276,0.9650885783,0.9036406239,0.1039375483,0.5216494896,1.0923538267,0.5242117432,0.4929676786,0.2568691483,1.5287549252,0.9816267044,1.4122621353,1.2433479482,0.8771487361,0.719014151,0.7186664558,0.9456265242,0.2598770848,0.1983932231,1.2246731745,0.2184598358,0.9718302068,0.6246043608,0.182932226,1.2169989239,0.639873195,0.7677402132,1.2859969492,1.3959682263,1.3225146372,0.653934947,0.0717603136,1.0671832011,0.354889836,1.4316071638,0.5115088493,0.4194302313,0.2120889996,0.6475671885,0.2007194112,1.2858547365,0.8542211255,1.1142704218,1.1163260682,1.0417080413,1.2704558204,0.2654429962,1.1578199708,0.161560812,0.1884079617,0.7991470649,0.7817575466,1.247131156,0.5012715695,1.2685803076,0.3602793031,0.4849430345,1.1210319631,1.5168036102,0.5519546256,0.0323924236,0.1984572749,1.0510478221,0.0025676402,1.4941608545,1.4658918219,0.9708206295,0.1101948441,0.3200768491,0.716137005,1.0804281158,0.349466707,1.3133631584,0.3763582323,0.588677744,0.6681381239,0.2358098245,0.148936277,0.7475735866,0.5424122312,0.5371462321,1.4841020793,0.1046667416,0.8105202612,0.368313118,0.0280424306,1.372712302,0.3401866638,1.2100033606,0.7636486343,0.2042079775,1.1395606445,0.3404852442,0.9734521576,1.3478747545,0.0714847008,0.9977333108,1.2125083856,0.9483236467,0.3860744238,0.7123990483,0.2093965314,1.4018053509,1.2418789457,0.2541099304,1.0136341505,1.5256782796,1.3787067814,0.2604166479,0.5213991756,0.2841945869,0.2991481633,0.4526932433,0.7961980867,0.5298614929,0.901201216,1.3538311113,0.1936473353,1.2577072404,1.3870600874,1.066312287,1.4510939239,0.7080466671,1.4099535624,1.1609405419,0.0604109979,0.7062095105,0.2701938993,0.2391271001,0.0479783966,1.1710713835,0.3279289763,0.1145790096,0.2168335568,1.3526349973,1.1895352417,0.5718586685,0.2585610179,0.2959666875,1.4675436255,1.1943420439,0.5490587632,1.4964168304,0.6996929124,0.6330252315,1.3439564127,0.9554203567,1.2142097075,0.5064284071,0.2849726282,-0.503573411,0.4393947076,1.1347444495,0.7657893398,0.254345165,0.4903342532,0.3233932022,0.4005254235,1.1028309295,0.3541376155,0.199018197,0.8904649404,1.3534703877,0.1177386108,1.3229192248,0.861124315,0.97634872,1.0597191335,0.2371601022,0.2230719737,0.2517669309,1.2085674698,0.5495399923,1.4817887477,0.4835187757,0.4605153808,0.9027202957,0.5041638849,0.5732401319,1.3579649482,1.141157585,1.025545846,1.5148954773,1.3721566921,0.3642856095,0.8918115349,0.3144594284,1.4707521531,1.1103777425,0.9037194879,1.3945698366,0.2035271237,0.9735984228,0.1066080677,0.5204348929,0.5755483405,1.5245984533,0.3876710505,0.7684984327,0.8689372563,0.7286997223,0.8683133065,1.2659435905,0.3589003,0.161306351,0.0418903361,0.6932963733,0.392647006,1.181740407,0.9715631771,1.4809509248,-0.4387216235,0.8821803208,0.498810303,0.9645640829,1.3571838202,0.8813290446,0.3722698725,0.8814092868,0.8532440578,0.7284946274,1.4399105852,0.629945375,1.2161180218,0.2486270842,0.3651375548,0.7774120874,1.2733374769,1.4923056454,0.1003040179,1.2415197348,0.5726416633,0.2531337433,1.2492403644,0.8472779359,0.1995185671,1.3480504514,0.1153726906,0.6228655625,0.5050836901,0.0587826782,1.3633281676,0.5739796132,0.6207229076,1.0412062091,0.5214241217,0.700643792,0.7595679558,1.2713973512,0.0824468762,1.0292551755,0.2711094776,0.6165502556,1.4566919644,0.4245121681,0.30282712,1.119307413,0.5983822527,1.3421029586,0.4335243544,0.7637408224,1.2435764264,0.7710012759,0.1936159758,1.4183718071,0.870031568,0.0468966199,1.1080542016,0.0172003531,0.007389519,0.3509018591,0.0563482588,-1.5203165284,0.8954667507,1.3086131381,1.1293633631,0.6659038566,1.2413696383,1.0447077198,1.287595786,1.459503652,0.4660411195,0.6477525395,1.2224196375,0.9107759925,0.9583521199,1.3212030489,1.3889720553,0.2203552583,0.5359438337,0.070815436,0.3869099428,0.8397709165,1.184327811,1.089430582,1.5315716057,1.0857109944,0.465042862,0.4928686276,0.0643001864,0.2237255742,0.9393907806,0.2552029308,1.2133066267,0.8478602367,0.5997287175,0.0181116388,0.3181544294,0.9673054961,1.0144123559,0.2068406919,1.4713494447,0.5143766674,0.5177019671,0.8161476819,1.2440093702,1.5271254783,0.6593568822,0.1670158972,1.5298692324,0.6636173018,0.4386367741,0.8226372103,0.5165776072,0.7392861858,0.6918669933,0.2318426483,1.4029639739,0.4116886127,0.4248641015,0.8044831498,0.8924494636,0.0589354285,0.9814371845,0.2359606931,0.6666357905,1.2104145213,0.1503861102,0.547692729,0.2332519988,1.3472522807,0.8924654656,1.3768753651,1.4369308214,0.3517522643,0.9355661554,1.030966859,0.20901769,1.5297466674,0.3770675114,0.3591981011,0.1004144861,1.4647256587,1.3651355965,0.2572723746,1.3798108059,0.3758572264,1.4920000483,1.3737050831,0.5316250479,0.1854743166,0.7026243813,0.0771548956,1.5133906404,0.4687486911,0.2340469346,1.4414654719,0.095226272,0.9505036404,0.6896884777,1.3634960534,0.9364388703,1.2575738701,0.1726869705,0.4976532389,0.1435115233,0.4674270615,0.3605099896,1.2399505767,0.1621200969,0.3540173354,0.1035880473,1.4828235727,0.3638755335,0.4925531784,0.1481637103,0.956348838,0.9918262435,1.4270927338,1.39790796,1.4029551718,1.3886229177,0.2679984657,0.3979594292,-0.5811951629,0.6182200704,1.0573289706,0.4264281575,0.1743390277,1.3099061398,1.2656234736,0.3389590729,1.1398297041,0.7363363322,1.1886141352,1.3800346593,1.0892584211,0.5312423074,0.6927419727,1.1712496169,0.6319558251,0.423064446,0.4353931416,0.2154294219,0.4144972437,0.8297083127,1.2807106773,1.1573966064,0.23032962,0.0906807166,1.2176397777,0.9704641823,1.2520519423,0.5452855973,0.5212212193,1.0623074355,0.3903097023,0.0266294023,1.1688678102,0.5634442984,0.2157527184,1.5199227186,0.9755310783,1.502809514,0.6308708614,0.8257786259,0.7977135728,0.4676911119,0.4953268116,0.552063728,0.8855741267,1.023087653,0.7659166213,0.1830306976,0.2250533329,0.835711474,0.75796344,0.5555175792,0.6915137748,0.787516525,1.0191678036,0.4004810217,1.1876916913,1.4991958102,1.0075637286,-1.4809362716,1.3982280679,0.2565715675,0.7837154754,0.9593206233,1.2729172579,0.193697452,1.0164813175,0.6650180971,0.6887493584,0.1315554143,0.2622139923,0.4702580013,1.0481221274,0.3292101607,1.3925904904,0.1521022974,0.5008655897,0.9488938096,0.2632139632,0.8798279654,0.5440377228,1.1519691181,1.4554153721,1.4206654411,0.4805933142,0.7290016853,0.0756509635,1.5076867634,0.409267775,0.8974649161,0.4206998537,0.7895507095,0.5154158384,0.558685646,0.7151492824,1.0960986607,0.2605846077,1.0773905484,0.4664104846,1.3562846549,0.5204238084,0.0270779536,1.4579343828,0.226725564,0.4987361047,0.1967857708,0.3875567403,0.719041742,0.7042721605,0.8684053086,0.4889681534,0.690527238,0.9613714107,0.1957928143,0.2574631226,0.3945746845,0.2856190472,1.1487062661,0.9179189376,0.1746260464,-0.0815820215,0.780229373,1.0886723848,0.344723994,0.8276925214,0.5891826005,0.4644013561,0.8680421758,1.5171118573,0.0747431415,0.0371541961,0.3202939414,0.0325990564,0.3056150454,0.0159802504,0.0366944187,0.2114669964,0.967015281,1.5331512046,0.9584525995,0.1214686002,1.2796208338,0.4894232598,0.1855970334,1.1641080398,1.4599043701,1.1548468457,0.519723457,0.0825328484,0.9643887203,1.1129201758,0.4583981791,0.1047315178,0.695369213,0.9551328696,0.7879098508,1.3908692914,1.2952959513,0.053512691,1.3917460444,1.4141656248,1.1595918199,1.1204312263,0.6463117496,0.4289980751,1.1302431587,0.5052435999,0.1858890532,0.8755990728,1.0310944025,1.4030945057,1.224482919,1.0392268313,0.5233374906,0.6310646221,1.1231996772,1.476865607,0.9320424768,0.443656381,1.1762614118,0.1033137048,0.8841369585,0.6629583631,0.5439556628,1.3341340495,0.9732068602,1.395710228,0.5136050046,0.9779556083,0.5491395454,0.5443182374,0.9278675706,0.5474891461,1.0593303119,0.0770147741,0.186344993,0.2349630319,1.3808199451,1.4272114323,0.3060030692,0.7410821489,0.0171419037,0.411033088,0.468215068,0.7696999649,0.0018353707,0.8809167503,1.0446658924,0.3044719886,1.2547656882,0.4238622378,1.089745571,0.1989636629,0.3961040707,1.1968561973,0.7212533472,0.4013040714,1.30839628,0.8558722445,0.114078314,1.0820633865,0.297684676,0.7523928154,1.5313852226,0.1374127008,0.2392621071,1.0033377892,1.0179357,1.2542074193,0.6450240187,0.9559206075,1.041352897,0.2288320613,1.2794326892,0.4117457256,0.7033954868,0.8804449241,0.2507983062,0.7147001128,0.9118998759,0.4664437769,1.4111044299,-1.2509553846,1.1523240681,0.7664753811,0.0332434201,0.1115061644,1.1582874857,1.249063331,0.2655630435,1.2407233588,0.1322931501,0.0086789766,0.7743209669,0.9005174826,0.4811700105,0.9745715885,0.982913637,1.2719433123,0.41846496,0.8743178089,0.349824523,0.5564806125,0.8296604603,0.8563869193,0.9190085956,0.4435241703,1.2440808612,0.4282718361,1.4275489187,0.245497692,0.2454312464,1.3692846261,0.8990561755,0.2681834996,1.089154142,0.8620305875,0.0191599872,0.2625065864,0.1499482169,1.1129319963,0.8170981689,0.8962609883,0.677821085,0.9045430172,0.596381039,0.3390849355,0.3917295489,0.6180767847,1.4239628267,1.153218011,1.1134646926,1.1034382852,0.2902209543,0.0697465557,1.1491469879,0.2762077134,1.3182838088,0.3339737256,1.0032809184,0.4185900573,1.474079214,0.4468096094,0.6588224224,0.4778660383,0.755659211,1.1623717926,1.2440983313,0.3399025623,0.1834486214,0.4849088077,0.13707303,0.0568142605,0.4202025565,0.235666862,0.0343709467,0.7287351557,0.0098463859,0.8173708979,1.4531809998,1.4232062011,0.2766364543,0.2635964354,0.2223781625,0.3640372082,0.0234819139,0.4625430842,1.1625219693,0.9300569079,0.7406690109,1.3842931041,1.4109042783,0.8072716108,0.3540465539,0.2017467734,0.9371499192,1.4531005332,0.7218237056,1.1083377775,0.9124005381,0.5519285599,0.6543676185,1.1122423957,0.6273258974,0.834749835,0.3553790033,1.1771783699,0.1838740009,0.6334404017,0.1033116677,0.4430446519,0.3700937474,0.2636293492,0.8021773887,0.6175867065,1.4103684764,0.9593741979,0.4374781219,1.1244938169,1.4770872083,0.7815372245,0.2838569505,1.0292718928,0.4563778201,0.1719296008,0.1543017614,1.0431298632,0.7663206551,0.6273903689,1.0479240351,0.4471308688,1.1469102477,0.2424961161,0.2201471569,1.3866209266,0.408436763,1.4010434313,0.700776625,0.1927960599,1.4416288638,0.9544659788,1.3342588466,0.9550903711,1.4924341296,0.6584300755,0.5388692852,1.5059990347,0.6041137702,1.4456360137,0.8917271043,0.3804470379,0.586955776,0.0778518595,0.7809373889,0.2928555893,1.2960543513,0.0552305991,1.5167201508,1.3429774787,0.6781744536,0.4060546146,0.4670579011,0.1137804644,1.1320840641,0.6280127021,0.4669696849,1.3759960439,0.4192937102,0.4921603356,0.0662662687,0.9119856572,0.0056348083,1.0987779015,1.4788535418,0.6691690613,0.553515277,0.0386894608,0.952829939,0.7781868084,0.9690100697,0.3474514881,0.9630245975,1.4779365006,1.2746837033,1.2543977028,-0.4599147939,1.4183915579,1.3957977015,0.0319025983,0.8154344198,0.7023682856,1.2693370067,0.0441845329,0.9600636,0.8690471697,1.497646376,1.347768798,1.0417037181,0.149640838,0.7225118159,0.0949986807,0.2687861152,0.9146777926,0.4071613978,1.2726414164,1.4001818241,1.0558671734,1.1571596645,0.1207583877,1.3157453125,0.0349571439,1.2713390367,1.1608016067,0.0247733831,0.0008639639,0.5973737943,0.7870179987,1.1756067278,0.3725003329,0.4677102685,1.0014269239,0.4486905721,0.2926903488,0.7084877261,0.2710192858,1.2528843931,0.0678143548,0.2359342081,1.0521744505,0.5922291006,0.9113121807,1.1216172155,0.0580368938,0.8247487665,0.6002384678,0.2105824748,0.3864185798,1.5053160265,0.320705057,1.0714589042,0.5881237175,1.0169691024,0.2485287946,1.4342006149,0.1402523475,0.2316192189,0.8067307382,0.2309354867,0.3915571373,0.5438434668,0.1073074227,1.4264608768,1.3267266124,1.4204405602,1.2585168381,1.0618084854,0.7764239888,0.2548427707,0.8141624904,0.7367348402,0.8388355242,0.1792052223,0.3018062963,0.747079823,1.1774956209,0.021709973,0.1625114556,0.7862832835,0.805367307,0.9421629491,1.0210167466,0.0626456446,1.2331437891,1.2142929637,1.4629543798,0.2852518974,0.3297023733,0.928354727,1.2673277329,1.1936490695,1.4589203836,0.6571755296,0.0393327394,0.94947894,1.3785356796,1.4013276966,1.1092355222,0.5068631553,0.6847893335,1.2010130724,0.4134357554,1.042236501,0.972655077,0.2264401808,0.6016124894,1.3558602781,0.5502032826,1.0360687882,0.4818021489,1.4744005764,1.0464078857,0.6269691263,0.3854528521,0.7448499307,0.6198588625,1.0367269119,0.1332826974,1.3327325929,0.6686700089,0.6253660853,0.0643192029,0.1854525027,0.2035288096,0.5371471972,1.4804708416,0.4101049925,0.1173848495,1.3372111194,1.2303517085,0.8473266699,0.9333814795,0.019250713,0.5957474502,0.5496866159,0.0743314807,0.8054470426,1.4604070658,0.2953164818,0.2624794939,1.2033360158,0.9150936826,1.162513421,0.6038007239,1.4776161531,0.1468431073,0.2641782421,0.3183195495,0.7527532487,0.4770235268,0.697200981,1.0504954868,0.6543356917,1.4240596949,0.0244362367,0.0061782601,0.6879370226,0.8727330826,0.5527195369,1.3354710432,0.5960305835,0.9657094156,0.5011168964,0.5138946271,1.4290205027,0.0709097292,0.6019817111,1.1738829918,1.1906895891,1.1491816257,1.4275526614,0.4059652703,0.6384486224,0.0372759088,1.0675358348,0.0239821189,0.3112619252,1.1757496083,0.6270323113,0.7734436229,1.405631669,1.3725155145,0.2192432996,1.0494877599,0.1582236429,0.6490811887,0.2529881702,0.5603167665,0.4240957895,0.9046149828,0.5454255053,1.4408488982,0.6248643011,1.5053584931,0.1075593274,0.0310624731,0.6367678097,1.1158666804,1.1769855007,1.3879622007,0.3011289258,0.9609049329,1.2833673223,0.6937049109,0.2699350574,0.7833708367,0.8478891964,0.8548801871,0.4284567927,0.6379500073,1.010836751,0.6417082212,1.1628548544,1.1223548745,0.4222742898,0.719399529,0.6418122184,0.9215270277,0.1923422366,1.3359106831,0.8558401394,0.6564187726,1.3263726745,0.8241686012,0.2658927339,0.1285958122,0.8553984958,1.4665263697,1.3798689677,0.6426858244,0.2297834,1.4693627989,1.2624671809,0.1922116216,0.9110697407,0.470226004,0.7261267217,0.7661199801,0.0961666157,0.5020550835,0.4641781631,1.0665904512,0.7651538856,0.8402610921,0.2486805969,0.4108972792,1.3460013135,0.9807857545,1.4683331884,0.0973592456,0.9742578768,0.5706654603,0.4032694202,1.4281946416,0.0691036833,1.0593908992,0.5749073391,0.506104869,0.3007609264,0.6368664264,0.6065284605,1.031964701,1.1866934813,1.2118884031,0.884805953,0.5705125924,0.8452340797,0.0858699929,0.983417507,1.031305656,0.3606489383,0.4278528311,1.3063298,1.1146030658,1.1384250816,1.0910672346,0.707504503,1.0281198285,0.4035183305,0.8895917527,0.0507916218,0.0899279492,0.400067734,0.1148825575,0.2406404745,0.3583761097,1.3632491361,1.0681277732,0.4963810966,1.3732675439,1.237550994,1.0543976078,0.3860106573,0.0952373232,1.3144177297,1.0706511874,0.2253319719,1.3679103881,0.105266564,1.3050054267,0.996668942,0.4943526516,0.277609778,1.002941874,0.5260579783,0.0706442349,1.1576512646,0.2418100112,0.0667498638,1.4735241948,1.3552917099,0.9822690594,1.2755957591,0.9506538432,0.2098983843,0.8086633743,0.7209487624,0.1182148703,0.5324211318,0.9466066925,1.1977245788,0.430494574,0.6076444431,0.2744653065,0.1418748598,0.9907110855,1.3898155716,0.4332803916,0.3590330071,0.9383185442,1.1232403866,0.2479730207,0.6950368037,1.5026032218,1.4184960654,0.7531495992,1.1917636748,1.1517275011,1.4051375069,0.1734015621,0.7219466986,0.2158736239,0.0403469071,1.3498734217,0.9718275445,0.3031466674,0.2448982976,1.3939924225,0.0500829077,0.8116117582,0.0733070137,0.9767189364,0.0419487875,0.5433506056,1.4044921703,0.4938552399,0.5650347669,0.0403493127,0.0323900452,0.3682955197,0.5593409545,1.4791028779,-0.9241218417,1.3434719196,0.1759211615,0.8361766065,0.3938101892,1.0661595464,0.3108354783,0.3645661867,1.1427072765,1.3820981461,0.5354168119,1.4075011373,0.7403167335,0.2969760648,0.2460818892,0.3817130608,1.1559627494,0.2667269911,0.0626239057,0.4137378013,0.7528239318,0.7623130193,0.320370889,1.4792969899,0.9543245054,0.7889304666,0.1882897179,0.9736339862,1.006392761,0.7270526236,0.9926351159,0.7771411485,0.4625692728,0.110864371,0.1917227959,1.1401350039,0.5696076804,1.5278303012,0.3031870787,0.1443016392,0.2435539762,0.3960613382,1.2834715697,0.2376328703,1.2496400743,1.158768976,0.7620222845,1.1778106922,0.3391034301,0.0169162596,1.518307685,0.5048505675,0.512891584,1.5319377942,0.9391608737,0.5381013566,1.4910782657,0.4600067301,0.5029588465,0.7083572446,1.2442653681,-0.9773414024,0.6427706446,0.104689882,0.5023953481,0.4533837934,1.2403828413,1.2326406044,0.3693296586,0.0355884176,0.7783270288,0.5340435383,0.1651675616,0.060213426,0.9437715828,0.2549008825,1.2225070321,0.990733365,0.1752787288,1.2062912132,1.1015284803,0.0702466775,0.6119202196,0.9912689681,1.3474493048,0.1716768587,1.316869683,0.358597699,0.9909385023,0.1788219944,1.4802061854,0.5287867032,1.1053007984,0.6549300119,0.8298096822,1.1871767698,1.4085644847,0.4083238336,0.5784414452,1.5115692059,0.3328266453,0.6291932756,1.3801585791,0.4018434872,1.3242983084,0.9925947773,0.9215154745,0.9043995989,1.4855693028,0.8668667452,0.3471637955,0.4719253197,0.0748405177,0.8159527085,1.2105886982,1.3555619202,0.0059294554,0.8599764917,0.853631047,0.2635792729,0.5835590313,1.0265148572,0.6764677918,1.2791345904,1.4823518456,0.9710104742,1.0162287636,0.2321324392,0.1224304098,0.9730079611,0.4769880009,1.3596127751,1.3420408673,0.9496066745,1.0176445508,1.4344246341,0.7232134554,1.4495066213,0.184897612,0.8189378767,1.2584750023,0.8996064341,1.3446526956,0.2606370303,0.8851637599,0.8805027759,0.6423863954,1.2387899811,0.9136636279,1.466605841,1.4312568962,0.9937430203,0.3503136233,1.3510477891,0.803176369,0.3892446404,0.8841083234,0.9382640506,0.7867003156,1.3529584549,0.9404361555,0.7612130331,1.2982706138,0.6102470642,0.5939319374,0.2057112817,0.5750176198,1.3070115725,0.5011888835,0.6126588308,1.3643317063,0.7484082341,0.9862107627,0.4058406083,0.4366085779,1.1155884718,1.318038543,1.3955819987,1.3303887687,0.1891249749,0.1205379455,0.1600422404,0.521590935,-1.4768320927,0.8489838738,0.0283428934,0.0024492335,0.0531171092,0.5854479542,1.0331756346,0.3596619795,1.3107488253,0.9311239891,1.3944265312,0.9358078065,1.0667832377,0.4359370062,0.3456179218,1.0287494827,1.2754484027,1.4272022877,1.1680509316,0.9400183519,0.4160056299,1.4937314912,1.0300576554,0.6228066158,1.0793056272,0.0917905636,0.2686342067,1.3251091992,0.5412357174,1.4007041313,0.2996259774,1.3136942968,1.2742038913,1.2773757284,0.1041938944,0.3797936414,1.4837770012,0.9676286056,1.1919816145,0.3902970573,1.259873101,0.5599375336,1.2078120615,1.5067955728,1.3691819905,0.4603478231,1.504215845,0.2628313293,1.1892992716,1.1120486704,0.6022671484,0.8474751934,0.7849508689,1.4412750512,0.7814377833,0.4930922113,0.6356204883,0.5504171245,0.1533254154,0.0158159153,0.2138830926,-0.4118371822,0.8721754492,1.4722546705,1.2289518066,0.1747689007,0.9901792087,0.7958453469,0.79207606,0.7193889752,1.1094353763,1.3541893362,0.6228924822,1.4009601731,1.337350691,0.2467589301,0.6281932579,1.3821869136,1.2006145405,1.4279976717,0.7045876225,0.6248613008,0.1123987332,0.9697892424,0.3947171434,1.1394526488,0.1353393614,0.2276405944,0.3868086387,0.6628301376,0.0677449682,1.4097005303,0.4299810437,0.8045994411,1.3016171303,1.3728255201,0.3749717782,0.35279709,0.0380316997,0.7447465518,1.3673131478,0.9152132246,0.2711700608,1.0895817242,0.0834546357,1.1417149176
