encog,BasicNetwork,java,3.4.0,1,1589639390152
[BASIC]
[BASIC:PARAMS]
[BASIC:NETWORK]
beginTraining=0
connectionLimit=0
contextTargetOffset=0,0,0,0,0
contextTargetSize=0,0,0,0,0
endTraining=4
hasContext=f
inputCount=235
layerCounts=236,61,61,61,236
layerFeedCounts=235,60,60,60,235
layerContextCount=0,0,0,0,0
layerIndex=0,236,297,358,419
output=0.0042553191,0.0042553191,0.0042553191,0.0042553191,0.0042553191,0.0042553191,0.0042553191,0.0042553191,0.0042553191,0.0042553191,0.0042553191,0.0042553191,0.0042553191,0.0042553191,0.0042553191,0.0042553191,0.0042553191,0.0042553191,0.0042553191,0.0042553191,0.0042553191,0.0042553191,0.0042553191,0.0042553191,0.0042553191,0.0042553191,0.0042553191,0.0042553191,0.0042553191,0.0042553191,0.0042553191,0.0042553191,0.0042553191,0.0042553191,0.0042553191,0.0042553191,0.0042553191,0.0042553191,0.0042553191,0.0042553191,0.0042553191,0.0042553191,0.0042553191,0.0042553191,0.0042553191,0.0042553191,0.0042553191,0.0042553191,0.0042553191,0.0042553191,0.0042553191,0.0042553191,0.0042553191,0.0042553191,0.0042553191,0.0042553191,0.0042553191,0.0042553191,0.0042553191,0.0042553191,0.0042553191,0.0042553191,0.0042553191,0.0042553191,0.0042553191,0.0042553191,0.0042553191,0.0042553191,0.0042553191,0.0042553191,0.0042553191,0.0042553191,0.0042553191,0.0042553191,0.0042553191,0.0042553191,0.0042553191,0.0042553191,0.0042553191,0.0042553191,0.0042553191,0.0042553191,0.0042553191,0.0042553191,0.0042553191,0.0042553191,0.0042553191,0.0042553191,0.0042553191,0.0042553191,0.0042553191,0.0042553191,0.0042553191,0.0042553191,0.0042553191,0.0042553191,0.0042553191,0.0042553191,0.0042553191,0.0042553191,0.0042553191,0.0042553191,0.0042553191,0.0042553191,0.0042553191,0.0042553191,0.0042553191,0.0042553191,0.0042553191,0.0042553191,0.0042553191,0.0042553191,0.0042553191,0.0042553191,0.0042553191,0.0042553191,0.0042553191,0.0042553191,0.0042553191,0.0042553191,0.0042553191,0.0042553191,0.0042553191,0.0042553191,0.0042553191,0.0042553191,0.0042553191,0.0042553191,0.0042553191,0.0042553191,0.0042553191,0.0042553191,0.0042553191,0.0042553191,0.0042553191,0.0042553191,0.0042553191,0.0042553191,0.0042553191,0.0042553191,0.0042553191,0.0042553191,0.0042553191,0.0042553191,0.0042553191,0.0042553191,0.0042553191,0.0042553191,0.0042553191,0.0042553191,0.0042553191,0.0042553191,0.0042553191,0.0042553191,0.0042553191,0.0042553191,0.0042553191,0.0042553191,0.0042553191,0.0042553191,0.0042553191,0.0042553191,0.0042553191,0.0042553191,0.0042553191,0.0042553191,0.0042553191,0.0042553191,0.0042553191,0.0042553191,0.0042553191,0.0042553191,0.0042553191,0.0042553191,0.0042553191,0.0042553191,0.0042553191,0.0042553191,0.0042553191,0.0042553191,0.0042553191,0.0042553191,0.0042553191,0.0042553191,0.0042553191,0.0042553191,0.0042553191,0.0042553191,0.0042553191,0.0042553191,0.0042553191,0.0042553191,0.0042553191,0.0042553191,0.0042553191,0.0042553191,0.0042553191,0.0042553191,0.0042553191,0.0042553191,0.0042553191,0.0042553191,0.0042553191,0.0042553191,0.0042553191,0.0042553191,0.0042553191,0.0042553191,0.0042553191,0.0042553191,0.0042553191,0.0042553191,0.0042553191,0.0042553191,0.0042553191,0.0042553191,0.0042553191,0.0042553191,0.0042553191,0.0042553191,0.0042553191,0.0042553191,0.0042553191,0.0042553191,0.0042553191,0.0042553191,0.0042553191,0.0042553191,0.0042553191,0.0042553191,0.0042553191,0.0042553191,0.0042553191,0.0042553191,0.0042553191,1,1603600032098.092,1490837041284.597,1617989647576.1943,0,1592258858482.9287,336467.9297943578,3533892.8704057173,1415853696688.8774,262284681281.89038,0,0,1207406290270.5938,1541429786259.353,34221399420.63343,1605349142617.399,0,168957504548.33575,1598267059786.3381,1580338043876.9922,13681725939.976664,49909217573.88571,0,0,1186105956692.955,0,1384279690354.423,1573381165952.8276,1354220713054.1934,1600672564082.3926,1555315184151.7468,50254268820.92337,0,1576479055704.1494,99265104406.10857,1512558478016.04,0,1438454775822.0996,633464311155.916,1505759473430.8286,44964747138.61679,1575154674600.3782,1600607385532.294,1619829037556.2864,0,1530391542574.0586,1595786026264.0645,20566572464.400967,1518276284802.6738,1512089164591.2966,0,1296088235477.1538,1190244808741.544,1553050792765.3755,1603490121674.929,160359482934.41122,0,1263012063769.9124,0,1593626138738.888,1616844476895.1736,1,373898.2816361592,0,372050.7871377698,0,0,0,0,372580.9820041286,0,0,0,0,0,0,373844.2732474015,0,0,372704.279537847,0,0,372834.4671893542,0,0,0,0,372701.0686183135,361173.5675305175,372719.4433524443,372613.2103456337,0,0,372875.7614631861,0,372641.0873363655,0,371970.8691955758,0,0,0,372315.3923802016,0,0,0,373232.8498523796,372385.283176859,0,0,373240.4941897651,373577.4790614423,0,0,0,0,375090.1117099643,372551.6603857871,0,373035.9809386927,0,377513.9748190594,373625.0932974237,1,0.0357142857,0,0.0357142857,0,0,0,0,0.0357142857,0,0,0,0,0.0357142857,0.0357142857,0.0357142857,0,0.0357142857,0.0357142857,0,0.0357142857,0,0.0357142857,0,0,0.0357142857,0,0,0,0,0,0.0357142857,0,0,0.0357142857,0.0357142857,0.0357142857,0.0357142857,0,0,0.0357142857,0.0357142857,0,0,0.0357142857,0,0.0357142857,0.0357142857,0,0,0.0357142857,0.0357142857,0.0357142857,0,0,0,0.0357142857,0,0.0357142857,0.0357142857,0.0357142857,1,141,150,151,133,145,134,160,144,33,223,33,151,160,149,143,152,138,145,33,141,33,143,159,133,144,162,145,162,33,133,146,133,154,161,33,141,146,160,149,47,33,50,58,51,52,46,149,162,33,141,144,159,162,150,160,145,33,146,162,150,33,147,150,145,162,146,33,141,145,148,138,149,141,138,145,33,141,33,143,159,162,144,162,157,159,154,161,133,106,162,152,33,158,160,151,160,136,159,47,33,137,152,146,133,138,145,33,151,138,151,33,143,159,133,144,162,145,162,33,133,146,133,154,161,33,139,159,160,33,137,162,137,162,145,162,45,33,160,143,106,141,33,133,146,133,154,161,33,137,162,154,162,33,137,162,137,162,145,162,33,133,158,160,158,47,33,155,106,160,153,33,145,144,146,33,50,52,46,145,33,146,133,154,161,160,134,162,33,137,162,150,33,141,33,106,162,136,159,147,46,134,144,133,136,159,147,154,162,149,141,33,137,162,148,144,159,160,151,162,145,162,47,33,148,150,160,137,162,143,106,160,148,106,162,152,1
outputCount=235
weightIndex=0,14335,17995,21655,35815
weights=##0
##double#35815
   -188856.6456602609,-190603.6194756649,-190950.1219401492,-50.4534524258,-187998.0081911553,-195362.5169459239,-193262.0553959039,-193702.3480249409,-195518.0573757941,-0.2579610807,-3660.2316326371,-166516.6152162133,-196493.1950136655,-194675.9468783427,-196364.8746429296,-0.9442827343,-187832.2563258421,-188735.7495031612,-189037.4437351532,-186942.5345557673,-195362.4566430728,-23169.8034117056,0.7107678775,-195677.6560643867,-1999.491290119,-191780.315054985,-185650.3366052693,-195701.7182971818,-188650.2522723143,-195829.0157794923,-188949.8576762339,-0.2358080044,-195679.8187026625,-151031.0534178205,-188143.3761158578,0.7848644205,-181101.177784933,-174652.5995209862,-188485.6027990264,-195426.1016621328,-188300.6683098355,-188523.0709158069,-195860.8182960594,-0.4944459997,-195860.6533969888,-196071.4558641145,-195703.2080804401,-188658.4464994069,-195426.0957902363,-5541.9314945317,-195964.755843805,-183812.5639945003,-196227.0624767266,-191867.3127116563,-189499.2819353042,-0.5829837729,-180062.3908814666,-5611.82468419,-196128.2576788634,-196303.6110824252,-196496.9300212016,-0.1513114095,0.2081573854,-0.5917060548,28.5893562804,0.7317687127,-0.8485435188,-0.6344181084,-7500.8421648673,0.0460284377,-0.7713266158,-6262.977002065,-548.4543427573,0.2095333241,-0.6528975999,-0.5323906585,0.4143422362,-88.2293935956,-3.6996909391,-65.3777203779,-45438.581205907,-0.0556106882,-5774.1906039665,-0.6288091416,-380.047542592,-0.1139785408,-1.4670705955,-5.489977122,-2876.2228582275,0.2543363653,-0.7838597195,-4623.1490968095,0.0849338078,-0.7173618008,-212.7227391891,-30.2390824582,-0.2732974799,-0.0879646332,-11.9457306971,-0.7696824903,-4.586739968,-0.6381780387,-0.4154223674,-0.9790310142,0.3916978882,-0.7702825372,0.4949084591,-46624.4024364621,-1.1663331951,-1.0828966695,-0.4469448127,-5052.5641627109,-0.5678012928,0.586502121,-0.9441981459,0.4582711434,0.5534208482,-5781.1511989819,0.1617553402,-0.6382667553,-1.8616552158,0.4427704484,-0.3509072205,-3.8011778725,-0.0439717038,-0.5870497392,0.2315518449,0.2016091735,-0.7255797748,-6625.0977736909,-9.0439715971,0.2718814517,-5018.5124222171,-2.7000006402,-3.1337193156,-2.2933766726,-3.6573880391,-0.0330126749,-43.0325489002,-2.2386450612,-26.4403016055,-45437.5365060749,0.058796124,-4576.0091178311,0.3656590907,0.119883327,0.4231475515,-0.0719800029,-18.6995619661,-8975.3472004778,-0.8268342194,-614.1963269751,-2568.6899402564,0.2853295565,-0.2834653669,-4.6839823178,-25.1825832841,0.0100088839,-0.2991602033,-13.2444386527,0.4354147758,-1.054983033,-0.152385105,-0.0456382756,-0.1651503984,0.3164943941,-2.4660222704,-3.2832699618,-44657.4075926614,-1.6486792483,-3916.6881567938,-6814.0381885108,-11.081525018,-0.7358370784,-1.5937100802,-1.088481066,-0.2000576994,0.1693243005,-431.1838271344,-0.7940083469,-0.605617357,-2.9180798044,-2.5612879605,-0.4926093513,0.1378438264,-0.906460048,28.9010399175,-0.5493786593,-1.0660470815,0.0382167995,0.6380956379,-1.6303021813,0.4053868171,-5042.5770084222,0.0476606114,-0.3364053663,-6469.9358972499,-0.6303436263,0.5027448187,-129.6996779418,-3.4704980967,-91.962629042,-45438.1795614103,0.4824292069,-3955.4341205911,-0.9572049255,-109.756750263,-35.2473527692,0.1061640701,-18.9304549956,-7.3796199344,-1.0772504362,-0.5490774798,-4038.3289971915,0.8042958765,-0.5180311864,-0.5885050572,-7.1753230592,-0.5278167446,0.3914109352,-1.164641473,-0.7856131966,-0.9226220851,-11.5270327032,0.4169091987,-0.5468064054,-0.4898387649,-0.2042733131,-0.1147222202,-47792.6625080305,-1.2394222381,-0.9272454684,-0.0766737769,-8206.5898766333,-0.0569579651,0.709416615,-1.6133698552,-0.6924334518,-1.0180022817,-9835.0724154211,-0.1930555528,-1.551081754,-2.6875800104,0.8612876412,-1.9176297689,-1434.7191697948,0.0798014212,-0.8739278019,-0.9666050101,0.2628303241,-0.772539907,-6940.9481327167,-0.6313525015,0.1452541722,-5379.4190992347,0.1024294406,-0.3778474145,-6011.973702639,-0.7822125384,0.2464689391,-141.333210212,-6.1996975966,-110.4366840768,-45439.031929369,-0.4341985254,-2659.5994257221,-0.1279442058,-3.3310776104,-0.8977743764,-1.1209591833,-27.0434175703,-8465.7777789113,0.1340416634,-780.518382968,-3901.2005988399,0.9544642979,-0.6362058643,-1.9833727097,-7.4948951282,0.6850280259,-1.0329990726,-11.7434533631,-1.2939934952,-0.5804962712,0.2321241094,-0.9718560028,0.1978489562,-0.0416208516,-0.034851516,0.9259332134,-45184.4379656421,-0.3921292588,0.6890065486,-2.4335904192,-2298.2175059632,-142.4114347977,0.1309422231,-0.3035966596,-0.1833876325,-0.8360275014,-10595.5650940327,-0.5848368447,-1.0131533498,-2.1325519622,0.4374457809,-0.6093785565,-0.6704775871,0.3000188003,29.0928877169,1.0224816654,0.0392477577,-0.8130033602,-7955.162241744,-2.3294826703,0.6773401371,-5703.9220580741,-0.0766781712,-0.6080153753,0.8470202951,0.6833001326,-0.888264949,-52.3424371316,-2.6178283464,-36.8690336731,-45437.0241939778,-0.4277067314,-4533.666216763,-0.3611426773,-541.8285614005,-13.2517007948,0.7938667447,-21.7459155395,-186.6728661673,0.3140759173,-187.8811762907,-5365.9758413071,-0.5412826285,0.854873557,-495.8650567521,-25.1915767779,0.3333550588,0.5569491767,-12.3045131158,-0.5145704158,-0.870523621,-1.3799248546,-1.2265041701,-0.2916492336,0.0632910688,-0.706614325,0.2634963757,-47290.8412823016,-0.806322588,0.573594063,-1.4034822954,-7947.4359579507,-0.3238638335,0.5250128014,-1.8479659316,-0.3974301434,0.5733325828,-6423.7887793356,-1.124993889,-0.9837671028,-6.5947317238,-1.0225688657,-1.6470246795,-1049.8907408913,-0.9834354309,2.7445750438,1.0045101782,-1.3291832433,-0.6736540152,-6945.6530779837,-1.0479538815,0.2093770324,-5458.237858214,0.8675644619,0.9118484147,-5210.5701222774,-0.2788876729,0.6369448268,-219.3619202554,-3.4262232687,-36.5212047383,-45438.6503090554,-1.1682421012,-0.8194070717,0.4398167479,-8.8835667369,1.0301788107,0.07930992,-8.308303229,-7096.7722414424,-1.4447284236,-739.9358035655,-3707.9247774743,0.3657086617,0.2088274996,-13.6909613121,-6.2415883779,0.8676311111,-0.9815502878,-15.5098029644,-0.0079184511,0.1335988919,-0.5624077708,0.3030246858,0.8499721682,-0.2041898523,0.1872942483,0.634062709,-45604.2885027539,-1.9668199538,0.5467017072,-7258.5279264961,-7182.9677691566,-54.9844829792,0.6461679288,-1.2454258714,-0.0449301577,0.3896484393,-1762.6371949626,-0.0620489973,-0.6076415163,-8.4733213015,-0.9324349757,-0.8619539524,-1435.283736896,-0.9539680128,28.6235176917,-0.1700264859,-1.2564464283,0.1274889115,-7472.1384133887,-44.5457737384,-0.8100363586,-5415.3344964649,-0.3553789645,0.5243873533,-0.5774939794,-0.1983169333,-0.4067903852,-218.6512017171,-3.7513640547,-77.8415162508,-45437.2177328405,0.6014953659,-0.4549442271,0.2789894987,-0.0595953028,1.0103736183,0.0972814506,-8.4507572312,-4170.2366952976,-1.1088630109,0.1524762866,-3771.198813662,-0.7385290834,0.4275787903,-56.2923992491,-6.9806809701,-0.0712497432,-0.178524542,-18.7374185612,-1.3697387083,-0.7692928918,0.4808955913,-1.3292089915,-0.8058402621,0.8559296961,0.363178277,-0.4140578138,-44656.017141751,-1.9275112713,0.4779732228,-1.3357629117,-1922.9466687345,0.2565496568,-6.0543002172,-1.3984753329,-0.4267331849,-0.0736177385,-10443.3600112745,0.2888365469,-9.5663451875,-6.9584256741,0.7782299487,-0.7822508101,-0.6636967016,-0.5029846742,2.9719024089,0.8775057645,-0.1960523894,0.1114950911,-7216.4744698325,-0.2816969227,-0.3749212995,-6314.666895586,-0.1887476702,-0.3217926052,-5611.1348652868,0.5063048947,-0.177303677,-217.518830377,-2.5725174526,-209.5859598778,-55221.4921239466,-0.0416272369,0.1617460162,0.6411423923,0.5050380278,-0.0127647406,-12.5992353658,-8.0836961624,-7166.7527638006,0.2128846587,0.2989111341,-3248.1739605734,0.456054462,-0.5348895655,-60.1788803317,-26.3244444857,-0.5993440661,0.708848551,-13.1460641842,-0.1224576247,0.0258367273,-0.1323975369,-1.0100427291,-0.4874983293,-0.7992216575,-1.0352401332,0.2573150943,-46582.0092173617,-0.7385246608,-5269.9934814839,-7381.0217391428,-293.2122440913,0.809028191,-0.8399774151,0.4691602205,0.3252109863,0.4338500116,-1992.6433587333,-6596.8234591585,-2.0540100312,-5.0286950911,0.0710112277,-1.2770683174,-950.155623372,-0.7249158362,29.3395657533,-0.5293274811,-0.0236523913,-0.7114711099,-6942.3606310629,-44.5034128739,0.6906081004,-5645.4671898753,0.4712137934,0.017123159,-5345.9989817022,-0.4716714919,0.3289520563,-172.4206736271,-2.9995955268,-76.6691373286,-45437.2570494518,0.2165042198,-0.5835474613,0.6089678326,-494.7615229787,-0.1968205076,-0.1520838415,-22.3559120073,-7579.3601215128,-0.0217830898,-973.6326103613,-4045.6671961453,-0.6735850621,-1.009758422,-119.9835371957,-6.4760571181,0.461360203,0.8214329781,-13.7225884309,-1.1354741433,0.2303752683,-1.7592395591,-0.1496793435,0.5893956316,0.852711469,-0.2118429223,0.5300254599,-47494.6145471,-1.309447366,-0.1451187951,-7469.8051037733,-7328.2477371655,0.0932929093,-0.5035228952,-0.4007389026,-1.0405964268,0.4925594899,-2159.3355054475,-1.3492366577,-0.9337050735,-5.9372687286,0.8445098028,-0.7516392661,-0.9138171027,-0.9619751211,29.0507769164,0.6348630048,-0.4023499264,0.9254719137,0.3100153532,-23.85938463,0.5652915049,-5060.088687654,-0.2080356574,-0.2946355462,0.8987766193,0.4103426906,-0.1072843332,-128.4935823591,-2.4565479431,-30.4658261965,-45438.4250360709,-0.4338787588,0.4214393954,-0.7320702807,-0.3674739133,0.0733670995,-0.1557456607,-21.3761442986,-4.2237637971,-0.2106431144,-357.6497886005,-4106.4581145367,0.7115271167,-0.5022687867,-59.7697536055,-26.0614816976,-0.5411024484,0.4701576345,-14.6721653069,0.3752938462,0.3048985486,0.0196725971,-0.6869826722,-0.3568513641,0.7304222811,-1110.3181342986,0.8761470979,-45835.5316187466,-1.0659816117,0.3688311629,-0.4116497081,-8568.5562302503,-0.7819630354,-0.2954282156,-0.8816429825,-1.0045008468,-0.5854357108,-10215.5977979063,-1.0114603691,-2.2644881218,-6.9930085018,-0.4705945235,-1.3959064974,-1434.7246118278,0.0758602673,1.7441667637,0.2125225005,-1.3997843365,-0.9604787253,-6938.20284286,-24.9955761312,-0.2824547382,-5510.7610297097,-383.0959664455,0.4014520892,-5012.770172536,-0.124055497,-0.7336545194,-218.9043167433,-2.4011411784,-92.682423408,-45438.5791608402,0.3188579388,0.4941469708,-0.5828650649,-580.4893264212,0.6177948758,-0.1059834251,-6.5918030828,-7544.789296329,-0.7759296576,0.1377891765,-3504.3381250252,0.1695163456,0.3032372735,0.5030672455,-8.1382166874,-0.6359631377,-0.3669593233,-14.6604409379,-0.1047003498,0.1427331844,-11.6544317759,-0.6426470376,0.203273524,-0.1239806735,0.5566472224,-0.8827726945,-44656.7427029523,-1.1638287581,-0.1129425324,-6292.2171564766,-6429.6985381019,-465.910720604,-0.5271541564,-1.9465401029,-0.1465696083,-0.0599302709,-9608.1484420392,0.517503664,-1.4091540426,-7.6629936091,0.123485019,-0.6286035872,-1.1767013143,-0.5179493605,4.7158565369,0.6725982886,-0.0587996254,-0.3402233843,-6734.3087586406,-3.1155135134,-0.1334296758,-393.5226129341,0.5203095203,-0.2166030711,-5615.3532118234,-0.4399757936,-0.565983747,-192.4039608535,-2.2718384295,-160.8637493636,-45441.0709470454,-1.1826834951,0.6425999623,0.8270907861,-0.5546503102,1.0474888914,-0.3312247367,-6.4674856212,-9167.3476267973,0.4707122099,-147.8630870491,-3784.6395004602,-0.2480216423,-0.2422660753,-2.8336788593,-8.3315760774,0.8516307376,0.2208487609,-15.1419110255,0.3484730136,-1.7150760931,0.850282216,0.4328523528,0.8251980769,0.1061254335,-0.4189899902,-0.5754154061,-44657.1166661465,-1.7254174548,-0.0867250127,-7920.7340794307,-309.3494013243,-1095.7075335052,-3.1299652579,-1.1369950553,-0.5419530165,-0.4745340231,-757.401730709,-0.0869748939,-2.2821466737,-2.646424015,-0.8610616615,-0.0249367469,-1144.8099608583,-0.7659211474,28.8357784569,-0.4401770654,-0.942621593,-0.2853262138,-7007.0911089721,-39.7155105626,0.8554397579,-4259.9944474554,0.4457242979,0.5121365267,-5478.9584251741,0.8852719259,0.3672282013,-218.7780170322,-3.1629544926,-112.3404114409,-45437.3811446994,-0.4017681199,-0.5509892823,-0.7979139336,-531.2679245751,-0.3179611189,-0.1085837557,-26.1814408478,-7059.8311285411,-1.0691254311,-10.9418965342,-0.6521145022,-0.9330044133,0.1962605278,-0.0324237149,-7.0297846247,0.79712195,-0.3003869339,-14.0208561358,0.2509043087,-1.2471812378,-0.8863394478,-1.0360153829,-0.3707515545,0.2266335769,-0.027003899,-0.3321469685,-47142.0857130773,-1.612690566,-0.7791480446,-7401.7626218779,-8547.8051987062,-0.7030314847,0.9592555696,-0.4508310735,-0.9003419618,-0.2773095962,-4900.1001389066,-0.0597911542,-1.1455608826,-4.2329175826,-0.6637459905,-1.3742390706,-1599.9197980646,0.2389967762,0.303690582,-0.0567455746,-0.6732539124,0.0815590074,-6800.38698936,-0.608167529,0.6242044884,-5557.4330456712,-0.6421239076,0.165037372,-5547.4991077447,0.7859849396,0.2938925219,-219.2691768947,-3.7531495464,-41.0186653694,-45438.3614251358,0.4082991493,0.8416203032,0.6369964139,-11.0814328119,-0.866655954,-0.1379906974,-25.3127817448,-9021.0018179128,0.0525476075,-426.3411455327,-3503.5100058951,-0.2696452375,-0.1822756186,-1.9694228529,-7.311500348,-0.3118105422,0.2395893937,-7.4228644301,-0.2990930211,-1.2335777872,-0.3355362769,-0.7946882796,0.4981003102,-0.6794239439,0.2431943271,-0.8433345205,-44657.1346295891,-2.2430078328,0.6242014206,-5694.5999282896,-2606.2452173499,-1995.8191877795,0.4606195325,0.077032794,0.2834492782,0.4784244502,-9574.0278984474,-1.1773188809,-1.4285151604,-9.6380843106,0.5609802707,-1.0930262117,-1.0742765853,0.5256670473,-1.5654049796,0.2844416345,0.344315654,0.7539822883,-0.3092117458,-0.17813082,1.0116086789,-5552.8075814169,-0.8222045421,-0.3309022101,0.469660053,-1.0236043211,-0.1478220073,-52.3764761233,-3.6073788012,-37.4855208221,-45438.6843584716,-1.1330811485,-4595.3976097497,0.7866046245,-0.0097894224,0.395236922,-3.1523876668,-8.8081155062,-1154.9065687773,-1.3906454311,-400.6830113839,-4068.0062414331,-0.1213791358,0.824230956,-181.8064899078,-25.8289717279,0.9615383973,-0.274376649,-6.7290707939,-1.3529195235,-1.052750969,0.2347906365,-1.3661739758,0.4384562008,-0.130036967,0.9121690708,0.6317627084,-45595.1695047143,-1.9456306755,-0.4246384431,-7021.4019549264,0.2108961752,-0.0908306434,-1.836811354,-102.3598920321,0.690532865,-0.4978854077,-430.7671878811,-1.2108607728,-2.3838271514,-11.1090578118,0.4950972047,0.0097723782,0.3508152796,-0.7660944325,-0.0697870401,-0.8882269941,-1.2262636719,0.0408513744,-7363.6221180577,-2.7226302691,-0.2921051175,-6062.9902856405,0.548477718,0.3195449304,-5488.081400257,-0.5910698774,0.9752341312,-62.4535228369,-3.5311741764,-44.134136998,-45437.7215457894,0.3023086294,0.2411803812,-0.6956655015,-1046.3616244388,-0.409859196,0.3133304393,-25.5017899549,-8712.0772813899,-1.3119701746,0.9529414067,-4325.1074164132,0.6758727474,0.5620135136,-24.0691854606,-25.1859371584,-0.3596516589,-0.0697586318,-16.9919071658,0.2030950617,-0.8738341126,-0.1551352274,0.2612829576,0.2171139421,0.5116596832,-0.9450883244,0.2465567141,-46947.5151367106,-1.1579148241,-0.7511842548,-7469.4942668266,-298.4135480557,0.4295220438,-0.2815662428,-70.2055722857,-0.9950245994,0.2830938433,-430.2778698806,-6863.8515361476,-1.0580864393,-10.0102896763,0.2176470615,-1.1352783521,-1487.6490080172,-0.1707710438,0.4004735991,-0.2463922968,-1.1242305129,0.1702860819,-8166.5183993008,-1.2113593377,0.9113599167,-5522.7979726166,0.2437177378,-0.952711749,0.486425279,0.1359086228,0.262679915,-218.2290841326,-3.120255151,-172.1462997771,-45439.0471343599,0.6770414434,-1.0037936198,0.2709696537,-3.5908248454,-0.4741988012,-0.9044850597,-9.0399683376,-2.3516299749,-1.1664705576,-561.6146293842,-4038.3206026665,-0.6874482469,0.8036967636,-1.092131714,-8.2417873627,-0.376492649,-0.082085149,-14.5416734168,-0.3849905936,-8.6748791019,0.1346879598,-0.741410751,0.0214046604,0.6834305181,-0.5443620372,-0.0851589229,-45176.260192569,-1.0045383173,0.0851787509,-0.9998119279,-7406.9882129719,-134.3145868738,-0.7703131794,-2.3386509815,0.5891689595,0.2901401128,-9884.6606942058,-1.2614011645,-1.0480807465,-1.9774893896,0.5598098721,-1.4504070823,0.6450100633,-0.1745148213,28.4936353549,-0.8921870897,-0.3259672923,-0.9372488366,-0.921159942,-0.8576403923,0.0945030443,-5249.4260313379,-0.5773305091,0.3753458642,-0.1264803431,-0.8251509239,-0.1433116893,-193.8827524182,-3.0261537583,-171.6551980783,-45437.1729933389,-0.3333640314,-1.1606946499,-0.6539428143,-991.753715241,-0.1219388889,-0.7840324421,-18.898107573,-3.411022664,-0.2137046907,-272.3896961899,-4178.4348822455,-0.8383849925,-75.6308849632,-1.6234872572,-30.2221188738,0.8610120029,-0.51443851,-13.1601278726,-1.0731638672,-0.9980931353,0.1142858102,-0.0634701473,0.0906881313,0.1840283059,-1048.7487380892,0.0255662232,-45214.0210000121,-1.1377037544,-0.6074441803,-1.877279842,-8816.2762612373,0.2215871702,-0.7105743359,-1.9216863103,-0.54199025,-0.6368440642,-6528.6322073922,-0.020551774,-2.1486742727,-1.4282651675,-0.06949425,-0.9910102776,-718.8921336602,0.5020346645,-0.5711750612,0.6869205925,-0.6583701024,-0.0104891999,-6363.2830144518,-0.3373999594,-0.7124514989,-5140.7007882536,0.8543130252,-0.7278981883,-5139.7549776666,0.0294331876,0.140449894,-52.4078168386,-1.5948821703,-91.7440949431,-55828.7623986115,0.445959908,-1.0825899198,-0.0615096771,0.4335435549,0.6785171227,0.0429658442,-6.5327965986,-7168.1393164077,-1.1371818154,0.1318204023,-3367.7605875843,0.4145142304,-0.8035288415,-69.0294531462,-26.0956460093,-0.5483795489,0.6154736662,-13.4563641659,-1.1245230477,-0.7293837906,-0.2378417485,0.0149702083,-0.1464790835,0.840463675,-577.1036235493,0.2773886387,-44693.9423467648,-0.4471828524,-35.8918144229,-6629.9805738809,-0.7099515527,0.010309213,-1.1977080489,-5.5330904876,0.2483347225,-0.5066599513,-430.7496575429,-0.8831052012,-107.851707173,-2.3992187055,0.6833603249,-0.986268397,-1435.7912207718,-0.6140230364,28.3964437567,0.0084928534,-0.6801506669,0.7676551456,-6805.5422033729,-15.4752449718,0.1172841391,-6095.3034659257,0.8748971573,-0.2233483985,0.1412018853,0.766797027,0.5334475124,-217.8746585353,-2.1699781048,-31.1334569265,-45438.3034671393,0.6914301101,0.2210584915,0.2489390423,0.1665517168,0.9607434188,0.1822919142,-6.5173928671,-9170.7875137613,-1.1658969686,0.6784578116,-3662.8610232636,0.7278726695,-0.8369089372,-698.7098450518,-7.3955289286,0.2820970232,-0.720548065,-21.7370224045,-1.3063484665,-1.1237958215,0.0623545161,-1.0561624238,0.2176946484,-0.5752766112,0.4726525102,0.82220405,-44656.2502908867,-1.6106817073,-0.1919165899,-5214.9605934371,-717.8199395338,0.7660080244,-6.8507793752,-1.2163274581,-0.5294954224,-0.4533236343,-1276.4298974885,-0.0302797139,-1.4216487137,-12.7679115039,0.5038100627,-1.437803153,-0.5254621155,-0.332921005,29.1335368799,-0.6483274812,-1.052355996,-0.034172321,0.6690240128,-35.4284291156,1.0142003727,-6263.2333731468,-3283.0624334979,0.4832345885,-6344.4678252673,0.7768081621,0.7863454438,-219.0697744685,-3.8998573397,-36.5696776308,-45438.3566718632,-0.656131913,-0.2158370341,-0.2653626752,0.8861005184,0.0323277268,-0.0206232488,-27.0090551546,-1578.2324297542,-0.7312719846,0.633020605,-4750.5880686971,0.114769453,-0.7040670003,-205.581450776,-25.315447581,0.1053906106,0.0753428484,-5.972205616,-0.6770850139,0.4757598983,0.009953444,-1.3885493439,-0.9817468202,0.6413091613,-0.3648079553,0.2555547384,-44656.2428716165,-1.3863728506,-0.1901809592,-0.4984054346,-4501.6492243161,-1.029071477,-17.4281401179,-1.9615314036,0.1863421649,0.6436385315,-8192.0802436848,-1.0095785477,-0.8712365995,-9.9344877772,-0.7980282104,-0.6503448612,-1235.5586061308,-0.1031712924,0.3179030211,0.2954773365,-0.8801686015,0.2710060228,-6077.0531626692,-1.2866175191,0.0396692129,-5830.6821930633,-81.6776666067,0.7910848471,-0.1706235232,-0.7626341184,-0.5267540776,-52.3227852731,-3.5875685875,-26.8122546828,-45437.2874171801,0.7325890366,-5154.7684385259,-1.0383811854,-840.0335549896,0.0644680367,0.1367010959,-6.3527740048,-3922.2011337458,-0.7598281358,-0.6901963676,-3902.2481904424,-0.384460134,0.9149124659,-36.9132751784,-25.9597103893,-0.3449095342,-0.4024326934,-15.8745540261,0.3802363619,0.6391972569,0.8193401012,0.3591909495,-0.9297866505,0.3798505992,-0.9903106521,0.5289454655,-47305.9805116427,-0.721497005,-0.5114950657,-1.5380002905,-1636.2068817564,-278.686254915,-0.2891250524,-0.4163898845,-0.9130852909,0.6819709188,-10270.1198359669,-1.0926585338,-0.301785073,-6.4260389251,0.0836260421,-1.3822589101,0.3355748017,-0.7706351902,28.6964290006,0.7978158514,-0.361194389,-0.2618114389,-6804.6603742637,-10.0908269374,-0.0020610036,-6091.173942213,-624.3958110756,0.3896759612,0.4883925906,0.3127063872,0.1978038088,-218.9502898551,-1.3689411792,-63.4682230483,-45437.9832357657,0.7264761512,0.6392809405,0.1933268162,0.0587407519,0.8495656763,0.4173846141,-27.0866219262,-9252.8280964289,-0.3490074377,-0.2879880386,-3728.9574734729,-0.1326823892,0.5087311015,-209.4932237598,-7.8188475374,0.9416931217,0.4954052338,-21.0471180816,-1.0935485971,-0.8646875783,-0.5068243966,0.3757874956,0.4527056344,0.5787122943,0.0060247877,0.0955366331,-47171.7972376442,-1.416119176,-0.7990750929,-7672.9635806946,-472.0967797522,-0.4446793604,-179.2701175679,-0.4335049048,0.0265145269,0.283341315,-430.6167836554,-0.1357969096,-0.6460209156,-8.5858458003,-0.660976292,-1.867068114,-0.3945340612,-1.2792776363,28.8117173694,-0.783756095,0.5109526375,0.1546054288,-8363.952416964,-8.3528521995,0.8400999307,-166.7298173046,-0.9667715658,-0.1141018261,-6470.5074553504,0.3929619034,-0.6066555139,-173.0370936371,-2.2974904958,-159.8771200237,-45440.6477479213,-0.3488608711,-2.6613549118,-0.6157390652,-542.6608116215,-0.8751322149,-0.1422863313,-17.3059125122,-139.8939440198,-0.532540724,-17.0127852066,-2570.1639320037,0.9515142156,-47.4625427436,0.1226314159,-7.3318345323,0.0853746683,0.0202320759,-12.902338588,0.373446736,-0.506187562,0.7594521073,-0.466591784,-0.9262902648,-0.9098764772,-0.9537838796,-0.4975067484,-47196.8933968432,-2.0026403212,-0.2476997079,-5.1575140382,-9134.6326938505,-0.3789199162,-0.9747469515,-1.7392726542,0.6979139864,-0.8705022703,-716.18092954,-1.2077483779,-1.4995709069,-2.7798952711,0.930437217,-0.4480148687,0.7396221117,-0.9302447576,29.3348914812,-0.6167966737,-0.0636698038,0.8333668648,-6951.5317296412,-1.4387817017,-0.1284323009,-5493.7880208054,-0.9624366185,0.4313114336,-4948.320270635,0.36447157,0.9436675436,-209.0252352541,-2.0056062134,-44.9427184766,-45438.1321976467,0.047587693,0.7068560352,0.0058871189,-503.0826032068,0.5057596238,-0.4691264028,-25.3121192986,-8245.4970522026,0.3964485853,0.4416364716,-3841.209770798,-0.8384950993,0.3603372833,-75.6313631277,-24.8340394294,0.8099480683,-0.8151684564,-17.9718667545,-0.5751286943,-0.5002340885,-0.6603463008,-1.1450197985,-0.2463991024,0.9791736393,-0.0543220063,-0.489951629,-47461.1405032365,-0.7109310674,0.351846069,-7085.5612470702,-6733.4653219963,0.6076553927,0.3651282342,-0.5207415605,-0.7416163261,-0.3910247151,-1081.047104772,-7051.7150558847,-1.9669129794,-11.2396417886,0.8385693989,-0.6745163849,-1487.9155573102,-0.5456760996,28.5171769873,0.9766109225,0.4895076085,0.8837462095,-7014.7914303611,-11.4241138096,0.8417331718,-6191.0461214512,-1021.1431550206,0.9215981786,-5746.7748734016,-0.7513075589,0.9956418066,-217.60477032,-3.0516846895,-93.0873998081,-45437.3209290734,-0.4892535276,0.585019217,0.5763125118,-9.91550645,0.2101391746,-0.2254802887,-25.3369923256,-7191.9646270435,0.0358328443,0.6937243052,-4525.9679202333,-0.5944685704,-0.116347311,-593.3977894247,-7.3009564437,-0.3249816176,-0.3892942043,-17.8166044595,-0.2579637888,-0.9952030617,-0.374053038,-1.1359678876,-0.1729831461,0.8153561138,0.3004817827,-0.5650692122,-46891.5624873059,-0.4233531254,-0.0723811943,-7594.9614749412,-2867.1170493692,-0.138271265,-0.3874629155,-0.3697445502,-0.1447184651,-0.2358832137,-2272.0676961722,-0.5322232194,-0.7907179936,-11.6607290135,0.1634339657,-1.4997229774,-1289.0288210926,-0.6938754327,0.1015576882,0.8920962035,0.060843218,-1.0136973416,-6294.8208784928,-27.23475786,0.1423451473,-5809.7987586354,-1.0333234286,0.7368976464,0.3539895993,-0.9642550637,0.9666149111,-75.1911811752,-3.4403498732,-37.617313811,-45438.0280638311,0.7748698032,-3332.5851987356,0.877311808,-727.277563987,0.2529117191,0.3971379565,-6.7415020396,-4271.538274445,0.2255967078,0.088510028,-4108.2700768627,-0.5129293398,0.5258836654,-20.7463667014,-25.2876803677,0.5601290616,-0.1173112599,-13.382984979,-1.1303995586,0.6851506988,-1.2377956004,-0.8391394651,0.6737560011,0.0937983305,-0.2005827429,-0.5758378085,-44656.9730174064,-1.0435872935,0.1244500666,-0.8215146157,-791.4213749339,-63.0883762963,-0.9995987913,-0.6320925311,0.4402008737,0.3964679377,-9696.0186541728,-1.1679787878,-0.6969832283,-9.1051082897,0.1357575327,-0.9802915683,-1435.1711623035,-0.8254250328,0.0897678331,0.2398626047,-1.6044507366,-0.0271622106,-6534.3111585666,-1.3949223904,-0.6956990029,-6413.2039242472,-0.2764268301,-0.1633846904,-5677.8008841589,-0.8984173037,-0.0462699183,-155.2405404276,-2.021748321,-111.6417954794,-45438.9703404777,0.1669154478,-2558.9217575478,0.3025116828,-0.8735094793,-0.3008867119,0.2028815449,-21.5844665458,-9379.2801724289,-1.311148451,-729.2859377665,-3582.4954229283,0.0856163811,-0.2995559957,-1.6144660773,-30.1198208071,0.4281141707,-0.5579867722,-4.9157393704,-1.122623956,-1.4209441688,0.1070298532,0.1309872642,0.923648191,0.2589866885,-0.610854333,-0.948890999,-44910.1105643613,-0.2852322091,-387.4032555098,-7598.4994726093,-703.5161629846,-97.9466707391,-0.4861542923,0.5299886911,-0.4669307342,-0.5018438567,-434.2997946311,-0.9391540956,-2.4635191031,-2.7666551466,-0.2158421207,-0.742786119,-1435.0231545554,-1.2244382045,0.1483963009,0.9182181577,-1.2611259256,-0.1644547805,-6467.6219065074,-1.6225719158,0.5909749349,0.3902775476,-40.8366959411,0.3790067234,-6219.878819648,0.0034840709,0.4613324237,-62.2721326254,-6.3423273348,-31.5022477832,-45436.8327903407,0.7225990669,-3005.826847477,-0.2561529121,-8.5053014204,-0.481430393,0.4966472901,-22.1898699852,-9106.7300436639,0.1561719667,-604.4021906973,-3702.7781121295,-0.6455314117,0.8594892811,0.0809223526,-7.8394782752,0.0563216011,0.4757087344,-18.1771246389,0.2321577215,-1.1099110819,0.921240016,0.5873451253,-0.1528699471,-0.7088884305,-0.8692828241,-0.0991574347,-45148.030258256,-1.7267623026,-0.5940097532,-5714.9200733335,-640.9810526622,-94.6797823794,0.5997569558,-0.5715301364,-0.8537052008,-0.220475943,-9995.2817262669,-0.2068774627,-0.6277206316,-9.3840761915,-0.1475591148,-0.3392358366,-1434.5664774259,-0.3787550714,0.1840657195,0.8849408557,-1.466952109,0.0017945476,-6221.0440503243,-0.3593573682,0.5673651245,-6664.3779436831,-0.7872863621,-1.0301100719,0.2673086663,-0.8958337971,-0.4760167996,-106.9788089853,-3.0235765368,-93.7887595048,-45439.5741539741,-1.0810116641,-2807.2362955924,-0.4803449988,0.6485599431,-0.2825204575,-1.3027943661,-5.3520313257,-9323.6484573204,0.2182116377,0.4077560945,-4042.4964983278,0.0023352765,-0.7866173166,-1.4027126909,-30.4703845961,-0.1124830792,-0.2954634049,-13.2085593715,-1.2220370598,-3.2106695693,-1.5900657596,0.081723957,-0.1211933983,0.5338121588,-0.5757636264,0.6151393178,-46935.9705053916,-1.5393693815,-0.1321659082,-1.0982297409,-646.3361140791,-99.1505763562,0.7810663504,-1.5431204228,0.3254376935,-0.0544606326,-431.4729000995,-1.1038560487,-0.7903237557,-2.3835805703,0.0024713252,-1.2794921005,0.5005950892,0.3219185162,29.1732864837,-0.0029960406,-0.4236136262,0.9343194899,-6947.0547934697,-56.5361767469,0.8024617292,-5499.134321404,0.6274815967,-0.3696246204,-5075.2789129162,-0.1931968003,0.5629869416,-208.0439271225,-3.4656427101,-30.0854076995,-45437.0872479285,-0.8261920048,-0.4932470222,0.8309113565,-293.6864378496,-20.8759003958,0.5531897267,-25.8788842338,-6260.7779639602,-0.6265097164,-693.038787634,-2448.1761277034,0.83637365,0.2496335812,0.0160873995,-24.5106538232,-0.5125897169,-0.8715188865,-14.5902869897,0.0272251857,-0.8905546157,0.0612229745,-0.7584423616,-0.0463580165,-0.8726585251,0.7134129067,0.8277013315,-46286.7499860189,-1.1013928064,0.7627765807,-7071.5778086084,-9184.1665776903,-0.864526791,0.5907630724,-0.6741085099,0.2833444193,0.8014179922,-1614.8299100309,-7436.880183728,-0.8292618071,-10.6246788549,-1.0110046117,-1.3297570633,-0.2642853664,-0.3557987461,28.6017966722,-0.2215499736,-0.8475162008,0.6793035471,-7081.9275978579,-1.7890270021,-0.1800717687,-5257.9869576269,-0.2081413476,0.6092918939,-3539.7406731283,-0.2360935651,0.5874475987,-154.5517675799,-2.624817279,-133.3320259136,-45439.0376893961,0.5767146742,-0.4112420818,0.7514494574,-478.6308693704,-11.65223041,0.04825803,-9.178165892,-6362.8252177409,-0.7806481296,-1.0288797241,-4593.0336408741,0.2063854444,-0.5339791153,-171.3388893664,-31.3221460617,0.0418672752,0.0231632129,-12.6220732732,-1.018925835,-2.0539810188,-0.156378341,0.3618089481,-0.9074319134,-0.4896762032,0.8147892096,-0.886233382,-47266.9084696092,-0.9703538762,-0.3968418417,-7389.1731757739,-8910.6173414214,-0.2494392731,0.4844507998,-1.8980004155,-0.9483500274,0.2532928001,-433.4495450139,-10.1529155065,-1.7582415667,-2.4525987762,0.6229070096,-1.7005792714,0.6212997331,0.0935866556,29.424820376,-0.5161544017,-1.2596813086,-0.6358785561,0.7499265226,0.0526833922,-0.8445580536,-4493.6261671133,-1.0212973475,-1.6721694864,-5545.892943918,0.4758713586,-0.6180473672,-128.1288577104,-3.8998946544,-322.8804648298,-45440.897711099,-0.5283938087,-0.8330533174,-0.734421419,-5.3270601519,-7.3453795087,-0.6580016086,-9.0658547117,-0.9196432655,0.3766201065,0.5050155146,-3703.4385382502,0.4930932338,0.0940796096,-373.0893797591,-30.934597028
   0.473851389,-0.7315208559,-12.3931170026,-0.2505279092,-1.2813539231,-0.4133222799,0.3156318926,-0.0662306096,0.5436496511,-665.7148681927,-0.1644944298,-44986.653558874,-0.4225302156,-1.0539718776,-8.5308039137,-8761.5750711848,-234.513853548,0.196080094,-0.9247213215,0.0763180783,0.2156962477,-4494.9647331725,-17.8926972243,-1.8933154446,-0.1751456438,0.7523690323,-0.237582781,-0.5858511887,-0.539774983,28.7791825078,0.8950594545,-1.8249109029,-0.2971281533,-8437.2714399367,-2.1403315279,-0.3020547575,-6246.0524782427,-0.2535117683,0.312513236,-0.6143267056,0.5910998926,0.8604415049,-43.4013728335,-1.3045098494,-31.7321366587,-45438.6940638785,0.0321248458,-1.4294507338,0.9832620565,-1236.464517288,-0.2008569916,-0.0356387908,-6.9521392168,-3518.3791484134,0.0072083132,-0.2140156768,-4900.7338058794,-1.0251057631,-0.5462630501,-1204.9098214987,-6.9936688878,-0.4072139383,0.2437841395,-13.2039540296,0.3253967643,-1.2931094567,-0.8221927675,0.3949925302,-0.1359140608,-0.5958342901,0.0340005613,-0.8565905009,-47592.5347653677,-1.2749377467,-0.0741705209,-0.732199874,-376.8849174533,0.5653963143,-0.1025488917,-736.4328841907,-0.4532266659,-0.0693503603,-431.2007695613,0.322598905,-2.5121036048,-2.0634042735,-0.7435682653,-1.2512591956,-1488.1091710827,-0.9463384367,2.5978740328,-0.3789771525,-0.2827610767,0.8552349671,-6738.7792886087,-0.6194548881,-0.8520293129,-0.2885059174,-38.8656466276,-0.5212390599,-6211.8863729841,0.9169488651,0.8924454786,-62.3833591195,-2.9282756115,-30.8181436956,-45439.0002140798,0.1157206483,-2338.6726676624,-0.0601943987,-0.3668683815,-0.450647734,-0.826994519,-7.2369579057,-9273.1719707217,-0.8672888248,0.1164540647,-3373.0392930052,0.4497046086,-0.9551063307,-1.2295575094,-24.8375492796,0.4013564607,-0.017534287,-20.2814053149,-0.3117886272,-0.5478740647,-0.4713223116,0.2717624003,0.7708823597,0.971344894,-0.4898845055,0.5264979892,-44656.4021936774,-1.6628213994,0.1833944611,-1.2255303967,0.1161286873,-171.1815791121,-3.9814326864,-1.0665529102,-4.4564615571,-0.5850475906,-692.9356744287,0.4563672234,-1.5603591091,-10.8588862845,0.9228891135,-1.5192687034,-3.8616149876,-0.608718045,29.7021916924,0.1847940923,0.6981392195,-0.2419224085,-1.1169606377,-9.5792399337,0.1565862511,-4416.2766242484,-2.7429302986,-4.8309471492,-6226.8175990563,-4.9708363437,0.6382378655,-62.1682838206,-3.3965084289,-37.8722470245,-45437.9741104619,0.6601437139,-2873.8891301157,-0.5583891987,-1.8443154017,-0.6041217285,-2.0141391329,-8.9649043561,-6.22319592,0.4564060033,-2.3157513494,-3709.072318974,-0.2408719705,-1.2947031393,-4.0850550913,-8.0972061484,-0.1306550399,-0.3574534786,-12.9124951685,-0.7790549028,0.2425876068,-4.1657498732,-0.6664371121,-1.810310058,0.2217630391,-1.7762093421,-4.877610742,-44657.7647154912,-2.1718338959,-1.6618781643,-4288.4691898761,-312.6293869874,-18.9170615704,-0.9724825385,0.0053094618,-0.2068762474,-0.3938129175,-433.5989549841,0.4913151377,-0.2081906362,-0.0117152405,-3.9030919119,-1.4797773634,-1682.313606739,0.3242153487,-0.088666523,0.6948713067,-0.2713168663,0.4095609617,-6939.0869292742,-1.190585071,0.4649897929,-5963.886441953,-0.4526176377,-0.2119729086,-0.0578525609,-0.3197179105,0.9193141287,-88.3959826826,-2.4292740637,-31.5373421225,-45438.0487868056,-0.347347259,-3088.3534418288,-0.2681422956,-0.2323833942,-0.7700871174,-0.1037829736,-6.9902258079,-7549.7454255337,-0.7921193682,-642.5384686765,-3769.74292397,-0.3594578502,-0.2996757162,-2.5775783171,-25.1040837948,0.13528399,0.164940029,-13.0980084181,-0.2645251289,0.0289858872,0.6558647574,-0.1600629621,0.3511420629,0.7754195135,-1.0022972118,-0.4045552606,-44657.1746781487,-0.8153177277,-0.3903560974,-5452.8966783725,-0.6979022837,-354.686136311,-0.9655651917,0.1963307665,0.4998347082,0.001991315,-9601.5660391575,-0.468279144,-1.8219936675,-6.0459154212,-0.7937191771,-0.2924673862,0.1204276119,0.4126727396,28.477172124,0.9287026803,-0.6403358258,0.8915892996,0.1226094855,-1.3781903871,0.7145834367,-5476.6617089248,-5.7118903384,0.5299550474,-5950.0352375605,-0.4795343279,-0.0039934592,-219.2994065105,-1.4930055277,-159.8634660225,-45437.3403560646,-1.1226706841,-0.8582585247,0.2141807207,-217.7257992616,0.131735793,-0.4819912637,-18.990564893,-55.9654776466,-0.0560745218,-0.5244187705,-3847.522436525,-0.0060166289,-0.4008256265,-1358.3870208694,-24.7193888808,0.8494932789,0.6379835974,-16.3720984156,-0.1070141203,0.4760087574,0.6861433439,0.3457224628,0.0174085528,0.5446767145,-26.5761247933,0.3388300735,-47356.0391197647,-1.551938172,-0.3522748662,-7940.7227702059,-9106.1976726147,0.4359986223,0.4662781427,-2.0580605752,-0.048387936,-0.8960550531,-1865.2917970593,-0.1300338956,-2.1592742722,-6.8218233309,-0.9600082256,-0.3314223664,-0.4502958607,-0.9767929931,28.873619545,0.6326957609,0.3117646278,-0.5416734929,-6614.8039510345,-1.0575986343,0.9732275037,-5423.9014311944,0.8393883124,0.5673003287,-5742.3599076833,-0.0210857947,0.8259772662,-193.8354359511,-3.756944121,-272.3260643299,-45438.7289438305,-0.9321314986,-0.1914801752,-0.1320957739,-900.4002844342,-0.6730785164,-0.4384766939,-17.988793968,-3583.3898669056,-0.7611313001,-124.4667761568,-4380.9447958633,0.4368375989,-0.7229345953,-2.3894179612,-31.2165217293,-0.0212398124,-0.1827039436,-12.6312224394,0.452499362,-0.4114465259,-0.7174702181,-0.4799225037,-0.8527974547,-0.5294004146,-0.902963788,-0.9221492858,-47888.3181822614,-1.842365462,0.5447696078,-7243.4498321322,-8907.2873248502,0.5648135322,-0.2269487761,-0.8208827678,0.7368582313,0.0167995036,-1172.8396600099,-7825.2294366772,-0.7425368666,-3.2945680162,0.4072616217,-1.1438735297,-0.0295366665,-0.0210025381,29.9353100885,0.2956526703,-0.8807299903,0.6898859339,-0.106740165,-0.6624583333,-0.3662960212,-5807.2062734689,-1150.234289353,0.3106352431,0.3525219278,-0.6103683089,-0.2379235099,-89.2442050452,-3.9326753125,-76.4105018124,-45440.5028382317,-0.8723356542,-2.2839575541,0.4651746124,-298.3170657771,0.1228217822,-0.9890762854,-8.3482497825,-25.4793722758,-0.5818832845,-0.369369395,-4382.3175270508,0.2594800226,-0.7410125679,-96.720483173,-31.1392148137,-0.8388928176,0.1026060537,-11.8510468867,-0.6430828709,-3.5733115206,-0.2528141821,-0.7174798246,0.5705400594,-0.0381325039,-0.112096016,-0.421221997,-47494.5719480405,-0.5363174833,0.2595823443,-0.6776985623,-7475.2868922504,-0.2308897075,0.7737884623,-2.2383874516,0.129590616,0.3557930024,-9457.1972097735,-0.0563058257,-1.6746997183,-2.3728354203,0.7849140357,-1.5266519122,-1290.6219021791,-0.898475703,-0.5988089226,-0.0254740321,-0.6102266111,0.8700915668,-6077.4138750761,-1.1920082546,-0.5526670963,-5496.6208407696,-0.776287937,0.4534521539,-5953.4840236963,0.8260399367,0.6930400222,-218.1646807509,-2.8432688794,-44.0517794732,-45437.3190575155,-0.5458090865,-2.293555744,-0.61831661,-729.7343717601,0.9182776773,-0.892986836,-25.9337544481,-5900.2597326049,-0.0623480095,-252.9073953141,-3434.1208007042,0.2466218459,-0.3951998198,-15.0444960469,-6.2435356156,-0.4716349212,-0.2127196929,-15.9808703529,-0.8268596273,-1.0144327356,0.7147705843,-0.8578742609,0.9085762944,0.9901977745,0.6205997116,-0.8014918859,-47691.5713914258,-1.1271751492,-0.2713924595,-7702.8920854588,-2727.9600901206,-0.6499134565,-0.0163011117,-1.3990242057,-0.6904854301,0.1911437377,-2400.7384005558,-3258.903984813,-2.4773610569,-11.6685290224,0.0555516094,-1.2656482186,-1434.6134376796,0.0732037737,28.7243129058,0.0024790549,0.2818711034,-1.003305447,-6943.1311061256,-1.2015365694,-0.949317378,-6395.2515763536,-0.7430400691,0.2612241745,-6201.688140438,0.6363714341,0.4699488112,-127.9564346343,-3.1075360254,-45.7079564674,-45437.9990397999,-0.4774349562,0.0099459356,-0.0467755314,-625.3699498584,0.7380303179,-0.8270659076,-26.0960262684,-8465.6748952546,-0.9607788241,-27.0208081419,-3972.0701654765,-0.096272888,-0.3378335542,-100.9336861217,-8.5260385731,0.8029888808,0.5229567494,-13.209627319,0.3526524576,0.0654896444,-0.7673454469,0.1912043532,-0.3166197706,-0.3824298077,0.4716667499,-0.4290347259,-47355.9836292797,-1.0883580194,-0.3963448565,-7924.7954890929,-1520.3974454061,-0.3560934894,0.7831716604,-1.5262616222,-1.0173926804,-0.7609088295,-1816.0123720398,-7.8716067375,-0.8165257027,-4.136012672,-0.2670289562,-0.5578969186,0.4525049149,-1.2899279919,0.1745809091,0.4008091542,-0.536472596,0.1290785691,0.4829037521,-0.679428893,0.2694188644,-5673.0936145707,-0.3274911423,-56.2294333012,-5472.2342298165,-0.8206654175,0.1230410497,-217.9223005804,-0.898056853,-209.4495709215,-45439.1611887069,0.6237552635,0.5896617912,-0.7210425593,0.8351938428,-0.8588773522,0.639759857,-6.9543053417,-56.359502692,-0.1319757904,-169.9308578009,-4063.8368559916,-0.6836788633,0.9385356773,-61.574341317,-30.8332705844,-0.5038032477,0.9574433001,-13.3894160518,0.1514915965,-0.3729813371,-0.1573684435,-0.805965249,-0.0739357509,0.9360537012,0.5291105794,-0.852507826,-45092.5862312501,-0.9022786286,-0.6955632688,-7484.9463906207,-8837.0879335765,-0.3922562602,-0.2836997395,-443.1958391039,-0.249170062,-0.5903649388,-431.9478114331,-15.0451468279,-1.5504192599,-2.1048484892,-0.3947390146,-1.4861976532,-1432.8893707308,-1.1772723592,2.1036008452,-0.3146472978,0.7104562775,0.5732280991,-8651.249739173,-1.8388255894,0.915289315,-5030.5778154977,0.2253020707,0.2733316952,0.1869094246,-0.4854873058,0.6211463739,-218.2849991815,-3.1402734334,-209.6817885257,-45438.3220927065,-1.1022691989,-0.5705654417,0.2245728924,-17.0366554984,-0.7937212707,0.8102245061,-9.629072854,-1.9386633196,0.0806850232,-0.2238080862,-3432.7989803117,0.885104657,0.7647351341,-0.0058768413,-7.7052443341,1.0233124673,-0.8735815627,-21.0320552753,0.4754080749,-0.5317062349,-0.9272911634,-1.3466741358,-1.0013595179,-0.3363761407,0.8035846636,0.7172748614,-45566.8691625582,-1.152372867,-0.015143623,-2.1935761086,-6062.5821183598,-93.7203610759,-0.4760352848,-0.9705607123,-0.9977971039,-0.4979107153,-10581.8635358141,0.1284352769,-2.8485891062,-11.2289907339,-1.0457084765,-0.3008803542,-1682.8142620321,-0.4756043728,-0.0969784051,-0.0436211907,-1.1936577353,-0.3964554233,-7209.9110013708,-0.6463374783,-0.1333720045,-5250.0689087714,0.3614158807,-0.5848646212,-6076.3895444709,0.2937066896,-0.8825940511,-219.2705477905,-5.8569926888,-185.1919570717,-45437.2685105109,-0.2355806338,-0.5921292844,-0.7802314795,-7.9911310212,0.4454434053,0.0615070231,-9.5986241739,-6760.7661697838,-0.2968676171,-0.7099731052,-3434.7883247099,0.0695260498,0.6516823937,-1.3087859923,-24.7804332964,-0.949309908,-0.2441859485,-13.3017115606,-0.3774909261,-0.802686099,-5.0071289637,-0.4026967091,-0.7265659322,-0.2476218654,0.6585155612,0.6917546712,-44657.5129331262,-0.5213311518,0.489098142,-0.0620240995,-8281.6758340062,-280.324727737,0.2411289136,-0.3464475714,0.66984742,-0.1065105707,-10085.1343364421,-0.9051443738,-2.2285871819,-7.1701758107,-0.6218743826,-1.8774351083,0.0027649976,0.6292497328,-1.3621185106,-0.9457255594,-0.1625011275,0.9046522488,-5933.7546634358,-1.187177042,-0.1718351421,-5398.3850017095,0.005798959,-261.2619097918,-5747.7385966379,-0.7452959234,-0.1025572738,-90.0317122474,-0.6630927546,-54.200228076,-45437.9879068617,0.0451837226,-3.4113746973,-0.1603668566,-0.9857146655,-6.8147350508,-0.7760058549,-5.4761875185,-9231.5932072354,0.0719966418,-1.4155343345,-0.9423318774,-0.0456987604,-0.4620072801,-5999.6821628309,-30.597103664,-0.1132800719,0.3369867318,-12.8750348083,0.5191382605,0.3070378583,-0.0298173097,0.5827528184,-0.2064756409,0.5471361747,-1.0160201447,-0.5802140053,-44657.3669678884,-0.7069611963,-5668.3225095148,-7358.8884709558,-333.6286761765,-0.7960487585,-1.0615827054,-9.4880513628,0.3737057282,-0.4923228386,-431.3402251828,-0.5897551517,-2.3590028683,-0.5279027403,0.3875242961,0.4619821192,0.201393409,-0.1470889644,-0.7329381107,-4.3386978402,-23750.1835947886,0.1149986455,-8681.3575292355,-0.9676498759,-0.2851396304,-3819.5706946377,-1.0935133036,-0.7986305466,-1.0057145291,-1.024686542,0.7757331491,-2.9294351301,-3.3017768203,-0.0553379367,-0.8142893888,-2.2577336216,0.3772406021,0.4541836636,-2.3638603437,-0.4231567287,-0.1609650087,-0.5293431073,-1217.142249008,-0.3934926108,-1.6712686774,-27656.4352397136,0.4006275391,0.6867765297,-1308.7861407498,-27.0812223914,0.791107577,-1.1486001224,-31.7258271217,0.4696414172,-3.1130994264,0.7798565718,-0.9135741771,-0.902234048,0.8404985013,0.3315502385,0.6946744124,-1558.6509927992,-0.8658188875,-0.4770130321,-1.8759819003,-7559.6075833654,-18.6340680283,-0.2850332107,-20.4949128191,0.7287405298,-0.3069806942,-8915.8111571524,-1.1853357403,0.8004339454,-1.1942285238,0.4606690576,-0.2516798211,0.5312113876,0.1914501679,-0.2915901391,-15.4143583455,-23750.2529500237,0.8461165899,-7798.9382487826,-1.2770420122,0.4939214416,-5580.7192525581,0.819279828,-1.8450309462,-3389.179179128,-0.3892629851,-0.8363865199,0.3569000437,-1.9673169135,-0.3606340641,-0.2178436557,-0.4052496083,0.4279549338,0.3819065923,-1226.1461288598,0.2231115759,0.1912763593,0.7295302503,-7629.5958369371,-0.9902631758,-15.0282402086,-28310.8945712213,0.8419733566,-11.4473555695,-583.4871253983,-107.893712558,0.6713217899,0.2842499715,-225.9107053579,-0.4093659142,-0.5636785665,-0.6393369561,-1.1303589907,-0.7316198575,0.7974478692,-7.1297265509,-0.4997077205,-1311.5280063922,-0.4056656507,-223.2188904216,-7469.6830247796,-9149.4870413484,-14.8581091327,-0.7369697085,-3.4354221584,0.5390586434,0.1663270583,-1.3430934217,-1.7712087923,-0.4791481167,-0.8883694212,0.7048582708,-0.0504196513,-1195.9182759685,-0.4570179109,0.3973238381,-12.7293939209,-23751.3527594848,-0.8625879796,-8286.694880447,-11.8616852291,-0.3234467532,-5824.2707876037,0.7781188078,0.4839848613,-0.4602304725,-0.5035376006,-0.0882363463,-242.503381175,-2.3164508442,-0.3273386834,-0.919705114,0.5120202532,-0.9508230621,-0.5515673167,-1.3505940592,-0.7990719478,-0.6000214781,0.8169720471,-1127.3604601495,-0.5492198444,-2.5717942593,-28062.8747141796,-0.4834525452,-0.1512989163,-97.1361162214,-37.0603730617,-0.727972818,-0.1760430744,-500.7529692738,-1.3347035127,-1.6187035824,0.3470045402,-0.3966682869,-0.0011540161,0.6795215876,-2.3045361135,-0.2783880144,-763.6629476998,-0.1852220403,-275.2102775012,-0.6838179839,-5828.9899785768,-443.7569861174,0.2559443126,-2.1529340665,-0.0508805523,0.5759611926,-9399.8262697039,-0.6184670407,0.1966275669,0.0096608442,-0.404878651,-0.3270134942,-0.6992069989,-0.9343652982,-0.0789654054,-12.8773267803,-23750.4510699927,0.6341931079,-0.8829001524,-1.4634727181,0.8696187301,-4566.5170518543,-0.9537383134,-45.2256514404,-5200.9685288026,-0.3794500581,-0.9183941703,-0.8772233879,-1.3093551877,0.1468971601,-1.8264859435,-0.7469035904,-0.2131339148,0.3918809464,-3.5942313857,-9.8967501123,0.5672392286,-0.1824592924,-182.3096573258,0.4794805824,-2.1109665886,-27454.7787850219,0.2858813336,-0.552577603,-0.9660273199,-192.0757086654,-0.3447701598,0.7093044908,-10.7533571699,-0.0334912695,-3.4878118049,-0.7705900472,-0.6771382227,-0.3730823764,0.7109362884,-1456.3497336588,-0.2363600062,-0.6693039841,-1.0140416504,-1.5012732367,-1.0998668038,-8412.3322520883,-16.2118385952,0.3697460921,-4.3728521987,0.3646732313,0.3631724107,-3180.3152425955,0.2017549586,-0.9345668808,-0.5121374408,0.5513706535,-0.442217686,-474.0091729368,-0.3480862746,-0.4462055009,-4.8790795209,-23750.8321597497,-0.7997045409,-1.0650533555,-1.0777909974,-0.1198717514,-1.9534128094,-0.0017868165,-0.0859390366,-0.4771274054,-0.8172632874,0.8141493858,-0.7863523534,-1.4456135122,0.0049568821,0.6736848266,-0.8306895097,-4.9360712759,0.8823709305,-0.3085785396,0.0877149111,-0.1209308095,0.8057249572,-291.4698033575,-0.7555690505,-6.2275068832,-23750.5327285304,-0.5911601661,-0.8906447516,-3087.4652083116,-105.9343685833,-0.7397642106,0.0581207361,-37.639741668,0.0200560242,-0.7872256218,-0.7501454405,-0.2195382043,0.2132232573,0.955517551,-0.4957086232,-1.2324771696,-31.8068337749,-0.9133668708,0.5599938204,-0.4180401333,-7535.5216031832,-209.0767837512,-26.4060369035,-5.2916307259,-0.4014501686,0.4785298885,-9593.7696707509,0.0001609263,-0.5827143758,-0.3155357206,-0.5176328316,0.1130447683,0.1215547445,-0.8749596672,0.4796464454,-4.1902267294,-23750.8370020071,0.6804531331,-0.5664306093,-1.6628710568,-0.5749844142,-4812.8334392812,-0.9912537599,-0.4937694065,-6732.2856077642,-0.6914409252,-0.7278426678,-0.0983015847,-0.8868958937,-0.232836673,-0.5921731301,0.2911704593,-0.5824611285,0.170887987,-480.6744032453,-15.7740652313,0.049277731,-0.9173144252,-0.6024530377,-1.0197793263,-2.3661434889,-27862.6352691851,-0.8753022083,-0.4115192067,-2168.5469878112,-179.5002310096,0.2258335016,-3.121213528,-115.0133315441,0.5580645104,0.020362867,-0.3096352545,-0.5337191625,-0.899062395,-0.7276855249,-3.0617615155,-1.2838580704,-1503.9983454906,0.3012207387,-0.7694500302,-0.9940191284,-9130.5110323245,-15.2495676393,-0.7307853105,-5.9523483552,-0.7207482904,-0.8645508679,-9524.7984871994,-1.2445163288,-0.1745831212,-1.3996498656,-0.6962173488,-0.806087218,-0.6315094734,0.5162525246,0.7333335083,-3.1188145473,-23750.7379739303,-0.3505081473,-1.0070027252,-2.3649755255,-0.2389623874,-5389.4656202294,-1540.8662791845,-1.8824090839,-6730.2619613026,-0.5589359106,0.8272117244,-0.4891746401,-3.6277380635,0.3193219422,-0.7293825715,-1.3343373277,-0.9711847133,0.727352182,-19.7910841149,-25.4527295917,0.5932092544,0.0955095423,-0.7324284288,0.444987351,-6.7423485039,-27459.4508351965,-0.3697248205,0.4527577474,-771.5544862689,-133.9861772841,-0.0647815295,-0.2121513983,-135.6381031969,-1.1290395481,-2.6072273033,-0.8597873002,-0.7979581105,-0.0689328074,0.921377611,-0.8623720614,-0.9006810927,-12.0828929874,-0.9220845905,-0.8248607607,-1.8773135254,-7034.9703954156,-16.7568558967,-1.2487122546,-8.2740902408,0.5563594474,-0.7636917618,-6430.3968405864,-2.466243096,0.3142139072,-1.0168429139,0.5086109179,0.1080699575,-1256.5199222019,-0.0415870509,-0.506322818,-7.7094104075,-23751.1269905436,-0.0474703788,-7437.4968788071,-73.2368617935,0.7462426724,-4320.1695986241,-0.0986207979,-0.9359329011,-5361.7672323111,-0.8677413954,0.825722218,-0.8377436084,-2.9593659371,0.1212174728,-0.1240773987,-1.0525812497,-0.7045115208,-0.48330431,0.3191871583,0.3184928513,0.5715870456,0.8942804583,-125.3143690405,-1.3885462053,-3.5574292713,-27451.7046811259,-1.0086426333,-0.6680810802,-20.6719485432,-127.4798780068,0.0870710606,-0.70086645,-74.4239603185,0.1125417743,-0.7487657061,0.4287138587,-0.0126744216,-0.3417157102,-0.0040324692,-0.535175172,-0.3568829708,-36.4830370923,0.2837553104,0.4429017635,-5598.8611360458,-8597.4349008247,-436.6995295216,0.2967163448,-3.3343747777,0.5040950896,-0.7868917259,-9494.0625140314,-1.3081379375,-0.8884982417,-1.0677554206,-0.228780619,-1.385373781,0.5260299184,0.4579134885,-0.593388423,-4.764144351,-23752.3310313052,-1.1045556784,-0.7508161316,-1.6984033491,-0.1551477581,-5272.0444705676,-0.9304043344,-1.0523362107,-7173.0431822371,0.1912500402,0.5822980118,-230.8335706278,-2.2387871438,-0.5558619821,-0.2530946291,-0.6811600947,-0.9027847955,-0.8762706532,-932.0200651284,-14.3259919356,0.0891691216,-0.0766904362,0.3078551481,-0.8608642251,-0.8562699632,-27454.3085929032,-0.9711254714,-0.6030064666,-1489.078625927,-88.4583053028,-0.5249479814,-1.0003376906,-500.4367007188,0.4038864474,-0.3654254593,-0.8584074958,-1.5028243241,0.1811173933,0.7030512215,-3.0210571194,-1.325036986,-744.162828325,0.0128166393,0.3938933239,-0.466034123,-9062.7443821843,-16.0403722848,0.1241760094,-22.0202658985,-1.0051423098,0.0368330609,-9447.9705839333,-0.7627718046,-0.6748096631,0.6285256035,0.4923084477,-0.9346027052,-0.3406951609,-0.8994192756,-0.1843786841,-10.3407530008,-23749.9525504386,-0.0787276151,0.4843247725,-2.4630174414,0.5382635651,-4973.1179281975,-625.1843432036,-2.2003595377,-7264.5320755191,-0.95151303,0.588345721,-0.2994850055,-1.5614664446,-0.9715224553,-47.8441687137,-1.1860167088,-220.7801229894,0.5895638713,-28.599904817,-15.6677373958,-0.7027111086,0.6212273538,-21.6647944355,-0.0346938477,0.1708513745,-27863.68999558,-0.1068060617,-0.8501253006,-160.8407940394,-188.2299483386,0.8495282469,-0.7274523913,-0.0986852544,-1.294906763,0.2954137021,-0.5249119569,0.2352040453,-0.8596486907,0.2993302595,-2.0665298827,-4.0367871741,-172.8815421664,0.2046983217,-115.8650518817,-0.7282111445,-9009.5661450911,-16.2940924645,0.4058584779,-2.9092858215,0.7249110777,-0.1314372017,-8837.813574066,-0.4484636421,-0.1451457782,-0.6861518405,0.1454516759,-0.7578351468,-0.7328053127,0.5541526635,-0.1464881852,-21.0090984878,-23751.6274107806,0.4020789657,-7044.0001392704,-1.150117546,-0.4978467297,-5998.7877837281,-0.7621650315,-0.3850484392,-5748.7325220805,-0.6287740367,0.7691551942,0.426219537,-0.689928992,0.3681346025,-0.8507654787,-0.4790422959,-0.9696987244,0.7049909661,-192.7831817657,-14.2118742389,0.2523483724,-0.8691896011,-9070.3277137471,-0.7301796845,-1.5438206101,-28136.2458490945,0.4448443042,-0.0446426266,-664.402977669,-74.963389226,-0.3882925093,-0.8639821948,-325.4206084317,-0.2851822303,0.0272992541,-0.3788291194,-0.6675222127,-0.7243600532,-0.2977151936,0.5725023305,-0.7222159451,-24.6091032946,-0.1033378229,-0.6458809732,-7235.7770189436,-191.8307160054,-16.4702053064,-2.0763537033,-3.2030828827,-0.301899533,-0.7454486978,-0.0346834226,-2.7925149966,0.6316641245,-1.2057851707,0.0336563965,-1.6528053196,-1291.6015017364,-0.5537668463,0.3946972111,-6.4874058861,-23750.8712775317,0.4996259136,-7642.7809384618,-0.0815212662,0.5103944901,-5089.5290061898,-0.7886137807,-0.861713093,-5672.1137106217,0.2332950686,-0.0612397513,-0.7645237466,-3.0978941614,-0.415221582,-2.3652061594,0.5532038101,-0.2094644221,-0.1647708649,-0.9681119072,-0.8153869528,0.6963813842,-0.8908421777,-6617.3428952756,-0.5263549412,-1.3433259217,-27723.3816247429,-0.8543878474,0.2335537323,-0.3254843737,-26.7396421331,0.6549678836,-0.4003277328,-76.0118602452,-0.8570905703,-33.616330373,-0.5283139066,-0.6667604693,0.1783623959,0.7529129501,-449.6456397983,-1.8171375916,0.3693465585,0.3080240467,0.6069224859,-7519.274877241,-1028.4828191237,-445.7376071285,0.6337561133,-2.3385205188,-1.0394687395,-0.3305300533,-169.5441028498,-5.7238472338,0.078971434,-0.9897198308,-0.9144750047,-0.3327384567,0.2405743578,-0.98404542,0.4937163121,-8.9983027511,-23751.3783773932,0.8491334295,-7039.7088055378,-1.932827752,-0.0215417105,-0.3455229856,-1164.6534331837,-0.7995606939,-6531.1462802884,0.0619990027,-0.3658324873,-242.4585882619,-2.1662739483,0.0612075482,-0.1370469829,0.1021858291,-0.8521422308,0.2756670349,-1.5162728017,0.5262028169,-0.6551894583,-0.4364523936,-9241.8946052705,-1.1627899832,-0.6514317355,-27404.091720003,-0.8531255514,-0.3302684677,-2832.3195722407,-16.5971351858,-0.0579642849,-0.1060688169,-85.7563167627,0.4008154641,-1.731824315,-0.3595524571,-1.2380703434,-0.9720033268,0.9478529335,-0.4085399917,-8.1093936177,-701.1417012996,-0.8485044516,-40.7147612055,-7746.6062783069,-0.1954913763,-406.7846035896,-34.1488925385,-5.4978855029,-2.9377633991,-0.7400974222,-1499.1639193625,-0.944423787,0.592276819,-0.0097708297,0.2388241945,-1.4163762809,-1246.7285401855,-0.8589479402,-1.0829696884,-21.0407257233,-23749.0796090665,0.0604195273,-7225.6807931964,0.1921249405,0.2153162417,-4341.1867782284,-47.6494096312,-0.0068994932,-5149.0810895449,-0.4003930716,0.9067843708,0.7820583841,-5.7528685457,-0.5785465675,-1148.6213041123,-0.0567888613,0.5851143566,0.7338258754,-0.6698139043,-26.186545799,0.9434913372,0.1036139326,-7159.4599064969,-0.9055879022,-214.276616894,-24859.7811828816,-0.3596807835,-0.2884459134,-1015.2673265872,-8.2283034841,-0.0125431729,0.5596778746,-88.6638713053,-1.278200937,-2.6378774887,0.4265529365,-1.6477170994,-1.0595712778,-0.0236233431,-8.1686530565,-0.3312469089,0.1082806145,-0.1183980914,-8.6517387699,-1.5116747751,-4945.7012878569,-423.3305929138,-350.4737076913,-0.2572295851,-79.5364760437,0.1563857313,-9175.3999585224,-1.2669049285,-0.8960003161,-0.6512095514,-0.5333127442,-2.6469501813,-0.1236868022,-0.0897270468,-0.4949182094,-12.3025540662,-23751.2789616106,-0.5732125713,-6974.642309388,-0.5432001052,-0.8215867831,-5978.8694962497,-1.0656617034,-1.8832518892,0.0323542493,-0.9610478838,0.4576201751,-0.0212749121,-3.6895130729,0.7764435526,-0.6232073813,-0.2776472249,-2.3541069408,0.3782096597,-1.3822595754,0.7484189254,0.8643128932,0.3041923806,-9546.52445089,0.1466911797,-6.2183713056,-28277.4737832128,-0.7342382364,-0.3154190777,-3955.8616973993,-75.7743575005,0.2683835764,0.3193020634,-263.7336502098,-0.7421166404,-2.1479968865,-0.1607831395,0.0745461776,-0.1390064601,-0.5684868573,-0.0928755037,0.0078842987,-922.3523330183,0.5928224302,-142.8495966217,-0.8438850068,-2108.7996125045,-42.8270828578,-140.51822002,-2.0224395361,0.7339419172,0.1549036248,-2.5553029959,-1.207606972,0.2872011155,0.2700896121,-0.6397056019,0.4399918002,-1220.0637785547,-0.0629487124,0.1952651987,-3.5634367479,-23755.4093943296,-1.0689638176,-7466.0421137535,-2.6371092566,0.827151364,-6340.3008755432,-0.0761429331,-0.9018123166,-5492.7226165036,-0.7161432887,-0.0853500742,0.0962614059,-2.1542262293,0.8685657377,-0.3055174,-1.4399032703,-0.3324729731,0.4441665298,-861.043694165,-0.543662856,0.1779879362,-0.755829639,-8128.2748184978,-0.5213888472,-2.5689261937,-27608.9687644483,-0.5278762018,0.5234792754,-2168.2138034613,-30.9585825709,-0.3370961706,0.3976466387,-15.5011369276,-0.3388726519,0.3709661645,-0.9746992592,-0.0985582691,-0.9821661534,-0.76920363,0.6231785844,-0.9143053914,0.2748930766,-0.9336551052,0.5590382362,-7939.7387262005,-42.8901401891,-125.1313552049,-3.6637359475,-49.3040549717,-0.8508999056,0.7389777884,-1494.6386144453,-73.1657443298,0.1793227045,-0.1151353024,-0.6475436343,-0.9887179614,-1009.3675346462,0.3828179796,0.7837620579,-5.7670385124,-23749.537607957,-1.0734091734,-3.9270508129,-69.9268530519,0.4896092387,-5086.9944819284,-1143.7658978299,-0.7835255746,-0.4699162596,0.119463803,0.6571832358,-243.2025578962,-2.2885235546,-0.3412023401,-0.3386248173,0.2960128927,0.0948918203,-0.5280461636,-1470.7380114384,-1.0994783943,-0.2724171946,0.0835592756,-104.0490131734,-0.8605213105,-2.4476788325,-27722.2035081893,-0.6050075324,-0.5410736742,-830.1476531642,-104.8644755592,0.4001577346,0.6291647205,-500.9609659196,-0.3865417509,-1.7560236015,0.6828469647,0.1231651741,-0.9391338828,0.3234869007,-0.1697449224,-0.1768694063,-0.4768061054,0.2300868674,-286.5503207812,-1.5013355273,-8540.5170612921,-85.130002338,0.7361938522,-7.0051747508,-0.3654476458,0.3321668996,-9558.5590530828,-0.9582063181,0.8236236445,-0.8195544792,0.0703038873,0.1680514042,-914.9333640248,-0.4655084979,0.0020192137,-9.0665297874,-23751.7417299135,-0.5062237972,-7176.8225566099,-29.6975724398,0.5982448013,-4791.2122035205,0.5982654748,-0.1924914274,-5531.0683006747,-0.8234138604,-0.6162414924,-240.8999485698,-2.1258089512,0.810039754,-0.0881633028,-0.7346136894,0.4460861905,0.1998025317,-1324.4289658645,-0.7250987479,0.8225804324,-0.7129558879,-8973.7279474002,-0.9367693198,-4.0988733872,-27064.9282670308,0.0014916092,0.7782888571,-26.1403811376,-22.3490365211,0.5400577226,-0.264815391,-225.8119660248,-0.1835527002,-4.2960704545,0.7295563641,-0.4924457648,-1.9462416166,-0.7619332876,0.3358136014,-0.5232029621,-0.1183547762,0.2031739073,-25.0652913234,-6820.6206069898,-7035.3275890955,-415.810826492,0.7167628097,-1.7013843712,0.5463100406,0.6410798111,-1385.8399704526,-605.1024735573,-0.9342719997,-1.6392041033,-0.8987958708,0.4520420883,-1.3149305254,-0.3840271538,0.9859989094,-7.5242988464,-23749.8409507153,0.0814910899,0.0253810502,-0.5827106644,0.934833161,-5145.9893459264,-1.0689753564,-25.331344749,-338.8463529418,-0.9385116339,0.8459430946,-0.0040060068,-1.1230290121,0.7756162001,-2.562910744,-0.1657768442,-3.5540809963,0.1491596441,-11.6491202896,0.6430030457,0.0148225653,-0.1603725629,-41.8510026614,0.0931642724,-1.7709106631,-27255.1234188432,0.2512060212,0.5088487029,-0.747564383,-62.7376409267,0.0528803251,-1.1450511721,-501.9503770686,-0.1530807712,-69.7599448763,-0.5948568224,-0.2694330941,-0.0351089448,0.6642983081,-21.1663089297,-0.7879090701,-0.8572799772,-1.0056383678,0.2627014385,-0.8932507337,-5807.7734615053,-15.7722705927,-0.7497335828,-1.620569005,-0.4227048141,-0.8201261274,-8154.3320611442,-1.3663683783,-0.6873535094,-0.6820738193,-0.7502553976,-0.3842988906,0.0918400468,-0.8032008718,0.5202161043,-30.4516407502,-23751.0361617302,-0.1400660429,-7266.6241160185,-7.6212820368,-0.3377292518,-5421.6812736963,0.6730941865,-0.3216652983,-0.8275617619,-0.772991973,0.3296938244,0.0301727247,-2.1230214014,0.1676021961,-0.5152713188,-0.9804725201,-1.8553291183,-0.5759797113,-71.2326471903,-16.0512951989,0.4152049672,-0.8307300214,-3416.0721948877,-0.5866849203,-11.2410593466,-27730.9824166181,0.0544239459,-14.7835381759,0.6047105025,-55.1039371519,0.4694555825,-0.4742092208,-243.8053551011,-0.9689598718,-0.5721999478,0.1899960678,-1.1046028857,-0.4796096011,0.1828541636,-0.1228192281,0.2496815609,-32.4294667331,-0.4102475677,0.7987259015,-1.0461100902,-8812.5566463724,-19.116217496,0.3201838014,-1.2821522721,-0.4732845687,0.2314863665,-5839.3649460783,-1.2033146572,-0.2833853967,-0.8722431279,-0.2367801964,0.5676892141,-1297.3196088947,0.8943634707,0.7081915839,-7.6859750874,-23750.3714953602,0.2226584039,-7788.9395252102,-3.2118927854
   0.0660259015,-5160.9419017008,-0.4070942551,-0.1667242664,0.389838724,-6.3877277758,0.459448646,0.6563877458,-1.2812538294,-0.0947138966,-0.7943216625,-0.1088984868,-0.3552781518,0.4324886595,-2.0971187678,-0.2934396262,-1.1027156821,-0.3527215912,-4276.1855859513,0.4667018532,-2.2547961234,-27523.4229152355,0.2972922015,0.926353925,-55.8655661048,-129.5127186556,0.2691927324,-0.9195017989,-188.558853628,-0.7431849497,-0.8664114,-0.099873282,-0.0556271865,-0.5758591876,-0.0514235253,0.8126473495,0.3401079587,0.0005868024,-0.4202346974,-464.8639669086,-1.6579099733,-3.7710820277,-445.0336428593,-124.3322021357,-3.3671104634,0.15641127,0.4300211351,-87.9384824547,-0.2448448612,0.1914269318,-1.1403718661,-0.427401183,-1.2960466153,-0.1109638871,-0.1027046205,0.8037656285,-11.4758032043,-23749.453217722,0.9198883535,-6952.3096725675,-1.298842193,-0.7737898667,-5826.3779496328,-920.2491028367,-0.9439322624,-5849.7358480675,-0.624740521,-0.4704292754,-11.7148422779,-1.7170736193,-0.3768654451,-689.1845207734,-0.6893022043,0.2407009478,0.2920703924,-116.5936441961,-0.358229842,0.4801959835,-0.0059916453,-7521.300761324,-0.4856748162,0.0087706353,-27857.7666084773,0.3748783511,0.0373890095,-0.7882825251,-36.2636723565,-0.5579408521,-0.6229882448,-253.2063466467,0.4581817046,-1.6346568528,-0.6905280712,-1.0412024653,-0.485609328,-0.1384185081,-0.6332358933,-12.5707045591,-15.8572116697,-1.147145389,-0.9294681163,-6934.2090658516,-5724.7982731173,-73.8028291327,-0.9123105972,-4.0166915848,-14.1869932876,-0.7866302641,-50.4147716655,-8060.5302405126,0.1947779131,-0.3119926013,-0.725959054,-0.939028046,-1609.5004966625,-0.5141044139,0.8551208815,-11.3220850084,-23751.3489893156,0.291902974,-7396.2373436461,-11.103208651,-0.3546288751,-2255.8211284032,0.3711587836,0.3314073106,-5921.1198306957,0.5529805722,-0.9632793564,-242.5152437801,-3.4196257184,0.9197494916,-0.4710282531,-1.2491752464,0.638803109,-1.0617809647,-1.3364791311,0.2970086959,-0.8138055382,0.4314037537,-8998.2238474022,-0.6885784725,-1.2803781318,-27272.4577665113,-1.0608732305,-0.615156284,-26.5826996987,-21.6247716811,0.3490871258,-0.4576324817,-453.4802407843,-0.9566341472,-1.1511410821,-0.8791746165,-0.6717735603,-0.7851749496,0.1638446959,0.3244784322,-1.6609820795,-0.4522515088,-0.7225542155,-85.164059693,-7952.9410690886,-7.361223229,-494.9625200943,-1.7142008363,-4.0497403699,-0.9104011791,-0.1237610008,-1059.2329696938,0.3391672539,-0.5179005293,-1.3001063941,-0.2627641974,-0.8587040504,0.267337723,-0.5718914037,0.8910939406,-7.6728179235,-23751.8384923985,-0.201997775,-7326.9021464241,-8.8451296062,0.0140897275,-5317.6818853495,-0.067898835,-2.5124229927,-5439.5504487658,-0.2485748191,-0.8087697563,-242.1349591652,-3.3685242834,-0.5305571103,-0.3935145394,-0.8791041242,-0.2762590582,-0.6592343505,-88.0397437403,-14.768058158,-0.1533760801,0.6885561417,-7746.4818643409,-0.1640041473,-0.9821978629,-27994.1965632396,-1.097796791,0.5888913175,-0.8297520257,-52.5216905326,-0.8482393889,-0.4077729362,-500.3787091049,-1.0547103207,-2.5823751261,0.0373138907,-1.0241677455,-0.5908025591,0.4883727313,-0.9892757835,-0.8780320198,-17.3515037156,0.0929876762,-24.576936084,-7039.6645327773,-7761.9406393282,-15.429082553,0.2261392304,-6.7823743323,0.8102174221,0.6967449114,-188.9475996713,-7015.8531538588,0.6117425777,-1.0680548932,-0.1096042305,-0.4912340479,-1.027281004,-0.0692580618,0.9604210269,-5.6856243003,-23749.6610713927,0.8499207287,-8138.3832771972,-1.3122328004,0.1967722368,-5085.912090534,0.363437275,-2.6811127136,-5278.9591561814,0.7368371926,0.1191866786,-0.8993766898,-0.4847232389,0.6416054295,-0.8096657349,0.5477087476,-0.174087832,0.3913369988,-1039.1809004426,-8.9554075969,-0.8825819994,0.1717145844,-1827.7267309059,-1.3878859004,-4.0817356624,-27863.3585297242,-0.1097386835,-0.0698693975,-436.8739623171,-65.7066586727,0.3874676858,-2.3090615316,-113.101723802,-0.281752721,-0.8514556718,-0.2070981955,-1.092044372,-1.2069544409,0.1820681918,0.3528105649,0.0845922437,-815.8683139921,-1.2705925775,-0.7666621619,-7133.2788994303,-9161.6460072537,-16.5453568226,-0.510515686,-5.7244030605,-1.0707959113,-0.8947011039,-1.7710966068,-7704.6512797346,0.2276874922,-0.0961391164,-0.5764573394,-0.6884552196,-1378.3047881916,-0.2406659707,-0.5523682203,-13.7511474866,-23749.8247908469,-0.4011969098,-6960.8965137086,-1.3843876947,-0.5004642801,-4340.6184180425,-110.0014371236,-0.3772264109,-5541.1206126317,0.7435050111,-0.4719361395,-241.679913825,-3.5159488444,-0.1377147484,0.0670233517,-0.8816217274,-1.056148348,-0.5334213238,-76.0698988192,-0.940575174,0.4112258843,-0.0181998613,-9172.5861301679,0.1748425546,-3.1438875647,-27650.2146693633,-0.5220831066,-42.1881790877,-1.1379014399,-17.1115932449,0.5255932922,-0.7281851654,-18.8900245557,-0.7596958098,-2.7422030467,0.2427641592,-1.0193172699,-0.6768110886,-0.5810297542,0.5396567113,-0.471263037,-257.0864040072,-0.0054377892,-34.2116862794,-2.79137346,-5.0203974194,-417.4895383112,-0.7535706195,-0.2525680103,-2.5484969836,-0.9356505383,-9656.7385509033,-0.1985370927,0.3581329088,-0.4884539716,-0.8038922199,0.2002868274,-580.3593431618,0.1652254105,0.2673587382,-5.8137875211,-23751.3350947895,0.0914087549,-7576.3157330167,-24.1537237792,0.4647152732,-4995.1007823188,-553.0502128556,-0.5794378401,-4946.5466392475,-0.7974436813,-0.4957403978,0.5387220186,-1.184152613,-0.3083036178,0.1869944914,-0.828197039,0.6706234536,-0.0766194586,-1104.1821531354,-0.7704163829,0.4508249376,-0.3698015517,-4947.5006307567,0.3337588733,-7.6226267413,-27256.7502417737,0.424265171,-1.0080927511,-0.8847811958,-134.1431509273,-0.7852162579,-0.6576181622,-54.0617641466,-0.6223791551,-0.3727742807,0.9549938001,-0.2079415993,-0.6185559968,0.0552093029,-0.9059578109,-1.4944238416,0.3329957725,-1.0224801948,-1.0069649661,-6748.181176326,-6213.0400260305,-42.6133587176,-0.1568756669,-6.1761428683,0.1899295757,-0.1463248055,-1105.8347665773,-7089.2394595575,-0.6494425916,0.2752256431,0.0401411294,-0.83718223,-1095.8151207306,-0.7511793854,0.3276216294,-9.2364740102,-23750.5191639682,-0.9741890294,-7492.0283753053,-0.0298678268,0.2761437152,-5141.6219906272,-0.4210093833,0.1430256624,-5344.7459197573,-0.0493820989,0.8853830751,-219.0552728355,-2.7115976878,0.7439508963,-1.0372278911,-0.7006839011,-0.8968376948,-0.6446050646,-1.3730850628,-0.7743408207,0.8391376657,-0.8519789883,-8009.3896312972,-0.8519787427,-3.8765916102,-27787.578603024,0.4648479187,-0.9658735552,-218.5884858492,-37.4497856029,-0.264082758,-0.431517855,-163.1121082537,0.2130601426,-3.111818405,0.9509817734,-1.5298562064,-0.2412259313,-0.7771787675,-0.1412921325,-145.2023772272,-21.5534215404,0.463868463,-445.0093526567,-7038.4878830506,-5225.7327041808,-466.976269989,0.2278214741,-1.4475672072,-0.9795471038,0.1011147,-669.8831062615,-7536.8659871071,0.0251469356,-1.2549572428,-0.8811369309,-0.6293071839,-1.1182006336,0.8671388523,-0.4237365501,-9.2337624049,-23750.0661607801,0.5129578836,-8042.8972996145,-32.2417266273,-0.4481616615,-5159.2619905841,0.078474622,-0.3350870562,-5540.9197276154,0.3642416708,0.9546384778,-243.3352981471,-2.3437064377,-0.2219600746,-0.0317851866,-0.0944842717,0.0437956757,0.1843902637,-62.3761822487,0.7588163651,-0.0725144045,-0.3401711931,-7872.5057813769,-0.8447113609,-4.1033445928,-28340.5091303515,0.7103089072,-8.7188830048,-208.8964851017,-37.0069372401,0.832266151,-2.4683324058,-502.1520394022,-0.9982169259,-1.5500654208,-0.9173583113,-0.4802746743,-2.0152733731,0.2858061594,-1.319290889,0.2810902945,-87.7806431842,-0.6067141766,-28.7324585241,-7213.7462692703,-8000.3672282615,-15.9380250345,-0.7930717255,-7.1427940468,-1.1016933494,0.7115177714,-11.8522536106,-6679.2090185283,-1.0526045675,-2.065115088,0.3812825611,-0.0498412917,0.5013652165,-0.4629125723,-0.0368217723,-1.5508963123,-23749.9061694639,-0.8401275173,-8397.6144934118,-2.7677837415,0.0574052535,-5034.6665983075,-1707.1303508557,0.675464631,-5614.0994764461,-0.6006940984,-0.382903148,-0.301330024,-1.967178197,0.8129959884,-2.1870527773,-1.086868514,0.8201415175,-0.3741116323,-49.8604528147,0.7225700498,-0.9461181702,-0.6734202243,-1250.1488373223,0.1806194733,-327.4697366712,-26855.6408553148,-0.1547677719,0.9095862604,-116.0100429847,-88.5955138202,-1.0855708638,-1.1140142314,-375.8670478652,-0.8652041195,-1.5176468555,0.7828647205,-0.6010042607,-0.3473051035,-0.5446860831,-5.0170260127,-126.9316422558,-866.8064097688,-0.5939772696,0.1260814038,-7534.6829566759,-7808.750289937,-405.1936985346,0.4880602391,-2.4490547996,0.3463217605,0.0185734551,-3553.8757830733,-1.402628689,0.1469455488,-1.180837317,-0.1022210508,0.5989920047,-0.9416592517,-0.4635612819,-0.4922782647,-12.174793115,-23750.7337369855,-1.0609801931,0.1383738302,-1.7244066216,-0.4517911985,-5769.6306712267,-0.2221084184,0.3396250436,-6785.2131914871,-0.945496826,0.3275289926,0.2497895529,-3.0261787973,0.0946584576,0.2379186947,-1.2220392885,-14.2845531473,-0.0915928578,-1674.3551806298,0.5458658514,0.4392199036,-0.7902311623,-7.9746143751,-0.4392054151,-2.3294716968,-27653.0211469631,-0.6052498996,-0.4339729474,-820.6164879361,-134.9288421551,0.8101128723,-1.0287496557,-78.9723624418,-1.0319704532,-0.7260159366,-0.514499056,-0.6327958167,-0.8568839399,0.0569744585,-0.5175350901,-0.8282342014,-1562.5532932975,-1.0471174029,-0.6761002058,-2.3552252204,-3067.0921774086,-24.0263904984,0.0121914933,-7.0433950371,-0.7922266331,0.5971209209,-9470.4515461146,-0.6673629085,-0.4170042828,0.510671416,-0.1707617131,-0.4922428712,0.2614016341,-0.7889991684,0.6520652859,-8.0889852214,-23750.584144452,0.1476508103,-12.2582429042,-3.6959242681,-0.5476764309,-5267.0210013338,-0.2528466339,-2.6659355207,0.1186999041,-0.2473785715,-0.816506398,-0.7347975562,-1.9629206228,0.4066348285,-0.7685340966,-1.7597756231,0.8810446632,0.1395303592,-268.1085106389,0.7596876232,-0.1100531066,-0.0269371226,-9.1307149681,-0.0500012708,-3.8044311467,-27930.5994249871,-0.396434308,0.7236128837,-474.3190718497,-179.6132914452,-0.3142824603,-1.0378288566,-169.8132901357,-0.0191457203,-1.1351612397,-0.6834123071,-0.0274066367,0.0415504101,0.4208433783,-24.3790227855,0.0979863359,-1472.9534775034,0.6090833809,0.9348874027,-3.5806522486,-8861.9854737515,-17.2686132261,0.6293584766,-3.836772592,-0.2043236117,-0.589771134,-9354.3637554426,-0.9217662981,0.5888580462,-1.1500170891,-1.0290668039,0.5294753934,0.4995446818,-0.737300263,0.8846165349,-18.6698203499,-23750.1506103766,0.1127635157,-7776.8952168126,-1.2899702304,-0.0077814951,-4926.9365322832,-0.9059189297,-0.9789884093,-0.6323138172,-0.1599796643,0.6981025744,-242.0579443707,-2.5475996507,0.4680145219,-1.0969682208,-0.0034286792,-1.3039078639,-0.8773430373,-61.1474972863,-8.5014119185,-0.1119129192,0.7467231371,-3408.6918437203,-0.5415223441,-2.5752170479,-28485.6224412047,0.2664004568,0.5286889255,-400.404086645,-76.2031138157,-0.4627664946,-0.2591565551,-501.2975909163,-0.2117696614,-2.9909236683,-0.0301082607,0.3019466384,-0.2966519046,-0.6218933259,0.2797211116,0.5407311381,-7.7977645858,-0.1181434449,-123.5885504451,-0.4705080792,-7862.2629658426,-19.0425497305,0.5726244317,-2.0954675674,-1.0431813455,0.7041763585,-4132.0934549114,-0.0324588122,-1.0069207975,-0.4977011146,-0.1611198728,-0.0083609245,-481.2261657347,0.0267850172,0.3252786866,-36.0723004999,-23750.6677276016,-0.9816578087,-7028.5560470412,-1.6075329987,-0.7624967262,-4603.7016761165,-1192.1089854798,-0.9485394061,-5925.4980795295,0.1054618681,-0.8936519753,-242.8924007747,-2.3426037263,-0.1066015821,0.1919234526,-0.449392532,-0.1559118782,0.1691672892,-138.2842876315,-0.524421081,-0.9592069097,-0.5158812381,-9476.8902952141,-0.9417973276,-1.6085239299,-27129.6164154043,0.937111011,-17.9653154889,-0.7967748834,-18.0012691826,0.3043945108,-0.658249642,-61.5264693285,0.449404274,-0.7723163677,-0.5517726607,0.1393708449,0.7642261726,0.7213381294,-0.471551776,0.8517606731,-0.5287820105,0.3732970199,-22.3085360692,-7072.112198444,-5174.1742864739,-405.6415537288,-0.6385674412,-0.3364358873,-0.8709387835,0.1606480997,-2074.2633386618,-0.661753813,0.706986121,-0.189437433,-0.2437020673,-3.070628984,-1237.6689485726,-0.0970219929,0.3231400336,-20.2077103116,-23751.5804900755,0.6285604781,-7394.4251302581,-29.184271155,-0.5669372566,-6341.737124635,-1550.5501978888,-0.4666829844,-6066.9441150905,-1.0687638369,0.1838538319,-243.7513946335,-2.1192275087,0.959156156,-0.888260601,-0.3099705989,0.7901019913,0.3989587461,-732.7877311049,-1.0655053612,-7.276006833,-0.7633307112,-8481.607100158,-1.4518680786,-7.1467219655,-27664.1761127383,0.9092899305,0.7455510128,-194.9204242169,-29.8620881356,0.6785279428,-0.4209481163,-156.4129347558,-1.2310360119,-1.0698044403,-0.1066612902,-0.7507645035,0.2586067597,0.9436871895,-0.3885750206,-1.8893601778,-0.7771744988,0.086458443,-58.2817787776,-7429.301479247,-0.841696607,-417.5562863561,-0.9572079443,-1.3948121563,0.3235732811,-0.637364133,-2352.9411759822,-4.0675555982,-1.0069087644,0.4132203751,-1.0124741453,-0.7679485217,-0.6043559427,-0.4356743847,0.4657416372,-5.0193560383,-23751.817236451,-0.5904167464,-7721.5906418615,-1.4559389904,0.7774267085,-5935.662583605,0.3654544475,-1.4397937651,-0.6126493945,0.2798283396,0.1944793434,-0.539502862,-0.4389394712,0.4727807162,-0.6306995393,-1.2826171394,0.4555314092,0.7133571044,0.1289400088,-0.153709945,-0.8975597242,0.1925226928,-7900.0156471067,-0.1556381194,-1.2055322712,-28454.2955783723,-0.3677201533,-0.7123222249,-2724.5326080652,-90.974898215,-0.4814553682,0.1273804131,-62.5398997692,-1.1786551476,-1.2280704692,-0.8918546276,-1.1875899704,-0.133273569,0.0177146299,0.0066490674,-0.0234962942,-332.2298244565,-0.4149301544,-101.4779529402,-0.7865942909,-8711.2235532808,-17.6538460288,-13.4353565957,-8.4509997093,0.595587114,-0.4957058581,-2.8792117529,-0.6337866626,-0.633825377,0.430884696,-0.3923921089,-0.4285016359,-766.3998737441,0.2568124766,-0.1910106494,-12.9400794129,-23750.8939142074,-0.3583778357,-7691.5918274841,-1.5010286595,0.1804923935,-5237.6785346672,-0.2373954473,0.4236827064,-5078.3711093158,0.2474592595,0.2809574152,-0.2109339181,-1.8592175326,-0.275986028,0.2883618328,-0.106964221,0.4085618091,-0.7161970275,-1108.0335084773,-0.758915014,-1.1071359886,-0.1145165192,-3832.3305357357,-0.6130001449,-165.2583020109,-27054.3807941173,0.3120317934,-0.8393578896,-167.8253397858,-26.4198956044,0.25834951,-0.3489740866,-181.8747348196,0.1135784289,-1.3654914126,-0.3540686643,-0.5610417441,-1.0351219608,-0.8139676265,-0.8812692333,-1.1993525434,-931.5627431258,-0.8105838841,-0.8642980568,-6831.6715880325,-6408.3752628326,-416.6139684969,0.1667607562,-2.0098860529,0.4045797861,-0.9789198558,-2953.5318457988,-0.9520795807,-0.2042047506,-0.5061681837,-0.2937239793,0.3078013625,-0.2906829218,-0.3524605366,-0.0223748016,-7.7560549083,-23751.7367387981,-1.0973846728,-1.5257044866,-2.2326919819,0.2815913276,-5341.5370966723,-0.9271754788,-0.7134824893,-6350.5167370057,-1.2140234116,0.5830522561,-0.8589898054,-1.547091617,-0.5567677294,-0.1334772542,-0.4566984746,-25.4708939094,0.1730265306,-918.5005441269,-0.6803177046,0.8950048752,0.9875523275,-2231.6657167608,0.2849330198,-6.2307369995,-26855.9982027126,-0.4442423936,-0.7029390669,-1908.4810575273,-161.8479835203,0.9258330953,-0.6825716109,-7.4430494267,-1.313322442,0.1887585993,0.0607622035,-1.386074443,-1.3776514732,-0.1271778787,0.0322374723,-1.804076861,-214.2364481187,-0.887506405,0.6927303668,-7.7122412103,-4.2820321966,-408.7652228929,-1.0656703719,-1.9241109408,-28.9957997878,-0.4887070994,-9713.7785886288,-0.7338196654,-0.4848789004,-0.6691965475,0.2475381816,0.2247084643,0.4692871589,0.2221221348,0.3221643587,-25.8192659043,-23750.0645178471,-0.5334981744,-7326.5233671061,-0.4096416353,0.4421947458,-5209.8086195525,-1137.7778701376,-0.8259879943,-5668.1782347602,-0.2365826387,0.8098300392,-243.0645692272,-3.3723886089,-0.9578807953,0.022578465,-0.1319039849,-0.7147263134,-0.1630244201,-1255.3488096744,0.8184910986,-0.8571451886,0.885123011,-8871.7834201704,-0.7628902109,-3.1941360022,-28198.3089680524,0.0903994734,-0.1189220862,-705.8470740246,-26.8751915129,-0.7033685488,-0.6504823858,-501.5294058447,-0.6736377382,-1.8105204669,-0.0462220286,-0.1269345644,-0.0484819912,0.6934838558,0.0075691188,0.1511411468,-1032.9214181922,0.3407638675,-17.2411907881,-7362.7452171782,-7825.481563518,-16.3612586337,-0.4199886229,-1.0960431329,-0.4170049761,-0.8777048054,0.1080197591,-7066.6900749467,0.2632188227,0.1912083771,0.1646478489,-0.5080948864,-0.9301628439,0.9276103278,0.4940527331,-5.380007663,-23751.0348511994,-0.0992377741,-8091.2661223333,-1.335200393,-0.3690761463,-8.3300550062,-0.0433722732,-0.8188171741,-6585.2761722026,-0.0244940296,-0.9560103236,-2.3480884897,-1.9670177766,-0.6408101713,0.2986904165,0.1055892145,-0.1574115381,0.2211881426,-1.2403661032,0.1500059547,-0.642802507,0.4727630747,-647.348784743,0.4679662625,-3.7989673119,-26130.1717249796,0.5678800926,0.5487898976,-1883.3730025389,-29.5254322194,-0.6176963423,0.1373900266,-109.7466830099,-0.4715193744,-3.0931020515,0.4226002311,-1.5457306788,-1.2146316299,0.9349444344,0.9114487946,-1.1241294943,-1312.744162152,0.0256766368,-0.9034538884,-1.2994765308,-8555.6900168486,-502.9644795113,0.3268508005,-20.3607728989,-0.7749065168,0.0260165764,-9739.1694483591,0.6294650809,-0.8304075125,0.1392213365,0.5868899333,0.0894372775,-0.5167646672,-0.1869785168,0.2203972093,-2.0589756155,-23750.5898249859,-1.0568759358,-8671.8015770648,-25.2971047281,-0.5804225243,-5808.2179266376,-1290.4971112957,-0.0520138291,-0.2169315756,0.6291405477,-0.3921831307,-14.7900109976,-2.2174626183,-0.6564216931,-0.535251136,-1.000774867,-0.7612811936,-0.8898602211,-1403.3206047046,-0.5219083505,-0.4511879265,0.7544860448,-242.2072591734,-0.5245221375,-0.9269362714,-28208.435723595,-0.0729500918,-0.4111864397,0.6762247751,-25.8764946614,0.3200857134,0.6784743763,-30.9911353243,-0.4722207952,-1.2243335577,-0.2730346852,-0.5377708011,-0.3819293511,0.5135040723,0.2410580513,-0.0219176723,-607.7687317281,-1.0310725195,-0.9140313537,-0.1412705447,-7695.9878072847,-16.894830167,-2.0577923002,-20.5076910931,-0.0712311283,-0.9737780297,-6240.0040941398,-0.5494542719,0.6437961808,-0.6490408154,0.3285129575,-0.6844642656,-1194.9031080878,0.3916759253,-0.6690846943,-18.507432828,-23750.4638428464,-0.7290214395,-6764.4866976174,-25.952158683,0.2356383636,-5671.2990658099,-0.6096582195,-0.24186107,-5667.8495724282,-0.6504398062,0.3189195289,0.9329898525,-3.633137689,-0.5280427106,-1008.9679901945,0.3528728387,0.0723104917,-0.7463889914,-516.5013548735,0.3085001915,-0.1632241245,0.6888809988,-9138.0918080448,-0.4007069151,-3.9487792677,-28147.6721070367,-0.8618012737,0.37375873,-243.8343430578,-38.2287429193,0.3815069655,-0.9886108631,-501.1573529086,-0.3573278009,-0.7849172176,-0.0227099447,0.2959149685,-0.5356251719,0.744086721,0.7139841739,-4.8224196585,-715.6449467215,-0.3162129817,-14.3682752485,-7164.5426382565,-8426.8835470034,-414.1496407234,-0.3044725091,-3.628506529,0.6407962989,0.4505084929,0.43876244,-1296.7576228792,-0.2752866557,-0.5096046891,-0.4575335473,-2.6510117554,-579.0921905452,-1.1667700893,0.9610975056,-2.6629963302,-23752.3250023886,-1.0896730876,-8473.3040906831,-58.3212675136,-0.8005649496,-5780.4419496301,-0.69891349,-4.1008372387,-6082.7118831187,0.3377387645,-0.5066330863,-242.0772736988,-1.8589190965,0.9362490155,-7.2130560081,-0.5349865505,0.1215886637,0.9979771601,-1661.1101814445,-0.8785018054,-0.0295404631,-0.2625715986,-0.72207387,0.485504249,-0.2863057808,-28110.1557257927,0.5136391129,0.0070588037,-694.8266005289,-14.2530286028,0.2088784153,0.1360140004,-85.2720387377,-1.0917103742,-3.074125214,0.074604103,-1.2861196205,0.5394778162,0.6581609646,-1.3060261031,-0.6906978077,-1490.2257014082,0.5029656458,-1.055831097,-2.8372687464,-9012.8529501856,-26.7597682776,0.6115373488,-34.9419959011,-1.1117545666,-0.0067990498,-0.1632138363,-2.6800114798,-0.5234790334,0.6379483244,-1.2699944536,-0.1637796801,-941.6081645338,-1.0202431394,-0.0830496834,-12.7537824908,-23750.4756546327,0.8428259446,-7698.1902406396,-30.2423410531,-0.6382508819,-5579.8772757057,-0.4249595787,0.1954765597,-5279.3142641186,0.2595648111,-0.4440606093,-243.3265192076,-2.8653297959,0.6568493644,-0.7849267118,-0.1156875015,-0.933917493,-0.6684747002,-1.6325085095,-0.4535456477,-0.2216377683,0.0878489477,-7895.8918200779,-1.2864636227,-8.8397429428,-27730.6166822195,0.8431433439,0.3378045627,-555.8209779124,-28.8471965816,0.1145698675,-0.4002147079,-157.9781415129,-0.2903505245,-0.7480220627,-0.2200156904,-0.5068553074,0.0154822909,-0.8708876184,0.62693473,-13.6237522702,0.828855199,-0.9931307242,-37.8447111253,-7073.1280560137,-8758.9275055134,-409.3842708965,-0.770040252,-1.010576219,0.2428374037,-1.0262016962,-1607.3857430054,-1389.6973131242,-0.7512136493,0.3711521903,-0.291797879,-0.2571430702,-1.1569340466,-0.2980365144,-0.9969153819,-10.3945035308,-23750.1439971581,-1.1100417577,-7756.0126119842,-0.0348867657,0.9458514484,-4556.9092645917,-0.2736275426,-1.0771559349,-0.3296726267,0.6037568399,-0.2031357525,0.4393238747,-2.3035749823,-0.094920806,0.3007423589,-1.2109768354,-73.8172212258,-1.0574270646,-68.5700223346,0.5610953752,-0.7827414123,-0.796997693,-197.2672389204,-0.4067397863,-15.5261427478,-27252.950071521,0.5015397189,-15.1690860359,0.825906507,-134.2732235587,0.062485998,-0.3529961988,-0.2248429143,-1.0143305716,-0.8016600798,0.508158006,-0.6253475389,-0.8861540571,0.556392203,0.2006085391,0.4817218148,-319.142698508,-0.6364307951,0.1372703971,-0.6322297394,-8259.4148002244,-18.5627068891,0.290311222,-3.1514708725,0.6409007867,0.7298359315,-7921.4470586862,-0.068556992,-0.607501637,-0.3894166194,-0.3250747141,-0.316850646,-1135.0501738825,-0.5830549832,-0.4049806884,-21.2869397022,-23751.5400363477,-0.753796742,-7042.2124989377,-13.6435517681,0.7047690211,-5157.752458905,-0.7951255674,-1.8801017974,-5467.1752185195,0.5913167204,0.4305164316,-243.3036277497,-3.1400350503,0.1675962253,-0.8336000222,-1.3779740056,-0.6588175979,0.7770539482,-983.8194810143,-0.9703438586,0.8187878731,0.04044533,-8938.2762032592,-0.5581829707,-5.2802422938,-27655.6145642919,-0.1507524229,-0.2663334413,-160.1305119553,-22.3523129302,0.1490254974,-0.2867586999,-500.4092252292,0.4177526322,-3.2638823716,-0.7741005161,-1.4771809979,-1.1882558875,0.0749937389,0.0514534154,-1.186447885,-0.5025382174,-0.7276687301,-45.8671700234,-6794.6290758949,-1379.6868254591,-229.0019196147,0.5123915922,-1.0066265857,0.6967396098,-0.7271119444,-1247.3448445623,-7324.8294147729,0.0225110434,-0.2556903743,0.1203645475,-0.4896294625,-69.2621680629,0.6413449657,0.1007270377,-0.8247149684,-0.1086122222,-33775.574138934,-7122.5242542779,-8.0634954509,0.650397763,-5411.5979618271,0.7463474955,-0.1572763934,-5971.2507866716,-0.4040604242,0.2676353916,0.9329919099,-4.2523363418,0.6154545849,-1.1929966805,-0.1316345217,0.5242765756,0.8289672624,-40.5926159343,-0.6762200216,-1.1354482841,-0.4845706363,-6684.5384799432,-1.8943099752,-2497.0637574425,-3999.6240179017,-0.3357132749,0.2259030014,-616.3327477783,-0.0833831105,-0.6028919611,0.6344850503,-0.5965788762,-1.4810850852,-0.698687938,-420.3206976434,-1.0225666575,-0.4093179616,-0.3026595432,-0.8354314534,-2.8909981549,-103.0933570707,-1.2397030487,-0.3466797333,-6236.9195168731,-6771.4403590797,0.1145094656,-1.0034156715,0.5949108487,-0.6718826782,0.5270132653,-0.9333544724,-6776.0062298859,0.4380104431,-0.5330771854,-0.6999310076,0.6510687776,-533.4877694954,-0.7019416131,0.4315434109,-0.859188377,-1.9833231093,-33774.6075955425,0.1633686223,-2.5206731723,-0.4097129014,-6408.875465193,-564.0776211141,-0.2268753586,-6988.6978168746,-0.9424242485,-0.272497072,0.6445766855,-0.4820211387,-0.5989637897,-194.3913981166,0.3856952987,0.4370733614,0.5007298811,-134.2711629163,-0.6327002458,-0.8688396343,-0.4066966919,-0.240175749,-0.6995431606,-0.8320152025,-4282.4082181294,-0.3775385607,-0.6112490176,-585.0887632939,-595.7711063521,0.5070283427,-0.9564065962,0.0739098138,-0.2129908871,-0.9825338309,-0.3234729926,0.7501150669,0.111413244,0.9425188307,-0.49609511,-1.0875583791,-108.4767536569,-0.1911212826,-0.1651822125,0.523080492,-5.2402212936,-0.2435074212,-0.9776689654,-544.8410150614,-217.1675438498,0.8019143389,-5223.6581923748,-0.3747879264,-9.9546750679,0.3476779911,0.2620077248,0.4116798768,-533.6763254577,-0.89122011,0.9588029336,-0.5337521506,-1.2406772589,-33775.1696904993,-7626.0086171346,-13.1722464814,0.0408825792,-5636.9065069544,-1337.2395554085,-1.8548509739,-5312.5450871334,-0.2995985708,0.2334812863,0.2890960464,-3.8536475969,-0.7486590463,-0.4689484872,-0.4923490464,-0.2722104439,-0.8449432918,-336.6591443417,0.6511706957,-1.2312715305,0.5726197213,-1920.9005619368,-0.8006729251,-23.5592789941,-3779.4143510942,0.0731218285,0.2125237033,-454.4657558901,-336.5290721114,-0.3531326716,0.5466474412,-0.6253016298,-0.4381486179,-0.972768871,-1.0648151174,-0.6454967201,-0.6990127515,0.7019291525,0.5998344203,-0.2034760933,-772.1018437102,-0.2154362908,-0.5604126275,-4587.9999557411,-7282.4842189869,0.6574572437,0.5816119609,0.8433202329,-92.5512657563,-0.2794770562,-4379.9128473667,-0.8960725697,0.3853176147,-0.9621952792,0.3092771313,0.3798832795,-11.4481617313,0.2581961074,0.9961336399,-0.4749470755,-1.7097484357,-33775.3963946938,-7549.6361702298,-0.5372596252,0.2213400238,-5659.9956579384,0.1859603415,-0.224340404,-6499.2399108529,-0.217348668,-0.6961640833,-0.2769949572,-1.0496173071,-0.499318325,-1.219608563,0.0892704496,-5.4124268334,-0.3073842466,-1664.9010135805,0.8018738826,-1.5639648434,-0.4010324188,-4137.1047019755,-1.3309919667,-17.0815954373,-2811.0166874453,0.0671342512,-0.2879571843,-736.098537708,-485.0481879464,0.1047878705,0.1788397618,-0.7505327187,-1.2751023654,-0.1826081098,-0.472599791,-1.7272401797,-1.1652695951,0.3464656922,-0.049314756,0.0108185443,-1635.869049707,-0.3969319699,-0.2296436662,-6523.5557898049,-7685.1610297814,-0.6595799236,0.2613695654,-0.9206013536,-105.9087749062,-0.4579541432,-2204.1133830099,-6530.80441155,-0.2568357527,0.0493647797,-0.6288995374,0.3257597905,-597.8737340011,-0.3066009387,-0.3050513095,0.8060001355,-0.3207487298,-33773.8221695314,-7219.3156753527,-1.3756033786,0.2361681098,-6532.1066686109,-1665.6162650566,-1.5049712414,-0.8895613304,-0.2208709667,0.6498182517,-386.7964097546,-2.4135115301,-0.6956786366,-1.1590255313,-0.6656435544,-0.5496672544,0.4766787012,-1585.5289343524,-0.6607519525,-1.1143093893,-0.4031908297,-9361.2928580634,-2.087090017,-0.573960584,-3985.2961856553,-0.3874528895,0.5414514624,-2532.9206851864,-93.4057265892,-0.167360694,0.3001961573,-0.5749103315,-0.9362532818,-2.2563758675,-325.3737900791,-0.9067300523,-0.7203264787,0.0368839382,-1.0206820543,-0.2992740452,-1433.3636210605,-0.3964924583,-7.2896857683,-5159.8749597402,-3.2762180959,0.4330542968,-0.13719967,-43.4520923618,0.2384138645,0.894575254,-0.7219330874,-1.4830280347,-0.4439246985,-1.1356861879,-0.3653445308,0.3241223826,-33.2675392741,0.0625126458,-0.7582279327,-0.575131606,-1.7806626529,-33775.6346089,-7937.4817264035,-6.2487122804,-0.5460156592,-6137.290454488,-0.9848308344,-0.6462746835,-0.6115712109,-0.0964448391,0.8210783686,0.7709801434,-1.1738973717,0.8234818895,-0.8916377492,-1.2438052519,0.6753006455,0.7407335727,-1138.9085486024,0.3813850062,-0.4922566964,-0.1288952197,-7378.1636166452,-1.6743481071,-266.0715302959,-3163.303106163,0.2302338382,0.6715137579,-956.7324670523,-234.2369624625,0.4721714892,0.4486348915,-0.284419,-0.0398349046,0.1152337458,-3.5410011838,-0.3450204392,-1.7993016439,0.432624446,-1.4037389914,0.2911020365,-0.1742086772,-0.7316488939,-0.4961687178,-6743.2176830024,-988.6066707895,-0.335707853,0.004535282,-6.0620663936,-0.93244127,0.8488482977,-1962.2845965098,-0.7254766102,-0.8506855584,-0.0357702536,0.6758807191,-1.927484861,-1588.8221609252,-0.431888983,-0.9313110469,-0.953543533,-1.9371215934,-33774.3129082613,-7211.4236770236,-16.4685839517,-0.937444195,-5868.9263537971,-3997.2845300443,-1.7208787708,-3531.7004997813,0.2540261367,-0.914724446,-0.172300287,-3.9225065956,0.9261927712,-1.2334671309,-0.3784731905,0.6286195721,-0.6469097817,-1185.0621687453,0.8434614606,-2.0303697635,-0.1318049798,-8397.9979314648,-1.435680288,-476.8380301998,-3774.480566288,-0.7012136908,-1.0564707678,-69.4000319965,-106.0209124773,-0.3562614671,0.5502530169,0.8464670757,-2.1074942331,-0.7232541524,-268.2463424982,-1.6067219839,0.2083589049,0.0945183059,0.4756876503,-0.1806860586,-0.3120027129,-0.1034948667,-0.2511882491,-1.3037968921,-5.8877039815,0.4062366329,-1.0413741147,-0.2451867432,0.169972441,0.1892512159,-9473.5163859224,-0.3944736133,-0.9088995049,0.1048176208,-0.1899942241,-0.1833090058,-220.4400004006,0.5144929385,-0.8009358698,-0.7860440448,-1.4509512418,-33774.3560092968,-7322.4870005809,0.2371258052,0.5358313695,-4076.8753224182,0.2095800837,-3.8827873908,-4735.8709216975,-1.1079632875,0.3031475618,-386.4917720705,-2.0674393448,-0.625091112,-1.4877610643,-0.2373808715,-0.1364693875,0.0732522646,-0.2422010351,0.6424292001,-0.0761024998,0.7290838518,-7906.0349279569,-0.8006900118,-29.9059893458,-3351.5826379058,-1.2584770668,0.1391778011,-1165.8589306115,-85.2316145588,0.1552935056,-0.0234527453,-0.0948922516,-0.9534537821,-0.85596459,-0.67622879,-0.7079364931,-1.5083878281,-0.8859191346
