encog,BasicNetwork,java,3.4.0,1,1589377661225
[BASIC]
[BASIC:PARAMS]
[BASIC:NETWORK]
beginTraining=0
connectionLimit=0
contextTargetOffset=0,0,0,0,0
contextTargetSize=0,0,0,0,0
endTraining=4
hasContext=f
inputCount=635
layerCounts=636,61,61,61,636
layerFeedCounts=635,60,60,60,635
layerContextCount=0,0,0,0,0
layerIndex=0,636,697,758,819
output=1,1,1,1,1,1,1,1,1,1,1,1,1,1,1,1,1,1,1,1,1,1,1,1,1,1,1,1,1,1,1,1,1,1,1,1,1,1,1,1,1,1,1,1,1,1,1,1,1,1,1,1,1,1,1,1,1,1,1,1,1,1,1,1,1,1,1,1,1,1,1,1,1,1,1,1,1,1,1,1,1,1,1,1,1,1,1,1,1,1,1,1,1,1,1,1,1,1,1,1,1,1,1,1,1,1,1,1,1,1,1,1,1,1,1,1,1,1,1,1,1,1,1,1,1,1,1,1,1,1,1,1,1,1,1,1,1,1,1,1,1,1,1,1,1,1,1,1,1,1,1,1,1,1,1,1,1,1,1,1,1,1,1,1,1,1,1,1,1,1,1,1,1,1,1,1,1,1,1,1,1,1,1,1,1,1,1,1,1,1,1,1,1,1,1,1,1,1,1,1,1,1,1,1,1,1,1,1,1,1,1,1,1,1,1,1,1,1,1,1,1,1,1,1,1,1,1,1,1,1,1,1,1,1,1,1,1,1,1,1,1,1,1,1,1,1,1,1,1,1,1,1,1,1,1,1,1,1,1,1,1,1,1,1,1,1,1,1,1,1,1,1,1,1,1,1,1,1,1,1,1,1,1,1,1,1,1,1,1,1,1,1,1,1,1,1,1,1,1,1,1,1,1,1,1,1,1,1,1,1,1,1,1,1,1,1,1,1,1,1,1,1,1,1,1,1,1,1,1,1,1,1,1,1,1,1,1,1,1,1,1,1,1,1,1,1,1,1,1,1,1,1,1,1,1,1,1,1,1,1,1,1,1,1,1,1,1,1,1,1,1,1,1,1,1,1,1,1,1,1,1,1,1,1,1,1,1,1,1,1,1,1,1,1,1,1,1,1,1,1,1,1,1,1,1,1,1,1,1,1,1,1,1,1,1,1,1,1,1,1,1,1,1,1,1,1,1,1,1,1,1,1,1,1,1,1,1,1,1,1,1,1,1,1,1,1,1,1,1,1,1,1,1,1,1,1,1,1,1,1,1,1,1,1,1,1,1,1,1,1,1,1,1,1,1,1,1,1,1,1,1,1,1,1,1,1,1,1,1,1,1,1,1,1,1,1,1,1,1,1,1,1,1,1,1,1,1,1,1,1,1,1,1,1,1,1,1,1,1,1,1,1,1,1,1,1,1,1,1,1,1,1,1,1,1,1,1,1,1,1,1,1,1,1,1,1,1,1,1,1,1,1,1,1,1,1,1,1,1,1,1,1,1,1,1,1,1,1,1,1,1,1,1,1,1,1,1,1,1,1,1,1,1,1,1,1,1,1,1,1,1,1,1,1,1,1,1,1,1,1,1,1,1,1,1,1,1,1,1,1,1,1,1,1,1,1,1,1,1,1,1,1,1,1,1,1,1,1,1,1,1,1,1,1,1,1,1,1,1,1,1,1,1,1,1,1,1,1,1,1,1,1,1,1,1,1,1,1,1,1,1,1,1,1,1,1,1,1,1,1,1,1,1,1,1,1,1,1,1,1,1,1,1,1,1,1,1,1,1,1,1,1,1,1,1,1,1,1,1,1,1,1,1,1,1,1,1,1,1,1,1,1,1,1,1,1,1,1,1,1,1,1,1,1,1,1,1,1,1,1,1,1,1,1,1,1,1,1,1,1,1,1,1,1,1,1,1,1,1,1,1,1,1,1,1,1,1,1,1,1,1,1,1,1,1,1,1,1,1,1,1,1,1,1,1,1,1,1,1,1,1,1,1,1,1,1,1,1,1,1,1,1,1,1,1,1,1,1,1,1,1,1,1,1,1,1,1,1,1,1,1,1,1,1,1,1,1,1,1,13,8,8,12,8,21,5,10,14,13,16,13,10,9,14,7,14,13,13,11,9,10,6,8,13,12,5,9,14,12,14,11,5,12,15,12,11,9,9,9,12,10,15,10,8,7,18,10,14,9,16,15,8,15,13,8,7,11,12,11,16,12,9,6,8,12,12,14,17,13,16,14,9,18,5,9,10,12,11,10,16,5,6,19,12,10,10,16,14,15,11,16,13,16,15,14,18,13,13,13,21,14,17,10,16,8,7,10,5,13,11,16,14,21,10,17,22,12,11,17,14,9,15,14,8,7,16,13,9,11,12,8,12,11,13,12,18,10,10,14,15,12,11,15,12,13,9,13,9,12,17,6,15,17,13,18,14,14,18,12,8,10,19,11,11,18,15,11,6,12,14,18,13,10,7,13,14,14,10,12,11,14,9,11,9,14,8,15,14,11,8,16,17,13,17,15,18,14,9,7,7,12,14,15,13,17,13,16,15,20,16,13,15,14,18,9,8,11,14,19,19,19,15,11,13,14,12,11,19,13,12,13,10,10,9,10,16,7,13,15,10,20,15,14,14,9,14,15,15,5,8,8,12,23,14,14,16,7,15,14,8,15,8,11,12,11,10,11,12,11,9,13,11,15,19,6,15,7,12,16,15,10,21,16,11,20,6,15,10,21,14,10,11,13,19,12,7,13,9,13,10,9,14,15,13,9,14,8,19,15,6,16,13,12,13,16,11,16,15,8,7,11,8,10,11,16,22,20,18,24,17,10,14,9,18,17,16,13,11,11,12,8,15,12,10,15,17,6,15,16,8,15,14,10,20,14,13,9,20,19,14,6,15,20,11,12,18,9,10,16,13,10,7,11,20,12,12,16,16,11,14,7,12,21,15,13,17,14,17,18,9,12,16,12,16,13,14,14,12,10,15,8,12,10,13,11,11,14,11,15,1,1,1,1,1,2,1,1,1,3,1,1,1,1,1,1,1,1,1,1,1,1,1,1,1,1,1,1,1,1,1,1,1,1,1,1,1,1,1,1,1,1,1,1,1,1,1,1,1,1,1,1,1,1,1,1,1,1,1,1,2,1,2,1,1,1,1,1,1,2,1,1,2,1,1,1,1,1,1,1,2,1,3,1,1,2,1,2,1,2,1,1,2,1,1,1,1,1,3,1,1,1,1,1,1,1,1,1,1,1,1,1,1,1,1,1,1,1,1,1,1,1,1,1,1,1,1,1,1,1,1,1,1,1,1,1,1,1,2,1,1,1,1,1,1,2,1,1,1,1,2,1,1,1,1,1,2,1,1,1,1,2,1,1,1,1,1,1,1,1,1,1,1,1,1,1,1,1,2,1,1,1,1,1,1,1,1,1,1,1,1,1,1,1,1,1,1,1,1,1,2,1,1,1,1,1,1,1,1,1,1,1,1,1,1,1,1,1,1,1,1,1,1,1,1,1
outputCount=635
weightIndex=0,38735,42395,46055,84215
weights=##0
##double#84215
   0.0937436902,0.7819495709,0.9827279509,1.180923474,0.63393571,1.103814639,1.166351243,1.143514917,0.5507236913,0.1056642733,0.880143657,1.1548405969,0.5529332012,0.6894598964,0.4894943122,1.1379590498,0.8649432284,0.8636230485,0.0713579649,0.4504958137,0.0366434004,0.3772344104,1.2814986179,0.7314980243,1.0774747414,0.135581908,1.3708071319,1.2138187811,1.5117433108,0.7871769024,1.4242239829,1.0162682841,1.5473831086,1.2864103579,1.3011904843,1.4016483711,0.3827281737,1.5059194266,1.0881817669,1.4873195496,0.4353890115,0.7963266901,0.8478095894,0.7669418065,0.1066405499,0.8042657665,0.8376098458,0.0322670554,0.6306530843,1.3559867018,0.6158058069,0.7699435484,0.0388751442,1.0734233018,0.8560457818,1.5054415308,0.5400950008,1.250105548,0.0531629075,1.0600585612,1.4797661404,1.4575109771,0.7330378983,1.3288775173,1.2751360554,0.7978994086,1.2429620736,1.2612292268,1.5210200305,1.508800521,0.9944410914,0.4189982546,1.2425337471,0.3481602226,1.2245867395,0.4354062279,1.4018567782,0.477798775,0.7715071647,0.7842857993,0.0595719379,1.0003924168,0.2162249031,1.1130500107,0.3427706247,0.1267502336,1.3355166173,0.0984091619,1.2143489284,1.4736239676,0.870094695,1.4160896877,1.4952062649,1.2172285289,1.0488776504,0.1145290571,0.898284668,0.9515984855,1.3838775858,1.3263242305,0.8394929038,0.7335750336,0.6814614558,1.1507135079,1.2001613985,1.2621759221,0.7470484288,0.217573344,1.0550470007,0.7948494931,1.0195900868,0.057371712,0.9823103651,1.1083578912,1.1319475097,0.8893247546,1.5451044312,0.68542424,1.1533527311,1.3506373101,0.4357992237,1.3928303819,0.543037602,0.4646189507,0.8035821253,0.6375047891,0.8497226614,0.8782316965,1.4364200428,0.634394369,0.5404817239,0.6059831544,1.4231839807,0.10211653,0.1527675021,0.1023639067,0.1319937693,0.1758478092,0.2496973075,0.2394730448,0.027922713,0.41653207,0.9555509559,0.0482485437,1.1112274102,1.5254682855,1.1462874788,0.9940093029,1.2615889223,1.1150184326,0.1940636872,1.4310554106,1.5292846586,0.9847344512,1.3014920658,1.2313980453,0.0829222693,0.9268341143,0.1427711039,0.7880563916,0.918557095,1.1589823954,1.0122424142,1.1983393673,0.277013541,0.2066756645,0.8734248641,0.80398726,1.0689494463,0.1798536241,0.0245949315,1.5238193202,0.3929572327,1.1908084375,0.8198941432,1.0271964156,0.0338895467,0.7873518273,1.1224895666,0.368187922,0.2477210986,0.8595451221,-0.8063593642,0.3881361981,1.1727778061,0.1749166676,1.2383675251,1.5154966078,0.8290819204,0.1424805154,0.8261207852,0.1427022575,0.964292131,0.6203253846,1.4557287575,0.6434381438,1.0523902759,1.4518967133,1.0266574634,0.0260227055,0.3562301455,1.3364714224,1.4981819983,0.2782138316,0.0387119274,0.2910527641,0.8945666544,0.0776542403,0.544276077,0.8353184898,1.1231063586,0.3092992263,0.2656849446,0.2528872338,0.0650659392,1.3209193967,0.9836363082,0.194915237,0.3119254984,0.8934911218,0.2993999408,0.5248169266,0.0313823638,1.506597058,0.3404565702,0.1483064967,1.2193385809,1.5582144157,0.8981271113,0.3056923597,1.1314160583,0.9020933734,0.5705945709,0.6783828445,1.4006755958,0.9071477988,0.9924022927,1.1010071813,1.0940914956,0.9958707451,0.1660166679,0.4710829556,0.3532763111,-0.0953195718,1.2089357355,1.2547608441,1.09620382,1.2014276085,0.6020596357,1.4064428205,0.3445609681,0.8415222489,1.2383679802,0.3088991681,1.312687833,0.6226224133,0.0095372012,1.0544068171,0.139749295,0.6845892796,1.0459152274,1.4740518357,0.5326774558,0.232102374,1.3689160975,0.5441678151,0.2723036641,0.6978722819,1.0456926626,1.1045469892,0.3740153895,0.1447370987,0.7538194325,0.2593209969,1.19035019,0.4541681301,0.203648716,1.1544167218,0.5998949416,0.339447072,1.2860881464,0.251844058,1.0055636428,0.5231337204,0.7137725889,0.7732501518,0.4281871902,0.6167451244,0.2552083913,0.0459017083,0.3410059633,0.0450227365,1.5141603521,0.8755767238,1.2580631885,0.3204014889,1.2318591607,0.616257683,0.0618555155,1.5366559197,0.6105924662,1.2969776442,0.049192153,1.5560610398,1.0146733697,1.286625136,0.3734395675,1.1780529883,1.5576971576,1.5479119548,1.4167221579,0.2562041453,0.2880442846,0.0890971813,1.1910423424,1.1507753836,0.6051484384,0.4406813158,1.3662615521,0.8642202958,0.1792397652,0.7913173024,0.5705402643,0.8195150038,0.9815368357,0.0458881625,0.9612551141,1.0680519242,0.6156184714,0.3107806858,1.1016296072,1.2957532371,1.4446381236,1.1059544659,0.8028940487,0.7761892127,0.7310741752,0.9151009385,0.3224430487,1.5269734336,0.5707360491,0.382125746,0.3716448972,0.5689570023,1.1520894999,1.149421465,0.9781859923,1.2015438522,0.492310558,1.0121981818,0.8871506279,0.8682574694,0.528614517,1.1851881253,0.2350071167,0.7141615043,1.1474491311,1.1915106821,0.9714343457,1.3087852578,1.0491082421,0.3297189665,0.2029495394,0.2676484847,1.177623458,-1.3276796961,0.6122253178,0.9429001371,0.1427336083,0.506509635,0.5214527666,1.4713490751,1.0867745423,1.0988978133,0.6979496843,1.5148853369,0.4708349759,0.6246338902,0.3748820131,0.8860711108,0.9589507899,0.4864259033,0.2231995295,1.0847696313,1.3335244507,1.040715735,0.0233652102,0.1400328487,0.2199429876,0.3528302734,1.3098061708,0.3163665705,0.824122883,0.5713195769,1.4199496597,0.6200030156,0.4537009705,0.0770431312,0.5372592504,0.556265052,0.2914916232,0.3696821892,0.3347127314,1.0444875878,1.2390318077,1.4842716348,0.9300142909,0.6701833578,0.3500088906,1.4648579254,0.5270259923,1.4744567343,0.8155424144,0.2725719844,1.1863780379,0.5098171477,1.5306112986,1.1963983965,1.3042148391,1.2520700273,0.0242612001,0.6091494369,0.2672575322,0.7063053496,0.6783642265,1.5514224684,0.0859262925,1.0882737139,0.688185686,0.166475212,0.164567104,1.418265318,1.2431910258,1.2471274318,1.1135131619,1.1017736953,1.5094487468,0.3819167386,1.4097668325,0.6660106287,1.2942370528,1.1523010964,0.6918072301,0.5871881845,0.0131482167,0.9631594109,0.2775969228,0.1861022786,0.0364708838,1.3240546825,0.1983893969,0.8645628258,1.1255633759,0.7377717491,0.0130906713,1.1677245595,0.9774072885,0.845995431,1.3786666637,1.0929027636,0.1761768893,0.1182863101,1.3119821575,0.3236195188,0.4932038774,1.0808449244,0.5626857705,1.5201346336,0.6008041676,0.2711324868,0.2306879724,0.3748995491,0.2057310659,1.093511519,0.4208140958,0.1351161014,1.2013103605,0.0371017293,1.1419350618,0.2988120199,0.8382857678,0.9865983299,1.2497980523,0.1877820557,0.5970082301,0.2176606631,0.5427489073,-0.1085573131,0.1376220232,0.7077137248,0.5173626828,1.5383491987,1.4626134047,0.5508469304,0.3481769327,0.5702454967,0.9976595552,1.2608527709,1.3418283656,0.5355320959,1.2362471165,0.2598917602,0.9310082878,1.3386070141,0.2994288858,1.4823625582,1.1314759702,0.3876698927,1.4764004133,0.9919079411,0.9158459287,1.3233915939,0.1275400863,0.5311279765,1.2635098766,1.0333476877,0.6114797311,0.7937508403,0.8976016599,0.7152933155,1.1507177129,0.1711903533,1.0377862442,1.2216576991,0.4452807004,0.2912833089,0.350409812,0.6627799772,0.2379682705,0.9144240491,0.4523574589,0.6508264694,1.5155726583,0.5200414523,0.0855253151,0.9956988981,0.8187677623,0.1647879985,1.340240181,1.1963152786,1.1271472731,1.1678134625,0.1154957312,0.4984296717,0.4160054129,1.0287173808,0.0090924975,0.9206096917,1.499686252,0.3634664018,0.7402163971,0.7321555111,0.8487030477,1.3027942171,1.3607571602,0.4615478828,0.9004035632,1.0172650523,1.0489881637,0.3852526656,0.0100244378,1.5515839431,0.0547748582,1.1351447298,0.1941633886,0.4175938949,1.264277395,0.1774083677,0.4496829971,1.4457363019,0.9385658267,0.8692894387,0.5504199815,0.0165212761,1.1944909448,0.717894728,0.9537862645,0.1045225231,1.5016407173,0.307557598,0.2084656824,0.3354198854,0.2426709531,0.7918390683,0.4114964366,1.4993343382,0.2538312366,0.8248947416,1.4236294167,1.3826945831,0.513937974,1.3249847527,1.3506642526,0.5969816564,1.1408075547,0.0502917099,1.0650486147,0.4612729923,1.152977567,0.0374981164,1.1640356335,0.7520153632,0.9077879885,0.9123810848,0.4429255777,1.4637491656,0.8065516923,1.1532611245,1.1660862917,1.120119473,1.3729066695,0.2966625714,1.0094160356,1.0822723494,0.7240173335,0.0036378739,0.4130125873,0.2931764091,0.1467401074,0.3045487102,1.2897128501,0.7909387927,0.729788409,0.5378024554,0.5640825294,0.0166644502,0.5019922999,0.904968954,0.6193345077,1.1191031804,1.5565521912,1.072793465,1.2484187317,0.4746537577,1.5528729036,1.2803904242,1.3052835096,0.4472583633,0.925154211,0.5561848377,0.7758848629,1.2900662311,1.2041233926,1.1418188517,0.5660019845,1.4279316975,0.463925564,0.6491157196,0.3007724711,0.4218138142,1.0573905451,1.444794219,0.7015624029,0.6567058742,1.2635129075,0.1592436948,1.002722784,1.4136173046,0.1923271043,1.1824728726,0.7962950903,0.281410542,1.1052685412,1.4705411325,1.1033232768,1.3293993802,1.3047139156,0.7375293789,0.1709868865,1.3269366053,-0.6919631025,0.5406614485,0.1116645649,1.4049084857,1.4203499118,1.4125383154,0.2661667897,0.8873876634,0.234844459,0.4815789799,0.9630866218,1.2690276659,1.2836450534,0.0976667255,1.0390652892,1.4020794596,0.4206490414,1.363663716,0.6788553116,0.4621944818,0.2964004692,1.3462860378,1.4672485365,0.5813651406,1.4847272099,0.4004709702,0.6009239317,1.3033802247,0.9240276215,1.4925989223,1.1557840992,0.9120777646,0.6544913981,0.9650103388,1.4256625023,0.0719656106,0.8894563707,1.234547023,0.6921511827,0.6267910543,0.9734518796,0.6966980081,0.1965328237,1.1500327592,0.2202256424,1.0656193984,1.2049084949,1.5231282903,1.1676502937,1.2834675755,0.0323119207,1.5043199165,0.1463676327,1.4167946637,1.0923684777,0.3148842275,0.8077910214,0.1088195283,0.9108932191,0.8025686337,1.3971125741,-1.3456822578,0.7795722233,1.1969906624,0.5796140618,0.0009182846,0.5649957105,0.60872588,0.9236237244,1.463394132,0.1915542378,1.0582840237,1.0589873891,0.301029934,0.5545645213,0.8198547749,1.2510152618,0.8001657825,1.3820632492,1.0816111823,1.354167135,0.6119478025,1.3062098511,1.2991307538,0.701754055,0.8084903261,1.5037370424,0.3353220509,1.3948784164,0.3520878794,1.4649032703,0.0773032176,1.4864582717,0.9546229456,0.9615749124,1.5198260861,1.5341720223,0.1146362959,0.8048837928,1.0282150442,1.2743922863,1.0946850255,1.3502703482,0.7252915725,0.8866743511,0.3904702289,0.6628670323,0.4938364998,0.5394553613,0.8901940382,0.2731641714,0.1372470955,1.094549613,0.3036684653,1.2294765707,1.2666748308,1.1360891487,0.41615522,0.7090053921,0.5393344433,0.5436834349,1.3251738833,-0.2766498635,1.4885010001,0.4279653839,0.7388595396,0.7407674477,1.0729161868,0.0769699374,0.4521683265,1.5105936122,1.3154029725,0.0671189462,0.7230344721,0.7776941209,0.0880626899,0.4145829319,1.0007838028,0.9192379033,1.1412594847,0.514467593,1.4161818359,0.6503882302,1.4166460646,1.2179389937,0.3972762452,1.0452355804,0.7645527292,0.5853320984,0.3742057263,1.256344441,1.4704052664,1.2324405096,1.0488056654,0.3000892826,1.383799452,0.3910658811,0.3125551375,0.2333928579,0.3649645615,1.5144140734,0.923418495,1.0846826547,0.8296835256,0.6393323207,0.9141409548,0.028102063,0.6754871819,1.0115541024,0.9162418902,0.7249662384,0.9587000265,0.9156137334,1.4732367931,1.2452579706,0.8583646609,0.2650588236,1.0423453085,0.1922431784,1.1518616964,0.1060973854,0.368007935,0.023781822,0.1544752955,0.0296248318,0.9111072655,1.4214656371,0.1913044886,0.490991122,0.2232306363,1.2562427711,1.2418068626,0.6900835188,0.0456257312,0.6937381542,0.0517832726,1.2051990701,1.5009439246,0.7666035283,0.8069346588,0.25184592,0.3958103904,0.1194631482,0.2979917318,0.8485477563,1.3242977249,0.2952474907,0.7085365337,0.7800470552,0.5196555413,1.323808697,0.9144434119,0.9920542823,0.9738282411,0.3000381014,1.0694893808,1.2055289113,1.287943314,0.4912948889,0.3113521393,1.0818155208,0.3784745732,1.4799772989,0.0508395502,0.2110020062,1.2570592518,0.334244582,1.3439684779,0.8626907679,1.448553253,0.2525244404,1.3588881437,0.5753825506,1.4816677763,0.38653965,0.8079546205,0.1795934373,0.7932918596,0.4471231666,0.5048522707,0.1185154972,1.5355119145,1.1986333689,0.6444339308,0.7071374843,0.7207918794,1.2826146027,0.2255812622,1.2870441564,0.4709117544,0.418630501,0.596124393,0.4568456157,1.4962432074,1.464887167,0.1271073392,0.1788359645,0.0103431042,1.4031815924,1.1299099635,0.2345771966,0.337963837,1.4642598307,0.6564558559,1.2484296416,1.1642336639,0.7770126627,0.3661448645,0.8658722124,0.8814569215,0.6559004702,0.5635234384,0.0185000235,0.9086456889,0.7336200043,1.4505262179,0.7118143968,0.6278155845,1.3910543924,0.414086841,0.4619883364,0.1510327112,0.5960774099,1.1426468643,1.3074671623,0.6628012164,1.1358084401,0.480829905,1.4163305296,0.8814417525,0.3968098933,1.2245830421,0.6714418343,1.183637605,0.463560055,0.7310515693,0.1203019297,0.7030959449,0.5900639115,0.5609226582,1.1110006728,1.0387653476,1.1406850346,0.2055250462,0.0653858574,-1.3599047273,1.2118292055,0.6738985553,0.5042988896,0.6621175529,1.5515891085,1.1418888225,0.2890244748,0.3979707635,1.555167185,0.4417991688,0.7425283514,0.8169826445,0.1021388421,1.1279669789,1.48951901,0.394206387,0.6296623179,0.0893565861,0.333029204,1.1320556704,0.6163916467,0.0610219451,1.5062626729,1.1644577812,1.4392374448,1.2172591054,1.3535136376,0.1917851288,0.0723762246,0.7967667244,0.8648110725,0.397647411,0.9586264392,0.5816023957,1.0468356618,0.3499134651,0.5335505591,0.7652950456,0.3230657147,0.4073103657,1.0186497938,0.7082961712,1.4404136976,1.0950719596,0.8350194013,0.3697618352,1.5381084269,0.9346960295,1.5453057363,1.1130297207,1.0908736566,0.0655450819,1.5153621468,0.4085788864,1.3999442339,1.4305580268,0.4178551577,1.1656521871,0.8924381423,0.0936348851,-1.1165183979,0.8271165333,0.5851734197,0.3922399303,0.9033495062,1.0222317441,1.3436322957,1.0107165429,0.817050859,0.7381035789,0.7468940431,1.082580076,0.7044818986,0.0856447994,0.1209328049,1.1164037952,1.121441147,0.3074330563,1.280719963,1.4181866662,0.9463333273,1.1701116937,0.712291406,1.4686458029,0.4460867629,0.7078846177,0.2823456927,0.1231545678,1.2587935111,0.3116520404,0.0562731764,0.4281643421,0.2628157108,1.0856361941,1.0018427458,1.2305325557,0.0530261315,1.3873079577,1.0461043142,0.8950658087,0.1426492232,0.4396953798,0.476242611,1.2219859379,0.693178549,1.2692236778,0.9958763875,1.1520700199,1.525784702,1.5116285376,0.2650715877,0.1353937512,1.545039092,1.4229534455,0.5110349059,1.0920561442,0.9128356404,0.8544561812,0.4150904292,0.66599386,0.8519442735,0.5160824688,1.5340797338,1.2876980105,1.4039181594,0.0453500034,1.53497894,1.0960170558,0.4795252372,1.3029808367,0.911602846,0.501936086,0.0658411468,0.4505416508,1.0503706286,1.1342049412,0.1861056228,1.5255187636,1.185235809,1.0264568092,0.8365031379,0.1955173615,0.5853682533,0.3497563746,1.0508795925,0.7995366567,0.5038917873,1.1347822918,1.3873941897,0.9131702281,0.4309786594,0.157580368,0.0991764089,0.8391111161,1.4183938195,1.3316380994,0.1617429817,0.2955778438,1.1591914748,0.2167294777,0.4832271522,1.0543132774,0.3546810918,0.1958988626,0.5698829363,0.5817358512,0.8720216109,0.5660915479,1.3642461951,1.4639343613,1.1346861102,1.3378305917,1.1722207831,1.3464602383,1.4831274607,0.71823321,1.4565054447,0.3367163399,1.0266002328,0.3471871965,0.4183980241,1.3969531218,0.0200603631,1.1284347141,1.4635688455,1.0944139836,0.2252037001,1.0936401047,0.419413364,0.2811449748,0.2426915836,0.6576515108,0.273849683,1.5081889884,0.6768527319,0.9158438243,1.1196401603,0.0519208317,1.4929055447,1.3992506281,0.24375207,0.1113146363,1.1917726771,1.4046187127,0.3968376118,0.770014018,1.5379532053,0.6676860946,0.0090307357,1.3168769011,0.7474859799,0.4825772631,0.6733458002,0.5259641186,1.1019335737,0.9128710487,1.0157015134,1.0450581745,1.3882982547,0.4235176353,0.918852677,0.8018576192,1.1179665164,0.9040804187,1.3937872814,0.6934492054,1.4194572922,0.0675733461,0.3765937104,0.4030686127,1.0283648395,0.4492041845,0.6252886176,0.3057821882,1.0399956466,0.5005511746,1.460463051,0.6270999355,1.0932451889,0.1015994446,1.2864583752,1.1168153463,0.6451295525,0.2558503009,1.2410110275,0.4782707243,0.8174814519,0.7650263648,0.2767249712,1.0263844124,0.6560140491,0.3319259013,0.4297711028,0.1912585792,0.4268482013,1.0303858924,0.8941395625,0.3874548623,1.2115148955,0.187906587,1.1140373051,0.9474174743,1.5191198623,1.056896443,1.1506236276,1.3923386222,0.4116904118,1.4612850182,0.1204740398,0.5034569006,1.419098324,1.0720848362,1.3772373411,0.0866869448,0.7810331012,0.2938607598,0.697902338,0.8773939485,0.6689933195,1.0211110026,0.0580365935,0.687272091,1.3157242679,1.5471248241,0.6048751639,0.5256108768,1.0869688263,0.124813396,0.1880553448,0.6140855908,1.2408123599,0.5935533591,0.8268647761,0.0194604415,0.989812421,0.3809719189,0.3108030118,1.3146779713,0.3495600826,0.1214448799,0.6232516584,0.382500527,1.476740242,0.1273000769,-1.0768637138,0.5813616418,0.1245607517,0.1629198767,0.5519639057,1.2966708784,0.10860632,0.5048835293,0.3127526453,0.0466056697,0.785176393,1.3328144293,0.4971877073,1.1424910677,1.5261871172,0.793931669,0.5028066638,1.182655551,0.9011069743,1.0778768336,0.1475377087,0.8309880688,1.3157299587,1.548758372,0.0206444224,0.8654223912,1.0309275707,0.0820347849,0.6793355083,0.3129261813,0.5560095404,0.29560357,1.2684506428,0.4784610629,1.4534210288,0.8151519099,0.485970901,1.2403608423,1.3706077326,1.2117778342,0.0703898392,0.122829533,1.0596437932,0.2602989926,0.2269382161,0.4809867333,0.3256850953,1.3867809398,0.9464746633,0.943338939,0.6839775698,0.2675034263,1.5329191592,0.666418706,0.014304412,0.6227658655,0.1284640737,0.5988669348,0.3021082014,1.3481271681,0.8721971299,0.8794546959,0.9195010127,1.4983501482,0.2279230812,0.9026922229,0.2048781627,0.1154984794,1.4058007469,0.7943814685,1.2284569601,0.8648537572,0.2521876035,0.8280638473,1.3577792586,1.1960298439,0.0625510909,0.568710539,0.8419740423,0.2152907983,0.2014175886,0.5232386694,1.3116866092,0.3228340044,0.6400609636,0.018225592,0.508129201,0.9869140061,0.9948232833,1.2533663537,0.0123925108,0.7892958534,1.4405085544,1.3961523229,0.6906303963,0.6710048132,0.3015185925,0.1070684341,1.3527278528,0.9696322154,0.4968539924,0.1375077157,0.471946224,0.4971999654,0.3244449034,0.9056905127,0.7024167704,1.4297134182,0.3552175829,0.6719157299,0.9274007114,0.5059312226,0.9483568569,0.346667076,1.4569918591,1.0179886696,1.3263070739,1.5460481448,1.2514410774,0.4869254605,0.9970450275,0.5894452219,0.2141782735,0.1060266649,0.2738623509,1.1279570396,0.1390271132,0.8310362388,0.0729295605,0.30770592,1.390510091,0.1213263932,0.0116520361,0.9443188993,0.9919922774,1.2682710891,1.5282507225,0.3324599243,0.3295105204,0.4569085704,0.348722671,0.1437881345,1.0593763396,1.008584636,0.2422602579,1.1357560388,1.0417749204,0.6958676635,0.8419781325,0.0344226417,1.0712738404,0.4317615948,1.5198684969,1.5019800761,0.6788160574,1.2153432987,1.5239343273,0.6230924124,0.7990689886,0.7937301358,0.8515365152,0.7734044119,0.1444291633,1.1397734903,1.4184376251,0.0395046665,0.9996131425,0.5699628711,0.2041463812,0.6827215289,0.6877749846,1.1677745528,0.9039095056,0.5959116084,0.1402549543,0.3367678094,0.5303496231,0.5472873066,0.3690726627,1.5394161317,0.4953421004,1.288797562,0.0668417119,-1.4181029321,0.2317043238,0.347834778,0.3132065402,1.2083792065,1.1863045139,0.0464789466,1.3224612981,0.551100301,1.0914536353,0.8709015465,1.5301293392,0.5523431206,0.2918814382,0.0667882747,1.1944440363,0.4596991006,0.541591683,1.0735488969,0.1798813151,0.0251030672,0.9795097682,0.0949823734,0.3102503872,0.8793517601,0.8309773086,0.7577890166,0.1111826157,1.3885891533,0.6784455978,1.0835970285,0.3754224455,0.7695512757,0.9212345073,1.3402354123,0.80816175,0.114738365,0.6955517438,0.3006686457,0.1560993027,0.5712470173,1.1467451512,0.1076135824,0.5094086022,1.3698486585,0.2306294098,0.6716496626,1.0899180324,0.9895121797,1.5172602021,0.5901370012,1.3261680888,1.2058573249,0.6393832418,1.2629762347,1.0074296354,1.2822884231,1.4844404667,0.2549229331,0.1090770489,1.3879825059,-0.9623337425,1.4473937147,0.0346159583,1.1059300078,1.4700286275,0.4586322871,1.2595396741,0.2161893078,0.7280913963,0.9272815648,1.1963579615,0.8197912124,0.4137313688,0.0401376374,1.326911893,0.1373572871,1.4994377383,0.9787851907,0.7846232554,0.8133803036,1.5435911598,0.137590194,0.2353492983,1.2987192545,0.6545482842,0.9017754286,0.9759348553,0.6554502389,0.6127565933,0.0676553002,1.4755038386,0.8168826573,0.628973586,0.8812620551,0.3122216814,0.8103227899,1.2142470216,0.7513612978,0.7858908713,0.4731918455,1.5243285996,0.4209382344,0.0311057528,1.2272461126,0.0865739167,0.2684870162,1.0724544354,0.5251049368,0.2243916682,1.032962416,0.4984659655,1.4708760743,0.0713242703,0.8992872764,0.8870566176,1.2791311569,0.7310088126,1.3202289841,1.3992198451,0.487805503,1.2877250837,0.6901680241,0.5980113102,0.0005336172,1.5063322394,0.8093713147,0.7779746168,1.4962975401,0.0318049333,1.2336308201,1.2632075534,0.1948324026,0.8345374348,1.2513443356,0.1363966221,0.1571425733,0.4668304802,0.523243604,1.0343930722,0.740731164,0.4815011585,0.8124470992,1.1776390838,1.5519402147,1.3982438371,0.328676706,1.1840643766,0.1007915445,0.1089586092,0.7755680885,1.0161887534,0.889745632,0.5253918054,0.3537207014,0.6245220448,1.5055435935,1.1721779323,1.3325807923,1.0951052159,0.5270463695,0.7908065493,1.2994774098,0.8544727468,1.1850859864,0.3576607448,1.0043323276,1.3250577397,0.6128309891,0.4520308337,0.3945411853,0.8528031893,0.052496826,0.8167060273,0.1686595734,0.3886777989,1.3405966242,0.9063707185,1.3000514499,0.0512953516,1.3132070354,0.8855050256,0.3619945788,-0.940181119,1.3983741496,0.6702700373,0.639487583,0.7341619152,0.0878735376,0.828475614,1.4880000773,0.2343642714,0.502129113,0.7921150833,0.537645012,0.882633902,0.885800532,1.2150228814,0.3839075227,1.2258104451,1.3726266784,0.7910900114,0.5038073821,1.5535424134,1.0542633444,0.4119336193,0.2287059566,0.8277681089,1.0237685459,1.1246456486,0.5217805832,0.6171936724,1.5187678117,1.2438084755,1.332438519,0.5691784901,0.1785330969,1.4350101433,0.663802428,1.4848882291,0.2021566053,0.1545365109,1.1970327854,0.1776731133,0.0437805211,1.375188602,0.7717771143,1.1188990412,0.6487992032,0.6775122264,1.1920671389,1.5011654885,1.3892951146,0.0930299524,1.3823970934,0.0782772329,0.7372043406,0.3428744081,1.1291280343,0.2416615968,0.9114027501,1.4431576377,1.0590948922,1.3291114541,1.1100422639,1.1564327434,0.1325084525,1.1827958012,0.0949771354,0.2144015411,0.7585238528,0.6248670912,1.4761331913,0.8851651872,0.9808334702,1.2967679998,0.6693680096,0.0099667056,0.369945491,0.8707296321,0.1359171818,1.5413414751,0.9300372995,0.4142727646,1.5026109361,1.189468997,0.9669908345,1.0690539917,0.6317259676,0.2299584215,0.5749070544,0.2986597551,1.0981291871,0.3645777754,1.2524654855,1.2706959336,0.1593433932,1.02623297,0.4557354613,0.7339283383,0.0349649163,0.6254813619,0.3216083835,1.3879886498,1.117384221,0.747965542,0.3299671575,0.45048008,1.1043243415,1.4213380875,0.113053001,1.1609480269,0.4658513423,0.7193858305,1.1947927734,1.044003646,0.4911895808,1.3842431389,0.3498819691,0.1908892396,0.2076752413,0.626239696,1.4828394713,1.5145877872,1.2936192625,-1.3919263578,1.3993796401,1.0581508626,1.4355870384,0.5635170487,0.3740456567,0.2500370052,1.1220966884,0.4377498739,1.135283351,0.0530568984,1.4139471469,0.3877946844,0.1195245578,1.0731358196,1.1757176946,0.4149702973,1.5040998981,0.5922456036,1.4506589978,0.3176468318,0.0962501809,1.0614843353,0.4788070679,0.9535208947,0.3857216661,0.5732237866,0.3624137201,1.050243789,1.0474002624,1.0842597072,0.2570394221,0.0161017679,0.7144135112,0.6893818612,0.6151461458,0.5919249114,0.7025692495,0.009126636,0.2260299277,0.2673756937,0.875625599,0.3201325711,0.0722045711,0.755107075,1.2669646492,0.8005145043,0.6211631788,0.2764311522,0.4579398065,1.2486728912,0.8841625836,0.6290590626,1.476814741,0.8885150563,1.4575934727,0.7780647699,0.7883546366,0.3331774678,0.8048928233,1.4967590078,-0.0840856534,0.9248063429,0.5390300933,0.9667800314,0.6329858449,0.3514872746,1.300262623,1.2096311583,0.2841028765,0.6297442107,1.1394779456,0.4555630478,1.4292607242,0.3031999048,0.3872428645,0.0949890629,1.2860250336,0.3439118973,0.7985708137,1.2662513366,1.1871062483,0.5996132771,0.9404316024,0.3491186209,0.6635604637,0.6009049925,1.498362273,1.5103086579,0.3221470994,0.1241645403,0.6336668824,0.9696803914,0.2340546858,0.5073953399,0.2938588319,0.2788015871,0.6750243046,1.4077490596,1.1880079571,1.1456533677,1.4786686904,1.0438135029,1.4843016723,1.488540519,0.2989483329,1.29143993,1.310738343,0.510711189,0.3989237092,0.2555174281,0.5304275018,0.436242943,1.3618754441,0.791886139,0.2716879262,1.1775196515,1.3400945676,0.2053470808,1.1590025371,0.748726167,0.6806418429,-0.6711628151,1.2914002549,1.0619521529,0.7892111148,0.4251878215,0.8012881691,0.9806898504,0.6925549383,0.739647337,0.1035767005,0.4138171511,0.1892735226,0.1645826108,1.0449206106,1.0129521929,1.0055871902,0.6891068797,0.7653340083,1.3959265008,1.498771126,0.6502349157,0.5480558624,0.2507084555,0.5374553677,0.8065625274,0.9624009146,0.2333749713,1.1500792572,0.9847880158,0.8014956099,0.9886503564,1.5244904801,1.2561188899,0.1100991028,0.3076412072,0.4406580263,1.0005740795,1.4827095158,1.4359839,1.4518964796,1.1684422088,0.9925059062,0.9942155727,0.0126844882,1.1910190713,1.3529502398,0.4520315642,1.2655865135,1.1544754355,0.4737339557,0.571942948,0.7351136911,0.0434471579,0.9940128992,1.2066897638,1.2445913523,0.9005738107,0.0074285018,0.7375722657,0.0005316183,1.4016730674,0.2110238352,0.8245994585,0.2664983169,1.3688248779,1.0939672759,0.6154264973,1.1228514798,1.3448964098,0.2994323674,1.1199002564,0.1255487137,0.3821846172,0.3673685405,0.8419575276,0.7950265328,0.7940149816,1.0743795284,0.1537325999,0.3054062007,1.1419982676,1.1498574243,1.0496805863,1.1394764293,0.8865318673,0.1450979814,0.0942224702,0.2058161424,0.1970907069,0.2826473474,0.3090370159,0.6691435235,0.0700397337,1.3784990301,0.7809870388,1.1744111338,1.1246947317,0.0521192466,0.0071228128,0.4174086588,0.6528503145,0.2455698853,0.2810601835,1.3245047633,0.786586262,0.1999070891,0.3586426893,0.8546336808,0.692415183,0.1994789561,0.493858032,0.342103899,0.504487263,1.0972833078,0.1904585567,0.3612914234,1.4019339226,0.8759920397,0.6038652066,1.1032005148,0.1297043941,0.5712396138,-0.7830138632,1.3953584373,1.2567034394,0.2587626539,1.0670184341,0.2994710695,1.0828948041,0.5888004964,0.7690125153,1.510602611,0.5610511293,0.197035559,0.1400234995,1.2135670099,1.3267544002,1.4019232056,0.4542508116,0.3435085633,0.837243948,0.2530782165,0.4311005569,0.5332145977,0.0860367009,1.3127701014,0.8763498985,1.4219437814,1.3689114996,0.1569399773,1.3172564559,1.3502032833,0.0529963653,1.365912038,0.4430074285,0.3675042114,0.2210571666,0.952294547
   0.2782179993,1.1818622957,0.4260506383,1.1110634696,0.8925629443,0.9783248977,0.2816385661,1.1981262492,0.1240914564,0.9283990141,1.3271710533,1.2172465932,1.5019175668,0.0258851756,0.8130494617,1.1323865729,0.6573506047,0.4467618281,0.237374566,0.6921464532,1.5130340155,0.3434655828,0.9775652063,0.6309262843,0.4531325045,-0.227537002,1.2018123775,0.0771311757,1.0280010207,0.9631657168,0.4634896948,1.1250138099,0.8388151365,1.5172211503,0.7486126334,0.1670832732,1.204489869,1.3756822465,1.5345611344,0.9402263403,0.0021418803,1.5115801279,0.1925700445,0.9054955498,0.524511541,1.5192037624,1.1995672174,0.1175749128,0.9799830428,0.280872075,0.5089858327,0.0488877711,0.6893627549,0.4267812291,0.2910058917,1.3145066764,0.7086057608,0.9858770846,0.3565708528,1.2188308214,0.5038706603,0.1010135447,0.5187259918,0.4329214059,1.1009557346,0.9370770154,0.3005910899,0.0769235345,1.2081622987,1.1108078589,1.4984897606,0.6986898293,0.3725224459,1.3898854216,1.0739356755,1.0582377962,1.3819517654,1.4859670027,0.7383440748,0.2447631214,1.2073097146,0.1369661564,0.4374758312,0.6310905771,1.179563511,0.1008993942,1.3450380572,1.4530301355,1.5131102262,0.3868350779,0.4405588172,1.2480846631,0.7536448685,1.0908506431,0.7167204393,1.1015570026,0.2468876451,1.2295434028,0.2828182798,0.4749967916,0.6134546413,0.2154006469,0.1174599947,1.3820112226,0.7701099052,1.1010017568,1.5198534654,0.0555354743,1.4781333101,1.4046830009,0.7269502544,0.8730143067,1.1534614827,0.619301566,0.6026570787,0.3862517596,0.5809249356,1.1945369129,0.9811546144,0.354489816,0.1671499704,0.0402274799,1.5561468217,1.3991013566,1.2277544474,0.3248983675,1.2995861113,0.4613046266,0.0049803844,0.3318582705,1.3204724275,1.2309237915,0.016571462,0.9289540695,0.3575063511,0.8395194632,1.5178034686,0.1800878862,1.2650606787,1.5539926493,1.1208501254,0.25154949,0.8417044236,0.7298178693,0.308137013,0.355088281,1.2285258824,-0.4282890792,1.1865756279,0.6992125785,1.008386875,0.2193590523,1.1308860683,0.2009580174,0.2983321595,0.6995462323,0.0531012446,1.5124510574,0.0518429066,1.1511750302,0.7963315755,1.3947348405,0.8912055453,0.1900235421,1.1635158593,0.3765056397,0.1534519076,1.4322748703,0.2525450807,0.81395813,1.3909605867,0.3241070996,0.3388547627,1.2699594505,1.2846419141,0.182307501,0.3752289749,0.7405310936,1.450166054,0.5974570127,1.4940904398,0.4289894151,0.1515955836,0.3206185191,0.2513499813,0.9311168688,0.927672524,0.8938748305,0.6271250125,1.1596269599,0.5267388721,0.5050437263,0.7690156954,0.455438469,1.4495111226,0.9506748552,0.7181566146,0.4370104591,0.7134999223,0.3987236078,1.2545242296,1.0485622885,1.0882923071,1.2743967344,1.449369093,1.0809970854,0.550798091,0.02774283,0.8320409573,0.5345339746,0.9738129646,1.4029742098,0.469300277,0.309834947,1.4525173935,0.9564356676,1.3656862529,0.2170042025,0.1539330878,1.0627317941,0.9004941291,0.0864753563,0.6714665083,0.0740160175,0.9366126794,0.1676153176,1.4326746902,0.9923256952,0.5978956631,0.1106378525,1.0466873917,0.016618434,1.5027297626,0.8990846921,1.3089490201,1.5353500797,0.6496217209,0.1494337686,1.34536395,0.7326922068,0.2332922556,0.7386886205,1.4742488247,0.5078177983,1.3996761556,0.6885300803,0.9365096443,0.1016503806,0.7983104677,0.3985569688,0.0727509755,0.8305493793,1.0130080844,1.4154143246,0.558057483,1.0896504004,0.4771391223,1.3122552697,0.9909539588,0.2398234884,0.6448289758,0.3433109018,0.8390667949,0.6457999906,0.4561397511,0.7713484255,1.3910054064,1.3894581016,0.0436659667,-0.2539999683,0.9558334821,0.9105757488,1.2288766529,0.5981555021,1.0045086298,0.3656060456,0.9396974647,0.7321734476,1.1034750634,1.4892359149,0.8040971229,0.4842635058,1.3075593318,1.4989439235,0.9112060875,0.4567734487,0.9963832049,1.0291432418,0.3788578508,0.3844454516,0.6151827267,1.1406957064,1.2290737056,1.1566722025,0.6636435523,0.8033007865,0.7960277489,0.6478463609,1.3285123924,1.5497526251,0.1602279191,1.5032952478,0.8922100712,0.5571489821,0.7626277394,0.2483637419,1.2561855815,0.005229687,0.9886645905,1.4439886639,0.9247127525,1.2850887705,0.8293151931,0.9551350019,1.1778420983,0.3216959645,0.5318658449,0.4842018421,1.0064272317,0.7050605319,0.9378634115,0.3183602859,1.2178936236,1.3971036945,0.202635644,0.5417113989,1.4825842947,0.8809997349,1.2220292015,1.0745563122,-0.651496305,1.1593823794,0.5879177479,0.7966190402,1.2549010498,0.924931691,0.0181938462,0.2575700548,1.1955899237,0.8713164496,0.129688647,1.2712835388,0.492998916,0.4571288387,1.0831206902,0.1965754573,0.5663845879,1.0404708116,0.1995674126,0.061441209,0.883369082,1.3442726608,0.8031340584,1.3839545861,1.3056748172,0.1074669496,0.2343708119,0.6110253576,0.5076116736,0.1576611833,0.6369466882,0.4789291148,1.221115693,1.4842960269,0.8878367843,1.2213436334,0.8036994086,1.3590008519,0.7301990764,0.8752049414,0.2493552432,1.1613704229,1.1379993346,0.4376822163,1.2536787275,1.031628157,1.310370796,0.7819356644,0.1464606069,1.3813672683,0.9392490878,0.0602079868,1.2050505341,0.2189044342,1.3624118634,0.622231728,0.230524005,1.1267341547,1.3624129838,0.3064423761,0.6172666654,-0.5728432307,1.1339509982,0.8018368444,0.7232887358,1.2931611886,0.8088953981,0.036615828,0.892428545,0.4162435497,0.3438809482,0.0991324476,0.263750253,0.0579501748,0.7550569812,1.0447731527,1.5409913106,0.5732842336,0.7887327912,0.8953718984,0.9213153399,0.6738588336,0.5907894628,0.0939415579,1.0723148079,0.2038057676,1.331796586,1.095692782,0.8933106989,1.388428968,0.8882205994,0.0947823912,0.8970979491,1.4686650836,1.4710559067,1.4383069537,0.1421837806,1.0059324719,1.3802340199,1.0433705454,1.199483498,0.4995680342,0.9403859723,1.2676774373,1.4110304558,0.5679883802,1.3627923481,0.9593938512,1.4343576102,1.0521435957,1.5506363206,1.3656995238,0.2856771937,0.0308620698,0.1400155993,1.5199777968,0.4770981347,0.9696792114,0.0348708591,1.2916346986,1.2731429919,1.5568167081,0.0782251014,1.129350543,0.0165713665,0.3491537111,0.2716408272,1.4435140891,0.7463915152,0.7646755795,0.38870812,0.6575549582,0.4040621621,0.3991460886,0.1666357406,0.2067463232,0.1907649545,1.4034303353,1.0229870121,0.1921631485,1.1997152136,1.4444473413,1.3211437279,0.1090523809,0.8483046123,1.4703311181,0.9033765117,1.1869648309,0.7087397262,1.3561598366,0.0161349278,0.8472097819,1.4673622994,1.4480878119,0.7889719848,0.8363437441,1.5383121114,0.7288316634,0.9631996934,0.061251067,0.6759682101,0.592360585,1.1666818223,0.3948497877,1.2951626796,1.1744220293,0.0252837786,0.8856757604,0.3976838659,0.0989930911,0.4454718734,0.4397238336,1.0026338676,1.5074203622,1.4036468055,0.7320577518,0.3740052384,1.0429106479,1.526502281,0.4376808693,1.109397074,1.3637600331,0.0088837056,-0.5817031916,1.5395854492,0.7067902373,0.6627725497,1.3103153099,1.1179486694,1.1272915127,0.4092417432,0.0130732498,1.1160928914,0.1334685262,1.5217009845,1.1944996029,0.1300584527,0.4063866828,0.2087428142,1.2739923378,0.5648538521,0.8887593505,0.4195852718,0.6489293805,0.0449545008,0.1917705119,1.3796136234,1.3472679415,1.4673549705,0.0095153525,0.513414921,0.8100937237,1.365084031,0.0883101958,0.0956177606,1.4637227339,0.6992091244,0.6447434614,1.4495540701,1.209244405,0.3063106219,0.6829913338,1.2652725914,1.5037194585,0.0754368062,1.5029086785,0.0223077111,0.574221769,0.4732437343,0.2154335184,1.2316711637,1.183533593,1.1666305049,0.4416830563,1.5407532445,1.4669000007,0.2756891581,0.3685624368,0.3304152548,1.4673308977,0.9700322959,0.9897792936,0.7456677612,0.5736551337,0.4416231315,0.0705673057,0.6924690743,1.1808101597,0.5641188141,1.403721258,0.7251420904,0.4402867415,1.3480275855,0.8845640225,0.6483945655,0.3074928171,0.6341514406,0.554950814,1.3579020821,1.1705392515,0.4429995648,1.3859290003,1.1227867849,0.1153204599,1.2156753262,0.0189243482,0.9048982887,0.7679908284,0.4730306263,0.7954987891,0.0510985901,1.2223525421,0.9828486835,1.3319662083,1.3614209774,1.3583725084,1.2338724536,1.4618170147,1.0838119355,0.7702805363,1.2695025303,1.213583602,0.596628105,0.7278612082,1.5264297288,0.0312711351,1.239419085,0.4161745262,0.0718267247,0.4243362879,1.1603205115,0.440266436,0.9458068503,0.6897461605,0.2421461582,0.5538911547,1.3804555646,1.5147957231,1.2725025163,0.9422404063,1.3618350095,0.0434640418,0.4791775581,0.2650079615,1.3201362752,-0.7943182766,1.1387569063,1.3650621594,0.0479877204,0.1238671027,0.0022408017,0.8162791143,1.0819553194,1.4335569971,0.8756083094,1.2571572185,0.6928738498,0.3535401933,1.5522816025,1.110883179,0.579675722,0.2626577808,0.5873881852,0.2136145316,1.0814932164,0.9168729484,0.7570109387,0.8492370746,1.3601939655,1.54105222,1.1790762421,0.9157768316,0.4246079337,0.6489308243,0.4187017009,1.5334106163,1.5234426809,0.9652858076,1.0287719944,0.8366552836,0.2980282332,1.06237037,0.3280810401,0.039883927,1.0329546507,1.3531187402,1.0002379155,1.1439328493,1.3859271679,0.8079877023,0.5880957256,1.2904305205,0.4035812364,1.2006123459,0.2439687547,1.0578347423,1.4521744789,0.7854828428,1.4677071645,1.2857142758,1.4754543816,1.0941672778,0.8621942324,0.1501689325,0.9096752396,0.5365485263,-1.095295429,0.8067394398,1.4688036989,1.3506580844,0.0326893685,1.4224937648,1.1967734884,1.2145307438,0.2301751395,0.0992092933,0.4515797015,0.5284959745,1.4807709904,0.0997143608,1.3127028808,1.5325167355,0.1399270966,1.3032706766,0.5192092369,0.5886482953,0.59989344,1.4633542105,1.2855462282,0.3904823963,0.2122926359,1.0497590748,1.0255300011,1.022088267,0.0209363555,0.1380668111,0.6247931048,1.3341118603,0.5397724194,0.9621876781,0.6982236778,1.4906448385,0.2090059186,1.2467596065,0.7308700556,1.5502471899,0.5449812907,0.931306894,0.4811854778,1.1089369854,1.3962533583,0.5413133718,0.414645401,0.5753481443,0.5993550753,0.3916157964,1.2978027189,1.3950990649,0.1232511597,1.0372911034,1.3124360709,0.9217109506,1.3652738983,0.9538965738,0.8164861427,0.0523260686,0.0632302266,0.3070725814,0.8129834976,1.4549185678,0.7516074384,0.0950526497,0.2603989886,0.1623556905,0.5204581272,0.6557513552,1.4333101188,0.1367772871,1.0168955418,1.4438563246,0.4400550514,0.8787853382,0.057055167,0.1097801865,0.0815405616,0.4772375071,1.2007003596,0.0688450445,0.6767299912,1.2362881203,0.9729007234,1.0643554316,0.3565201647,0.7451267728,0.097280301,0.1022009848,0.5126012102,0.797327071,0.3029751637,1.0971345656,0.0567393892,1.5162809512,1.0321619776,0.7601842363,0.8676403658,0.3155343017,1.4652321868,0.6112278976,1.5336408044,0.0097003893,0.6395084315,1.5216422812,0.946255099,1.4740912239,0.5720593318,1.3353621519,0.7500016395,0.745820379,1.4441695863,0.7517387805,0.9703862876,1.4318833351,1.4454274901,1.2834025544,1.1663285254,0.1569551356,0.5890506035,0.415322382,0.5095059166,1.3759256053,1.0048196689,1.1373430825,1.490118419,0.4299635436,1.0552050281,1.3810919047,1.1839014655,0.1740109452,0.0994501899,0.4405236738,0.7250084587,0.4696725763,0.279678947,1.1018457543,0.774536393,1.3874184145,0.8927011399,1.0298108979,1.2588115943,1.5175986657,0.7691080688,0.6164466529,1.2462158954,0.2062036264,1.1357953703,1.1939669269,0.1863875433,1.2011769276,1.4260696261,0.477832098,0.1087023507,0.0235823832,0.0223067834,0.1600173796,0.4772229089,1.3004709787,0.6583050592,1.1349869434,0.6142822962,0.4694592346,1.0566471096,1.2810206008,1.2988611259,0.6073368115,1.5461821209,1.3129439976,1.0345624358,0.8923486172,0.4637856269,1.4950525313,1.2102563938,1.1512488426,1.0855749821,0.0516944241,0.5083614198,0.3713594316,0.9434627884,1.5138037694,0.6196716192,-0.6711955932,1.4933546226,1.1530951054,0.2843097924,1.4315288709,0.7673300255,1.1070271675,1.0375121269,1.5009419568,1.0884125144,1.5192160804,1.1296487799,0.6576829644,0.8902502375,0.842686742,1.2233671546,0.5926605498,0.8252301817,0.1696189143,1.5470295194,0.7524296593,1.4578875089,0.3155529268,1.0269082956,0.4654182853,0.1726060202,0.3429215014,0.1530724672,0.6940530523,0.2533903956,0.0180973216,0.7378834396,0.7080898351,1.392725142,0.1685630898,1.1731597208,0.5677262017,0.3892861268,1.0324994692,0.1218754017,1.054682318,0.3530140028,0.3307010385,0.7876677547,1.3600111727,0.1015339415,0.4205773917,1.2732801562,1.3395911862,1.0447642089,0.0910241995,0.3095450257,0.182040963,1.0333284432,0.8351979211,1.0110202537,0.1726047178,0.1961378258,0.656579337,0.1793341225,1.1640702404,1.1853829028,0.1298771017,1.2899551448,0.9966263088,1.4765027438,0.5696932464,0.3589968851,1.5414670292,0.7658911156,1.5457787494,1.3453385687,1.1557344458,1.5447330853,0.8610637599,0.6747338465,1.4821579453,1.5440240214,1.0671090296,0.7715206511,1.2148351911,0.5620589673,1.1140612019,0.0721482019,0.2662429303,0.766701147,0.4169367283,0.9986095499,0.826501329,1.3334956039,0.0589358402,0.4500617757,1.3407240086,0.1037462381,1.0628032491,1.003018362,1.4411563212,0.5347748078,0.4817223936,1.0635685245,1.4592072393,0.1401536108,0.1632752455,1.4883830632,0.3843852207,0.8040993555,1.1336092536,0.1408638021,1.0092204285,1.0734757567,0.6570521598,0.9333803469,0.7104740036,0.0462419542,0.3957811304,0.4234012382,0.3818507019,0.0472222318,0.8965158795,0.4546732454,0.7851225418,0.4460059882,-0.7802031927,1.518183976,1.1523352458,0.7766308193,0.4630433724,0.1971944694,1.190441863,0.8624163439,1.0155358697,0.2061156929,0.11583257,1.3976011606,0.9880047412,1.2668823164,0.5076523871,0.239992779,0.3233461127,0.8616853008,1.033613061,0.0783632686,0.7692262233,0.1199739921,0.9052945386,0.5819489526,1.3820914381,1.4691511346,0.0426596426,0.1532382468,0.1092289878,1.0394670746,0.6070179877,1.1867049664,0.7974991831,0.034755784,1.0162857983,0.5324511902,1.4518960757,0.475603753,1.0979257595,0.7373947274,0.0013519855,1.2887510152,0.7799984291,1.3261917999,1.1245719893,0.6378259763,1.1871719806,0.3085911078,1.3844521532,0.2332105834,0.6727504115,0.4976046067,0.7821286737,1.2850740421,0.3109649568,0.9353790971,1.1004898559,0.0951132863,0.4431115104,0.3342191405,0.932361175,-1.5545333928,1.4915563989,1.4547383264,0.7245789679,0.1468978365,0.5460606973,0.978478412,0.9248436583,1.2785182625,0.6670899656,1.171726172,0.1355649701,0.7232699297,0.150210539,0.101990826,1.4630326301,0.9459487398,1.1026778526,0.3589763232,1.3519713612,0.3775818215,1.5172120279,0.1265614086,1.4660475954,1.4505441747,0.7831224584,1.0094746515,0.7794271639,1.3546411749,0.0345478759,1.3106618026,1.1158416747,0.8151141177,0.8956633474,0.0651722717,1.5508485445,0.935983524,0.0213406725,0.1732341182,1.0661093117,0.5615584766,1.5369185208,1.2604449141,0.5972552637,0.4536780164,0.4954650047,0.5065840717,1.5059817789,0.0960818561,0.2580999139,0.7420349098,0.9660245893,0.6787123927,0.022166464,0.3453629792,0.1068588174,0.632714775,0.7930531139,0.3626456106,0.4329692555,1.5156206743,-1.0172326425,0.4955936189,0.2398432203,0.5131321511,0.4919455681,1.1652904936,1.3303963413,0.6523042835,0.7787491117,1.5272794392,0.7548213838,0.8165658192,0.6383831456,0.8191262222,0.2041232172,0.8068573068,1.2474802509,0.1791884271,1.539499283,1.2102383103,1.5486793091,1.0914494557,0.7432668911,0.2478661219,1.1951047408,0.6884921404,1.4086977174,0.0085385489,1.3920631001,1.4933323185,0.3654456936,1.0751150797,0.3649788221,1.3201832163,0.7743443501,1.376153367,0.8198682896,0.0440488582,0.3831035996,1.1546361672,1.4659747241,0.105287359,0.6670536207,1.2538094906,1.0578024423,1.1217003304,1.3886842571,0.6302421488,1.2689782091,0.6626108248,0.7392533896,0.2558418243,1.2457137104,1.4698122953,0.2595825558,0.7958173291,0.3386037241,1.4956823235,0.3369970832,0.1118089902,0.476035791,-0.4189444082,0.0067724476,0.9302816314,0.2717167076,0.3106586094,1.4961987304,0.9979176772,0.6921555713,1.0295813084,0.3969777048,0.1957907018,1.2289627665,0.478191156,0.0506749632,1.0944161227,1.1134058842,0.1919965192,1.5498600228,0.3416115559,1.5556715134,0.4747751164,1.0867279122,1.0963470985,0.1667342893,0.7956618422,0.3933160633,0.720210915,0.4771201872,1.4942451381,1.4469935904,1.3449057992,0.572629633,1.5362443505,0.8496153703,1.357988807,1.1818056073,0.4550875168,0.013737955,0.874533568,0.0162308668,0.511516669,0.8115319851,1.5087960097,0.9875397511,0.3050610807,0.0195490697,0.5335742017,0.6996156948,1.3281534798,0.9837565488,0.1422238287,0.5802963217,1.2876811162,1.3057784849,1.1877856047,1.5038446068,0.4985416025,0.7962818863,0.9455351735,1.1797826365,0.0286966832,0.6811765223,0.0702841262,1.2824822257,0.2010703864,0.7918618338,0.0433426568,0.2439182133,0.0749433589,0.0280822982,0.0745541784,0.1168881752,0.6158097495,1.3198293012,0.8935079956,0.300100751,0.8575764826,1.473370852,1.2996914489,0.521526943,0.6277677371,1.421482617,0.4517234835,0.8853414961,0.6486093124,1.1374625753,0.3000730341,0.8932105532,0.0229171703,0.6443967691,0.8303992572,1.1253898147,1.3351472876,1.1465437438,0.9522180325,1.1739470211,0.292475365,1.5291821691,0.9306925788,0.4053416608,1.5331011002,0.9927340478,0.1918107535,0.4793166703,1.4744263946,0.7197636193,1.3979476871,0.5133171855,0.7041150244,0.4962958481,1.1868033413,0.9247059138,0.9925423506,1.1477182241,0.3504939315,0.9937821597,1.3052863766,0.5642028895,0.1677870433,0.1718436763,1.0890742005,1.0419487972,-0.5541166357,1.0559046953,1.1355438547,0.1473707497,0.0151420027,1.0921968686,1.2445994161,1.0958348653,0.0661337889,1.3168322056,0.4212150654,0.3958783622,1.3870443501,1.4160005719,0.6462889067,0.4618341505,0.7146370642,0.8614790351,0.7134653201,0.4349320049,0.1727751408,0.5142419389,1.4269663157,1.5481722674,0.2402858954,1.0867308317,1.2807657557,0.8371031368,0.1980049588,1.3158863187,1.2737426312,1.1113336988,1.1507348221,0.2583629519,0.338132537,0.8401070371,1.1491972185,0.9439479228,1.1502806792,0.9200780435,1.3735205413,0.5521414571,1.5324430934,0.2208016175,1.2015038261,0.6634803621,1.2828750749,0.5068429316,0.3444413768,0.2227483312,1.3272004408,0.3315625381,1.1262289555,0.7562625615,1.0448125163,0.3234327809,1.1344606169,0.1376751578,0.3790320312,1.4718943002,0.0262455034,0.0990881252,0.6132721758,1.2899856104,0.7147966455,1.1617730501,1.220143018,0.4711155772,0.6486782693,0.1282722531,0.3993245422,0.5917540003,0.2780689018,0.4592298293,0.8115831433,0.7571259578,1.1386535,0.0821029279,0.5583159106,1.5571962252,1.375098219,0.7727838923,0.0137439875,0.6464243029,0.0641679561,1.4580721831,0.2063179996,0.2055132125,1.178700216,1.0531904483,1.5413401576,1.5218810772,1.1415729964,0.3700083064,0.3942912111,1.156281208,1.0951082363,1.1795417343,0.316836486,0.1285091409,1.5582188635,0.7992135368,0.5852786787,1.1566505917,0.1736433885,0.3324854094,1.452793079,1.4802223737,0.0987245562,0.6518147033,0.9250938219,0.2394315903,0.1518253601,1.2652172302,1.218569727,1.3130063393,0.7154432569,0.8317746621,1.216167753,1.18442224,0.7442062147,0.5912609538,-1.1174443721,0.3564501167,0.0907184597,0.3664223508,1.4195890463,0.9035843028,1.3576879271,1.5423554228,1.4577557477,0.5596499938,0.7993172854,0.9944379934,1.5328148813,1.3817801176,1.3811125278,0.9851332807,1.3718037525,0.5105901622,0.8376134099,0.0014057012,1.0973614008,0.6743511605,0.6431035729,1.4381192149,0.3805678044,1.4465512105,0.1762524057,0.3070071122,0.0844612217,0.3689209488,0.0250028459,1.4943490364,0.0504514293,1.0897068043,0.526772923,1.4576101073,0.2618663988,1.4701414925,1.1830623875,1.4745212389,1.184518746,1.2350673849,1.547864851,1.0027086413,1.0716478278,0.4729914882,1.4565632302,0.8478779812,1.5487568463,0.1115613984,0.9431852879,0.9111971114,0.6182798979,0.6660750748,0.6386712368,0.5798340307,0.243031336,1.162606204,0.5153318432,1.5118255254,0.1874156971,0.2355229852,0.4757241205,1.3797379354,0.7344257829,1.3445192257,0.4183897759,0.4972882682,1.1540651884,0.325943247,0.8173560815,0.7993984018,0.6901797818,1.5570543791,0.3802332021,0.9171887536,0.3631011306,0.8135123905,0.8512371988,0.0511813312,1.0348745015,1.2218911878,0.8866758566,0.0190337532,0.7154702677,0.6602046002,0.6127676888,1.1344239096,0.3692891299,1.1952353504,1.2578834899,0.45377902,0.5648711186,0.1269924982,1.4023494329,1.2037336954,1.4594846717,0.9204328341,0.8443334388,0.8113753291,0.9068912028,1.1418655464,1.1215358391,0.1320228337,0.2390746083,0.1153240482,1.5275652651,1.0636829493,0.3113849788,0.5369876397,0.9908500882,0.6453261897,1.2973431257,1.1170564393,1.0591814672,1.1434350908,0.0943963189,1.4646867636,1.3606016017,0.8376882706,1.0465632923,0.9780554144,0.8097460172,0.724528049,1.2692927808,1.0952374843,0.074039209,0.1522539021,0.6567924226,1.0457425515,1.5461131963,0.8310443518,1.4767620219,0.8440729203,0.6700480054,0.6324930295,0.3656416192,0.3614499872,0.6574184303,1.1117819753,1.5115365246,1.5102772021,1.4699320908,0.2561810908,0.4579814802,1.4506631365,0.3000119827,0.9161297708,1.0863641955,0.6516963663,1.2456243077,0.2635949004,1.1644334834,1.0503929548,0.9194022392,1.4822417535,0.512606501,0.7912336114,0.4926957161,1.3136032229,1.525783301,0.3129192514,1.5438864637,1.1761167791,0.1561477848,0.2256295086,0.678033742,1.2486697955,0.28771802,0.4177469598,0.6352717219,0.6069871143,0.2047918287,1.0410803726,1.5252693351,0.0578603097,0.0806241429,0.7564986598,0.8721386297,1.2208573222,0.2545582917,0.3437430134,1.2038857185,1.1770793248,1.4596388944,0.4356515353,0.7210704374,0.3874236342,0.9871291358,0.2131026407,1.0117013639,0.2890366937,0.4922859119,0.9672515828,1.1508677134,0.2147956428,0.685677779,0.4383029554,0.7819359427,0.4483209197,0.1468763724,1.5367260302,0.3189421734,1.3380653414,1.4790583043,0.9178975364,1.4372122986,1.4188716454,0.9359667783,0.5098084625,1.3156864586,1.4964519756,1.1010117798,0.4780587364,0.0704946759,0.3614596241,1.4687583565,0.5446359979,0.1222599803,1.5458304267,0.4928274629,0.3757921655,0.2671006181,1.3783350911,0.1003008084,0.1049367005,1.0178082703,0.8875059348,0.4031819834,1.4948518594,0.8010950546,0.3620732775,0.0981712905,1.0858588109,1.0440766163,0.6711787537,1.2348112578,0.0429207833,0.2241500765,0.815513861,0.8482147955,1.1820442879,1.4740840124,0.4931060275,-1.3826857764,0.0887684941,0.2177618501,0.1019738102,1.0125833944,0.1596181204,0.6244055071,1.4098142674,0.4496819484,0.3205724147,0.4105191401,0.2644383185,0.9029484125,0.6077514971,0.6956163275,0.0381499456,0.6943727076,1.0194177869,0.2423990666,1.4661612826,0.4390084078,0.4726040119,0.5626178553,0.1439514271,0.7782654987,0.6748502788,0.7864470774,0.1917595137,0.5217880207,0.9893241102,1.2221171667,0.644109665,0.4773859721,0.6031514883,1.1933096334,1.4521057961,0.6861765974,1.1547674232,1.3985221155,0.1578128026,1.1559217897,1.4208134699,0.1775273988,0.9908522862,0.6774395422,0.8209249329,0.595147192,0.1958697115,1.3539470291,0.1224263943,0.159513804,0.3193543628,0.3097765716,0.0402868709,0.7752348977,0.230311533,0.9112277872,1.4500060003,1.0846176716,0.2948855866,0.771053117,0.0171749626,1.0456171611,1.0356762128,0.2589266958,0.940016384,1.2282345497,0.4642555841,0.6978244471,0.1680981423,0.3180277434,0.8077572433,1.4045938294,0.8169343936,0.4415520815,0.0946853985,0.1795945129,1.4052372016,0.2177586076,0.5708946775,1.1235116051,0.5736135142,1.5237019922,0.3341751326,1.502776131,0.4886874551,1.0852011546,1.3132459341,0.2591207431,0.6083034593,0.4251634389,1.3631681824,1.4582861404,1.4848147253,0.5511942539,0.2605336999,0.2313883475,0.2875170163,0.396544893,1.4217169606,0.8783144417,0.2811720369,0.2422305563,0.0960683931,0.1796017344,0.9119098181,1.439296058,0.8432306593,1.4762570242,1.4882257718,1.4987937015,0.835726423,0.700806544,0.618116546,1.4333905589,0.8211958876,1.3527595091,1.2638711609,1.3682795427,0.6927659704,1.2156566828,0.1587065965,-1.0473956755,0.475897045,1.161468603,0.1651956804,0.2738888802,0.4040388065,0.0816444866,0.8778606536,0.527410165,1.3201434957,0.8253924296,0.4237518775,0.3739487078,0.4900544391,1.0326199129,0.807308207,0.5111651178,0.2901568616,0.5701603491,0.2296753926,0.3298476107,0.1362900506,0.6160060923,1.4922805422,0.6169402186,0.0498323842,1.0257483026,0.9240563531,0.1456684804,0.8163478224,0.1165418122,1.4035156969,0.5795679019,0.6801965073,0.709146792,0.5919345516,1.0377458082,0.356916968,0.6619531382,0.8067018292,1.4640272215,0.2683455879,0.3608542309,0.1956230722,1.4322829727,0.4912960513,0.1542890297,0.4889799785,1.0771657051,0.0225726306,0.4382585453,0.322309032,0.5822332425,0.8849811956,0.8161832361,1.1609364274,0.902661801,0.3711029292,1.0221328229,0.4007590189,0.4577948002,-0.6268005443,1.4682542995,0.6216501564,0.1175580178,0.136383906,0.5415165041,0.4304946274,1.3869399451,0.6360584512,0.5927078116,0.0565878481,0.8089554436,1.4272033832,1.0399359704,0.5194233385,0.9428056767,0.8836058853,1.1117662103,0.9556289557,0.8920587874,0.0920095983,0.2516552562,0.9822764155,0.357828082,1.2880886763,0.7507643663,1.4624799014,0.3547040806,0.6126037519,1.5140387589,0.8568070057,0.2123817108,0.9528220763,1.2500599868,0.6123167326,1.0727411973,0.0820357205,0.4765790179,1.1229320433,0.677328158,0.4682260643,1.3050912227,1.5305922592,1.055810683,0.4129559012,0.7268381007,1.4062686009,1.5492726638,0.0034893306,0.3846112473,1.1644223146,1.555150191,0.0768904169,0.411753236,0.0001077675,0.8236380408,0.9380170262,0.9901658401,1.0701728364,0.7105882917,0.5591006824,-0.5809235512,1.2438060529,0.8077433895,0.6814406238,1.100559626,1.0624675325,1.0599141966,0.951574755,1.3817108035,0.0429755004,1.4038027818,0.8827486485,0.2830810195,1.3443515723,1.3624661114,0.863836365,0.2808218869,1.535456412,0.3210466519,0.8057389127,1.3767723935,0.2102167977,1.0837435654,0.3337745012,0.2382425347,0.2020584135,0.3303963148,0.9738710857,0.4917948949,1.0457544232,1.0524517164,0.716700159,0.0709827185,0.0373615841,0.577162205,0.6946045211,0.8689544036,0.2994527149,0.4309641796,0.9927673008,1.3857110894,1.0344506901,0.7471914054,1.4792248269,0.6492593793,0.7109719388,0.8686616296,0.2141027911,0.2162127656,1.3996858865,1.5533639497,1.5153071125,0.9121604776,0.414313543,0.5540168341,0.5497753494,0.8013617116,0.8959573397,0.8841282493,0.3344662959,0.3008757523,-0.6690741104,0.6025241309,1.4798401042,0.703259444,1.1229915432,0.5876634901,1.1818019108,1.3962399248,1.1071381171,1.4831718835,0.9674896737,0.9402700721,1.4548919118,0.9275384939,1.1601784682,0.0174435859,0.4792471215,0.7962735465,0.2771981916,1.4439547848,0.7287715264,1.035925565,0.8058945948,1.4709305851,0.9471358883,1.4923775558,1.4100420908,1.5343761654,0.9698536964,0.5714692929,0.4203387898,1.325521449,1.2796696683,0.3035244867,1.5203683021,0.4936692584,0.9402748524,1.1161229435,0.0411657689,0.3383001405,0.4971132459,1.4105282472,0.9843643234,1.1109573387,0.2386019361,1.0027359513,1.0569913023,0.8547046803,1.3481940859,0.2237662767,1.2657593026,0.2616524559,1.3871894682,0.8602182599,0.873941205,0.1274627967,1.2243269452,0.3682697958,1.0122695974,0.7526518752,0.7775277091,-1.4534270873,0.8626944061,1.5458009081,0.1000435233,1.2752029588,0.0170642598,0.9942300226,1.2741739736,0.84050919,0.4918232315
   0.4651676625,0.3534543166,1.4902967945,1.2419704292,1.4860710391,0.0324060961,0.2038667148,0.6636779767,1.2832081158,0.6263493713,0.4388073952,1.1664866131,1.0808387517,0.411219295,0.4759684445,0.8667660726,0.3382708614,1.1897425791,0.6709887603,0.7353516811,0.296401541,0.4279350973,0.5702667502,0.5057922562,0.1117309941,1.2182082279,1.4355276489,1.5285667784,1.1778746809,1.2885344467,0.4024532616,1.1372820742,1.3142592418,0.3912614805,0.1888830946,1.3445162894,0.4559622964,1.1653584778,0.1913918819,1.3026493603,0.8745884326,0.643384576,0.8620478069,0.7622588348,1.4345037921,0.5163554572,1.4620301167,1.2927116782,0.0375931048,0.3488269007,0.8323807442,-0.4315922695,1.3534821702,0.3962792028,0.2549705377,1.5303674314,1.0361159915,0.0055967229,1.2361864704,0.3637803949,1.0112910457,0.4650229511,0.2648456544,0.7593771296,1.3824104743,1.1085441047,1.353652645,0.420443954,0.6283248982,0.7012023593,0.1938419823,0.6423223682,0.3675268386,1.3909841806,1.374436543,0.9500372676,1.5218121137,1.4207604271,0.8447090107,0.8899517221,0.3453423572,1.3937505955,0.7954447587,0.1910150485,1.2232604542,1.4846614992,0.4643519702,0.8736357638,0.0378890103,0.4903216098,1.51553783,0.0436742429,0.8453954625,1.4347722232,0.6156364392,1.2669105354,1.5021941998,0.2735922095,0.236570544,0.097130071,1.4038070455,0.8505695746,0.2305877653,0.1496495203,0.4909001684,0.3026020891,0.81830812,1.4306126005,0.1148960195,1.1714394799,0.0340408503,0.3089999048,0.5722365226,1.3501141788,1.3739671501,0.0355386767,1.4893652055,1.2963877062,0.9907770227,1.5071436281,0.881475636,1.385722023,0.5099625352,1.1135431098,0.3450292043,0.9455802387,0.0259803438,0.4576783551,0.8322402469,0.4697458945,1.4468009591,0.3535436581,0.4493202342,1.3469772992,0.7595870654,0.0932338853,0.9021196515,0.0250308089,0.7938113365,0.5943986946,0.5699418165,0.4890662371,0.3533683447,0.8248443814,0.2843658252,1.1573511578,0.7837454414,0.4896447414,0.6322808472,0.5634579318,0.9865324012,1.0879872257,1.0253535551,0.7769898397,0.1853178078,1.0591816072,0.1602585967,1.3889238186,0.146325929,0.313463933,0.5960222955,0.0161913279,0.1759419519,0.5757926978,0.9946252636,0.483389559,1.2420636088,1.2540411779,1.1885398126,0.4120665984,0.4038477053,0.0159864188,0.9846229983,-0.3938351481,1.4239299481,1.1685988642,0.8497346271,0.6850739587,0.6181012721,0.0911429687,0.4784839334,0.1263624891,1.3991655829,1.4971831598,0.4664152546,0.4347746671,0.9452592956,0.8339478069,0.1680311596,0.312980202,1.2381282631,1.2574937897,0.2684323554,1.3913353812,1.3519991215,0.6475434781,0.3787853322,1.4238687443,0.9563504219,1.5494138941,1.268508499,0.9099273714,1.0466009865,0.3122253596,1.1650611714,0.2595263016,1.145378599,1.3980659035,0.3048091153,1.1093641243,0.0560121197,1.1590830904,0.7713317762,0.2977253093,1.0208488028,0.4199511431,0.5951655564,1.0987113446,1.1862286046,0.7122672307,1.1653143328,0.0238734544,0.680836093,0.8614804741,0.651531542,1.3149228854,0.772713374,0.4383400165,0.3413100261,1.0842573815,0.4733974599,1.0034613611,0.0185335134,0.1336366166,0.5285140826,0.4516850181,0.4257018905,0.5293708058,0.9566856377,1.5552597743,0.7280950762,1.3002403221,1.278277794,0.9535154434,0.2046252709,0.8269060506,0.3210332208,0.9283109024,0.994427903,1.2751373262,0.2406864111,0.900903614,1.3155702887,0.0341783745,1.3374096618,1.4292549406,1.1115517756,0.5015554006,0.1705105697,0.7076085978,1.0888331798,1.5132973943,0.1758455476,1.0543778384,1.0665853901,0.8735529939,1.4260336112,1.0934613698,0.6240512466,0.5889268826,1.1403209771,1.1468323267,0.1453448345,0.6880325668,0.6904813226,1.4836325807,0.0397348446,0.2667277927,0.0187512998,0.2272541805,1.5359789736,0.621474403,0.3244673694,1.0112052034,0.1682758087,0.8399431523,0.5047061158,0.0706962437,0.4269327175,1.4135769534,0.1200167082,1.038634568,0.7136265205,1.4299851231,1.1758052001,0.8078560398,1.2612525436,0.6288116439,1.4044081618,0.7912968012,0.1287301782,0.8252274284,1.0163996654,1.5567573162,1.2715222368,0.2167870292,1.3123281238,0.2634357206,1.4632077956,0.3568968344,0.4129764274,0.9686290529,0.8825244533,1.152725772,1.3993742337,1.060125663,1.2744689979,1.381378059,0.4921287517,0.927233143,1.2866624884,0.8634316228,0.0706207477,0.0374726373,0.1682064994,0.0244395909,0.9701949016,0.0479350381,0.4629422009,0.323865612,0.104953795,1.1584513686,1.4683307963,1.5155866007,0.936655529,0.5745562773,1.2151972667,0.0029756387,0.9554823657,0.5600513083,0.1130652859,1.451763372,1.4875054866,0.5837153323,0.318873093,1.3627296127,1.4559994887,0.80892589,0.1568116736,1.5572300167,0.5695757841,0.285664364,1.5309646024,1.2696090736,1.3707232234,1.33179715,1.1967274593,0.4759388877,0.2855149009,0.8350498533,0.2914872912,1.4751730902,1.3332305574,1.4409429885,0.1621851132,0.7396852492,0.8947643689,0.8464404441,0.4204381402,0.9347963592,0.7071590344,0.8320623086,1.3881086709,0.6068898558,0.0221756691,0.0279261664,1.4841580176,0.3117249728,0.2987111213,0.343098476,1.5208752412,0.343896721,0.1698372905,0.7514750675,1.1496914418,1.0968251168,1.4952592691,0.6925376608,0.397058591,0.9980929716,1.4541463969,0.0736063138,0.8727737806,1.0022246185,1.4198542475,1.2717208737,0.5456661757,1.4595590367,1.1468544439,1.0289418486,1.0809623869,1.4778051496,0.7894290061,0.4696000788,0.0466920225,0.8631045122,0.2915959364,0.9793604024,0.0601572403,1.2732944952,1.1778973121,1.1958711493,0.0278328142,0.7567559971,0.0826581601,0.9082247,0.1363427794,-1.3458307331,0.7201724732,0.3780539358,1.3221544249,1.2630214764,1.4581967771,0.2345771941,1.0393035949,0.666325271,1.0901181457,0.6185781685,0.9292700029,0.0569296627,0.4871184893,1.5033044359,1.0806114363,1.1762532303,0.1035155692,0.0399339154,0.1092281008,0.742528347,1.4252204251,0.2905752209,1.189132094,0.2721663089,0.8839243906,1.229239611,0.1365017727,1.3199361902,1.0553216272,1.3550568767,0.8084402145,0.1637834939,1.0827262567,0.4577011318,1.5086015532,0.7158233387,0.3676877771,0.5345199633,1.3466096093,1.2095653083,0.2718096076,0.2903623325,0.1585857252,0.7458389286,0.5333753005,0.2632788613,0.2789665066,1.0052559937,0.0907835488,0.6967591891,0.8588852403,1.0965586984,0.6047000256,0.0037760579,1.069706666,0.8622896455,0.0697956774,1.4221346172,1.5092644079,0.796996183,-0.3675458132,1.0194382669,1.1784442031,1.5233229359,1.3024762906,0.8362745018,1.5507677065,1.2934417563,1.2349061223,0.4631722838,0.0528460418,0.3205353648,0.4160168455,0.6760141336,1.442391918,0.7402793832,0.1556074364,0.8907255172,0.6438512476,1.4414189774,1.0725653219,0.0752669792,0.6985571394,0.6972768671,0.9589819663,1.2109524747,0.4525249144,1.1246645326,1.0996354195,1.2748445142,0.1461367324,1.4782312691,0.2230679561,0.6951491303,0.7345235196,0.7575442094,1.0566483723,0.3859303096,0.9816671595,1.2759618339,1.0567970982,1.434002525,1.1472385763,0.4649634803,0.998409351,0.9099452339,0.1317538233,0.8518654264,0.0266923449,0.236995066,0.6885918978,0.6468366179,0.0427978323,0.7868805164,1.4318507864,0.6982953356,0.6158637343,0.1429039006,0.7331248863,0.85126814,0.2177536838,1.0880625783,1.2556729645,1.3550157178,1.3415661491,1.5185251843,0.6358924474,0.2751891191,0.0326648368,1.0508744242,0.8406882353,0.4434614847,0.9109832514,1.1664024619,0.8615397393,0.2945811933,1.1702999759,0.3229023915,1.3005951304,0.6082177242,0.4052384166,1.1201349737,1.0807778251,0.5425292664,1.4116644598,0.5331829173,0.1043591188,0.0937754858,1.1729647626,0.7391827503,0.9787063342,0.8117057638,0.8373919775,0.8730651669,0.927159266,0.7025938045,0.336968537,0.4098506893,0.1036815212,0.1939899726,0.1633614579,0.5078753061,0.172823719,0.3616250918,0.9957776458,1.0584955994,0.2713190145,0.2714105325,1.0123583841,0.2179487937,0.087775552,1.5083576509,0.1651730928,1.2237835796,0.0791448092,1.4420701889,0.7892421603,1.4527831301,0.9278487942,0.8438497028,1.0465230615,0.4312538258,-1.3205338585,0.1276434793,0.7608315578,0.81987902,0.1303816343,1.4009480261,1.2973103783,0.0722304545,1.0366631202,1.0549038648,0.8768004824,0.5124489995,0.2800804266,0.2471156852,1.0520599678,0.5553603754,0.7955986844,0.4638020159,1.35794838,1.0175501779,0.1071442749,0.978666283,1.0698290919,0.6830403698,0.6100411092,1.2795148254,0.5978165004,1.1904181047,0.2338966455,1.2739469576,0.5839931879,0.0636769707,0.5066121183,1.4720096191,0.1832511345,0.5132523427,0.9922961488,1.0819617872,0.2886967084,0.4563946632,1.2332778386,1.1826728507,1.3445290242,1.450958409,0.6428280983,1.3234286212,0.8855728494,1.1002913434,0.281219831,0.8336128954,0.2183644415,1.2823112111,0.5587670023,0.5316705184,1.4323716494,0.550127659,0.0706154068,1.2323325535,1.1306503066,0.9271981103,0.3609647353,0.3541849836,0.7639128753,1.1362516801,0.5446585075,0.1232512176,0.7317873873,1.4321127965,1.2313422196,0.6745272796,0.0836308752,0.7225349554,1.3097040856,0.1881980668,1.2544283457,0.5118683356,0.3125563493,1.1345533848,0.9597104175,0.5871853782,1.4330208342,0.8603859195,0.8212936331,0.9504794332,0.3940729885,0.1527837244,0.8140979786,0.9412544265,0.002989276,1.5484180125,1.1108746872,0.2526680495,0.6129786453,1.1994256466,0.7238410967,0.8339230337,0.3796717266,1.1149231063,0.0286501806,0.9567807655,0.494458059,0.7081913303,1.5263592709,1.0736938132,0.5338013342,1.4375891927,0.5933382338,0.4787060491,0.1135851739,0.7043848723,0.7517860695,0.0968645394,1.3080076714,1.1030327721,1.2319745225,1.2163645282,0.4193768247,1.0609617832,0.4400341941,1.0997309113,1.1716282964,1.3999682147,-1.0983046234,0.0611996441,1.1461798682,0.4047865233,0.3373622303,0.7838811757,1.4256359381,0.7665486599,0.5776279525,0.7417730754,0.744685327,0.189828291,0.1073745535,1.2160985247,0.901857527,0.2282178951,1.0087827602,1.1020013207,0.1906057536,0.4519578364,1.4004171764,0.1122952557,1.0340164316,0.6473732442,0.866501999,0.9965004281,0.2708040303,0.8803969848,0.2914673491,1.5365910179,1.4764002985,0.4674737638,0.9933824128,0.3844729715,1.3659849073,1.1624955287,0.9773709823,0.7905282809,1.4981612619,0.0274509829,1.1507942464,1.3014936311,0.7719548982,0.0332712575,1.5217456006,0.866634344,0.3561561141,1.3897815171,0.2094272629,1.0819959639,1.397178594,0.0612857483,0.0448682122,0.0766244374,0.9731333233,0.8128649428,1.1115379148,1.2807281723,0.5364132788,0.2677675239,0.170736419,-0.1106273647,1.1354582362,1.0341367746,1.3681392877,0.746388775,0.5217365431,1.1694458021,0.3445566108,0.9006849686,0.1977591036,1.4681184094,0.6163772741,0.6836872882,1.1722655681,0.4420460921,0.5022815623,1.3320271332,0.5298597169,0.5171516377,0.8786347727,0.2860170867,0.2361689859,0.9553887886,0.4470372362,0.7707149497,1.5040589543,0.574374591,0.4111679492,0.2736011557,0.2567227373,0.6433053454,1.250442322,1.0365242488,0.4313725533,0.3357598512,0.0762096448,1.3769117812,1.0012622968,1.2622683153,0.3145142916,1.1870116258,1.1083878325,1.3207192444,1.2066674638,1.2395204329,0.5087020069,0.8101882229,0.8602009425,1.026965128,0.3740879808,0.255483767,0.9969987038,1.043651828,1.2242539146,1.2962818661,0.3858086402,0.4902242585,0.9440473465,0.9208502465,0.5046689419,0.1461566854,1.1926236101,0.7838009486,0.8284293126,1.5029143266,0.9685502594,1.2119511709,1.3563698733,0.4039484992,1.0879454954,0.2956788472,1.3235475489,0.1671104838,1.3775114495,0.3578020231,1.4648521513,1.5119058597,0.2341699003,1.5504155787,1.3957565433,0.8318808369,0.5347243708,0.3686642242,1.5161713804,0.1925462724,0.3950132996,0.0638201102,0.0792988932,0.0221472921,0.4281563393,1.3776799918,1.2253120425,1.3151653928,0.8212772584,0.3838674514,1.2427787127,0.1732694967,1.5088540551,0.6688131204,0.9248769824,0.0548324109,1.0221838611,1.174515036,1.4584933964,0.5313404017,0.0602426974,0.1290381139,0.7092437228,1.4947503672,1.3915257671,0.083418374,0.1126790232,0.6703223021,0.7625066102,0.9955125085,0.4323630953,0.5076217812,1.4738429568,0.6567355714,0.2989167099,1.2133882057,0.1772798953,0.2070239155,0.4552592388,0.7638906873,1.4214122187,0.0875963519,1.2572310715,0.8948238996,1.2477174399,1.5345240412,1.2109859358,1.1681837648,0.6089919057,0.8563395433,0.2535870611,0.4519852704,0.4043357269,0.661984052,0.3749859309,0.4557605799,0.3671966225,1.2835215509,0.2909656113,1.2197956989,0.3233635899,0.1108421059,1.3157300265,1.1004243727,0.9764445531,0.3561385048,1.1069049376,0.9422431832,0.2636285503,0.7824701185,0.788175766,0.0290899586,1.3506107432,0.3799563164,1.2644782521,0.6089470423,0.5931147814,0.2136390187,1.497249793,1.0042191145,1.4861590391,0.4467148695,0.2460826232,0.4837834434,0.1914705641,0.8863380826,0.7081103146,0.4432449792,0.7206709444,0.5594040216,1.2864173755,1.064482004,0.4384082352,1.0979399299,0.9848298293,0.0266230988,0.470992451,0.1314501322,1.0132910111,1.3124804653,0.6771797701,1.1304005359,0.2683103204,0.6110364482,0.5862616183,1.3975419114,0.51453839,0.952563989,0.0823901935,1.3590770446,1.1741524553,0.2974968475,0.4820021602,0.2691367952,1.2562308038,0.0042576177,0.0237743103,1.2357801737,0.6785157437,0.7795976328,0.211537161,0.1126784098,0.4070801994,0.8702133428,1.1656246071,1.2345693896,0.7643079208,1.0394117314,1.4121363969,0.1119722179,0.3821271812,0.4239463967,0.2612859246,0.9458774428,1.3384502931,1.0058314387,1.1740534742,0.1143081486,1.0732942524,0.7331238517,0.9501457254,0.3312945391,0.438281269,0.4251106989,0.015079514,1.2568142552,0.7284931114,1.1386064536,1.1765710239,0.5720464984,0.8008741576,1.4228953664,0.6060457185,0.1972720443,1.4489103149,0.2240580496,1.1699211464,0.9785575603,0.5456789664,0.3582524989,1.4791143474,1.5560452893,0.4125487588,0.3523490578,0.6026004368,1.0271020745,1.5440729374,0.9404589063,1.4182328397,1.0298332063,1.1391048962,0.2521166248,0.5991337784,0.0232174473,0.1602086397,0.8613113862,0.1694463709,1.4340757761,1.1494190172,0.3480389687,1.4982310799,1.3283494155,0.5678920657,1.2389019656,0.006836293,1.4315546279,1.0303973074,1.4118756789,1.0848420725,0.0854084313,0.7937437211,1.5462146205,0.4615172881,1.0297396225,0.3396299139,0.7951792854,0.6998564665,1.4562149804,0.1697988576,1.3170919846,0.228813045,1.4478237586,0.2780722157,0.3617628794,0.0209944195,0.9436716396,1.4878005606,1.4551266557,0.8757270595,1.1489593947,1.5361516928,1.343418131,0.0546878548,0.1850626736,0.4835356605,1.4073259515,0.2442432245,0.7669447302,1.0714307465,0.8396115964,-0.7276483057,0.0557957863,0.7102001601,0.1809551323,1.4874876805,1.535628815,0.0966292583,1.3124174914,0.5609601052,1.3930151669,0.1683020412,1.0262894554,1.3255634014,0.9268079864,0.7497047087,0.4469783048,0.2753214792,0.9468228822,0.5245788758,0.8089855376,0.8562015854,0.4424936898,1.4888566142,0.8316324336,0.7322348997,0.4505205067,0.964756806,0.9806909116,0.1878098414,1.0946014658,1.3835371785,0.561992922,1.1957887069,1.2771958749,0.2104684255,0.3950135352,1.5436949821,1.4192610653,1.2485877503,1.5107858334,1.5181798271,0.7436855793,0.4928341856,1.1125141988,0.2308999859,0.3546482994,0.0151528793,0.4273717104,1.2331245611,1.2541016026,1.3457010287,0.8751531899,0.7262297528,0.2116760905,0.286549505,0.195521132,0.9808014167,0.6796481194,0.8614552267,0.6207326848,1.1906377954,0.6712926539,0.5549676998,1.1599007215,0.2282832021,1.2176739811,0.5349880994,1.5183390997,1.1806907228,0.2464546113,0.0400757387,0.8392829332,0.8720686231,0.2552512437,1.0202927799,0.6357359382,0.4967715099,0.6288038819,0.2582121487,1.4991385909,1.0048955023,1.2871564324,0.1671271323,0.8562184902,1.2407912436,0.6632552095,0.3029612149,0.5721022268,0.9662526057,1.2341756854,1.5392434096,0.8038925134,0.5544303241,1.0260124961,0.553936566,1.5520468568,0.4604969356,1.4723583384,0.6440693825,1.4690156691,0.0575143935,0.1760241321,0.6189888659,0.8936429033,1.378986202,1.1656154269,1.2655684023,1.1455146767,1.3514029739,0.9243386592,0.7317144315,1.1922224128,0.6285484005,0.6509532876,0.5943594067,0.5537161005,0.5395568726,0.1861016395,0.5418626083,0.6226901716,0.7622662449,0.0795925553,-1.2091241576,0.9269755988,0.6054528364,1.2808164405,0.6469103104,0.6087217586,1.1641715415,1.3805040204,0.1528714613,1.1313298663,1.43757884,1.0202904819,1.4649721155,0.7677792642,0.5736374077,0.1040455229,0.3353905175,0.8121881107,0.2711579226,1.3322452833,0.1925327119,0.873291287,0.9154764346,0.5949722683,0.9615110124,0.4399201638,0.0059066716,1.2104107221,0.3357971416,1.3153576642,0.6961422532,1.4308492018,1.0131234434,0.2092701812,1.0949170254,0.8308712266,0.225492642,1.329859973,0.6627258994,1.5117663875,0.8822922782,0.5637540188,1.5424886617,0.8268834924,1.5269837867,1.1739024249,1.353377411,0.6832266387,1.2987843949,1.2891037988,1.1219393636,0.586400735,1.0153565612,0.9848839151,0.9566755593,1.0767877611,0.6597128834,0.5912349574,1.1820605236,1.2085391821,0.3646083124,-0.8994951836,0.6928420094,0.4410915292,1.0603972343,0.5117976528,1.4871074953,1.3317901415,1.2191388719,0.5096675482,0.9198955505,0.7506723089,1.2739945262,1.0929652524,0.2026148773,0.8759731367,0.8418175416,0.5227482813,0.8586499081,0.3955363849,1.1615020299,0.6817747069,1.3618330621,0.4537780198,0.7398720456,0.5580030202,1.4527949771,1.0285940089,0.5873835117,1.5473292999,0.0250525803,0.0684387963,1.3324770314,0.2317401284,0.507461692,0.7230875798,0.4648920279,0.8615474845,0.2006998352,1.3155437716,1.0439684765,0.2586635841,1.0653024286,0.7192826975,0.4215282048,0.4141572078,1.2448334339,1.0058342125,1.4121280413,1.2901615378,0.8879084222,0.1772415809,0.0598869535,0.181036338,1.3696158725,1.1121633349,1.5285310195,1.4978638414,0.9125209035,1.5416110654,0.5772267152,1.5574393541,0.3140257672,1.4585160831,0.612674575,0.3106372234,0.3198223728,0.9686194051,0.4682056394,0.2623381507,1.3784103165,0.6939259356,0.3164622142,0.7760996649,1.0251823621,0.7871472833,1.2870574909,1.0179991858,1.551725643,0.9632849295,0.1293682612,0.7852513812,0.1357579116,0.1391597592,1.3723730865,1.3540628372,0.3245652529,0.6649502215,0.5895562273,1.1559652977,1.1726636154,0.0161005769,0.7869755803,0.028277772,1.2047163462,0.972424397,1.1024701287,0.4464087181,0.5490882753,0.8189052311,0.9096857764,1.2274339278,1.498133425,0.6486565948,1.1489682998,0.2848591897,0.1119505562,1.2481120928,0.6155593267,0.2783329904,0.325050834,0.152171958,0.4378548251,0.6357375787,0.9642235519,0.6741697985,0.481533738,0.1086684985,0.3550346959,0.9653238294,0.0211952358,1.057008784,0.1025565537,-0.7986279425,0.3409574126,0.5279468447,1.3408704204,0.6981226652,0.8433914194,0.9794009512,0.1470375886,1.3134472486,0.0048278782,0.91040289,0.1815755899,0.3028094632,0.9108288529,0.3651353411,0.168395161,0.1277115253,0.8618801869,0.7811530697,0.7702456572,1.1552207228,1.543077538,0.9948919024,0.0140383556,0.8518220876,1.0217095646,0.6466426286,0.6563774549,0.2956876312,0.4164456185,1.2571014056,1.5519908321,0.2206989227,0.1451381448,0.9898689422,0.0270905339,0.450858553,0.2724564148,1.3929963374,1.3217100621,1.4745907808,0.6262918546,0.0529859092,0.3277410697,0.7278784835,1.5258315239,0.1543111875,0.035910018,1.553304617,0.9121605505,1.2865291728,1.3474819671,1.4322181537,1.4878503125,1.4503194951,0.0689344045,0.2934760646,1.1590840272,0.7611631055,1.3634995411,0.7906025328,0.3607090686,0.1802655923,0.1535839573,0.3617785541,0.1288882815,1.1389830525,1.2034162041,0.8018364394,1.0925128586,1.292446865,0.3658282084,0.6452994748,0.7544236137,0.2980293513,0.8350362859,0.7728917709,0.563152816,1.0956527617,0.5936676334,0.1823805173,0.6020221427,0.234331597,0.2226914405,0.6750737172,0.4219208047,0.6666711029,1.0945731991,1.3032034777,1.1902290188,0.4201737241,0.2450455561,1.4795576479,0.5615499803,0.786465749,0.0346783184,0.5586212514,0.4394556277,1.4640045445,0.6071151953,0.3975229741,0.658549419,1.070531405,0.2630061718,1.2988908313,0.4659620272,0.0147745607,1.2376857701,0.6382779398,0.2315348821,0.6688474454,1.4265876791,1.4431908153,0.753883455,0.5780927211,1.2255798605,1.1302521994,1.1766640979,0.6431359245,1.4808175341,0.7561140122,1.0201357614,-0.0310572072,1.0583808883,0.3334909769,1.3768816592,0.2111184516,0.7611401587,1.0758560339,0.7659417109,0.4447850006,0.874627082,1.3496353495,1.177816999,0.7923858248,0.022243829,0.0324341362,0.7615190747,0.0636730459,0.2335935173,1.4500451707,1.2066540593,1.021210038,0.658932,1.5507507623,0.6542093686,1.2067594656,1.2303471524,0.1506530185,1.1454084281,0.2612675675,1.0214689525,1.5547287448,1.328491438,1.183411629,1.0443944916,0.9678042547,0.2776270177,0.316344744,0.251145563,0.9520957636,0.8998535189,0.0320892588,0.9353001946,0.2609483479,0.6519904583,0.8026832338,1.5126230423,1.2575643395,1.4318386204,0.4987067768,0.0207132009,0.5840400026,1.0821140616,0.9352066074,1.2391695758,1.5036760849,1.2326866788,1.3668022769,0.4404705299,1.1513561086,1.2880471534,0.0476771056,-0.6813798727,0.1909326316,0.6525057308,0.5979618054,1.2606724619,0.5059275812,0.7689352121,1.5388843495,0.3165923891,0.0946467749,0.4882607314,1.5361472763,0.9527607251,0.5572640843,0.2293905004,1.0450458314,1.2045117078,0.3027033838,1.193188291,0.1122021811,1.3548007287,0.1081335834,0.30127406,0.9960420079,0.8627942111,1.0285296125,1.1379163873,1.1652417744,0.8926427765,0.8564471559,1.5247007101,1.4845306088,0.3404539284,1.1572664888,1.3587949389,0.6972112494,1.1708957685,0.594577218,0.0333420612,0.9168076103,1.1759731918,1.4838221775,1.2171624144,0.1387804314,0.0411440536,0.6152666745,1.120170986,1.3131642004,1.5155203311,0.0024690737,1.2253437493,0.8027164906,1.4678158189,0.4084255857,1.2254011456,1.5497768727,0.316670996,0.8696108419,1.2634070178,1.2181384635,0.8259109171,-0.4459292181,1.0877596613,0.9430153652,0.2610464711,0.1676283556,1.4024783788,0.2334062117,1.0802223919,0.0678162183,0.0593195272,1.3913666329,1.2628875937,0.1021403809,0.9419951453,1.4608327909,0.2562490308,0.1178265489,1.1512995892,1.0957728929,1.1199809122,0.1460648926,0.2672735288,0.2624923986,0.5551622857,1.0678663148,1.281523907,0.0993009656,0.5577686517,0.4750236044,0.4966274782,0.954351506,0.8634520308,1.4842214255,0.66102302,0.7426937841,1.5091538863,1.5273532725,0.6793376135,0.5130652247,0.5215923769,0.414716393,0.7204963103,0.8879105617,0.6294216569,1.4002161522,0.0906251671,1.0939397157,1.1682812203,0.9239339006,1.1443602471,1.4193829249,0.0634686597,0.6937692816,1.1744155879,0.8219008716,0.8650633206,0.1173725304,0.4957223504,0.0735314355,0.5850619611,0.4153952698,-0.3222412485,0.3409924232,0.0361675953,1.4217860646,0.7316492631,0.6700848631,1.2836112671,0.5493157954,0.7048003613,1.3119293825,1.5138222964,1.1666245122,0.1773742889,1.1758833623,1.1158267339,0.2527872464,1.4606797554,1.0540500068,1.4427901343,1.5539331066,0.6206768841,0.753037949,0.8444407668,1.2433977811,0.8100882849,0.7104482626,1.1009952771,1.239200754,0.0407248089,0.0144492574,0.6120099762,0.1446496352,0.4021676054,0.5640744474,1.196810827,1.0043574426,0.633438595,0.1365724458,1.2564863057,1.2784731643,0.9930310279,0.8357731695,0.9173793854,1.1686116508,0.1967761077,0.4932310957,1.1045504776,1.5459400241,1.3056580883,1.3030780798,0.0626255632,0.114749719,0.0299578871,0.8834913315,0.4252401479,0.1718084416,0.1567125721,1.0205270466,0.6695903988,0.284142534,0.1301995607,-0.0007808035,0.7657234691,0.5291520747,1.5376675107,1.338538684,1.4552833889,0.8609098699,0.4698711196,0.6990796722,0.0724820102,0.0766409365,0.8856150646,1.3522109134,1.1534135208,0.3157209544,0.211218556,1.4435079988,0.3294872181,1.2360477152,1.1701834269,1.1808649517,1.2341220656,0.2340298454,0.0124667177,1.3925647501,0.2710337497,1.3684674146,0.9063016049,0.7759609348,0.8759836282,1.3753728982,1.4012507599,1.2305141344,0.9187136473,0.4230454152,1.5480968621,0.6383673108,0.098646243,1.489119905,0.7653887552,1.0359501752,0.4248829965,0.3105219485,1.1705713644,1.4942742457,1.3399696706,1.1550438392,0.3372795857,0.2112675606,1.3009592159,1.4975833524,1.516547147,0.898778083,0.9374311473,0.6350045172,0.1458458524,1.2095597577,0.8469837453,0.2578618415,1.0642280931,0.969643054,-0.3593532993,0.4417318388,1.0111833522,0.3657427598,1.3627499564,1.1334014202,1.2913748495,1.3634145097,1.0876137886,0.1342516307,0.3687991405,0.0578444256,1.1828956307,0.8895667552,0.3122198324,0.9078386022,1.2471719227,0.1794463858,0.1489293163,0.1255348463,0.6885337471,1.187266568,0.2107266752,0.5789780956,0.7838448912,0.3788641935,1.1781937725,1.4868062817,0.9099364444,0.0007916319,0.2391820824,0.269762338,0.5879402383,1.2641951783,0.3533192112,1.3425020457,0.9814745871,0.232311044,1.4790613656,1.2285337889,0.8903554759,1.3692631828,0.4554890289,0.3380015822,0.3875614821,1.0501143689,1.5149791318,1.463586534,1.4963447474,1.1037284787,0.7984022528,0.8012576697,1.3372191822,1.4378490856,0.3332188141,1.046526201,0.6290703568,1.3796775147,0.5551657303,0.2385047383,0.6735670561,0.7176917721,1.3641188207,1.4766034272,0.9657513203,0.921130234,1.1018840758,0.0823235258,0.320887807,0.4824863775,1.3904985901,0.9214144229,1.3354393999,1.4651065547,0.5713038467,0.7761041028,1.4335243828,1.4015487703,1.0313929996,0.4420021405,0.7470319202,0.3685366759,0.3238892805,0.0795481599,0.6302993232,0.7109449013,0.3194034417,0.3007641684,1.3842090907,1.1765833014,0.5394526207,1.203578697,1.5054464413,0.7550868435,0.1262726184,0.0907307285,0.7715120137,0.1763518753,1.3914952174,0.2549971991,0.1920294052,0.4439490198,1.0583031295,0.3480062194,0.355033345,1.0689432462,0.8145809469,0.9349857942,0.3891932799,0.3825054484,0.7875650678,0.8588474544,0.0290073911,1.0026377786,1.4481380492,1.0714055106,0.5035629417,1.3390124141,0.7552110521,1.3709289617,0.1840423506,1.413189103,-1.1194147807,1.12604822,1.1979898623,0.3795622077,0.9455270061,0.587770298,1.246540582,1.1336173906,0.6395427966,0.0509412189,0.434329403,1.5542244692,0.5394901521,0.3397747535,1.3965140091,0.2908161399,0.4248861543,0.5257037552,0.5940254535,0.7009687943,0.3102628064,0.5619704129,1.2685516994,0.373725265,1.4480547384,0.7060599492,0.4244839825,0.4745316146,0.481724898,1.3337659622,0.5916049124,0.9761792962,0.1486007881,0.5483477647,1.0861450378,1.0248945243,1.214881244,0.768065762,0.4879159836,0.5996258995,0.0927781632,0.9127268377,1.2365027871,1.1990264396,0.2892985646,0.9702739137,0.1381586071,0.7820146548,1.4412111276,0.5745587399,1.4238722676,1.0974370404,0.4618830079,1.3901157795,1.148907828,1.0590631286,0.2164503164,0.6481667242,1.2257540308,0.7807430654,0.8992773231,1.3041301729,0.8054309699,0.999818065,0.6923985157,1.5187754937,0.1132726913,0.9143595892,0.2775387667,0.7049625894,0.0189931713,0.5926491229,0.541050541,1.4415752373,1.517904808,0.0412000477,0.7720436403,1.2839018096,0.8025926566,0.8760388592,0.6261588251,1.4128124027,1.1417769112,0.050587465,0.7050586003,0.3759807586,1.4408930831,0.7461298971,0.6704497447,0.8336448011,0.6425640016,1.5498295022,1.4112679292,1.3865852879,0.093843634,0.8049240026,0.1696113186,1.5249386569,0.3971141959,1.0729352826,0.1917911079,1.0968477061,0.2621258267,1.2440592843,0.5814913723,0.2362927255
