encog,BasicNetwork,java,3.4.0,1,1588906056303
[BASIC]
[BASIC:PARAMS]
[BASIC:NETWORK]
beginTraining=0
connectionLimit=0
contextTargetOffset=0,0,0
contextTargetSize=0,0,0
endTraining=2
hasContext=f
inputCount=2
layerCounts=3,11,3
layerFeedCounts=2,10,2
layerContextCount=0,0,0
layerIndex=0,3,14
output=1,1,1,1,1,1,1,1,1,1,1,1,1,1,34397,34715,1
outputCount=2
weightIndex=0,22,52
weights=3.3832985379,3.631650934,3.7659671324,4.1699976418,2.9892266878,3.7037563417,2.9194359813,3.1085037815,4.0792153722,4.0210503125,3.4780381135,3.6568594013,4.026911099,3.9158887871,3.5414393878,4.3026479099,3.9131405166,3.1930017626,4.0458875359,3.0760599311,2.884348593,2.4287465101,1.6482550978,1.4341336079,1.0440424476,1.460427472,1.4836488579,2.0993698877,1.8515887985,1.5502822045,-0.0495663361,1.1405139371,1.0640239665,-0.9351873044,2.074624809,2.1811413647,-0.4315977257,0.0275216411,1.3517282763,-1.9257327657,0.1640108921,2.1988096765,-1.3964797899,0.2718405356,1.7234206237,-0.8711419107,0.4511759623,1.862975219,-1.9096036646,1.3539103269,1.2174330997,0.2510409176
biasActivation=1,1,1
[BASIC:ACTIVATION]
"org.encog.engine.network.activation.ActivationSigmoid"
"org.encog.engine.network.activation.ActivationTANH"
"org.encog.engine.network.activation.ActivationSigmoid"
