encog,BasicNetwork,java,3.4.0,1,1588921902018
[BASIC]
[BASIC:PARAMS]
[BASIC:NETWORK]
beginTraining=0
connectionLimit=0
contextTargetOffset=0,0,0
contextTargetSize=0,0,0
endTraining=2
hasContext=f
inputCount=2
layerCounts=3,11,3
layerFeedCounts=2,10,2
layerContextCount=0,0,0
layerIndex=0,3,14
output=1,1,1,1,1,1,1,1,1,1,1,1,1,1,34397,34715,1
outputCount=2
weightIndex=0,22,52
weights=3.9367727695,3.1293432183,4.0437628756,3.8163932709,3.164724598,3.7143572174,3.6349071474,4.1577212214,4.1350682309,2.9599621693,1.8580825254,3.4760418843,4.0170691058,3.902968992,2.9394354324,3.0864396284,3.9422250008,3.3090583675,4.2995065507,2.847798855,4.0303691191,2.498278263,1.3208817705,2.0239356248,-0.5235419271,1.4119596135,0.9499877655,-1.8508696795,1.2726183932,0.7151768432,-0.6424045744,0.1192174852,0.0637578716,-0.0592893262,1.1354950536,1.6120655956,1.210053162,0.8890989151,2.1631501341,-0.3487973119,2.0409885919,0.2549454025,-1.6432116499,1.3767602823,1.6391893781,1.0964481737,0.4596337667,1.033127051,-1.0370028338,1.8018611218,0.1787198274,0.4555578317
biasActivation=1,1,1
[BASIC:ACTIVATION]
"org.encog.engine.network.activation.ActivationSigmoid"
"org.encog.engine.network.activation.ActivationTANH"
"org.encog.engine.network.activation.ActivationSigmoid"
