encog,BasicNetwork,java,3.4.0,1,1588905482281
[BASIC]
[BASIC:PARAMS]
[BASIC:NETWORK]
beginTraining=0
connectionLimit=0
contextTargetOffset=0,0,0
contextTargetSize=0,0,0
endTraining=2
hasContext=f
inputCount=10
layerCounts=11,11,11
layerFeedCounts=10,10,10
layerContextCount=0,0,0
layerIndex=0,11,22
output=0.9999328646,0.9999732171,0.9998217965,0.9999232517,0.9999264873,0.9996316325,0.9998725338,0.999987121,0.9999367623,0.9992062675,1,1,1,1,1,1,1,1,1,1,1,1,0,0,-2120471985,0,-840853250,0,0,10725253794844640000000000000000000000000000000000000000000000000000000000000000000000000000000000000000000000000000000000000000000000000000000000000000000000000000000000000000000000000000000000000000000000000000000000000000000000000000000000000000000000000000000000000000000000000000000000000000000000000000,0,0,1
outputCount=10
weightIndex=0,110,220
weights=0.3763685459,0.8618623379,0.2377180782,0.5859683451,0.8337621016,1.4438772151,0.5463859243,0.682391339,1.203910642,1.7115558953,1.1249318417,0.2757511902,0.7776067664,0.3007640667,1.3159989322,1.7524485516,1.7061623992,1.0860814469,1.62659835,1.7317063857,0.6730642912,-0.7184626412,0.1202415069,1.2121606624,0.5795986622,1.1643958025,1.548421435,0.9052384134,1.5253021275,1.5114578694,0.0289764781,1.2201014125,-1.1834882904,1.7110940418,0.1312309515,1.2179253551,1.1760242784,1.20570731,0.0527628713,0.2415748346,1.7015447827,0.4620724407,0.2465182791,1.3284477306,0.0636805311,1.4137915963,1.0639394165,1.1549416636,0.9690968742,1.3713136164,1.0475616259,0.9938973894,0.6988303184,0.6504222211,0.0905030434,0.1570579437,0.7474180635,1.0872679208,1.3373455737,1.7531547103,0.2211896177,0.6126696371,1.5928763978,1.7065585624,0.2356368354,-1.5451143037,0.3153174849,0.1858810206,1.0120895531,1.6667458283,0.7726945171,1.5483888634,1.3965478283,0.4978501053,1.2230824906,0.103866875,0.2450672264,0.7658359137,1.7373500538,1.5638834883,1.0709546576,0.9558201379,0.8261944975,1.7573146278,0.8458577154,0.184304455,0.4283143179,1.1240696012,0.1060036136,0.4899339734,1.478478649,1.6488147746,1.1516038669,1.0235011686,0.3705927655,1.3523178008,1.5678358594,0.2689620605,0.2105020306,0.7851747693,0.7815818447,0.050043074,1.05282566,0.6669967413,1.5205111643,1.752927485,0.7392132328,0.5805094526,0.5017066001,-1.2935199881,0.6837863091,0.5593065336,0.2511237644,0.2157817023,0.7986756355,0.4335610455,0.1543221151,0.624200774,0.5950750993,0.4242575555,-0.1473315879,0.0226762555,0.4858446902,0.6787331525,0.6221786401,0.5427188882,0.4750515735,0.0775466717,0.8594630599,0.1944458119,0.0251400071,0.3839747913,0.3296645494,0.0192549005,0.5580121827,0.1274566876,0.0554172205,0.44554307,0.7836950784,0.3857082858,0.0398906899,0.3250783981,0.6501771229,0.7131860087,0.3103057511,0.4728581781,0.6308504322,0.553981799,0.4531288889,0.5683715754,0.6722261301,0.2326597398,0.480523839,-0.7165440161,0.7371755403,0.0626715032,0.735621566,0.4314652973,0.3660127929,0.7787458841,0.8313868927,0.0213692953,0.4846660317,0.580044471,0.4670779169,0.5504703453,0.4588726114,0.1372275274,0.553777327,0.6955573819,0.241510229,0.1053262853,0.3938932308,0.066995073,0.4443974958,-0.6983864787,0.0739441125,0.6731149748,0.1499264354,0.7923638953,0.3981929019,0.8583969086,0.0171208271,0.6189484947,0.2584799205,0.2901232172,-0.0258069369,0.7593983135,0.1406110063,0.2230236077,0.2802148561,0.5061967295,0.8413946796,0.725564695,0.5159014729,0.5908929143,0.1953049735,0.5034059523,0.3168877722,0.4997593644,0.205038532,0.44533585,0.719116902,0.2136340064,0.3285434817,0.6515287954,0.5082611334,0.7320359024,0.7541679675,0.299346454,0.7330535009,0.5357893106,0.076476053,0.1660395801,0.0337479502,0.019341622,0.1425577428,0.6376701634,0.7664487597,-0.2163032324
biasActivation=1,1,1
[BASIC:ACTIVATION]
"org.encog.engine.network.activation.ActivationSigmoid"
"org.encog.engine.network.activation.ActivationTANH"
"org.encog.engine.network.activation.ActivationSigmoid"
