encog,BasicNetwork,java,3.4.0,1,1588999914869
[BASIC]
[BASIC:PARAMS]
[BASIC:NETWORK]
beginTraining=0
connectionLimit=0
contextTargetOffset=0,0,0
contextTargetSize=0,0,0
endTraining=2
hasContext=f
inputCount=2
layerCounts=3,11,3
layerFeedCounts=2,10,2
layerContextCount=0,0,0
layerIndex=0,3,14
output=1,1,1,1,1,1,1,1,1,1,1,1,1,1,2022096,33578177,1
outputCount=2
weightIndex=0,22,52
weights=3.0451251961,3.012922746,2.937308506,2.8720601309,3.3297860857,3.8887399624,3.9672172189,2.9189992227,2.8918191742,3.9332155177,4.0942443389,3.5904414884,3.9406297064,3.9390703182,4.0743443267,2.8590303582,3.0007791383,4.0440261369,4.1166432438,4.0304485498,4.0405862143,3.8936062633,0.3652263347,0.0167848394,-1.2468213941,0.4840113937,0.5088643851,1.7355888019,2.0659635266,0.5540940911,0.5726040911,1.1882639933,0.6427254911,1.667109597,1.6410833012,0.3290072703,-1.3655669272,1.2557661593,0.1704474389,1.960496943,0.1263405706,1.3106577182,-1.2608083341,2.0155511224,1.7266053345,-1.9999337476,1.2957036923,1.8959980807,1.8322202748,0.2341333242,1.6866469336,0.2995268824
biasActivation=1,1,1
[BASIC:ACTIVATION]
"org.encog.engine.network.activation.ActivationSigmoid"
"org.encog.engine.network.activation.ActivationTANH"
"org.encog.engine.network.activation.ActivationSigmoid"
