encog,BasicNetwork,java,3.4.0,1,1589012583243
[BASIC]
[BASIC:PARAMS]
[BASIC:NETWORK]
beginTraining=0
connectionLimit=0
contextTargetOffset=0,0,0
contextTargetSize=0,0,0
endTraining=2
hasContext=f
inputCount=234
layerCounts=235,21,235
layerFeedCounts=234,20,234
layerContextCount=0,0,0
layerIndex=0,235,256
output=0.0000000007,0.0000000001,0.0000000481,0.0000000003,0.0000000155,0.0000000004,0.0000000007,0.0000002257,0.0000000005,0.0000000483,0.0000026809,0.0000000005,0,0.0000000072,0.0000000009,0.0000000163,0.0000000028,0.0000000084,0.0000000314,0.0000001204,0.0000000129,0.0000000048,0.0000000001,0.0000000053,0.0000000004,0.0000000082,0.0000000007,0.0000000668,0.0000010184,0.0000000029,0.0000001254,0.0000000127,0.0000001731,0.0000003444,0.0000000053,0.0000000029,0.0000007787,0.0000000172,0.0000000439,0.0000000028,0.0000000007,0.0000000013,0.0000000502,0.0000000141,0.0000000002,0.0000000052,0.0000000202,0.000000005,0.000000069,0.000000708,0.0000000022,0.0000000018,0.0000000082,0.0000001901,0.0000000004,0.0000000394,0.00000003,0.0000000637,0.0000009368,0.0000000034,0.0000000056,0.0000002117,0.0000000142,0.0000000547,0.0000000042,0.0000000013,0.0000000002,0.0000001266,0.0000000008,0.0000000144,0.0000000849,0.0000002188,0.0000001877,0.000000027,0.0000000559,0.0000000208,0.000000232,0.0000000772,0.0000000006,0.0000000009,0.0000000416,0.0000000019,0.0000002929,0.0000000001,0.0000000001,0.0000000003,0.0000000005,0.0000000004,0.0000000317,0.0000000001,0.0000000011,0.000000003,0.0000003901,0.0000009377,0.000000089,0.0000000243,0.0000000087,0.0000000492,0.0000000001,0.0000000003,0.0000003223,0.0000001046,0.0000000171,0.0000000008,0.0000000834,0.0000001126,0.0000000447,0.000000001,0.000000001,0.000000004,0.0000000093,0.0000000055,0.0000000235,0.0000000366,0.0000000062,0.0000000478,0.0000000001,0.0000001107,0.0000009403,0.0000000039,0.0000000003,0.000000001,0.0000000559,0.0000000017,0.0000000038,0.0000177138,0.0000000078,0.0000000351,0.0000000053,0.0000000125,0.0000000535,0.0000000097,0.0000000012,0.0000000001,0.0000000314,0.0000000295,0.0000000043,0.0000001909,0.0000000028,0.0000000604,0.0000000303,0.0000000199,0.0000000045,0.0000000086,0.0000001624,0.0000000032,0.0000000904,0.0000000005,0.0000000506,0.0000000519,0.0000005881,0.0000000073,0.0000000012,0.0000000298,0.0000000317,0.0000003197,0.0000004577,0.0000000155,0.0000000012,0.0000001675,0.0000006837,0.0000004462,0.0000001167,0.0000000073,0.0000000051,0.0000000006,0.0000000028,0.0000000082,0.0000000006,0.0000000449,0.0000000138,0.0000000051,0.0000000001,0.0000000024,0.0000007574,0.0000000012,0.0000000003,0.0000000005,0.0000007246,0.000000013,0.0000000048,0.0000000165,0.0000000169,0.0000000007,0.0000134934,0.0000016315,0.0000000778,0.0000000078,0.0000000019,0.0000000066,0.0000000767,0.0000000878,0.0000000002,0,0.0000000061,0.0000000029,0.0000000959,0.0000000019,0.0000000039,0.0000000017,0.000000003,0.0000000116,0.0000000015,0.000000054,0.0000000061,0.0000013068,0.0000001234,0.0000000022,0.0000000028,0.0000003996,0.0000000453,0.0000000188,0.0000000001,0.000000027,0.0000000091,0,0.0000000013,0.000000854,0.0000000026,0.0000000921,0.0000000505,0.0000000017,0.0000000072,0.0000000687,0.0000002824,0.000000013,0.0000000645,0.0000000024,0.0000000005,0.000000001,0.0000001237,0.0000000011,0.0000000098,0.0000000496,1,-1,-1,-1,-1,-1,-1,-1,-1,-1,-1,-1,-1,-1,-1,-1,-1,-1,-1,-1,-1,1,-215043908,-964691578,1043396928,1184444060,-564483556,1638135998,-964691598,119329080,-1130888971,1156587998,1986193201,-2069727255,-106283207,-1556611236,-1769591672,-273584135,1412552472,874192315,-1198565449,749597279,-1188169541,-997274490,-1624978030,2036901499,2011689769,-276453616,239427766,-50468238,-120189376,-1142800739,-2073538183,-655007176,1617507858,-1336991014,1797409136,-529984864,-1562239828,741659644,1008747829,2053931021,-1915093952,908178060,-1954589399,-447697340,1813003382,-605067088,-1693823886,431246309,-1724365241,593251065,-1757940906,-680709873,-78225825,1644003233,-1173360917,1204809443,1580456809,-981917908,-1264853260,-1790039381,2018168627,1658466411,1318527003,-1694222514,-650146091,20985252,1878501447,-1819192413,1600343739,-631388748,972786646,400464183,203292348,-1545093897,-228851383,1629142313,-1534747530,-1922109239,-421707398,1582588454,265308986,461584759,327972187,-820265456,1079786137,-1316054497,-450816786,-380608989,-54930944,-1595013162,-2072389132,845467460,1745568762,1648918180,527394712,425244794,-939699682,-1287361427,1711586734,1064585348,-773290088,-122264331,-1411174420,-344421094,-1360617438,1131866115,2046145989,968103707,-825163163,-1061562019,-1437693726,1717389496,687855171,1437334589,139724637,-155180380,-673464190,-1384292389,-1917669790,-1824672752,1478624700,482015629,-1576686166,-1944159637,1129154744,-1621593716,-2062120210,-971087250,548817789,1919179011,-1677957442,113568104,-171992061,1791864746,968849498,1955246281,-2054459470,-1717431584,-1710332870,-439661995,-1676157988,590334538,629249882,-1146954973,-820544648,-1424980500,-1751589329,844145858,16404310,-477332925,1638893505,944572231,-1866694399,-2005109234,-700099527,-46015138,-1937891789,-1332041672,-226422869,-1852369582,-342272296,-1355105259,-872467212,-1847080719,-1047135760,602884516,577670077,343688247,-938752157,-1144816169,-1297034144,1983634336,1496587580,2145903918,-228970951,1345888513,1533506695,-870689432,959744083,-1272078383,1555465266,928151553,1536881090,-713666637,-1477789751,602884707,1922328171,-839276832,785897611,1152460361,1395550264,961431872,-885388363,1445878157,-1566183384,-218316165,-352721960,1801891085,1683785702,-1608402748,-495340270,1292630419,1072862041,-224154292,2139311171,-1638402002,-915231486,-1296235070,-1100814514,-756799031,542648063,-19145047,960529553,-608073231,-1136129825,666372516,1779531854,-1227885416,-1408355652,420974295,1150430655,-748349558,-294559076,552594597,-1324645081,1166702456,1625133961,-57829999,-2034023273,1556530864,-1820238474,-75362600,-1511405595,-1226159053,1
outputCount=234
weightIndex=0,4914,9614
weights=##0
##double#9614
   1.2789105852,1.0156230995,1.2822180368,1.5814084906,1.5534585475,0.438078514,1.6934811915,0.91687142,0.5700569443,1.2682493849,1.7939874321,0.0306011628,1.3809445425,1.4717237326,0.4204604116,1.0231188298,0.5230817609,0.1990259325,1.5398894425,1.0968824116,-0.0371759994,1.290423112,1.2635646084,1.7197370948,1.7831172101,1.7130149922,1.5663150794,1.4210875558,0.9755337797,0.1368593288,1.7148164682,0.4160386427,1.2357623513,0.3711338607,0.9033329651,1.6558816727,1.2460936722,0.2878860756,0.566268087,0.5860529123,1.7272218861,-0.373155713,1.3326474501,0.4469337468,1.3284675824,0.090613313,0.2865997399,1.1741045137,1.5918208701,0.8556660304,0.598358656,0.4050277775,0.7208956095,0.4703777105,0.2474112801,0.883569443,0.3861867897,1.4572070652,1.8220268762,1.2737628277,1.8037420044,0.5892010941,0.9139827005,1.5859089169,1.3066708359,1.7691152008,1.0601951483,1.062252655,1.3193723081,0.5409424219,0.9290752851,1.3249893417,1.8312270006,0.0853478309,0.0265389376,0.9612820303,0.4601116247,1.6274154646,0.2075676482,1.5666975603,1.5533572263,0.9654161039,1.3885707837,-0.4020729294,0.3636188314,0.3863774999,1.4352640228,1.5526619588,0.4491013384,1.0900100275,1.1707659649,1.0772922636,1.4973879304,1.4822843376,1.7739791422,0.3366494178,1.0844641088,0.478583723,0.8197920825,0.0434179109,1.1700503674,1.0951724045,1.7340812388,0.234786802,1.2945324638,1.8298629007,1.5500044761,0.5899962972,0.7358191844,1.28996452,1.7051837844,1.6416315433,0.8794089071,0.7386389303,0.9637587402,0.8071897094,1.204951276,1.4892399868,0.4719205005,1.1793957923,0.0601628218,1.5663776054,1.2152273483,0.1111504225,0.7192616869,-0.7946344229,1.3196111972,0.8751456312,0.3772795864,1.2523679961,1.5686885617,1.6208415676,0.4995951204,0.7491176751,0.1542728112,1.484699869,1.4473783163,0.7435597294,1.6475090834,0.4990841357,1.2667971804,1.1135742057,0.8142657303,1.5436504701,1.4916482215,1.0360684288,0.3784370535,0.5873818102,0.1509693068,1.0986954952,1.7010417916,1.6764468924,1.6101082689,0.758228379,0.4012296338,0.8460002216,0.0327707059,1.0354396321,0.4294530133,0.2364806276,1.4426352056,0.8940755394,1.1710576468,0.3613925013,0.1059371875,0.7949183838,1.2109526193,1.2409369401,0.4626689215,1.412369244,1.7312866367,0.5241202973,0.749571893,1.6359241118,0.5036547937,1.6298141641,0.9976593067,0.1614380369,1.5954686634,1.5568673245,0.8836165478,0.1444805929,1.4471015455,1.3098375284,1.2835507624,1.5963994219,0.9733750997,1.3588264643,0.4440466918,1.195220507,0.138831708,0.7944979948,0.5593384471,0.5225025501,1.8190342549,1.667305692,0.4674877165,0.3498238346,1.1392159666,1.2896432542,0.0252913518,0.7693450946,1.6022335333,1.4743213155,1.1538185323,0.1444924696,1.7975364628,0.0799947992,0.3282350848,0.4727468981,0.0242225615,1.4363423151,0.8225888826,0.2974481311,0.2612645567,1.4605450085,0.7349098313,1.610186766,0.8965232133,1.6405457839,0.8369689064,0.2475176066,0.1525206093,0.1765297794,0.3474469354,0.191708905,1.0756455146,0.3000101038,1.3662796305,0.5155051958,1.5653495314,1.0821342047,1.2693135745,1.2976536305,1.5435834981,1.0864780617,1.7345899814,0.8352741247,1.1390578355,1.7066153493,0.4211194966,1.4012803995,1.4205686073,1.7193049934,1.4181812035,0.1724046799,1.377228729,1.1224794009,1.780357501,0.4474716465,0.078430315,1.583267247,1.7326113582,1.350386003,1.1306934888,0.9433947475,1.592637338,1.2973717862,1.5948501268,1.497664692,1.8310521068,0.8538344967,0.2273680171,1.2578152747,1.14790643,0.9764843894,1.5343375954,1.8226810072,1.8147459015,1.29022257,1.660065731,1.7648235484,-1.8308772775,0.1355700467,1.1079504301,0.6667287729,1.6925445311,1.2474704427,1.6232204315,1.5806489362,1.597448548,1.083526769,0.5889706518,0.3034840445,0.0050515315,1.8285905562,0.6803587482,0.6158989644,0.1207694181,1.1551886264,0.7966345923,1.7282953517,0.2508868907,0.0612915455,0.1055912183,1.4616057515,1.6750583829,0.7668263982,0.7670753284,0.9977320127,1.5119863808,0.6449048886,1.0768268985,0.9083653683,1.0059191522,1.3899778434,1.2741440593,0.2387097025,1.5276986917,1.517773586,0.2321169061,0.0371968421,1.7641515266,0.8725172438,-1.085943742,0.1163749558,0.6174297096,1.167798707,0.7085406201,1.3522430546,0.9562746951,1.6768811466,0.5340599552,0.5700906225,1.7551440038,1.1392020984,0.8674884967,0.1736318046,0.6595850891,1.201337039,0.6293115288,0.6751994996,1.766239322,0.3332615493,0.8015558556,-0.2317912057,1.2376872074,1.5782546316,0.7397542578,0.1499290792,1.2399175714,1.6257811717,1.1975275601,1.0682571675,1.3040489335,0.566949322,1.1007192285,1.5032117752,0.5414189807,0.1707752771,0.4679234031,0.2547615297,0.9412408097,1.3630735154,0.1946461438,0.7377912473,-1.7079792548,1.6816915638,1.3310190631,0.1892892429,1.4352960509,0.5539234366,1.3264262077,1.6460532007,0.9309935099,0.0660615644,1.4663977941,1.4131628332,0.5497091124,0.5726157409,0.0913270548,0.881452584,0.8128221679,1.196001329,0.7930561585,0.4924902982,0.8578441325,-0.3124831409,0.8120427038,1.1851449678,0.638436636,1.7726633,0.1294666758,1.0098129675,1.0300039713,0.7207011589,0.8851897229,0.1393202908,1.3774373988,0.5964189609,1.0394925678,1.2304948659,1.7516417339,0.0990427466,1.3645104317,0.7797998856,1.6515391916,0.5213895545,1.4567304794,0.3893955444,0.3668120937,0.7325489231,1.0459689816,0.9574879553,0.9574581139,0.0165084297,1.2054672028,0.9079345103,1.5151631792,1.6900002194,0.1439089198,0.3336054788,0.0425563086,0.6941828033,0.2684268136,1.3889884684,1.0118472481,1.5074820842,0.7123387032,-0.0445263705,0.3880568636,1.7938307484,0.7083126846,0.4900938763,1.2880467412,0.7047683434,1.0492479437,1.1144002643,1.2953342411,0.5395794645,1.8088421114,1.1574005067,0.9161540151,0.7542248192,0.2886447405,1.5258475934,0.3171345929,0.0722243325,0.1203490896,0.2118085501,-1.6198125148,0.3301560216,0.7002309559,1.4472509604,1.7544702182,1.4840789435,1.0104188267,0.1426739539,1.1685143992,1.8088298772,0.3154157809,0.5159037666,0.0492636109,1.7010738438,0.7925448688,0.8771088987,0.7463100406,0.6342152008,0.9815484314,0.4573470568,0.8338217339,-1.40976217,0.8363851641,1.5602690782,0.2452444478,1.6722371068,1.6285786218,1.7832396366,0.7921143169,0.3717198876,0.1357921231,0.8920877213,0.8462346199,1.7266772702,1.2472247419,0.8216610115,1.3701760865,1.6901603125,1.2994043762,1.6386999592,1.6178061408,0.2345783083,-0.8992106311,1.3303702205,1.1140800681,1.7963814948,0.3428692279,1.7775568971,1.2965622299,0.3851834849,1.2918843586,1.4453695185,0.0595249023,0.6090243907,0.9286682446,0.4648293872,0.1475823637,0.1347092251,1.3165232257,0.9511222932,0.2752469206,1.7541826589,1.0225605098,-0.6028450758,0.5972777949,0.566265345,0.131898392,1.07016121,1.7965250478,1.7183011577,1.5101057623,1.6199758714,0.4965363062,1.537742431,0.014726692,1.0980058,1.5931798884,1.1836582036,0.6751948546,1.2422784092,1.6272205771,1.1730035433,1.0126398908,1.1686503049,0.2745649645,0.4971697284,0.7674458013,1.3808169865,0.0820106423,0.882905941,1.6466622984,1.3129070951,0.3896662041,0.8433493691,1.6099705041,1.4488350592,1.4909601023,0.4508811562,0.1977017212,1.4604098584,0.4999295427,1.5196807612,0.7210398789,0.7372224812,1.5382301387,0.8540811998,0.8081731969,1.5086698614,0.1793159752,0.763017267,1.398051084,0.0772905671,1.5120466558,0.5656035694,1.2989372371,0.6886403758,1.816177247,1.2556501806,0.8087448784,1.8389000709,1.2275087238,0.7949093485,0.3591366881,0.5265504445,1.3173947658,1.1854120662,-1.175212093,1.8330909381,1.6621013025,0.3310281758,1.0913198222,0.1476859057,1.5467431131,0.4516812703,0.8121794708,1.454037944,0.4466130928,0.1965752004,1.6153184596,0.228206939,0.071371184,0.2456128857,1.0301310364,0.2552023525,1.5735669272,0.6210452553,0.0719675915,-0.8366344734,0.9031324982,1.1759141996,0.0002665383,1.6655014992,0.9513299907,1.4805960127,0.8627968814,0.6975041617,0.9671070593,1.0161290031,0.2964397412,0.0298390341,0.0089277031,0.2446843246,0.2843104397,0.4727343346,1.3269150822,0.2330442992,0.3536198907,0.7212852287,-0.1051818029,1.3515647461,1.6637803113,1.6803624733,0.447872047,0.6412588597,0.71542094,1.2832434353,0.117835266,1.3356640521,1.49865874,0.2944132016,0.1763679268,0.3796243879,1.1505805178,0.867619313,1.2604641577,1.1999411413,0.6059302427,1.2717540594,1.2307678824,-0.4991649345,0.106239903,1.4914852735,0.4224764698,0.9499786631,1.2369184625,0.2235872849,1.4676039464,0.8448629052,0.1347198831,0.0172621373,0.3774509162,0.1274990286,1.6249252554,0.599696859,1.3637576178,0.7959016326,0.2143238488,1.3227913767,0.7974677488,1.5119673966,-0.260791676,1.658030014,1.2056319897,1.4222906555,0.9197237592,0.8815295553,0.178811254,0.7810266071,1.5911522206,0.4008956949,0.5589811757,0.9446407972,1.6996408495,0.3159791796,1.403684098,0.2938478852,0.2701357095,1.5239548609,1.3849763588,0.7925816745,1.1538490122,1.2007415034,0.0282979022,0.607662982,0.446805011,0.6332159086,0.3261418819,1.790166702,1.8296153462,1.4361658614,1.7641420168,0.5815889062,0.1713798005,1.4512738463,1.2205378836,1.272488297,0.2763606924,0.2978506372,0.9732904125,0.0342843968,0.2478535848,1.4266537178,1.2462380488,0.10695898,0.8367090218,1.4000235773,0.221129699,0.7556495898,1.1469300251,0.1046965357,1.020686639,0.0091853938,1.4851243367,1.3683968702,0.0349443762,0.2372783182,0.4901866983,0.4048247673,1.3819383979,1.5811251119,0.9002120932,0.8274793489,1.1483209006,0.580331149,1.7143800898,0.147904323,0.6887394896,1.5204209248,0.3216380593,0.8526974306,1.3636008306,0.0463392868,1.3362012694,0.7182689419,0.7783442557,0.7389790455,0.9669154485,0.8702580215,1.2724243904,0.274996939,1.5245172449,1.5256033114,0.1667506352,1.1603581891,-1.070471419,1.161584099,0.811650452,1.2737637711,0.8161160768,1.629101464,1.3955946223,0.1067764091,0.262909618,0.7948887164,1.5772930445,0.5905258343,1.2591486514,0.1504760824,0.2837825007,1.5889242146,0.5266530368,1.238562336,1.3512507586,1.5757006449,1.250560109,-0.0260233177,1.5284228254,1.5780391256,0.2659390984,0.4917741193,1.3019840385,0.0000617758,1.2168392061,1.2988455464,0.0639881171,0.0496281736,0.0493451228,0.1624538321,0.0398919562,1.8031938375,0.2494477214,1.7433497093,0.9493253603,0.0944693616,0.9661093956,0.7199974041,0.5074227843,1.5206572248,0.6288565126,1.4915571306,1.023323253,0.3401269167,0.6318809622,1.1349011867,1.3377987461,0.7620498049,0.240585738,0.6344124736,0.2887231806,0.3479441053,1.070114448,0.2382328951,1.4209940281,1.1350589617,1.7624006552,0.9654948616,0.4231390082,-0.4794520956,0.4811945229,0.7199299266,0.9328167746,1.0535459868,0.8285129492,0.130540684,0.741986374,1.5335906171,0.8217437556,1.5839290535,1.3471881705,0.6593249658,1.3178688367,1.4895391847,0.1837173716,0.3173798454,1.0207990393,0.6962659646,0.3651506349,1.7845935302,1.0682203674,1.5242403706,1.4837258323,0.7320172882,1.5740513857,0.0728278309,1.5768540309,1.1938941893,1.049227482,0.1232411401,0.9646913266,0.3505976081,1.7295695278,1.3837321039,0.7907412067,0.8678391417,0.4171524564,1.0859426385,1.0400245902,1.4833951083,1.6750582178,1.440718973,0.3103628534,1.6789620129,0.8124525896,1.3221898486,0.33561972,0.4123846778,0.9137254067,1.496155399,0.0438802282,1.384764406,1.1944703408,1.4212733771,1.3241229885,1.6631217855,0.4092629222,1.7482606083,1.2021145532,1.1742372029,0.1635772205,0.8360787513,-1.244485514,0.9169690214,0.5880005762,1.7573533787,0.8683450508,0.0724556152,0.4034350597,1.7388150851,1.832803831,1.0631914607,1.8295706548,1.4068456802,0.8567205579,1.0546281479,0.5889036314,1.0723976187,1.1475656051,0.0078617196,0.26793747,0.3995473455,1.3945526064,-1.2036882334,0.5709930321,1.5411574555,1.0388989388,0.6089207451,0.5523063112,0.8367514879,0.4890681485,1.6292044053,0.5354982292,0.9026149196,0.9139562361,0.8316227795,1.1018171869,0.3167766145,1.4624997299,1.0395298441,0.5034289321,0.2634061701,1.1747677333,0.7933429856,0.3001710773,0.6245769808,1.2624702263,1.7830635417,1.0014890036,0.5046390557,0.3079646953,0.833993849,1.5362698335,0.1414300543,1.7471624737,1.7186827863,0.8766082824,1.0044341977,0.3207181413,0.1876172934,1.5144496305,1.0563717995,0.8516682133,0.9847957101,0.8625177472,1.0440833112,1.0261611042,1.4285505046,0.8740844991,1.6907288227,1.7709568656,1.4711825957,0.5337668706,0.2690525058,0.444963424,0.8172556457,1.607072082,1.5402244937,1.4584722179,1.4283592694,0.4312236945,0.6178003533,1.7478841495,0.9368319808,0.2599485844,1.4424274167,-0.3152182956,1.1172532342,1.3833318029,1.1544982609,0.4010308785,1.663105708,0.2853879115,0.2461589567,1.3468346875,1.138960965,0.2006389126,0.0167925926,0.5397833491,0.3713015836,0.0321867048,1.5087381988,0.2678365198,1.6840819021,1.8322426148,1.7212288761,0.5029681824,-1.6554122716,1.7756058356,1.4112056235,1.2274843359,1.0897423241,0.2519457328,1.5265920123,0.3883876104,1.3380123357,1.2960272317,0.0000820313,0.8862040288,0.8632436611,0.5385687213,1.111123283,1.3345193158,0.3957510954,0.7101803679,0.2953261845,0.2572959724,1.6892110556,0.6674095891,0.5761244682,0.4968531193,0.4436480655,0.7846769579,1.3116336707,0.5566176957,0.1721291954,0.0341246088,0.8167592111,1.0280577608,0.9358602587,1.7271525501,0.4301427159,0.2715156971,1.6761728977,1.7467011779,0.7298986923,1.0361247776,1.4063406852,1.1661631063,-1.7581189048,0.8822239621,1.1819824864,0.1149638845,0.5316160852,0.7088101181,0.0547605251,1.7668341901,0.0864223391,1.6489700098,0.1260167266,1.1843796078,0.5589552947,0.83143747,1.7385096908,1.3274424116,0.1618070606,1.6539216369,0.987206436,1.135359708,0.3939883904,0.586584117,0.5121159038,0.5327006666,0.0540037227,0.4252827024,0.3996790461,1.8017552389,0.3932559384,0.2108901441,0.2793948115,0.9057820138,0.3384895865,0.5833969247,0.3524894909,1.2248143983,1.6182747108,0.9477167352,1.0789451001,0.5303443908,0.9251447132,0.3027493345,-0.74358925,1.0955658624,0.9404055876,0.6683873679,1.1808078846,0.7035573919,0.3734295038,0.9282817272,0.6395840546,0.337775412,0.6709531128,0.763608557,1.3192111815,1.7593078475,0.0969348184,1.216111328,1.5412809286,1.7488913904,1.303477155,0.2195817121,0.9293876841,-1.47824253,0.5481915648,0.4479485576,0.6529363668,1.0859885609,0.2394851576,1.0747104643,0.8755628914,1.6967617809,0.9641352699,1.7806906159,0.9158595958,0.8316611226,0.1490869385,1.809844746,1.3731214126,0.9174174429,0.6284340718,1.5385978296,1.8315979014,1.1413803241,0.3690359419,0.4917036363,1.3390274726,0.5300283753,0.8280986955,0.3189782413,1.3103442164,1.1623998089,1.5941099771,0.4991878259,0.6416345541,0.8777258279,0.5578381757,0.6279351016,1.7450522716,0.3258351521,0.7410803608,1.7223988333,1.6230730485,0.9942485213,0.8913314002,0.2040055458,0.4616233569,0.7109593534,0.1894990462,1.5511912559,0.3982473864,0.5969432796,0.574422527,1.4599012775,1.4065106667,0.2482702988,0.8021671983,0.8549737455,1.4532960325,0.4505342013,0.1094921362,0.1210035797,0.9461408869,0.9723867868,0.1668238424,1.7978493846,-0.2035148533,0.3111813907,1.1784831536,1.6875951093,0.358898259,1.5093109747,0.8448984921,1.7739775461,0.8436426705,1.4871518515,1.081559379,0.9542271247,1.6412189509,1.2258335929,0.7325619656,0.0831094336,0.257565553,1.336213216,1.1514568929,1.4687907581,0.4894600435,-1.3154556329,1.7528039813,0.8324758481,1.1579115582,0.0249178256,0.0154003265,1.4836681631,0.5457755922,0.4244858905,1.7652473273,1.6801794808,1.0136487875,0.3405656355,0.7739651074,1.1581322114,0.1015830369,1.2848269144,1.0955793208,0.2864798305,0.2903727202,0.6610418017,-0.3610334723,0.2064029351,0.1908936388,1.0371604228,0.7888546832,0.2712613114,0.8418334287,1.8101420137,0.6979549261,0.3192020616,0.7576927416,0.4717708661,0.8019457081,1.5756135927,1.7153485418,0.8537593085,1.3189617914,1.069455015,0.5113465667,0.0772662065,1.348328507,-0.6555932342,0.963898733,0.4091219274,0.0377237969,0.6828395876,0.9446024279,1.8242702727,0.1188387855,0.5690449241,1.0811850737,1.6737765709,0.4639646562,1.1254305505,1.0973691324,0.8767895896,0.2408391888,0.0538915228,1.5855943415,0.8843643042,1.4323267,1.3580428691,0.8544803825,0.3575298893,0.9639148786,0.2049319292,0.2248752929,0.3342943843,0.8193127918,1.4059823612,1.6837574882,0.1560532226,0.5088122394,1.6993689447,0.0159251775,1.8055411516,0.161571719,0.991490731,0.0717341034,0.2763219665,0.6110170719,0.1793306058,1.3917832197,-0.0171952508,0.4048982119,0.4317196543,0.8153463599,0.9191120318,0.0906684919,1.6474830461,0.822843131,1.3077384811,1.2409632104,1.1281660686,1.0735826805,1.7855747504,0.8595675697,1.4867498753,1.4602470434,0.9916169976,0.7538033421,0.0833608332,0.2179352768,1.7093201787,-0.2772924297,0.3677848968,0.5915794842,0.8492599482,0.9133836046,0.0261377565,0.8170510922,0.6686956065,1.1454057757,1.8351565172,0.0081797767,1.7285332037,1.7429473689,1.1951085008,0.4406842189,0.8176201976,1.4543770032,0.2856808031,0.2032601901,1.3816501951,1.8214752206,-0.698824986,0.145090125,0.5039759363,1.012132393,1.0492896921,1.1864576827,0.4615780379,0.7021705532,0.2637977661,0.1796649455,1.7358388223,0.8386463535,0.17375228,1.0989103343,1.6031489181,0.5795126387,1.5452042129,0.3639627232,0.8536051546,0.4069506158,1.4777038887,0.8131383499,0.8213358899,1.1648275815,1.0477873693,1.2262474901,0.6158931846,0.7117952148,0.6456513526,1.0860884098,0.6104532866,1.3996642307,1.7963123421,0.9685305836,1.0310745692,0.5615395821,1.6825616156,1.5873262074,0.1821329329,0.2638939351,0.9013011504,0.8553244254,1.0883827637,0.1815045565,1.2706656061,1.2164079441,0.6182160207,0.4791459818,0.1238913139,0.7527823247,0.6218304603,0.133835988,0.4595000477,1.4811196678,1.8268513721,1.1110779328,1.3771222031,0.5628824824,0.2820549998,1.5047807374,0.5195726814,0.2365489445,1.3618966541,-0.5997041945,0.5262647412,0.9430851626,0.9694727268,1.6330760573,0.3929047047,1.4227828778,0.5737951073,0.1219387981,1.4969643614,0.9412304109,1.1141325487,0.4386145675,0.4351138166,0.4743178336,1.612083753,1.204288275,0.9005470991,0.9741751129,1.0648060365,0.3431971184,-1.7074614851,1.6432980177,1.5549850351,1.0900365677,0.4517174445,0.5664353041,0.202701764,1.033281026,0.5898199183,1.6953812858,0.435422622,0.2806965438,1.5592341719,1.488698242,0.3958612206,1.8260105567,1.5474476697,1.2985725138,0.9406325146,0.2657946949,1.3358362102,-0.2405831415,1.5263947453,1.4077063571,0.750610742,1.0633709143,0.6609577743,1.7292283175,0.4303712129,1.5008376741,0.9524807946,1.151831872,1.6057356764,1.2001660827,1.435225028,0.6089342597,0.9907105286,1.4766142913,0.4562244029,0.8246221735,0.727887014,0.1392097665,-1.6325193496,0.9210316938,1.5842586927,0.0973052603,0.3061682197,1.0812715406,1.0033749206,1.2045069141,1.066297228,1.6364675464,0.1868053952,1.1292059157,1.0701396614,1.0244520693,1.5149402215,0.336891106,0.5577582574,0.1755965887,0.6434487301,0.5762218563,0.8335610187,1.0672050911,1.2177524224,1.0397283409,0.7737186727,0.2246724599,0.4986527071,1.8131176651,0.6041089311,1.6368756742,1.8189111042,1.5796547354,1.788187871,1.1816908403,1.3445830449,1.4700165568,0.2935598653,1.7178086892,0.7980598439,0.7514753947,0.0985330744,1.4775585865,1.2320687247,1.524717977,1.5668542892,0.862019055,1.6497735373,0.0568930813,0.0908805648,0.2017364411,0.4652377244,1.0801071158,1.1327540832,1.2609637157,0.0350831936,0.3819281631,1.1442680432,0.7825586674,0.8225510789,1.8241283673,1.1938597221,1.1761980771,0.1801376097,-0.6260055867,1.0750922948,1.1537869277,0.6812819033,0.2340638274,0.2338768346,0.5918031581,0.6109265592,0.126902452,1.620720988,0.003333158,1.4849813809,0.0845938425,0.9762327401,1.4130918887,0.9379380504,0.6971021274,1.1165734632,1.1104391416,0.5499450507,0.8288571442,-0.7503415883,1.7698257243,0.9301004349,1.0041789806,0.6145967648,0.2291874221,0.8815160029,0.4684986104,0.4418478314,1.2011992508,1.7532740077,0.911962933,1.1501015848,0.1662481869,0.1585801293,0.6573400451,1.7507925318,0.0233531571,0.2981872645,0.9065303439,0.2802513294,0.2625420676,0.2351712776,1.5275991948,0.7167372646,0.1366547044,0.1187691185,0.2642576031,0.7551339802,0.4721742963,1.1403598529,0.1061332983,0.7653236751,0.7630031115,1.0647085751,0.9759151441,1.0212481677,1.2732039009,1.0607832413,0.7012611884,0.7522182466,1.7744404685,0.1368744872,0.9221197656,0.5657572189,1.6526670978,0.4200365841,1.0279641473,0.1558827977,1.8028785281,0.062154291,1.7644018507,0.170599291,1.3116541941,0.8056218878,0.1382269722,0.8145502045,0.5188878071,0.2842526062,1.3379760763,1.1515227012,0.4071799558,1.1178439181,-0.9947953542,1.7841912956,1.3637294325,1.1838761948,0.0260779359,0.9736588445,0.5029790934,0.6285570368,1.1703686213,0.2194105529,0.8547216583,1.2597547026,0.4108029482,1.8076645453,0.9938929018,0.1251135916,1.2697666496,0.1717882453,1.0859316077,0.3371680429,1.6112214535,1.080555267,1.4272980559,0.7309818799,1.6898595302,0.6230998269,0.3924109733,1.2660354888,1.090414939,1.3399334877,0.7553051319,1.2919365569,0.365286184,0.0640022443,0.8566830483,0.5156316766,0.2750674803,1.7980306751,0.9786420048,0.3169076542,0.9382868037,1.0992487505,0.1285953969,0.022137874,0.9100615863,1.8036876923,0.8898710371,0.6429316732,1.067836431,1.2188329158,0.346853663,1.7943727786,1.7630409973,0.6060105709,1.3336268832,0.0042056281,0.4565461871,0.002666545,0.135095312,1.803369356,0.2269119885,0.9848104925,0.1302922611,0.8666588009,0.9995739827,1.4461849724,0.5134678384,1.115000014,1.1668079273,1.0380753492,0.1178456342,1.1874967449,1.8142257638,0.2727620163,0.5585808375,0.0718642867,0.9268966746,0.2195104831,0.1848486455,1.835438271,0.0543639385,0.3948950122,0.6614302141,1.2617901678,-0.5351965946,1.1862769512,1.2586026505,1.4680552512,1.2738880129,1.3773906739,1.4839820163,0.6057432099,1.8380692884,1.4795780382,0.5568596902,0.1531966171,0.1351988606,0.0203620263,0.7329622996,1.572773047,1.0410451285,0.512833807,1.428955248,0.9928596794,0.441000322,-1.6611919968,0.2171631814,0.4599547533,1.3324910917,0.1161267578,1.1875445988,1.6621524886,1.565796555,1.0805838722,1.2685082913,0.9788521555,1.4138365729,1.0452053941,0.4883796892,0.3249581979,0.7214152425,1.413159931,1.006541669,0.7176878235,1.6340814277,1.6136492756,-0.6014404562,1.6597906498,1.3449267839,0.60184258,0.0881003597,0.1198561318,0.970947217,1.1896611611,0.4546959442,0.1241432821,1.6211945176,1.5746145253,1.0770204984,0.847562927,1.3571864595,1.3046341666,0.8598485115,0.3370384829,1.366427176,0.7285640423,0.5464498761,1.1785360264,1.7461900833,0.5285940902,0.8927815764,1.3046523713,1.4196971906,0.1621855802,0.5888986781,0.7604179424,0.768660078,0.029195801,0.4686276709,1.4763195672,1.6295704532,0.7061369829,1.3942241494,0.5614636835,0.0976488417,1.6445530252,1.7717929951,1.6596303181,-0.4522200711,1.3061945183,0.0027453298,1.002464894,0.0624421062,0.7696690876,1.3972783938,0.1941896981,0.3619059683,1.4348213281,0.1709085716,1.6345538354,0.6912268688,0.2903192481,0.1221639526,1.4170472453,0.2321796817,0.0134099198,0.7473093865,0.3911389657,1.4154045833,-1.3861784683,1.409117647,0.0868864741,0.5569653341,0.748633474,1.1038638604,0.6121470621,1.664046368,1.6130113886,1.1951811492,1.5037047962,0.4666134678,1.4674879212,1.5404943695,0.6235462482,1.0835287925,0.6929498448,1.7049770964,0.8494814306,1.4330320874,1.5254319898,-1.1710280769,0.9239038851,0.93547864,1.5532192959,0.9115849866,1.0244840021,1.1649732598,1.6091420787,1.5745867905,0.840804891,0.9275246567,1.5387371945,0.3324569747,0.6837425165,0.3920490809,0.8996836656,0.8422497639,1.7389291293,1.0607688399,1.0340528335,1.6708243061,-1.0289482868,0.6549686785,1.0529547203,1.760161206,0.9866409783,1.0643418286,1.2468710783,0.6103103411,0.656626547,1.3358561706,1.7932152445,1.1174665552,0.2096096632,1.8207301173,0.2823662376,0.8901119212,1.3140066103,1.3200771004,1.6627653005,0.6982593938,1.7577717487,0.2165622197,1.2159812503,1.1330409984,0.9499517067,1.4177597391,0.8454102553,1.6686930278,0.4234453171,1.365446913,0.3098067451,0.8036745524,1.3096140263,0.6844187161,0.4197338687,1.708265569,0.6039426834,1.4978096666,0.61999711,1.5084935045,1.0386627245,0.7645596142,-1.2214659315,1.3357909929,1.2406437323,1.5455133877,0.1709399616,1.2492716708,0.3428239374,1.4179218655,1.7629329495,1.4165495244,0.121729839,0.0164468343,0.6497517704,0.9901026603,1.3401157549,1.7246310692,0.8548643415,1.7167260847,1.0889455709,0.1452980994,1.1357768632,-1.3263254588,1.4622424752,1.037163901,0.5224899466,0.8431665817,0.3289444072,0.1783533121,1.535313671,1.0350898213,0.9466175094,0.6200377402,0.4732636115,1.2873778068,1.414019639,0.6271577669,1.1779517787,0.2487408687,0.0897083087,1.321878215,0.1082790395,0.5853289533,-1.4227630143,0.5211977874,0.9808772669,1.015935285,1.6248121968,1.7327501742,1.4952936791,0.8203754951,1.1460938642,1.7767120603,0.4265554069,1.6574654009,0.3808900459,0.3795300881,1.3601241358,1.376936174,1.8177176057,1.7879816072,1.616219461,1.7699047499,0.6947821925,0.8181643414,0.7338146005,1.1352498259,0.3133534377,0.4848725893,1.0046660884,1.341371201,1.3551386718,1.1402579012,0.7750193134,0.8412148751,1.5395335784,1.7906170251,1.0685576434,1.2212721269,1.3703961537,0.0821936402,0.9761827151,1.336092655,1.8365249237,1.3901413478,1.0826935098,0.1208064683,1.4980618849,1.2587081115,0.9511092994,0.6804323746,1.2487814233,1.6071906467,0.1011602936,1.098422775,1.6642535664,1.8353448415,0.3827912042,0.9151154479,0.1329608184,1.5073948794,1.7462820728,0.8202216558,0.1040822258,0.2658848588,0.9796592943,-0.722235397,0.734925404,0.4956314099,1.0256724651,0.381357053,1.4355356583,1.1162077696,1.4754239234,0.0507295023,0.1597266693,0.3402912634,0.1539846011,1.532206647,0.8458404933,0.6278497673,1.0375898949,0.0022718921,1.0092864148,0.4910057316,0.4515887342,0.2756391635,-1.1140052873,0.7959606202,0.3391367374,0.1331443269,0.5900385653,0.263316934,1.4198780842,1.6910102284,0.480292555,1.6299710482,1.3235827427,0.2124723336,0.1574488098,0.015302848,0.4068676228,1.7805444672,0.4234565376,0.2766443322,1.4574507212,0.5809380232,1.3311356189,1.4288021873,0.5345009221,1.5184271602,0.4626996836,0.4468491035,0.1501135302,0.4984853229,1.5274232264,1.7746745963,0.2419163264,0.3000212248,0.7821580331,0.4277303394,1.8376004818,0.5880430451,0.0109043202,0.8105178743,0.1818229283,1.6692648681,0.3066250094,0.4370855797,-1.7276521707,1.4893170562,0.2040046168,0.1769829312,0.8872191884,1.5077912978,0.2922215657,0.6704891877,1.3224859768,0.8813019753,0.2410175584,0.5130719827,1.3937971806,1.6336632275,1.0506264947,1.5730165694,1.2361819103,1.7446671158,0.4659740989,0.0818885275,0.9417155651,0.7757483026,1.5665408332,1.4126684048,0.2766736606,0.7396054678,0.7387504854,0.6115286548,1.4856718261,1.3027571163,1.0305380396,0.2863797039,1.7261073451,0.0812457113,0.8578932447,1.171777481,0.2111069935,0.5940906879,1.1044850277,1.2788352257,1.4878408,1.3473242815,0.7486732095,0.4597099026,0.193615293,0.0967476526,1.7755535073,1.0514125458,1.218248396,0.1593171607,1.7495728364,0.0224347367,0.457976632,1.6065240381
   0.2150652524,0.8874029452,0.3858930206,0.1145704214,1.1049149445,0.7404244797,1.0840929133,0.3485626584,1.5192449015,-1.6351699305,1.4519355744,1.1615389428,1.1376850194,0.1274082994,0.9315210225,1.7874720776,1.523081842,0.5922602612,1.2224787259,1.3839559786,0.9919336628,0.8094093224,0.3575953267,0.4132337801,1.7009931222,1.7681712991,1.817534437,0.5855772471,1.5170845163,1.4436126101,-0.1344706673,1.5072712097,1.2229516633,1.311515405,1.2281297878,0.4921586418,1.5450232091,1.1430937955,0.6546097634,0.9538676313,0.2936952595,1.6773360224,0.5220231675,1.5500232533,0.6212094389,0.7865438516,1.635196446,1.3203304348,1.4814814121,0.3960102021,1.4712925181,-0.0427854894,0.7726882928,1.6739600845,0.7696870279,0.5311196847,0.2876338432,1.3607800479,0.4739586628,0.3708905654,0.3077507313,1.672557625,0.623920831,0.4947460182,0.1412386272,0.907873594,0.5256866531,1.4169617995,1.748772715,0.3574709102,0.3268953573,0.2700715944,0.086813595,1.4957360364,0.6281786144,0.6037051784,0.4801838631,0.9993646815,0.9470740217,1.1365494394,0.8384820497,0.0589299553,0.9843494861,0.7964553322,0.5117157083,1.7634958081,0.8009752514,0.9386333454,0.792686803,1.4364867352,1.2537988823,0.4226071308,0.6967050973,1.5128398058,1.0452765512,1.7006119598,0.1664836833,1.0666718302,1.5130883297,0.4353113206,0.5502466764,0.4211377863,1.6844198554,0.3810288055,1.1818063976,0.1647316207,0.591744786,0.9589980068,0.1410705897,1.6800560083,0.8049378843,1.158943127,1.0844378369,1.6610254129,0.5095792848,1.4664870695,1.64268581,0.1516136208,1.0282289449,1.6327130386,1.3805832903,0.7279867624,0.7650112189,0.160762355,0.6709251332,1.33263646,1.1140957737,0.7540863273,0.0053823085,1.6540341998,0.2742629997,1.0820785634,1.6607993996,1.5927893983,1.7985502842,0.0078622536,0.6431536981,0.0353046423,0.6776757683,0.6918789501,1.5092013003,0.317012354,1.6417556406,0.8015573022,1.7589788589,1.6679085704,0.6475349015,0.2245051591,0.463198732,0.2002971292,1.6730213113,0.8192576483,0.0845585168,0.6111042521,1.1205461596,1.5770496967,0.8654753022,0.1309611247,1.3509298119,1.637259209,0.0269228594,0.4007540024,1.3295996914,0.0285460015,1.1312810171,0.5656435191,1.411316865,0.9977750341,1.3442528282,0.2032878259,0.2227328772,1.4078151605,1.012944459,0.1012339132,0.617427763,0.3341343972,1.2213276918,-0.523275823,0.054661158,1.6282944883,1.1344393947,0.7338128417,0.3258600617,0.2960774021,0.8764986527,0.9321796667,1.758384347,0.4953316182,1.8371801843,0.1610444222,0.9599047811,0.2361005082,0.8642201651,1.5616104961,1.3000665685,1.0840266059,1.2303266294,0.1827852578,0.7297968802,0.2703087408,0.1373554959,1.2880710215,0.3498001928,1.7460163037,0.6532114831,1.2808322487,0.395611513,1.207830045,1.5696948756,0.2018287283,0.8921174897,1.4371225216,1.3505005029,0.5372008525,1.0353833258,0.7486457033,1.6162707075,1.5101205955,0.9786692251,-1.5374624828,0.0662211431,1.2680377133,1.6559591763,1.7928090215,0.1941795079,0.2716885045,0.7320097949,0.0805630909,1.2849357968,1.0583171107,1.0742417396,1.7115223632,1.6968212917,0.9921786067,1.3654860371,1.6766541821,0.981635473,1.7566665734,1.0161846902,0.2147805098,0.1217998172,0.3928049662,1.4302423094,1.028946335,0.7528970357,1.1327805381,0.5518114049,0.0304990981,1.8366150196,0.5803569194,1.5021016262,1.0372058966,0.5897917708,0.8036442293,1.0627336478,0.4574992235,0.6276475549,1.3255917099,1.7542668577,1.2496579888,0.070208685,-1.1305213154,0.6021935286,0.5560690942,0.4518803383,0.8842982204,1.260412036,1.5883503551,0.4122316436,1.4045650201,0.5070239225,1.1736743878,0.0692192741,0.3108436549,0.2905597498,0.4889886109,1.510987427,0.7264339654,1.138127251,1.4852238489,1.2857223527,0.6395351206,-1.7075419922,0.4028404836,0.6894782733,0.7397260216,1.5061586289,1.0934443536,0.2137461546,0.5964368919,1.1146282492,1.6791109153,0.1797783237,0.6840686279,0.7161211796,0.7507907351,1.381507987,1.2265220541,0.3278830055,1.7416401768,1.4694411517,1.5989664736,1.1418917027,0.2330165885,1.253038071,0.3850678724,0.9492371128,0.3996804166,0.5764548967,0.1955353797,0.0488899885,0.7315692089,1.3173150296,0.3928323633,1.1164310776,0.6475554235,1.0478831354,1.4980050271,1.1709682955,0.7234913748,1.412381661,1.1966061542,1.7757128227,1.4382884605,0.71042241,0.0430734741,1.4927546362,1.0587768853,1.6690158938,0.6357024196,1.7495707559,0.6453727605,0.9775360902,0.7756759279,1.1412970163,0.563050344,0.3258448056,1.2744043319,0.1882607691,0.787704114,1.3398858984,0.8861500613,0.255071072,1.2418769584,1.3728771417,1.2999714458,0.5178452499,1.0781648567,0.8106354027,0.5589863807,0.6771337807,0.4072198345,0.1563621529,1.5582704721,1.4540859108,1.0802873068,0.4364922154,0.2923933215,1.7543852825,0.3244606022,1.2076455573,1.5917460539,0.8004481092,1.1323445927,0.9349247138,1.3888854725,-0.7336982677,0.4108114206,0.8219940566,0.5659164474,0.8345647467,0.8010209425,0.4878299612,0.2671090778,1.314828103,0.8469190083,0.8950223651,1.5649333784,1.4577535928,1.4687103714,0.4255389652,1.473660285,0.7164619271,0.0137945615,0.5114889726,0.4628389395,0.8607022251,-0.6552522521,0.6048096231,1.1210948741,1.8389887549,0.2092614799,1.8255155504,1.4253143012,0.4903547244,0.0929290866,0.8774846747,1.2066667624,0.5773329816,1.7795781982,1.0258354955,1.6095421721,0.9477833839,1.6018786915,0.7286614241,1.2214318648,0.8873664872,1.8191468138,-1.7251815145,0.7263723939,1.1331573016,0.8464346039,0.4264957939,1.6481409787,1.4665878729,0.7137986197,0.1463198628,0.0708881442,0.8369658868,1.7510230447,0.263715408,0.3509112387,0.5734336218,0.8786333687,1.3727844735,0.5380741693,1.1580615911,0.1022503311,1.218439935,0.2058830385,0.1680960407,0.7261731574,0.9648495089,0.9211251874,0.4956832311,0.8592478785,0.6328551554,1.1792981982,0.9339975786,0.5295926755,0.2271833646,1.5072152312,1.5340453426,0.2950462097,0.9505055795,0.7196213408,0.193785796,0.6712072347,1.2616580245,0.7755842004,1.6696983638,0.6791935416,0.3981688418,0.6746854294,0.6755237278,0.0108471671,1.7574832493,0.832356878,0.4636028147,0.7056793766,1.6376621205,1.0202838897,0.6776625746,1.3831279375,0.4895720438,0.493854292,1.4219576048,0.7781977849,1.2334697579,1.4048797463,1.5028394686,-1.1121458673,0.8919760532,0.846759244,0.5572336336,0.8153174,1.1073221134,1.3515449384,0.3687599686,1.2761730903,1.1530749314,0.9728971949,1.0587471495,1.6716154656,1.2650240283,0.340607403,1.3876982024,0.2212685416,1.4261861279,1.3482454152,1.0395299029,1.774807573,-1.2035839702,0.5555256121,1.595445641,1.1337304949,1.6143473662,0.2500032089,1.6540446095,0.6965779885,0.1104842751,0.8686129251,0.9186045005,0.6920275936,0.3078007426,1.257206918,1.5326575962,1.7149658323,1.527924982,0.307421929,0.3910891714,1.162215891,0.8509148331,-1.5761355956,1.4634670086,0.7092445958,0.4830499555,0.2546043917,0.024568661,1.6606166374,0.2001209854,0.7575651851,1.545852636,1.5738480126,1.3885106259,0.192644511,0.4646093963,0.1840069789,0.3859375243,0.8169840859,1.0801918889,1.1853083478,0.1178768303,0.4859421706,-1.7249968258,1.1662995555,0.7305363564,0.8240384661,0.7804466936,0.061534872,1.3557195771,0.7521540184,0.3034285873,1.8117641129,1.5860448174,1.407213127,1.1336233306,1.5533825481,0.2173415817,1.4437629035,1.5367733304,0.909511412,0.6917835983,0.5704154551,1.5997659258,0.2401335383,1.216119056,0.5435356843,0.4161139792,1.0394615688,0.9338707418,0.2358715432,0.4562321845,0.2268824841,1.6341687582,0.6776303591,1.382392791,1.2137608356,0.9967509546,1.1796269801,0.8334687703,0.5901241887,0.508797721,1.6676657273,1.5860598911,0.9830513144,-1.0790253228,0.0607442008,0.6723255441,1.3861956915,1.3109711337,0.7424772676,0.529861856,0.4695780756,0.1455348333,0.6941694231,0.6551720551,1.3303732518,0.0183836727,1.1579948966,0.6490025284,0.6695707682,0.1658042826,0.7491351471,0.1421384232,0.5598172992,0.331383364,1.4994869207,0.4741834309,0.4433625465,1.2500288976,1.505591572,1.6523335342,0.7109060729,1.6073796561,1.0148132564,1.530500825,0.7085836348,0.2868022127,0.6086967155,1.213422419,1.4363276061,1.2731369185,0.4863458938,1.1835586855,1.1541806963,0.1432372346,1.1225653567,1.1364651656,0.6949150663,0.9149101927,1.6811934969,1.2241575447,0.3931088676,1.0776208719,0.3097279137,1.4292542238,0.0158336936,0.0746900941,0.4407507166,0.5434484323,1.7717279154,1.4201166428,0.3519750908,1.1145860821,1.6580436964,0.5914604654,0.1011665734,1.3340795748,-0.0230614833,0.8734170075,1.2076578156,0.9817855721,1.56175755,0.7600273919,0.1675713353,0.553088662,1.8236176833,0.7702568058,0.7921610297,0.9906613662,0.3666604912,1.197866876,0.5251607261,0.6980831662,0.8303200413,0.7158915163,1.8124451579,1.3116942421,0.9648518793,-0.1592583534,0.7574742529,1.1072851174,0.1988370049,0.2512091744,1.1658764936,0.9183469394,0.9653643505,1.2249619122,1.499460199,0.8848979401,1.3239205887,1.0657116436,1.2316261424,0.3432666841,0.6680001164,1.6576135951,0.0932351331,0.7207153743,0.8845823425,0.6748786211,-0.5618299977,1.3739456985,1.3221091176,1.0614013154,0.7462304018,0.4855275793,0.4907984782,1.5436090651,0.5964331094,0.2206074951,1.3842861731,0.6137417928,0.0226836161,0.0051391837,0.3542800791,0.3107232121,0.5043376927,0.8470766332,1.3509691062,1.1932689909,1.7710188541,-0.5457935682,0.1167928518,0.956322156,1.2412626936,1.473973557,1.0371927458,1.5082075424,1.0321985632,0.7539836689,0.6568880941,0.1755258703,0.275670353,0.6715342263,0.0713421057,0.8604402678,1.5804787004,0.5054401076,0.867142804,0.6712292429,1.7349355138,1.7401400876,-0.5184009305,1.3833467401,1.4713569233,1.0635829,0.6900049496,0.2245433871,1.8371154786,1.3604185409,0.7167175997,1.1973694663,1.6827128611,1.3301165908,1.0051502168,0.4849260707,0.7483865025,1.0473378954,1.5883064898,0.0055037042,0.1609246128,0.5607899148,0.684632118,-1.3005493667,1.7293584711,1.4804952028,1.5820977509,1.3355692183,1.0413811559,0.2086685645,1.1648210938,1.5529624902,1.6830073375,0.281395022,0.9039409588,0.4783630674,1.3358098231,1.836135092,1.6009355293,0.6821868407,1.0976010345,1.1176499492,0.1862873055,1.7289080145,-0.1596408697,0.8650412455,0.8511582444,0.4757736407,0.1100953192,0.0732339955,0.3767819716,1.5374069112,0.7655340069,0.3071569292,1.4855153047,0.6892876119,0.4977923613,1.8279005507,1.2966874187,0.145435618,0.6938054106,1.6177248932,1.2974252982,0.7897944147,0.3130810455,-1.2610713832,0.147044378,1.7777830607,0.4078704365,0.3285808432,0.9627649106,0.3682679262,1.5346955871,1.5349015728,0.69294139,0.0069779954,0.1773647683,0.1622517495,1.7244380786,0.9467933316,0.5124245216,1.4178632928,0.1583657245,1.1528335489,1.6756343635,0.8663816846,-0.7826246968,1.3308784566,1.1639899736,1.0178315625,1.6278041345,1.3130100691,1.8135782165,1.410542385,0.7816138196,0.7825509678,0.0784357353,0.329415461,0.8588172535,0.6610184463,0.4894709513,0.0305693325,0.926263329,0.8921184599,0.695641148,1.7479989805,1.8043105703,0.4996860889,0.7342161797,0.1535983583,0.4206054482,1.4496252864,0.5722032953,1.5043971289,0.7145302924,0.0729033017,0.548931516,1.8162101551,0.831575261,0.1952850556,1.3360735564,0.0255199799,1.1300152971,0.0377592545,0.5545308419,0.9509749857,1.2923020683,0.6124752439,-0.5176885713,0.9862206174,1.806121317,1.0154004466,1.5378506703,1.3773270563,0.3693128283,0.3267083798,1.7405061476,0.0116263549,1.3232173925,1.4771159254,1.2544671267,0.8104076195,1.3790864152,0.2174450881,0.6018914943,1.7150416154,0.8169473019,1.194389673,0.2505153534,0.5120126815,0.0994777972,1.080019975,1.7397427295,0.8779491087,0.2631656778,0.7943297825,1.2592266819,0.4071873034,1.0834390015,1.2011048874,1.5698149796,0.596415115,0.3619460258,0.0683322465,1.1317473989,1.7946703609,1.0713890782,0.4556460119,1.1034054874,0.2886867106,0.6258037874,1.0778702173,0.9883421502,0.7341380105,0.3868257443,0.7106395133,1.6427845164,0.2247760273,0.4622588984,0.9087912863,0.8854210324,0.2269748711,0.1240304475,0.8381126623,0.2304371084,1.6139708164,1.5711756351,1.6588241008,0.8386690816,0.5284392301,1.7203943944,0.0593284072,1.4193351712,1.0482487052,1.3184041719,0.4306544184,0.3406062193,1.0589013312,0.0099155734,0.1814555276,0.6804520165,0.6254214546,0.8819234884,1.761675147,0.9450675772,0.8247361742,0.8672913739,0.5345029119,0.7750090471,1.0946999335,1.3954022252,0.6583304403,-0.8793617692,0.6351939715,1.291454509,1.5990931748,1.2101502615,0.0342816596,0.1640672483,1.5673800368,0.2013339556,1.423382902,1.6977654905,1.7839850288,0.6145530906,1.0037279975,0.5757499268,0.2428065403,0.3038303058,0.4854652285,1.7601073719,0.2796660283,0.931829421,-1.4023543688,1.7371752019,1.2666649604,1.3508403048,0.3574567372,0.3361655108,0.89380136,0.5924895813,1.0295390144,0.9310352476,0.3773748751,1.2483377458,0.2078126778,1.0495756861,0.201742944,0.4246583242,1.738394301,0.1851329413,1.4328193648,0.8948497555,1.2918429752,-1.0277566667,0.2675602842,0.5274530994,0.2491468836,0.0642857793,0.9137385819,1.5470190221,1.1644322317,0.3187331098,1.5525546676,0.328957225,0.8082801299,0.5484058056,0.7127053911,0.0082572057,0.4279337421,0.888456235,1.068920399,1.3779620431,0.3978550289,1.312377803,-1.1478980211,0.6753845755,0.442596371,0.7378226992,0.5023392198,0.9088475708,0.35878977,1.8125281785,1.0578214588,0.4492806729,0.4245601628,0.9758303804,1.1978305171,1.5114351967,1.6500628308,1.2640650051,0.4585642959,1.6833408134,0.1415714027,1.3681102932,0.2303927214,-1.7238327848,0.7605070532,0.5291643923,0.243276485,0.8560980238,0.4643341449,0.466922204,1.2794943377,0.0456028126,1.7829144514,0.6665225349,0.5701595508,0.9828266205,1.8122925679,0.2707678518,1.2567763594,0.1094007296,1.5345156794,0.2454162219,0.5256555168,0.9661341488,-0.8506759013,1.7593904983,1.7095877582,1.6028386721,0.2344277539,1.6658366641,0.5629023824,1.7912362241,1.4386028042,1.1656592895,0.1213272375,1.692776598,1.2678442616,0.7673461267,1.7375932883,0.8373791828,1.5577699891,0.2326049204,0.8115134632,0.9158021927,0.8645106809,1.3754955828,0.729304397,1.4243728569,1.7787378114,0.3731202715,0.7615955136,0.1491748254,1.4014493165,1.6067057025,0.0249274189,0.3380930025,1.0076954697,0.2782478619,0.2367313181,0.9580611793,0.180355482,0.0561809499,0.9112619425,0.2921501595,1.2974942586,1.3580303936,-1.6356773795,0.8850238347,0.909015115,0.1764348901,0.5965436581,0.9749557325,1.7839934231,1.2934475921,0.0508076374,1.6681986455,0.5622937804,1.3692970092,1.1482447787,1.1177832628,0.2035355399,0.2672532948,0.4459775246,0.0115529398,1.1574070986,1.3016096799,1.2659229251,0.4162787317,1.5021456067,0.6834618327,0.8854121376,0.2065857743,1.3141113908,0.609755447,0.1212850027,1.5899116319,0.1476273165,0.4677314048,1.0803109736,0.0797140089,0.6966806391,0.0874725902,1.4524645401,0.7297862959,0.190881656,0.6058406734,1.6348059438,0.4673530985,0.2069249876,0.6384210078,0.0944869473,1.1720736259,0.76654485,0.2155036575,1.2869762484,1.1722553317,0.2218625279,1.8390255911,0.7139691459,1.724913856,0.8855585524,1.3037447281,0.5559191013,0.269868554,1.8158854308,0.7214572797,1.1721303331,0.2679401131,1.6323689326,-0.2592607165,0.3560221237,1.2086141063,1.8308718053,1.2020960262,0.6544947652,0.5892571972,1.7580622131,0.698916735,1.2096374511,1.6648797579,0.0583752287,1.6938303282,1.0485819409,0.7305494606,0.2008558283,1.538554171,1.185352674,0.8435584961,0.5259995423,0.6985047825,-0.8829864839,1.0160051706,0.8597788528,1.3614823794,1.0087460064,0.8272172709,1.3984291294,0.9168159231,0.1102540296,0.6839831979,1.5243456916,1.6557177966,0.936306542,0.5622352492,1.2917305103,0.4582786423,0.0603044212,0.1986792704,0.7020730875,1.7631576772,1.7280322983,1.7350389062,0.7895054485,1.1791805702,0.07671366,1.2525999641,0.2777811232,0.0850248642,1.3999734253,1.6255498131,1.0484261541,1.0508847123,0.9771537455,0.1508026781,1.2132900635,0.9529644539,0.6307764751,1.6885463654,0.2763837685,0.1708702413,0.3880732828,0.6279331781,-1.4059653791,0.5050480151,1.3387435643,1.5426840032,0.0692333911,0.4743197533,0.4992999236,0.3648608476,0.8522220545,1.3535130449,1.0267635233,1.5998987322,0.8239752478,0.2502266611,1.5260194115,0.359509479,0.9447073113,0.4227469543,0.0328007378,1.1688580944,0.3275121155,0.5269435876,0.4251739505,0.7153544807,1.5821362702,1.1645078352,1.618585342,0.7405770454,0.6585484953,0.7892635052,0.5216010865,0.2931903194,1.1217845058,0.9745086051,1.1248508295,0.3381345616,0.55703567,0.3318576903,0.6754116417,0.6014752814,0.8735369212,0.949725974,1.4602959958,1.6889685169,1.0993949717,0.1220268967,0.6909800563,1.1430945029,1.5774224051,0.6543110383,1.0957727341,0.2448476225,1.4970118301,1.1872188242,0.2286734976,0.4246316276,0.5906567857,0.0085236961,0.7160614046,0.1010522095,1.8260579433,1.2701824734,1.584476332,-0.2284628685,1.5494687615,0.2567324033,1.679196872,1.5396040615,1.0735644643,1.6288029426,0.8159497674,1.4803368702,0.1326749441,0.2982974262,0.4476428039,0.9658400488,1.1323019056,0.6130769509,0.573248763,1.24684957,1.3497470594,0.9218338845,1.1588766805,1.6734654068,0.0347042459,1.5024437713,1.6290798897,1.8361703047,0.0066569746,0.2450455749,0.2147116499,0.5980632999,0.9942744111,1.8325912708,0.5274117445,0.0802298438,0.091536733,0.0020472998,0.8873653607,1.4760683771,1.144556973,0.2705998881,1.060391139,1.3352918668,0.3207032966,0.4528730508,0.5669207938,0.8626399296,0.0851685938,1.1443135616,1.7296302097,0.0265553591,0.4656703397,1.0567254319,0.8542659222,0.5854324709,0.2127376322,1.5120497275,0.5003337651,0.7341481212,1.4836246771,0.131908468,0.1395648688,0.9640294422,0.1299192942,1.6135206592,0.6033742291,0.1612913333,0.4416501518,0.0379097137,0.3164482857,1.7378267923,0.2654028239,1.7649978537,0.5748903763,1.261092354,0.4635822162,1.7049470278,0.3837836756,0.1823352316,1.0180970117,0.1932878641,1.1143515514,0.6280881805,0.993570419,1.2618843309,0.6912184581,0.574047424,0.4259618451,0.3903460283,0.8445447941,1.8351708767,0.703387845,0.8382156027,0.2643453604,1.2041015656,0.7538006405,0.0575633085,1.0061414429,0.9721295657,0.5348502909,1.0550670195,1.063809981,0.8060859642,0.5502621013,1.4148686046,0.2419078135,1.4699136604,0.4686458572,0.8315579044,0.9435802096,0.5926795012,0.5135125434,0.2360918501,0.5868204279,1.2778385929,1.2811330228,1.6966625695,1.6269708584,0.9020983629,1.2790725507,1.6501800055,1.634915066,0.9544461447,0.5074650009,0.9236239298,0.2564299829,0.141213847,0.9891592463,0.0955743953,1.4033591628,0.7605815683,1.2708481463,0.4663088971,1.6148326729,1.5466262625,1.5241048674,0.3218187324,0.5439029094,1.4137220627,0.9761690693,1.2227099507,0.2848132201,0.2183303176,0.4242771513,0.911555465,0.5964376019,1.7218764537,0.337250409,0.9662190865,-0.5638685046,0.3703433478,1.4416372748,0.508260433,1.133070722,1.6056765677,0.1878277154,0.2146182734,1.8384633806,0.6654944488,1.6193649208,1.3364567078,1.3893824283,0.9745100334,0.7261492416,0.0339814071,1.6411863233,1.679824687,0.6853448549,0.5416886419,1.6651232184,-1.0184013434,0.8854444455,1.4882447917,0.8894879122,1.2546554592,1.7192401326,1.070370176,1.2832864951,0.831068867,0.2325525318,0.4122210838,0.016912654,1.5563471137,1.2231746498,0.3197946443,1.227505577,1.0875900299,0.7884880039,1.3028582099,0.9905124728,1.4644373267,0.3503338487,0.362482067,0.2078404899,1.0470329063,0.441309568,0.6347021705,1.7337634168,0.0845476202,1.0751178584,1.0357906423,0.3637112183,0.5168235413,0.2512158517,0.9623053286,1.8210699036,0.5882509019,1.599198674,1.702670491,0.7273730233,1.2524873048,0.999415468,-1.2109812074,1.44670199,0.8110412572,0.465991177,1.6387244103,0.8342690552,1.3425747243,1.5336218003,0.8289859355,0.0699074999,1.1383789682,1.7018461882,0.3472284473,0.0231655988,1.7632296911,1.5852477407,1.1419045331,1.2366503021,0.9918109118,1.5134510909,0.139343141,-0.6721107613,0.765885527,0.5211577446,1.3352382326,0.4191802181,0.9097283858,0.3503083419,1.3040253071,0.6955609798,1.0049656946,0.1790657987,1.8361287015,1.4788608465,1.3173185346,0.332339675,0.706277631,0.5531247143,1.1295657869,0.238776652,1.2126145405,0.4418408003,-0.1860213132,1.1868848941,0.6007439929,0.7143572538,1.0855572386,0.3551257657,0.6830617117,1.2817337256,0.6247652051,0.16735872,1.6542651843,1.6439697481,0.1178898123,1.6662524623,1.7497748554,0.7099871773,0.1227126018,1.1317604606,0.9424044229,0.478190123,0.5938168512,-0.5871286547,0.6713487644,1.1607800897,0.8617788082,0.42807699,0.8828267357,0.6376172128,1.4476941375,0.0488238186,0.8817965866,0.3502663547,0.9899297254,1.0031555108,0.8255336768,1.5634159467,0.9660372711,1.0489217159,0.5001434091,1.1800705935,1.7801983076,0.2309905954,-1.6428208613,1.0705947754,1.7345561717,1.2372724087,0.872329292,1.2367382187,0.1700247024,0.9547591037,1.6864843993,1.5257541974,1.341294174,1.397412333,1.7740036281,1.2309330793,0.2372632655,1.4779477049,0.8082164351,0.2046619139,0.1538012046,1.7902296624,0.950081509,-0.8908304232,0.6732901001,0.9644906772,1.6187550361,0.8477838494,0.8564442289,0.4143807906,1.4602325427,1.7322141144,0.9615112275,1.4690900147,1.3170972694,1.5185395376,0.8583461768,1.0518173622,0.7020003447,0.0225530553,1.1682388571,1.6504956015,0.6355894773,0.7062047349,0.7890287897,0.1634482022,0.1692808837,0.2885149607,0.6037900291,0.1952924532,0.7961620421,1.7806887774,0.8617387915,1.4551722201,0.5779933623,1.769171768,0.2173153428,0.143775599,0.0757880963,1.1558406286,1.2349531533,0.5322508262,0.0584698909,0.3113720363,0.1798361564,-1.5225001605,1.7295301876,0.1525137258,1.4889261056,0.5603961007,1.033743784,0.8939982142,0.3617640444,0.8875908222,1.2627576857,1.3867980626,1.5959536233,1.6291722366,0.997944779,1.0734175607,1.4187092573,0.3356272704,0.6031876495,1.5581756322,0.5730139291,1.4760384487,0.4565695064,0.8565960292,1.7450116625,0.8401771426,1.181433087,0.9844376672,1.3416047847,1.7755870098,0.5141140111,0.7496909763,0.5832321535,1.7638508254,1.2910089961,0.4750633741,1.0712662309,0.6516763091,0.8176689105,0.7174235608,1.6454607452,1.1845434519,1.0046151992,-0.6057641525,0.5992437438,0.5350294625,0.8724413299,0.5894591437,0.5179649967,0.792634268,0.7391705854,0.9830567023,1.6297597254,0.8289970667,1.833735353,1.6883864207,1.5803456902,0.9236317682,1.2454469936,0.9812200739,1.353414925,0.2090387393,1.5231094679,0.5306214739,-1.3645632595,0.5167194316,1.1049148566,1.3610187517,1.77296014,0.7920967522,0.5969433501,0.7343442866,0.6728491317,1.510225482,1.4622450894,0.4250952333,0.7252421398,0.9294826682,0.201041385,0.0577588803,0.2630571429,0.3009875556,0.5459885654,0.552024767,0.9119529634,1.2993064295,1.6827819233,1.7314749941,0.5968808049,1.0293662153,0.8129285978,1.4822161946,0.3858424927,1.6683090204,1.0528290343,0.3152695334,0.2455898757,0.1903956978,1.5884093217,1.5970930789,0.368531791,0.0181066125,0.6683048892,0.9324507762,1.545635379,1.6229521188,1.3748089831,0.205077858,0.0569375607,1.5292570778,1.8265658936,1.0052309058,1.6682508749,1.7699106776,0.3132351066,0.8575310666,0.2626628504,0.182545875,1.4691973526,0.6207655345,0.9955938967,1.7236215904,0.8875819819,1.6663979101,0.3829473067,0.291558175,1.53382041,0.0886240214,1.58561323,0.8962613266,0.9070754482,1.293398194,1.7999009111,0.5324933759,0.1346601381,1.0730124602,1.0933088117,0.8138716411,0.4163860059,1.1170359054,1.3811257439,0.6924412558,0.9259815358,0.8584189558,0.8842872871,0.5524531155,1.1458274868,0.440183444,0.6265520165,1.1381975002,0.4751876569,1.0903214734,0.107570133,0.7867043722,1.2212101532,0.5250511874,0.1702607026,0.2161012199,1.4038458716,1.7424088774,0.8844406018,1.1828992316,1.5993825332,0.9430953401,0.2231323925,1.591146516,1.3567637922,1.252346833,0.7049351758,0.7196479577,1.8178175617,0.3998933927,1.4740579635,1.3636639196,0.4504939515,1.6790437415,0.7074776063,1.3241097765,0.2967989239,0.796954001,0.9854154822,1.4113475637,1.1289571313,1.7611471481,1.5515066538,1.2600283343,0.8948601362,0.5184721696,1.7207234033,1.3926727869,1.7919116069,1.3782484738,0.1649108993,1.2768871446,0.3838244999,0.0712584102,0.601038614,0.163421533,0.4360463368,1.3493680536,0.2639245114,0.1062482255,0.4483196378,0.7546792514,1.1861141663,0.010069541,0.0212996113,0.3177357258,0.140984795,1.721698592,0.2290445628,-0.1881708797,1.6290155581,1.1869622463,0.3345961028,0.1558880273,1.5046315817,0.2296600636,1.2604748103,0.6822387762,1.6092145972,0.3576854782,1.3673422471,0.1387217205,0.2610756064,0.324650975,0.145222883,0.6687290141,0.4061964531,0.5969574705,0.1637381199,1.6868802031,1.3838460622,0.7961650176,0.0938680438,0.5621031512,0.5935434967,0.2255658437,1.1232941842,1.7013708579,1.5053889142,1.1650921031,1.516007323,1.2809679091,0.5526848645,0.1561801179,0.2823071952,1.76131877,0.0643277862,0.4901206114,0.6063412305,1.1549983814,1.3715788561,0.6344488705,0.528290107,0.3102607405,0.8109293141,1.4943531282,0.9512774854,0.1875657176,1.4002697286,0.7155469911,0.6539009505,0.5169729493,1.6188425195,1.1223124011,1.5707549557,0.1127045989,0.2178178151,1.4745219189,0.1922236839,1.1148448792,1.7886027315,1.2749618066,-0.6112099661,0.832728045,0.5041834826,1.431894706,0.8793803398,0.6285151771,0.6028679297,1.1030218171,1.7154523877,1.8034279976,0.2318762255,0.6831299955,1.0285970742,1.5961572361,0.7025685319,1.6549779404,1.1724707984,0.4153108349,1.0596331095,1.538532012,0.0843129862,-0.4061600369,1.6251035919,1.5803835283,1.703827009,0.5631222562,0.4501202469,0.9389054344,1.7513434514,1.615982392,0.2007831494,1.8159960363,0.5062023871,0.0505925464,1.4887543153,0.3042143031,0.3184096197,0.893727049,1.1821479417,1.231784639,0.3768319663,1.7987098774,1.5547770022,0.4306184914,1.0604809156,0.0775861472,0.1234579618,1.0180376054,1.1117230558,1.0321277257,0.3771177344,0.2071384615,1.3548869836,1.7992087456,1.5773740878,0.0932186709,0.6565552643,0.8055528889,0.7698942726,0.010062278,1.598256688,1.159019221,0.8589356812,-0.261981415,0.471032551,0.8266741275,1.7690395503,0.7670775272,0.2123907169,1.2520984575,0.2442176833,0.4526290124,0.1322316606,0.5440239837,1.3221270416,0.3445902875,1.6640189831,1.0780390001,0.0071540827,0.5115876853,0.8746679669,1.4167878213,1.6381722229,0.4245429581,-0.294708247,1.5866094985,1.2271036546,1.3025311067,1.2500371724,1.2616105722,1.2190610117,0.4851122485,0.4716907329,1.2267164251,0.8636837905,1.2895763187,1.5292486947,1.2948906671,1.7045684912,1.2913737002,1.1488580862,0.0545099492,1.7165195691,1.5715968853,0.950218113,1.1503790025,0.1963418932,0.73772248,1.4004702244,1.3039098158,1.6893009108,1.5118610409,1.4223349896,0.9423156792,1.4824919036,0.4583156432,1.6041358021,0.1852414977,1.5296498775,0.9989902466,0.535037986,0.9598817113,1.3989973274,1.4142260731,1.7080284755,0.7937173173,-1.7638852651,1.1406322413,0.6615818423,1.4915209117,1.4189260114,0.7581666909,1.7232398866,0.5688073529,0.5700907979,1.1079120245,0.8207967759,0.4940450648,0.3138772397,0.9368089605,0.5930514477,0.0218281587,0.9994701766,1.6671557373,1.3192915909,0.1612015915,0.8899267791,-1.2613873913,0.4378728469
   1.3792906755,1.330410151,0.9960512813,1.2816134897,0.4188353764,0.9785615749,1.7290839649,1.5304227343,0.5021755085,0.6858791012,1.1397279564,0.9589324761,0.652495827,0.8325559014,0.2529319271,0.1047505919,1.3988498991,1.3531907095,1.5854385229,-0.1182626597,0.3532571756,0.0490500626,1.3843206431,0.5683093501,1.7252074407,0.3985995937,1.756953451,0.5773681017,1.6738858873,0.7432943404,0.948290387,0.9092856048,0.5523641812,1.5911023466,0.4631267671,0.0894498347,0.6213075311,0.1175697944,0.3675638235,0.0158275374,-1.2538740495,0.5479335499,1.4704250138,1.2248872467,1.3260719249,0.0692292178,0.7943305839,1.8081604843,0.5657666321,1.0757558943,1.5065102324,0.3110995514,0.0573458485,1.192053581,1.2890018095,0.8862099131,0.159939924,1.5180084638,1.633534603,1.2765509317,0.1853913506,-1.163721816,1.2981707592,1.7219238302,1.3512142499,0.9384472211,0.0408550718,0.35605834,1.5356724255,1.3823790112,1.7776088941,0.2602442277,0.179416803,1.0245881669,1.2756088642,0.5100147448,0.7579474531,0.3472643715,0.3703177083,1.6635525954,0.5914820749,1.7830873359,-0.184772054,1.764534975,1.5400816643,0.0465477132,1.6229318215,0.5227709327,1.6358812912,0.8259360739,1.4323189398,0.2589024237,0.852598585,0.0965224143,0.1956708468,0.2851368975,1.0315320707,0.1335733888,1.820766994,1.4069985811,1.6331078493,1.4872484951,1.3650673877,-0.2410591471,0.7822964538,0.5997787886,1.2377538742,1.6088502554,0.135850964,0.7972438871,1.0342718484,1.4727967028,0.3946327439,0.4587322317,1.78293439,1.4321223815,1.8298245829,1.6490919979,0.6529183972,1.6773826852,1.3585484469,1.3980453958,0.334853717,0.0745408655,1.0788165986,1.5241956267,1.2149167831,0.3076839195,1.6230741556,0.1592479937,0.8422590061,0.0798984787,1.8057191192,0.4548219389,0.9613723901,0.0032632582,1.4758566529,1.009375505,0.9728740919,1.3239053172,0.8796828798,0.9381230874,0.668867177,0.5276442227,1.4360436957,-0.0672583049,1.5389070735,0.2621742016,0.5213812615,1.6048325956,0.3055068904,1.7580925731,1.0838496044,1.7859964781,0.2339705555,1.0658113168,1.1237856008,1.1232350575,0.7082058932,0.2739210121,1.3039180707,0.2943425287,0.2383224587,1.0493761706,1.7605215355,1.8309147762,-0.4792849238,0.9497572497,1.659474324,0.9140841657,1.1262890163,1.1118088779,1.4068034221,0.9288583724,1.2187678884,1.4464334362,0.0449361432,0.0436900594,0.7307708282,0.876204246,1.5197130878,1.568879458,0.0305715952,1.3593826781,0.05320247,0.3752104362,0.5092876639,1.1405857006,0.4461551768,1.5326868904,0.3412943139,1.5726828005,1.1917462285,0.5218831905,1.7661657025,0.7277276964,1.0370861575,1.085643096,0.1021574694,0.8443985981,0.1531291398,1.0983108221,0.9296656289,1.5676677678,0.0405284803,1.7787991376,0.0064222984,1.3992150077,-0.7737578281,0.7550314906,0.682106537,0.4466957677,0.2223158895,1.316877879,1.6772843527,0.7523787368,0.6389360424,0.9816529616,0.4569326991,0.3954777474,1.7590000053,0.4327338711,0.2605962587,1.2120691736,0.8246880681,0.654163965,0.7316928181,0.1422963514,0.7482066257,1.5432037164,0.4281108706,0.2064182571,0.2569886674,0.2768251872,1.5056420602,0.140267854,1.0500452547,1.3860595126,0.5644515608,1.7036350552,0.6238788032,1.5641718595,0.0352738929,1.6381863284,0.7231073829,0.3585413858,0.1364000217,0.1177016462,0.0015696629,1.6808880463,-1.5095300645,0.7632533364,0.1885052434,1.6363081889,0.7739436406,1.096205375,0.1861157122,1.1659365098,0.1934087911,1.1590870831,1.47935153,1.8247955808,1.1683322493,0.6863547165,1.1753028026,0.767643776,0.729789357,0.2419886561,1.7664168992,1.04668265,0.071903456,-1.8338080341,1.3927307771,1.7316107951,0.5936016972,1.483320313,0.2571066861,1.4727126527,1.2812696323,0.9625302289,0.3632135293,1.4229582083,1.5251199232,0.4733710641,0.7275428782,1.7841401383,0.1302870397,1.6507456863,0.1130270846,0.2113032456,1.0754440361,1.1836264774,0.1568993648,1.1081116691,1.3206173175,1.7218293943,0.5352144894,1.4174645852,0.1371959015,0.4397345659,0.4352066079,0.1345583308,0.0446822793,1.0024648214,0.4799627285,1.7609050566,1.4187249753,1.356272475,0.1601635093,0.0505312771,0.039287588,0.0786149133,1.4832583984,0.3919118951,0.3205711206,0.6998681636,0.3138707584,1.8324507785,0.719595798,0.489774591,1.1653552837,0.8557216085,0.3476648156,0.174652607,0.9383869694,0.4002763008,0.428535972,1.5781927959,1.2279193268,0.0761902544,1.1165342069,0.9226034982,1.1420239012,1.5815911976,-0.5791818021,0.3531863716,0.745356368,0.9580502911,0.8817986784,0.4253571689,1.6540860801,0.7606362414,0.374286449,1.0528777654,1.8367359806,0.1157070302,0.0534099662,0.8375224412,1.0712931842,0.9432090123,0.1399542721,1.5694529211,0.2389562512,1.3742124194,1.6677727825,-0.7369017018,1.4580224697,1.7898837812,0.6899778291,1.7142505906,1.356835791,0.9945299134,0.7064489923,1.0399103509,1.5733344825,1.5917347722,1.731702566,1.0097498105,0.1095003467,0.2603194368,0.8276278643,0.7914220337,1.2719665204,0.8166100444,0.7496754054,1.6022017531,-1.6161124643,0.0608094047,0.8082903826,0.0446728566,0.1637515688,0.373226069,1.2030638245,1.702224584,0.5164238622,1.0480583832,0.8571825887,1.4207654479,1.7008294883,0.5278982868,0.2481741326,1.5017569282,1.3260460063,1.2351513138,1.6674758172,0.3799061693,1.797660194,1.1568541407,1.7483505308,1.5016717887,1.6594368598,0.3252975199,0.5888582795,1.2867128623,0.0028797158,1.2098306101,1.3438138576,1.7685593545,0.1561171296,1.0577854775,0.0433491197,1.4468877804,0.269732214,0.7696381483,1.1240915333,0.3088575915,0.9308168468,0.0465945816,-0.9230562058,1.7032633267,0.9234023722,1.3323704978,1.5264588102,1.7223685665,1.0956945335,0.5850529243,1.3967718065,1.5833205861,0.2372573446,0.9112106943,0.4993623748,0.9487363569,1.6642475854,1.5326742516,1.4244006076,0.7888418608,1.6149382835,1.0218087729,0.4893383351,-1.4493987169,1.2821981519,1.2685314901,1.1521425813,0.7443158118,0.3227413836,1.7298447173,1.3890850886,1.3839625342,0.837264536,1.0963511115,0.8959955507,0.3841137066,1.1997481996,0.5345533764,1.6200902585,1.3756772544,1.0458329653,0.5413029655,0.5629846136,1.7627564376,0.6760865316,0.5691377617,0.0316531738,0.603467935,1.5278598141,0.3574884563,0.0276914078,1.829278797,0.9982577435,0.965448516,0.312270204,0.0983396082,1.6420548079,1.1339350945,0.2069103991,1.7493972411,0.4787064506,0.118429184,0.3216543732,0.9556959458,1.0591061823,1.0135069598,1.8151781871,0.9268607627,0.8115678148,0.3181614327,1.1432591175,1.1264687552,0.7248925429,1.271376217,0.7456616343,0.2516450835,1.2354940318,1.7258539923,1.2319046813,1.6676242486,0.8409187053,0.2745164785,0.7259663213,1.2865404901,0.3030054977,0.2171460669,-1.1384361797,0.573028996,1.4947825571,0.17298121,1.5842885624,0.5314045909,0.5926239069,1.0485800906,1.5399424593,0.7200420396,1.5488672539,0.4971809436,0.9505715022,1.3536292729,0.256186197,0.8120456758,0.9207355561,0.4981488902,0.5283984954,0.192221267,0.718299144,0.3333035515,0.6924600677,0.9179608051,0.2078735413,0.5311441597,1.8196668456,0.8521516051,0.3491384138,1.8318206604,0.3584371046,1.0727871009,1.2212986695,1.3862452355,1.3897633575,1.1394556677,0.1110083674,0.2476031758,0.1109264547,1.0264972274,1.8287141689,1.4926479329,1.7859304056,1.4113041889,0.1104491071,1.043059878,0.6615965459,0.4122434825,0.8191457077,1.6317143242,0.8892495228,0.2266580546,1.3117540381,1.7169605136,0.4277797516,0.0395305055,1.1390951091,0.7892205708,0.7210697561,1.8050936453,1.7190382414,0.7526555781,1.5403760376,-1.0193925787,1.5331321875,0.4229895089,1.412715261,1.320052899,0.2761535144,1.7830367163,1.2642333676,1.6077422359,1.303811009,0.2866123264,0.0211440435,1.3677590269,0.1875874627,0.4636170531,1.7410418146,1.2406472135,0.9704478748,0.2746433098,0.1374305627,0.2445912353,-0.8940174181,1.7568675103,0.0624735544,0.9175107884,1.5420910366,0.9338259821,0.0933209024,1.2185239699,0.2531498648,1.1429176123,0.9116144163,0.9024620649,1.347571219,1.0342654265,1.0701338732,0.6354614632,1.252198213,0.5867224308,1.7729798317,0.3073415911,0.4014772185,1.6495999857,1.2144290168,0.7361845478,0.2174241851,1.3235233961,0.4676143577,0.4011652906,0.622305516,0.7002575052,0.2308558295,0.9144213027,1.5789606899,0.4156282856,1.4631408138,1.3047360361,0.2325206658,0.8046159797,0.1332023916,1.2227052249,0.5833283731,0.8238507066,0.311037564,0.6906072246,1.0147571914,0.9693391766,1.2230743696,1.5890886333,1.1797567084,0.87302177,0.4381725911,0.7416586171,1.6176931606,0.3344924111,0.9251528924,0.1928892625,1.6411739643,0.9738410879,1.324868122,1.124101158,1.2662079784,0.5988509139,0.2593785222,0.8215803656,1.3380339648,1.8281470646,0.5620209335,0.3827894317,0.1619215028,0.2133896375,0.8825491258,0.3410165249,0.36691722,0.2354847136,0.5062532936,1.681045167,1.5590185286,1.1511204938,1.1934101862,0.9226805479,1.5542368888,1.0723231596,0.3814362676,1.3969264173,1.1735344107,1.7266111494,0.4913286931,0.7253255459,1.7290400473,1.1776718722,0.7932591539,0.8731318096,0.8228384123,0.4915078385,1.5325649533,1.1960353377,0.5570628417,0.277329927,1.1470070196,0.3886684798,1.766886979,1.1179819518,0.4889214344,1.5683497616,1.0575166336,0.0978516825,1.4206562449,1.6344384145,1.5540132672,1.2969189963,1.733236191,1.4495525043,1.2145794575,1.1901600746,1.5382012358,0.2907092648,1.3784087703,1.65860156,0.859576669,1.2372968545,0.0347792898,0.8569442836,0.3621686735,1.1410250361,0.3944330627,0.9093667476,0.7964141196,1.2858329232,1.6735528017,1.3300977849,0.75797053,1.3611968221,1.1379201291,0.8086108738,0.0125013023,1.7897991793,1.2010344649,0.0060843069,0.4613094836,1.4302525704,0.8801339298,0.4968181022,1.0019272268,0.4453089402,1.0923014931,1.5297052338,1.6511571658,-0.3516887177,0.9729425477,0.2142775551,1.4342701813,0.0654034852,1.6124413934,0.7963370861,1.7718653951,0.7652964087,1.2791157179,0.5496166634,0.606444655,0.3172114893,0.9562812823,1.6345195581,0.4525986421,1.0313222303,1.7710271296,0.2060045173,0.6738163437,0.4824556696,1.687646329,0.9745187738,0.8906245071,1.3509577674,1.2281767822,1.3262091011,1.8068372735,0.2306134702,0.3954388001,0.4914561087,0.5536980739,1.3885511795,1.7257194965,0.5725263139,1.799614778,1.3639455377,1.3415142224,0.6048910072,0.1713947624,0.5780066393,1.6673790468,-0.198204041,0.328627474,0.5761034536,1.2290257804,0.9525115857,1.4994494207,0.0291203152,1.2942525613,1.8063805355,1.5306302689,0.1481276443,1.7894392152,0.2990976598,0.6384307631,0.4224039948,1.4740040075,0.303784835,0.2904581749,1.7540257383,0.4159483099,0.7410839347,-0.9135045548,0.5163955507,0.3356954299,0.0110564318,0.1504517409,0.5270909877,1.3073397752,0.6388732584,1.3400388331,1.3509942286,1.7018279472,0.2657432761,1.1816080608,1.1859238889,1.5200158891,1.8006438026,0.1252462509,0.6660050114,0.92190889,1.6269886896,0.3547350365,0.7095940285,0.2629946741,0.6101599252,0.0375456339,0.4486660838,0.244385777,0.2787230537,0.6254176012,0.1318036177,0.6246939482,0.4259813967,0.3155221592,0.4233260392,0.1980192713,0.0148019866,0.5530827625,0.4224166059,0.2583941579,0.0030126995,0.3962269947,0.3019236401,0.4680032969,0.1015916016,0.6162989946,0.7045948458,0.0374964646,0.2619062306,0.6633546073,0.1850605743,0.4189425627,0.2821544839,0.0148707405,0.2506204022,0.6323478391,0.5389866083,0.0612757157,0.6645062218,0.4085020402,0.0345901115,0.1469036587,0.1892971452,0.0465770636,0.1394870251,0.173773757,0.4334209478,0.1544881994,0.3139085639,0.360071683,0.1988397633,0.5902146115,0.6765921043,0.4596855139,0.0679258917,0.6249332164,0.1439686043,0.2329766382,0.6665538039,0.0849404642,0.4731802955,0.227626543,0.4918294755,0.3808185545,0.2671087371,0.3386468925,0.1834283888,0.6816541175,0.1626986048,0.3276875465,0.0537946844,0.4905869551,0.4842507935,0.5474200605,0.6505862535,0.0518979968,0.0528515367,0.5039850299,0.3796240611,0.116785145,0.5547769314,0.262039884,0.5951263085,0.4420065031,0.4145944499,0.5841304309,0.5552235183,0.4189654618,0.2883823797,0.2486708958,0.5460194763,0.0388319621,0.5724433821,0.2943570337,0.204160836,0.428813731,0.5387244862,0.0789205421,0.2366701263,0.1335706779,0.381380483,0.3345007281,0.4074326716,0.2975809485,0.2130306204,0.0757790854,0.6648737416,0.0119580808,0.3421400294,0.1430976895,0.1670502406,0.1020058012,0.0935476212,0.3926692306,0.6613128527,0.5083301481,0.4454714175,0.2955711285,0.4414062571,0.3703552535,0.1078008664,0.4383732421,0.4327287779,0.6823430092,0.4354970681,0.4159354797,0.3705378168,0.0447964928,0.4769070858,0.1333102743,0.628807798,0.2597805151,0.0679478745,0.1297401049,0.6186988681,0.0642420604,0.2601816897,0.6662852599,0.3105843865,0.0060892043,0.5687288703,0.316049074,0.6603315363,0.3911607324,0.3483282068,0.6792120031,0.0141641611,0.3728778502,0.1681691135,0.462249332,0.3890311342,0.316320698,0.3068041581,0.4591568636,0.6693853248,0.6822905931,0.1051176671,0.5715619467,0.1164706691,0.6430333388,0.4929766027,0.2316746555,0.5244297761,0.6461705824,0.1868739778,0.2925756773,0.6822741844,0.085459964,0.1245678184,0.4926017075,0.4275867308,0.2361273714,0.3070776612,0.5079036139,0.1607266116,0.0797712226,0.1069425358,0.4252564437,0.3514664763,0.2131720221,0.6021478324,0.1307274134,0.5962052592,0.4643975237,0.681497256,0.4695480371,0.659040714,0.0967243628,0.5385997492,0.4353241754,0.0028623549,0.1448780864,0.0450715041,0.4920346777,0.1175033408,0.2905314675,0.0857916999,0.2036686239,0.2407155604,0.1109001918,0.1374625656,0.5245461709,0.4407051464,0.5695822838,0.7074482919,0.4331329773,0.5134820863,0.1039361675,0.6392516198,0.6445076875,0.560794658,0.1459949223,0.7030458082,0.0854726737,0.693580587,0.1049807733,0.6287133922,0.3399364013,0.6585016148,0.6526536692,0.4226257251,0.6266684788,0.3936641528,0.0346075083,0.1326536167,0.020043385,0.1026380424,0.3979502121,0.4781824709,0.0247230536,0.5063759353,0.1459821723,0.6261853002,0.5270973356,0.3110495589,0.0267331176,0.1237940311,0.4854586843,0.6722993034,0.3635129027,0.6709366509,0.6039936543,0.6954696012,0.2157417227,0.5295769464,0.6212089142,0.5052628347,0.3994300982,0.2052253448,0.0899551364,0.39361348,0.0344100179,0.6573159484,0.0091962922,0.2815850108,0.651468961,0.0268414522,0.2569576748,0.5178865382,0.2472271457,0.4674112064,0.4435688919,0.2439744228,0.0288680489,0.5244892581,0.5042087901,0.5648517157,0.6243580888,0.4649852558,0.0642299672,0.1181640986,0.478925538,0.4347089826,0.6432616697,0.3715718069,0.2259460774,0.4625885877,0.2512936787,0.2883842033,0.3885938044,0.0204580882,0.6727911976,0.0496921259,0.3219834415,0.6209202855,0.4965730441,0.694209749,0.5633194277,0.4825682058,0.3716283642,0.6120651524,0.3266027121,0.69314149,0.6381068363,0.6477197726,0.3122786488,0.0467798585,0.5608039408,0.1976314924,0.2832943529,0.5133803915,0.6752820615,0.4097529605,0.4944877359,0.344339176,0.6668719885,0.1861615583,0.432385493,0.4172482658,0.0803624822,0.6989038528,0.5319098231,0.1858945565,0.4179070677,0.5906752092,0.3535170954,0.1106406985,0.300240941,0.3731333169,0.4200428507,0.2394107842,0.6802455924,0.3745874884,0.0028090035,0.6483196349,0.3872397991,0.6601375423,0.6823155237,0.5876932312,0.4173433101,0.668685659,0.571622711,0.1586917676,0.5132762731,0.5245469134,0.125968114,0.3152829503,0.5202665648,0.4816061739,0.4590117814,0.1811236795,0.3784791305,0.6582180384,0.2678975888,0.466983706,0.1273385808,0.3878527719,0.4887903959,0.3651899901,0.6422782574,0.1634497745,0.2338572849,0.0220290195,0.315922054,0.3695090271,0.3923837988,0.6893136511,0.2224581686,0.540537145,0.0060186039,0.6911835009,0.0387192794,0.6276298542,0.4542140797,0.1753321269,0.6032817044,0.607822773,0.5260678521,0.1926215677,0.23095643,0.1010080469,0.3128246524,0.5683091562,0.6120245876,0.5325227807,0.2654025434,0.1514049361,0.6012055863,0.1002207611,0.2128184062,0.2391794662,0.0888949248,0.4281347111,0.5790961316,0.488881044,0.4430903487,0.3215389129,0.6289395188,0.54634943,0.0736941564,0.1538508966,0.3116928949,0.3413111785,0.4465351105,0.3608587928,0.223029073,0.584651298,0.7082145092,0.2625911869,0.5524978247,0.1481476937,0.5894189307,0.2725550987,0.4888747185,0.1924984239,0.3754652578,0.5817125152,0.2013901743,0.5598855211,0.3044530939,0.4268885419,0.6080558878,0.3122879593,0.3857545646,0.0844242764,0.5990459101,0.3011693803,0.1426084238,0.1666479753,0.6853449653,0.2581476732,0.1085582604,0.6216228938,0.7041188203,0.0938633558,0.4783037407,0.2948553961,0.2133218558,0.3363126378,0.4486655717,0.2054324427,0.4823949671,0.7014816026,0.3566113038,0.4720522109,0.5594554541,0.4496734695,0.652183048,0.4229017219,0.342158064,0.688465347,0.1686475059,0.3845098015,0.2995909471,0.3883679046,0.142211391,0.0954588626,0.4850517469,0.4132512567,0.4809992679,0.6118595552,0.6208561244,0.454526138,0.4175645593,0.3212732473,0.7080601038,0.0085252767,0.4369395895,0.176421541,0.7082994307,0.6716785146,0.1456389702,0.5290020726,0.6172249002,0.6639603763,0.0541446521,0.3539553391,0.6627942308,0.6401559677,0.4689519013,0.6611235543,0.3096111984,0.0190278939,0.3406484567,0.4015685202,0.0688856328,0.5726258373,0.3225951493,0.6048874994,0.3443293474,0.5179752472,0.640282572,0.3019390389,0.4811255025,0.2429942253,0.3528793758,0.3483540272,0.3112018347,0.361744791,0.2756649413,0.1726341316,0.5857913983,0.3918307723,0.5997107078,0.5287083315,0.1774988876,0.1412249341,0.0286731572,0.3059647455,0.4514059424,0.2922404985,0.2531225011,0.109050593,0.003822497,0.5150399581,0.3585787233,0.5111778823,0.1618484806,0.6096625885,0.3533466421,0.1106712639,0.0595480878,0.5159535263,0.2945816627,0.052000211,0.0616278208,0.3028008306,0.343300554,0.0446945033,0.4626668629,0.0468071905,0.3310807765,0.1840608296,0.471616519,0.4317986375,0.1375649822,0.0167023729,0.6030275293,0.4446554995,0.3390159785,0.5316945076,0.6627228542,0.412238207,0.6539053038,0.2487095973,0.1953114426,0.1801454634,0.4972604207,0.1969226698,0.0943380412,0.5375291713,0.4550483303,0.323563093,0.1480114259,0.3496291667,0.0189398651,0.6384919242,0.5259000948,0.2175094675,0.0184183637,0.5775602794,0.1445777936,0.3755497515,0.1515144735,0.3250367695,0.7059328123,0.614552631,0.0701162024,0.3550149587,0.0544344669,0.100419523,0.3620759953,0.6888219709,0.1267791718,0.6040401127,0.5094174515,0.4248996735,0.5440846857,0.4277297908,0.5128598865,0.4348264134,0.2242004026,0.1447011923,0.2237039558,0.1332377489,0.2510781896,0.2059967578,0.3812310627,0.1976788068,0.3865089985,0.5240874693,0.6091233968,0.0882140542,0.5013075327,0.305088659,0.6549466115,0.2061118714,0.0762151042,0.3206459032,0.5135709128,0.6861536873,0.679926092,0.2556827394,0.4885088676,0.1642490803,0.2196643629,0.5837011647,0.3241413703,0.0885670363,0.035372821,0.6299242743,0.2690830922,0.6527376268,0.3416665512,0.6364500544,0.4498662824,0.5782170981,0.1515841553,0.3753076426,0.0148718426,0.0219432642,0.3426260934,0.1998333167,0.6634024809,0.1097793982,0.2616783171,0.099027083,0.6827424534,0.2411758744,0.5378098404,0.6158093671,0.2749794907,0.6124829363,0.7024145096,0.1430927776,0.2246240867,0.4022791984,0.6262716817,0.3190695383,0.1449098654,0.6793762194,0.2260000577,0.27952431,0.5411008402,0.593254773,0.6701286638,0.7047170138,0.0441137734,0.0605514696,0.5429691894,0.3504381614,0.1087137836,0.6944796832,0.3228077508,0.5388819795,0.2836089622,0.3485092278,0.2974743392,0.503674871,0.5768031514,0.0010399248,0.0193941898,0.5286580397,0.1197144405,0.3620690355,0.2923703051,0.2932321374,0.4670616812,0.6178835576,0.6976611479,0.0177325479,0.2011531578,0.2482079945,0.0382077398,0.3479755432,0.6332238171,0.2881591155,0.6108140972,0.6192480709,0.2148685972,0.6862025461,0.0487677515,0.0608371961,0.1485169758,0.15582554,0.3332626802,0.0125280467,0.415362416,0.6187833558,0.3264894806,0.3283524772,0.1549119042,0.5679343812,0.1255454945,0.1972068022,0.708686304,0.4804267538,0.1157634152,0.1688003027,0.638699895,0.6523986534,0.4458987309,0.2745189201,0.0027426817,0.660518553,0.4194772112,0.0637218269,0.4154203493,0.2915732736,0.6303331228,0.3057360109,0.5399430315,0.2472288008,0.2887615108,0.2239509592,0.1829905469,0.5116201107,-0.374405078,0.5724594209,0.5145856375,0.363231104,0.5281659611,0.1206160035,0.2977721812,0.5560637262,0.5895457293,0.2957427629,0.4696558162,0.3963844391,0.5760692482,0.5424027723,0.2253231981,0.4438695191,0.3036217777,0.5644429877,0.1427216009,0.5044191683,0.281085176,0.6275286747,0.2595413351,0.0509160718,0.0576796705,0.4766009944,0.5482827264,0.375724649,0.319914628,0.7006091177,0.5552516571,0.5794426618,0.0984708203,0.1369895683,0.3573880696,0.6458825207,0.2179268047,0.4092784167,0.3370412059,0.5438699696,0.0383390325,0.087913774,0.0501277488,0.0041317061,0.5017607553,0.4561965602,0.6314659313,0.0952352223,0.4694315905,0.0376817711,0.2660286315,0.2353308165,0.1103683919,0.4178551502,0.1598183665,0.4618978753,0.1585145221,0.4897577468,0.5871966943,0.5435599281,0.6319694926,0.0312790795,0.0700927418,0.652260913,0.2844793026,0.3043026107,0.4845826553,0.0429025682,0.3639215717,0.5259732761,0.3448192615,0.5431905958,0.2626517307,0.4607612687,0.3779762259,0.3736703191,0.324452476,0.5851288444,0.0346555281,0.4894486748,0.6545741764,0.0244534963,0.6413726153,0.2415774593,0.495273195,0.1717245539,0.2868467891,0.6310146779,0.0230888437,0.3962369038,0.2022352829,0.0866832601,0.2427649867,0.0093983445,0.6009307312,0.1377020478,0.303713809,0.5129423582,0.0804629457,0.4511298535,0.104452939,0.3014408967,0.6900232874,0.3678504635,0.0466649466,0.3076393429,0.3187793054,0.1513538088,0.1052709653,0.3607865268,0.5606883524,0.2800835868,0.1537706729,0.2795539422,0.2151491929,0.3496037231,0.4833464911,0.2301658619,0.0087433174,0.5706207271,0.6395455511,0.5031756567,0.6409287577,0.1003781391,0.0926668999,0.6815462513,0.2626149747,0.4430415948,0.1954515917,0.6620095145,0.5262368051,0.3603522509,0.5515364484,0.6737544096,0.4273371755,0.588116774,0.2654499082,0.0408683876,0.4620310499,0.2874585352,0.0742526754,0.2103770694,0.4535607448,0.3786662305,0.4317145767,0.4251644943,0.4632586354,0.4351120019,0.2708861381,0.2996548552,0.6736216061,0.4795832322,0.0555903429,0.3469640986,0.0506279978,0.6324604319,0.4854995278,0.1466198586,0.3042925127,0.4870711989,0.3862403076,0.471891349,0.4762242601,0.4654893555,0.3201465393,0.5578441044,0.6363545355,0.2074679045,0.3399065793,0.6796365685,0.4101952779,0.4084405043,0.4792181252,0.4219161268,0.619877322,0.0368809488,0.2343914444,0.2383121067,0.6861770318,0.0680156457,0.3906315499,0.6906621369,0.1468599681,0.0045079928,0.5659562469,0.5882484227,0.6329739393,0.2028448275,0.2159892943,0.643251802,0.1530358365,0.6785366456,0.2864750764,0.6833048888,0.6215933698,0.3704634182,0.5963143835,0.0977264491,0.415276947,0.3854661488,0.3305058475,0.2671351643,0.1203144495,0.4336375391,0.533933304,0.2790306154,0.5608056071,0.0093826482,0.3058336889,0.2516325547,0.7027371076,0.0017395572,0.4767708181,0.0483113859,0.1787974515,0.5268475083,0.3816147061,0.0066058369,0.7025172315,0.3796242666,0.638067269,0.2241461344,0.4716488498,0.3379738443,0.0148017925,0.1979942721,0.132737953,0.3146928669,0.5676139609,0.4398461876,0.3573489343,0.6248597849,0.5180950307,0.1873197965,0.3047206463,-0.0646262999,0.6754152189,0.2383865958,0.4302869141,0.4405845561,0.4670148371,0.5077060467,0.2462427399,0.4159173213,0.4474767464,0.5113259309,0.0759279819,0.2597575268,0.6830857603,0.5859612859,0.0518076601,0.2986360324,0.5530851586,0.6218157015,0.4558960787,0.5130954928,0.0265374261,0.4236342184,0.215524477,0.6125256907,0.4065890098,0.159411284,0.6325669614,0.2089439172,0.3140541121,0.1707689851,0.4724189698,0.0297374801,0.2899623984,0.3965929566,0.1453840867,0.4910236388,0.5659001488,0.2789314858,0.5954820877,0.6116742796,0.5935912572,0.0833898235,0.1637163033,0.243148785,0.0163127884,0.4474184277,0.3800052915,0.1109171096,0.4834333314,0.0170286244,0.1278452977,0.3748123435,0.4812233549,0.296801845,0.3449603918,0.1561933705,0.3407091354,0.6015348764,0.1491606693,0.4399343204,0.7001813928,0.0805342041,0.4814425276,0.6120498125,0.1977177742,0.6273561141,0.2528560432,0.3864161287,0.2331278592,0.2222526296,0.2759514712,0.646417428,0.0256387372,0.3127317108,0.6421049634,0.0120731493,0.2734932723,0.1175429073,0.4468976072,0.413810039,0.7004056571,0.2009097259,0.31541829,0.2724448768,0.5676901737,0.3069250877,0.5887826197,0.1213204012,0.6057267066,0.1355137409,0.6615709076,0.4046871812,0.3747991422,0.1044797016,0.2790159442,0.2161474158,0.3041107654,0.4835684193,0.5975259937,0.6783849173,0.4677005504,0.3927213168,0.383333088,0.1421356574,0.1641945855,0.1773284987,0.4223783028,0.2113086976,0.580374046,0.3850002037,0.6633661662,0.7043331634,0.1065580571,0.6384351215,0.1677679931,0.2112889477,0.1004652729,0.1628518898,0.6799389407,0.4818639959,0.0554730253,0.6577449612,0.6229903284,0.0919246351,0.5965942161,0.1161863755,0.6399420214,0.0745449338,0.0628914566,0.22470003,0.3160842665,0.5120282864,0.6046325889,0.6378231354,0.4202382901,0.0801514572,0.4118362669,0.2554395915,0.2713363191,0.5618909838,0.2919990383,0.0655398425,0.680786762,0.1260181716,0.6831108686,0.0987415377,0.0792485512,0.2708512699,0.0255671243,0.2806157103,0.3033679631,0.6065447263,0.7064330023,0.1480180585,0.4099335053,0.437713389,0.523221822,0.1700882427,0.0360059803,0.1282311424,0.1604010086,0.4661956575,0.1879948613,0.3443009452,0.2533668196,0.5121702867,0.1299921397,0.3683403129,0.3185805477,0.3497503137,0.5275726739,0.2033021558,0.7020383965,0.5683231505,0.2765389603,0.5934971039,0.1438759201,0.6844647412,0.0504551007,0.3193957474,0.3893285921,0.2762793788,0.1196142418,0.4906082957,0.4016159152,0.5652674429,0.3730709488,0.0877227679,0.400967916,0.1623173925,0.4746372983,0.3679725728,0.6196812584,0.1521721985,0.4573948613,0.7009588024,0.2553529961,0.6884088259,0.12182341,0.242487812,0.5516179966,0.4105675382,0.0251250939,0.4986297156,0.1990560651,0.4857437202,0.4250692177,0.1456223248,0.6269659864,0.3614793155,0.0573602828,0.388810481,0.1918248217,0.0420950853,0.2681720351,0.1312852147,0.1632059764,0.439920203,0.5713610433,0.0186291911,0.0040873535,0.4205047905,0.0959050485,0.5015194219,0.644339631,0.2705614765,0.4937855968,0.677588138,0.1374085046,0.3828833843,0.0038104704,0.5145344541,0.2123225428,0.4969603582,0.1321308067,0.5789752594,0.4260983206,0.5563682665,0.0643457541,0.1734168735,0.1371393349,0.1505430341,0.2792320803,0.4086354047,0.2836222899,0.0492415258,0.1464221253,0.5775871348,0.5665952031,0.5358439828,0.1651851421,0.1035893443,0.1803866215,0.6835711685,0.3060636317,0.0881477397,0.3302105454,0.4068119201,0.1591825691,0.1629920506,0.2302152668,0.4476350628,0.4103602683,0.3508095717,0.0572179846,0.0123644959,0.2197302666,0.4671755141,0.2799444287,0.1998023448,0.4836458479,0.0548747353,0.0844251734,0.5643248968,0.2478432624,0.4175131085,0.6274750381,0.1722472665,0.2689379628,0.5783694761,0.1842424893,0.1733646348,0.5438928861,0.5868580347,0.0483836685,0.1069999097,0.3625211616,0.0244277716,0.4267203119,0.6416357919
