encog,BasicNetwork,java,3.4.0,1,1588928622063
[BASIC]
[BASIC:PARAMS]
[BASIC:NETWORK]
beginTraining=0
connectionLimit=0
contextTargetOffset=0,0,0
contextTargetSize=0,0,0
endTraining=2
hasContext=f
inputCount=2
layerCounts=3,11,3
layerFeedCounts=2,10,2
layerContextCount=0,0,0
layerIndex=0,3,14
output=1,1,1,1,1,1,1,1,1,1,1,1,1,1,2020138,33135156,1
outputCount=2
weightIndex=0,22,52
weights=4.0048347048,3.8513338069,3.8706586721,4.2064889226,3.7139493651,4.1225920305,2.8691825436,3.224253751,4.3040230946,3.4834794503,1.5817185007,3.1438113244,4.0597062625,4.0757452723,2.9174846561,3.5020782973,3.1353646163,3.1915366781,3.2412164644,3.5383609794,3.678822044,2.4754664836,0.0119703573,1.9129566544,-0.3363004216,1.8974926676,1.3009697016,-0.7053923072,1.1272592081,0.6889627468,1.5328573972,0.4563638964,2.1153313647,2.1255929417,1.1520850861,1.7887092289,-0.4461672655,0.3938986949,0.3981918876,0.8511823386,1.1501241593,1.4964073366,2.1780618839,0.8383142833,1.6669051553,-1.5389239479,0.1440505727,0.2004850214,0.7687273706,0.5607791356,0.8716991222,-1.4794691219
biasActivation=1,1,1
[BASIC:ACTIVATION]
"org.encog.engine.network.activation.ActivationSigmoid"
"org.encog.engine.network.activation.ActivationTANH"
"org.encog.engine.network.activation.ActivationSigmoid"
