encog,BasicNetwork,java,3.4.0,1,1589010288910
[BASIC]
[BASIC:PARAMS]
[BASIC:NETWORK]
beginTraining=0
connectionLimit=0
contextTargetOffset=0,0,0
contextTargetSize=0,0,0
endTraining=2
hasContext=f
inputCount=10
layerCounts=11,101,11
layerFeedCounts=10,100,10
layerContextCount=0,0,0
layerIndex=0,11,112
output=0.9990847776,0.0000210922,0.0000018383,0.0004942084,0.8532624215,0.000374298,0.0184677393,0.02893789,0.0000415016,0.0000005768,1,-1,-1,-1,1,-1,1,-1,-1,-1,-1,1,-1,1,-1,1,-1,-1,1,1,1,1,1,1,1,1,-1,-1,1,1,-1,-1,-1,-1,1,-1,-1,-1,1,1,-1,1,1,-1,-1,-1,-1,-1,1,1,1,-1,-1,-1,-1,-1,1,-1,1,-1,1,-1,-1,-1,1,-1,-1,-1,1,-1,1,-1,1,-1,-1,1,1,-1,1,-1,1,-1,1,1,-1,-1,1,1,1,-1,-1,-1,1,1,1,1,-1,1,1,-1,-1,1,-1688009769,876644073,1363901573,-665351796,612505388,-1563968079,191911115,-1001424726,1535025282,-183708645,1
outputCount=10
weightIndex=0,1010,2110
weights=##0
##double#2110
   1.1915724258,0.1642394057,1.1151823269,0.4648306066,1.2053884783,0.9230884437,0.8608424119,1.2968670922,1.4014432852,0.4256655269,1.0425420718,-0.555332919,0.3485331804,0.6906420882,0.4833657675,0.2480335415,0.1417264914,0.3418793258,1.3624126838,0.4193294268,1.1412879631,1.2819336395,0.5975590043,0.0687196858,0.3029687596,0.2424042961,0.0236762375,0.9624055143,1.1284256705,0.4932391233,1.5672392192,0.4053668683,1.059962407,0.9627803667,0.6690755367,0.3282946417,0.6930788076,0.3369827958,1.4360157628,0.8585266425,0.1470821002,1.1019722048,0.070058777,0.9664200991,0.2099747885,1.1796899146,0.1166817526,0.0435981225,0.123836779,1.1347311656,0.3241603264,0.4128091497,0.4472157168,0.0788690436,1.3857584904,0.8206160065,0.5592328534,0.0684379694,1.2808426782,0.9861802996,1.1164423366,1.411666201,0.5028015462,1.2453430178,0.9646808374,0.0211487189,0.3277718609,0.110796882,0.8869177088,0.658905086,1.2720764832,0.3078128434,0.3433833713,0.4815888803,0.530350235,0.2288324298,0.6298157568,1.3327035251,0.3808838496,-0.0299464195,0.6906884808,0.6555252982,0.5301998082,-1.1462783545,2.2187775888,0.3694076797,0.8372787754,0.1976567592,1.2633036475,0.5348338208,0.5345499605,0.3391757782,0.2194528775,0.0774817582,0.6938584852,-0.2772349847,0.0475842999,1.0945307358,0.4949826565,0.4557767233,14.1843872346,0.2328094256,0.6856704009,1.0552393895,0.2409155619,0.014532164,0.155511047,1.273358266,0.8576042386,0.6686439649,0.8295178351,0.8271482953,1.0245506328,1.221368632,1.3746328875,0.2382502613,0.4552325099,1.1923648365,0.4980556455,0.3398862618,0.8227059827,0.6465680534,0.2652054662,1.2621621508,1.2309805588,0.2111694336,1.2256963168,0.4610868952,0.1645482577,0.6638981512,0.2626122175,-0.8733202189,0.7043475054,0.1579043674,1.1322775248,0.6524346227,0.6270013848,0.9488982904,0.9191725106,1.0049537477,1.150466303,1.2329159152,0.442591344,0.6834866124,1.2151043358,0.3871853513,1.3141739386,1.3190694314,0.9042412703,1.2545711894,0.3956221704,0.5545056285,1.2067301835,0.8087754283,1.2022768188,0.4829730301,1.3768434518,0.4068801011,0.4960154673,1.2188913827,1.2375108615,0.7379540005,1.3899407679,0.2073069225,0.1349079891,1.1844656236,0.2848343992,1.0932879725,0.1390331063,0.2876623727,0.8899382677,0.2795714676,0.2500759574,1.3057230681,0.2993239171,0.1740848753,0.5166187839,0.2406741142,1.2864165776,1.3762394966,0.1867395082,0.0267139318,0.8571388829,1.3650407122,0.2618485153,0.4513765689,1.0382306506,0.812036619,0.7556700964,0.029368605,0.8819300379,0.7999190563,1.040654686,0.6215741303,0.0322004202,0.7342606555,0.7439083701,-0.8380699791,0.5869590316,0.9401090487,1.3501209919,-0.5815699312,0.2587677567,0.9381204967,0.852656647,1.3715077935,0.9175195623,1.2504536378,0.407360977,0.5464290296,0.3369051012,0.7485572893,3.455677581,0.4927391114,0.1459426675,2.7347830886,1.2898733326,1.4174723496,1.0257822802,0.5720001959,-6.5205505257,0.2365593381,1.0422774177,0.664982658,1.0825472468,1.036965897,0.4773379277,0.8780881695,1.2982047132,0.765687775,0.1717083041,0.4237132463,0.3636542166,0.1416269581,0.5100031143,1.1355383416,0.6242667198,0.671102949,-0.3975391977,0.9987420738,0.3801669388,0.7559506471,1.0576611621,0.4802253527,1.3795041424,0.7961129983,1.8223680298,0.8430400979,0.9908179278,0.4353110761,0.8314359258,0.873437112,0.0475464203,0.5531619407,0.6058380319,0.2612518319,0.9293632696,1.0827520275,0.0375787208,0.5900098053,0.1811465633,0.7675546672,0.5868630084,0.7793236214,0.2739433762,0.7887604693,0.7568598003,1.3562162468,-1.3775636104,0.1158973684,0.68344556,1.3080687135,0.1867960261,0.4476481053,1.3330770306,0.4045338041,0.6658158102,1.2402905772,2.5416514283,0.5177182113,0.2773414607,0.5230102587,0.5994283763,-2.5623324613,1.1871918797,0.5808793775,1.1927711625,0.0320427599,-0.8006333557,0.0948794132,0.0417609383,0.2411526079,0.3491654143,0.9382628188,0.9536292163,1.010308142,1.0325802532,0.2091562103,0.5445422468,0.2498531986,1.0820924794,0.2916674728,-0.3855635679,1.1214575987,1.268328303,0.8871866384,1.4532258589,-0.0900355643,1.2287388618,1.2383987165,1.1200072873,-0.1501260284,0.6925646403,1.3852848726,0.1339453395,-2.2983620088,1.1733275426,1.1066462851,1.3348326197,0.1815909549,1.0361465958,1.4587091347,0.9194614289,0.9650887095,0.2474691185,1.3931666261,0.4877961626,0.9252387325,1.2177351548,1.2509590471,0.4338047111,1.1120481716,0.3281293761,1.4010371418,0.5888935627,0.1734655624,1.1607577114,1.2752124488,1.3629993908,1.082684082,0.1654322096,0.8680988201,1.0279885251,1.2869146812,1.0241070406,0.5132166516,0.0758881681,0.4217441006,1.1680372708,0.3446053914,0.8551587024,0.8320155793,0.5157271358,0.350234632,0.0625538521,0.7071136711,0.5789648761,0.8140443136,0.2095391228,0.3800171288,1.0608672682,0.932297255,0.3654265499,1.1755346049,1.0782146488,1.3573143281,0.8829729665,0.8075039539,0.6776047043,0.8897068916,1.1348671985,1.2340813166,0.4252695631,1.2037197936,0.036240127,1.2853732473,0.5396679121,0.7792151996,0.9043806045,0.2906002563,-0.0059300099,0.4087071143,0.6218207872,2.5183055207,0.8731905488,0.5006556813,0.4571602224,0.3660395919,2.8949367965,0.0295106796,0.3959727544,-1.4528278433,1.2216834887,0.8227666173,0.3015594948,0.8754373874,1.0655143128,0.5482149991,0.2630802408,0.4936754372,1.2586464003,0.5155130137,0.9965794181,-0.2010893189,1.0380122737,0.6818620773,0.6665173119,0.3639517757,0.3594713122,1.3014853187,1.2108534358,1.2016055599,0.2530265669,1.3826545628,-0.6827705891,0.2148178838,0.1992593969,0.0729649009,0.9021688719,-3.953624461,0.2921994109,0.8435594255,0.3600488514,0.5821343585,0.4843147081,0.4530855186,0.4866293252,1.5071021358,1.1148892487,0.9977678066,1.3438678356,0.4071021886,0.6207469776,-3.9458383175,1.0587399226,0.5933636703,0.260206612,1.2912996654,0.7637141572,0.0379541181,0.5958561852,0.4186471621,1.6374638892,1.2048942875,0.0560980624,1.3259651343,0.6734778476,0.2569405736,1.3489582391,1.0263462225,2.777225094,1.3024028714,0.8543198437,1.2564242468,-3.6733838778,0.2589251677,0.6514673555,0.3121010344,0.3477068125,0.9295080401,1.1402382864,0.4080497812,1.2417217171,0.9061797067,0.7310045985,0.3191188026,1.3672987555,0.2743203465,0.7640233539,1.3270312473,0.4241964023,1.3339270676,0.771723664,1.4184239051,1.0200005992,0.3721793387,1.2664542214,0.976694799,0.1931638777,2.5204921779,0.8082658043,1.1824797233,1.0237213089,0.3304210198,0.2289646074,0.563160403,0.3264033193,0.6005518947,1.3645679647,0.3709309525,0.4694120325,0.6649212132,0.0249161152,1.2298736187,1.1598418521,0.7351110574,0.4375644429,0.3433663898,-0.0062086953,0.3543749448,1.0469889292,0.337799231,0.8723735396,0.6537174851,-0.5031741491,0.7945900532,0.6115757736,0.1210760901,1.1907516101,0.1082566916,0.6458944618,0.996681243,0.3282989626,0.1865284674,1.1182905459,0.9649310468,-4.5562986411,0.5871014167,0.4929996415,0.3973229317,0.6978734971,0.6595638768,1.0093827724,1.1837942113,0.3745324567,-2.4508340774,0.7050190126,0.5668106583,0.489565763,0.6166129783,1.3753133733,0.5342061797,1.3585649582,0.3441297103,0.6285577413,0.2631081886,0.0417465489,1.3038401032,0.3478812419,0.6998450025,0.1993980934,0.3132481016,1.3353742848,0.7657259873,0.496825259,-0.5743158377,0.5236667377,0.0982279,-0.039437952,1.3923331082,1.4112396663,0.4170498289,0.7940654924,0.6009565442,0.3811479286,0.2472274552,0.7149051915,0.9723527575,1.7642233626,0.0233684218,0.6901907644,0.4526826805,1.0795997585,1.3578679212,0.2820371611,1.3118002655,0.7316041962,0.8024720027,0.8527599744,0.5695072463,0.8806801562,0.6840992326,0.1389797964,0.7837512873,0.7260891384,0.5066765129,-4.9013287027,0.4264087692,1.1187579075,0.2594854233,1.0058854821,0.0406396612,1.2563134842,1.5580591101,1.3099330799,0.178373417,1.3690694564,0.912341854,0.5029149005,1.2690820291,0.9080257953,0.4621938957,0.5181587469,1.4072307296,1.3603540129,0.9696958652,0.1687929851,0.878412959,1.3200223456,0.6955415827,0.5395372579,0.932583137,0.3063478939,0.1338434334,-0.0164011046,0.7670497837,0.0250350594,0.7547314913,1.7745943702,0.7042753554,0.1565820325,0.4631247142,1.0336601805,0.4258209732,0.5530966992,0.8768650555,1.321914369,0.6259956028,0.4678012326,1.4060836457,0.6294277406,0.3138907526,1.3001688378,0.4037067522,0.6438318734,1.0410509819,1.4092388343,0.0025914483,1.4076370737,0.8437876825,0.636610905,0.9124241935,0.9578531365,0.7549499383,0.7170808722,0.1343792076,0.0647061415,0.9576093641,-0.0360009046,1.007887554,0.6278768052,2.8414133882,0.5426138003,0.1299649682,0.3602729189,1.1599910266,0.4164894739,1.114083042,1.0590601003,0.1510674906,0.5732914311,1.2380273492,0.6126028219,1.0071494879,2.8140371371,0.3685457741,0.7225783676,1.1761029681,0.719007329,-0.1730915948,0.4940784659,0.0617787246,0.2572613267,0.3390075795,1.3806983575,1.2749444527,0.7937655529,1.382277334,0.1588266553,1.0004779918,0.7501701372,0.6619517887,0.6443728102,1.0966094489,0.0369518968,0.1022640316,0.8736274247,1.1507373557,0.1660614385,1.1065551919,1.3031775455,1.3756250494,1.0385761287,0.3564914254,0.3559448027,0.3784945693,0.8674995621,1.0091252692,0.536251036,0.4995165847,1.1005943827,0.9931698973,1.2317096187,1.2809699421,1.1777058927,0.763377665,0.3918826553,0.3296745011,1.3485887271,0.9328241801,1.0217850649,1.202882298,1.0245089607,0.1173271577,0.4611197023,1.0584705603,0.2081135869,1.1046623458,1.1323608793,1.1285522103,-0.1326891439,1.0998556292,0.5151218381,1.020100759,0.0285909504,0.7384351033,0.3215039168,0.5395299986,1.1042422358,0.3851976443,0.7712646465,0.4990377659,0.00187871,1.1288202278,0.8665423733,1.4250937451,1.1081657992,0.1276742185,0.4986944894,0.44255707,0.5716343988,1.2923789632,0.4708157694,0.0542184196,1.4265102733,0.7149845742,0.4609878233,0.8229033399,0.8794771147,1.0555987315,0.5758210732,0.7674947498,1.0574180256,0.1655029292,1.1463935805,1.0326436097,0.4246427673,1.1324062445,1.0935516749,0.702716452,0.5846759048,0.373848267,0.6474840526,0.3925258463,0.9122425845,0.3998068739,-0.515931652,0.4320798543,0.3477178462,0.5682351546,0.8213896756,1.142404569,1.3994139058,0.3046880019,1.1758579534,0.7566204586,1.3193082587,0.3065701469,0.8186138214,0.1605665482,0.963263188,0.6005548211,0.2889846048,0.4246617586,1.1408256157,0.8638178566,0.7858989724,0.9061237138,0.0705227434,1.1067038431,0.1562554054,0.1084810839,0.6139659629,0.9654899051,0.6271228096,0.3696002432,0.8452740512,0.3805879451,1.3844591327,0.5662021775,0.3173960183,0.0296063127,1.3986420473,1.0026869118,0.0368335603,0.9544888572,0.8526717259,0.79166871,1.0477194373,1.387204345,0.0607277993,0.7621081571,1.1544927561,0.5977735098,-2.3064606181,0.2496530114,0.2246155655,0.1783993133,0.4602804003,0.7591779903,0.424411239,0.4147032855,0.9100704017,0.2566904965,0.4796433166,0.261939196,1.1136658022,0.078921935,1.2558097176,0.6436426813,0.18144555,1.2600198335,0.3859672547,0.4338592145,0.4871287728,0.6314456866,0.3364463747,0.7103020299,0.5855250595,1.0652002774,0.7712753946,0.4258520357,1.1252111052,0.6968635895,1.1915606851,0.5754489149,1.0744025404,0.7454709048,0.692209832,0.6843008836,1.2038858076,1.1615265446,0.6132245128,0.8939200339,0.7904637326,0.2407892157,0.2471633856,1.0479670387,0.4032395696,0.1471731977,0.4161941786,0.6169267762,0.8640160668,0.0939000218,0.4239749568,1.0781181042,0.7140846706,1.4198722564,1.2773176528,0.200005604,0.7110073261,1.1573602176,1.3599573528,0.3634856056,1.129638577,0.6562299048,0.4532685381,1.0558861816,0.7892297509,0.7382133985,0.0652169098,1.266937474,0.2045680663,0.1708343124,0.2318332989,0.3204430409,0.9081506263,1.410635182,6.9888032151,0.4005322383,1.0533201355,0.0323681375,0.0974204065,0.9272735969,0.7414864531,1.3027212937,0.8949787625,0.3022902207,0.1162656481,0.5294494267,0.9678127282,0.2014505452,0.5365618452,1.0361547144,0.2808788551,0.9133884065,1.27726198,0.4897225389,0.2366024616,0.6234739206,0.4858774361,0.7150816024,0.8044880617,-0.0079250845,1.4307296055,0.2311564853,0.0215728601,0.6947085836,-0.4583560396,1.2611806428,0.3207682028,0.4868565761,0.7442027154,0.4359842416,1.02816277,1.1763246969,0.6601870211,0.5042943968,0.0201849641,0.719648731,0.3346223071,0.497226508,1.6737247547,0.7174178163,1.1252870159,1.2359288178,0.8345100676,0.3306986513,1.2019961724,1.3734169092,-0.8839014487,0.9859136249,0.7143759143,0.3396647145,0.0107007557,1.1624786592,0.4001707159,0.8460431138,0.4726713854,0.0394782935,0.3967457953,0.2050362399,0.1732357493,1.317580244,3.1569795883,0.480078202,0.3602467763,-2.3801762069,0.1115473039,2.2061475572,1.2370971435,0.9194734426,0.326478438,1.1609253387,1.3018115187,1.2937476709,1.2999238427,1.6874614979,0.0411270856,0.6226968092,1.2255920951,0.6259601898,0.5555290266,0.0415350007,0.1481210769,0.9660694681,0.5767931292,0.2779275701,1.0817470593,0.2159201171,0.8280304637,1.2020577718,0.1116251949,0.7950966808,1.1938816328,0.9431730629,0.2612850849,0.6956442918,0.4297439824,0.9048012787,1.2856994155,1.0343998693,0.7473537509,1.0860112333,0.9378399968,0.6220921247,0.2886436275,0.5109297023,0.699009965,0.1423714512,0.088643414,0.8475764649,1.3217745717,1.0274118568,0.0314513093,1.0315529286,0.782632137,0.6828499797,1.1122607486,0.9723784711,0.30657651,0.383958495,0.6061147755,1.1391927114,0.1754949311,1.0491889947,0.60247534,0.899251427,0.4284777073,-0.2542420361,0.6895095686,0.8718240432,-38288.6664358164,0.8669978475,0.1687611982,0.9641177524,0.1054765692,-8.7455619593,0.957935392,0.0230676251,-43738.4486157862,0.1038760016,8.7340472811,-20.9624827766,0.8886928455,0.0744551801,0.4431263901,0.9727871648,0.3916972297,0.4943615692,0.3056590876,-4183.8644533228,1.0847578836,0.0099616048,-0.4622500508,0.1222861294,0.8142901953,0.2649987804,3.4574147739,0.7295422649,0.8187205922,0.136652634,-1.7936236446,0.3138714629,64.4255977765,0.6735668143,0.7333023331,0.2554814785,0.8116083381,0.9200622815,-1.3506107908,0.0419932436,0.7962073592,0.3276454857,0.2432862811,0.5088695577,0.9054479372,0.5408981987,0.2903012973,0.8186443481,0.0571328154,-0.0999956365,0.4138270406,11.6279360519,-0.3747624552,-0.861675095,0.7704837913,1.0777064701,0.1600120755,0.5583117129,0.5962327637,0.5873306137,0.5547978225,0.0915179767,0.4258704093,-0.8279038499,0.6747498207,1.6385958255,0.0091847653,0.927086105,1.005520209,1.0067109669,0.5177720877,0.2761739296,0.6001167893,0.2428918204,-2.9115996511,0.8413487742,0.2923657099,-5459.8708031115,0.5033763066,0.2019604068,0.5862317841,0.6536804977,0.4288952733,0.3066335907,2008.393182927,-264.2342071541,0.3384122431,0.215477258,0.9134247971,0.8792883332,0.7428808583,0.1653621419,0.8462976668,-0.4766887401,0.1481566184,13211.2940884709,-6472.3573921028,0.526308256,0.7050199168,-1.2008480424,1.0445636559,-0.7057355414,1.0001856595,0.7183437678,0.1804231664,0.0134511518,0.8753963039,0.2629947318,0.0470279772,3.7069603705,0.5841593361,0.2026474997,0.902868066,0.8589821849,-0.1328467447,1.0694670081,0.1011271378,0.6371733025,-1.1099131267,0.6381146108,0.4358703185,0.5602651582,0.2916938032,0.1697953035,1.8189921888,0.1879684324,0.1339031593,0.9078705232,0.3831809497,-0.7915643948,0.1290799402,5613.200797871,-1173.4676391238,0.2738121369,0.4036701808,0.3764361981,1439.1323000532,0.7319431402,-0.2205785486,2.6583480433,-8601.094482621,1.2506466136,0.1917493152,0.8043588454,0.6572829835,0.4459622347,0.7564369249,0.4119928674,0.9360413052,1.0461926792,0.0737305038,0.882658919,-0.1496315863,0.7903733942,0.3253963134,1.0034650896,0.3015700005,0.6104171915,0.5405615459,0.2334995998,1.0317583799,0.2670453762,0.38764763,0.7638441976,0.7760901871,-0.2291266958,0.5079522121,0.7185183787,0.7995581756,4.1521506557,0.3842028856,0.365411392,0.4791810515,0.7972109373,0.2520397555,0.1396332111,-3030.3296158541,-0.0891742468,0.6339935839,0.0723022897,0.3636697149,0.1079144298,0.8258005092,18444.5887657222,-3414.8916669867,0.1605542255,0.2212772966,0.8263385845,0.6528985934,0.527386595,-0.1021198136,-0.0625302915,-0.0247301934,0.1481381704,0.3403945423,0.4996029684,0.5155916442,0.718158348,1.089614241,0.6503205937,1084.2122331133,0.9463327992,104.7757797665,0.7913683332,1.3839772067,0.4507508982,-0.5900199296,0.4299312537,0.2668113338,0.6435224226,0.7659615261,1.1146220311,0.2070907566,0.1903532018,0.7156593576,0.722811687,-0.0660212917,-0.7145987778,0.8454243013,0.0026823443,1.0940565274,0.3260043452,0.3943787194,0.4214581791,16.7913133388,0.5727132032,0.1106601338,1.1230251531,-496.2580570465,0.1684436695,0.6139507963,0.6881873168,1.0836116021,0.1082040557,0.3248346637,-0.0181014354,0.2086340988,0.2817753497,0.9397678149,-1.694831224,0.7964642785,0.528143017,0.7987262855,0.0015134598,0.5150618528,0.1515411457,0.3318195054,0.6031589067,0.5717609468,1.1048733285,-0.229421656,0.5358152038,0.6046671427,0.996595061,0.2873208156,0.5479670977,0.4253743755,0.1572946991,0.475067558,0.6292646663,0.7096125089,-0.1743503551,0.3397678939,0.1513033273,0.7403684781,0.7692810486,1.1036113684,0.3430569772,0.6031850548,0.435126956,1.2569723698,0.8523898366,0.6767842454,0.8134685941,-0.0114281591,0.0894395202,0.3296179338,1.0453342041,0.0310541735,2.5039146836,0.632175621,0.6126516057,0.5706084872,0.1001021749,1.0818814157,0.2214513325,0.6431550008,0.6220687656,0.8102991591,0.0913014132,1.0433226175,0.5696609219,0.0948225472,1.1263461421,-14.3133846169,0.031063022,0.7754245121,0.6281944238,0.1109869588,1.068782874,-0.4669286064,0.8239382176,0.971477412,0.9443664233,-0.0392039745,0.4460385899,0.3565240694,0.9103726004,0.288873567,0.6443863737,1.2990476491,0.013726705,-0.0191689855,0.350352991,0.5204367079,0.1984400728,-0.7144711487,0.364985344,0.9789906024,-5244.6675514987,0.778792622,0.7446193638,0.745671578,0.5581532378,0.8143259272,0.848795946,0.4087221133,-4803.9642639233,0.8866476834,1.0774312744,0.0240938873,-1.8636436635,-0.5497793955,0.9947306432,0.9157748752,0.1027764484,0.5710124036,1.016274715,-0.9895395626,0.8690900412,0.1542397412,0.5536763917,0.908045612,0.4141641298,0.4257139952,1.5134316481,1.0391558836,0.9372795198,0.9362348025,-2.9411289612,1.050884719,0.7219189629,0.395128177,1.1025606264,0.9815459218,0.6199937319,0.4402942358,1.0041771609,0.7430758138,0.9160534807,0.0356885622,0.0376021931,0.5850179566,0.8494537862,0.7929023132,0.3110414235,0.1464407136,0.8043383762,1.0726713777,1.0286643738,0.6059954696,-305.8140237283,0.2201848841,8.2247000429,-25.9124153563,0.2129281477,0.1233613111,0.2475828632,0.5956193742,1.0324691332,0.630575703,0.945370052,-20715.1998211427,0.972421271,0.7384060096,0.821442188,0.6854773399,0.1163834901,0.942152355,0.0371525083,1.0285006047,0.8408157936,0.9223388179,-7.3537786152,0.7809357009,0.9963955624,0.2927545352,0.6252317257,0.30644308,0.9703102628,0.2846463663,0.9894181688,0.9948690182,0.3481862612,-4.8135832617,0.8591084255,-1.9289107266,0.0880454124,0.8554395886,0.9304132279,-3.2273136833,0.8570142343,-0.2767428691,0.0512466596,-0.9907526079,-691.4869899831,0.3065380344,1.0292257908,0.173669424,0.7659139038,1.0491726793,0.5129003183,0.5351527896,0.0369164713,0.0343381954,-0.5315541362,-0.7806575552,0.1033441867,0.1111697036,-0.4018550114,0.4159271106,-0.1361316753,0.2837883922,0.9284380425,0.5177437645,0.7446619058,1.1885444055,-19242.6813726737,0.9655979956,0.3796875312,0.6301558064,0.1735216988,0.699802307,0.5467393994,1893.9915050887,0.0463932852,0.3404531946,0.4070381199,0.5463196485,0.5612403976,0.873736611,0.0161679154,0.5666752728,1.209203103,0.7989006942,0.8342198529,-464.3301153606,-136.4521229962,0.4832883139,-4657.6217179767,0.5650182922,0.8656204424,0.3399726126,1.0402367617,0.5778186142,0.767123654,0.0478425816,1.1652808976,0.4109717944,0.1412334512,0.9493490933,0.6620129642,-0.0245882958,0.2499707223,0.0611480265,0.0333253886,0.9218643583,0.112625956,0.108814622,0.8887798532,0.1002750352,-0.6127596743,0.6144136489,0.5263830454,0.5180233232,0.7137442288,0.7695934143,0.9767084497,1.2384104479,0.8220757261,0.0537421049,-0.0264534038,-0.3911564022,0.4057268119,0.4287255385,0.7775261829,0.7340566768,0.6359933636,0.4606769237,-1.2044319185,0.697694211,0.610561131,0.2999913025,-1.1014851284,0.3692839617,0.6496485632,0.645791378,0.8850184263,0.675397767,1.1368712958,0.2284612973,0.9116001214,0.8893498747,0.1894517389,-0.899990996,0.6484435957,1.0071967253,0.719190644,0.5671023895,0.0452553029,0.2273547663,630.6834037971,0.1764906956,0.5239274559,0.4958505559,-992.2891020646,1.1665500995,0.324236221,0.9107504041,0.9743999135,0.2646680315,0.1787098754,1.9970189344,0.3116870798,0.829834671,0.5587369333,0.0299788466,-0.080504205,0.7263702594,0.9111792714,0.1104255651,1.0082710618,0.2042420153,0.9283080951,0.6258523251,0.2549596964,0.1395875029,-0.5037004996,0.8312336625,0.8742967626,0.3108285749,1.0282307809,-0.3400399049,1.0108728046,3.9161439449,0.4842876083,0.6281020739,2.4016312153,0.3814068397,0.6860311755,2.4167884021,-22206.7381860512,0.9327852567,0.1251820655,0.0353757628,0.9378511806,0.5408791878,0.6605321483,4.2256222118,-59924.5327645088,0.2131394298,0.9173493317,-4.5536517659,0.793116012,-2.9113493484,0.2425127814,2.0386301257,0.5773993673,0.1746674779,2.064341818,-3516.9997210296,0.9547892229,0.8983158715,0.03256148,0.9873028092,0.3424079614,0.7568849606,0.3520944864,0.8128604082,0.313193254,0.276934857,-0.8111523658,0.9813379662,0.1467469424,0.1015252334,0.403478098,0.4413433794,0.3923436477,0.5841954815,-1.0846525898,0.0173449675,0.1869153021,-0.2317638721,0.4757024017,1.1048555944,0.9944972623,0.697031137,0.4324011803,1.208201352,0.8413435693,0.2327297387,0.8545415844,0.218226797,0.578418629,0.5712106839,0.7456889266,-32945.0786663347,0.4563312999,0.2472323137,4.1044372697,0.8181215355,1.0103644989,0.7552230744,1.0124784028,-47777.7567305922,0.0910753797,0.7654100991,0.5567679599,0.0938720547,0.3783409587,0.8734145479,0.4532477773,0.532577808,0.8080732645,0.5217679109,-1.047703315,0.9943490829,0.7419594466,0.6210085601,0.4443139348,0.322614806,2.2059916232,0.3512641788,1.1020545079,0.6449852187,0.4420432666,-0.5923459829,0.7027433915,0.243451848,1.0129162,0.405580079,0.7004128475,0.2097900112,3.3623449647,0.8917277941,0.6513714195,1.0084100821,0.0647314129,0.1795321759,1276.6410532198,-12027.6095492338,0.7466687199,-0.0160902691,0.4085906203,4.2956355422,0.2903133586,0.4188620596,1.5241211108,-20269.8640815808,0.6194713981,0.0291496538,-0.5597930807,0.4107606019,0.6359926971,0.858543469,0.2605680584,-964.7247077706,0.5921288152,22626.0336502837,-22371.7575521269,0.4067021126,0.4788021252,0.907675685,0.7867360128,1.0434958514,0.7474118204,2.9317319069,0.8288626158,0.0175851413,0.4355458374,-5404.2130992278,0.7997634946,1.048870733,0.801841406,0.1994951353,0.6513692709,0.2499854015,0.2277747371,0.6232321848,0.1553686631,0.4716997094,0.4130179986,0.2128152181,1.0390946297,1.0162560157,0.6484726547,0.6538243417,2.1610598539,-0.8731951083,0.152599595,0.4595285737,0.2526178516,0.2483066568,0.0334248688,1.6974252702,0.4716977057,0.6472211367,0.486592279,1.0150060542,0.4651509367,0.9592166578,0.2970932338,0.7181720702,-1.1059545118,0.7254860348,0.2002761358,0.0021563948,0.2297233324,0.0137707643,0.316824495,0.7376798155,0.0214743335,0.9932327692,0.3939574707,1.0029871615,0.7163610177,0.8620549928,0.5470378481,0.4069931927,-5.6778902136,-157.4208593635,4010.5409919204,0.7667150589,0.606850175,1.0898793104,-15317.6981889083,0.2930477289,0.9297175357,-27355.8326040367,0.8922187957,0.3741479932,0.9707968725,0.3791674795,0.5371932123,0.1788006699,2.0293938044,-21797.524808773,0.8327776652,0.4142609788,0.9691278843,0.6938126406,1.0589134794,0.5017154684,0.6162332084,0.2910350553,0.5913919853,0.2842515481,0.5502568065,0.2040767825,0.2919933995,0.7991722334,0.6937427978,0.1231315215,1.2896902208,0.8390978339,0.9845101234,1.0787560428,0.4065492076,0.4262289785,0.3450092698,1.1008871886,0.1909476034,0.2107780772,0.3760723598,1.1633845326,0.352649078,0.0776203809,1.0806813983,1.021562114,-0.647099773,1.1125845385,0.4061911694,0.8214619815,0.5937564894,0.0431271217,0.065376129,1.2491328972,0.8141726831,0.9417950452,0.0558490499,0.9036098415,1.0325191399,0.8574995161,-0.131282255,0.4073039873,0.7657647604,0.425654565,0.9690614721,1.0388207189,0.9404588374,0.7226622575,-1.0163088042,-1856.9861942827,542.3809956986,-39.0093838993,0.3345088065,0.1816732726,0.2890850812,0.6470619561,-54.3209255718,0.5976007147,5898.7487312591,-0.6275239424,0.5951409033,0.6196013243,0.8588706534,0.0923904557,1.0165603056,0.6380809891,-0.126192772,0.4059450508,0.2590043774,0.0166851007,-1.0170332778,0.9350492773,0.0610024555,0.4647249655,0.5622271644,0.2495708976,0.0959837211,0.2844429331,0.9907979056,0.3317336496,0.264420891,0.9336828913,0.8559339821,0.1761679447,0.0594896442,1.0020890936,0.3910945276,0.400621901,0.3181503145,-5.1011747337,0.0482888345,0.4670760865,-5.2269780491,1.5121833434,0.7307459524,0.2855970489,0.7415165186,0.5607760613,0.2602826684,0.2248974148,-0.315987635,0.3170186414,0.2906291971,0.6094246111,0.3680341967,9183.1674796728,-1059.3337421056,0.2294270479,1.0265903137,222.2360576522,0.1371098036,0.8559839975,1.7243653916,0.4938504024,-2296.1437670324,0.7060454782,0.2818124409,1.5315507682,0.4992806635,0.1412964332,0.9212656109,0.4311184533,1.0005146238,0.1869914471,-0.5757724833,1.0909463336,0.0432680441,0.9617121476,0.5908202836,0.1768965993,0.6520793447,1.0464055215,0.1602303617,-0.0308580124,0.5636154465,0.9074199352,-0.7966052563,0.6684388244,27.504829652,-0.2920595622,0.5623544571,0.8878868789,13.3656514925,0.3864842449,0.8912350689,0.0079598073,0.0617740438,-1.060369814,0.7388762476,0.0404488512,0.0052333849,0.7213481394,0.5862333772,0.5554813579,1.0585990602,0.1577893795,0.5858014362,0.2727737319,-13172.8004273631,0.3372133562,0.9020285441,-18345.2227499689,0.2704342844,0.0690479705,0.240291652,0.9700651759,0.5421711097,1.0382546355,1.4015165151,-28415.3142000309,0.4489190291,0.5867809256,0.9968807302,0.2941297582,-0.0553015447,0.6330745753,0.5803913018,0.0440687568,0.4871232248,0.8867838542,-0.4754920209,0.6727649451,0.9552399904,0.8518715861,0.3414043264,10.4813796173,0.4735794164,0.1574052257,-0.2143643955,0.9254558784,0.653161481,0.0494576344,0.1444300777,0.547870472,0.3717193501,0.1560087597,1.1454032424,0.0893437445,0.0492113353,0.4853233506,1.4971267696,0.2397032091,-0.2863793778,0.5280525644,0.8855339083,0.1458339041,1.0718109076,0.5226187436,1.1043878742,0.7115301018,0.8592471559,0.163589986,1.0923803322,-10573.9827473046,0.642489999,0.7090018952,0.8537657624,0.0666975163,0.9510001088,4.6284814205,0.0933785769,0.5130047139,0.7025834361,0.2824234803,-4.5834519269,1.0209373991,0.9287502286,0.9627170233,1.0545101404,0.60333251,1.9305914516,0.1868783784,0.4803357512,0.2308916946,1.0661045174,-0.7076852298,0.4787396885,0.4497044316,0.978374751,0.4446192533,0.9100472502,1.0942592638,0.8350299981,0.3671485534,0.9968935478,0.3654852374,-1.035569883,0.8042035658,0.4200962188,0.7317770746,0.0508043484,0.2449985032,0.5174751627,0.1300134054,-1.0294794206,0.6374178741,3.1072322101,-1.9120405334,0.625798919,1.1432390377,0.766631096,0.4608353703,0.2870627171,0.6774974176,0.0065397033,0.6516950842,0.9396474853,0.4236129072,-0.4983618066,0.2262448721,0.1785902499,0.7904536728,0.4349493784
   0.2075115171,0.9421919532,0.0402890213,-2.7782859593,0.495190413,1.121595312,-2846.4350888778,0.1473487011,0.3649990273,0.8053028008,0.7532831441,0.1621065587,0.403972938,0.1705650037,0.5366588003,0.0301755712,0.7054088762,-0.1823121542,0.7859985183,0.2586083639,0.6594864239,1.0643810801,1.335225895,0.488599396,0.2462485152,0.2165767392,0.7540851011,0.6554760953,-0.3393677326,0.2284428429,1.7813282041,0.7950161251,1.0104849047,0.9555651717,0.8390797343,0.377809303,0.1332401051,0.1542537411,0.6006448765,-0.4844553239,0.2853165198,0.8486225952,0.0672030685,0.8962627222,0.9154343471,2.0564079536,0.507009085,0.7794802005,0.4794176931,0.790851186,1.0140424766,1.0334956684,0.1078702825,0.9143903083,0.8942481657,0.8162832246,0.6972847774,0.3739591186,0.3200919084,1.0985244176,0.0944135883,0.5626899453
##end
biasActivation=1,1,1
[BASIC:ACTIVATION]
"org.encog.engine.network.activation.ActivationSigmoid"
"org.encog.engine.network.activation.ActivationTANH"
"org.encog.engine.network.activation.ActivationSigmoid"
